-14930.3
-0.0221924
-0.00760991
-0.00336416
-0.00142082
-0.000330768
0.000341926
0.000775157
0.00105504
0.00122747
0.00131856
0.00134407
0.0013142
0.00123616
0.0011155
0.000956924
0.000764601
0.000542398
0.000293957
2.27252e-05
-0.00026803
-0.000575232
-0.000895997
-0.00122764
-0.00156769
-0.00191387
-0.0022641
-0.0026165
-0.00296938
-0.0033212
-0.00367061
-0.00401639
-0.00435748
-0.00469295
-0.005022
-0.00534393
-0.00565817
-0.00596422
-0.00626166
-0.00655018
-0.0068295
-0.00709942
-0.00735978
-0.00761049
-0.00785149
-0.00808274
-0.00830429
-0.00851616
-0.00871843
-0.00891122
-0.00909462
-0.00926878
-0.00943386
-0.00959001
-0.00973741
-0.00987624
-0.0100067
-0.010129
-0.0102433
-0.0103499
-0.0104489
-0.0105405
-0.010625
-0.0107026
-0.0107735
-0.0108379
-0.0108959
-0.0109479
-0.010994
-0.0110344
-0.0110693
-0.0110989
-0.0111234
-0.0111429
-0.0111577
-0.011168
-0.0111738
-0.0111754
-0.011173
-0.0111666
-0.0111566
-0.0111429
-0.0111258
-0.0111054
-0.0110819
-0.0110553
-0.0110259
-0.0109937
-0.0109588
-0.0109215
-0.0108818
-0.0108398
-0.0107957
-0.0107494
-0.0107013
-0.0106512
-0.0105994
-0.010546
-0.0104909
-0.0104344
-0.0103764
-0.0103171
-0.0102566
-0.0101949
-0.0101321
-0.0100682
-0.0100033
-0.00993757
-0.00987096
-0.00980355
-0.0097354
-0.00966656
-0.00959709
-0.00952703
-0.00945644
-0.00938535
-0.00931381
-0.00924187
-0.00916955
-0.00909691
-0.00902397
-0.00895077
-0.00887735
-0.00880373
-0.00872995
-0.00865604
-0.00858202
-0.00850792
-0.00843376
-0.00835958
-0.00828538
-0.0082112
-0.00813705
-0.00806296
-0.00798894
-0.00791501
-0.00784119
-0.00776749
-0.00769393
-0.00762052
-0.00754728
-0.00747422
-0.00740135
-0.00732869
-0.00725624
-0.00718401
-0.00711203
-0.00704028
-0.00696879
-0.00689756
-0.0068266
-0.00675591
-0.00668551
-0.00661539
-0.00654557
-0.00647605
-0.00640684
-0.00633794
-0.00626935
-0.00620108
-0.00613314
-0.00606552
-0.00599823
-0.00593127
-0.00586465
-0.00579837
-0.00573243
-0.00566683
-0.00560157
-0.00553666
-0.0054721
-0.00540789
-0.00534403
-0.00528053
-0.00521738
-0.00515458
-0.00509214
-0.00503005
-0.00496831
-0.00490693
-0.0048459
-0.00478523
-0.00472491
-0.00466494
-0.00460532
-0.00454606
-0.00448715
-0.00442858
-0.00437037
-0.00431252
-0.00425501
-0.00419784
-0.00414103
-0.00408456
-0.00402843
-0.00397265
-0.00391721
-0.00386211
-0.00380735
-0.00375293
-0.00369884
-0.00364509
-0.00359168
-0.00353859
-0.00348584
-0.00343342
-0.00338132
-0.00332955
-0.00327811
-0.00322699
-0.00317619
-0.00312571
-0.00307555
-0.00302571
-0.00297618
-0.00292697
-0.00287807
-0.00282948
-0.0027812
-0.00273322
-0.00268556
-0.00263819
-0.00259113
-0.00254437
-0.00249791
-0.00245174
-0.00240587
-0.0023603
-0.00231502
-0.00227003
-0.00222532
-0.00218091
-0.00213678
-0.00209293
-0.00204937
-0.00200608
-0.00196308
-0.00192035
-0.0018779
-0.00183572
-0.00179382
-0.00175219
-0.00171082
-0.00166972
-0.00162889
-0.00158832
-0.00154802
-0.00150797
-0.00146819
-0.00142866
-0.00138939
-0.00135037
-0.00131161
-0.0012731
-0.00123484
-0.00119682
-0.00115906
-0.00112154
-0.00108426
-0.00104722
-0.00101043
-0.000973873
-0.000937556
-0.000901473
-0.000865627
-0.000830013
-0.000794631
-0.000759479
-0.000724556
-0.000689861
-0.000655391
-0.000621146
-0.000587124
-0.000553325
-0.000519747
-0.00048639
-0.000453251
-0.000420328
-0.000387621
-0.000355128
-0.000322846
-0.000290776
-0.000258915
-0.000227263
-0.000195816
-0.000164576
-0.000133539
-0.000102705
-7.20723e-05
-4.16398e-05
-1.14064e-05
1.86303e-05
4.84701e-05
7.81153e-05
0.000107567
0.000136826
0.000165894
0.000194772
0.00022346
0.000251962
0.000280277
0.000308408
0.000336354
0.000364117
0.000391699
0.0004191
0.000446322
0.000473367
0.000500234
0.000526925
0.000553442
0.000579786
0.000605956
0.000631956
0.000657786
0.000683446
0.000708938
0.000734263
0.000759422
0.000784417
0.000809247
0.000833916
0.000858422
0.000882768
0.000906955
0.000930983
0.000954854
0.000978568
0.00100213
0.00102553
0.00104878
0.00107188
0.00109483
0.00111763
0.00114027
0.00116277
0.00118513
0.00120733
0.00122939
0.00125131
0.00127308
0.00129471
0.00131619
0.00133754
0.00135875
0.00137981
0.00140074
0.00142153
0.00144219
0.00146271
0.00148309
0.00150334
0.00152346
0.00154345
0.0015633
0.00158303
0.00160263
0.00162209
0.00164143
0.00166064
0.00167973
0.00169869
0.00171753
0.00173624
0.00175483
0.0017733
0.00179165
0.00180987
0.00182798
0.00184597
0.00186384
0.00188159
0.00189923
0.00191675
0.00193415
0.00195144
0.00196862
0.00198569
0.00200264
0.00201948
0.00203621
0.00205283
0.00206934
0.00208575
0.00210204
0.00211823
0.00213431
0.00215029
0.00216616
0.00218193
0.00219759
0.00221315
0.00222861
0.00224397
0.00225922
0.00227438
0.00228944
0.00230439
0.00231925
0.00233402
0.00234868
0.00236325
0.00237772
0.0023921
0.00240638
0.00242057
0.00243467
0.00244867
0.00246258
0.0024764
0.00249013
0.00250377
0.00251732
0.00253078
0.00254415
0.00255744
0.00257063
0.00258374
0.00259677
0.00260971
0.00262256
0.00263533
0.00264801
0.00266062
0.00267313
0.00268557
0.00269793
0.0027102
0.00272239
0.00273451
0.00274654
0.00275849
0.00277037
0.00278217
0.00279389
0.00280553
0.0028171
0.00282859
0.00284
0.00285135
0.00286261
0.0028738
0.00288492
0.00289597
0.00290694
0.00291784
0.00292867
0.00293943
0.00295011
0.00296073
0.00297128
0.00298176
0.00299217
0.00300251
0.00301278
0.00302298
0.00303312
0.00304319
0.0030532
0.00306314
0.00307301
0.00308282
0.00309257
0.00310225
0.00311187
0.00312142
0.00313092
0.00314035
0.00314971
0.00315902
0.00316826
0.00317745
0.00318657
0.00319564
0.00320464
0.00321359
0.00322247
0.0032313
0.00324007
0.00324879
0.00325744
0.00326604
0.00327458
0.00328307
0.0032915
0.00329988
0.0033082
0.00331646
0.00332467
0.00333283
0.00334093
0.00334899
0.00335698
0.00336493
0.00337282
0.00338066
0.00338845
0.00339619
0.00340388
0.00341152
0.00341911
0.00342665
0.00343413
0.00344157
0.00344896
0.00345631
0.0034636
0.00347085
0.00347805
0.0034852
0.0034923
0.00349936
0.00350637
0.00351334
0.00352026
0.00352713
0.00353396
0.00354075
0.00354749
0.00355419
0.00356084
0.00356745
0.00357401
0.00358054
0.00358702
0.00359346
0.00359985
0.0036062
0.00361252
0.00361879
0.00362502
0.00363121
0.00363735
0.00364346
0.00364953
0.00365556
0.00366155
0.0036675
0.00367341
0.00367928
0.00368511
0.00369091
0.00369667
0.00370239
0.00370807
0.00371372
0.00371932
0.0037249
0.00373043
0.00373593
0.00374139
0.00374682
0.00375221
0.00375757
0.00376289
0.00376818
0.00377343
0.00377865
0.00378383
0.00378898
0.0037941
0.00379918
0.00380423
0.00380925
0.00381423
0.00381918
0.0038241
0.00382899
0.00383384
0.00383867
0.00384346
0.00384822
0.00385295
0.00385765
0.00386231
0.00386695
0.00387156
0.00387614
0.00388068
0.0038852
0.00388969
0.00389415
0.00389858
0.00390298
0.00390735
0.0039117
0.00391601
0.0039203
0.00392456
0.00392879
0.00393299
0.00393717
0.00394132
0.00394544
0.00394954
0.00395361
0.00395765
0.00396167
0.00396566
0.00396962
0.00397356
0.00397747
0.00398136
0.00398522
0.00398906
0.00399287
0.00399666
0.00400042
0.00400416
0.00400787
0.00401156
0.00401523
0.00401887
0.00402249
0.00402608
0.00402965
0.0040332
0.00403672
0.00404023
0.00404371
0.00404716
0.0040506
0.00405401
0.0040574
0.00406077
0.00406411
0.00406744
0.00407074
0.00407402
0.00407728
0.00408052
0.00408374
0.00408694
0.00409011
0.00409327
0.0040964
0.00409952
0.00410261
0.00410569
0.00410874
0.00411178
0.00411479
0.00411779
0.00412077
0.00412372
0.00412666
0.00412958
0.00413248
0.00413536
0.00413823
0.00414107
0.0041439
0.0041467
0.00414949
0.00415227
0.00415502
0.00415776
0.00416047
0.00416317
0.00416586
0.00416852
0.00417117
0.0041738
0.00417642
0.00417901
0.00418159
0.00418416
0.00418671
0.00418924
0.00419175
0.00419425
0.00419673
0.0041992
0.00420165
0.00420408
0.0042065
0.00420891
0.00421129
0.00421367
0.00421602
0.00421837
0.00422069
0.00422301
0.0042253
0.00422759
0.00422985
0.00423211
0.00423434
0.00423657
0.00423878
0.00424097
0.00424316
0.00424533
0.00424748
0.00424962
0.00425174
0.00425386
0.00425596
0.00425804
0.00426011
0.00426217
0.00426422
0.00426625
0.00426827
0.00427028
0.00427227
0.00427425
0.00427622
0.00427818
0.00428012
0.00428205
0.00428397
0.00428588
0.00428777
0.00428965
0.00429152
0.00429338
0.00429522
0.00429706
0.00429888
0.00430069
0.00430249
0.00430428
0.00430605
0.00430782
0.00430957
0.00431132
0.00431305
0.00431477
0.00431648
0.00431818
0.00431986
0.00432154
0.00432321
0.00432486
0.00432651
0.00432814
0.00432977
0.00433138
0.00433298
0.00433458
0.00433616
0.00433773
0.0043393
0.00434085
0.00434239
0.00434393
0.00434545
0.00434696
0.00434847
0.00434996
0.00435145
0.00435292
0.00435439
0.00435585
0.0043573
0.00435873
0.00436016
0.00436158
0.004363
0.0043644
0.00436579
0.00436718
0.00436855
0.00436992
0.00437128
0.00437263
0.00437397
0.00437531
0.00437663
0.00437795
0.00437925
0.00438055
0.00438185
0.00438313
0.0043844
0.00438567
0.00438693
0.00438818
0.00438943
0.00439066
0.00439189
0.00439311
0.00439432
0.00439553
0.00439672
0.00439791
0.0043991
0.00440027
0.00440144
0.0044026
0.00440375
0.0044049
0.00440604
0.00440717
0.00440829
0.00440941
0.00441052
0.00441162
0.00441272
0.00441381
0.00441489
0.00441596
0.00441703
0.0044181
0.00441915
0.0044202
0.00442124
0.00442228
0.00442331
0.00442433
0.00442535
0.00442636
0.00442736
0.00442836
0.00442935
0.00443034
0.00443132
0.00443229
0.00443326
0.00443422
0.00443517
0.00443612
0.00443706
0.004438
0.00443893
0.00443986
0.00444078
0.00444169
0.0044426
0.0044435
0.0044444
0.00444529
0.00444618
0.00444706
0.00444793
0.0044488
0.00444967
0.00445053
0.00445138
0.00445223
0.00445307
0.00445391
0.00445474
0.00445557
0.00445639
0.00445721
0.00445802
0.00445883
0.00445963
0.00446043
0.00446122
0.00446201
0.00446279
0.00446357
0.00446434
0.00446511
0.00446587
0.00446663
0.00446739
0.00446814
0.00446888
0.00446962
0.00447036
0.00447109
0.00447181
0.00447254
0.00447325
0.00447397
0.00447468
0.00447538
0.00447608
0.00447678
0.00447747
0.00447816
0.00447884
0.00447952
0.00448019
0.00448087
0.00448153
0.0044822
0.00448285
0.00448351
0.00448416
0.00448481
0.00448545
0.00448609
0.00448672
0.00448735
0.00448798
0.0044886
0.00448922
0.00448984
0.00449045
0.00449106
0.00449167
0.00449227
0.00449286
0.00449346
0.00449405
0.00449463
0.00449522
0.0044958
0.00449637
0.00449695
0.00449751
0.00449808
0.00449864
0.0044992
0.00449976
0.00450031
0.00450086
0.0045014
0.00450194
0.00450248
0.00450302
0.00450355
0.00450408
0.00450461
0.00450513
0.00450565
0.00450617
0.00450668
0.00450719
0.0045077
0.0045082
0.0045087
0.0045092
0.0045097
0.00451019
0.00451068
0.00451116
0.00451165
0.00451213
0.00451261
0.00451308
0.00451355
0.00451402
0.00451449
0.00451495
0.00451541
0.00451587
0.00451633
0.00451678
0.00451723
0.00451768
0.00451812
0.00451856
0.004519
0.00451944
0.00451987
0.0045203
0.00452073
0.00452116
0.00452158
0.00452201
0.00452242
0.00452284
0.00452325
0.00452367
0.00452408
0.00452448
0.00452489
0.00452529
0.00452569
0.00452609
0.00452648
0.00452687
0.00452726
0.00452765
0.00452804
0.00452842
0.0045288
0.00452918
0.00452956
0.00452993
0.0045303
0.00453067
0.00453104
0.00453141
0.00453177
0.00453213
0.00453249
0.00453285
0.0045332
0.00453356
0.00453391
0.00453426
0.0045346
0.00453495
0.00453529
0.00453563
0.00453597
0.00453631
0.00453664
0.00453698
0.00453731
0.00453764
0.00453797
0.00453829
0.00453861
0
0

