-14930.3
-0.0221924
-0.00761116
-0.00337153
-0.0014446
-0.000386526
0.000235293
0.000598288
0.000790863
0.000863208
0.000846745
0.000762739
0.000626481
0.000449479
0.000240686
7.22587e-06
-0.000245148
-0.000511741
-0.000788695
-0.00107283
-0.00136152
-0.00165258
-0.00194421
-0.00223494
-0.00252353
-0.00280898
-0.00309047
-0.00336734
-0.00363905
-0.00390519
-0.00416542
-0.00441949
-0.00466722
-0.00490849
-0.0051432
-0.00537132
-0.00559284
-0.00580777
-0.00601615
-0.00621804
-0.00641351
-0.00660265
-0.00678556
-0.00696234
-0.0071331
-0.00729794
-0.00745698
-0.00761034
-0.00775813
-0.00790048
-0.0080375
-0.0081693
-0.00829602
-0.00841776
-0.00853464
-0.00864677
-0.00875426
-0.00885723
-0.00895578
-0.00905002
-0.00914005
-0.00922598
-0.00930789
-0.00938589
-0.00946007
-0.00953052
-0.00959734
-0.00966061
-0.00972042
-0.00977685
-0.00982998
-0.0098799
-0.00992668
-0.00997039
-0.0100111
-0.0100489
-0.0100839
-0.0101161
-0.0101456
-0.0101724
-0.0101967
-0.0102184
-0.0102377
-0.0102546
-0.0102691
-0.0102814
-0.0102915
-0.0102993
-0.0103051
-0.0103088
-0.0103105
-0.0103102
-0.010308
-0.010304
-0.0102981
-0.0102905
-0.0102811
-0.01027
-0.0102573
-0.010243
-0.0102272
-0.0102098
-0.0101909
-0.0101706
-0.0101489
-0.0101258
-0.0101013
-0.0100756
-0.0100486
-0.0100204
-0.00999098
-0.0099604
-0.00992868
-0.00989585
-0.00986195
-0.00982701
-0.00979106
-0.00975411
-0.00971621
-0.00967738
-0.00963764
-0.00959702
-0.00955555
-0.00951325
-0.00947015
-0.00942627
-0.00938163
-0.00933626
-0.00929018
-0.00924341
-0.00919598
-0.0091479
-0.00909919
-0.00904988
-0.00899999
-0.00894953
-0.00889853
-0.008847
-0.00879497
-0.00874244
-0.00868944
-0.00863599
-0.0085821
-0.00852778
-0.00847306
-0.00841796
-0.00836247
-0.00830663
-0.00825045
-0.00819394
-0.00813711
-0.00807998
-0.00802256
-0.00796488
-0.00790693
-0.00784873
-0.0077903
-0.00773165
-0.00767279
-0.00761373
-0.00755448
-0.00749506
-0.00743548
-0.00737574
-0.00731586
-0.00725585
-0.00719571
-0.00713547
-0.00707512
-0.00701468
-0.00695416
-0.00689357
-0.00683291
-0.00677219
-0.00671143
-0.00665063
-0.0065898
-0.00652894
-0.00646808
-0.0064072
-0.00634633
-0.00628546
-0.00622461
-0.00616378
-0.00610298
-0.00604222
-0.0059815
-0.00592083
-0.00586021
-0.00579965
-0.00573917
-0.00567875
-0.00561842
-0.00555817
-0.00549801
-0.00543796
-0.005378
-0.00531815
-0.00525841
-0.00519879
-0.00513929
-0.00507991
-0.00502066
-0.00496154
-0.00490256
-0.00484373
-0.00478504
-0.00472649
-0.00466811
-0.00460987
-0.0045518
-0.00449389
-0.00443615
-0.00437858
-0.00432119
-0.00426397
-0.00420693
-0.00415008
-0.00409341
-0.00403692
-0.00398063
-0.00392454
-0.00386864
-0.00381294
-0.00375744
-0.00370214
-0.00364705
-0.00359217
-0.0035375
-0.00348304
-0.00342879
-0.00337476
-0.00332095
-0.00326736
-0.00321399
-0.00316084
-0.00310792
-0.00305522
-0.00300275
-0.00295051
-0.00289849
-0.00284671
-0.00279517
-0.00274385
-0.00269277
-0.00264193
-0.00259132
-0.00254095
-0.00249082
-0.00244093
-0.00239128
-0.00234187
-0.00229271
-0.00224378
-0.0021951
-0.00214667
-0.00209847
-0.00205053
-0.00200282
-0.00195537
-0.00190816
-0.00186119
-0.00181448
-0.00176801
-0.00172178
-0.00167581
-0.00163008
-0.0015846
-0.00153937
-0.00149439
-0.00144966
-0.00140517
-0.00136093
-0.00131694
-0.0012732
-0.00122971
-0.00118646
-0.00114346
-0.00110071
-0.00105821
-0.00101595
-0.000973942
-0.000932179
-0.000890663
-0.000849392
-0.000808367
-0.000767587
-0.000727052
-0.000686762
-0.000646715
-0.000606912
-0.000567353
-0.000528035
-0.00048896
-0.000450126
-0.000411533
-0.000373181
-0.000335069
-0.000297195
-0.000259561
-0.000222165
-0.000185005
-0.000148083
-0.000111397
-7.49458e-05
-3.87294e-05
-2.7468e-06
3.3002e-05
6.85185e-05
0.000103803
0.000138857
0.00017368
0.000208274
0.00024264
0.000276777
0.000310688
0.000344372
0.000377831
0.000411065
0.000444076
0.000476864
0.00050943
0.000541774
0.000573899
0.000605805
0.000637491
0.00066896
0.000700213
0.00073125
0.000762072
0.00079268
0.000823075
0.000853258
0.00088323
0.000912991
0.000942545
0.000971889
0.00100103
0.00102996
0.00105868
0.00108721
0.00111553
0.00114364
0.00117156
0.00119927
0.00122679
0.00125411
0.00128123
0.00130815
0.00133488
0.00136141
0.00138775
0.0014139
0.00143986
0.00146563
0.0014912
0.00151659
0.0015418
0.00156681
0.00159164
0.00161629
0.00164076
0.00166504
0.00168914
0.00171306
0.0017368
0.00176036
0.00178375
0.00180696
0.00183
0.00185286
0.00187555
0.00189806
0.00192041
0.00194259
0.00196459
0.00198643
0.00200811
0.00202961
0.00205095
0.00207213
0.00209315
0.002114
0.00213469
0.00215522
0.0021756
0.00219581
0.00221587
0.00223577
0.00225552
0.00227511
0.00229455
0.00231384
0.00233298
0.00235197
0.00237081
0.0023895
0.00240804
0.00242644
0.00244469
0.00246279
0.00248076
0.00249858
0.00251626
0.0025338
0.0025512
0.00256846
0.00258558
0.00260257
0.00261942
0.00263614
0.00265272
0.00266917
0.00268549
0.00270167
0.00271773
0.00273365
0.00274945
0.00276512
0.00278066
0.00279608
0.00281137
0.00282654
0.00284158
0.0028565
0.0028713
0.00288598
0.00290054
0.00291498
0.0029293
0.00294351
0.0029576
0.00297157
0.00298543
0.00299917
0.0030128
0.00302632
0.00303973
0.00305302
0.00306621
0.00307928
0.00309225
0.00310511
0.00311787
0.00313052
0.00314306
0.0031555
0.00316784
0.00318007
0.0031922
0.00320423
0.00321616
0.00322799
0.00323972
0.00325135
0.00326289
0.00327433
0.00328567
0.00329691
0.00330807
0.00331912
0.00333009
0.00334096
0.00335174
0.00336243
0.00337303
0.00338354
0.00339395
0.00340429
0.00341453
0.00342469
0.00343476
0.00344474
0.00345464
0.00346446
0.00347419
0.00348384
0.00349341
0.0035029
0.0035123
0.00352162
0.00353087
0.00354003
0.00354912
0.00355813
0.00356706
0.00357592
0.0035847
0.0035934
0.00360203
0.00361059
0.00361907
0.00362747
0.00363581
0.00364407
0.00365227
0.00366039
0.00366844
0.00367642
0.00368433
0.00369218
0.00369995
0.00370766
0.0037153
0.00372288
0.00373039
0.00373783
0.00374521
0.00375253
0.00375978
0.00376697
0.0037741
0.00378116
0.00378817
0.00379511
0.00380199
0.00380881
0.00381558
0.00382228
0.00382893
0.00383551
0.00384204
0.00384851
0.00385493
0.00386128
0.00386759
0.00387383
0.00388003
0.00388617
0.00389225
0.00389828
0.00390426
0.00391019
0.00391606
0.00392188
0.00392765
0.00393337
0.00393904
0.00394466
0.00395023
0.00395575
0.00396123
0.00396665
0.00397203
0.00397736
0.00398264
0.00398787
0.00399306
0.00399821
0.0040033
0.00400836
0.00401337
0.00401833
0.00402325
0.00402813
0.00403296
0.00403775
0.0040425
0.00404721
0.00405187
0.00405649
0.00406107
0.00406562
0.00407012
0.00407458
0.004079
0.00408338
0.00408773
0.00409203
0.0040963
0.00410053
0.00410472
0.00410887
0.00411299
0.00411707
0.00412112
0.00412512
0.0041291
0.00413303
0.00413694
0.0041408
0.00414464
0.00414844
0.0041522
0.00415593
0.00415963
0.0041633
0.00416693
0.00417053
0.0041741
0.00417763
0.00418114
0.00418461
0.00418806
0.00419147
0.00419485
0.0041982
0.00420152
0.00420481
0.00420808
0.00421131
0.00421452
0.00421769
0.00422084
0.00422396
0.00422705
0.00423011
0.00423315
0.00423616
0.00423914
0.0042421
0.00424503
0.00424793
0.00425081
0.00425366
0.00425649
0.00425929
0.00426207
0.00426482
0.00426754
0.00427025
0.00427293
0.00427558
0.00427821
0.00428082
0.0042834
0.00428596
0.0042885
0.00429102
0.00429351
0.00429598
0.00429843
0.00430085
0.00430326
0.00430564
0.004308
0.00431035
0.00431267
0.00431497
0.00431725
0.0043195
0.00432174
0.00432396
0.00432616
0.00432834
0.0043305
0.00433264
0.00433476
0.00433686
0.00433895
0.00434101
0.00434306
0.00434509
0.0043471
0.00434909
0.00435107
0.00435302
0.00435496
0.00435689
0.00435879
0.00436068
0.00436255
0.00436441
0.00436624
0.00436807
0.00436987
0.00437166
0.00437344
0.0043752
0.00437694
0.00437867
0.00438038
0.00438207
0.00438376
0.00438542
0.00438707
0.00438871
0.00439033
0.00439194
0.00439354
0.00439512
0.00439668
0.00439824
0.00439977
0.0044013
0.00440281
0.00440431
0.00440579
0.00440727
0.00440872
0.00441017
0.0044116
0.00441302
0.00441443
0.00441583
0.00441721
0.00441858
0.00441994
0.00442129
0.00442262
0.00442395
0.00442526
0.00442656
0.00442785
0.00442912
0.00443039
0.00443165
0.00443289
0.00443412
0.00443534
0.00443656
0.00443776
0.00443895
0.00444013
0.0044413
0.00444246
0.00444361
0.00444475
0.00444588
0.004447
0.00444811
0.00444921
0.0044503
0.00445138
0.00445245
0.00445351
0.00445457
0.00445561
0.00445665
0.00445767
0.00445869
0.0044597
0.0044607
0.00446169
0.00446267
0.00446364
0.00446461
0.00446557
0.00446651
0.00446746
0.00446839
0.00446931
0.00447023
0.00447114
0.00447204
0.00447293
0.00447382
0.0044747
0.00447557
0.00447643
0.00447728
0.00447813
0.00447897
0.00447981
0.00448063
0.00448145
0.00448227
0.00448307
0.00448387
0.00448466
0.00448545
0.00448623
0.004487
0.00448776
0.00448852
0.00448927
0.00449002
0.00449076
0.00449149
0.00449222
0.00449294
0.00449366
0.00449437
0.00449507
0.00449577
0.00449646
0.00449714
0.00449782
0.0044985
0.00449917
0.00449983
0.00450049
0.00450114
0.00450178
0.00450243
0.00450306
0.00450369
0.00450432
0.00450494
0.00450555
0.00450616
0.00450677
0.00450737
0.00450796
0.00450855
0.00450914
0.00450972
0.00451029
0.00451086
0.00451143
0.00451199
0.00451254
0.0045131
0.00451364
0.00451419
0.00451473
0.00451526
0.00451579
0.00451632
0.00451684
0.00451735
0.00451787
0.00451838
0.00451888
0.00451938
0.00451988
0.00452037
0.00452086
0.00452134
0.00452182
0.0045223
0.00452277
0.00452324
0.00452371
0.00452417
0.00452463
0.00452508
0.00452553
0.00452598
0.00452642
0.00452686
0.0045273
0.00452773
0.00452816
0.00452859
0.00452901
0.00452943
0.00452985
0.00453026
0.00453067
0.00453108
0.00453148
0.00453188
0.00453228
0.00453267
0.00453306
0.00453345
0.00453383
0.00453422
0.00453459
0.00453497
0.00453534
0.00453571
0.00453608
0.00453644
0.00453681
0.00453716
0.00453752
0.00453787
0.00453823
0.00453857
0.00453892
0.00453926
0.0045396
0.00453994
0.00454027
0.00454061
0.00454094
0.00454126
0.00454159
0.00454191
0.00454223
0.00454255
0.00454286
0.00454318
0.00454349
0.0045438
0.0045441
0.00454441
0.00454471
0.00454501
0.0045453
0.0045456
0.00454589
0.00454618
0.00454647
0.00454676
0.00454704
0.00454732
0.0045476
0.00454788
0.00454816
0.00454843
0.0045487
0.00454897
0.00454924
0.00454951
0.00454977
0.00455003
0.00455029
0.00455055
0.00455081
0.00455106
0.00455132
0.00455157
0.00455182
0.00455207
0.00455231
0.00455256
0.0045528
0.00455304
0.00455328
0.00455352
0.00455375
0.00455399
0.00455422
0.00455445
0.00455468
0.00455491
0.00455513
0.00455536
0.00455558
0.0045558
0.00455602
0.00455624
0.00455646
0.00455667
0.00455689
0.0045571
0.00455731
0.00455752
0.00455773
0.00455793
0.00455814
0.00455834
0.00455855
0.00455875
0.00455895
0.00455915
0.00455934
0.00455954
0.00455973
0.00455993
0.00456012
0.00456031
0.0045605
0.00456069
0.00456088
0.00456106
0.00456125
0.00456143
0.00456161
0.00456179
0.00456197
0.00456215
0.00456233
0.00456251
0.00456268
0.00456286
0.00456303
0.0045632
0.00456337
0.00456354
0.00456371
0.00456388
0.00456404
0.00456421
0.00456437
0.00456454
0.0045647
0.00456486
0.00456502
0.00456518
0.00456534
0.0045655
0.00456565
0.00456581
0.00456596
0.00456612
0.00456627
0.00456642
0.00456657
0.00456672
0.00456687
0.00456702
0.00456717
0.00456731
0.00456746
0.0045676
0.00456775
0.00456789
0.00456803
0.00456817
0.00456831
0.00456845
0.00456859
0.00456873
0.00456887
0.004569
0.00456914
0.00456927
0
0

