-14930.3
-0.0221924
-0.00761128
-0.00337218
-0.00144647
-0.000390574
0.000227961
0.000586458
0.000773205
0.000838277
0.000813017
0.000718675
0.000570618
0.00038053
0.000157621
-9.06747e-05
-0.000358258
-0.000640089
-0.000931983
-0.00123046
-0.00153265
-0.00183617
-0.00213905
-0.00243972
-0.00273688
-0.00302948
-0.00331669
-0.00359786
-0.00387249
-0.00414021
-0.00440073
-0.00465388
-0.00489955
-0.00513766
-0.00536822
-0.00559126
-0.00580684
-0.00601503
-0.00621595
-0.0064097
-0.00659644
-0.00677628
-0.00694937
-0.00711586
-0.00727589
-0.00742962
-0.00757719
-0.00771876
-0.00785448
-0.00798449
-0.00810895
-0.00822799
-0.00834177
-0.00845041
-0.00855405
-0.00865283
-0.00874688
-0.00883632
-0.00892127
-0.00900187
-0.00907821
-0.00915042
-0.00921861
-0.00928289
-0.00934336
-0.00940013
-0.00945328
-0.00950294
-0.00954917
-0.00959209
-0.00963177
-0.00966831
-0.00970178
-0.00973228
-0.00975988
-0.00978466
-0.0098067
-0.00982608
-0.00984285
-0.0098571
-0.0098689
-0.0098783
-0.00988539
-0.00989021
-0.00989283
-0.00989332
-0.00989173
-0.00988812
-0.00988255
-0.00987506
-0.00986572
-0.00985458
-0.00984169
-0.00982709
-0.00981085
-0.00979299
-0.00977358
-0.00975265
-0.00973025
-0.00970643
-0.00968122
-0.00965466
-0.00962681
-0.00959769
-0.00956734
-0.00953581
-0.00950313
-0.00946933
-0.00943445
-0.00939853
-0.00936159
-0.00932367
-0.0092848
-0.00924502
-0.00920435
-0.00916283
-0.00912047
-0.00907732
-0.0090334
-0.00898873
-0.00894335
-0.00889727
-0.00885053
-0.00880314
-0.00875514
-0.00870654
-0.00865737
-0.00860765
-0.00855741
-0.00850666
-0.00845543
-0.00840373
-0.00835159
-0.00829903
-0.00824606
-0.0081927
-0.00813898
-0.0080849
-0.00803049
-0.00797577
-0.00792075
-0.00786544
-0.00780986
-0.00775404
-0.00769797
-0.00764168
-0.00758519
-0.0075285
-0.00747162
-0.00741458
-0.00735738
-0.00730005
-0.00724258
-0.00718499
-0.00712729
-0.0070695
-0.00701163
-0.00695368
-0.00689567
-0.0068376
-0.0067795
-0.00672136
-0.00666319
-0.00660501
-0.00654683
-0.00648864
-0.00643047
-0.00637232
-0.0063142
-0.00625611
-0.00619806
-0.00614006
-0.00608212
-0.00602425
-0.00596645
-0.00590872
-0.00585108
-0.00579353
-0.00573607
-0.00567871
-0.00562147
-0.00556433
-0.00550732
-0.00545042
-0.00539366
-0.00533703
-0.00528055
-0.00522421
-0.00516801
-0.00511197
-0.00505609
-0.00500037
-0.0049448
-0.00488941
-0.00483419
-0.00477913
-0.00472426
-0.00466957
-0.00461506
-0.00456073
-0.0045066
-0.00445266
-0.00439891
-0.00434536
-0.00429201
-0.00423887
-0.00418593
-0.00413319
-0.00408067
-0.00402835
-0.00397625
-0.00392436
-0.00387269
-0.00382123
-0.00376999
-0.00371897
-0.00366818
-0.0036176
-0.00356725
-0.00351713
-0.00346723
-0.00341756
-0.00336812
-0.00331891
-0.00326993
-0.00322118
-0.00317266
-0.00312437
-0.00307632
-0.0030285
-0.00298092
-0.00293357
-0.00288645
-0.00283957
-0.00279293
-0.00274653
-0.00270036
-0.00265442
-0.00260873
-0.00256327
-0.00251805
-0.00247306
-0.00242832
-0.00238381
-0.00233954
-0.0022955
-0.0022517
-0.00220814
-0.00216482
-0.00212173
-0.00207888
-0.00203626
-0.00199388
-0.00195173
-0.00190982
-0.00186815
-0.00182671
-0.0017855
-0.00174452
-0.00170378
-0.00166327
-0.00162299
-0.00158294
-0.00154312
-0.00150354
-0.00146418
-0.00142505
-0.00138615
-0.00134748
-0.00130903
-0.00127081
-0.00123281
-0.00119504
-0.00115749
-0.00112017
-0.00108307
-0.00104619
-0.00100953
-0.00097309
-0.00093687
-0.000900869
-0.000865084
-0.000829517
-0.000794166
-0.00075903
-0.000724108
-0.000689399
-0.000654903
-0.000620618
-0.000586544
-0.00055268
-0.000519027
-0.000485582
-0.000452346
-0.000419316
-0.000386493
-0.000353873
-0.000321459
-0.000289245
-0.000257234
-0.000225423
-0.000193812
-0.0001624
-0.000131184
-0.000100166
-6.9343e-05
-3.87152e-05
-8.28062e-06
2.19614e-05
5.20116e-05
8.18706e-05
0.000111541
0.000141022
0.000170314
0.000199421
0.000228341
0.000257077
0.000285628
0.000313997
0.000342185
0.00037019
0.000398017
0.000425664
0.000453134
0.000480426
0.000507542
0.000534483
0.000561251
0.000587845
0.000614267
0.000640518
0.000666598
0.000692509
0.000718252
0.000743828
0.000769237
0.00079448
0.000819559
0.000844476
0.000869229
0.00089382
0.000918252
0.000942523
0.000966636
0.000990591
0.00101439
0.00103803
0.00106152
0.00108485
0.00110803
0.00113106
0.00115394
0.00117666
0.00119924
0.00122167
0.00124395
0.00126608
0.00128807
0.00130991
0.00133161
0.00135317
0.00137458
0.00139585
0.00141698
0.00143797
0.00145883
0.00147954
0.00150012
0.00152056
0.00154087
0.00156104
0.00158108
0.00160098
0.00162076
0.0016404
0.00165991
0.00167929
0.00169854
0.00171767
0.00173667
0.00175554
0.00177429
0.00179291
0.00181141
0.00182978
0.00184803
0.00186616
0.00188417
0.00190206
0.00191984
0.00193749
0.00195502
0.00197244
0.00198974
0.00200693
0.002024
0.00204096
0.00205781
0.00207454
0.00209116
0.00210767
0.00212407
0.00214036
0.00215654
0.00217261
0.00218858
0.00220444
0.00222019
0.00223584
0.00225138
0.00226682
0.00228216
0.00229739
0.00231253
0.00232756
0.00234249
0.00235732
0.00237205
0.00238668
0.00240122
0.00241565
0.00242999
0.00244424
0.00245839
0.00247244
0.0024864
0.00250027
0.00251404
0.00252773
0.00254132
0.00255482
0.00256823
0.00258154
0.00259477
0.00260792
0.00262097
0.00263394
0.00264681
0.00265961
0.00267231
0.00268494
0.00269747
0.00270993
0.0027223
0.00273459
0.00274679
0.00275891
0.00277096
0.00278292
0.0027948
0.0028066
0.00281832
0.00282997
0.00284153
0.00285302
0.00286443
0.00287577
0.00288703
0.00289821
0.00290932
0.00292035
0.00293131
0.0029422
0.00295302
0.00296376
0.00297443
0.00298503
0.00299555
0.00300601
0.0030164
0.00302672
0.00303696
0.00304714
0.00305726
0.0030673
0.00307728
0.00308719
0.00309703
0.00310681
0.00311652
0.00312617
0.00313575
0.00314527
0.00315472
0.00316411
0.00317344
0.00318271
0.00319191
0.00320106
0.00321014
0.00321916
0.00322812
0.00323702
0.00324586
0.00325464
0.00326337
0.00327203
0.00328064
0.00328919
0.00329768
0.00330612
0.0033145
0.00332282
0.00333109
0.0033393
0.00334746
0.00335556
0.00336361
0.0033716
0.00337954
0.00338743
0.00339527
0.00340305
0.00341078
0.00341846
0.00342609
0.00343367
0.0034412
0.00344867
0.0034561
0.00346348
0.00347081
0.00347809
0.00348532
0.0034925
0.00349964
0.00350672
0.00351376
0.00352076
0.0035277
0.0035346
0.00354146
0.00354827
0.00355503
0.00356175
0.00356842
0.00357505
0.00358163
0.00358818
0.00359467
0.00360113
0.00360754
0.00361391
0.00362023
0.00362652
0.00363276
0.00363896
0.00364512
0.00365124
0.00365732
0.00366335
0.00366935
0.00367531
0.00368123
0.00368711
0.00369295
0.00369875
0.00370451
0.00371023
0.00371592
0.00372157
0.00372718
0.00373275
0.00373829
0.00374379
0.00374925
0.00375468
0.00376007
0.00376542
0.00377074
0.00377603
0.00378128
0.00378649
0.00379167
0.00379682
0.00380193
0.003807
0.00381205
0.00381706
0.00382204
0.00382698
0.00383189
0.00383677
0.00384162
0.00384643
0.00385121
0.00385596
0.00386068
0.00386537
0.00387003
0.00387466
0.00387925
0.00388382
0.00388835
0.00389286
0.00389733
0.00390178
0.0039062
0.00391059
0.00391494
0.00391927
0.00392357
0.00392785
0.00393209
0.00393631
0.0039405
0.00394466
0.00394879
0.0039529
0.00395698
0.00396103
0.00396506
0.00396906
0.00397303
0.00397698
0.0039809
0.00398479
0.00398866
0.0039925
0.00399632
0.00400012
0.00400388
0.00400763
0.00401135
0.00401504
0.00401871
0.00402236
0.00402598
0.00402958
0.00403315
0.0040367
0.00404023
0.00404374
0.00404722
0.00405068
0.00405411
0.00405753
0.00406092
0.00406429
0.00406763
0.00407096
0.00407426
0.00407754
0.0040808
0.00408404
0.00408726
0.00409046
0.00409363
0.00409679
0.00409992
0.00410303
0.00410613
0.0041092
0.00411225
0.00411528
0.0041183
0.00412129
0.00412426
0.00412722
0.00413015
0.00413307
0.00413596
0.00413884
0.0041417
0.00414454
0.00414736
0.00415016
0.00415295
0.00415572
0.00415846
0.00416119
0.00416391
0.0041666
0.00416928
0.00417194
0.00417458
0.00417721
0.00417982
0.00418241
0.00418498
0.00418754
0.00419008
0.0041926
0.00419511
0.0041976
0.00420008
0.00420254
0.00420498
0.00420741
0.00420982
0.00421222
0.0042146
0.00421696
0.00421931
0.00422164
0.00422396
0.00422627
0.00422856
0.00423083
0.00423309
0.00423534
0.00423757
0.00423978
0.00424198
0.00424417
0.00424634
0.0042485
0.00425065
0.00425278
0.0042549
0.004257
0.00425909
0.00426117
0.00426323
0.00426528
0.00426732
0.00426934
0.00427135
0.00427335
0.00427533
0.0042773
0.00427926
0.00428121
0.00428314
0.00428506
0.00428697
0.00428887
0.00429075
0.00429263
0.00429449
0.00429633
0.00429817
0.0043
0.00430181
0.00430361
0.0043054
0.00430718
0.00430894
0.0043107
0.00431244
0.00431417
0.0043159
0.00431761
0.00431931
0.00432099
0.00432267
0.00432434
0.004326
0.00432764
0.00432928
0.0043309
0.00433251
0.00433412
0.00433571
0.0043373
0.00433887
0.00434043
0.00434198
0.00434353
0.00434506
0.00434658
0.0043481
0.0043496
0.0043511
0.00435258
0.00435406
0.00435552
0.00435698
0.00435843
0.00435986
0.00436129
0.00436271
0.00436412
0.00436552
0.00436692
0.0043683
0.00436967
0.00437104
0.0043724
0.00437375
0.00437509
0.00437642
0.00437774
0.00437906
0.00438036
0.00438166
0.00438295
0.00438423
0.00438551
0.00438677
0.00438803
0.00438928
0.00439052
0.00439176
0.00439298
0.0043942
0.00439541
0.00439661
0.00439781
0.004399
0.00440018
0.00440135
0.00440251
0.00440367
0.00440482
0.00440597
0.0044071
0.00440823
0.00440935
0.00441047
0.00441157
0.00441268
0.00441377
0.00441486
0.00441594
0.00441701
0.00441808
0.00441914
0.00442019
0.00442124
0.00442228
0.00442331
0.00442434
0.00442536
0.00442637
0.00442738
0.00442838
0.00442937
0.00443036
0.00443134
0.00443232
0.00443329
0.00443426
0.00443521
0.00443617
0.00443711
0.00443805
0.00443899
0.00443992
0.00444084
0.00444175
0.00444267
0.00444357
0.00444447
0.00444537
0.00444625
0.00444714
0.00444802
0.00444889
0.00444976
0.00445062
0.00445147
0.00445232
0.00445317
0.00445401
0.00445484
0.00445567
0.0044565
0.00445732
0.00445813
0.00445894
0.00445974
0.00446054
0.00446134
0.00446213
0.00446291
0.00446369
0.00446447
0.00446524
0.004466
0.00446676
0.00446752
0.00446827
0.00446902
0.00446976
0.0044705
0.00447123
0.00447196
0.00447268
0.0044734
0.00447411
0.00447482
0.00447553
0.00447623
0.00447693
0.00447762
0.00447831
0.004479
0.00447968
0.00448035
0.00448103
0.00448169
0.00448236
0.00448302
0.00448367
0.00448432
0.00448497
0.00448562
0.00448626
0.00448689
0.00448752
0.00448815
0.00448878
0.0044894
0.00449001
0.00449063
0.00449124
0.00449184
0.00449244
0.00449304
0.00449364
0.00449423
0.00449481
0.0044954
0.00449598
0.00449655
0.00449713
0.0044977
0.00449826
0.00449883
0.00449939
0.00449994
0.00450049
0.00450104
0.00450159
0.00450213
0.00450267
0.00450321
0.00450374
0.00450427
0.0045048
0.00450532
0.00450584
0.00450636
0.00450687
0.00450738
0.00450789
0.00450839
0.00450889
0.00450939
0.00450989
0.00451038
0.00451087
0.00451136
0.00451184
0.00451232
0.0045128
0.00451327
0.00451375
0.00451422
0.00451468
0.00451515
0.00451561
0.00451607
0.00451652
0.00451697
0.00451742
0.00451787
0.00451832
0.00451876
0.0045192
0.00451963
0.00452007
0.0045205
0.00452093
0.00452136
0.00452178
0.0045222
0.00452262
0.00452304
0.00452345
0.00452386
0.00452427
0.00452468
0.00452508
0.00452548
0.00452588
0.00452628
0.00452668
0.00452707
0.00452746
0.00452785
0.00452823
0.00452861
0.004529
0.00452938
0.00452975
0.00453013
0.0045305
0.00453087
0.00453124
0.0045316
0.00453197
0.00453233
0.00453269
0.00453304
0.0045334
0.00453375
0.0045341
0.00453445
0.0045348
0
0

