-14930.3
-0.0221924
-0.00761206
-0.00337628
-0.00145843
-0.000416057
0.000183472
0.000518871
0.000680525
0.000720779
0.000672998
0.000559977
0.000398066
0.000199397
-2.68283e-05
-0.000273524
-0.000535182
-0.000807488
-0.00108705
-0.00137118
-0.00165776
-0.00194508
-0.0022318
-0.00251684
-0.00279931
-0.00307852
-0.00335386
-0.00362489
-0.0038912
-0.00415248
-0.00440849
-0.004659
-0.00490386
-0.00514292
-0.00537608
-0.00560326
-0.00582441
-0.00603949
-0.00624846
-0.00645132
-0.00664808
-0.00683875
-0.00702333
-0.00720188
-0.00737441
-0.00754099
-0.00770165
-0.00785647
-0.0080055
-0.00814881
-0.00828648
-0.00841859
-0.00854521
-0.00866643
-0.00878233
-0.008893
-0.00899854
-0.00909902
-0.00919456
-0.00928523
-0.00937113
-0.00945236
-0.00952902
-0.00960119
-0.00966897
-0.00973246
-0.00979176
-0.00984695
-0.00989813
-0.0099454
-0.00998884
-0.0100286
-0.0100646
-0.0100972
-0.0101262
-0.0101519
-0.0101743
-0.0101935
-0.0102096
-0.0102227
-0.0102328
-0.01024
-0.0102445
-0.0102462
-0.0102453
-0.0102419
-0.0102359
-0.0102276
-0.0102169
-0.0102039
-0.0101888
-0.0101715
-0.0101521
-0.0101308
-0.0101075
-0.0100823
-0.0100553
-0.0100266
-0.00999618
-0.00996411
-0.00993046
-0.00989528
-0.00985862
-0.00982054
-0.00978109
-0.00974031
-0.00969826
-0.00965499
-0.00961053
-0.00956494
-0.00951826
-0.00947053
-0.0094218
-0.0093721
-0.00932147
-0.00926996
-0.0092176
-0.00916443
-0.00911048
-0.00905579
-0.0090004
-0.00894433
-0.00888762
-0.00883029
-0.0087724
-0.00871395
-0.00865497
-0.00859551
-0.00853558
-0.00847522
-0.00841444
-0.00835327
-0.00829173
-0.00822986
-0.00816767
-0.00810519
-0.00804243
-0.00797942
-0.00791618
-0.00785273
-0.00778909
-0.00772527
-0.00766129
-0.00759718
-0.00753294
-0.0074686
-0.00740417
-0.00733967
-0.0072751
-0.00721049
-0.00714586
-0.0070812
-0.00701654
-0.00695189
-0.00688726
-0.00682266
-0.00675811
-0.00669361
-0.00662918
-0.00656482
-0.00650055
-0.00643637
-0.0063723
-0.00630835
-0.00624451
-0.00618081
-0.00611724
-0.00605382
-0.00599056
-0.00592745
-0.00586451
-0.00580175
-0.00573916
-0.00567676
-0.00561456
-0.00555255
-0.00549074
-0.00542914
-0.00536776
-0.0053066
-0.00524567
-0.00518496
-0.00512449
-0.00506425
-0.00500425
-0.00494449
-0.00488498
-0.00482571
-0.0047667
-0.00470794
-0.00464944
-0.0045912
-0.00453322
-0.00447551
-0.00441806
-0.00436089
-0.00430398
-0.00424735
-0.00419099
-0.00413491
-0.00407911
-0.00402359
-0.00396834
-0.00391338
-0.00385869
-0.00380429
-0.00375017
-0.00369634
-0.00364279
-0.00358953
-0.00353655
-0.00348386
-0.00343146
-0.00337934
-0.00332751
-0.00327597
-0.00322472
-0.00317375
-0.00312307
-0.00307268
-0.00302257
-0.00297276
-0.00292323
-0.00287398
-0.00282503
-0.00277635
-0.00272797
-0.00267987
-0.00263205
-0.00258452
-0.00253727
-0.0024903
-0.00244362
-0.00239722
-0.00235109
-0.00230525
-0.00225969
-0.0022144
-0.0021694
-0.00212466
-0.00208021
-0.00203603
-0.00199212
-0.00194849
-0.00190512
-0.00186203
-0.00181921
-0.00177666
-0.00173437
-0.00169235
-0.0016506
-0.00160911
-0.00156788
-0.00152692
-0.00148622
-0.00144577
-0.00140559
-0.00136566
-0.00132599
-0.00128658
-0.00124741
-0.0012085
-0.00116984
-0.00113144
-0.00109327
-0.00105536
-0.0010177
-0.000980275
-0.000943098
-0.000906162
-0.000869469
-0.000833014
-0.000796799
-0.000760821
-0.000725078
-0.000689571
-0.000654297
-0.000619254
-0.000584444
-0.000549863
-0.000515512
-0.000481389
-0.000447492
-0.000413821
-0.000380373
-0.000347148
-0.000314143
-0.000281358
-0.00024879
-0.000216439
-0.000184304
-0.000152382
-0.000120674
-8.91761e-05
-5.78889e-05
-2.68105e-05
4.06033e-06
3.47244e-05
6.51839e-05
9.54394e-05
0.000125493
0.000155345
0.000184997
0.00021445
0.000243706
0.000272765
0.00030163
0.0003303
0.000358779
0.000387065
0.000415162
0.00044307
0.00047079
0.000498324
0.000525672
0.000552836
0.000579818
0.000606617
0.000633235
0.000659675
0.000685936
0.000712019
0.000737927
0.00076366
0.000789219
0.000814605
0.000839821
0.000864865
0.000889741
0.000914449
0.000938989
0.000963364
0.000987574
0.00101162
0.0010355
0.00105923
0.00108279
0.00110619
0.00112943
0.00115252
0.00117545
0.00119823
0.00122085
0.00124332
0.00126563
0.0012878
0.00130981
0.00133168
0.0013534
0.00137497
0.00139639
0.00141767
0.00143881
0.0014598
0.00148065
0.00150136
0.00152193
0.00154236
0.00156265
0.0015828
0.00160282
0.0016227
0.00164244
0.00166206
0.00168154
0.00170088
0.0017201
0.00173919
0.00175814
0.00177697
0.00179567
0.00181425
0.0018327
0.00185102
0.00186922
0.00188729
0.00190525
0.00192308
0.00194079
0.00195838
0.00197586
0.00199321
0.00201045
0.00202757
0.00204457
0.00206146
0.00207823
0.00209489
0.00211144
0.00212787
0.0021442
0.00216041
0.00217652
0.00219251
0.0022084
0.00222418
0.00223985
0.00225542
0.00227088
0.00228623
0.00230149
0.00231664
0.00233168
0.00234663
0.00236147
0.00237622
0.00239086
0.00240541
0.00241985
0.0024342
0.00244845
0.00246261
0.00247667
0.00249063
0.0025045
0.00251828
0.00253196
0.00254556
0.00255906
0.00257246
0.00258578
0.00259901
0.00261215
0.0026252
0.00263816
0.00265103
0.00266382
0.00267652
0.00268914
0.00270167
0.00271411
0.00272647
0.00273875
0.00275095
0.00276306
0.00277509
0.00278704
0.00279891
0.0028107
0.00282241
0.00283404
0.0028456
0.00285707
0.00286847
0.00287979
0.00289103
0.0029022
0.0029133
0.00292432
0.00293526
0.00294613
0.00295693
0.00296765
0.00297831
0.00298889
0.0029994
0.00300984
0.00302021
0.00303051
0.00304074
0.0030509
0.00306099
0.00307102
0.00308098
0.00309087
0.00310069
0.00311045
0.00312014
0.00312977
0.00313933
0.00314883
0.00315827
0.00316764
0.00317695
0.0031862
0.00319538
0.0032045
0.00321356
0.00322256
0.0032315
0.00324038
0.00324921
0.00325797
0.00326667
0.00327531
0.0032839
0.00329243
0.0033009
0.00330932
0.00331767
0.00332598
0.00333422
0.00334241
0.00335055
0.00335863
0.00336666
0.00337464
0.00338256
0.00339042
0.00339824
0.003406
0.00341371
0.00342137
0.00342898
0.00343654
0.00344405
0.0034515
0.00345891
0.00346627
0.00347358
0.00348084
0.00348805
0.00349521
0.00350232
0.00350939
0.00351641
0.00352338
0.00353031
0.00353719
0.00354403
0.00355082
0.00355756
0.00356426
0.00357091
0.00357752
0.00358409
0.00359061
0.00359709
0.00360352
0.00360992
0.00361627
0.00362257
0.00362884
0.00363506
0.00364125
0.00364739
0.00365349
0.00365955
0.00366557
0.00367155
0.00367749
0.00368339
0.00368925
0.00369507
0.00370085
0.0037066
0.0037123
0.00371797
0.0037236
0.0037292
0.00373475
0.00374027
0.00374576
0.0037512
0.00375661
0.00376199
0.00376732
0.00377263
0.0037779
0.00378313
0.00378833
0.00379349
0.00379862
0.00380371
0.00380878
0.0038138
0.0038188
0.00382376
0.00382869
0.00383359
0.00383845
0.00384328
0.00384808
0.00385285
0.00385758
0.00386229
0.00386696
0.00387161
0.00387622
0.0038808
0.00388535
0.00388987
0.00389436
0.00389882
0.00390326
0.00390766
0.00391203
0.00391638
0.00392069
0.00392498
0.00392924
0.00393347
0.00393768
0.00394185
0.003946
0.00395012
0.00395421
0.00395828
0.00396232
0.00396633
0.00397032
0.00397428
0.00397822
0.00398212
0.00398601
0.00398986
0.0039937
0.0039975
0.00400128
0.00400504
0.00400877
0.00401248
0.00401616
0.00401982
0.00402346
0.00402707
0.00403065
0.00403422
0.00403776
0.00404128
0.00404477
0.00404824
0.00405169
0.00405511
0.00405852
0.0040619
0.00406525
0.00406859
0.00407191
0.0040752
0.00407847
0.00408172
0.00408495
0.00408816
0.00409134
0.00409451
0.00409765
0.00410078
0.00410388
0.00410696
0.00411003
0.00411307
0.00411609
0.0041191
0.00412208
0.00412504
0.00412799
0.00413092
0.00413382
0.00413671
0.00413958
0.00414243
0.00414526
0.00414807
0.00415087
0.00415364
0.0041564
0.00415914
0.00416186
0.00416457
0.00416726
0.00416992
0.00417258
0.00417521
0.00417783
0.00418043
0.00418301
0.00418558
0.00418813
0.00419066
0.00419318
0.00419568
0.00419816
0.00420063
0.00420308
0.00420552
0.00420794
0.00421035
0.00421273
0.00421511
0.00421747
0.00421981
0.00422214
0.00422445
0.00422675
0.00422903
0.0042313
0.00423355
0.00423579
0.00423801
0.00424022
0.00424242
0.0042446
0.00424676
0.00424892
0.00425106
0.00425318
0.00425529
0.00425739
0.00425947
0.00426154
0.0042636
0.00426565
0.00426768
0.00426969
0.0042717
0.00427369
0.00427567
0.00427764
0.00427959
0.00428153
0.00428346
0.00428537
0.00428728
0.00428917
0.00429105
0.00429292
0.00429477
0.00429661
0.00429844
0.00430026
0.00430207
0.00430387
0.00430565
0.00430743
0.00430919
0.00431094
0.00431268
0.0043144
0.00431612
0.00431783
0.00431952
0.00432121
0.00432288
0.00432454
0.00432619
0.00432783
0.00432947
0.00433109
0.0043327
0.0043343
0.00433588
0.00433746
0.00433903
0.00434059
0.00434214
0.00434368
0.00434521
0.00434673
0.00434824
0.00434974
0.00435123
0.00435271
0.00435418
0.00435564
0.0043571
0.00435854
0.00435997
0.0043614
0.00436281
0.00436422
0.00436562
0.00436701
0.00436839
0.00436976
0.00437112
0.00437248
0.00437382
0.00437516
0.00437649
0.00437781
0.00437912
0.00438042
0.00438172
0.00438301
0.00438428
0.00438555
0.00438682
0.00438807
0.00438932
0.00439056
0.00439179
0.00439301
0.00439423
0.00439543
0.00439663
0.00439783
0.00439901
0.00440019
0.00440136
0.00440252
0.00440368
0.00440482
0.00440597
0.0044071
0.00440823
0.00440934
0.00441046
0.00441156
0.00441266
0.00441375
0.00441484
0.00441591
0.00441698
0.00441805
0.00441911
0.00442016
0.0044212
0.00442224
0.00442327
0.00442429
0.00442531
0.00442632
0.00442733
0.00442833
0.00442932
0.00443031
0.00443129
0.00443226
0.00443323
0.00443419
0.00443515
0.0044361
0.00443704
0.00443798
0.00443891
0.00443984
0.00444076
0.00444168
0.00444259
0.00444349
0.00444439
0.00444528
0.00444617
0.00444705
0.00444793
0.0044488
0.00444966
0.00445052
0.00445138
0.00445222
0.00445307
0.00445391
0.00445474
0.00445557
0.00445639
0.00445721
0.00445802
0.00445883
0.00445963
0.00446043
0.00446122
0.00446201
0.00446279
0.00446357
0.00446435
0.00446511
0.00446588
0.00446664
0.00446739
0.00446814
0.00446889
0.00446963
0.00447036
0.0044711
0.00447182
0.00447254
0.00447326
0.00447398
0.00447469
0.00447539
0.00447609
0.00447679
0.00447748
0.00447817
0.00447885
0.00447953
0.00448021
0.00448088
0.00448154
0.00448221
0.00448286
0.00448352
0.00448417
0.00448482
0.00448546
0.0044861
0.00448673
0.00448736
0.00448799
0.00448862
0.00448924
0.00448985
0.00449046
0.00449107
0.00449168
0.00449228
0.00449287
0.00449347
0.00449406
0.00449464
0.00449523
0.00449581
0.00449638
0.00449695
0.00449752
0.00449809
0.00449865
0.00449921
0.00449976
0.00450032
0.00450087
0.00450141
0.00450195
0.00450249
0.00450303
0.00450356
0.00450409
0.00450461
0.00450514
0.00450566
0.00450617
0.00450668
0.0045072
0.0045077
0.00450821
0.00450871
0.00450921
0.0045097
0.00451019
0.00451068
0.00451117
0.00451165
0.00451213
0.00451261
0.00451308
0.00451355
0.00451402
0.00451449
0.00451495
0.00451541
0.00451587
0.00451633
0.00451678
0.00451723
0.00451768
0.00451812
0.00451856
0.004519
0.00451944
0.00451987
0.0045203
0.00452073
0.00452116
0.00452158
0.004522
0.00452242
0.00452284
0.00452325
0.00452366
0.00452407
0.00452448
0.00452488
0.00452528
0.00452568
0.00452608
0.00452647
0.00452686
0.00452725
0.00452764
0.00452803
0.00452841
0.00452879
0.00452917
0.00452955
0.00452992
0.00453029
0.00453066
0.00453103
0.0045314
0.00453176
0.00453212
0.00453248
0.00453284
0.00453319
0.00453354
0.00453389
0.00453424
0.00453459
0.00453493
0.00453528
0.00453562
0.00453596
0.00453629
0.00453663
0.00453696
0.00453729
0.00453762
0.00453795
0.00453827
0.0045386
0
0

