-14930.3
-0.0221924
-0.0076122
-0.00337704
-0.00146064
-0.00042085
0.00017476
0.000504719
0.000659208
0.000690327
0.00063121
0.000504489
0.000326468
0.00010937
-0.000137372
-0.000406324
-0.000691539
-0.000988212
-0.00129244
-0.00160104
-0.00191141
-0.00222144
-0.00252941
-0.00283392
-0.00313386
-0.00342833
-0.00371661
-0.00399817
-0.0042726
-0.00453957
-0.00479889
-0.00505041
-0.00529407
-0.00552983
-0.00575773
-0.0059778
-0.00619014
-0.00639485
-0.00659204
-0.00678185
-0.00696442
-0.00713989
-0.00730842
-0.00747017
-0.00762529
-0.00777395
-0.00791631
-0.00805254
-0.00818278
-0.0083072
-0.00842596
-0.00853922
-0.00864711
-0.00874979
-0.0088474
-0.00894008
-0.00902798
-0.00911122
-0.00918994
-0.00926426
-0.0093343
-0.0094002
-0.00946206
-0.00952
-0.00957414
-0.00962457
-0.0096714
-0.00971474
-0.00975469
-0.00979133
-0.00982478
-0.00985511
-0.00988241
-0.00990677
-0.00992828
-0.00994702
-0.00996306
-0.00997649
-0.00998737
-0.00999579
-0.0100018
-0.0100055
-0.0100069
-0.0100062
-0.0100033
-0.00999828
-0.00999131
-0.00998237
-0.00997155
-0.00995889
-0.00994445
-0.00992828
-0.00991043
-0.00989095
-0.00986989
-0.00984731
-0.00982323
-0.00979773
-0.00977082
-0.00974257
-0.00971301
-0.00968218
-0.00965013
-0.00961688
-0.00958249
-0.00954699
-0.00951041
-0.00947279
-0.00943416
-0.00939456
-0.00935402
-0.00931258
-0.00927026
-0.0092271
-0.00918312
-0.00913835
-0.00909283
-0.00904657
-0.00899962
-0.00895199
-0.00890371
-0.0088548
-0.00880529
-0.00875521
-0.00870457
-0.0086534
-0.00860173
-0.00854956
-0.00849693
-0.00844386
-0.00839036
-0.00833646
-0.00828217
-0.00822752
-0.00817252
-0.00811718
-0.00806154
-0.00800559
-0.00794937
-0.00789288
-0.00783614
-0.00777917
-0.00772199
-0.00766459
-0.00760701
-0.00754926
-0.00749134
-0.00743327
-0.00737507
-0.00731674
-0.0072583
-0.00719976
-0.00714113
-0.00708242
-0.00702365
-0.00696482
-0.00690594
-0.00684703
-0.0067881
-0.00672915
-0.00667019
-0.00661123
-0.00655228
-0.00649336
-0.00643446
-0.00637559
-0.00631677
-0.006258
-0.00619928
-0.00614064
-0.00608206
-0.00602356
-0.00596515
-0.00590683
-0.00584861
-0.00579049
-0.00573248
-0.00567459
-0.00561681
-0.00555916
-0.00550165
-0.00544427
-0.00538703
-0.00532994
-0.005273
-0.00521622
-0.0051596
-0.00510315
-0.00504686
-0.00499074
-0.00493479
-0.00487902
-0.00482344
-0.00476803
-0.00471282
-0.00465779
-0.00460296
-0.00454832
-0.00449388
-0.00443964
-0.00438561
-0.00433178
-0.00427817
-0.00422476
-0.00417157
-0.00411859
-0.00406583
-0.00401329
-0.00396096
-0.00390886
-0.00385698
-0.00380533
-0.0037539
-0.0037027
-0.00365172
-0.00360098
-0.00355047
-0.00350018
-0.00345013
-0.00340032
-0.00335074
-0.00330139
-0.00325228
-0.00320341
-0.00315478
-0.00310638
-0.00305822
-0.0030103
-0.00296262
-0.00291518
-0.00286798
-0.00282102
-0.0027743
-0.00272782
-0.00268158
-0.00263559
-0.00258983
-0.00254432
-0.00249905
-0.00245401
-0.00240922
-0.00236467
-0.00232037
-0.0022763
-0.00223247
-0.00218888
-0.00214554
-0.00210243
-0.00205956
-0.00201693
-0.00197454
-0.00193239
-0.00189047
-0.0018488
-0.00180735
-0.00176615
-0.00172518
-0.00168445
-0.00164395
-0.00160368
-0.00156365
-0.00152385
-0.00148429
-0.00144495
-0.00140585
-0.00136697
-0.00132833
-0.00128991
-0.00125172
-0.00121376
-0.00117602
-0.00113851
-0.00110123
-0.00106417
-0.00102733
-0.000990716
-0.000954323
-0.000918149
-0.000882196
-0.000846461
-0.000810945
-0.000775645
-0.000740562
-0.000705695
-0.000671041
-0.000636602
-0.000602374
-0.000568359
-0.000534556
-0.000500964
-0.000467581
-0.000434408
-0.000401442
-0.000368682
-0.000336129
-0.000303779
-0.000271632
-0.000239688
-0.000207945
-0.000176402
-0.000145059
-0.000113913
-8.29644e-05
-5.22122e-05
-2.16554e-05
8.70738e-06
3.88769e-05
6.88546e-05
9.86411e-05
0.000128237
0.000157644
0.000186863
0.000215895
0.000244741
0.000273401
0.000301878
0.000330171
0.000358282
0.000386212
0.000413962
0.000441533
0.000468926
0.000496141
0.00052318
0.000550044
0.000576734
0.000603251
0.000629596
0.000655769
0.000681772
0.000707606
0.00073327
0.000758768
0.000784099
0.000809265
0.000834267
0.000859105
0.00088378
0.000908294
0.000932648
0.000956842
0.000980877
0.00100475
0.00102848
0.00105204
0.00107545
0.00109871
0.00112181
0.00114476
0.00116756
0.00119021
0.00121271
0.00123506
0.00125727
0.00127933
0.00130124
0.001323
0.00134463
0.00136611
0.00138745
0.00140864
0.0014297
0.00145062
0.0014714
0.00149204
0.00151254
0.00153291
0.00155314
0.00157324
0.00159321
0.00161304
0.00163274
0.00165231
0.00167175
0.00169106
0.00171024
0.0017293
0.00174822
0.00176703
0.0017857
0.00180425
0.00182268
0.00184099
0.00185917
0.00187723
0.00189517
0.001913
0.0019307
0.00194829
0.00196575
0.00198311
0.00200034
0.00201746
0.00203447
0.00205136
0.00206814
0.00208481
0.00210136
0.00211781
0.00213414
0.00215037
0.00216649
0.0021825
0.0021984
0.0022142
0.00222989
0.00224548
0.00226096
0.00227633
0.00229161
0.00230678
0.00232185
0.00233683
0.0023517
0.00236647
0.00238114
0.00239571
0.00241019
0.00242457
0.00243885
0.00245304
0.00246713
0.00248113
0.00249503
0.00250884
0.00252256
0.00253619
0.00254972
0.00256316
0.00257652
0.00258978
0.00260296
0.00261605
0.00262905
0.00264196
0.00265479
0.00266753
0.00268018
0.00269275
0.00270524
0.00271764
0.00272996
0.00274219
0.00275435
0.00276642
0.00277841
0.00279032
0.00280216
0.00281391
0.00282558
0.00283718
0.0028487
0.00286014
0.0028715
0.00288279
0.002894
0.00290514
0.0029162
0.00292719
0.0029381
0.00294895
0.00295971
0.00297041
0.00298104
0.00299159
0.00300207
0.00301249
0.00302283
0.0030331
0.00304331
0.00305345
0.00306351
0.00307352
0.00308345
0.00309332
0.00310312
0.00311286
0.00312253
0.00313213
0.00314168
0.00315115
0.00316057
0.00316992
0.00317921
0.00318844
0.0031976
0.00320671
0.00321575
0.00322473
0.00323366
0.00324252
0.00325132
0.00326007
0.00326875
0.00327738
0.00328595
0.00329446
0.00330292
0.00331132
0.00331966
0.00332795
0.00333618
0.00334436
0.00335248
0.00336055
0.00336857
0.00337653
0.00338443
0.00339229
0.00340009
0.00340784
0.00341554
0.00342319
0.00343078
0.00343833
0.00344582
0.00345327
0.00346067
0.00346801
0.00347531
0.00348256
0.00348976
0.00349691
0.00350401
0.00351107
0.00351808
0.00352504
0.00353196
0.00353883
0.00354566
0.00355244
0.00355917
0.00356586
0.00357251
0.00357911
0.00358566
0.00359218
0.00359865
0.00360507
0.00361146
0.0036178
0.0036241
0.00363035
0.00363657
0.00364274
0.00364888
0.00365497
0.00366102
0.00366703
0.00367301
0.00367894
0.00368483
0.00369068
0.0036965
0.00370227
0.00370801
0.00371371
0.00371937
0.003725
0.00373058
0.00373613
0.00374165
0.00374712
0.00375256
0.00375797
0.00376334
0.00376867
0.00377396
0.00377923
0.00378445
0.00378964
0.0037948
0.00379993
0.00380502
0.00381007
0.00381509
0.00382008
0.00382504
0.00382996
0.00383485
0.00383971
0.00384454
0.00384933
0.00385409
0.00385882
0.00386352
0.00386819
0.00387283
0.00387744
0.00388201
0.00388656
0.00389107
0.00389556
0.00390002
0.00390445
0.00390884
0.00391321
0.00391755
0.00392186
0.00392615
0.0039304
0.00393463
0.00393883
0.003943
0.00394714
0.00395126
0.00395535
0.00395941
0.00396344
0.00396745
0.00397144
0.00397539
0.00397932
0.00398323
0.00398711
0.00399096
0.00399479
0.00399859
0.00400236
0.00400612
0.00400985
0.00401355
0.00401723
0.00402088
0.00402451
0.00402812
0.0040317
0.00403526
0.0040388
0.00404231
0.0040458
0.00404927
0.00405271
0.00405614
0.00405953
0.00406291
0.00406627
0.0040696
0.00407291
0.0040762
0.00407947
0.00408271
0.00408594
0.00408914
0.00409233
0.00409549
0.00409863
0.00410175
0.00410485
0.00410793
0.00411099
0.00411403
0.00411705
0.00412005
0.00412303
0.00412599
0.00412893
0.00413185
0.00413476
0.00413764
0.00414051
0.00414336
0.00414618
0.00414899
0.00415178
0.00415456
0.00415731
0.00416005
0.00416277
0.00416547
0.00416815
0.00417082
0.00417347
0.0041761
0.00417872
0.00418131
0.00418389
0.00418646
0.004189
0.00419153
0.00419405
0.00419655
0.00419903
0.00420149
0.00420394
0.00420637
0.00420879
0.00421119
0.00421358
0.00421595
0.00421831
0.00422065
0.00422297
0.00422528
0.00422757
0.00422985
0.00423212
0.00423437
0.00423661
0.00423883
0.00424103
0.00424323
0.0042454
0.00424757
0.00424972
0.00425186
0.00425398
0.00425609
0.00425818
0.00426026
0.00426233
0.00426439
0.00426643
0.00426846
0.00427047
0.00427247
0.00427446
0.00427644
0.0042784
0.00428035
0.00428229
0.00428422
0.00428613
0.00428803
0.00428992
0.0042918
0.00429366
0.00429552
0.00429736
0.00429919
0.004301
0.00430281
0.0043046
0.00430638
0.00430815
0.00430991
0.00431166
0.0043134
0.00431512
0.00431684
0.00431854
0.00432023
0.00432192
0.00432359
0.00432525
0.0043269
0.00432854
0.00433017
0.00433178
0.00433339
0.00433499
0.00433658
0.00433815
0.00433972
0.00434128
0.00434282
0.00434436
0.00434589
0.0043474
0.00434891
0.00435041
0.0043519
0.00435338
0.00435485
0.00435631
0.00435776
0.0043592
0.00436063
0.00436205
0.00436347
0.00436487
0.00436627
0.00436766
0.00436903
0.0043704
0.00437177
0.00437312
0.00437446
0.0043758
0.00437712
0.00437844
0.00437975
0.00438105
0.00438234
0.00438363
0.00438491
0.00438618
0.00438744
0.00438869
0.00438993
0.00439117
0.0043924
0.00439362
0.00439483
0.00439604
0.00439724
0.00439843
0.00439961
0.00440079
0.00440196
0.00440312
0.00440427
0.00440542
0.00440655
0.00440769
0.00440881
0.00440993
0.00441104
0.00441214
0.00441324
0.00441433
0.00441541
0.00441649
0.00441756
0.00441862
0.00441967
0.00442072
0.00442176
0.0044228
0.00442383
0.00442485
0.00442587
0.00442688
0.00442788
0.00442888
0.00442987
0.00443086
0.00443184
0.00443281
0.00443378
0.00443474
0.00443569
0.00443664
0.00443758
0.00443852
0.00443945
0.00444038
0.00444129
0.00444221
0.00444312
0.00444402
0.00444491
0.00444581
0.00444669
0.00444757
0.00444844
0.00444931
0.00445018
0.00445104
0.00445189
0.00445274
0.00445358
0.00445441
0.00445525
0.00445607
0.00445689
0.00445771
0.00445852
0.00445933
0.00446013
0.00446093
0.00446172
0.0044625
0.00446329
0.00446406
0.00446484
0.0044656
0.00446636
0.00446712
0.00446788
0.00446862
0.00446937
0.00447011
0.00447084
0.00447157
0.0044723
0.00447302
0.00447373
0.00447445
0.00447516
0.00447586
0.00447656
0.00447725
0.00447794
0.00447863
0.00447931
0.00447999
0.00448066
0.00448133
0.004482
0.00448266
0.00448332
0.00448397
0.00448462
0.00448527
0.00448591
0.00448655
0.00448718
0.00448781
0.00448843
0.00448906
0.00448968
0.00449029
0.0044909
0.00449151
0.00449211
0.00449271
0.00449331
0.0044939
0.00449449
0.00449507
0.00449565
0.00449623
0.00449681
0.00449738
0.00449795
0.00449851
0.00449907
0.00449963
0.00450018
0.00450073
0.00450128
0.00450182
0.00450237
0.0045029
0.00450344
0.00450397
0.0045045
0.00450502
0.00450554
0.00450606
0.00450658
0.00450709
0.0045076
0.0045081
0.00450861
0.00450911
0.0045096
0.0045101
0.00451059
0.00451107
0.00451156
0.00451204
0.00451252
0.004513
0.00451347
0.00451394
0.00451441
0.00451487
0.00451534
0.0045158
0.00451625
0.00451671
0.00451716
0.00451761
0.00451805
0.0045185
0.00451894
0.00451937
0.00451981
0.00452024
0.00452067
0.0045211
0.00452152
0.00452195
0.00452237
0.00452279
0.0045232
0.00452361
0.00452402
0.00452443
0.00452484
0.00452524
0.00452564
0.00452604
0.00452643
0.00452683
0.00452722
0.00452761
0.00452799
0.00452838
0.00452876
0.00452914
0.00452952
0.00452989
0.00453027
0.00453064
0.00453101
0.00453137
0.00453174
0.0045321
0.00453246
0.00453282
0.00453317
0.00453353
0.00453388
0.00453423
0.00453458
0.00453492
0.00453527
0.00453561
0
0

