-14930.3
-0.0221924
-0.00761151
-0.00337343
-0.00145023
-0.000398914
0.000212592
0.00056147
0.000736058
0.000786612
0.000744739
0.000632002
0.000464115
0.000253108
8.53187e-06
-0.000261856
-0.000551667
-0.000855598
-0.00116924
-0.00148894
-0.00181164
-0.00213486
-0.00245654
-0.00277502
-0.00308895
-0.00339725
-0.00369908
-0.00399378
-0.00428087
-0.00455997
-0.00483085
-0.00509334
-0.00534736
-0.00559289
-0.00582997
-0.00605865
-0.00627903
-0.00649124
-0.00669542
-0.00689172
-0.0070803
-0.00726134
-0.00743501
-0.00760148
-0.00776094
-0.00791358
-0.00805957
-0.00819909
-0.00833232
-0.00845943
-0.0085806
-0.00869599
-0.00880577
-0.0089101
-0.00900914
-0.00910303
-0.00919192
-0.00927597
-0.0093553
-0.00943006
-0.00950038
-0.00956638
-0.0096282
-0.00968595
-0.00973974
-0.00978971
-0.00983595
-0.00987857
-0.00991769
-0.00995339
-0.00998579
-0.010015
-0.010041
-0.0100641
-0.0100841
-0.0101014
-0.0101158
-0.0101276
-0.0101368
-0.0101434
-0.0101476
-0.0101493
-0.0101488
-0.010146
-0.010141
-0.0101339
-0.0101248
-0.0101136
-0.0101006
-0.0100856
-0.0100689
-0.0100503
-0.0100301
-0.0100082
-0.00998474
-0.00995971
-0.00993317
-0.00990518
-0.00987578
-0.00984501
-0.00981293
-0.00977957
-0.00974497
-0.00970918
-0.00967224
-0.00963418
-0.00959505
-0.00955487
-0.00951369
-0.00947154
-0.00942846
-0.00938447
-0.00933962
-0.00929393
-0.00924743
-0.00920016
-0.00915214
-0.00910341
-0.00905398
-0.0090039
-0.00895318
-0.00890184
-0.00884993
-0.00879746
-0.00874445
-0.00869093
-0.00863692
-0.00858244
-0.00852752
-0.00847218
-0.00841644
-0.00836031
-0.00830382
-0.00824699
-0.00818983
-0.00813236
-0.00807461
-0.00801658
-0.0079583
-0.00789978
-0.00784104
-0.00778209
-0.00772295
-0.00766363
-0.00760415
-0.00754452
-0.00748476
-0.00742487
-0.00736487
-0.00730478
-0.0072446
-0.00718435
-0.00712404
-0.00706368
-0.00700327
-0.00694284
-0.0068824
-0.00682194
-0.00676148
-0.00670104
-0.00664061
-0.00658022
-0.00651986
-0.00645955
-0.00639929
-0.00633909
-0.00627896
-0.00621891
-0.00615895
-0.00609907
-0.00603929
-0.00597962
-0.00592006
-0.00586061
-0.00580129
-0.00574209
-0.00568303
-0.00562411
-0.00556534
-0.00550671
-0.00544824
-0.00538993
-0.00533178
-0.00527381
-0.00521601
-0.00515839
-0.00510096
-0.0050437
-0.00498664
-0.00492977
-0.00487309
-0.00481661
-0.00476033
-0.00470426
-0.0046484
-0.00459274
-0.0045373
-0.00448207
-0.00442706
-0.00437227
-0.0043177
-0.00426336
-0.00420925
-0.00415537
-0.00410171
-0.00404829
-0.0039951
-0.00394215
-0.00388943
-0.00383695
-0.00378471
-0.0037327
-0.00368094
-0.00362942
-0.00357815
-0.00352712
-0.00347633
-0.00342579
-0.0033755
-0.00332545
-0.00327566
-0.00322611
-0.00317681
-0.00312776
-0.00307896
-0.00303041
-0.00298211
-0.00293406
-0.00288626
-0.00283871
-0.00279142
-0.00274437
-0.00269758
-0.00265104
-0.00260475
-0.00255871
-0.00251293
-0.00246739
-0.00242211
-0.00237707
-0.00233229
-0.00228775
-0.00224347
-0.00219943
-0.00215564
-0.00211211
-0.00206882
-0.00202577
-0.00198298
-0.00194043
-0.00189812
-0.00185606
-0.00181425
-0.00177268
-0.00173135
-0.00169027
-0.00164943
-0.00160883
-0.00156847
-0.00152835
-0.00148847
-0.00144883
-0.00140942
-0.00137025
-0.00133132
-0.00129262
-0.00125416
-0.00121593
-0.00117793
-0.00114017
-0.00110263
-0.00106533
-0.00102825
-0.000991406
-0.000954784
-0.00091839
-0.000882219
-0.000846275
-0.000810552
-0.000775052
-0.000739773
-0.000704714
-0.000669875
-0.000635253
-0.000600849
-0.000566662
-0.000532691
-0.000498935
-0.000465393
-0.000432065
-0.000398948
-0.000366042
-0.000333346
-0.000300857
-0.000268576
-0.0002365
-0.00020463
-0.000172963
-0.000141499
-0.000110237
-7.9175e-05
-4.83127e-05
-1.76493e-05
1.28172e-05
4.3087e-05
7.3162e-05
0.000103042
0.00013273
0.000162225
0.00019153
0.000220644
0.00024957
0.000278308
0.000306859
0.000335224
0.000363405
0.000391402
0.000419216
0.00044685
0.000474302
0.000501575
0.00052867
0.000555587
0.000582328
0.000608894
0.000635285
0.000661503
0.000687549
0.000713424
0.000739129
0.000764663
0.00079003
0.00081523
0.000840264
0.000865132
0.000889837
0.000914378
0.000938758
0.000962976
0.000987034
0.00101093
0.00103467
0.00105826
0.00108168
0.00110496
0.00112807
0.00115104
0.00117385
0.00119651
0.00121902
0.00124138
0.00126359
0.00128566
0.00130757
0.00132935
0.00135097
0.00137246
0.0013938
0.00141499
0.00143605
0.00145697
0.00147774
0.00149838
0.00151888
0.00153924
0.00155947
0.00157956
0.00159952
0.00161935
0.00163904
0.0016586
0.00167803
0.00169733
0.0017165
0.00173554
0.00175446
0.00177325
0.00179191
0.00181045
0.00182886
0.00184715
0.00186532
0.00188337
0.00190129
0.0019191
0.00193679
0.00195436
0.0019718
0.00198914
0.00200636
0.00202346
0.00204044
0.00205732
0.00207408
0.00209072
0.00210726
0.00212368
0.00214
0.0021562
0.0021723
0.00218829
0.00220417
0.00221994
0.00223561
0.00225117
0.00226663
0.00228199
0.00229724
0.00231239
0.00232743
0.00234238
0.00235723
0.00237197
0.00238662
0.00240117
0.00241562
0.00242997
0.00244423
0.0024584
0.00247246
0.00248643
0.00250031
0.0025141
0.00252779
0.00254139
0.0025549
0.00256832
0.00258165
0.00259489
0.00260804
0.0026211
0.00263407
0.00264696
0.00265976
0.00267247
0.0026851
0.00269765
0.00271011
0.00272248
0.00273477
0.00274699
0.00275911
0.00277116
0.00278313
0.00279501
0.00280682
0.00281855
0.00283019
0.00284176
0.00285325
0.00286467
0.00287601
0.00288727
0.00289846
0.00290957
0.0029206
0.00293157
0.00294246
0.00295327
0.00296402
0.00297469
0.00298529
0.00299582
0.00300627
0.00301666
0.00302698
0.00303723
0.00304741
0.00305752
0.00306757
0.00307754
0.00308745
0.0030973
0.00310707
0.00311679
0.00312643
0.00313602
0.00314553
0.00315499
0.00316438
0.00317371
0.00318297
0.00319218
0.00320132
0.0032104
0.00321942
0.00322838
0.00323728
0.00324612
0.0032549
0.00326362
0.00327228
0.00328089
0.00328944
0.00329793
0.00330636
0.00331474
0.00332306
0.00333133
0.00333954
0.00334769
0.00335579
0.00336384
0.00337183
0.00337977
0.00338766
0.00339549
0.00340327
0.003411
0.00341868
0.00342631
0.00343388
0.00344141
0.00344888
0.00345631
0.00346368
0.00347101
0.00347829
0.00348552
0.0034927
0.00349983
0.00350691
0.00351395
0.00352094
0.00352789
0.00353478
0.00354163
0.00354844
0.0035552
0.00356192
0.00356859
0.00357521
0.0035818
0.00358834
0.00359483
0.00360128
0.00360769
0.00361406
0.00362038
0.00362666
0.0036329
0.0036391
0.00364526
0.00365137
0.00365745
0.00366348
0.00366948
0.00367543
0.00368135
0.00368723
0.00369306
0.00369886
0.00370462
0.00371034
0.00371602
0.00372167
0.00372728
0.00373285
0.00373838
0.00374388
0.00374934
0.00375477
0.00376015
0.00376551
0.00377082
0.00377611
0.00378135
0.00378656
0.00379174
0.00379688
0.00380199
0.00380707
0.00381211
0.00381712
0.00382209
0.00382703
0.00383194
0.00383682
0.00384166
0.00384648
0.00385126
0.00385601
0.00386072
0.00386541
0.00387006
0.00387469
0.00387928
0.00388384
0.00388838
0.00389288
0.00389736
0.0039018
0.00390621
0.0039106
0.00391496
0.00391928
0.00392358
0.00392785
0.0039321
0.00393631
0.0039405
0.00394466
0.00394879
0.00395289
0.00395697
0.00396102
0.00396504
0.00396904
0.00397301
0.00397696
0.00398088
0.00398477
0.00398864
0.00399248
0.0039963
0.00400009
0.00400385
0.0040076
0.00401131
0.00401501
0.00401867
0.00402232
0.00402594
0.00402954
0.00403311
0.00403666
0.00404018
0.00404369
0.00404717
0.00405062
0.00405406
0.00405747
0.00406086
0.00406423
0.00406757
0.0040709
0.0040742
0.00407748
0.00408074
0.00408397
0.00408719
0.00409038
0.00409356
0.00409671
0.00409984
0.00410295
0.00410605
0.00410912
0.00411217
0.0041152
0.00411821
0.0041212
0.00412417
0.00412713
0.00413006
0.00413297
0.00413587
0.00413875
0.0041416
0.00414444
0.00414726
0.00415006
0.00415285
0.00415561
0.00415836
0.00416109
0.0041638
0.00416649
0.00416917
0.00417183
0.00417447
0.00417709
0.0041797
0.00418229
0.00418487
0.00418742
0.00418996
0.00419248
0.00419499
0.00419748
0.00419996
0.00420241
0.00420486
0.00420728
0.00420969
0.00421209
0.00421447
0.00421683
0.00421918
0.00422151
0.00422383
0.00422614
0.00422842
0.0042307
0.00423296
0.0042352
0.00423743
0.00423965
0.00424185
0.00424403
0.0042462
0.00424836
0.00425051
0.00425264
0.00425475
0.00425686
0.00425895
0.00426102
0.00426308
0.00426513
0.00426717
0.00426919
0.0042712
0.0042732
0.00427518
0.00427715
0.00427911
0.00428106
0.00428299
0.00428491
0.00428682
0.00428872
0.0042906
0.00429247
0.00429433
0.00429618
0.00429801
0.00429984
0.00430165
0.00430345
0.00430524
0.00430702
0.00430878
0.00431054
0.00431228
0.00431401
0.00431573
0.00431744
0.00431914
0.00432083
0.00432251
0.00432417
0.00432583
0.00432747
0.00432911
0.00433073
0.00433235
0.00433395
0.00433554
0.00433713
0.0043387
0.00434026
0.00434181
0.00434336
0.00434489
0.00434641
0.00434793
0.00434943
0.00435092
0.00435241
0.00435388
0.00435535
0.0043568
0.00435825
0.00435969
0.00436112
0.00436254
0.00436395
0.00436535
0.00436674
0.00436812
0.0043695
0.00437086
0.00437222
0.00437357
0.00437491
0.00437624
0.00437756
0.00437888
0.00438019
0.00438148
0.00438277
0.00438405
0.00438533
0.00438659
0.00438785
0.0043891
0.00439034
0.00439158
0.0043928
0.00439402
0.00439523
0.00439643
0.00439763
0.00439881
0.00439999
0.00440117
0.00440233
0.00440349
0.00440464
0.00440578
0.00440692
0.00440805
0.00440917
0.00441028
0.00441139
0.00441249
0.00441359
0.00441467
0.00441575
0.00441683
0.00441789
0.00441895
0.00442001
0.00442105
0.00442209
0.00442312
0.00442415
0.00442517
0.00442619
0.00442719
0.00442819
0.00442919
0.00443018
0.00443116
0.00443214
0.00443311
0.00443407
0.00443503
0.00443598
0.00443693
0.00443787
0.0044388
0.00443973
0.00444065
0.00444157
0.00444248
0.00444339
0.00444429
0.00444518
0.00444607
0.00444695
0.00444783
0.0044487
0.00444957
0.00445043
0.00445129
0.00445214
0.00445298
0.00445382
0.00445466
0.00445549
0.00445631
0.00445713
0.00445795
0.00445876
0.00445956
0.00446036
0.00446116
0.00446194
0.00446273
0.00446351
0.00446428
0.00446505
0.00446582
0.00446658
0.00446734
0.00446809
0.00446883
0.00446958
0.00447031
0.00447105
0.00447177
0.0044725
0.00447322
0.00447393
0.00447464
0.00447535
0.00447605
0.00447675
0.00447744
0.00447813
0.00447882
0.0044795
0.00448017
0.00448085
0.00448151
0.00448218
0.00448284
0.00448349
0.00448415
0.00448479
0.00448544
0.00448608
0.00448671
0.00448734
0.00448797
0.0044886
0.00448922
0.00448984
0.00449045
0.00449106
0.00449166
0.00449227
0.00449286
0.00449346
0.00449405
0.00449464
0.00449522
0.0044958
0.00449638
0.00449695
0.00449752
0.00449809
0.00449865
0.00449921
0.00449977
0.00450032
0.00450087
0.00450141
0.00450196
0.0045025
0.00450303
0.00450357
0.0045041
0.00450462
0.00450515
0.00450567
0.00450618
0.0045067
0.00450721
0.00450772
0.00450822
0.00450872
0.00450922
0.00450972
0.00451021
0.0045107
0.00451119
0.00451167
0.00451215
0.00451263
0.0045131
0.00451358
0.00451405
0.00451451
0.00451498
0.00451544
0.0045159
0.00451635
0.00451681
0.00451726
0.0045177
0.00451815
0.00451859
0.00451903
0.00451947
0.0045199
0.00452033
0.00452076
0.00452119
0.00452161
0.00452204
0.00452246
0.00452287
0.00452329
0.0045237
0.00452411
0.00452451
0.00452492
0.00452532
0.00452572
0.00452612
0.00452651
0.00452691
0.0045273
0.00452768
0.00452807
0.00452845
0.00452884
0.00452921
0.00452959
0.00452997
0.00453034
0.00453071
0.00453108
0.00453144
0.00453181
0.00453217
0.00453253
0.00453288
0.00453324
0.00453359
0.00453394
0.00453429
0.00453464
0.00453498
0.00453533
0.00453567
0.00453601
0.00453634
0
0

