-14930.3
-0.0221924
-0.0076106
-0.00336834
-0.00143464
-0.000363872
0.000277422
0.000666461
0.000890584
0.000998471
0.00101997
0.000974948
0.000877632
0.000738805
0.000567015
0.00036923
0.000151228
-8.21494e-05
-0.000326838
-0.000579421
-0.000837044
-0.00109732
-0.00135828
-0.00161829
-0.00187604
-0.00213044
-0.00238065
-0.00262599
-0.00286594
-0.00310013
-0.00332826
-0.00355014
-0.00376566
-0.00397476
-0.00417743
-0.00437371
-0.00456366
-0.00474737
-0.00492495
-0.00509652
-0.00526222
-0.00542219
-0.00557657
-0.00572553
-0.0058692
-0.00600775
-0.00614133
-0.00627007
-0.00639414
-0.00651367
-0.00662881
-0.00673968
-0.00684642
-0.00694915
-0.00704799
-0.00714306
-0.00723446
-0.00732232
-0.00740673
-0.00748778
-0.00756559
-0.00764023
-0.0077118
-0.00778039
-0.00784607
-0.00790893
-0.00796904
-0.00802647
-0.0080813
-0.00813358
-0.0081834
-0.0082308
-0.00827585
-0.00831861
-0.00835914
-0.00839748
-0.0084337
-0.00846784
-0.00849995
-0.00853008
-0.00855828
-0.00858459
-0.00860905
-0.00863171
-0.00865261
-0.00867179
-0.00868928
-0.00870512
-0.00871936
-0.00873202
-0.00874315
-0.00875277
-0.00876092
-0.00876763
-0.00877293
-0.00877685
-0.00877943
-0.00878069
-0.00878066
-0.00877937
-0.00877685
-0.00877312
-0.00876821
-0.00876214
-0.00875495
-0.00874665
-0.00873726
-0.00872683
-0.00871535
-0.00870287
-0.00868939
-0.00867495
-0.00865957
-0.00864325
-0.00862604
-0.00860794
-0.00858897
-0.00856916
-0.00854853
-0.00852709
-0.00850485
-0.00848185
-0.0084581
-0.00843361
-0.0084084
-0.00838249
-0.00835589
-0.00832863
-0.00830071
-0.00827216
-0.00824298
-0.0082132
-0.00818282
-0.00815187
-0.00812035
-0.00808828
-0.00805568
-0.00802256
-0.00798893
-0.0079548
-0.00792019
-0.00788511
-0.00784957
-0.00781359
-0.00777717
-0.00774034
-0.00770309
-0.00766544
-0.00762741
-0.007589
-0.00755023
-0.0075111
-0.00747162
-0.00743182
-0.00739168
-0.00735124
-0.00731049
-0.00726944
-0.00722811
-0.0071865
-0.00714463
-0.0071025
-0.00706012
-0.0070175
-0.00697464
-0.00693156
-0.00688827
-0.00684477
-0.00680107
-0.00675717
-0.0067131
-0.00666884
-0.00662442
-0.00657983
-0.00653509
-0.0064902
-0.00644517
-0.0064
-0.00635471
-0.00630929
-0.00626376
-0.00621812
-0.00617238
-0.00612654
-0.00608061
-0.0060346
-0.00598851
-0.00594234
-0.0058961
-0.0058498
-0.00580345
-0.00575704
-0.00571059
-0.00566409
-0.00561756
-0.005571
-0.00552441
-0.0054778
-0.00543117
-0.00538453
-0.00533788
-0.00529123
-0.00524458
-0.00519793
-0.00515128
-0.00510465
-0.00505804
-0.00501144
-0.00496487
-0.00491832
-0.0048718
-0.00482532
-0.00477888
-0.00473247
-0.00468611
-0.0046398
-0.00459354
-0.00454733
-0.00450117
-0.00445508
-0.00440905
-0.00436309
-0.00431719
-0.00427136
-0.00422561
-0.00417994
-0.00413434
-0.00408883
-0.0040434
-0.00399805
-0.0039528
-0.00390764
-0.00386257
-0.00381759
-0.00377272
-0.00372794
-0.00368327
-0.0036387
-0.00359423
-0.00354988
-0.00350563
-0.0034615
-0.00341748
-0.00337358
-0.00332979
-0.00328612
-0.00324257
-0.00319914
-0.00315584
-0.00311266
-0.00306961
-0.00302669
-0.0029839
-0.00294123
-0.0028987
-0.0028563
-0.00281404
-0.00277191
-0.00272992
-0.00268807
-0.00264636
-0.00260478
-0.00256335
-0.00252206
-0.00248092
-0.00243991
-0.00239906
-0.00235835
-0.00231778
-0.00227737
-0.0022371
-0.00219698
-0.00215702
-0.0021172
-0.00207753
-0.00203802
-0.00199866
-0.00195946
-0.0019204
-0.00188151
-0.00184276
-0.00180418
-0.00176575
-0.00172747
-0.00168936
-0.0016514
-0.0016136
-0.00157596
-0.00153847
-0.00150115
-0.00146398
-0.00142698
-0.00139013
-0.00135345
-0.00131692
-0.00128056
-0.00124436
-0.00120832
-0.00117244
-0.00113672
-0.00110117
-0.00106577
-0.00103054
-0.00099547
-0.000960563
-0.000925817
-0.000891234
-0.000856813
-0.000822554
-0.000788458
-0.000754524
-0.000720752
-0.000687142
-0.000653695
-0.00062041
-0.000587286
-0.000554325
-0.000521527
-0.000488889
-0.000456413
-0.000424099
-0.000391945
-0.000359954
-0.000328123
-0.000296453
-0.000264943
-0.000233595
-0.000202405
-0.000171377
-0.000140508
-0.000109799
-7.92482e-05
-4.8857e-05
-1.86249e-05
1.14494e-05
4.13653e-05
7.11234e-05
0.000100724
0.000130167
0.000159453
0.000188583
0.000217556
0.000246374
0.000275036
0.000303543
0.000331895
0.000360092
0.000388136
0.000416026
0.000443762
0.000471345
0.000498776
0.000526055
0.000553182
0.000580159
0.000606984
0.000633659
0.000660184
0.000686559
0.000712785
0.000738862
0.000764791
0.000790572
0.000816206
0.000841694
0.000867035
0.00089223
0.00091728
0.000942185
0.000966946
0.000991563
0.00101604
0.00104037
0.00106456
0.0010886
0.00111251
0.00113627
0.0011599
0.00118338
0.00120672
0.00122993
0.001253
0.00127593
0.00129872
0.00132138
0.0013439
0.00136629
0.00138854
0.00141065
0.00143263
0.00145448
0.0014762
0.00149778
0.00151923
0.00154055
0.00156174
0.0015828
0.00160373
0.00162454
0.00164521
0.00166575
0.00168617
0.00170646
0.00172663
0.00174667
0.00176658
0.00178637
0.00180604
0.00182558
0.001845
0.0018643
0.00188348
0.00190253
0.00192147
0.00194028
0.00195898
0.00197755
0.00199601
0.00201435
0.00203258
0.00205069
0.00206868
0.00208655
0.00210431
0.00212196
0.00213949
0.00215691
0.00217422
0.00219142
0.0022085
0.00222548
0.00224234
0.00225909
0.00227574
0.00229227
0.0023087
0.00232502
0.00234123
0.00235734
0.00237334
0.00238923
0.00240502
0.00242071
0.00243629
0.00245177
0.00246715
0.00248243
0.0024976
0.00251267
0.00252765
0.00254252
0.00255729
0.00257197
0.00258654
0.00260102
0.00261541
0.00262969
0.00264388
0.00265797
0.00267197
0.00268588
0.00269969
0.00271341
0.00272703
0.00274056
0.002754
0.00276735
0.00278061
0.00279378
0.00280686
0.00281985
0.00283275
0.00284556
0.00285829
0.00287093
0.00288348
0.00289594
0.00290832
0.00292061
0.00293282
0.00294495
0.00295699
0.00296895
0.00298082
0.00299262
0.00300433
0.00301596
0.00302751
0.00303898
0.00305037
0.00306168
0.00307291
0.00308407
0.00309515
0.00310614
0.00311707
0.00312791
0.00313868
0.00314938
0.00315999
0.00317054
0.00318101
0.00319141
0.00320173
0.00321198
0.00322216
0.00323227
0.0032423
0.00325227
0.00326216
0.00327199
0.00328174
0.00329143
0.00330105
0.00331059
0.00332007
0.00332949
0.00333883
0.00334811
0.00335733
0.00336647
0.00337555
0.00338457
0.00339352
0.00340241
0.00341124
0.00342
0.0034287
0.00343733
0.00344591
0.00345442
0.00346287
0.00347126
0.00347959
0.00348786
0.00349607
0.00350423
0.00351232
0.00352035
0.00352833
0.00353625
0.00354411
0.00355191
0.00355966
0.00356735
0.00357499
0.00358257
0.00359009
0.00359756
0.00360498
0.00361234
0.00361965
0.0036269
0.0036341
0.00364125
0.00364835
0.00365539
0.00366239
0.00366933
0.00367622
0.00368306
0.00368985
0.00369659
0.00370328
0.00370992
0.00371652
0.00372306
0.00372956
0.00373601
0.00374241
0.00374876
0.00375507
0.00376133
0.00376755
0.00377372
0.00377984
0.00378592
0.00379195
0.00379794
0.00380389
0.00380979
0.00381565
0.00382146
0.00382723
0.00383296
0.00383864
0.00384429
0.00384989
0.00385544
0.00386096
0.00386644
0.00387187
0.00387727
0.00388262
0.00388794
0.00389322
0.00389845
0.00390365
0.00390881
0.00391393
0.00391901
0.00392405
0.00392906
0.00393403
0.00393896
0.00394385
0.00394871
0.00395353
0.00395832
0.00396307
0.00396778
0.00397246
0.0039771
0.00398171
0.00398629
0.00399083
0.00399533
0.0039998
0.00400424
0.00400865
0.00401302
0.00401736
0.00402166
0.00402594
0.00403018
0.00403439
0.00403857
0.00404271
0.00404683
0.00405091
0.00405496
0.00405899
0.00406298
0.00406694
0.00407087
0.00407478
0.00407865
0.00408249
0.00408631
0.00409009
0.00409385
0.00409758
0.00410128
0.00410495
0.0041086
0.00411221
0.0041158
0.00411937
0.0041229
0.00412641
0.00412989
0.00413335
0.00413678
0.00414018
0.00414356
0.00414691
0.00415023
0.00415354
0.00415681
0.00416006
0.00416329
0.00416649
0.00416967
0.00417282
0.00417595
0.00417905
0.00418214
0.00418519
0.00418823
0.00419124
0.00419423
0.0041972
0.00420014
0.00420306
0.00420596
0.00420884
0.00421169
0.00421452
0.00421734
0.00422013
0.00422289
0.00422564
0.00422837
0.00423107
0.00423376
0.00423642
0.00423907
0.00424169
0.00424429
0.00424688
0.00424944
0.00425199
0.00425451
0.00425702
0.00425951
0.00426197
0.00426442
0.00426685
0.00426926
0.00427166
0.00427403
0.00427639
0.00427873
0.00428105
0.00428335
0.00428564
0.0042879
0.00429015
0.00429239
0.0042946
0.0042968
0.00429898
0.00430115
0.0043033
0.00430543
0.00430755
0.00430965
0.00431173
0.0043138
0.00431585
0.00431789
0.00431991
0.00432192
0.0043239
0.00432588
0.00432784
0.00432978
0.00433171
0.00433363
0.00433553
0.00433741
0.00433929
0.00434114
0.00434299
0.00434481
0.00434663
0.00434843
0.00435022
0.00435199
0.00435375
0.00435549
0.00435723
0.00435895
0.00436065
0.00436235
0.00436403
0.00436569
0.00436735
0.00436899
0.00437062
0.00437224
0.00437384
0.00437543
0.00437701
0.00437858
0.00438014
0.00438168
0.00438321
0.00438474
0.00438624
0.00438774
0.00438923
0.0043907
0.00439217
0.00439362
0.00439506
0.00439649
0.00439791
0.00439932
0.00440071
0.0044021
0.00440348
0.00440484
0.0044062
0.00440754
0.00440888
0.0044102
0.00441152
0.00441282
0.00441411
0.0044154
0.00441667
0.00441794
0.00441919
0.00442044
0.00442168
0.0044229
0.00442412
0.00442533
0.00442653
0.00442772
0.0044289
0.00443007
0.00443123
0.00443239
0.00443353
0.00443467
0.0044358
0.00443692
0.00443803
0.00443913
0.00444022
0.00444131
0.00444239
0.00444345
0.00444452
0.00444557
0.00444661
0.00444765
0.00444868
0.0044497
0.00445072
0.00445172
0.00445272
0.00445371
0.00445469
0.00445567
0.00445664
0.0044576
0.00445855
0.0044595
0.00446044
0.00446137
0.0044623
0.00446322
0.00446413
0.00446503
0.00446593
0.00446682
0.00446771
0.00446858
0.00446945
0.00447032
0.00447118
0.00447203
0.00447287
0.00447371
0.00447454
0.00447537
0.00447619
0.004477
0.00447781
0.00447861
0.00447941
0.0044802
0.00448098
0.00448176
0.00448253
0.0044833
0.00448406
0.00448481
0.00448556
0.00448631
0.00448704
0.00448778
0.0044885
0.00448923
0.00448994
0.00449065
0.00449136
0.00449206
0.00449275
0.00449344
0.00449413
0.00449481
0.00449548
0.00449615
0.00449682
0.00449748
0.00449813
0.00449878
0.00449943
0.00450007
0.0045007
0.00450133
0.00450196
0.00450258
0.0045032
0.00450381
0.00450442
0.00450502
0.00450562
0.00450622
0.0045068
0.00450739
0.00450797
0.00450855
0.00450912
0.00450969
0.00451026
0.00451082
0.00451137
0.00451193
0.00451247
0.00451302
0.00451356
0.00451409
0.00451463
0.00451515
0.00451568
0.0045162
0.00451672
0.00451723
0.00451774
0.00451825
0.00451875
0.00451925
0.00451974
0.00452023
0.00452072
0.0045212
0.00452168
0.00452216
0.00452264
0.00452311
0.00452357
0.00452404
0.0045245
0.00452495
0.00452541
0.00452586
0.0045263
0.00452675
0.00452719
0.00452763
0.00452806
0.00452849
0.00452892
0.00452934
0.00452977
0.00453018
0.0045306
0.00453101
0.00453142
0.00453183
0.00453223
0.00453264
0.00453303
0.00453343
0.00453382
0.00453421
0.0045346
0.00453498
0.00453537
0.00453574
0.00453612
0.00453649
0.00453687
0.00453723
0.0045376
0.00453796
0.00453832
0.00453868
0.00453904
0.00453939
0.00453974
0.00454009
0.00454044
0.00454078
0.00454112
0.00454146
0.00454179
0.00454213
0.00454246
0.00454279
0.00454312
0.00454344
0.00454376
0.00454408
0.0045444
0.00454472
0.00454503
0.00454534
0.00454565
0.00454596
0.00454626
0.00454657
0.00454687
0.00454717
0.00454746
0.00454776
0.00454805
0.00454834
0.00454863
0.00454892
0.0045492
0.00454948
0.00454976
0.00455004
0.00455032
0.00455059
0.00455087
0.00455114
0.00455141
0.00455168
0.00455194
0.00455221
0.00455247
0.00455273
0.00455299
0.00455324
0
0

