-14930.3
-0.0225614
-0.00870319
-0.00488374
-0.00319222
-0.00225201
-0.00166265
-0.00126345
-0.000976405
-0.000759287
-0.000587709
-0.000446966
-0.000328999
-0.000231508
-0.000156822
-0.000109877
-9.59619e-05
-0.000119049
-0.000180983
-0.000281439
-0.000418312
-0.00058828
-0.000787329
-0.00101119
-0.00125564
-0.00151669
-0.00179068
-0.00207437
-0.00236486
-0.00265967
-0.00295663
-0.00325389
-0.0035499
-0.00384331
-0.00413302
-0.00441808
-0.00469773
-0.00497134
-0.00523838
-0.00549844
-0.0057512
-0.0059964
-0.00623387
-0.00646347
-0.00668513
-0.0068988
-0.0071045
-0.00730223
-0.00749205
-0.00767404
-0.00784829
-0.0080149
-0.00817399
-0.00832569
-0.00847014
-0.00860748
-0.00873787
-0.00886145
-0.00897837
-0.00908881
-0.00919291
-0.00929085
-0.00938276
-0.00946883
-0.00954919
-0.00962402
-0.00969346
-0.00975767
-0.00981679
-0.00987098
-0.00992039
-0.00996515
-0.0100054
-0.0100413
-0.0100729
-0.0101005
-0.0101241
-0.0101438
-0.0101599
-0.0101723
-0.0101812
-0.0101868
-0.0101891
-0.0101883
-0.0101844
-0.0101776
-0.0101679
-0.0101556
-0.0101405
-0.010123
-0.0101029
-0.0100806
-0.0100559
-0.010029
-0.01
-0.00996899
-0.009936
-0.00990113
-0.00986444
-0.00982602
-0.00978592
-0.00974422
-0.00970097
-0.00965625
-0.00961012
-0.00956263
-0.00951384
-0.00946381
-0.00941259
-0.00936025
-0.00930682
-0.00925236
-0.00919692
-0.00914054
-0.00908328
-0.00902517
-0.00896626
-0.00890659
-0.00884621
-0.00878514
-0.00872344
-0.00866113
-0.00859826
-0.00853486
-0.00847095
-0.00840659
-0.00834179
-0.00827659
-0.00821102
-0.0081451
-0.00807887
-0.00801236
-0.00794558
-0.00787857
-0.00781135
-0.00774394
-0.00767637
-0.00760866
-0.00754083
-0.0074729
-0.0074049
-0.00733684
-0.00726874
-0.00720062
-0.0071325
-0.00706439
-0.00699632
-0.00692829
-0.00686033
-0.00679244
-0.00672465
-0.00665697
-0.0065894
-0.00652197
-0.00645468
-0.00638755
-0.00632059
-0.00625381
-0.00618722
-0.00612084
-0.00605466
-0.0059887
-0.00592298
-0.00585749
-0.00579225
-0.00572726
-0.00566254
-0.00559809
-0.00553391
-0.00547002
-0.00540642
-0.00534311
-0.00528011
-0.00521742
-0.00515504
-0.00509298
-0.00503124
-0.00496983
-0.00490876
-0.00484802
-0.00478762
-0.00472756
-0.00466786
-0.0046085
-0.0045495
-0.00449086
-0.00443257
-0.00437465
-0.00431709
-0.0042599
-0.00420308
-0.00414663
-0.00409055
-0.00403485
-0.00397952
-0.00392457
-0.00386999
-0.0038158
-0.00376198
-0.00370855
-0.00365549
-0.00360282
-0.00355053
-0.00349862
-0.00344709
-0.00339594
-0.00334518
-0.0032948
-0.0032448
-0.00319519
-0.00314595
-0.0030971
-0.00304862
-0.00300052
-0.00295281
-0.00290547
-0.00285851
-0.00281192
-0.00276571
-0.00271988
-0.00267442
-0.00262932
-0.00258461
-0.00254025
-0.00249627
-0.00245266
-0.00240941
-0.00236652
-0.002324
-0.00228183
-0.00224003
-0.00219858
-0.00215749
-0.00211676
-0.00207638
-0.00203634
-0.00199666
-0.00195732
-0.00191833
-0.00187969
-0.00184138
-0.00180341
-0.00176579
-0.00172849
-0.00169154
-0.00165491
-0.00161861
-0.00158264
-0.001547
-0.00151168
-0.00147668
-0.00144201
-0.00140765
-0.0013736
-0.00133987
-0.00130645
-0.00127334
-0.00124053
-0.00120803
-0.00117584
-0.00114394
-0.00111234
-0.00108104
-0.00105003
-0.00101932
-0.000988891
-0.000958753
-0.0009289
-0.00089933
-0.000870042
-0.000841033
-0.0008123
-0.000783842
-0.000755657
-0.000727742
-0.000700096
-0.000672715
-0.000645599
-0.000618745
-0.00059215
-0.000565813
-0.000539732
-0.000513904
-0.000488327
-0.000463
-0.00043792
-0.000413086
-0.000388493
-0.000364142
-0.000340031
-0.000316156
-0.000292516
-0.00026911
-0.000245933
-0.000222986
-0.000200266
-0.00017777
-0.000155499
-0.000133447
-0.000111615
-8.99996e-05
-6.85998e-05
-4.74131e-05
-2.64375e-05
-5.67145e-06
1.48864e-05
3.52389e-05
5.53881e-05
7.53349e-05
9.50813e-05
0.000114629
0.000133981
0.000153138
0.000172102
0.000190875
0.000209458
0.000227855
0.000246064
0.00026409
0.000281934
0.000299596
0.00031708
0.000334386
0.000351517
0.000368473
0.000385258
0.000401871
0.000418315
0.000434592
0.000450703
0.00046665
0.000482434
0.000498056
0.000513519
0.000528824
0.000543973
0.000558966
0.000573806
0.000588493
0.00060303
0.000617418
0.000631658
0.000645752
0.000659701
0.000673507
0.00068717
0.000700692
0.000714075
0.00072732
0.000740428
0.000753402
0.000766241
0.000778949
0.000791524
0.000803971
0.000816288
0.000828478
0.000840542
0.000852482
0.000864298
0.000875991
0.000887564
0.000899016
0.00091035
0.000921567
0.000932667
0.000943652
0.000954523
0.000965281
0.000975928
0.000986464
0.000996891
0.00100721
0.00101742
0.00102753
0.00103752
0.00104742
0.00105721
0.00106691
0.00107649
0.00108598
0.00109538
0.00110467
0.00111387
0.00112297
0.00113197
0.00114089
0.00114971
0.00115843
0.00116707
0.00117562
0.00118407
0.00119244
0.00120072
0.00120892
0.00121703
0.00122505
0.00123299
0.00124085
0.00124863
0.00125632
0.00126394
0.00127147
0.00127893
0.00128631
0.00129361
0.00130083
0.00130798
0.00131505
0.00132205
0.00132898
0.00133584
0.00134262
0.00134933
0.00135597
0.00136255
0.00136905
0.00137548
0.00138185
0.00138815
0.00139439
0.00140056
0.00140666
0.00141271
0.00141869
0.0014246
0.00143046
0.00143625
0.00144198
0.00144765
0.00145326
0.00145882
0.00146431
0.00146975
0.00147513
0.00148046
0.00148573
0.00149094
0.0014961
0.00150121
0.00150626
0.00151126
0.00151621
0.0015211
0.00152594
0.00153074
0.00153548
0.00154017
0.00154482
0.00154941
0.00155396
0.00155846
0.00156291
0.00156732
0.00157168
0.00157599
0.00158026
0.00158449
0.00158867
0.00159281
0.0015969
0.00160095
0.00160496
0.00160892
0.00161285
0.00161673
0.00162058
0.00162438
0.00162814
0.00163187
0.00163555
0.0016392
0.00164281
0.00164638
0.00164991
0.00165341
0.00165687
0.00166029
0.00166368
0.00166704
0.00167035
0.00167364
0.00167689
0.0016801
0.00168328
0.00168643
0.00168955
0.00169263
0.00169568
0.0016987
0.00170169
0.00170465
0.00170757
0.00171047
0.00171333
0.00171617
0.00171897
0.00172175
0.0017245
0.00172722
0.00172991
0.00173257
0.00173521
0.00173782
0.0017404
0.00174295
0.00174548
0.00174798
0.00175045
0.0017529
0.00175533
0.00175773
0.0017601
0.00176245
0.00176478
0.00176708
0.00176935
0.00177161
0.00177384
0.00177604
0.00177823
0.00178039
0.00178253
0.00178465
0.00178674
0.00178881
0.00179087
0.0017929
0.00179491
0.0017969
0.00179886
0.00180081
0.00180274
0.00180465
0.00180654
0.00180841
0.00181026
0.00181209
0.0018139
0.00181569
0.00181747
0.00181922
0.00182096
0.00182268
0.00182438
0.00182607
0.00182774
0.00182939
0.00183102
0.00183264
0.00183424
0.00183582
0.00183739
0.00183894
0.00184048
0.00184199
0.0018435
0.00184499
0.00184646
0.00184792
0.00184936
0.00185079
0.00185221
0.00185361
0.00185499
0.00185636
0.00185772
0.00185906
0.00186039
0.00186171
0.00186301
0.0018643
0.00186558
0.00186684
0.00186809
0.00186933
0.00187055
0.00187176
0.00187296
0.00187415
0.00187533
0.00187649
0.00187764
0.00187878
0.00187991
0.00188103
0.00188214
0.00188323
0.00188431
0.00188539
0.00188645
0.0018875
0.00188854
0.00188957
0.00189059
0.0018916
0.0018926
0.00189359
0.00189457
0.00189554
0.0018965
0.00189745
0.00189839
0.00189932
0.00190024
0.00190115
0.00190205
0.00190295
0.00190383
0.00190471
0.00190557
0.00190643
0.00190728
0.00190812
0.00190896
0.00190978
0.0019106
0.00191141
0.00191221
0.001913
0.00191378
0.00191456
0.00191533
0.00191609
0.00191684
0.00191759
0.00191833
0.00191906
0.00191978
0.0019205
0.00192121
0.00192191
0.00192261
0.00192329
0.00192398
0.00192465
0.00192532
0.00192598
0.00192664
0.00192729
0.00192793
0.00192856
0.0019292
0.00192982
0.00193044
0.00193105
0.00193165
0.00193225
0.00193285
0.00193343
0.00193402
0.00193459
0.00193516
0.00193573
0.00193629
0.00193684
0.00193739
0.00193793
0.00193847
0.001939
0.00193953
0.00194005
0.00194057
0.00194108
0.00194159
0.00194209
0.00194259
0.00194308
0.00194357
0.00194406
0.00194453
0.00194501
0.00194548
0.00194594
0.0019464
0.00194686
0.00194731
0.00194776
0.0019482
0.00194864
0.00194907
0.0019495
0.00194993
0.00195035
0.00195077
0.00195118
0.00195159
0.001952
0.0019524
0.0019528
0.0019532
0.00195359
0.00195397
0.00195436
0.00195474
0.00195511
0.00195549
0.00195586
0.00195622
0.00195658
0.00195694
0.0019573
0.00195765
0.001958
0.00195834
0.00195869
0.00195902
0.00195936
0.00195969
0.00196002
0.00196035
0.00196067
0.00196099
0.00196131
0.00196163
0.00196194
0.00196225
0.00196255
0.00196285
0.00196315
0.00196345
0.00196375
0.00196404
0.00196433
0.00196461
0.0019649
0.00196518
0.00196546
0.00196573
0.00196601
0.00196628
0.00196655
0.00196681
0.00196708
0.00196734
0.0019676
0.00196785
0.00196811
0.00196836
0.00196861
0.00196886
0.0019691
0.00196935
0.00196959
0.00196982
0.00197006
0.0019703
0.00197053
0.00197076
0.00197098
0.00197121
0.00197143
0.00197166
0.00197188
0.00197209
0.00197231
0.00197252
0.00197274
0.00197295
0.00197316
0.00197336
0.00197357
0.00197377
0.00197397
0.00197417
0.00197437
0.00197456
0.00197476
0.00197495
0.00197514
0.00197533
0.00197552
0.0019757
0.00197589
0.00197607
0.00197625
0.00197643
0.00197661
0.00197679
0.00197696
0.00197713
0.0019773
0.00197748
0.00197764
0.00197781
0.00197798
0.00197814
0.00197831
0.00197847
0.00197863
0.00197879
0.00197894
0.0019791
0.00197926
0.00197941
0.00197956
0.00197971
0.00197986
0.00198001
0.00198016
0.0019803
0.00198045
0.00198059
0.00198074
0.00198088
0.00198102
0.00198116
0.00198129
0.00198143
0.00198157
0.0019817
0.00198183
0.00198196
0.0019821
0.00198223
0.00198235
0.00198248
0.00198261
0.00198273
0.00198286
0.00198298
0.00198311
0.00198323
0.00198335
0.00198347
0.00198359
0.00198371
0.00198382
0.00198394
0.00198405
0.00198417
0.00198428
0.00198439
0.0019845
0.00198461
0.00198472
0.00198483
0.00198494
0.00198505
0.00198515
0.00198526
0.00198536
0.00198547
0.00198557
0.00198567
0.00198577
0.00198587
0.00198597
0.00198607
0.00198617
0.00198627
0.00198637
0.00198646
0.00198656
0.00198665
0.00198675
0.00198684
0.00198693
0.00198702
0.00198711
0.0019872
0.00198729
0.00198738
0.00198747
0.00198756
0.00198764
0.00198773
0.00198782
0.0019879
0.00198799
0.00198807
0.00198815
0.00198824
0.00198832
0.0019884
0.00198848
0.00198856
0.00198864
0.00198872
0.0019888
0.00198887
0.00198895
0.00198903
0.0019891
0.00198918
0.00198925
0.00198933
0.0019894
0.00198948
0.00198955
0.00198962
0.00198969
0.00198976
0.00198983
0.0019899
0.00198997
0.00199004
0.00199011
0.00199018
0.00199025
0.00199032
0.00199038
0.00199045
0.00199052
0.00199058
0.00199065
0.00199071
0.00199078
0.00199084
0.0019909
0.00199097
0.00199103
0.00199109
0.00199115
0.00199121
0.00199127
0.00199133
0.00199139
0.00199145
0.00199151
0.00199157
0.00199163
0.00199169
0.00199174
0.0019918
0.00199186
0.00199192
0.00199197
0.00199203
0.00199208
0.00199214
0.00199219
0.00199225
0.0019923
0.00199235
0.00199241
0.00199246
0.00199251
0.00199256
0.00199262
0.00199267
0.00199272
0.00199277
0.00199282
0.00199287
0.00199292
0.00199297
0.00199302
0.00199307
0.00199312
0.00199317
0.00199321
0.00199326
0.00199331
0.00199336
0.0019934
0.00199345
0.0019935
0.00199354
0.00199359
0.00199363
0.00199368
0.00199372
0.00199377
0.00199381
0.00199386
0.0019939
0.00199394
0.00199399
0.00199403
0.00199407
0.00199412
0.00199416
0.0019942
0.00199424
0.00199428
0.00199432
0.00199437
0.00199441
0.00199445
0.00199449
0.00199453
0.00199457
0.00199461
0.00199465
0.00199468
0.00199472
0.00199476
0.0019948
0.00199484
0.00199488
0.00199492
0.00199495
0.00199499
0.00199503
0.00199507
0.0019951
0.00199514
0.00199517
0.00199521
0.00199525
0
0

