-14930.3
-0.0225614
-0.00870319
-0.00488374
-0.00319222
-0.00225201
-0.00166265
-0.00126345
-0.000976405
-0.000759287
-0.000587709
-0.000446966
-0.000329508
-0.000234839
-0.000168736
-0.000140884
-0.000161812
-0.000240361
-0.000382235
-0.000589579
-0.000861234
-0.00119328
-0.00157965
-0.00201265
-0.00248351
-0.00298285
-0.00350118
-0.00402934
-0.00455885
-0.00508219
-0.00559295
-0.0060859
-0.00655697
-0.00700313
-0.00742231
-0.00781329
-0.00817549
-0.0085089
-0.00881398
-0.00909148
-0.00934244
-0.00956805
-0.00976962
-0.00994853
-0.0101062
-0.010244
-0.0103634
-0.0104657
-0.0105522
-0.0106241
-0.0106826
-0.0107288
-0.0107637
-0.0107882
-0.0108034
-0.01081
-0.0108087
-0.0108003
-0.0107855
-0.0107648
-0.0107387
-0.0107079
-0.0106727
-0.0106335
-0.0105908
-0.0105449
-0.0104962
-0.0104449
-0.0103912
-0.0103355
-0.010278
-0.0102188
-0.0101582
-0.0100963
-0.0100333
-0.0099693
-0.00990444
-0.00983884
-0.0097726
-0.00970582
-0.00963859
-0.00957098
-0.00950308
-0.00943494
-0.00936663
-0.00929819
-0.00922969
-0.00916116
-0.00909264
-0.00902417
-0.00895579
-0.00888753
-0.00881941
-0.00875145
-0.00868368
-0.00861613
-0.0085488
-0.00848172
-0.0084149
-0.00834835
-0.00828209
-0.00821612
-0.00815046
-0.00808511
-0.00802009
-0.00795539
-0.00789102
-0.007827
-0.00776332
-0.00769999
-0.00763701
-0.00757438
-0.00751211
-0.0074502
-0.00738865
-0.00732746
-0.00726664
-0.00720618
-0.00714608
-0.00708634
-0.00702697
-0.00696796
-0.00690932
-0.00685104
-0.00679312
-0.00673556
-0.00667837
-0.00662153
-0.00656505
-0.00650893
-0.00645316
-0.00639774
-0.00634268
-0.00628797
-0.00623361
-0.0061796
-0.00612593
-0.00607261
-0.00601963
-0.00596699
-0.00591469
-0.00586272
-0.0058111
-0.0057598
-0.00570884
-0.00565821
-0.0056079
-0.00555792
-0.00550826
-0.00545893
-0.00540992
-0.00536122
-0.00531284
-0.00526478
-0.00521703
-0.00516958
-0.00512245
-0.00507563
-0.0050291
-0.00498288
-0.00493697
-0.00489135
-0.00484603
-0.004801
-0.00475627
-0.00471183
-0.00466768
-0.00462381
-0.00458024
-0.00453695
-0.00449394
-0.00445121
-0.00440876
-0.00436658
-0.00432469
-0.00428306
-0.00424171
-0.00420063
-0.00415981
-0.00411926
-0.00407898
-0.00403896
-0.00399921
-0.00395971
-0.00392047
-0.00388149
-0.00384276
-0.00380428
-0.00376606
-0.00372808
-0.00369036
-0.00365288
-0.00361565
-0.00357866
-0.00354191
-0.0035054
-0.00346913
-0.0034331
-0.00339731
-0.00336175
-0.00332642
-0.00329132
-0.00325645
-0.00322182
-0.0031874
-0.00315322
-0.00311925
-0.00308551
-0.00305199
-0.00301869
-0.00298561
-0.00295275
-0.0029201
-0.00288766
-0.00285544
-0.00282343
-0.00279162
-0.00276003
-0.00272864
-0.00269746
-0.00266649
-0.00263571
-0.00260514
-0.00257477
-0.0025446
-0.00251462
-0.00248485
-0.00245527
-0.00242588
-0.00239668
-0.00236768
-0.00233887
-0.00231024
-0.0022818
-0.00225356
-0.00222549
-0.00219761
-0.00216991
-0.0021424
-0.00211506
-0.00208791
-0.00206093
-0.00203413
-0.00200751
-0.00198106
-0.00195479
-0.00192868
-0.00190275
-0.00187699
-0.0018514
-0.00182598
-0.00180072
-0.00177563
-0.00175071
-0.00172595
-0.00170135
-0.00167691
-0.00165264
-0.00162852
-0.00160456
-0.00158076
-0.00155712
-0.00153363
-0.00151029
-0.00148712
-0.00146409
-0.00144121
-0.00141849
-0.00139591
-0.00137348
-0.0013512
-0.00132907
-0.00130708
-0.00128524
-0.00126354
-0.00124198
-0.00122057
-0.00119929
-0.00117816
-0.00115717
-0.00113631
-0.00111559
-0.00109501
-0.00107456
-0.00105425
-0.00103407
-0.00101403
-0.000994117
-0.000974335
-0.000954683
-0.000935161
-0.000915768
-0.000896502
-0.000877364
-0.000858352
-0.000839465
-0.000820702
-0.000802063
-0.000783547
-0.000765154
-0.000746881
-0.000728729
-0.000710697
-0.000692783
-0.000674988
-0.00065731
-0.000639748
-0.000622303
-0.000604973
-0.000587757
-0.000570654
-0.000553664
-0.000536787
-0.000520021
-0.000503365
-0.00048682
-0.000470384
-0.000454056
-0.000437835
-0.000421722
-0.000405716
-0.000389814
-0.000374018
-0.000358327
-0.000342738
-0.000327253
-0.00031187
-0.000296589
-0.000281409
-0.000266328
-0.000251348
-0.000236466
-0.000221682
-0.000206997
-0.000192408
-0.000177915
-0.000163519
-0.000149217
-0.000135011
-0.000120897
-0.000106878
-9.29506e-05
-7.91153e-05
-6.53717e-05
-5.17184e-05
-3.8156e-05
-2.46831e-05
-1.12991e-05
1.99688e-06
1.5204e-05
2.83244e-05
4.13582e-05
5.43052e-05
6.7167e-05
7.99443e-05
9.26362e-05
0.000105244
0.000117769
0.000130212
0.000142572
0.00015485
0.000167046
0.000179163
0.000191199
0.000203156
0.000215033
0.000226832
0.000238553
0.000250196
0.000261762
0.000273252
0.000284666
0.000296004
0.000307267
0.000318455
0.000329571
0.000340611
0.00035158
0.000362475
0.000373298
0.00038405
0.00039473
0.00040534
0.00041588
0.00042635
0.00043675
0.000447082
0.000457345
0.000467541
0.000477669
0.000487729
0.000497724
0.000507652
0.000517514
0.000527311
0.000537043
0.000546711
0.000556315
0.000565855
0.000575332
0.000584746
0.000594098
0.000603388
0.000612616
0.000621784
0.00063089
0.000639936
0.000648923
0.000657849
0.000666717
0.000675526
0.000684276
0.000692968
0.000701603
0.00071018
0.0007187
0.000727164
0.000735572
0.000743925
0.000752221
0.000760463
0.000768651
0.000776784
0.000784863
0.000792889
0.000800861
0.000808781
0.000816648
0.000824463
0.000832227
0.000839938
0.000847599
0.000855209
0.000862769
0.000870278
0.000877738
0.000885149
0.000892509
0.000899823
0.000907087
0.000914302
0.00092147
0.000928591
0.000935664
0.00094269
0.00094967
0.000956604
0.000963492
0.000970334
0.00097713
0.000983882
0.000990589
0.000997252
0.00100387
0.00101044
0.00101698
0.00102346
0.00102991
0.00103631
0.00104267
0.00104899
0.00105526
0.0010615
0.00106769
0.00107384
0.00107995
0.00108602
0.00109205
0.00109804
0.00110399
0.0011099
0.00111577
0.00112161
0.0011274
0.00113316
0.00113887
0.00114455
0.0011502
0.0011558
0.00116137
0.0011669
0.00117239
0.00117785
0.00118327
0.00118866
0.00119401
0.00119932
0.0012046
0.00120984
0.00121505
0.00122023
0.00122537
0.00123047
0.00123555
0.00124059
0.00124559
0.00125056
0.0012555
0.00126041
0.00126528
0.00127013
0.00127493
0.00127971
0.00128446
0.00128917
0.00129386
0.00129851
0.00130313
0.00130772
0.00131228
0.00131681
0.00132131
0.00132578
0.00133022
0.00133464
0.00133902
0.00134337
0.0013477
0.00135199
0.00135626
0.0013605
0.00136471
0.00136889
0.00137305
0.00137717
0.00138127
0.00138535
0.00138939
0.00139341
0.0013974
0.00140137
0.00140531
0.00140923
0.00141311
0.00141698
0.00142081
0.00142462
0.00142841
0.00143217
0.00143591
0.00143962
0.0014433
0.00144697
0.0014506
0.00145422
0.00145781
0.00146137
0.00146492
0.00146844
0.00147193
0.0014754
0.00147885
0.00148228
0.00148568
0.00148907
0.00149242
0.00149576
0.00149908
0.00150237
0.00150564
0.00150889
0.00151212
0.00151532
0.00151851
0.00152167
0.00152482
0.00152794
0.00153104
0.00153412
0.00153718
0.00154022
0.00154324
0.00154624
0.00154922
0.00155218
0.00155513
0.00155805
0.00156095
0.00156383
0.0015667
0.00156954
0.00157237
0.00157518
0.00157797
0.00158074
0.00158349
0.00158622
0.00158894
0.00159164
0.00159432
0.00159698
0.00159962
0.00160225
0.00160486
0.00160745
0.00161003
0.00161259
0.00161513
0.00161765
0.00162016
0.00162265
0.00162513
0.00162759
0.00163003
0.00163246
0.00163487
0.00163726
0.00163964
0.001642
0.00164435
0.00164668
0.001649
0.0016513
0.00165358
0.00165585
0.00165811
0.00166035
0.00166258
0.00166479
0.00166698
0.00166917
0.00167133
0.00167349
0.00167563
0.00167775
0.00167986
0.00168196
0.00168404
0.00168611
0.00168817
0.00169021
0.00169224
0.00169425
0.00169626
0.00169824
0.00170022
0.00170218
0.00170413
0.00170607
0.00170799
0.0017099
0.0017118
0.00171369
0.00171556
0.00171742
0.00171927
0.00172111
0.00172293
0.00172475
0.00172655
0.00172834
0.00173011
0.00173188
0.00173363
0.00173537
0.0017371
0.00173882
0.00174053
0.00174223
0.00174391
0.00174559
0.00174725
0.0017489
0.00175054
0.00175218
0.0017538
0.0017554
0.001757
0.00175859
0.00176017
0.00176174
0.00176329
0.00176484
0.00176638
0.0017679
0.00176942
0.00177092
0.00177242
0.00177391
0.00177538
0.00177685
0.00177831
0.00177976
0.00178119
0.00178262
0.00178404
0.00178545
0.00178685
0.00178824
0.00178963
0.001791
0.00179236
0.00179372
0.00179507
0.0017964
0.00179773
0.00179905
0.00180036
0.00180166
0.00180296
0.00180424
0.00180552
0.00180679
0.00180805
0.0018093
0.00181055
0.00181178
0.00181301
0.00181423
0.00181544
0.00181664
0.00181784
0.00181903
0.00182021
0.00182138
0.00182254
0.0018237
0.00182485
0.00182599
0.00182713
0.00182825
0.00182937
0.00183048
0.00183159
0.00183269
0.00183378
0.00183486
0.00183594
0.00183701
0.00183807
0.00183912
0.00184017
0.00184121
0.00184225
0.00184327
0.00184429
0.00184531
0.00184632
0.00184732
0.00184831
0.0018493
0.00185028
0.00185126
0.00185222
0.00185319
0.00185414
0.00185509
0.00185604
0.00185697
0.0018579
0.00185883
0.00185975
0.00186066
0.00186157
0.00186247
0.00186336
0.00186425
0.00186514
0.00186601
0.00186689
0.00186775
0.00186861
0.00186947
0.00187032
0.00187116
0.001872
0.00187283
0.00187366
0.00187448
0.0018753
0.00187611
0.00187692
0.00187772
0.00187851
0.0018793
0.00188009
0.00188087
0.00188164
0.00188241
0.00188318
0.00188394
0.00188469
0.00188544
0.00188619
0.00188693
0.00188766
0.00188839
0.00188912
0.00188984
0.00189056
0.00189127
0.00189198
0.00189268
0.00189338
0.00189407
0.00189476
0.00189544
0.00189612
0.0018968
0.00189747
0.00189814
0.0018988
0.00189946
0.00190011
0.00190076
0.00190141
0.00190205
0.00190268
0.00190332
0.00190395
0.00190457
0.00190519
0.00190581
0.00190642
0.00190703
0.00190763
0.00190823
0.00190883
0.00190942
0.00191001
0.0019106
0.00191118
0.00191176
0.00191233
0.0019129
0.00191347
0.00191403
0.00191459
0.00191514
0.0019157
0.00191624
0.00191679
0.00191733
0.00191787
0.0019184
0.00191893
0.00191946
0.00191998
0.0019205
0.00192102
0.00192154
0.00192205
0.00192255
0.00192306
0.00192356
0.00192406
0.00192455
0.00192504
0.00192553
0.00192601
0.0019265
0.00192697
0.00192745
0.00192792
0.00192839
0.00192886
0.00192932
0.00192978
0.00193024
0.00193069
0.00193114
0.00193159
0.00193204
0.00193248
0.00193292
0.00193336
0.00193379
0.00193422
0.00193465
0.00193508
0.0019355
0.00193592
0.00193634
0.00193675
0.00193717
0.00193757
0.00193798
0.00193839
0.00193879
0.00193919
0.00193958
0.00193998
0.00194037
0.00194076
0.00194114
0.00194153
0.00194191
0.00194229
0.00194267
0.00194304
0.00194341
0.00194378
0.00194415
0.00194451
0.00194488
0.00194524
0.00194559
0.00194595
0.0019463
0.00194665
0.001947
0.00194735
0.00194769
0.00194803
0.00194838
0.00194871
0.00194905
0.00194938
0.00194971
0.00195004
0.00195037
0.00195069
0.00195102
0.00195134
0.00195166
0.00195197
0.00195229
0.0019526
0.00195291
0.00195322
0.00195353
0.00195383
0.00195413
0.00195443
0.00195473
0.00195503
0.00195533
0.00195562
0.00195591
0.0019562
0.00195649
0.00195677
0.00195706
0.00195734
0.00195762
0.0019579
0.00195818
0.00195845
0.00195872
0.001959
0.00195927
0.00195953
0.0019598
0.00196007
0.00196033
0.00196059
0.00196085
0.00196111
0.00196136
0.00196162
0.00196187
0.00196212
0.00196237
0.00196262
0.00196287
0.00196311
0.00196336
0.0019636
0.00196384
0.00196408
0.00196432
0.00196455
0.00196479
0.00196502
0.00196525
0.00196548
0.00196571
0.00196594
0.00196617
0.00196639
0.00196661
0.00196684
0.00196706
0.00196728
0.00196749
0.00196771
0.00196792
0.00196814
0.00196835
0.00196856
0.00196877
0.00196898
0.00196918
0.00196939
0.00196959
0.0019698
0.00197
0.0019702
0.0019704
0.0019706
0.00197079
0.00197099
0.00197118
0.00197137
0.00197157
0.00197176
0.00197195
0.00197213
0.00197232
0.00197251
0.00197269
0
0

