-14930.3
-0.0222844
-0.00729239
-0.00263465
-0.000307047
0.00114287
0.0021594
0.00292917
0.00354602
0.00406213
0.00450828
0.00490337
0.00525937
0.00558403
0.00588257
0.00615851
0.00641436
0.00665193
0.00687257
0.0070773
0.00726695
0.00744218
0.00760354
0.0077515
0.00788649
0.00800886
0.00811898
0.00821714
0.00830364
0.00837878
0.00844282
0.00849602
0.00853866
0.00857098
0.00859324
0.0086057
0.00860861
0.00860223
0.00858682
0.00856262
0.0085299
0.0084889
0.0084399
0.00838314
0.00831889
0.00824739
0.00816892
0.0080837
0.00799202
0.0078941
0.00779021
0.0076806
0.0075655
0.00744515
0.00731981
0.00718969
0.00705505
0.00691609
0.00677306
0.00662617
0.00647563
0.00632166
0.00616447
0.00600426
0.00584124
0.00567559
0.0055075
0.00533717
0.00516478
0.00499049
0.00481449
0.00463693
0.00445799
0.00427781
0.00409656
0.00391438
0.0037314
0.00354778
0.00336365
0.00317913
0.00299434
0.00280942
0.00262447
0.00243962
0.00225495
0.00207058
0.00188661
0.00170313
0.00152023
0.00133801
0.00115653
0.000975895
0.000796164
0.000617414
0.000439713
0.000263127
8.7717e-05
-8.64568e-05
-0.000259339
-0.000430877
-0.000601019
-0.000769721
-0.000936938
-0.00110263
-0.00126675
-0.00142928
-0.00159016
-0.00174939
-0.00190691
-0.00206272
-0.00221677
-0.00236906
-0.00251956
-0.00266825
-0.00281511
-0.00296013
-0.0031033
-0.00324461
-0.00338404
-0.00352158
-0.00365724
-0.003791
-0.00392285
-0.00405281
-0.00418086
-0.004307
-0.00443124
-0.00455357
-0.00467401
-0.00479254
-0.00490919
-0.00502394
-0.00513681
-0.00524781
-0.00535694
-0.00546421
-0.00556963
-0.00567322
-0.00577497
-0.0058749
-0.00597303
-0.00606936
-0.0061639
-0.00625668
-0.0063477
-0.00643698
-0.00652452
-0.00661035
-0.00669448
-0.00677693
-0.0068577
-0.00693682
-0.00701429
-0.00709014
-0.00716439
-0.00723704
-0.00730811
-0.00737762
-0.00744559
-0.00751203
-0.00757696
-0.0076404
-0.00770236
-0.00776286
-0.00782191
-0.00787953
-0.00793574
-0.00799056
-0.008044
-0.00809608
-0.00814681
-0.00819622
-0.00824431
-0.00829111
-0.00833662
-0.00838087
-0.00842388
-0.00846565
-0.00850621
-0.00854557
-0.00858374
-0.00862075
-0.0086566
-0.00869131
-0.00872491
-0.00875739
-0.00878878
-0.00881909
-0.00884834
-0.00887654
-0.00890371
-0.00892985
-0.00895499
-0.00897913
-0.0090023
-0.0090245
-0.00904575
-0.00906606
-0.00908544
-0.00910392
-0.00912149
-0.00913817
-0.00915399
-0.00916893
-0.00918303
-0.00919629
-0.00920873
-0.00922035
-0.00923116
-0.00924119
-0.00925044
-0.00925891
-0.00926663
-0.0092736
-0.00927984
-0.00928534
-0.00929014
-0.00929422
-0.00929762
-0.00930032
-0.00930235
-0.00930371
-0.00930442
-0.00930448
-0.0093039
-0.0093027
-0.00930087
-0.00929843
-0.00929539
-0.00929175
-0.00928753
-0.00928273
-0.00927737
-0.00927144
-0.00926496
-0.00925793
-0.00925037
-0.00924227
-0.00923366
-0.00922452
-0.00921488
-0.00920474
-0.00919411
-0.00918299
-0.00917139
-0.00915931
-0.00914677
-0.00913376
-0.00912031
-0.0091064
-0.00909206
-0.00907727
-0.00906206
-0.00904643
-0.00903037
-0.00901391
-0.00899704
-0.00897976
-0.0089621
-0.00894404
-0.00892559
-0.00890677
-0.00888757
-0.00886801
-0.00884807
-0.00882778
-0.00880713
-0.00878614
-0.00876479
-0.00874311
-0.00872109
-0.00869874
-0.00867606
-0.00865305
-0.00862973
-0.00860609
-0.00858214
-0.00855789
-0.00853333
-0.00850848
-0.00848332
-0.00845788
-0.00843215
-0.00840614
-0.00837984
-0.00835327
-0.00832643
-0.00829931
-0.00827193
-0.00824429
-0.00821639
-0.00818823
-0.00815982
-0.00813116
-0.00810225
-0.0080731
-0.00804371
-0.00801408
-0.00798422
-0.00795413
-0.0079238
-0.00789325
-0.00786248
-0.00783149
-0.00780028
-0.00776886
-0.00773722
-0.00770537
-0.00767332
-0.00764106
-0.0076086
-0.00757594
-0.00754308
-0.00751003
-0.00747679
-0.00744336
-0.00740973
-0.00737593
-0.00734194
-0.00730777
-0.00727342
-0.00723889
-0.00720419
-0.00716932
-0.00713428
-0.00709907
-0.00706369
-0.00702815
-0.00699244
-0.00695658
-0.00692056
-0.00688438
-0.00684805
-0.00681157
-0.00677493
-0.00673815
-0.00670122
-0.00666414
-0.00662692
-0.00658956
-0.00655206
-0.00651442
-0.00647664
-0.00643873
-0.00640068
-0.00636251
-0.0063242
-0.00628577
-0.00624721
-0.00620852
-0.00616971
-0.00613078
-0.00609172
-0.00605255
-0.00601326
-0.00597386
-0.00593433
-0.0058947
-0.00585495
-0.0058151
-0.00577513
-0.00573506
-0.00569488
-0.0056546
-0.00561421
-0.00557372
-0.00553313
-0.00549244
-0.00545165
-0.00541076
-0.00536978
-0.00532871
-0.00528754
-0.00524628
-0.00520493
-0.00516349
-0.00512196
-0.00508034
-0.00503864
-0.00499685
-0.00495498
-0.00491303
-0.004871
-0.00482888
-0.00478669
-0.00474442
-0.00470208
-0.00465966
-0.00461716
-0.00457459
-0.00453195
-0.00448924
-0.00444645
-0.0044036
-0.00436068
-0.0043177
-0.00427465
-0.00423153
-0.00418835
-0.00414511
-0.0041018
-0.00405844
-0.00401501
-0.00397153
-0.00392799
-0.00388439
-0.00384074
-0.00379703
-0.00375327
-0.00370946
-0.00366559
-0.00362167
-0.0035777
-0.00353369
-0.00348962
-0.00344551
-0.00340136
-0.00335715
-0.00331291
-0.00326862
-0.00322428
-0.00317991
-0.00313549
-0.00309104
-0.00304654
-0.00300201
-0.00295744
-0.00291283
-0.00286819
-0.00282351
-0.0027788
-0.00273406
-0.00268928
-0.00264447
-0.00259963
-0.00255477
-0.00250987
-0.00246495
-0.00241999
-0.00237502
-0.00233001
-0.00228498
-0.00223993
-0.00219485
-0.00214975
-0.00210463
-0.00205949
-0.00201433
-0.00196915
-0.00192395
-0.00187873
-0.0018335
-0.00178825
-0.00174298
-0.0016977
-0.00165241
-0.0016071
-0.00156178
-0.00151644
-0.0014711
-0.00142575
-0.00138038
-0.00133501
-0.00128963
-0.00124424
-0.00119884
-0.00115344
-0.00110804
-0.00106262
-0.00101721
-0.00097179
-0.000926369
-0.000880945
-0.000835521
-0.000790096
-0.000744671
-0.000699247
-0.000653824
-0.000608404
-0.000562986
-0.000517572
-0.000472162
-0.000426757
-0.000381357
-0.000335963
-0.000290576
-0.000245197
-0.000199825
-0.000154462
-0.000109108
-6.37645e-05
-1.84309e-05
2.68912e-05
7.22013e-05
0.000117499
0.000162785
0.000208056
0.000253313
0.000298555
0.000343782
0.000388992
0.000434187
0.000479363
0.000524523
0.000569663
0.000614785
0.000659887
0.000704969
0.000750029
0.000795069
0.000840086
0.000885081
0.000930052
0.000975
0.00101992
0.00106482
0.0011097
0.00115455
0.00119937
0.00124416
0.00128893
0.00133367
0.00137838
0.00142306
0.00146771
0.00151234
0.00155693
0.00160149
0.00164602
0.00169052
0.00173498
0.00177941
0.00182381
0.00186817
0.0019125
0.00195679
0.00200105
0.00204527
0.00208945
0.0021336
0.00217771
0.00222178
0.00226581
0.00230981
0.00235376
0.00239768
0.00244155
0.00248538
0.00252917
0.00257292
0.00261663
0.00266029
0.00270391
0.00274749
0.00279102
0.00283451
0.00287796
0.00292135
0.00296471
0.00300801
0.00305127
0.00309448
0.00313764
0.00318076
0.00322383
0.00326685
0.00330981
0.00335273
0.0033956
0.00343842
0.00348119
0.00352391
0.00356657
0.00360918
0.00365174
0.00369425
0.0037367
0.0037791
0.00382145
0.00386374
0.00390598
0.00394816
0.00399029
0.00403236
0.00407437
0.00411633
0.00415823
0.00420007
0.00424186
0.00428358
0.00432525
0.00436686
0.00440841
0.00444991
0.00449134
0.00453271
0.00457402
0.00461527
0.00465646
0.00469759
0.00473865
0.00477966
0.0048206
0.00486148
0.0049023
0.00494305
0.00498374
0.00502437
0.00506493
0.00510542
0.00514586
0.00518622
0.00522653
0.00526676
0.00530693
0.00534704
0.00538707
0.00542705
0.00546695
0.00550679
0.00554655
0.00558626
0.00562589
0.00566545
0.00570495
0.00574438
0.00578374
0.00582303
0.00586224
0.00590139
0.00594047
0.00597948
0.00601842
0.00605729
0.00609609
0.00613481
0.00617347
0.00621205
0.00625056
0.006289
0.00632736
0.00636566
0.00640388
0.00644202
0.0064801
0.0065181
0.00655603
0.00659388
0.00663166
0.00666937
0.006707
0.00674455
0.00678204
0.00681944
0.00685678
0.00689403
0.00693121
0.00696832
0.00700535
0.0070423
0.00707918
0.00711598
0.00715271
0.00718935
0.00722593
0.00726242
0.00729884
0.00733518
0.00737144
0.00740763
0.00744373
0.00747976
0.00751572
0.00755159
0.00758738
0.0076231
0.00765874
0.0076943
0.00772978
0.00776519
0.00780051
0.00783575
0.00787092
0.00790601
0.00794101
0.00797594
0.00801079
0.00804556
0.00808024
0.00811485
0.00814938
0.00818383
0.0082182
0.00825248
0.00828669
0.00832082
0.00835486
0.00838883
0.00842271
0.00845652
0.00849024
0.00852388
0.00855744
0.00859092
0.00862432
0.00865764
0.00869087
0.00872403
0.0087571
0.00879009
0.008823
0.00885583
0.00888858
0.00892125
0.00895383
0.00898633
0.00901875
0.00905109
0.00908335
0.00911552
0.00914761
0.00917962
0.00921155
0.0092434
0.00927516
0.00930685
0.00933845
0.00936996
0.0094014
0.00943275
0.00946402
0.00949521
0.00952632
0.00955735
0.00958829
0.00961915
0.00964992
0.00968062
0.00971123
0.00974176
0.00977221
0.00980258
0.00983286
0.00986306
0.00989318
0.00992322
0.00995318
0.00998305
0.0100128
0.0100425
0.0100722
0.0101017
0.0101312
0.0101606
0.0101899
0.0102191
0.0102482
0.0102773
0.0103062
0.0103351
0.0103639
0.0103926
0.0104213
0.0104498
0.0104783
0.0105067
0.010535
0.0105633
0.0105914
0.0106195
0.0106475
0.0106754
0.0107032
0.010731
0.0107586
0.0107862
0.0108137
0.0108411
0.0108685
0.0108957
0.0109229
0.01095
0.010977
0.0110039
0.0110308
0.0110576
0.0110843
0.0111109
0.0111374
0.0111639
0.0111902
0.0112165
0.0112427
0.0112689
0.0112949
0.0113209
0.0113468
0.0113726
0.0113983
0.011424
0.0114495
0.011475
0.0115004
0.0115258
0.011551
0.0115762
0.0116013
0.0116263
0.0116513
0.0116761
0.0117009
0.0117256
0.0117502
0.0117748
0.0117993
0.0118237
0.011848
0.0118722
0.0118964
0.0119205
0.0119445
0.0119684
0.0119922
0.012016
0.0120397
0.0120633
0.0120869
0.0121103
0.0121337
0.012157
0.0121803
0.0122034
0.0122265
0.0122495
0.0122724
0.0122953
0.0123181
0.0123408
0.0123634
0.012386
0.0124085
0.0124309
0.0124532
0.0124754
0.0124976
0.0125197
0.0125418
0.0125637
0.0125856
0.0126074
0.0126291
0.0126508
0.0126724
0.0126939
0.0127154
0.0127367
0.012758
0.0127792
0.0128004
0.0128215
0.0128425
0.0128634
0.0128843
0.0129051
0.0129258
0.0129464
0.012967
0.0129875
0.0130079
0.0130283
0.0130486
0.0130688
0.0130889
0.013109
0.013129
0.0131489
0.0131688
0.0131886
0.0132083
0.013228
0.0132476
0.0132671
0.0132865
0.0133059
0.0133252
0.0133445
0.0133636
0.0133827
0.0134018
0.0134207
0.0134396
0.0134585
0.0134772
0.0134959
0.0135146
0.0135331
0.0135516
0.01357
0.0135884
0.0136067
0.0136249
0.0136431
0.0136612
0.0136792
0.0136972
0.0137151
0.0137329
0.0137507
0.0137684
0.013786
0.0138036
0.0138211
0.0138385
0.0138559
0.0138732
0.0138905
0.0139076
0.0139248
0.0139418
0.0139588
0.0139757
0.0139926
0.0140094
0.0140262
0.0140428
0.0140595
0.014076
0.0140925
0.0141089
0.0141253
0.0141416
0.0141579
0.014174
0.0141902
0.0142062
0.0142222
0.0142382
0.0142541
0.0142699
0.0142856
0.0143013
0.014317
0.0143326
0.0143481
0.0143635
0.0143789
0.0143943
0.0144096
0.0144248
0.01444
0.0144551
0.0144701
0.0144851
0.0145001
0.0145149
0.0145298
0.0145445
0.0145592
0.0145739
0.0145885
0.014603
0.0146175
0.0146319
0.0146463
0.0146606
0.0146748
0.014689
0.0147032
0.0147173
0.0147313
0.0147453
0.0147592
0.0147731
0.0147869
0.0148006
0.0148143
0.014828
0.0148416
0.0148551
0.0148686
0.0148821
0.0148954
0.0149088
0.0149221
0.0149353
0.0149485
0.0149616
0.0149746
0.0149877
0.0150006
0.0150135
0.0150264
0.0150392
0.015052
0.0150647
0.0150773
0.0150899
0.0151025
0.015115
0.0151274
0.0151398
0
0

