-14930.3
-0.0222844
-0.00732297
-0.0027417
-0.00053666
0.000750423
0.00157077
0.00211723
0.0024889
0.00274232
0.00291191
0.00301968
0.00308024
0.00310369
0.00309724
0.00306624
0.00301476
0.002946
0.00286254
0.00276651
0.00265968
0.00254355
0.00241942
0.0022884
0.00215147
0.00200948
0.00186318
0.00171324
0.00156025
0.00140472
0.00124712
0.00108784
0.000927265
0.000765724
0.000603514
0.000440899
0.00027811
0.000115353
-4.71793e-05
-0.000209315
-0.000370898
-0.000531791
-0.000691874
-0.000851035
-0.00100917
-0.00116619
-0.00132201
-0.00147656
-0.00162977
-0.00178157
-0.0019319
-0.00208075
-0.00222805
-0.00237379
-0.00251793
-0.00266044
-0.00280129
-0.00294047
-0.00307794
-0.00321369
-0.00334769
-0.00347994
-0.00361041
-0.0037391
-0.00386599
-0.00399108
-0.00411436
-0.00423583
-0.00435548
-0.00447332
-0.00458935
-0.00470358
-0.00481603
-0.00492671
-0.00503562
-0.00514278
-0.00524817
-0.00535181
-0.00545369
-0.00555382
-0.0056522
-0.00574885
-0.00584376
-0.00593695
-0.00602843
-0.0061182
-0.00620626
-0.00629264
-0.00637734
-0.00646036
-0.00654171
-0.00662141
-0.00669948
-0.00677591
-0.00685073
-0.00692395
-0.00699559
-0.00706566
-0.00713418
-0.00720117
-0.00726663
-0.00733058
-0.00739303
-0.007454
-0.00751348
-0.00757151
-0.00762808
-0.00768321
-0.0077369
-0.00778918
-0.00784005
-0.00788951
-0.0079376
-0.0079843
-0.00802965
-0.00807364
-0.0081163
-0.00815763
-0.00819764
-0.00823636
-0.00827378
-0.00830992
-0.00834479
-0.00837841
-0.00841079
-0.00844194
-0.00847187
-0.0085006
-0.00852814
-0.0085545
-0.0085797
-0.00860374
-0.00862664
-0.00864842
-0.00866908
-0.00868864
-0.0087071
-0.00872449
-0.00874081
-0.00875608
-0.0087703
-0.00878349
-0.00879566
-0.00880682
-0.00881698
-0.00882616
-0.00883436
-0.0088416
-0.00884788
-0.00885323
-0.00885765
-0.00886114
-0.00886373
-0.00886542
-0.00886623
-0.00886616
-0.00886523
-0.00886344
-0.00886081
-0.00885734
-0.00885305
-0.00884795
-0.00884205
-0.00883535
-0.00882788
-0.00881963
-0.00881061
-0.00880085
-0.00879034
-0.00877909
-0.00876713
-0.00875444
-0.00874106
-0.00872697
-0.0087122
-0.00869675
-0.00868063
-0.00866385
-0.00864642
-0.00862835
-0.00860964
-0.00859031
-0.00857036
-0.0085498
-0.00852864
-0.00850689
-0.00848455
-0.00846164
-0.00843815
-0.00841411
-0.00838952
-0.00836438
-0.0083387
-0.00831249
-0.00828576
-0.00825852
-0.00823077
-0.00820251
-0.00817377
-0.00814454
-0.00811483
-0.00808464
-0.00805399
-0.00802289
-0.00799133
-0.00795932
-0.00792688
-0.00789401
-0.00786071
-0.00782699
-0.00779286
-0.00775833
-0.0077234
-0.00768807
-0.00765235
-0.00761625
-0.00757978
-0.00754294
-0.00750573
-0.00746816
-0.00743025
-0.00739198
-0.00735338
-0.00731444
-0.00727517
-0.00723557
-0.00719565
-0.00715542
-0.00711488
-0.00707403
-0.00703288
-0.00699143
-0.00694969
-0.00690767
-0.00686537
-0.00682279
-0.00677993
-0.00673682
-0.00669344
-0.00664982
-0.00660594
-0.00656182
-0.00651746
-0.00647286
-0.00642802
-0.00638296
-0.00633767
-0.00629216
-0.00624644
-0.00620051
-0.00615437
-0.00610805
-0.00606153
-0.00601482
-0.00596792
-0.00592085
-0.00587359
-0.00582616
-0.00577856
-0.00573078
-0.00568284
-0.00563473
-0.00558647
-0.00553804
-0.00548946
-0.00544072
-0.00539184
-0.0053428
-0.00529363
-0.00524431
-0.00519485
-0.00514525
-0.00509552
-0.00504566
-0.00499567
-0.00494556
-0.00489533
-0.00484498
-0.00479452
-0.00474394
-0.00469325
-0.00464246
-0.00459156
-0.00454056
-0.00448946
-0.00443827
-0.00438699
-0.00433562
-0.00428416
-0.00423262
-0.00418099
-0.00412929
-0.00407751
-0.00402565
-0.00397372
-0.00392172
-0.00386965
-0.00381751
-0.00376531
-0.00371304
-0.00366072
-0.00360833
-0.0035559
-0.0035034
-0.00345086
-0.00339827
-0.00334564
-0.00329297
-0.00324026
-0.00318753
-0.00313476
-0.00308197
-0.00302915
-0.0029763
-0.00292343
-0.00287053
-0.00281762
-0.00276468
-0.00271172
-0.00265875
-0.00260575
-0.00255275
-0.00249973
-0.0024467
-0.00239366
-0.00234061
-0.00228756
-0.0022345
-0.00218143
-0.00212836
-0.00207529
-0.00202222
-0.00196914
-0.00191607
-0.001863
-0.00180993
-0.00175687
-0.00170382
-0.00165077
-0.00159774
-0.00154471
-0.0014917
-0.0014387
-0.00138572
-0.00133275
-0.00127981
-0.00122688
-0.00117398
-0.0011211
-0.00106824
-0.00101541
-0.000962601
-0.000909822
-0.000857072
-0.000804352
-0.000751664
-0.000699008
-0.000646386
-0.000593798
-0.000541249
-0.000488739
-0.000436272
-0.000383848
-0.00033147
-0.000279137
-0.00022685
-0.00017461
-0.000122417
-7.02703e-05
-1.81723e-05
3.38767e-05
8.58774e-05
0.000137827
0.000189723
0.000241565
0.000293352
0.000345083
0.000396754
0.000448365
0.000499914
0.000551401
0.000602825
0.000654186
0.000705484
0.000756716
0.000807885
0.000858989
0.000910028
0.000961001
0.00101191
0.00106275
0.00111353
0.00116424
0.00121488
0.00126545
0.00131595
0.00136638
0.00141675
0.00146703
0.00151725
0.0015674
0.00161747
0.00166747
0.00171739
0.00176724
0.00181702
0.00186672
0.00191635
0.00196589
0.00201537
0.00206476
0.00211407
0.00216331
0.00221246
0.00226154
0.00231053
0.00235943
0.00240825
0.00245699
0.00250563
0.00255419
0.00260267
0.00265105
0.00269935
0.00274756
0.00279568
0.00284371
0.00289165
0.00293951
0.00298727
0.00303495
0.00308254
0.00313004
0.00317745
0.00322477
0.003272
0.00331914
0.00336619
0.00341315
0.00346001
0.00350679
0.00355347
0.00360005
0.00364654
0.00369293
0.00373922
0.00378542
0.00383152
0.00387752
0.00392342
0.00396923
0.00401494
0.00406055
0.00410606
0.00415147
0.00419679
0.00424201
0.00428712
0.00433214
0.00437707
0.00442189
0.00446661
0.00451123
0.00455576
0.00460018
0.00464451
0.00468874
0.00473286
0.00477689
0.00482081
0.00486464
0.00490836
0.00495199
0.00499551
0.00503893
0.00508224
0.00512546
0.00516857
0.00521158
0.00525448
0.00529728
0.00533997
0.00538256
0.00542504
0.00546741
0.00550968
0.00555185
0.0055939
0.00563586
0.0056777
0.00571945
0.00576108
0.00580261
0.00584404
0.00588536
0.00592658
0.0059677
0.0060087
0.00604961
0.0060904
0.00613109
0.00617168
0.00621216
0.00625254
0.00629281
0.00633298
0.00637304
0.006413
0.00645285
0.0064926
0.00653224
0.00657177
0.0066112
0.00665053
0.00668975
0.00672886
0.00676787
0.00680677
0.00684557
0.00688426
0.00692284
0.00696132
0.00699969
0.00703796
0.00707611
0.00711416
0.0071521
0.00718993
0.00722766
0.00726528
0.0073028
0.00734021
0.00737751
0.00741471
0.0074518
0.00748878
0.00752566
0.00756244
0.00759911
0.00763567
0.00767213
0.00770849
0.00774474
0.00778089
0.00781693
0.00785286
0.0078887
0.00792442
0.00796005
0.00799556
0.00803098
0.00806629
0.00810149
0.00813659
0.00817158
0.00820647
0.00824125
0.00827593
0.0083105
0.00834497
0.00837934
0.0084136
0.00844775
0.00848181
0.00851576
0.0085496
0.00858335
0.00861699
0.00865053
0.00868396
0.0087173
0.00875053
0.00878366
0.00881669
0.00884962
0.00888245
0.00891517
0.00894779
0.00898032
0.00901274
0.00904506
0.00907728
0.0091094
0.00914142
0.00917334
0.00920516
0.00923687
0.00926849
0.00930001
0.00933143
0.00936275
0.00939397
0.00942509
0.00945611
0.00948703
0.00951785
0.00954858
0.0095792
0.00960973
0.00964016
0.00967049
0.00970072
0.00973086
0.0097609
0.00979084
0.00982069
0.00985044
0.00988009
0.00990965
0.00993911
0.00996847
0.00999774
0.0100269
0.010056
0.010085
0.0101139
0.0101426
0.0101713
0.0101999
0.0102284
0.0102569
0.0102852
0.0103134
0.0103415
0.0103695
0.0103975
0.0104253
0.0104531
0.0104807
0.0105083
0.0105358
0.0105631
0.0105904
0.0106176
0.0106447
0.0106717
0.0106986
0.0107255
0.0107522
0.0107788
0.0108054
0.0108319
0.0108582
0.0108845
0.0109107
0.0109368
0.0109628
0.0109888
0.0110146
0.0110403
0.011066
0.0110916
0.0111171
0.0111424
0.0111678
0.011193
0.0112181
0.0112432
0.0112681
0.011293
0.0113178
0.0113425
0.0113671
0.0113916
0.0114161
0.0114404
0.0114647
0.0114889
0.011513
0.011537
0.0115609
0.0115848
0.0116086
0.0116323
0.0116559
0.0116794
0.0117028
0.0117262
0.0117494
0.0117726
0.0117957
0.0118188
0.0118417
0.0118646
0.0118874
0.0119101
0.0119327
0.0119552
0.0119777
0.0120001
0.0120224
0.0120446
0.0120667
0.0120888
0.0121108
0.0121327
0.0121545
0.0121763
0.012198
0.0122196
0.0122411
0.0122625
0.0122839
0.0123052
0.0123264
0.0123475
0.0123686
0.0123896
0.0124105
0.0124313
0.0124521
0.0124727
0.0124933
0.0125139
0.0125343
0.0125547
0.012575
0.0125953
0.0126154
0.0126355
0.0126555
0.0126755
0.0126953
0.0127151
0.0127348
0.0127545
0.0127741
0.0127936
0.012813
0.0128324
0.0128517
0.0128709
0.01289
0.0129091
0.0129281
0.0129471
0.012966
0.0129848
0.0130035
0.0130222
0.0130407
0.0130593
0.0130777
0.0130961
0.0131144
0.0131327
0.0131509
0.013169
0.0131871
0.013205
0.013223
0.0132408
0.0132586
0.0132763
0.013294
0.0133116
0.0133291
0.0133465
0.0133639
0.0133813
0.0133985
0.0134157
0.0134328
0.0134499
0.0134669
0.0134839
0.0135007
0.0135175
0.0135343
0.013551
0.0135676
0.0135842
0.0136007
0.0136171
0.0136335
0.0136498
0.0136661
0.0136822
0.0136984
0.0137145
0.0137305
0.0137464
0.0137623
0.0137781
0.0137939
0.0138096
0.0138253
0.0138409
0.0138564
0.0138719
0.0138873
0.0139026
0.0139179
0.0139332
0.0139484
0.0139635
0.0139786
0.0139936
0.0140085
0.0140234
0.0140382
0.014053
0.0140678
0.0140824
0.014097
0.0141116
0.0141261
0.0141405
0.0141549
0.0141693
0.0141836
0.0141978
0.014212
0.0142261
0.0142401
0.0142542
0.0142681
0.014282
0.0142959
0.0143097
0.0143234
0.0143371
0.0143508
0.0143644
0.0143779
0.0143914
0.0144048
0.0144182
0.0144315
0.0144448
0.014458
0.0144712
0.0144844
0.0144974
0.0145105
0.0145234
0.0145364
0.0145493
0.0145621
0.0145749
0.0145876
0.0146003
0.0146129
0.0146255
0.014638
0.0146505
0.014663
0.0146754
0.0146877
0.0147
0.0147123
0.0147245
0.0147366
0.0147487
0.0147608
0.0147728
0.0147848
0.0147967
0.0148086
0.0148204
0.0148322
0.014844
0.0148557
0.0148673
0.0148789
0.0148905
0.014902
0.0149135
0.0149249
0.0149363
0.0149476
0.0149589
0.0149702
0.0149814
0.0149925
0.0150037
0.0150147
0.0150258
0.0150368
0.0150477
0.0150586
0.0150695
0.0150803
0.0150911
0.0151019
0.0151126
0.0151232
0.0151338
0.0151444
0.0151549
0.0151654
0.0151759
0.0151863
0.0151967
0.015207
0.0152173
0.0152276
0.0152378
0.0152479
0.0152581
0.0152682
0.0152782
0.0152882
0.0152982
0.0153082
0.0153181
0.0153279
0.0153378
0.0153475
0.0153573
0.015367
0.0153767
0.0153863
0.0153959
0.0154055
0.015415
0.0154245
0.0154339
0.0154433
0.0154527
0.015462
0.0154713
0.0154806
0.0154898
0.015499
0.0155082
0.0155173
0.0155264
0.0155354
0.0155445
0.0155534
0.0155624
0.0155713
0.0155802
0.015589
0.0155978
0.0156066
0.0156154
0.0156241
0.0156327
0.0156414
0.01565
0.0156586
0.0156671
0.0156756
0.0156841
0.0156925
0.0157009
0.0157093
0.0157176
0.0157259
0.0157342
0.0157425
0.0157507
0.0157589
0.015767
0.0157751
0.0157832
0.0157913
0.0157993
0.0158073
0.0158152
0.0158232
0.0158311
0.0158389
0.0158468
0.0158546
0.0158624
0.0158701
0.0158778
0.0158855
0.0158932
0.0159008
0.0159084
0.015916
0.0159235
0.015931
0.0159385
0.0159459
0.0159534
0.0159608
0.0159681
0.0159755
0.0159828
0.0159901
0.0159973
0.0160045
0.0160117
0.0160189
0.016026
0.0160331
0.0160402
0.0160473
0.0160543
0.0160613
0.0160683
0.0160752
0.0160821
0.016089
0.0160959
0.0161027
0
0

