-14930.3
-0.0222844
-0.00743841
-0.00302399
-0.000991328
0.000135937
0.000813955
0.00123561
0.00149845
0.00165709
0.00174412
0.00177988
0.00177755
0.00174597
0.00169125
0.00161781
0.00152891
0.00142707
0.00131427
0.00119211
0.00106193
0.000924863
0.00078186
0.000633765
0.000481308
0.000325133
0.000165815
3.8628e-06
-0.000160267
-0.000326163
-0.00049346
-0.000661823
-0.000830953
-0.00100058
-0.00117045
-0.00134034
-0.00151005
-0.00167938
-0.00184817
-0.00201626
-0.00218351
-0.00234978
-0.00251495
-0.00267891
-0.00284157
-0.00300282
-0.00316258
-0.00332078
-0.00347734
-0.0036322
-0.0037853
-0.00393658
-0.004086
-0.00423351
-0.00437907
-0.00452265
-0.00466421
-0.00480373
-0.00494118
-0.00507654
-0.00520979
-0.00534091
-0.00546989
-0.00559672
-0.0057214
-0.0058439
-0.00596423
-0.00608238
-0.00619836
-0.00631215
-0.00642376
-0.0065332
-0.00664046
-0.00674556
-0.00684849
-0.00694926
-0.00704789
-0.00714438
-0.00723873
-0.00733097
-0.00742109
-0.00750912
-0.00759506
-0.00767893
-0.00776074
-0.00784051
-0.00791824
-0.00799396
-0.00806769
-0.00813942
-0.0082092
-0.00827702
-0.0083429
-0.00840687
-0.00846894
-0.00852912
-0.00858744
-0.00864392
-0.00869856
-0.0087514
-0.00880244
-0.00885171
-0.00889922
-0.008945
-0.00898906
-0.00903142
-0.0090721
-0.00911112
-0.0091485
-0.00918426
-0.00921841
-0.00925097
-0.00928197
-0.00931142
-0.00933935
-0.00936576
-0.00939068
-0.00941413
-0.00943612
-0.00945668
-0.00947583
-0.00949357
-0.00950993
-0.00952494
-0.00953859
-0.00955092
-0.00956195
-0.00957168
-0.00958014
-0.00958734
-0.00959331
-0.00959805
-0.00960159
-0.00960395
-0.00960513
-0.00960516
-0.00960405
-0.00960182
-0.00959849
-0.00959407
-0.00958858
-0.00958203
-0.00957444
-0.00956583
-0.0095562
-0.00954558
-0.00953399
-0.00952143
-0.00950791
-0.00949347
-0.0094781
-0.00946183
-0.00944466
-0.00942662
-0.00940772
-0.00938796
-0.00936737
-0.00934595
-0.00932373
-0.00930071
-0.0092769
-0.00925233
-0.009227
-0.00920092
-0.00917411
-0.00914658
-0.00911834
-0.00908941
-0.00905979
-0.0090295
-0.00899855
-0.00896696
-0.00893472
-0.00890186
-0.00886838
-0.00883429
-0.00879962
-0.00876436
-0.00872853
-0.00869213
-0.00865519
-0.0086177
-0.00857968
-0.00854114
-0.00850209
-0.00846254
-0.00842249
-0.00838196
-0.00834096
-0.0082995
-0.00825757
-0.00821521
-0.0081724
-0.00812917
-0.00808551
-0.00804145
-0.00799698
-0.00795211
-0.00790686
-0.00786123
-0.00781523
-0.00776887
-0.00772215
-0.00767509
-0.00762768
-0.00757994
-0.00753188
-0.0074835
-0.00743481
-0.00738582
-0.00733653
-0.00728695
-0.00723708
-0.00718694
-0.00713653
-0.00708586
-0.00703493
-0.00698375
-0.00693232
-0.00688066
-0.00682877
-0.00677665
-0.00672431
-0.00667175
-0.00661899
-0.00656602
-0.00651286
-0.0064595
-0.00640596
-0.00635224
-0.00629834
-0.00624427
-0.00619003
-0.00613563
-0.00608108
-0.00602638
-0.00597153
-0.00591654
-0.00586141
-0.00580616
-0.00575077
-0.00569526
-0.00563964
-0.0055839
-0.00552805
-0.00547209
-0.00541603
-0.00535988
-0.00530363
-0.00524729
-0.00519087
-0.00513436
-0.00507778
-0.00502113
-0.0049644
-0.00490761
-0.00485075
-0.00479384
-0.00473686
-0.00467984
-0.00462277
-0.00456565
-0.00450848
-0.00445128
-0.00439404
-0.00433677
-0.00427947
-0.00422214
-0.00416478
-0.00410741
-0.00405001
-0.0039926
-0.00393518
-0.00387775
-0.0038203
-0.00376286
-0.00370541
-0.00364796
-0.00359052
-0.00353308
-0.00347565
-0.00341822
-0.00336081
-0.00330342
-0.00324604
-0.00318868
-0.00313134
-0.00307403
-0.00301674
-0.00295948
-0.00290225
-0.00284505
-0.00278789
-0.00273076
-0.00267367
-0.00261661
-0.0025596
-0.00250264
-0.00244572
-0.00238884
-0.00233202
-0.00227524
-0.00221852
-0.00216185
-0.00210523
-0.00204867
-0.00199217
-0.00193574
-0.00187936
-0.00182304
-0.00176679
-0.00171061
-0.00165449
-0.00159844
-0.00154246
-0.00148655
-0.00143071
-0.00137495
-0.00131926
-0.00126365
-0.00120812
-0.00115266
-0.00109729
-0.00104199
-0.000986779
-0.000931648
-0.000876602
-0.000821641
-0.000766766
-0.000711978
-0.000657278
-0.000602667
-0.000548146
-0.000493716
-0.000439378
-0.000385132
-0.00033098
-0.000276922
-0.00022296
-0.000169093
-0.000115323
-6.16513e-05
-8.0774e-06
4.53977e-05
9.87733e-05
0.000152048
0.000205221
0.000258293
0.000311263
0.000364129
0.000416891
0.000469549
0.000522103
0.00057455
0.000626892
0.000679126
0.000731254
0.000783273
0.000835185
0.000886987
0.00093868
0.000990263
0.00104174
0.0010931
0.00114435
0.00119549
0.00124652
0.00129743
0.00134824
0.00139893
0.00144951
0.00149997
0.00155032
0.00160055
0.00165067
0.00170068
0.00175057
0.00180034
0.00185
0.00189954
0.00194897
0.00199828
0.00204747
0.00209655
0.0021455
0.00219434
0.00224307
0.00229167
0.00234016
0.00238852
0.00243677
0.0024849
0.00253292
0.00258081
0.00262858
0.00267624
0.00272377
0.00277119
0.00281848
0.00286566
0.00291272
0.00295965
0.00300647
0.00305317
0.00309974
0.0031462
0.00319254
0.00323875
0.00328485
0.00333082
0.00337668
0.00342241
0.00346803
0.00351352
0.00355889
0.00360415
0.00364928
0.00369429
0.00373918
0.00378395
0.0038286
0.00387313
0.00391754
0.00396183
0.004006
0.00405005
0.00409398
0.00413779
0.00418148
0.00422505
0.0042685
0.00431183
0.00435504
0.00439813
0.0044411
0.00448395
0.00452668
0.00456929
0.00461178
0.00465416
0.00469641
0.00473855
0.00478057
0.00482247
0.00486425
0.00490591
0.00494745
0.00498888
0.00503019
0.00507138
0.00511245
0.0051534
0.00519424
0.00523496
0.00527556
0.00531605
0.00535642
0.00539667
0.00543681
0.00547683
0.00551673
0.00555652
0.00559619
0.00563575
0.00567519
0.00571452
0.00575373
0.00579282
0.0058318
0.00587067
0.00590942
0.00594806
0.00598658
0.006025
0.00606329
0.00610148
0.00613955
0.0061775
0.00621535
0.00625308
0.0062907
0.00632821
0.0063656
0.00640289
0.00644006
0.00647712
0.00651407
0.00655091
0.00658764
0.00662426
0.00666077
0.00669717
0.00673346
0.00676964
0.00680571
0.00684167
0.00687752
0.00691326
0.0069489
0.00698443
0.00701984
0.00705516
0.00709036
0.00712546
0.00716045
0.00719533
0.00723011
0.00726478
0.00729934
0.0073338
0.00736815
0.0074024
0.00743654
0.00747058
0.00750451
0.00753834
0.00757207
0.00760569
0.00763921
0.00767262
0.00770593
0.00773914
0.00777225
0.00780525
0.00783815
0.00787095
0.00790365
0.00793624
0.00796874
0.00800113
0.00803343
0.00806562
0.00809772
0.00812971
0.0081616
0.0081934
0.00822509
0.00825669
0.00828819
0.00831959
0.00835089
0.00838209
0.0084132
0.00844421
0.00847512
0.00850593
0.00853665
0.00856727
0.0085978
0.00862823
0.00865856
0.0086888
0.00871895
0.00874899
0.00877895
0.00880881
0.00883858
0.00886825
0.00889783
0.00892731
0.0089567
0.008986
0.00901521
0.00904433
0.00907335
0.00910228
0.00913112
0.00915987
0.00918853
0.00921709
0.00924557
0.00927395
0.00930225
0.00933046
0.00935857
0.0093866
0.00941454
0.00944239
0.00947015
0.00949782
0.0095254
0.0095529
0.00958031
0.00960763
0.00963487
0.00966202
0.00968908
0.00971605
0.00974294
0.00976975
0.00979646
0.0098231
0.00984964
0.00987611
0.00990249
0.00992878
0.00995499
0.00998112
0.0100072
0.0100331
0.010059
0.0100848
0.0101105
0.0101361
0.0101617
0.0101871
0.0102125
0.0102378
0.010263
0.0102882
0.0103132
0.0103382
0.0103631
0.0103879
0.0104127
0.0104373
0.0104619
0.0104864
0.0105108
0.0105352
0.0105594
0.0105836
0.0106077
0.0106318
0.0106557
0.0106796
0.0107034
0.0107271
0.0107508
0.0107743
0.0107978
0.0108212
0.0108446
0.0108679
0.0108911
0.0109142
0.0109372
0.0109602
0.0109831
0.0110059
0.0110286
0.0110513
0.0110739
0.0110964
0.0111189
0.0111413
0.0111636
0.0111858
0.011208
0.0112301
0.0112521
0.0112741
0.0112959
0.0113177
0.0113395
0.0113612
0.0113828
0.0114043
0.0114257
0.0114471
0.0114684
0.0114897
0.0115109
0.011532
0.011553
0.011574
0.0115949
0.0116158
0.0116365
0.0116572
0.0116779
0.0116984
0.0117189
0.0117394
0.0117598
0.0117801
0.0118003
0.0118205
0.0118406
0.0118606
0.0118806
0.0119005
0.0119204
0.0119401
0.0119599
0.0119795
0.0119991
0.0120186
0.0120381
0.0120575
0.0120768
0.0120961
0.0121153
0.0121345
0.0121536
0.0121726
0.0121915
0.0122104
0.0122293
0.0122481
0.0122668
0.0122854
0.012304
0.0123226
0.012341
0.0123595
0.0123778
0.0123961
0.0124143
0.0124325
0.0124506
0.0124687
0.0124867
0.0125046
0.0125225
0.0125403
0.0125581
0.0125758
0.0125934
0.012611
0.0126286
0.012646
0.0126635
0.0126808
0.0126981
0.0127154
0.0127326
0.0127497
0.0127668
0.0127838
0.0128008
0.0128177
0.0128346
0.0128514
0.0128681
0.0128848
0.0129015
0.012918
0.0129346
0.0129511
0.0129675
0.0129838
0.0130002
0.0130164
0.0130326
0.0130488
0.0130649
0.013081
0.013097
0.0131129
0.0131288
0.0131446
0.0131604
0.0131762
0.0131919
0.0132075
0.0132231
0.0132386
0.0132541
0.0132695
0.0132849
0.0133003
0.0133155
0.0133308
0.013346
0.0133611
0.0133762
0.0133912
0.0134062
0.0134211
0.013436
0.0134509
0.0134657
0.0134804
0.0134951
0.0135097
0.0135243
0.0135389
0.0135534
0.0135678
0.0135823
0.0135966
0.0136109
0.0136252
0.0136394
0.0136536
0.0136677
0.0136818
0.0136958
0.0137098
0.0137238
0.0137377
0.0137515
0.0137653
0.0137791
0.0137928
0.0138065
0.0138201
0.0138337
0.0138472
0.0138607
0.0138742
0.0138876
0.0139009
0.0139143
0.0139275
0.0139408
0.013954
0.0139671
0.0139802
0.0139933
0.0140063
0.0140192
0.0140322
0.0140451
0.0140579
0.0140707
0.0140835
0.0140962
0.0141089
0.0141215
0.0141341
0.0141467
0.0141592
0.0141717
0.0141841
0.0141965
0.0142088
0.0142211
0.0142334
0.0142456
0.0142578
0.01427
0.0142821
0.0142942
0.0143062
0.0143182
0.0143301
0.014342
0.0143539
0.0143657
0.0143775
0.0143893
0.014401
0.0144127
0.0144243
0.0144359
0.0144475
0.014459
0.0144705
0.014482
0.0144934
0.0145048
0.0145161
0.0145274
0.0145387
0.0145499
0.0145611
0.0145723
0.0145834
0.0145945
0.0146055
0.0146165
0.0146275
0.0146384
0.0146493
0.0146602
0.014671
0.0146818
0.0146926
0.0147033
0.014714
0.0147247
0.0147353
0.0147459
0.0147564
0.0147669
0.0147774
0.0147879
0.0147983
0.0148087
0.014819
0.0148293
0.0148396
0.0148498
0.0148601
0.0148702
0.0148804
0.0148905
0.0149006
0.0149106
0.0149206
0.0149306
0.0149405
0.0149505
0.0149603
0.0149702
0.01498
0.0149898
0.0149995
0.0150093
0.0150189
0.0150286
0.0150382
0.0150478
0.0150574
0.0150669
0.0150764
0.0150859
0.0150953
0.0151047
0.0151141
0.0151234
0.0151328
0.015142
0.0151513
0.0151605
0.0151697
0.0151789
0.015188
0.0151971
0.0152062
0.0152152
0.0152242
0.0152332
0.0152422
0.0152511
0.01526
0.0152689
0.0152777
0.0152865
0.0152953
0.015304
0.0153128
0.0153214
0.0153301
0.0153387
0.0153474
0.0153559
0.0153645
0.015373
0.0153815
0.01539
0.0153984
0.0154068
0.0154152
0.0154236
0.0154319
0.0154402
0.0154485
0.0154567
0.015465
0.0154731
0.0154813
0.0154895
0.0154976
0.0155057
0.0155137
0.0155218
0.0155298
0.0155378
0.0155457
0.0155536
0.0155615
0.0155694
0.0155773
0.0155851
0.0155929
0.0156007
0.0156084
0.0156162
0.0156239
0.0156315
0.0156392
0.0156468
0.0156544
0.015662
0.0156695
0.0156771
0.0156846
0.015692
0.0156995
0.0157069
0.0157143
0.0157217
0.015729
0.0157364
0.0157437
0.015751
0.0157582
0.0157655
0.0157727
0.0157799
0.015787
0.0157942
0.0158013
0.0158084
0.0158154
0.0158225
0.0158295
0.0158365
0
0

