-14930.3
-0.0222844
-0.00740073
-0.00287823
-0.000694279
0.000608656
0.00147686
0.002098
0.00256658
0.00293534
0.00323555
0.00348657
0.00370082
0.00388654
0.00404933
0.0041932
0.00432103
0.00443504
0.00453694
0.00462808
0.00470961
0.00478245
0.00484741
0.00490518
0.00495636
0.00500149
0.00504102
0.00507537
0.00510493
0.00513001
0.00515094
0.00516797
0.00518136
0.00519134
0.0051981
0.00520184
0.00520274
0.00520096
0.00519663
0.00518991
0.00518093
0.00516979
0.00515662
0.00514152
0.00512458
0.0051059
0.00508557
0.00506367
0.00504027
0.00501545
0.00498928
0.00496182
0.00493313
0.00490328
0.00487232
0.0048403
0.00480727
0.00477328
0.00473838
0.00470261
0.00466601
0.00462862
0.00459049
0.00455164
0.00451211
0.00447194
0.00443115
0.00438979
0.00434787
0.00430543
0.0042625
0.0042191
0.00417526
0.004131
0.00408635
0.00404133
0.00399597
0.00395028
0.00390429
0.00385801
0.00381148
0.0037647
0.00371769
0.00367047
0.00362307
0.00357549
0.00352776
0.00347988
0.00343187
0.00338376
0.00333554
0.00328724
0.00323888
0.00319045
0.00314198
0.00309347
0.00304495
0.00299641
0.00294787
0.00289935
0.00285084
0.00280237
0.00275394
0.00270555
0.00265723
0.00260897
0.00256079
0.00251269
0.00246469
0.00241678
0.00236898
0.0023213
0.00227373
0.00222629
0.00217898
0.00213182
0.00208479
0.00203792
0.00199121
0.00194465
0.00189827
0.00185205
0.00180601
0.00176015
0.00171448
0.00166899
0.0016237
0.00157861
0.00153371
0.00148902
0.00144454
0.00140027
0.00135622
0.00131238
0.00126877
0.00122537
0.00118221
0.00113927
0.00109656
0.00105409
0.00101185
0.000969855
0.000928096
0.000886581
0.000845309
0.000804282
0.000763503
0.000722973
0.000682693
0.000642666
0.000602891
0.000563371
0.000524106
0.000485098
0.000446348
0.000407856
0.000369623
0.000331651
0.00029394
0.000256491
0.000219304
0.00018238
0.000145719
0.000109323
7.31904e-05
3.73222e-05
1.71905e-06
-3.36184e-05
-6.86915e-05
-0.000103498
-0.00013804
-0.000172316
-0.000206327
-0.000240072
-0.000273551
-0.000306766
-0.000339715
-0.000372399
-0.000404818
-0.000436974
-0.000468864
-0.000500492
-0.000531855
-0.000562956
-0.000593794
-0.00062437
-0.000654685
-0.000684739
-0.000714531
-0.000744064
-0.000773337
-0.000802351
-0.000831108
-0.000859607
-0.000887849
-0.000915834
-0.000943565
-0.00097104
-0.000998262
-0.00102523
-0.00105195
-0.00107841
-0.00110463
-0.00113059
-0.00115631
-0.00118177
-0.001207
-0.00123197
-0.0012567
-0.00128118
-0.00130542
-0.00132942
-0.00135318
-0.00137669
-0.00139997
-0.00142301
-0.00144581
-0.00146837
-0.0014907
-0.00151279
-0.00153465
-0.00155628
-0.00157768
-0.00159884
-0.00161978
-0.00164049
-0.00166097
-0.00168122
-0.00170125
-0.00172106
-0.00174064
-0.00176
-0.00177914
-0.00179806
-0.00181676
-0.00183525
-0.00185352
-0.00187157
-0.00188941
-0.00190704
-0.00192445
-0.00194166
-0.00195865
-0.00197544
-0.00199201
-0.00200839
-0.00202455
-0.00204052
-0.00205628
-0.00207184
-0.00208719
-0.00210235
-0.00211731
-0.00213208
-0.00214664
-0.00216102
-0.00217519
-0.00218918
-0.00220297
-0.00221657
-0.00222999
-0.00224321
-0.00225625
-0.0022691
-0.00228177
-0.00229425
-0.00230655
-0.00231867
-0.0023306
-0.00234236
-0.00235394
-0.00236534
-0.00237657
-0.00238762
-0.00239849
-0.00240919
-0.00241972
-0.00243008
-0.00244027
-0.00245029
-0.00246014
-0.00246983
-0.00247935
-0.0024887
-0.00249789
-0.00250692
-0.00251579
-0.00252449
-0.00253304
-0.00254143
-0.00254966
-0.00255773
-0.00256565
-0.00257341
-0.00258102
-0.00258848
-0.00259579
-0.00260294
-0.00260995
-0.0026168
-0.00262351
-0.00263008
-0.00263649
-0.00264276
-0.00264889
-0.00265488
-0.00266072
-0.00266642
-0.00267198
-0.00267741
-0.00268269
-0.00268784
-0.00269285
-0.00269772
-0.00270246
-0.00270707
-0.00271155
-0.00271589
-0.0027201
-0.00272418
-0.00272813
-0.00273196
-0.00273565
-0.00273922
-0.00274266
-0.00274598
-0.00274918
-0.00275225
-0.0027552
-0.00275803
-0.00276073
-0.00276332
-0.00276579
-0.00276814
-0.00277037
-0.00277249
-0.00277449
-0.00277637
-0.00277814
-0.0027798
-0.00278134
-0.00278278
-0.0027841
-0.00278531
-0.00278641
-0.00278741
-0.00278829
-0.00278907
-0.00278974
-0.00279031
-0.00279077
-0.00279113
-0.00279138
-0.00279153
-0.00279158
-0.00279153
-0.00279138
-0.00279113
-0.00279077
-0.00279032
-0.00278978
-0.00278913
-0.00278839
-0.00278755
-0.00278662
-0.0027856
-0.00278448
-0.00278326
-0.00278196
-0.00278056
-0.00277908
-0.0027775
-0.00277583
-0.00277408
-0.00277223
-0.0027703
-0.00276828
-0.00276618
-0.00276399
-0.00276171
-0.00275935
-0.0027569
-0.00275438
-0.00275177
-0.00274907
-0.0027463
-0.00274345
-0.00274051
-0.0027375
-0.0027344
-0.00273123
-0.00272798
-0.00272465
-0.00272125
-0.00271777
-0.00271421
-0.00271058
-0.00270687
-0.00270309
-0.00269924
-0.00269531
-0.00269132
-0.00268725
-0.00268311
-0.00267889
-0.00267461
-0.00267026
-0.00266584
-0.00266135
-0.00265679
-0.00265217
-0.00264748
-0.00264272
-0.00263789
-0.002633
-0.00262805
-0.00262303
-0.00261795
-0.0026128
-0.00260759
-0.00260232
-0.00259698
-0.00259159
-0.00258613
-0.00258061
-0.00257503
-0.00256939
-0.0025637
-0.00255794
-0.00255213
-0.00254626
-0.00254033
-0.00253434
-0.0025283
-0.0025222
-0.00251604
-0.00250983
-0.00250357
-0.00249725
-0.00249087
-0.00248445
-0.00247797
-0.00247143
-0.00246485
-0.00245821
-0.00245152
-0.00244479
-0.002438
-0.00243116
-0.00242427
-0.00241733
-0.00241034
-0.0024033
-0.00239622
-0.00238908
-0.0023819
-0.00237468
-0.0023674
-0.00236008
-0.00235272
-0.0023453
-0.00233785
-0.00233034
-0.0023228
-0.00231521
-0.00230757
-0.00229989
-0.00229217
-0.00228441
-0.00227661
-0.00226876
-0.00226087
-0.00225294
-0.00224497
-0.00223695
-0.0022289
-0.00222081
-0.00221268
-0.0022045
-0.00219629
-0.00218805
-0.00217976
-0.00217143
-0.00216307
-0.00215467
-0.00214623
-0.00213776
-0.00212925
-0.0021207
-0.00211212
-0.0021035
-0.00209485
-0.00208616
-0.00207744
-0.00206868
-0.00205989
-0.00205107
-0.00204221
-0.00203332
-0.0020244
-0.00201544
-0.00200645
-0.00199743
-0.00198838
-0.0019793
-0.00197018
-0.00196104
-0.00195186
-0.00194266
-0.00193342
-0.00192415
-0.00191486
-0.00190553
-0.00189618
-0.0018868
-0.00187739
-0.00186795
-0.00185848
-0.00184899
-0.00183946
-0.00182991
-0.00182034
-0.00181074
-0.00180111
-0.00179145
-0.00178177
-0.00177206
-0.00176233
-0.00175257
-0.00174279
-0.00173298
-0.00172315
-0.00171329
-0.00170341
-0.0016935
-0.00168358
-0.00167362
-0.00166365
-0.00165365
-0.00164363
-0.00163359
-0.00162352
-0.00161343
-0.00160332
-0.00159319
-0.00158304
-0.00157286
-0.00156267
-0.00155245
-0.00154222
-0.00153196
-0.00152168
-0.00151138
-0.00150107
-0.00149073
-0.00148037
-0.00147
-0.0014596
-0.00144919
-0.00143876
-0.00142831
-0.00141784
-0.00140735
-0.00139685
-0.00138632
-0.00137578
-0.00136523
-0.00135465
-0.00134406
-0.00133345
-0.00132283
-0.00131218
-0.00130153
-0.00129085
-0.00128016
-0.00126946
-0.00125873
-0.001248
-0.00123725
-0.00122648
-0.0012157
-0.0012049
-0.00119409
-0.00118326
-0.00117242
-0.00116157
-0.0011507
-0.00113982
-0.00112892
-0.00111801
-0.00110709
-0.00109616
-0.00108521
-0.00107425
-0.00106327
-0.00105229
-0.00104129
-0.00103028
-0.00101925
-0.00100822
-0.000997169
-0.000986111
-0.00097504
-0.000963958
-0.000952865
-0.000941761
-0.000930646
-0.00091952
-0.000908384
-0.000897236
-0.000886079
-0.000874911
-0.000863732
-0.000852544
-0.000841346
-0.000830138
-0.000818921
-0.000807694
-0.000796457
-0.000785212
-0.000773957
-0.000762693
-0.000751421
-0.000740139
-0.000728849
-0.000717551
-0.000706244
-0.000694929
-0.000683605
-0.000672274
-0.000660935
-0.000649588
-0.000638233
-0.000626871
-0.000615501
-0.000604124
-0.00059274
-0.000581348
-0.00056995
-0.000558544
-0.000547133
-0.000535714
-0.000524288
-0.000512857
-0.000501419
-0.000489974
-0.000478524
-0.000467067
-0.000455605
-0.000444137
-0.000432663
-0.000421183
-0.000409698
-0.000398207
-0.000386712
-0.00037521
-0.000363704
-0.000352193
-0.000340677
-0.000329156
-0.00031763
-0.000306099
-0.000294565
-0.000283025
-0.000271482
-0.000259934
-0.000248381
-0.000236825
-0.000225264
-0.0002137
-0.000202132
-0.000190561
-0.000178985
-0.000167406
-0.000155824
-0.000144237
-0.000132648
-0.000121056
-0.00010946
-9.78612e-05
-8.626e-05
-7.46552e-05
-6.30482e-05
-5.14377e-05
-3.98251e-05
-2.82103e-05
-1.65927e-05
-4.97227e-06
6.65031e-06
1.8275e-05
2.99019e-05
4.15308e-05
5.3162e-05
6.47952e-05
7.64298e-05
8.80666e-05
9.97049e-05
0.000111345
0.000122987
0.00013463
0.000146275
0.000157921
0.000169568
0.000181216
0.000192866
0.000204517
0.000216169
0.000227821
0.000239475
0.00025113
0.000262785
0.000274441
0.000286097
0.000297754
0.000309412
0.00032107
0.000332728
0.000344387
0.000356046
0.000367705
0.000379364
0.000391024
0.000402683
0.000414342
0.000426002
0.000437661
0.000449319
0.000460978
0.000472636
0.000484293
0.00049595
0.000507607
0.000519263
0.000530918
0.000542574
0.000554228
0.000565881
0.000577533
0.000589184
0.000600834
0.000612484
0.000624132
0.00063578
0.000647426
0.00065907
0.000670714
0.000682356
0.000693997
0.000705636
0.000717274
0.00072891
0.000740545
0.000752177
0.000763808
0.000775438
0.000787066
0.000798692
0.000810316
0.000821938
0.000833559
0.000845176
0.000856793
0.000868407
0.000880019
0.000891628
0.000903236
0.000914842
0.000926444
0.000938045
0.000949643
0.000961239
0.000972832
0.000984423
0.000996011
0.0010076
0.00101918
0.00103076
0.00104234
0.00105391
0.00106548
0.00107705
0.00108862
0.00110018
0.00111174
0.0011233
0.00113486
0.00114641
0.00115796
0.0011695
0.00118104
0.00119258
0.00120412
0.00121565
0.00122718
0.0012387
0.00125022
0.00126174
0.00127326
0.00128477
0.00129628
0.00130778
0.00131928
0.00133078
0.00134227
0.00135376
0.00136525
0.00137673
0.00138821
0.00139969
0.00141116
0.00142262
0.00143409
0.00144555
0.001457
0.00146845
0.0014799
0.00149134
0.00150278
0.00151422
0.00152565
0.00153708
0.0015485
0.00155992
0.00157133
0.00158274
0.00159415
0.00160555
0.00161694
0.00162834
0.00163972
0.00165111
0.00166249
0.00167386
0.00168523
0.0016966
0.00170796
0.00171931
0.00173067
0.00174201
0.00175335
0.00176469
0.00177603
0.00178735
0.00179868
0.00181
0.00182131
0.00183262
0.00184392
0.00185522
0.00186652
0.00187781
0.00188909
0.00190037
0.00191164
0.00192292
0.00193418
0.00194544
0.00195669
0.00196794
0.00197919
0.00199043
0.00200166
0.00201289
0.00202411
0.00203533
0.00204654
0.00205775
0.00206896
0.00208015
0.00209134
0.00210253
0.00211371
0.00212489
0.00213606
0.00214723
0.00215839
0.00216954
0.00218069
0.00219183
0.00220297
0.0022141
0.00222523
0.00223635
0.00224747
0.00225858
0.00226968
0.00228078
0.00229188
0.00230297
0.00231405
0.00232513
0.0023362
0.00234726
0.00235832
0.00236938
0.00238042
0.00239147
0.0024025
0.00241353
0.00242456
0.00243558
0.00244659
0.0024576
0.0024686
0.0024796
0.00249059
0.00250157
0.00251255
0.00252353
0.00253449
0.00254545
0.00255641
0.00256736
0.0025783
0.00258924
0.00260017
0.00261109
0.00262201
0.00263293
0.00264383
0.00265473
0.00266563
0.00267652
0.0026874
0.00269828
0.00270915
0.00272001
0.00273087
0.00274172
0.00275257
0.00276341
0.00277424
0.00278507
0.00279589
0.00280671
0.00281752
0.00282832
0.00283912
0.00284991
0.00286069
0.00287147
0.00288224
0.00289301
0.00290377
0.00291452
0.00292526
0.00293601
0.00294674
0.00295747
0.00296819
0.0029789
0.00298961
0.00300031
0.00301101
0.0030217
0.00303238
0.00304306
0.00305373
0.00306439
0.00307505
0.0030857
0.00309635
0.00310699
0.00311762
0.00312825
0.00313886
0.00314948
0.00316008
0.00317068
0.00318128
0.00319186
0.00320244
0.00321302
0.00322359
0.00323415
0.0032447
0.00325525
0.00326579
0.00327633
0.00328685
0.00329738
0.00330789
0.0033184
0.0033289
0.0033394
0.00334989
0.00336037
0.00337085
0.00338132
0.00339178
0.00340224
0.00341269
0.00342313
0.00343357
0.003444
0.00345442
0.00346484
0.00347525
0.00348565
0.00349605
0.00350644
0
0

