-14930.3
-0.0222844
-0.00729515
-0.00264804
-0.000344275
0.00106454
0.00202041
0.0027092
0.00322513
0.0036215
0.00393067
0.00417334
0.00436339
0.00451047
0.00462161
0.00470212
0.00475614
0.004787
0.00479745
0.00478983
0.00476612
0.00472807
0.00467717
0.00461479
0.00454212
0.00446022
0.00437006
0.00427248
0.00416829
0.00405817
0.00394277
0.00382267
0.00369838
0.0035704
0.00343916
0.00330506
0.00316846
0.00302969
0.00288907
0.00274686
0.00260334
0.00245873
0.00231325
0.0021671
0.00202046
0.00187351
0.00172639
0.00157927
0.00143226
0.00128549
0.00113908
0.000993124
0.000847727
0.000702977
0.000558957
0.000415743
0.000273405
0.000132003
-8.40426e-06
-0.000147765
-0.000286028
-0.000423147
-0.000559078
-0.00069378
-0.000827215
-0.000959348
-0.00109015
-0.00121958
-0.00134763
-0.00147427
-0.00159949
-0.00172326
-0.00184559
-0.00196645
-0.00208583
-0.00220373
-0.00232012
-0.002435
-0.00254835
-0.00266016
-0.00277042
-0.00287914
-0.00298631
-0.00309194
-0.00319601
-0.00329854
-0.00339953
-0.00349897
-0.00359686
-0.00369321
-0.00378801
-0.00388127
-0.003973
-0.0040632
-0.00415189
-0.00423905
-0.00432471
-0.00440886
-0.00449152
-0.00457269
-0.00465238
-0.00473059
-0.00480732
-0.0048826
-0.00495641
-0.00502878
-0.0050997
-0.00516919
-0.00523726
-0.00530392
-0.00536918
-0.00543306
-0.00549557
-0.00555671
-0.00561651
-0.00567496
-0.00573208
-0.00578788
-0.00584237
-0.00589556
-0.00594746
-0.00599809
-0.00604746
-0.00609557
-0.00614246
-0.00618812
-0.00623257
-0.00627582
-0.00631788
-0.00635877
-0.0063985
-0.00643706
-0.00647448
-0.00651076
-0.00654592
-0.00657996
-0.00661289
-0.00664473
-0.00667549
-0.00670518
-0.00673381
-0.00676139
-0.00678793
-0.00681344
-0.00683795
-0.00686145
-0.00688395
-0.00690548
-0.00692604
-0.00694565
-0.0069643
-0.00698203
-0.00699883
-0.00701472
-0.00702972
-0.00704383
-0.00705706
-0.00706943
-0.00708095
-0.00709164
-0.00710149
-0.00711053
-0.00711876
-0.0071262
-0.00713285
-0.00713872
-0.00714383
-0.00714819
-0.0071518
-0.00715468
-0.00715684
-0.00715828
-0.00715902
-0.00715907
-0.00715843
-0.00715711
-0.00715513
-0.00715249
-0.0071492
-0.00714528
-0.00714072
-0.00713555
-0.00712976
-0.00712337
-0.00711639
-0.00710882
-0.00710066
-0.00709194
-0.00708266
-0.00707283
-0.00706244
-0.00705152
-0.00704007
-0.0070281
-0.00701562
-0.00700262
-0.00698913
-0.00697514
-0.00696067
-0.00694572
-0.0069303
-0.00691442
-0.00689808
-0.00688128
-0.00686405
-0.00684638
-0.00682827
-0.00680974
-0.00679079
-0.00677143
-0.00675166
-0.00673149
-0.00671092
-0.00668997
-0.00666863
-0.00664692
-0.00662483
-0.00660238
-0.00657957
-0.00655639
-0.00653287
-0.006509
-0.00648479
-0.00646024
-0.00643536
-0.00641015
-0.00638462
-0.00635877
-0.0063326
-0.00630612
-0.00627934
-0.00625226
-0.00622488
-0.00619721
-0.00616925
-0.006141
-0.00611248
-0.00608367
-0.0060546
-0.00602525
-0.00599564
-0.00596576
-0.00593563
-0.00590524
-0.00587459
-0.0058437
-0.00581257
-0.00578119
-0.00574957
-0.00571772
-0.00568563
-0.00565331
-0.00562077
-0.00558801
-0.00555502
-0.00552181
-0.00548839
-0.00545476
-0.00542092
-0.00538687
-0.00535262
-0.00531818
-0.00528353
-0.00524869
-0.00521367
-0.00517845
-0.00514306
-0.00510749
-0.00507174
-0.00503582
-0.00499974
-0.00496348
-0.00492707
-0.00489049
-0.00485376
-0.00481687
-0.00477982
-0.00474262
-0.00470526
-0.00466776
-0.0046301
-0.0045923
-0.00455435
-0.00451625
-0.00447801
-0.00443963
-0.00440111
-0.00436246
-0.00432366
-0.00428474
-0.00424568
-0.0042065
-0.00416719
-0.00412777
-0.00408823
-0.00404857
-0.0040088
-0.00396892
-0.00392893
-0.00388884
-0.00384863
-0.00380832
-0.0037679
-0.00372738
-0.00368675
-0.00364603
-0.0036052
-0.00356426
-0.00352324
-0.00348211
-0.00344089
-0.00339958
-0.00335817
-0.00331668
-0.00327509
-0.00323342
-0.00319166
-0.00314982
-0.00310789
-0.00306588
-0.00302379
-0.00298162
-0.00293937
-0.00289705
-0.00285465
-0.00281218
-0.00276964
-0.00272703
-0.00268435
-0.0026416
-0.00259879
-0.00255592
-0.00251299
-0.00246999
-0.00242694
-0.00238383
-0.00234066
-0.00229743
-0.00225416
-0.00221083
-0.00216746
-0.00212403
-0.00208056
-0.00203704
-0.00199347
-0.00194986
-0.0019062
-0.0018625
-0.00181876
-0.00177498
-0.00173115
-0.00168729
-0.00164339
-0.00159945
-0.00155548
-0.00151147
-0.00146743
-0.00142337
-0.00137927
-0.00133515
-0.001291
-0.00124683
-0.00120263
-0.0011584
-0.00111415
-0.00106989
-0.0010256
-0.0009813
-0.000936982
-0.000892649
-0.000848301
-0.00080394
-0.000759566
-0.00071518
-0.000670784
-0.000626378
-0.00058196
-0.000537533
-0.000493096
-0.000448649
-0.000404194
-0.000359731
-0.00031526
-0.000270785
-0.000226304
-0.000181821
-0.000137338
-9.28532e-05
-4.83695e-05
-3.88725e-06
4.05929e-05
8.50702e-05
0.000129544
0.000174013
0.000218479
0.00026294
0.000307395
0.000351845
0.000396287
0.000440722
0.000485149
0.000529565
0.00057397
0.000618362
0.00066274
0.000707102
0.000751447
0.000795774
0.00084008
0.000884367
0.000928633
0.000972877
0.0010171
0.0010613
0.00110548
0.00114963
0.00119376
0.00123787
0.00128195
0.001326
0.00137003
0.00141402
0.00145799
0.00150193
0.00154584
0.00158972
0.00163356
0.00167738
0.00172116
0.00176492
0.00180864
0.00185233
0.00189599
0.00193961
0.00198321
0.00202676
0.00207029
0.00211378
0.00215723
0.00220065
0.00224403
0.00228736
0.00233066
0.00237391
0.00241712
0.00246029
0.00250341
0.00254649
0.00258953
0.00263252
0.00267547
0.00271837
0.00276123
0.00280404
0.0028468
0.00288952
0.00293219
0.00297482
0.00301739
0.00305992
0.00310239
0.00314482
0.00318719
0.00322952
0.00327179
0.003314
0.00335617
0.00339828
0.00344033
0.00348232
0.00352426
0.00356614
0.00360796
0.00364973
0.00369143
0.00373308
0.00377467
0.00381619
0.00385766
0.00389907
0.00394042
0.0039817
0.00402293
0.00406409
0.00410519
0.00414623
0.00418721
0.00422813
0.00426898
0.00430977
0.0043505
0.00439116
0.00443176
0.00447229
0.00451276
0.00455316
0.00459349
0.00463376
0.00467396
0.0047141
0.00475417
0.00479417
0.0048341
0.00487396
0.00491376
0.00495349
0.00499315
0.00503274
0.00507226
0.00511171
0.0051511
0.00519041
0.00522965
0.00526882
0.00530792
0.00534695
0.00538591
0.00542479
0.0054636
0.00550234
0.00554101
0.0055796
0.00561812
0.00565656
0.00569494
0.00573323
0.00577146
0.00580961
0.00584769
0.00588569
0.00592362
0.00596148
0.00599926
0.00603697
0.00607461
0.00611217
0.00614965
0.00618706
0.0062244
0.00626166
0.00629884
0.00633594
0.00637296
0.00640991
0.00644677
0.00648356
0.00652026
0.00655689
0.00659344
0.00662991
0.0066663
0.00670261
0.00673884
0.00677499
0.00681106
0.00684705
0.00688296
0.00691879
0.00695455
0.00699022
0.00702581
0.00706133
0.00709676
0.00713212
0.00716739
0.00720258
0.0072377
0.00727273
0.00730767
0.00734254
0.00737732
0.00741202
0.00744664
0.00748118
0.00751563
0.00755
0.0075843
0.00761851
0.00765263
0.00768668
0.00772064
0.00775453
0.00778833
0.00782205
0.00785569
0.00788924
0.00792272
0.00795611
0.00798942
0.00802265
0.00805579
0.00808886
0.00812183
0.00815473
0.00818755
0.00822028
0.00825293
0.00828549
0.00831797
0.00835037
0.00838269
0.00841493
0.00844708
0.00847915
0.00851114
0.00854304
0.00857486
0.0086066
0.00863825
0.00866982
0.00870131
0.00873272
0.00876404
0.00879527
0.00882643
0.0088575
0.00888849
0.0089194
0.00895022
0.00898096
0.00901162
0.0090422
0.00907269
0.0091031
0.00913342
0.00916366
0.00919382
0.00922389
0.00925388
0.00928379
0.00931362
0.00934336
0.00937302
0.00940259
0.00943208
0.00946149
0.00949082
0.00952006
0.00954923
0.00957831
0.00960731
0.00963622
0.00966506
0.00969381
0.00972247
0.00975106
0.00977956
0.00980798
0.00983632
0.00986458
0.00989276
0.00992085
0.00994887
0.0099768
0.0100047
0.0100324
0.0100601
0.0100877
0.0101153
0.0101427
0.0101701
0.0101974
0.0102246
0.0102517
0.0102787
0.0103057
0.0103326
0.0103594
0.0103861
0.0104128
0.0104393
0.0104658
0.0104922
0.0105186
0.0105448
0.010571
0.0105971
0.0106231
0.010649
0.0106749
0.0107006
0.0107263
0.010752
0.0107775
0.010803
0.0108283
0.0108536
0.0108789
0.010904
0.0109291
0.0109541
0.010979
0.0110038
0.0110286
0.0110533
0.0110779
0.0111024
0.0111268
0.0111512
0.0111755
0.0111997
0.0112239
0.0112479
0.0112719
0.0112958
0.0113197
0.0113434
0.0113671
0.0113907
0.0114142
0.0114377
0.0114611
0.0114844
0.0115076
0.0115307
0.0115538
0.0115768
0.0115997
0.0116226
0.0116454
0.0116681
0.0116907
0.0117133
0.0117358
0.0117582
0.0117805
0.0118028
0.0118249
0.0118471
0.0118691
0.0118911
0.011913
0.0119348
0.0119565
0.0119782
0.0119998
0.0120213
0.0120428
0.0120642
0.0120855
0.0121068
0.0121279
0.012149
0.0121701
0.012191
0.0122119
0.0122327
0.0122535
0.0122742
0.0122948
0.0123153
0.0123358
0.0123562
0.0123765
0.0123968
0.012417
0.0124371
0.0124571
0.0124771
0.0124971
0.0125169
0.0125367
0.0125564
0.0125761
0.0125956
0.0126152
0.0126346
0.012654
0.0126733
0.0126926
0.0127117
0.0127309
0.0127499
0.0127689
0.0127878
0.0128067
0.0128255
0.0128442
0.0128629
0.0128815
0.0129
0.0129185
0.0129369
0.0129552
0.0129735
0.0129917
0.0130098
0.0130279
0.013046
0.0130639
0.0130818
0.0130997
0.0131174
0.0131351
0.0131528
0.0131704
0.0131879
0.0132054
0.0132228
0.0132401
0.0132574
0.0132746
0.0132918
0.0133089
0.0133259
0.0133429
0.0133598
0.0133766
0.0133934
0.0134102
0.0134269
0.0134435
0.01346
0.0134765
0.013493
0.0135094
0.0135257
0.013542
0.0135582
0.0135743
0.0135904
0.0136064
0.0136224
0.0136383
0.0136542
0.01367
0.0136858
0.0137015
0.0137171
0.0137327
0.0137482
0.0137637
0.0137791
0.0137944
0.0138097
0.013825
0.0138402
0.0138553
0.0138704
0.0138854
0.0139004
0.0139153
0.0139302
0.013945
0.0139597
0.0139744
0.0139891
0.0140037
0.0140182
0.0140327
0.0140471
0.0140615
0.0140758
0.0140901
0.0141044
0.0141185
0.0141326
0.0141467
0.0141607
0.0141747
0.0141886
0.0142025
0.0142163
0.01423
0.0142438
0.0142574
0.014271
0.0142846
0.0142981
0.0143115
0.014325
0.0143383
0.0143516
0.0143649
0.0143781
0.0143913
0.0144044
0.0144174
0.0144304
0.0144434
0.0144563
0.0144692
0.014482
0.0144948
0.0145075
0.0145202
0.0145328
0.0145454
0.014558
0.0145705
0.0145829
0.0145953
0.0146077
0.01462
0.0146322
0.0146444
0.0146566
0.0146687
0.0146808
0.0146929
0.0147048
0.0147168
0.0147287
0.0147405
0.0147524
0.0147641
0.0147758
0.0147875
0.0147992
0.0148107
0.0148223
0.0148338
0.0148452
0.0148567
0.014868
0.0148794
0.0148907
0.0149019
0.0149131
0.0149243
0.0149354
0.0149465
0.0149575
0.0149685
0.0149794
0.0149903
0.0150012
0.015012
0.0150228
0.0150336
0.0150443
0.0150549
0.0150655
0.0150761
0.0150867
0.0150972
0.0151076
0.015118
0.0151284
0.0151388
0.0151491
0.0151593
0.0151695
0.0151797
0.0151899
0.0152
0.0152101
0.0152201
0.0152301
0.01524
0.0152499
0.0152598
0.0152697
0.0152795
0.0152892
0.015299
0.0153087
0.0153183
0.0153279
0.0153375
0.015347
0.0153566
0.015366
0.0153755
0.0153849
0.0153942
0.0154036
0.0154128
0.0154221
0.0154313
0.0154405
0.0154497
0.0154588
0.0154679
0.0154769
0.0154859
0.0154949
0.0155038
0.0155127
0.0155216
0.0155305
0.0155393
0.015548
0.0155568
0.0155655
0.0155742
0.0155828
0.0155914
0.0156
0.0156085
0.015617
0.0156255
0.015634
0.0156424
0.0156507
0.0156591
0.0156674
0.0156757
0.0156839
0.0156922
0.0157003
0
0

