-14930.3
-0.0222844
-0.00729277
-0.0026368
-0.000313782
0.00112709
0.00212859
0.00287606
0.00346236
0.00393903
0.0043365
0.0046736
0.00496242
0.00521104
0.00542509
0.00560867
0.00576489
0.00589622
0.00600469
0.00609205
0.0061598
0.00620932
0.00624183
0.00625846
0.00626025
0.00624817
0.00622313
0.00618598
0.0061375
0.00607845
0.00600953
0.00593141
0.00584471
0.00575002
0.0056479
0.00553888
0.00542347
0.00530213
0.00517531
0.00504345
0.00490694
0.00476617
0.00462151
0.00447329
0.00432184
0.00416748
0.00401049
0.00385116
0.00368975
0.00352652
0.00336168
0.00319548
0.00302813
0.00285982
0.00269075
0.00252109
0.00235102
0.0021807
0.00201027
0.00183989
0.00166969
0.00149979
0.00133032
0.00116138
0.000993097
0.000825557
0.000658856
0.000493086
0.000328327
0.00016466
2.15533e-06
-0.000159116
-0.000319091
-0.000477708
-0.000634912
-0.000790652
-0.000944879
-0.00109755
-0.00124862
-0.00139805
-0.0015458
-0.00169186
-0.00183617
-0.00197873
-0.0021195
-0.00225846
-0.00239559
-0.00253088
-0.0026643
-0.00279585
-0.00292551
-0.00305327
-0.00317912
-0.00330305
-0.00342506
-0.00354515
-0.00366331
-0.00377954
-0.00389383
-0.00400619
-0.00411663
-0.00422513
-0.00433172
-0.00443638
-0.00453913
-0.00463996
-0.0047389
-0.00483594
-0.00493109
-0.00502437
-0.00511577
-0.00520531
-0.00529301
-0.00537886
-0.00546288
-0.00554509
-0.00562549
-0.0057041
-0.00578092
-0.00585598
-0.00592928
-0.00600084
-0.00607067
-0.00613879
-0.0062052
-0.00626992
-0.00633298
-0.00639437
-0.00645412
-0.00651224
-0.00656874
-0.00662364
-0.00667696
-0.0067287
-0.00677889
-0.00682753
-0.00687465
-0.00692026
-0.00696436
-0.00700699
-0.00704815
-0.00708785
-0.00712612
-0.00716297
-0.0071984
-0.00723244
-0.00726511
-0.00729641
-0.00732636
-0.00735497
-0.00738227
-0.00740826
-0.00743295
-0.00745637
-0.00747853
-0.00749943
-0.0075191
-0.00753755
-0.00755479
-0.00757084
-0.00758571
-0.00759941
-0.00761196
-0.00762336
-0.00763365
-0.00764281
-0.00765088
-0.00765786
-0.00766377
-0.00766861
-0.00767241
-0.00767517
-0.00767691
-0.00767763
-0.00767736
-0.00767609
-0.00767386
-0.00767066
-0.00766651
-0.00766142
-0.0076554
-0.00764846
-0.00764062
-0.00763189
-0.00762228
-0.00761179
-0.00760045
-0.00758825
-0.00757522
-0.00756136
-0.00754668
-0.0075312
-0.00751492
-0.00749786
-0.00748002
-0.00746141
-0.00744205
-0.00742195
-0.00740111
-0.00737954
-0.00735726
-0.00733427
-0.00731059
-0.00728622
-0.00726117
-0.00723545
-0.00720907
-0.00718205
-0.00715438
-0.00712607
-0.00709715
-0.0070676
-0.00703746
-0.00700671
-0.00697537
-0.00694346
-0.00691096
-0.00687791
-0.0068443
-0.00681014
-0.00677543
-0.0067402
-0.00670444
-0.00666816
-0.00663137
-0.00659408
-0.0065563
-0.00651803
-0.00647928
-0.00644006
-0.00640037
-0.00636022
-0.00631962
-0.00627858
-0.0062371
-0.00619519
-0.00615285
-0.0061101
-0.00606694
-0.00602337
-0.00597941
-0.00593506
-0.00589032
-0.0058452
-0.00579972
-0.00575386
-0.00570765
-0.00566109
-0.00561417
-0.00556692
-0.00551933
-0.00547141
-0.00542317
-0.0053746
-0.00532573
-0.00527655
-0.00522707
-0.00517729
-0.00512722
-0.00507687
-0.00502623
-0.00497533
-0.00492415
-0.00487271
-0.00482101
-0.00476906
-0.00471685
-0.00466441
-0.00461172
-0.0045588
-0.00450565
-0.00445228
-0.00439869
-0.00434488
-0.00429086
-0.00423663
-0.00418221
-0.00412758
-0.00407277
-0.00401776
-0.00396257
-0.00390721
-0.00385166
-0.00379595
-0.00374007
-0.00368402
-0.00362782
-0.00357146
-0.00351496
-0.0034583
-0.0034015
-0.00334457
-0.00328749
-0.00323029
-0.00317296
-0.0031155
-0.00305793
-0.00300024
-0.00294243
-0.00288452
-0.0028265
-0.00276837
-0.00271015
-0.00265183
-0.00259342
-0.00253492
-0.00247634
-0.00241767
-0.00235892
-0.0023001
-0.00224121
-0.00218224
-0.00212321
-0.00206411
-0.00200496
-0.00194574
-0.00188648
-0.00182716
-0.00176779
-0.00170837
-0.00164891
-0.00158942
-0.00152988
-0.00147031
-0.00141071
-0.00135108
-0.00129142
-0.00123173
-0.00117203
-0.0011123
-0.00105256
-0.000992811
-0.000933044
-0.000873269
-0.000813487
-0.000753701
-0.000693913
-0.000634124
-0.000574339
-0.000514559
-0.000454785
-0.000395021
-0.000335269
-0.00027553
-0.000215807
-0.000156102
-9.64174e-05
-3.67548e-05
2.28837e-05
8.24959e-05
0.00014208
0.000201634
0.000261155
0.000320643
0.000380096
0.00043951
0.000498884
0.000558217
0.000617506
0.000676751
0.000735949
0.000795098
0.000854196
0.000913242
0.000972234
0.00103117
0.00109005
0.00114887
0.00120763
0.00126633
0.00132497
0.00138354
0.00144205
0.00150049
0.00155885
0.00161715
0.00167538
0.00173353
0.00179161
0.00184961
0.00190753
0.00196538
0.00202314
0.00208083
0.00213843
0.00219594
0.00225337
0.00231072
0.00236798
0.00242514
0.00248222
0.00253921
0.0025961
0.0026529
0.00270961
0.00276622
0.00282273
0.00287915
0.00293547
0.00299168
0.0030478
0.00310381
0.00315972
0.00321553
0.00327124
0.00332683
0.00338232
0.00343771
0.00349298
0.00354815
0.0036032
0.00365815
0.00371298
0.0037677
0.00382231
0.0038768
0.00393118
0.00398544
0.00403959
0.00409361
0.00414753
0.00420132
0.00425499
0.00430854
0.00436197
0.00441529
0.00446847
0.00452154
0.00457448
0.0046273
0.00468
0.00473257
0.00478501
0.00483733
0.00488952
0.00494158
0.00499352
0.00504533
0.00509701
0.00514856
0.00519998
0.00525127
0.00530243
0.00535346
0.00540436
0.00545512
0.00550575
0.00555625
0.00560662
0.00565685
0.00570695
0.00575692
0.00580675
0.00585645
0.00590601
0.00595543
0.00600472
0.00605387
0.00610289
0.00615176
0.0062005
0.00624911
0.00629757
0.0063459
0.00639409
0.00644214
0.00649005
0.00653783
0.00658546
0.00663296
0.00668031
0.00672753
0.0067746
0.00682154
0.00686833
0.00691499
0.0069615
0.00700788
0.00705411
0.0071002
0.00714615
0.00719196
0.00723762
0.00728315
0.00732853
0.00737378
0.00741888
0.00746384
0.00750865
0.00755333
0.00759786
0.00764225
0.0076865
0.00773061
0.00777457
0.00781839
0.00786207
0.00790561
0.007949
0.00799226
0.00803537
0.00807834
0.00812116
0.00816385
0.00820639
0.00824879
0.00829104
0.00833316
0.00837513
0.00841696
0.00845865
0.0085002
0.0085416
0.00858287
0.00862399
0.00866497
0.00870581
0.00874651
0.00878706
0.00882748
0.00886775
0.00890788
0.00894788
0.00898773
0.00902744
0.00906701
0.00910644
0.00914573
0.00918488
0.00922389
0.00926276
0.00930149
0.00934008
0.00937853
0.00941684
0.00945501
0.00949305
0.00953094
0.0095687
0.00960632
0.0096438
0.00968114
0.00971835
0.00975541
0.00979234
0.00982914
0.00986579
0.00990231
0.00993869
0.00997494
0.010011
0.010047
0.0100829
0.0101186
0.0101541
0.0101896
0.0102249
0.01026
0.0102951
0.0103299
0.0103647
0.0103993
0.0104338
0.0104682
0.0105024
0.0105365
0.0105705
0.0106043
0.010638
0.0106716
0.010705
0.0107383
0.0107715
0.0108045
0.0108375
0.0108703
0.0109029
0.0109354
0.0109678
0.0110001
0.0110322
0.0110643
0.0110961
0.0111279
0.0111595
0.011191
0.0112224
0.0112537
0.0112848
0.0113158
0.0113466
0.0113774
0.011408
0.0114385
0.0114689
0.0114991
0.0115293
0.0115593
0.0115891
0.0116189
0.0116485
0.011678
0.0117074
0.0117367
0.0117659
0.0117949
0.0118238
0.0118526
0.0118812
0.0119098
0.0119382
0.0119665
0.0119947
0.0120228
0.0120508
0.0120786
0.0121063
0.0121339
0.0121614
0.0121888
0.012216
0.0122432
0.0122702
0.0122971
0.0123239
0.0123506
0.0123772
0.0124036
0.01243
0.0124562
0.0124823
0.0125083
0.0125342
0.01256
0.0125857
0.0126112
0.0126367
0.012662
0.0126872
0.0127124
0.0127374
0.0127623
0.0127871
0.0128117
0.0128363
0.0128608
0.0128852
0.0129094
0.0129336
0.0129576
0.0129816
0.0130054
0.0130291
0.0130528
0.0130763
0.0130997
0.013123
0.0131462
0.0131693
0.0131923
0.0132152
0.013238
0.0132607
0.0132833
0.0133058
0.0133283
0.0133506
0.0133728
0.0133949
0.0134169
0.0134388
0.0134606
0.0134823
0.0135039
0.0135254
0.0135468
0.0135681
0.0135894
0.0136105
0.0136315
0.0136525
0.0136733
0.013694
0.0137147
0.0137353
0.0137557
0.0137761
0.0137964
0.0138166
0.0138367
0.0138567
0.0138766
0.0138964
0.0139161
0.0139358
0.0139553
0.0139748
0.0139942
0.0140134
0.0140326
0.0140518
0.0140708
0.0140897
0.0141085
0.0141273
0.014146
0.0141646
0.0141831
0.0142015
0.0142198
0.014238
0.0142562
0.0142743
0.0142923
0.0143102
0.014328
0.0143457
0.0143634
0.014381
0.0143984
0.0144159
0.0144332
0.0144504
0.0144676
0.0144847
0.0145017
0.0145186
0.0145355
0.0145522
0.0145689
0.0145855
0.0146021
0.0146185
0.0146349
0.0146512
0.0146674
0.0146836
0.0146996
0.0147156
0.0147315
0.0147474
0.0147632
0.0147789
0.0147945
0.01481
0.0148255
0.0148409
0.0148562
0.0148715
0.0148866
0.0149017
0.0149168
0.0149317
0.0149466
0.0149615
0.0149762
0.0149909
0.0150055
0.01502
0.0150345
0.0150489
0.0150632
0.0150775
0.0150917
0.0151058
0.0151199
0.0151339
0.0151478
0.0151616
0.0151754
0.0151891
0.0152028
0.0152164
0.0152299
0.0152434
0.0152568
0.0152701
0.0152834
0.0152966
0.0153097
0.0153228
0.0153358
0.0153487
0.0153616
0.0153744
0.0153872
0.0153999
0.0154125
0.0154251
0.0154376
0.0154501
0.0154625
0.0154748
0.0154871
0.0154993
0.0155114
0.0155235
0.0155356
0.0155475
0.0155595
0.0155713
0.0155831
0.0155949
0.0156066
0.0156182
0.0156298
0.0156413
0.0156527
0.0156641
0.0156755
0.0156868
0.015698
0.0157092
0.0157203
0.0157314
0.0157424
0.0157534
0.0157643
0.0157751
0.0157859
0.0157967
0.0158074
0.015818
0.0158286
0.0158391
0.0158496
0.0158601
0.0158704
0.0158808
0.0158911
0.0159013
0.0159115
0.0159216
0.0159317
0.0159417
0.0159517
0.0159616
0.0159715
0.0159813
0.0159911
0.0160008
0.0160105
0.0160202
0.0160297
0.0160393
0.0160488
0.0160582
0.0160676
0.016077
0.0160863
0.0160956
0.0161048
0.0161139
0.0161231
0.0161321
0.0161412
0.0161502
0.0161591
0.016168
0.0161769
0.0161857
0.0161944
0.0162032
0.0162118
0.0162205
0.0162291
0.0162376
0.0162461
0.0162546
0.016263
0.0162714
0.0162797
0.016288
0.0162963
0.0163045
0.0163127
0.0163208
0.0163289
0.016337
0.016345
0.0163529
0.0163609
0.0163688
0.0163766
0.0163844
0.0163922
0.0163999
0.0164076
0.0164153
0.0164229
0.0164305
0.016438
0.0164455
0.016453
0.0164604
0.0164678
0.0164752
0.0164825
0.0164898
0.016497
0.0165042
0.0165114
0.0165185
0.0165256
0.0165327
0.0165397
0.0165467
0.0165536
0.0165606
0.0165675
0.0165743
0.0165811
0.0165879
0.0165947
0.0166014
0.0166081
0.0166147
0.0166213
0.0166279
0.0166345
0.016641
0.0166474
0.0166539
0.0166603
0.0166667
0.0166731
0.0166794
0.0166857
0.0166919
0.0166981
0.0167043
0.0167105
0.0167166
0.0167227
0.0167288
0.0167348
0.0167408
0.0167468
0.0167528
0.0167587
0.0167646
0.0167704
0.0167763
0.0167821
0.0167878
0.0167936
0.0167993
0.016805
0.0168106
0.0168162
0.0168218
0.0168274
0.0168329
0.0168385
0.0168439
0.0168494
0.0168548
0.0168602
0.0168656
0.0168709
0.0168763
0.0168816
0.0168868
0.0168921
0.0168973
0.0169025
0.0169076
0.0169128
0.0169179
0.016923
0.016928
0.016933
0.016938
0.016943
0.016948
0.0169529
0.0169578
0.0169627
0.0169675
0.0169724
0.0169772
0.016982
0.0169867
0.0169915
0.0169962
0.0170009
0.0170055
0.0170102
0.0170148
0.0170194
0.0170239
0.0170285
0.017033
0.0170375
0.017042
0.0170464
0.0170509
0.0170553
0.0170597
0.017064
0.0170684
0
0

