-14930.3
-0.0222844
-0.00730664
-0.00268568
-0.000418515
0.000949481
0.00186567
0.00251967
0.00300795
0.00338501
0.00368362
0.00392448
0.00412112
0.00428275
0.00441581
0.00452502
0.00461391
0.00468524
0.00474119
0.00478356
0.00481384
0.00483331
0.00484303
0.00484397
0.00483695
0.00482269
0.00480186
0.00477501
0.00474268
0.00470531
0.00466333
0.00461711
0.00456699
0.00451329
0.00445627
0.0043962
0.00433332
0.00426783
0.00419994
0.00412983
0.00405765
0.00398358
0.00390773
0.00383026
0.00375128
0.00367092
0.00358928
0.00350647
0.00342258
0.00333771
0.00325194
0.00316534
0.003078
0.00298997
0.00290133
0.00281213
0.00272244
0.00263231
0.0025418
0.00245096
0.00235984
0.00226849
0.00217694
0.00208523
0.00199341
0.00190151
0.00180956
0.00171759
0.00162563
0.00153372
0.00144189
0.00135017
0.00125858
0.00116715
0.00107591
0.000984883
0.000894088
0.000803549
0.000713287
0.000623323
0.000533675
0.000444363
0.000355404
0.000266816
0.000178615
9.08186e-05
3.44073e-06
-8.35066e-05
-0.00017001
-0.000256059
-0.000341642
-0.00042675
-0.00051137
-0.000595491
-0.000679105
-0.000762204
-0.000844779
-0.000926823
-0.00100833
-0.0010893
-0.00116972
-0.00124957
-0.00132886
-0.00140756
-0.00148568
-0.00156321
-0.00164013
-0.00171645
-0.00179215
-0.00186723
-0.00194168
-0.0020155
-0.00208869
-0.00216124
-0.00223315
-0.00230442
-0.00237504
-0.00244501
-0.00251433
-0.002583
-0.00265101
-0.00271836
-0.00278505
-0.00285109
-0.00291647
-0.0029812
-0.00304528
-0.00310869
-0.00317145
-0.00323355
-0.00329499
-0.00335577
-0.00341589
-0.00347536
-0.00353418
-0.00359233
-0.00364983
-0.00370668
-0.00376286
-0.00381839
-0.00387326
-0.00392748
-0.00398106
-0.00403398
-0.00408625
-0.00413788
-0.00418886
-0.00423919
-0.00428888
-0.00433792
-0.00438632
-0.00443408
-0.0044812
-0.00452769
-0.00457353
-0.00461874
-0.00466333
-0.00470728
-0.00475061
-0.00479331
-0.0048354
-0.00487686
-0.00491772
-0.00495796
-0.0049976
-0.00503663
-0.00507507
-0.0051129
-0.00515014
-0.00518679
-0.00522284
-0.00525832
-0.0052932
-0.00532751
-0.00536124
-0.0053944
-0.00542699
-0.00545902
-0.00549048
-0.00552139
-0.00555174
-0.00558154
-0.00561079
-0.0056395
-0.00566767
-0.0056953
-0.0057224
-0.00574897
-0.00577502
-0.00580054
-0.00582554
-0.00585002
-0.00587399
-0.00589745
-0.00592039
-0.00594284
-0.00596478
-0.00598622
-0.00600716
-0.00602762
-0.00604758
-0.00606706
-0.00608606
-0.00610458
-0.00612263
-0.00614021
-0.00615731
-0.00617395
-0.00619013
-0.00620585
-0.00622112
-0.00623594
-0.0062503
-0.00626422
-0.0062777
-0.00629074
-0.00630334
-0.00631551
-0.00632726
-0.00633857
-0.00634947
-0.00635994
-0.00637
-0.00637965
-0.00638889
-0.00639772
-0.00640615
-0.00641418
-0.00642181
-0.00642905
-0.0064359
-0.00644237
-0.00644845
-0.00645414
-0.00645947
-0.00646441
-0.00646899
-0.0064732
-0.00647704
-0.00648052
-0.00648364
-0.0064864
-0.00648881
-0.00649087
-0.00649259
-0.00649395
-0.00649498
-0.00649567
-0.00649602
-0.00649604
-0.00649572
-0.00649508
-0.00649412
-0.00649283
-0.00649122
-0.0064893
-0.00648706
-0.00648451
-0.00648165
-0.00647849
-0.00647502
-0.00647125
-0.00646718
-0.00646282
-0.00645816
-0.00645321
-0.00644798
-0.00644246
-0.00643665
-0.00643056
-0.0064242
-0.00641755
-0.00641064
-0.00640345
-0.00639599
-0.00638827
-0.00638028
-0.00637203
-0.00636351
-0.00635474
-0.00634572
-0.00633644
-0.00632691
-0.00631713
-0.0063071
-0.00629682
-0.00628631
-0.00627555
-0.00626456
-0.00625332
-0.00624186
-0.00623016
-0.00621823
-0.00620607
-0.00619368
-0.00618107
-0.00616823
-0.00615518
-0.0061419
-0.00612841
-0.00611471
-0.00610078
-0.00608665
-0.00607231
-0.00605776
-0.006043
-0.00602804
-0.00601288
-0.00599752
-0.00598195
-0.00596619
-0.00595023
-0.00593408
-0.00591774
-0.0059012
-0.00588448
-0.00586757
-0.00585047
-0.00583319
-0.00581573
-0.00579808
-0.00578026
-0.00576226
-0.00574408
-0.00572572
-0.0057072
-0.0056885
-0.00566963
-0.0056506
-0.0056314
-0.00561203
-0.0055925
-0.00557281
-0.00555296
-0.00553294
-0.00551277
-0.00549245
-0.00547196
-0.00545132
-0.00543053
-0.00540959
-0.0053885
-0.00536726
-0.00534587
-0.00532434
-0.00530267
-0.00528085
-0.0052589
-0.0052368
-0.00521457
-0.0051922
-0.00516969
-0.00514705
-0.00512427
-0.00510136
-0.00507832
-0.00505515
-0.00503185
-0.00500842
-0.00498487
-0.00496119
-0.00493739
-0.00491347
-0.00488943
-0.00486527
-0.004841
-0.0048166
-0.00479208
-0.00476746
-0.00474271
-0.00471785
-0.00469288
-0.0046678
-0.0046426
-0.0046173
-0.00459189
-0.00456637
-0.00454075
-0.00451503
-0.00448919
-0.00446326
-0.00443722
-0.00441108
-0.00438485
-0.00435851
-0.00433207
-0.00430554
-0.00427891
-0.00425219
-0.00422537
-0.00419847
-0.00417146
-0.00414437
-0.00411718
-0.00408991
-0.00406255
-0.00403509
-0.00400755
-0.00397992
-0.00395221
-0.00392441
-0.00389653
-0.00386856
-0.00384051
-0.00381238
-0.00378416
-0.00375587
-0.00372749
-0.00369904
-0.00367051
-0.0036419
-0.00361322
-0.00358447
-0.00355564
-0.00352673
-0.00349776
-0.00346871
-0.00343959
-0.0034104
-0.00338115
-0.00335182
-0.00332243
-0.00329297
-0.00326344
-0.00323384
-0.00320419
-0.00317446
-0.00314468
-0.00311483
-0.00308492
-0.00305495
-0.00302492
-0.00299484
-0.0029647
-0.0029345
-0.00290424
-0.00287393
-0.00284357
-0.00281315
-0.00278268
-0.00275215
-0.00272157
-0.00269093
-0.00266025
-0.00262951
-0.00259873
-0.00256789
-0.00253701
-0.00250609
-0.00247512
-0.0024441
-0.00241304
-0.00238194
-0.0023508
-0.00231961
-0.00228838
-0.00225712
-0.00222581
-0.00219446
-0.00216308
-0.00213165
-0.00210019
-0.00206869
-0.00203715
-0.00200557
-0.00197396
-0.0019423
-0.00191062
-0.00187889
-0.00184714
-0.00181535
-0.00178353
-0.00175168
-0.00171979
-0.00168788
-0.00165594
-0.00162397
-0.00159198
-0.00155995
-0.0015279
-0.00149582
-0.00146372
-0.00143159
-0.00139943
-0.00136725
-0.00133505
-0.00130282
-0.00127056
-0.00123828
-0.00120598
-0.00117365
-0.0011413
-0.00110893
-0.00107654
-0.00104412
-0.00101169
-0.000979228
-0.000946752
-0.000914255
-0.00088174
-0.000849206
-0.000816653
-0.000784083
-0.000751497
-0.000718894
-0.000686276
-0.000653643
-0.000620997
-0.000588335
-0.000555661
-0.000522973
-0.000490273
-0.00045756
-0.000424835
-0.0003921
-0.000359354
-0.000326599
-0.000293834
-0.000261059
-0.000228277
-0.000195486
-0.000162687
-0.00012988
-9.70668e-05
-6.42462e-05
-3.14192e-05
1.41422e-06
3.4254e-05
6.70988e-05
9.99486e-05
0.000132803
0.000165659
0.000198518
0.000231379
0.000264241
0.000297104
0.000329968
0.000362831
0.000395694
0.000428554
0.000461413
0.00049427
0.000527125
0.000559979
0.00059283
0.000625678
0.000658523
0.000691364
0.0007242
0.000757033
0.00078986
0.000822683
0.000855501
0.000888314
0.00092112
0.000953921
0.000986715
0.0010195
0.00105229
0.00108506
0.00111783
0.00115059
0.00118334
0.00121609
0.00124882
0.00128155
0.00131427
0.00134697
0.00137966
0.00141233
0.00144499
0.00147764
0.00151028
0.0015429
0.0015755
0.00160809
0.00164067
0.00167323
0.00170578
0.00173831
0.00177083
0.00180333
0.00183582
0.0018683
0.00190076
0.0019332
0.00196563
0.00199804
0.00203044
0.00206282
0.00209519
0.00212754
0.00215987
0.00219218
0.00222448
0.00225676
0.00228902
0.00232126
0.00235349
0.00238569
0.00241788
0.00245005
0.0024822
0.00251433
0.00254643
0.00257852
0.00261059
0.00264264
0.00267467
0.00270667
0.00273865
0.00277062
0.00280255
0.00283447
0.00286636
0.00289823
0.00293007
0.00296188
0.00299367
0.00302544
0.00305718
0.00308889
0.00312058
0.00315224
0.00318388
0.00321548
0.00324707
0.00327862
0.00331015
0.00334166
0.00337313
0.00340458
0.003436
0.0034674
0.00349876
0.0035301
0.00356141
0.0035927
0.00362395
0.00365517
0.00368637
0.00371754
0.00374868
0.00377979
0.00381086
0.00384191
0.00387292
0.00390391
0.00393486
0.00396578
0.00399667
0.00402753
0.00405836
0.00408915
0.00411992
0.00415065
0.00418134
0.00421201
0.00424264
0.00427324
0.00430381
0.00433435
0.00436485
0.00439531
0.00442575
0.00445614
0.0044865
0.00451683
0.00454712
0.00457738
0.0046076
0.00463778
0.00466793
0.00469804
0.00472812
0.00475816
0.00478817
0.00481814
0.00484807
0.00487797
0.00490783
0.00493766
0.00496745
0.0049972
0.00502692
0.0050566
0.00508624
0.00511585
0.00514542
0.00517495
0.00520445
0.0052339
0.00526333
0.00529271
0.00532206
0.00535137
0.00538064
0.00540988
0.00543908
0.00546824
0.00549736
0.00552644
0.00555548
0.00558449
0.00561345
0.00564238
0.00567126
0.00570011
0.00572891
0.00575767
0.0057864
0.00581508
0.00584373
0.00587233
0.0059009
0.00592942
0.00595791
0.00598635
0.00601476
0.00604312
0.00607144
0.00609973
0.00612797
0.00615617
0.00618433
0.00621244
0.00624052
0.00626855
0.00629655
0.0063245
0.00635241
0.00638028
0.00640811
0.00643589
0.00646364
0.00649134
0.00651901
0.00654663
0.0065742
0.00660174
0.00662924
0.00665669
0.0066841
0.00671147
0.0067388
0.00676608
0.00679332
0.00682052
0.00684768
0.00687479
0.00690187
0.0069289
0.00695588
0.00698283
0.00700973
0.00703659
0.0070634
0.00709017
0.0071169
0.00714359
0.00717023
0.00719683
0.00722338
0.00724989
0.00727635
0.00730277
0.00732915
0.00735547
0.00738176
0.007408
0.00743419
0.00746034
0.00748645
0.00751251
0.00753852
0.00756449
0.00759042
0.0076163
0.00764213
0.00766792
0.00769367
0.00771937
0.00774502
0.00777063
0.00779619
0.00782172
0.00784719
0.00787262
0.00789801
0.00792335
0.00794865
0.0079739
0.00799911
0.00802427
0.00804939
0.00807446
0.00809949
0.00812447
0.00814941
0.0081743
0.00819915
0.00822395
0.00824871
0.00827342
0.00829809
0.00832271
0.00834729
0.00837182
0.0083963
0.00842074
0.00844514
0.00846949
0.00849379
0.00851805
0.00854226
0.00856642
0.00859054
0.00861462
0.00863864
0.00866263
0.00868657
0.00871046
0.00873431
0.00875811
0.00878186
0.00880558
0.00882924
0.00885286
0.00887644
0.00889997
0.00892346
0.0089469
0.00897029
0.00899364
0.00901695
0.0090402
0.00906342
0.00908659
0.00910971
0.00913279
0.00915582
0.00917881
0.00920175
0.00922465
0.0092475
0.0092703
0.00929306
0.00931577
0.00933844
0.00936107
0.00938364
0.00940618
0.00942866
0.00945111
0.0094735
0.00949585
0.00951816
0.00954042
0.00956263
0.0095848
0.00960692
0.009629
0.00965103
0.00967302
0.00969496
0.00971686
0.00973871
0.00976052
0.00978228
0.009804
0.00982567
0.0098473
0.00986888
0.00989042
0.00991191
0.00993336
0.00995477
0.00997612
0.00999744
0.0100187
0.0100399
0.0100611
0.0100822
0.0101033
0.0101244
0.0101454
0.0101663
0.0101873
0.0102081
0.0102289
0.0102497
0.0102705
0.0102911
0.0103118
0.0103324
0.0103529
0.0103734
0.0103939
0.0104143
0.0104347
0.010455
0.0104753
0.0104955
0.0105157
0.0105359
0.010556
0.0105761
0.0105961
0.010616
0.010636
0.0106559
0.0106757
0.0106955
0.0107152
0.0107349
0.0107546
0.0107742
0.0107938
0.0108133
0.0108328
0.0108522
0.0108716
0.010891
0.0109103
0.0109296
0.0109488
0.010968
0.0109871
0.0110062
0.0110253
0.0110443
0.0110632
0.0110822
0.011101
0.0111199
0.0111387
0.0111574
0.0111761
0.0111948
0.0112134
0.011232
0.0112505
0.011269
0.0112875
0.0113059
0.0113242
0.0113425
0.0113608
0.0113791
0.0113973
0.0114154
0.0114335
0.0114516
0.0114696
0.0114876
0.0115056
0.0115235
0.0115413
0.0115591
0.0115769
0.0115946
0.0116123
0.01163
0.0116476
0.0116652
0.0116827
0.0117002
0.0117176
0.011735
0.0117524
0.0117697
0.011787
0.0118042
0.0118214
0.0118386
0.0118557
0.0118728
0.0118898
0.0119068
0.0119238
0.0119407
0.0119576
0.0119744
0.0119912
0.012008
0.0120247
0.0120413
0.012058
0.0120746
0.0120911
0.0121076
0.0121241
0.0121405
0.0121569
0.0121733
0.0121896
0.0122059
0.0122221
0.0122383
0.0122545
0.0122706
0
0

