-14930.3
-0.0225614
-0.00870401
-0.00488912
-0.00321168
-0.00230318
-0.00177223
-0.00146663
-0.00131505
-0.00127948
-0.00133708
-0.0014723
-0.00167318
-0.00192956
-0.00223231
-0.002573
-0.00294381
-0.00333747
-0.00374734
-0.00416738
-0.00459221
-0.00501706
-0.00543782
-0.00585094
-0.00625346
-0.00664291
-0.00701732
-0.00737514
-0.00771522
-0.00803672
-0.00833914
-0.00862221
-0.00888588
-0.00913031
-0.00935579
-0.00956275
-0.00975172
-0.00992331
-0.0100782
-0.0102171
-0.0103408
-0.01045
-0.0105455
-0.010628
-0.0106984
-0.0107574
-0.0108056
-0.0108439
-0.0108728
-0.0108931
-0.0109053
-0.0109101
-0.0109079
-0.0108994
-0.0108849
-0.0108651
-0.0108402
-0.0108108
-0.0107772
-0.0107398
-0.0106989
-0.0106548
-0.0106078
-0.0105582
-0.0105062
-0.010452
-0.0103959
-0.010338
-0.0102786
-0.0102178
-0.0101557
-0.0100926
-0.0100284
-0.00996342
-0.00989768
-0.00983129
-0.00976436
-0.00969696
-0.00962917
-0.00956107
-0.00949271
-0.00942417
-0.00935548
-0.00928671
-0.00921789
-0.00914908
-0.0090803
-0.00901159
-0.00894299
-0.00887451
-0.0088062
-0.00873806
-0.00867013
-0.00860242
-0.00853494
-0.00846772
-0.00840077
-0.0083341
-0.00826773
-0.00820165
-0.00813589
-0.00807045
-0.00800534
-0.00794056
-0.00787612
-0.00781203
-0.00774828
-0.00768489
-0.00762185
-0.00755917
-0.00749686
-0.0074349
-0.00737331
-0.00731209
-0.00725123
-0.00719074
-0.00713061
-0.00707085
-0.00701147
-0.00695244
-0.00689378
-0.00683549
-0.00677756
-0.00672
-0.0066628
-0.00660596
-0.00654948
-0.00649336
-0.0064376
-0.0063822
-0.00632714
-0.00627245
-0.0062181
-0.0061641
-0.00611045
-0.00605715
-0.00600419
-0.00595157
-0.00589929
-0.00584736
-0.00579575
-0.00574449
-0.00569355
-0.00564295
-0.00559268
-0.00554273
-0.00549311
-0.00544381
-0.00539483
-0.00534617
-0.00529783
-0.00524981
-0.00520209
-0.00515469
-0.0051076
-0.00506082
-0.00501434
-0.00496816
-0.00492229
-0.00487672
-0.00483144
-0.00478646
-0.00474177
-0.00469738
-0.00465328
-0.00460946
-0.00456593
-0.00452269
-0.00447973
-0.00443705
-0.00439465
-0.00435253
-0.00431068
-0.00426911
-0.00422781
-0.00418678
-0.00414602
-0.00410552
-0.00406529
-0.00402533
-0.00398562
-0.00394618
-0.003907
-0.00386807
-0.00382939
-0.00379097
-0.0037528
-0.00371488
-0.00367721
-0.00363979
-0.00360261
-0.00356568
-0.00352899
-0.00349253
-0.00345632
-0.00342035
-0.00338461
-0.0033491
-0.00331383
-0.00327879
-0.00324398
-0.00320939
-0.00317504
-0.00314091
-0.003107
-0.00307332
-0.00303985
-0.00300661
-0.00297358
-0.00294077
-0.00290818
-0.0028758
-0.00284363
-0.00281168
-0.00277993
-0.00274839
-0.00271706
-0.00268594
-0.00265502
-0.0026243
-0.00259378
-0.00256347
-0.00253335
-0.00250343
-0.00247371
-0.00244418
-0.00241485
-0.00238571
-0.00235676
-0.002328
-0.00229943
-0.00227105
-0.00224285
-0.00221484
-0.00218702
-0.00215937
-0.00213191
-0.00210463
-0.00207753
-0.00205061
-0.00202386
-0.00199729
-0.00197089
-0.00194467
-0.00191862
-0.00189274
-0.00186704
-0.0018415
-0.00181613
-0.00179092
-0.00176588
-0.00174101
-0.0017163
-0.00169175
-0.00166737
-0.00164314
-0.00161908
-0.00159517
-0.00157142
-0.00154783
-0.00152439
-0.00150111
-0.00147798
-0.001455
-0.00143217
-0.00140949
-0.00138697
-0.00136459
-0.00134236
-0.00132027
-0.00129833
-0.00127654
-0.00125489
-0.00123338
-0.00121201
-0.00119079
-0.0011697
-0.00114875
-0.00112794
-0.00110727
-0.00108674
-0.00106634
-0.00104607
-0.00102594
-0.00100594
-0.000986072
-0.000966337
-0.00094673
-0.000927253
-0.000907905
-0.000888684
-0.00086959
-0.000850622
-0.000831779
-0.00081306
-0.000794465
-0.000775993
-0.000757643
-0.000739413
-0.000721304
-0.000703314
-0.000685444
-0.00066769
-0.000650055
-0.000632535
-0.000615132
-0.000597843
-0.000580668
-0.000563607
-0.000546659
-0.000529822
-0.000513097
-0.000496482
-0.000479976
-0.00046358
-0.000447292
-0.000431112
-0.000415038
-0.000399071
-0.000383209
-0.000367452
-0.000351799
-0.00033625
-0.000320803
-0.000305458
-0.000290215
-0.000275072
-0.00026003
-0.000245087
-0.000230242
-0.000215496
-0.000200847
-0.000186295
-0.000171839
-0.000157479
-0.000143214
-0.000129043
-0.000114966
-0.000100982
-8.70899e-05
-7.32902e-05
-5.95814e-05
-4.59636e-05
-3.2436e-05
-1.89972e-05
-5.64801e-06
7.61312e-06
2.07868e-05
3.38732e-05
4.68728e-05
5.97865e-05
7.26149e-05
8.53587e-05
9.8018e-05
0.000110593
0.000123086
0.000135495
0.000147822
0.000160069
0.000172234
0.000184318
0.000196322
0.000208247
0.000220093
0.000231861
0.000243551
0.000255163
0.000266699
0.000278158
0.000289542
0.000300849
0.000312083
0.000323241
0.000334326
0.000345337
0.000356276
0.000367142
0.000377936
0.000388659
0.000399311
0.000409892
0.000420403
0.000430845
0.000441218
0.000451521
0.000461756
0.000471924
0.000482025
0.000492058
0.000502025
0.000511926
0.000521761
0.000531532
0.000541237
0.000550879
0.000560456
0.00056997
0.000579421
0.00058881
0.000598136
0.0006074
0.000616603
0.000625745
0.000634826
0.000643847
0.000652809
0.000661711
0.000670554
0.000679338
0.000688064
0.000696732
0.000705342
0.000713895
0.000722392
0.000730833
0.000739217
0.000747546
0.00075582
0.000764039
0.000772203
0.000780313
0.00078837
0.000796373
0.000804323
0.00081222
0.000820065
0.000827858
0.0008356
0.00084329
0.000850929
0.000858518
0.000866055
0.000873544
0.000880983
0.000888372
0.000895712
0.000903004
0.000910247
0.000917443
0.00092459
0.00093169
0.000938744
0.00094575
0.00095271
0.000959624
0.000966492
0.000973315
0.000980092
0.000986824
0.000993512
0.00100016
0.00100675
0.00101331
0.00101982
0.00102629
0.00103272
0.0010391
0.00104544
0.00105174
0.001058
0.00106421
0.00107039
0.00107652
0.00108262
0.00108867
0.00109468
0.00110065
0.00110659
0.00111248
0.00111834
0.00112415
0.00112993
0.00113567
0.00114137
0.00114703
0.00115266
0.00115824
0.0011638
0.00116931
0.00117479
0.00118023
0.00118564
0.00119101
0.00119634
0.00120164
0.0012069
0.00121213
0.00121732
0.00122248
0.00122761
0.0012327
0.00123776
0.00124278
0.00124777
0.00125273
0.00125766
0.00126255
0.00126741
0.00127224
0.00127703
0.00128179
0.00128653
0.00129123
0.0012959
0.00130054
0.00130514
0.00130972
0.00131427
0.00131879
0.00132327
0.00132773
0.00133216
0.00133655
0.00134092
0.00134526
0.00134958
0.00135386
0.00135811
0.00136234
0.00136654
0.00137071
0.00137485
0.00137897
0.00138306
0.00138712
0.00139115
0.00139516
0.00139914
0.00140309
0.00140702
0.00141092
0.0014148
0.00141865
0.00142248
0.00142628
0.00143005
0.0014338
0.00143752
0.00144122
0.0014449
0.00144855
0.00145218
0.00145578
0.00145936
0.00146292
0.00146645
0.00146996
0.00147344
0.0014769
0.00148034
0.00148376
0.00148715
0.00149052
0.00149387
0.0014972
0.00150051
0.00150379
0.00150705
0.00151029
0.00151351
0.0015167
0.00151988
0.00152303
0.00152617
0.00152928
0.00153237
0.00153545
0.0015385
0.00154153
0.00154454
0.00154753
0.0015505
0.00155346
0.00155639
0.0015593
0.00156219
0.00156507
0.00156792
0.00157076
0.00157358
0.00157638
0.00157916
0.00158192
0.00158467
0.00158739
0.0015901
0.00159279
0.00159546
0.00159812
0.00160075
0.00160337
0.00160597
0.00160856
0.00161113
0.00161368
0.00161621
0.00161873
0.00162123
0.00162371
0.00162618
0.00162863
0.00163107
0.00163349
0.00163589
0.00163828
0.00164065
0.001643
0.00164534
0.00164767
0.00164998
0.00165227
0.00165455
0.00165681
0.00165906
0.0016613
0.00166351
0.00166572
0.00166791
0.00167008
0.00167225
0.00167439
0.00167653
0.00167864
0.00168075
0.00168284
0.00168492
0.00168698
0.00168903
0.00169106
0.00169309
0.0016951
0.00169709
0.00169907
0.00170104
0.001703
0.00170494
0.00170688
0.00170879
0.0017107
0.00171259
0.00171447
0.00171634
0.0017182
0.00172004
0.00172187
0.00172369
0.0017255
0.00172729
0.00172908
0.00173085
0.00173261
0.00173436
0.00173609
0.00173782
0.00173953
0.00174123
0.00174293
0.00174461
0.00174628
0.00174793
0.00174958
0.00175122
0.00175284
0.00175446
0.00175606
0.00175766
0.00175924
0.00176081
0.00176238
0.00176393
0.00176547
0.001767
0.00176852
0.00177003
0.00177154
0.00177303
0.00177451
0.00177598
0.00177744
0.0017789
0.00178034
0.00178178
0.0017832
0.00178461
0.00178602
0.00178742
0.0017888
0.00179018
0.00179155
0.00179291
0.00179426
0.0017956
0.00179694
0.00179826
0.00179958
0.00180089
0.00180218
0.00180347
0.00180476
0.00180603
0.00180729
0.00180855
0.0018098
0.00181104
0.00181227
0.0018135
0.00181471
0.00181592
0.00181712
0.00181831
0.0018195
0.00182067
0.00182184
0.001823
0.00182415
0.0018253
0.00182644
0.00182757
0.00182869
0.00182981
0.00183092
0.00183202
0.00183311
0.0018342
0.00183528
0.00183635
0.00183742
0.00183848
0.00183953
0.00184058
0.00184161
0.00184264
0.00184367
0.00184469
0.0018457
0.0018467
0.0018477
0.00184869
0.00184968
0.00185066
0.00185163
0.00185259
0.00185355
0.00185451
0.00185545
0.00185639
0.00185733
0.00185826
0.00185918
0.00186009
0.001861
0.00186191
0.00186281
0.0018637
0.00186459
0.00186547
0.00186634
0.00186721
0.00186808
0.00186893
0.00186979
0.00187063
0.00187148
0.00187231
0.00187314
0.00187397
0.00187479
0.0018756
0.00187641
0.00187721
0.00187801
0.0018788
0.00187959
0.00188038
0.00188115
0.00188193
0.00188269
0.00188346
0.00188421
0.00188497
0.00188571
0.00188646
0.0018872
0.00188793
0.00188866
0.00188938
0.0018901
0.00189081
0.00189152
0.00189223
0.00189293
0.00189363
0.00189432
0.001895
0.00189569
0.00189636
0.00189704
0.00189771
0.00189837
0.00189903
0.00189969
0.00190034
0.00190099
0.00190163
0.00190227
0.00190291
0.00190354
0.00190416
0.00190479
0.00190541
0.00190602
0.00190663
0.00190724
0.00190784
0.00190844
0.00190904
0.00190963
0.00191021
0.0019108
0.00191138
0.00191195
0.00191253
0.00191309
0.00191366
0.00191422
0.00191478
0.00191533
0.00191588
0.00191643
0.00191697
0.00191751
0.00191805
0.00191858
0.00191911
0.00191964
0.00192016
0.00192068
0.00192119
0.00192171
0.00192221
0.00192272
0.00192322
0.00192372
0.00192422
0.00192471
0.0019252
0.00192569
0.00192617
0.00192665
0.00192713
0.0019276
0.00192807
0.00192854
0.00192901
0.00192947
0.00192993
0.00193038
0.00193084
0.00193129
0.00193173
0.00193218
0.00193262
0.00193306
0.00193349
0.00193393
0.00193436
0.00193478
0.00193521
0.00193563
0.00193605
0.00193647
0.00193688
0.00193729
0.0019377
0.00193811
0.00193851
0.00193891
0.00193931
0.0019397
0.0019401
0.00194049
0.00194087
0.00194126
0.00194164
0.00194202
0.0019424
0.00194278
0.00194315
0.00194352
0.00194389
0.00194426
0.00194462
0.00194498
0.00194534
0.0019457
0.00194605
0.0019464
0.00194675
0.0019471
0.00194745
0.00194779
0.00194813
0.00194847
0.00194881
0.00194914
0.00194948
0.00194981
0.00195013
0.00195046
0.00195078
0.00195111
0.00195143
0.00195174
0.00195206
0.00195237
0.00195268
0.00195299
0.0019533
0.00195361
0.00195391
0.00195421
0.00195451
0.00195481
0.00195511
0.0019554
0.0019557
0.00195599
0.00195628
0.00195656
0.00195685
0.00195713
0.00195741
0.00195769
0.00195797
0.00195825
0.00195852
0.00195879
0.00195906
0.00195933
0.0019596
0.00195987
0.00196013
0.00196039
0.00196065
0.00196091
0.00196117
0.00196143
0.00196168
0.00196193
0.00196218
0.00196243
0.00196268
0.00196293
0.00196317
0.00196342
0.00196366
0.0019639
0.00196414
0.00196437
0.00196461
0.00196484
0.00196508
0.00196531
0.00196554
0.00196576
0.00196599
0.00196622
0.00196644
0.00196666
0.00196688
0.0019671
0.00196732
0.00196754
0.00196776
0.00196797
0.00196818
0.00196839
0.0019686
0.00196881
0.00196902
0.00196923
0.00196943
0.00196964
0.00196984
0.00197004
0.00197024
0.00197044
0.00197064
0.00197083
0.00197103
0.00197122
0.00197141
0.0019716
0.00197179
0.00197198
0.00197217
0.00197236
0.00197254
0.00197273
0.00197291
0.00197309
0
0

