-14930.3
-0.0225614
-0.00870391
-0.00488847
-0.00320929
-0.00229666
-0.00175766
-0.00143831
-0.00126563
-0.00120024
-0.00121855
-0.00130487
-0.00144778
-0.00163829
-0.00186895
-0.00213335
-0.00242592
-0.00274177
-0.0030766
-0.00342663
-0.00378851
-0.00415924
-0.00453607
-0.00491639
-0.00529766
-0.00567737
-0.00605297
-0.00642194
-0.00678188
-0.00713051
-0.00746582
-0.00778611
-0.00809001
-0.00837651
-0.00864496
-0.008895
-0.00912659
-0.0093399
-0.00953532
-0.00971336
-0.00987468
-0.01002
-0.0101501
-0.0102657
-0.0103678
-0.010457
-0.0105342
-0.0106001
-0.0106556
-0.0107012
-0.0107377
-0.0107657
-0.0107858
-0.0107985
-0.0108044
-0.010804
-0.0107977
-0.010786
-0.0107692
-0.0107477
-0.010722
-0.0106923
-0.0106588
-0.010622
-0.010582
-0.0105392
-0.0104937
-0.0104457
-0.0103955
-0.0103432
-0.010289
-0.0102331
-0.0101756
-0.0101167
-0.0100564
-0.009995
-0.0099325
-0.00986904
-0.00980471
-0.0097396
-0.0096738
-0.00960739
-0.00954045
-0.00947304
-0.00940524
-0.00933709
-0.00926866
-0.0092
-0.00913115
-0.00906217
-0.00899309
-0.00892396
-0.00885481
-0.00878567
-0.00871658
-0.00864756
-0.00857865
-0.00850986
-0.00844122
-0.00837275
-0.00830447
-0.00823641
-0.00816857
-0.00810097
-0.00803362
-0.00796655
-0.00789976
-0.00783326
-0.00776706
-0.00770118
-0.00763561
-0.00757038
-0.00750547
-0.00744091
-0.0073767
-0.00731284
-0.00724933
-0.00718619
-0.00712341
-0.00706099
-0.00699895
-0.00693728
-0.00687598
-0.00681506
-0.00675452
-0.00669436
-0.00663457
-0.00657517
-0.00651614
-0.0064575
-0.00639923
-0.00634135
-0.00628384
-0.00622672
-0.00616997
-0.0061136
-0.00605761
-0.00600199
-0.00594675
-0.00589188
-0.00583738
-0.00578325
-0.00572949
-0.0056761
-0.00562308
-0.00557041
-0.00551811
-0.00546617
-0.00541459
-0.00536336
-0.00531249
-0.00526197
-0.0052118
-0.00516198
-0.00511251
-0.00506338
-0.00501459
-0.00496614
-0.00491803
-0.00487026
-0.00482282
-0.00477571
-0.00472894
-0.00468249
-0.00463636
-0.00459056
-0.00454508
-0.00449991
-0.00445507
-0.00441054
-0.00436632
-0.00432241
-0.00427881
-0.00423552
-0.00419253
-0.00414984
-0.00410745
-0.00406536
-0.00402357
-0.00398207
-0.00394086
-0.00389994
-0.0038593
-0.00381896
-0.00377889
-0.00373911
-0.00369961
-0.00366038
-0.00362143
-0.00358276
-0.00354435
-0.00350621
-0.00346835
-0.00343074
-0.00339341
-0.00335633
-0.00331951
-0.00328296
-0.00324666
-0.00321061
-0.00317481
-0.00313927
-0.00310398
-0.00306893
-0.00303413
-0.00299957
-0.00296526
-0.00293118
-0.00289735
-0.00286375
-0.00283038
-0.00279725
-0.00276435
-0.00273168
-0.00269925
-0.00266703
-0.00263504
-0.00260328
-0.00257174
-0.00254042
-0.00250931
-0.00247843
-0.00244776
-0.0024173
-0.00238706
-0.00235703
-0.00232721
-0.00229759
-0.00226818
-0.00223898
-0.00220998
-0.00218119
-0.00215259
-0.00212419
-0.002096
-0.00206799
-0.00204019
-0.00201257
-0.00198515
-0.00195792
-0.00193088
-0.00190403
-0.00187737
-0.00185089
-0.00182459
-0.00179848
-0.00177255
-0.0017468
-0.00172123
-0.00169583
-0.00167061
-0.00164557
-0.0016207
-0.00159601
-0.00157149
-0.00154713
-0.00152295
-0.00149893
-0.00147508
-0.0014514
-0.00142788
-0.00140452
-0.00138132
-0.00135829
-0.00133542
-0.0013127
-0.00129014
-0.00126774
-0.00124549
-0.0012234
-0.00120146
-0.00117967
-0.00115804
-0.00113655
-0.00111521
-0.00109402
-0.00107298
-0.00105208
-0.00103132
-0.00101071
-0.000990245
-0.000969919
-0.000949733
-0.000929687
-0.000909779
-0.000890009
-0.000870375
-0.000850878
-0.000831514
-0.000812285
-0.000793188
-0.000774223
-0.000755389
-0.000736685
-0.000718111
-0.000699664
-0.000681344
-0.000663151
-0.000645083
-0.00062714
-0.000609321
-0.000591624
-0.00057405
-0.000556597
-0.000539263
-0.00052205
-0.000504955
-0.000487978
-0.000471117
-0.000454373
-0.000437743
-0.000421229
-0.000404828
-0.000388539
-0.000372364
-0.000356299
-0.000340345
-0.0003245
-0.000308765
-0.000293138
-0.000277618
-0.000262205
-0.000246898
-0.000231695
-0.000216598
-0.000201604
-0.000186714
-0.000171925
-0.000157238
-0.000142652
-0.000128166
-0.00011378
-9.9492e-05
-8.53021e-05
-7.12097e-05
-5.72145e-05
-4.33146e-05
-2.95106e-05
-1.58012e-05
-2.18546e-06
1.13364e-05
2.4766e-05
3.81031e-05
5.13493e-05
6.45039e-05
7.75689e-05
9.05444e-05
0.000103431
0.00011623
0.00012894
0.000141564
0.000154101
0.000166552
0.000178918
0.000191199
0.000203396
0.00021551
0.000227541
0.00023949
0.000251357
0.000263142
0.000274847
0.000286473
0.000298018
0.000309484
0.000320873
0.000332183
0.000343416
0.000354572
0.000365652
0.000376657
0.000387586
0.00039844
0.000409221
0.000419927
0.000430561
0.000441122
0.00045161
0.000462028
0.000472374
0.00048265
0.000492855
0.000502991
0.000513057
0.000523055
0.000532985
0.000542847
0.000552642
0.00056237
0.000572032
0.000581627
0.000591158
0.000600623
0.000610025
0.000619361
0.000628635
0.000637844
0.000646992
0.000656077
0.0006651
0.000674062
0.000682962
0.000691801
0.000700581
0.0007093
0.00071796
0.000726562
0.000735104
0.000743589
0.000752016
0.000760385
0.000768698
0.000776954
0.000785154
0.000793298
0.000801387
0.00080942
0.0008174
0.000825325
0.000833196
0.000841013
0.000848778
0.00085649
0.000864149
0.000871757
0.000879312
0.000886816
0.00089427
0.000901673
0.000909026
0.000916328
0.000923581
0.000930785
0.00093794
0.000945047
0.000952105
0.000959115
0.000966078
0.000972994
0.000979862
0.000986684
0.00099346
0.00100019
0.00100687
0.00101351
0.00102011
0.00102666
0.00103316
0.00103962
0.00104604
0.00105241
0.00105874
0.00106503
0.00107127
0.00107748
0.00108364
0.00108976
0.00109583
0.00110187
0.00110787
0.00111382
0.00111973
0.00112561
0.00113144
0.00113724
0.001143
0.00114871
0.00115439
0.00116003
0.00116563
0.0011712
0.00117672
0.00118221
0.00118766
0.00119308
0.00119846
0.0012038
0.00120911
0.00121438
0.00121961
0.00122481
0.00122997
0.0012351
0.0012402
0.00124526
0.00125029
0.00125528
0.00126024
0.00126516
0.00127005
0.00127491
0.00127974
0.00128453
0.00128929
0.00129402
0.00129872
0.00130338
0.00130802
0.00131262
0.00131719
0.00132173
0.00132624
0.00133072
0.00133517
0.00133959
0.00134398
0.00134834
0.00135267
0.00135697
0.00136124
0.00136549
0.0013697
0.00137389
0.00137805
0.00138218
0.00138628
0.00139036
0.00139441
0.00139843
0.00140242
0.00140639
0.00141033
0.00141424
0.00141813
0.00142199
0.00142582
0.00142963
0.00143342
0.00143717
0.00144091
0.00144461
0.0014483
0.00145195
0.00145559
0.0014592
0.00146278
0.00146634
0.00146988
0.00147339
0.00147688
0.00148035
0.00148379
0.00148721
0.00149061
0.00149398
0.00149733
0.00150066
0.00150397
0.00150725
0.00151051
0.00151375
0.00151697
0.00152017
0.00152334
0.0015265
0.00152963
0.00153274
0.00153583
0.0015389
0.00154195
0.00154498
0.00154799
0.00155098
0.00155395
0.0015569
0.00155982
0.00156273
0.00156562
0.00156849
0.00157135
0.00157418
0.00157699
0.00157979
0.00158256
0.00158532
0.00158806
0.00159078
0.00159348
0.00159616
0.00159883
0.00160148
0.00160411
0.00160672
0.00160932
0.0016119
0.00161446
0.001617
0.00161953
0.00162204
0.00162453
0.00162701
0.00162947
0.00163191
0.00163434
0.00163675
0.00163914
0.00164152
0.00164388
0.00164623
0.00164856
0.00165088
0.00165318
0.00165546
0.00165773
0.00165998
0.00166222
0.00166445
0.00166666
0.00166885
0.00167103
0.0016732
0.00167535
0.00167749
0.00167961
0.00168172
0.00168381
0.00168589
0.00168796
0.00169001
0.00169205
0.00169408
0.00169609
0.00169809
0.00170007
0.00170204
0.001704
0.00170595
0.00170788
0.0017098
0.00171171
0.0017136
0.00171549
0.00171736
0.00171921
0.00172106
0.00172289
0.00172471
0.00172652
0.00172831
0.0017301
0.00173187
0.00173363
0.00173538
0.00173712
0.00173884
0.00174055
0.00174226
0.00174395
0.00174563
0.0017473
0.00174896
0.0017506
0.00175224
0.00175386
0.00175548
0.00175708
0.00175867
0.00176026
0.00176183
0.00176339
0.00176494
0.00176648
0.00176801
0.00176953
0.00177104
0.00177254
0.00177403
0.00177551
0.00177698
0.00177844
0.00177989
0.00178134
0.00178277
0.00178419
0.0017856
0.00178701
0.0017884
0.00178979
0.00179116
0.00179253
0.00179389
0.00179523
0.00179657
0.0017979
0.00179923
0.00180054
0.00180184
0.00180314
0.00180443
0.00180571
0.00180698
0.00180824
0.00180949
0.00181074
0.00181198
0.0018132
0.00181443
0.00181564
0.00181684
0.00181804
0.00181923
0.00182041
0.00182158
0.00182275
0.00182391
0.00182506
0.0018262
0.00182733
0.00182846
0.00182958
0.00183069
0.0018318
0.0018329
0.00183399
0.00183507
0.00183615
0.00183722
0.00183828
0.00183934
0.00184038
0.00184142
0.00184246
0.00184349
0.00184451
0.00184552
0.00184653
0.00184753
0.00184852
0.00184951
0.00185049
0.00185147
0.00185244
0.0018534
0.00185435
0.0018553
0.00185625
0.00185718
0.00185812
0.00185904
0.00185996
0.00186087
0.00186178
0.00186268
0.00186357
0.00186446
0.00186534
0.00186622
0.00186709
0.00186796
0.00186882
0.00186967
0.00187052
0.00187136
0.0018722
0.00187303
0.00187386
0.00187468
0.0018755
0.00187631
0.00187711
0.00187791
0.00187871
0.0018795
0.00188028
0.00188106
0.00188183
0.0018826
0.00188337
0.00188413
0.00188488
0.00188563
0.00188637
0.00188711
0.00188785
0.00188858
0.0018893
0.00189002
0.00189074
0.00189145
0.00189215
0.00189285
0.00189355
0.00189424
0.00189493
0.00189562
0.00189629
0.00189697
0.00189764
0.0018983
0.00189897
0.00189962
0.00190027
0.00190092
0.00190157
0.00190221
0.00190284
0.00190347
0.0019041
0.00190472
0.00190534
0.00190596
0.00190657
0.00190718
0.00190778
0.00190838
0.00190898
0.00190957
0.00191016
0.00191074
0.00191132
0.0019119
0.00191247
0.00191304
0.0019136
0.00191416
0.00191472
0.00191528
0.00191583
0.00191637
0.00191692
0.00191746
0.00191799
0.00191853
0.00191906
0.00191958
0.00192011
0.00192062
0.00192114
0.00192165
0.00192216
0.00192267
0.00192317
0.00192367
0.00192417
0.00192466
0.00192515
0.00192564
0.00192612
0.0019266
0.00192708
0.00192755
0.00192802
0.00192849
0.00192895
0.00192942
0.00192988
0.00193033
0.00193078
0.00193124
0.00193168
0.00193213
0.00193257
0.00193301
0.00193344
0.00193387
0.0019343
0.00193473
0.00193516
0.00193558
0.001936
0.00193641
0.00193683
0.00193724
0.00193765
0.00193805
0.00193846
0.00193886
0.00193926
0.00193965
0.00194004
0.00194043
0.00194082
0.00194121
0.00194159
0.00194197
0.00194235
0.00194272
0.0019431
0.00194347
0.00194384
0.0019442
0.00194457
0.00194493
0.00194529
0.00194564
0.001946
0.00194635
0.0019467
0.00194705
0.00194739
0.00194773
0.00194808
0.00194841
0.00194875
0.00194909
0.00194942
0.00194975
0.00195008
0.0019504
0.00195073
0.00195105
0.00195137
0.00195168
0.001952
0.00195231
0.00195263
0.00195294
0.00195324
0.00195355
0.00195385
0.00195415
0.00195445
0.00195475
0.00195505
0.00195534
0.00195563
0.00195593
0.00195621
0.0019565
0.00195679
0.00195707
0.00195735
0.00195763
0.00195791
0.00195818
0.00195846
0.00195873
0.001959
0.00195927
0.00195954
0.0019598
0.00196007
0.00196033
0.00196059
0.00196085
0.00196111
0.00196136
0.00196161
0.00196187
0.00196212
0.00196237
0.00196262
0.00196286
0.00196311
0.00196335
0.00196359
0.00196383
0.00196407
0.00196431
0.00196454
0.00196477
0.00196501
0.00196524
0.00196547
0.0019657
0.00196592
0.00196615
0.00196637
0.00196659
0.00196681
0.00196703
0.00196725
0.00196747
0.00196768
0.0019679
0.00196811
0.00196832
0.00196853
0.00196874
0.00196895
0.00196915
0.00196936
0.00196956
0.00196976
0.00196997
0.00197017
0.00197036
0.00197056
0.00197076
0.00197095
0.00197115
0.00197134
0.00197153
0.00197172
0.00197191
0.0019721
0.00197228
0.00197247
0.00197265
0.00197283
0.00197302
0.0019732
0.00197338
0.00197355
0.00197373
0.00197391
0.00197408
0.00197426
0.00197443
0.0019746
0.00197477
0
0

