-14930.3
-0.0225614
-0.0087037
-0.00488704
-0.00320392
-0.00228208
-0.00172564
-0.00137771
-0.00116295
-0.00104039
-0.000985699
-0.000983278
-0.00102242
-0.00109531
-0.00119599
-0.00131966
-0.00146243
-0.00162101
-0.0017926
-0.0019748
-0.00216552
-0.00236294
-0.00256548
-0.00277175
-0.00298053
-0.00319074
-0.00340144
-0.00361181
-0.00382112
-0.00402875
-0.00423413
-0.00443679
-0.00463631
-0.00483234
-0.00502455
-0.00521269
-0.00539654
-0.00557591
-0.00575064
-0.00592061
-0.00608572
-0.0062459
-0.00640109
-0.00655126
-0.00669637
-0.00683644
-0.00697147
-0.00710147
-0.00722647
-0.00734652
-0.00746166
-0.00757194
-0.00767742
-0.00777817
-0.00787425
-0.00796575
-0.00805272
-0.00813526
-0.00821344
-0.00828735
-0.00835707
-0.00842269
-0.00848429
-0.00854196
-0.00859579
-0.00864586
-0.00869227
-0.0087351
-0.00877443
-0.00881035
-0.00884296
-0.00887232
-0.00889853
-0.00892167
-0.00894182
-0.00895906
-0.00897347
-0.00898513
-0.00899411
-0.0090005
-0.00900436
-0.00900576
-0.00900479
-0.00900151
-0.00899598
-0.00898828
-0.00897848
-0.00896663
-0.0089528
-0.00893705
-0.00891945
-0.00890005
-0.00887892
-0.0088561
-0.00883165
-0.00880564
-0.0087781
-0.0087491
-0.00871868
-0.00868689
-0.00865379
-0.00861942
-0.00858382
-0.00854704
-0.00850912
-0.00847011
-0.00843005
-0.00838897
-0.00834692
-0.00830394
-0.00826007
-0.00821534
-0.00816978
-0.00812343
-0.00807633
-0.00802851
-0.00798
-0.00793084
-0.00788104
-0.00783065
-0.00777969
-0.00772819
-0.00767618
-0.00762369
-0.00757073
-0.00751734
-0.00746354
-0.00740936
-0.00735481
-0.00729992
-0.00724472
-0.00718922
-0.00713345
-0.00707742
-0.00702116
-0.00696468
-0.00690801
-0.00685115
-0.00679414
-0.00673698
-0.00667969
-0.0066223
-0.0065648
-0.00650723
-0.00644959
-0.0063919
-0.00633418
-0.00627643
-0.00621866
-0.00616091
-0.00610316
-0.00604544
-0.00598776
-0.00593013
-0.00587256
-0.00581505
-0.00575763
-0.0057003
-0.00564307
-0.00558595
-0.00552894
-0.00547207
-0.00541532
-0.00535873
-0.00530228
-0.00524599
-0.00518986
-0.00513391
-0.00507814
-0.00502255
-0.00496715
-0.00491196
-0.00485696
-0.00480218
-0.00474761
-0.00469326
-0.00463914
-0.00458524
-0.00453158
-0.00447816
-0.00442498
-0.00437205
-0.00431937
-0.00426694
-0.00421477
-0.00416286
-0.00411122
-0.00405984
-0.00400874
-0.0039579
-0.00390735
-0.00385707
-0.00380707
-0.00375735
-0.00370792
-0.00365878
-0.00360992
-0.00356135
-0.00351308
-0.0034651
-0.00341741
-0.00337002
-0.00332293
-0.00327614
-0.00322964
-0.00318345
-0.00313755
-0.00309196
-0.00304667
-0.00300168
-0.00295699
-0.00291261
-0.00286854
-0.00282476
-0.00278129
-0.00273813
-0.00269527
-0.00265271
-0.00261046
-0.00256851
-0.00252687
-0.00248553
-0.00244449
-0.00240375
-0.00236332
-0.00232319
-0.00228336
-0.00224383
-0.0022046
-0.00216567
-0.00212704
-0.0020887
-0.00205066
-0.00201292
-0.00197548
-0.00193832
-0.00190147
-0.0018649
-0.00182862
-0.00179264
-0.00175694
-0.00172153
-0.00168641
-0.00165157
-0.00161702
-0.00158275
-0.00154877
-0.00151506
-0.00148163
-0.00144848
-0.00141561
-0.00138301
-0.00135069
-0.00131864
-0.00128686
-0.00125535
-0.00122411
-0.00119313
-0.00116242
-0.00113197
-0.00110179
-0.00107187
-0.0010422
-0.0010128
-0.000983648
-0.000954752
-0.000926111
-0.00089772
-0.000869579
-0.000841688
-0.000814042
-0.000786642
-0.000759486
-0.000732573
-0.000705899
-0.000679465
-0.000653267
-0.000627306
-0.000601579
-0.000576084
-0.00055082
-0.000525785
-0.000500978
-0.000476397
-0.00045204
-0.000427906
-0.000403994
-0.000380301
-0.000356827
-0.000333568
-0.000310525
-0.000287694
-0.000265075
-0.000242666
-0.000220466
-0.000198472
-0.000176684
-0.000155099
-0.000133717
-0.000112534
-9.15515e-05
-7.07656e-05
-5.01758e-05
-2.97807e-05
-9.57739e-06
1.0434e-05
3.02564e-05
4.98898e-05
6.93378e-05
8.85996e-05
0.000107678
0.000126575
0.000145291
0.000163828
0.000182187
0.00020037
0.000218379
0.000236215
0.000253879
0.000271372
0.000288697
0.000305854
0.000322845
0.000339672
0.000356335
0.000372837
0.000389179
0.000405362
0.000421387
0.000437256
0.00045297
0.000468531
0.000483939
0.000499197
0.000514306
0.000529266
0.000544079
0.000558747
0.00057327
0.000587651
0.00060189
0.000615989
0.000629949
0.000643771
0.000657457
0.000671006
0.000684421
0.000697703
0.000710854
0.000723874
0.000736764
0.000749527
0.000762162
0.000774671
0.000787057
0.000799319
0.000811458
0.000823476
0.000835374
0.000847154
0.000858816
0.000870361
0.00088179
0.000893105
0.000904306
0.000915395
0.000926372
0.00093724
0.000947998
0.000958649
0.000969191
0.000979628
0.00098996
0.00100019
0.00101031
0.00102033
0.00103026
0.00104008
0.0010498
0.00105942
0.00106895
0.00107838
0.00108771
0.00109695
0.0011061
0.00111515
0.00112411
0.00113298
0.00114176
0.00115046
0.00115906
0.00116757
0.001176
0.00118435
0.00119261
0.00120078
0.00120887
0.00121688
0.00122481
0.00123265
0.00124042
0.00124811
0.00125572
0.00126325
0.0012707
0.00127808
0.00128538
0.00129261
0.00129976
0.00130684
0.00131385
0.00132079
0.00132766
0.00133445
0.00134118
0.00134783
0.00135442
0.00136094
0.0013674
0.00137379
0.00138011
0.00138637
0.00139256
0.00139869
0.00140476
0.00141076
0.00141671
0.00142259
0.00142841
0.00143417
0.00143987
0.00144552
0.0014511
0.00145663
0.0014621
0.00146752
0.00147288
0.00147818
0.00148343
0.00148863
0.00149377
0.00149886
0.0015039
0.00150888
0.00151381
0.0015187
0.00152353
0.00152831
0.00153305
0.00153773
0.00154237
0.00154696
0.0015515
0.00155599
0.00156044
0.00156484
0.0015692
0.00157351
0.00157778
0.001582
0.00158618
0.00159032
0.00159441
0.00159847
0.00160248
0.00160644
0.00161037
0.00161426
0.00161811
0.00162191
0.00162568
0.00162941
0.0016331
0.00163675
0.00164037
0.00164395
0.00164749
0.00165099
0.00165446
0.00165789
0.00166129
0.00166465
0.00166798
0.00167127
0.00167453
0.00167775
0.00168095
0.0016841
0.00168723
0.00169033
0.00169339
0.00169642
0.00169942
0.00170239
0.00170532
0.00170823
0.00171111
0.00171396
0.00171677
0.00171956
0.00172232
0.00172506
0.00172776
0.00173044
0.00173309
0.00173571
0.0017383
0.00174087
0.00174341
0.00174592
0.00174841
0.00175088
0.00175331
0.00175573
0.00175812
0.00176048
0.00176282
0.00176513
0.00176742
0.00176969
0.00177194
0.00177416
0.00177636
0.00177853
0.00178069
0.00178282
0.00178493
0.00178701
0.00178908
0.00179112
0.00179315
0.00179515
0.00179713
0.0017991
0.00180104
0.00180296
0.00180486
0.00180675
0.00180861
0.00181046
0.00181228
0.00181409
0.00181588
0.00181765
0.0018194
0.00182113
0.00182285
0.00182455
0.00182623
0.00182789
0.00182954
0.00183117
0.00183279
0.00183438
0.00183596
0.00183753
0.00183908
0.00184061
0.00184213
0.00184363
0.00184511
0.00184659
0.00184804
0.00184948
0.00185091
0.00185232
0.00185372
0.0018551
0.00185647
0.00185783
0.00185917
0.0018605
0.00186181
0.00186312
0.0018644
0.00186568
0.00186694
0.00186819
0.00186943
0.00187065
0.00187186
0.00187306
0.00187425
0.00187542
0.00187659
0.00187774
0.00187888
0.00188001
0.00188112
0.00188223
0.00188332
0.00188441
0.00188548
0.00188654
0.00188759
0.00188863
0.00188966
0.00189068
0.00189169
0.00189269
0.00189368
0.00189466
0.00189563
0.00189659
0.00189754
0.00189848
0.00189941
0.00190033
0.00190124
0.00190214
0.00190304
0.00190392
0.0019048
0.00190567
0.00190653
0.00190738
0.00190822
0.00190905
0.00190988
0.00191069
0.0019115
0.0019123
0.00191309
0.00191388
0.00191466
0.00191543
0.00191619
0.00191694
0.00191769
0.00191843
0.00191916
0.00191988
0.0019206
0.00192131
0.00192201
0.00192271
0.0019234
0.00192408
0.00192476
0.00192542
0.00192609
0.00192674
0.00192739
0.00192804
0.00192867
0.0019293
0.00192993
0.00193054
0.00193116
0.00193176
0.00193236
0.00193296
0.00193354
0.00193413
0.0019347
0.00193528
0.00193584
0.0019364
0.00193696
0.0019375
0.00193805
0.00193859
0.00193912
0.00193965
0.00194017
0.00194069
0.0019412
0.00194171
0.00194221
0.00194271
0.0019432
0.00194369
0.00194418
0.00194465
0.00194513
0.0019456
0.00194606
0.00194652
0.00194698
0.00194743
0.00194788
0.00194832
0.00194876
0.0019492
0.00194963
0.00195005
0.00195048
0.0019509
0.00195131
0.00195172
0.00195213
0.00195253
0.00195293
0.00195332
0.00195371
0.0019541
0.00195449
0.00195487
0.00195524
0.00195562
0.00195599
0.00195635
0.00195671
0.00195707
0.00195743
0.00195778
0.00195813
0.00195848
0.00195882
0.00195916
0.00195949
0.00195983
0.00196016
0.00196048
0.00196081
0.00196113
0.00196145
0.00196176
0.00196207
0.00196238
0.00196269
0.00196299
0.00196329
0.00196359
0.00196388
0.00196418
0.00196446
0.00196475
0.00196503
0.00196532
0.0019656
0.00196587
0.00196615
0.00196642
0.00196669
0.00196695
0.00196722
0.00196748
0.00196774
0.00196799
0.00196825
0.0019685
0.00196875
0.001969
0.00196924
0.00196948
0.00196972
0.00196996
0.0019702
0.00197043
0.00197067
0.0019709
0.00197112
0.00197135
0.00197157
0.0019718
0.00197202
0.00197223
0.00197245
0.00197266
0.00197288
0.00197309
0.0019733
0.0019735
0.00197371
0.00197391
0.00197411
0.00197431
0.00197451
0.0019747
0.0019749
0.00197509
0.00197528
0.00197547
0.00197566
0.00197584
0.00197603
0.00197621
0.00197639
0.00197657
0.00197675
0.00197692
0.0019771
0.00197727
0.00197744
0.00197761
0.00197778
0.00197795
0.00197812
0.00197828
0.00197844
0.0019786
0.00197876
0.00197892
0.00197908
0.00197924
0.00197939
0.00197955
0.0019797
0.00197985
0.00198
0.00198015
0.00198029
0.00198044
0.00198058
0.00198073
0.00198087
0.00198101
0.00198115
0.00198129
0.00198143
0.00198156
0.0019817
0.00198183
0.00198197
0.0019821
0.00198223
0.00198236
0.00198249
0.00198262
0.00198274
0.00198287
0.00198299
0.00198312
0.00198324
0.00198336
0.00198348
0.0019836
0.00198372
0.00198384
0.00198395
0.00198407
0.00198418
0.0019843
0.00198441
0.00198452
0.00198463
0.00198474
0.00198485
0.00198496
0.00198507
0.00198518
0.00198528
0.00198539
0.00198549
0.0019856
0.0019857
0.0019858
0.0019859
0.001986
0.0019861
0.0019862
0.0019863
0.0019864
0.00198649
0.00198659
0.00198668
0.00198678
0.00198687
0.00198696
0.00198706
0.00198715
0.00198724
0.00198733
0.00198742
0.00198751
0.00198759
0.00198768
0.00198777
0.00198785
0.00198794
0.00198802
0.00198811
0.00198819
0.00198827
0.00198836
0.00198844
0.00198852
0.0019886
0.00198868
0.00198876
0.00198884
0.00198892
0.00198899
0.00198907
0.00198915
0.00198922
0.0019893
0.00198937
0.00198945
0.00198952
0.00198959
0.00198967
0.00198974
0.00198981
0.00198988
0.00198995
0.00199002
0.00199009
0.00199016
0.00199023
0.0019903
0.00199036
0.00199043
0.0019905
0.00199056
0.00199063
0.00199069
0.00199076
0.00199082
0.00199089
0.00199095
0.00199101
0.00199108
0.00199114
0.0019912
0.00199126
0.00199132
0.00199138
0.00199144
0.0019915
0.00199156
0.00199162
0.00199168
0.00199174
0.0019918
0.00199185
0.00199191
0.00199197
0.00199202
0.00199208
0.00199213
0.00199219
0.00199224
0.0019923
0.00199235
0.00199241
0.00199246
0.00199251
0.00199256
0.00199262
0.00199267
0.00199272
0.00199277
0.00199282
0.00199287
0.00199292
0.00199297
0.00199302
0.00199307
0.00199312
0.00199317
0.00199322
0.00199327
0.00199331
0.00199336
0.00199341
0.00199346
0.0019935
0.00199355
0.00199359
0.00199364
0.00199369
0.00199373
0.00199378
0.00199382
0.00199387
0.00199391
0.00199395
0.001994
0.00199404
0.00199408
0.00199413
0.00199417
0.00199421
0.00199425
0.00199429
0.00199434
0.00199438
0.00199442
0.00199446
0.0019945
0.00199454
0.00199458
0.00199462
0.00199466
0.0019947
0.00199474
0.00199478
0.00199482
0.00199485
0.00199489
0.00199493
0.00199497
0.00199501
0.00199504
0.00199508
0.00199512
0.00199516
0.00199519
0.00199523
0
0

