-14930.3
-0.0225614
-0.00870392
-0.00488861
-0.00321006
-0.00229938
-0.001765
-0.0014547
-0.00129735
-0.00125525
-0.00130599
-0.00143445
-0.00162905
-0.00187997
-0.00217833
-0.00251589
-0.0028849
-0.00327814
-0.00368892
-0.00411112
-0.00453925
-0.0049684
-0.00539429
-0.0058132
-0.00622199
-0.00661805
-0.00699923
-0.00736385
-0.00771062
-0.00803861
-0.0083472
-0.00863605
-0.00890506
-0.00915434
-0.00938415
-0.00959491
-0.00978714
-0.00996147
-0.0101186
-0.0102592
-0.0103841
-0.0104941
-0.01059
-0.0106725
-0.0107426
-0.010801
-0.0108483
-0.0108855
-0.0109131
-0.0109319
-0.0109425
-0.0109456
-0.0109416
-0.0109312
-0.0109149
-0.0108931
-0.0108663
-0.010835
-0.0107996
-0.0107603
-0.0107176
-0.0106717
-0.010623
-0.0105717
-0.0105181
-0.0104624
-0.0104049
-0.0103456
-0.0102849
-0.0102229
-0.0101596
-0.0100953
-0.0100302
-0.00996419
-0.00989753
-0.00983029
-0.00976255
-0.00969441
-0.00962593
-0.00955718
-0.00948822
-0.00941912
-0.00934992
-0.00928068
-0.00921143
-0.00914221
-0.00907307
-0.00900402
-0.00893511
-0.00886636
-0.00879779
-0.00872942
-0.00866128
-0.00859339
-0.00852574
-0.00845837
-0.00839129
-0.0083245
-0.00825802
-0.00819186
-0.00812602
-0.00806051
-0.00799534
-0.00793051
-0.00786603
-0.00780191
-0.00773814
-0.00767473
-0.00761168
-0.007549
-0.00748668
-0.00742474
-0.00736316
-0.00730195
-0.00724111
-0.00718064
-0.00712054
-0.00706081
-0.00700145
-0.00694246
-0.00688384
-0.00682558
-0.00676769
-0.00671017
-0.00665301
-0.00659622
-0.00653978
-0.00648371
-0.00642799
-0.00637263
-0.00631763
-0.00626298
-0.00620868
-0.00615474
-0.00610114
-0.00604788
-0.00599498
-0.00594241
-0.00589018
-0.0058383
-0.00578675
-0.00573553
-0.00568465
-0.0056341
-0.00558388
-0.00553399
-0.00548442
-0.00543517
-0.00538624
-0.00533764
-0.00528935
-0.00524137
-0.00519371
-0.00514636
-0.00509932
-0.00505259
-0.00500616
-0.00496004
-0.00491422
-0.00486869
-0.00482347
-0.00477854
-0.0047339
-0.00468956
-0.0046455
-0.00460174
-0.00455826
-0.00451506
-0.00447215
-0.00442952
-0.00438717
-0.00434509
-0.00430329
-0.00426177
-0.00422051
-0.00417953
-0.00413881
-0.00409837
-0.00405818
-0.00401826
-0.0039786
-0.0039392
-0.00390006
-0.00386118
-0.00382255
-0.00378417
-0.00374605
-0.00370817
-0.00367055
-0.00363316
-0.00359603
-0.00355914
-0.00352249
-0.00348608
-0.00344991
-0.00341397
-0.00337827
-0.00334281
-0.00330758
-0.00327258
-0.00323781
-0.00320326
-0.00316895
-0.00313486
-0.00310099
-0.00306734
-0.00303392
-0.00300071
-0.00296772
-0.00293495
-0.0029024
-0.00287006
-0.00283793
-0.00280601
-0.0027743
-0.0027428
-0.0027115
-0.00268041
-0.00264953
-0.00261884
-0.00258836
-0.00255808
-0.002528
-0.00249812
-0.00246843
-0.00243894
-0.00240964
-0.00238053
-0.00235162
-0.00232289
-0.00229435
-0.00226601
-0.00223784
-0.00220987
-0.00218207
-0.00215446
-0.00212703
-0.00209978
-0.00207271
-0.00204582
-0.00201911
-0.00199257
-0.0019662
-0.00194001
-0.00191399
-0.00188814
-0.00186246
-0.00183696
-0.00181161
-0.00178644
-0.00176143
-0.00173659
-0.00171191
-0.00168739
-0.00166303
-0.00163883
-0.0016148
-0.00159092
-0.00156719
-0.00154363
-0.00152022
-0.00149696
-0.00147386
-0.00145091
-0.00142811
-0.00140546
-0.00138296
-0.00136061
-0.0013384
-0.00131634
-0.00129443
-0.00127266
-0.00125103
-0.00122955
-0.00120821
-0.00118701
-0.00116595
-0.00114502
-0.00112424
-0.00110359
-0.00108308
-0.0010627
-0.00104246
-0.00102235
-0.00100238
-0.000982534
-0.000962821
-0.000943238
-0.000923784
-0.000904458
-0.00088526
-0.000866189
-0.000847243
-0.000828422
-0.000809726
-0.000791152
-0.000772702
-0.000754373
-0.000736165
-0.000718077
-0.000700109
-0.00068226
-0.000664528
-0.000646912
-0.000629414
-0.000612031
-0.000594762
-0.000577608
-0.000560567
-0.000543638
-0.000526822
-0.000510116
-0.000493521
-0.000477035
-0.000460658
-0.000444389
-0.000428228
-0.000412173
-0.000396225
-0.000380382
-0.000364643
-0.000349009
-0.000333478
-0.000318049
-0.000302723
-0.000287498
-0.000272373
-0.000257349
-0.000242423
-0.000227596
-0.000212868
-0.000198236
-0.000183701
-0.000169263
-0.00015492
-0.000140672
-0.000126517
-0.000112457
-9.84894e-05
-8.46136e-05
-7.08302e-05
-5.71385e-05
-4.35363e-05
-3.00244e-05
-1.6602e-05
-3.26835e-06
9.97714e-06
2.31352e-05
3.62059e-05
4.91899e-05
6.20887e-05
7.49014e-05
8.76304e-05
0.000100274
0.000112835
0.000125313
0.000137707
0.00015002
0.000162252
0.000174402
0.000186472
0.000198462
0.000210373
0.000222205
0.000233958
0.000245634
0.000257233
0.000268755
0.000280201
0.00029157
0.000302864
0.000314084
0.00032523
0.000336302
0.0003473
0.000358225
0.000369079
0.00037986
0.000390571
0.000401209
0.000411778
0.000422276
0.000432706
0.000443066
0.000453358
0.00046358
0.000473736
0.000483825
0.000493846
0.000503801
0.00051369
0.000523514
0.000533273
0.000542967
0.000552597
0.000562162
0.000571665
0.000581105
0.000590482
0.000599797
0.000609051
0.000618242
0.000627374
0.000636444
0.000645455
0.000654405
0.000663297
0.00067213
0.000680903
0.000689618
0.000698276
0.000706876
0.000715419
0.000723906
0.000732336
0.00074071
0.00074903
0.000757293
0.000765502
0.000773657
0.000781758
0.000789804
0.000797798
0.000805738
0.000813626
0.000821462
0.000829246
0.000836978
0.000844659
0.000852289
0.000859869
0.000867398
0.000874877
0.000882307
0.000889688
0.000897019
0.000904302
0.000911537
0.000918723
0.000925862
0.000932954
0.00094
0.000946997
0.000953949
0.000960854
0.000967714
0.000974529
0.000981298
0.000988023
0.000994702
0.00100134
0.00100793
0.00101448
0.00102098
0.00102744
0.00103386
0.00104024
0.00104657
0.00105286
0.00105911
0.00106532
0.00107149
0.00107761
0.0010837
0.00108974
0.00109575
0.00110172
0.00110764
0.00111353
0.00111938
0.00112518
0.00113096
0.00113669
0.00114238
0.00114804
0.00115366
0.00115924
0.00116478
0.00117029
0.00117576
0.0011812
0.0011866
0.00119196
0.00119729
0.00120258
0.00120784
0.00121306
0.00121825
0.0012234
0.00122852
0.00123361
0.00123866
0.00124367
0.00124866
0.00125361
0.00125853
0.00126342
0.00126827
0.00127309
0.00127788
0.00128264
0.00128737
0.00129206
0.00129673
0.00130136
0.00130596
0.00131053
0.00131508
0.00131959
0.00132407
0.00132852
0.00133294
0.00133734
0.0013417
0.00134604
0.00135034
0.00135462
0.00135887
0.00136309
0.00136728
0.00137145
0.00137559
0.0013797
0.00138378
0.00138784
0.00139187
0.00139587
0.00139984
0.00140379
0.00140772
0.00141162
0.00141549
0.00141933
0.00142315
0.00142695
0.00143072
0.00143446
0.00143818
0.00144188
0.00144555
0.0014492
0.00145282
0.00145642
0.00146
0.00146355
0.00146707
0.00147058
0.00147406
0.00147752
0.00148095
0.00148437
0.00148775
0.00149112
0.00149447
0.00149779
0.00150109
0.00150437
0.00150763
0.00151086
0.00151408
0.00151727
0.00152044
0.00152359
0.00152672
0.00152983
0.00153292
0.00153599
0.00153904
0.00154207
0.00154507
0.00154806
0.00155103
0.00155398
0.00155691
0.00155982
0.00156271
0.00156558
0.00156843
0.00157126
0.00157408
0.00157687
0.00157965
0.00158241
0.00158515
0.00158787
0.00159058
0.00159326
0.00159593
0.00159858
0.00160122
0.00160383
0.00160643
0.00160902
0.00161158
0.00161413
0.00161666
0.00161917
0.00162167
0.00162415
0.00162662
0.00162906
0.0016315
0.00163391
0.00163631
0.0016387
0.00164107
0.00164342
0.00164576
0.00164808
0.00165038
0.00165267
0.00165495
0.00165721
0.00165946
0.00166169
0.00166391
0.00166611
0.00166829
0.00167047
0.00167263
0.00167477
0.0016769
0.00167902
0.00168112
0.00168321
0.00168528
0.00168734
0.00168939
0.00169142
0.00169344
0.00169545
0.00169744
0.00169942
0.00170139
0.00170335
0.00170529
0.00170721
0.00170913
0.00171103
0.00171292
0.0017148
0.00171667
0.00171852
0.00172036
0.00172219
0.00172401
0.00172581
0.00172761
0.00172939
0.00173116
0.00173292
0.00173466
0.0017364
0.00173812
0.00173983
0.00174153
0.00174322
0.0017449
0.00174657
0.00174822
0.00174987
0.0017515
0.00175313
0.00175474
0.00175634
0.00175794
0.00175952
0.00176109
0.00176265
0.0017642
0.00176574
0.00176727
0.00176879
0.0017703
0.0017718
0.00177329
0.00177477
0.00177624
0.0017777
0.00177915
0.00178059
0.00178203
0.00178345
0.00178486
0.00178627
0.00178766
0.00178905
0.00179042
0.00179179
0.00179315
0.0017945
0.00179584
0.00179717
0.00179849
0.00179981
0.00180111
0.00180241
0.0018037
0.00180498
0.00180625
0.00180752
0.00180877
0.00181002
0.00181126
0.00181249
0.00181371
0.00181492
0.00181613
0.00181733
0.00181852
0.0018197
0.00182088
0.00182204
0.0018232
0.00182436
0.0018255
0.00182664
0.00182777
0.00182889
0.00183
0.00183111
0.00183221
0.0018333
0.00183439
0.00183547
0.00183654
0.0018376
0.00183866
0.00183971
0.00184076
0.00184179
0.00184282
0.00184385
0.00184486
0.00184587
0.00184688
0.00184787
0.00184886
0.00184985
0.00185083
0.0018518
0.00185276
0.00185372
0.00185467
0.00185562
0.00185656
0.00185749
0.00185842
0.00185934
0.00186025
0.00186116
0.00186207
0.00186296
0.00186386
0.00186474
0.00186562
0.00186649
0.00186736
0.00186823
0.00186908
0.00186993
0.00187078
0.00187162
0.00187246
0.00187329
0.00187411
0.00187493
0.00187574
0.00187655
0.00187735
0.00187815
0.00187894
0.00187973
0.00188051
0.00188129
0.00188206
0.00188283
0.00188359
0.00188434
0.0018851
0.00188584
0.00188659
0.00188732
0.00188806
0.00188878
0.00188951
0.00189022
0.00189094
0.00189165
0.00189235
0.00189305
0.00189375
0.00189444
0.00189512
0.0018958
0.00189648
0.00189715
0.00189782
0.00189849
0.00189915
0.0018998
0.00190045
0.0019011
0.00190174
0.00190238
0.00190302
0.00190365
0.00190427
0.00190489
0.00190551
0.00190613
0.00190674
0.00190734
0.00190794
0.00190854
0.00190914
0.00190973
0.00191031
0.0019109
0.00191148
0.00191205
0.00191262
0.00191319
0.00191376
0.00191432
0.00191487
0.00191543
0.00191598
0.00191652
0.00191706
0.0019176
0.00191814
0.00191867
0.0019192
0.00191973
0.00192025
0.00192077
0.00192128
0.00192179
0.0019223
0.00192281
0.00192331
0.00192381
0.0019243
0.0019248
0.00192528
0.00192577
0.00192625
0.00192673
0.00192721
0.00192768
0.00192815
0.00192862
0.00192908
0.00192955
0.00193
0.00193046
0.00193091
0.00193136
0.00193181
0.00193225
0.00193269
0.00193313
0.00193357
0.001934
0.00193443
0.00193486
0.00193528
0.0019357
0.00193612
0.00193654
0.00193695
0.00193736
0.00193777
0.00193817
0.00193858
0.00193898
0.00193937
0.00193977
0.00194016
0.00194055
0.00194094
0.00194132
0.00194171
0.00194209
0.00194247
0.00194284
0.00194321
0.00194358
0.00194395
0.00194432
0.00194468
0.00194504
0.0019454
0.00194576
0.00194611
0.00194646
0.00194681
0.00194716
0.00194751
0.00194785
0.00194819
0.00194853
0.00194886
0.0019492
0.00194953
0.00194986
0.00195019
0.00195051
0.00195084
0.00195116
0.00195148
0.0019518
0.00195211
0.00195243
0.00195274
0.00195305
0.00195335
0.00195366
0.00195396
0.00195426
0.00195456
0.00195486
0.00195516
0.00195545
0.00195574
0.00195603
0.00195632
0.00195661
0.00195689
0.00195718
0.00195746
0.00195774
0.00195802
0.00195829
0.00195857
0.00195884
0.00195911
0.00195938
0.00195965
0.00195991
0.00196017
0.00196044
0.0019607
0.00196096
0.00196121
0.00196147
0.00196172
0.00196198
0.00196223
0.00196248
0.00196272
0.00196297
0.00196321
0.00196346
0.0019637
0.00196394
0.00196418
0.00196441
0.00196465
0.00196488
0.00196511
0.00196534
0.00196557
0.0019658
0.00196603
0.00196625
0.00196648
0.0019667
0.00196692
0.00196714
0.00196736
0.00196758
0.00196779
0.001968
0.00196822
0.00196843
0.00196864
0.00196885
0.00196905
0.00196926
0.00196947
0.00196967
0.00196987
0.00197007
0.00197027
0.00197047
0.00197067
0.00197086
0.00197106
0.00197125
0.00197144
0.00197163
0.00197182
0.00197201
0.0019722
0.00197239
0.00197257
0.00197276
0.00197294
0.00197312
0
0

