-14930.3
-0.0225614
-0.00870488
-0.00489406
-0.00322691
-0.00233727
-0.00183439
-0.00156475
-0.00145423
-0.00146131
-0.00155964
-0.00173065
-0.00196014
-0.00223653
-0.00255006
-0.00289233
-0.00325602
-0.00363475
-0.00402297
-0.00441586
-0.00480926
-0.00519963
-0.00558396
-0.00595973
-0.00632486
-0.00667767
-0.00701682
-0.00734126
-0.00765024
-0.00794323
-0.00821989
-0.00848009
-0.00872381
-0.00895119
-0.00916246
-0.00935793
-0.00953801
-0.00970314
-0.00985383
-0.0099906
-0.010114
-0.0102246
-0.0103231
-0.0104099
-0.0104857
-0.010551
-0.0106064
-0.0106525
-0.0106899
-0.0107189
-0.0107402
-0.0107543
-0.0107616
-0.0107625
-0.0107575
-0.010747
-0.0107313
-0.010711
-0.0106862
-0.0106573
-0.0106246
-0.0105885
-0.0105492
-0.0105069
-0.0104619
-0.0104144
-0.0103647
-0.0103129
-0.0102592
-0.0102038
-0.0101468
-0.0100884
-0.0100288
-0.00996806
-0.00990629
-0.00984361
-0.00978014
-0.00971597
-0.00965118
-0.00958586
-0.00952009
-0.00945394
-0.00938746
-0.00932073
-0.00925379
-0.0091867
-0.00911951
-0.00905225
-0.00898497
-0.0089177
-0.00885048
-0.00878334
-0.0087163
-0.00864939
-0.00858264
-0.00851607
-0.00844969
-0.00838353
-0.0083176
-0.00825191
-0.00818648
-0.00812132
-0.00805644
-0.00799186
-0.00792757
-0.00786359
-0.00779993
-0.00773659
-0.00767357
-0.00761089
-0.00754855
-0.00748654
-0.00742488
-0.00736356
-0.0073026
-0.00724198
-0.00718172
-0.00712181
-0.00706226
-0.00700306
-0.00694421
-0.00688573
-0.0068276
-0.00676983
-0.00671241
-0.00665535
-0.00659864
-0.00654228
-0.00648628
-0.00643064
-0.00637534
-0.00632039
-0.00626579
-0.00621154
-0.00615763
-0.00610407
-0.00605085
-0.00599797
-0.00594543
-0.00589323
-0.00584136
-0.00578983
-0.00573863
-0.00568777
-0.00563723
-0.00558701
-0.00553713
-0.00548756
-0.00543832
-0.0053894
-0.0053408
-0.00529251
-0.00524453
-0.00519687
-0.00514952
-0.00510248
-0.00505574
-0.00500931
-0.00496318
-0.00491735
-0.00487182
-0.00482658
-0.00478165
-0.004737
-0.00469265
-0.00464859
-0.00460481
-0.00456132
-0.00451812
-0.00447519
-0.00443255
-0.00439019
-0.0043481
-0.00430629
-0.00426476
-0.00422349
-0.00418249
-0.00414177
-0.00410131
-0.00406111
-0.00402118
-0.0039815
-0.00394209
-0.00390294
-0.00386404
-0.0038254
-0.00378701
-0.00374887
-0.00371098
-0.00367334
-0.00363595
-0.0035988
-0.00356189
-0.00352523
-0.00348881
-0.00345262
-0.00341667
-0.00338096
-0.00334548
-0.00331024
-0.00327522
-0.00324044
-0.00320588
-0.00317155
-0.00313745
-0.00310357
-0.00306991
-0.00303647
-0.00300325
-0.00297025
-0.00293746
-0.00290489
-0.00287254
-0.0028404
-0.00280846
-0.00277674
-0.00274522
-0.00271392
-0.00268281
-0.00265192
-0.00262122
-0.00259073
-0.00256043
-0.00253034
-0.00250044
-0.00247074
-0.00244123
-0.00241192
-0.0023828
-0.00235387
-0.00232514
-0.00229659
-0.00226822
-0.00224005
-0.00221206
-0.00218425
-0.00215663
-0.00212919
-0.00210193
-0.00207484
-0.00204794
-0.00202121
-0.00199466
-0.00196828
-0.00194208
-0.00191605
-0.00189019
-0.0018645
-0.00183898
-0.00181362
-0.00178844
-0.00176342
-0.00173856
-0.00171387
-0.00168934
-0.00166497
-0.00164076
-0.00161671
-0.00159282
-0.00156909
-0.00154551
-0.00152209
-0.00149882
-0.00147571
-0.00145274
-0.00142993
-0.00140727
-0.00138476
-0.0013624
-0.00134018
-0.00131811
-0.00129619
-0.00127441
-0.00125277
-0.00123127
-0.00120992
-0.00118871
-0.00116764
-0.00114671
-0.00112591
-0.00110525
-0.00108473
-0.00106435
-0.00104409
-0.00102398
-0.00100399
-0.000984135
-0.000964412
-0.000944819
-0.000925355
-0.00090602
-0.000886812
-0.000867731
-0.000848775
-0.000829945
-0.000811238
-0.000792656
-0.000774196
-0.000755858
-0.00073764
-0.000719543
-0.000701565
-0.000683706
-0.000665965
-0.000648341
-0.000630834
-0.000613441
-0.000596164
-0.000579001
-0.000561951
-0.000545013
-0.000528187
-0.000511473
-0.000494869
-0.000478374
-0.000461989
-0.000445712
-0.000429542
-0.000413479
-0.000397522
-0.000381671
-0.000365924
-0.000350282
-0.000334742
-0.000319306
-0.00030397
-0.000288737
-0.000273605
-0.000258572
-0.000243638
-0.000228804
-0.000214067
-0.000199428
-0.000184885
-0.000170439
-0.000156089
-0.000141833
-0.000127671
-0.000113602
-9.96277e-05
-8.57448e-05
-7.19536e-05
-5.82541e-05
-4.46448e-05
-3.11257e-05
-1.76962e-05
-4.3555e-06
8.8971e-06
2.20623e-05
3.51401e-05
4.81319e-05
6.10371e-05
7.38576e-05
8.65929e-05
9.92437e-05
0.000111811
0.000124295
0.000136697
0.000149017
0.000161255
0.000173412
0.000185488
0.000197485
0.000209403
0.000221241
0.000233001
0.000244683
0.000256288
0.000267816
0.000279268
0.000290644
0.000301945
0.000313171
0.000324323
0.000335401
0.000346405
0.000357336
0.000368196
0.000378984
0.000389699
0.000400344
0.000410919
0.000421423
0.000431858
0.000442224
0.000452521
0.00046275
0.000472911
0.000483006
0.000493032
0.000502993
0.000512888
0.000522717
0.000532481
0.000542181
0.000551816
0.000561387
0.000570895
0.00058034
0.000589722
0.000599042
0.000608301
0.000617498
0.000626634
0.00063571
0.000644725
0.000653681
0.000662578
0.000671415
0.000680194
0.000688914
0.000697577
0.000706182
0.00071473
0.000723221
0.000731656
0.000740035
0.000748358
0.000756627
0.000764841
0.000772999
0.000781105
0.000789156
0.000797154
0.0008051
0.000812992
0.000820832
0.00082862
0.000836357
0.000844042
0.000851677
0.00085926
0.000866794
0.000874277
0.000881711
0.000889096
0.000896432
0.000903719
0.000910958
0.000918149
0.000925292
0.000932387
0.000939436
0.000946438
0.000953394
0.000960303
0.000967167
0.000973985
0.000980759
0.000987486
0.00099417
0.00100081
0.0010074
0.00101396
0.00102046
0.00102693
0.00103335
0.00103973
0.00104607
0.00105236
0.00105862
0.00106483
0.001071
0.00107713
0.00108322
0.00108927
0.00109528
0.00110124
0.00110717
0.00111306
0.00111891
0.00112473
0.0011305
0.00113624
0.00114193
0.00114759
0.00115321
0.0011588
0.00116435
0.00116986
0.00117533
0.00118077
0.00118617
0.00119154
0.00119687
0.00120217
0.00120743
0.00121265
0.00121784
0.001223
0.00122812
0.00123321
0.00123826
0.00124328
0.00124827
0.00125323
0.00125815
0.00126304
0.00126789
0.00127272
0.00127751
0.00128227
0.001287
0.0012917
0.00129637
0.001301
0.00130561
0.00131018
0.00131473
0.00131924
0.00132372
0.00132818
0.0013326
0.001337
0.00134136
0.0013457
0.00135001
0.00135429
0.00135854
0.00136277
0.00136696
0.00137113
0.00137527
0.00137938
0.00138347
0.00138753
0.00139156
0.00139556
0.00139954
0.00140349
0.00140742
0.00141132
0.00141519
0.00141904
0.00142286
0.00142666
0.00143043
0.00143418
0.0014379
0.0014416
0.00144528
0.00144892
0.00145255
0.00145615
0.00145973
0.00146328
0.00146681
0.00147032
0.0014738
0.00147726
0.0014807
0.00148411
0.0014875
0.00149087
0.00149422
0.00149754
0.00150085
0.00150413
0.00150739
0.00151062
0.00151384
0.00151704
0.00152021
0.00152336
0.00152649
0.0015296
0.00153269
0.00153576
0.00153881
0.00154184
0.00154485
0.00154784
0.00155081
0.00155376
0.00155669
0.0015596
0.0015625
0.00156537
0.00156822
0.00157106
0.00157387
0.00157667
0.00157945
0.00158221
0.00158495
0.00158768
0.00159038
0.00159307
0.00159574
0.00159839
0.00160103
0.00160365
0.00160625
0.00160883
0.0016114
0.00161395
0.00161648
0.00161899
0.00162149
0.00162398
0.00162644
0.00162889
0.00163133
0.00163374
0.00163614
0.00163853
0.0016409
0.00164325
0.00164559
0.00164792
0.00165022
0.00165252
0.00165479
0.00165706
0.0016593
0.00166154
0.00166375
0.00166596
0.00166814
0.00167032
0.00167248
0.00167462
0.00167675
0.00167887
0.00168098
0.00168306
0.00168514
0.0016872
0.00168925
0.00169128
0.00169331
0.00169531
0.00169731
0.00169929
0.00170126
0.00170321
0.00170516
0.00170709
0.001709
0.00171091
0.0017128
0.00171468
0.00171655
0.0017184
0.00172024
0.00172207
0.00172389
0.0017257
0.00172749
0.00172927
0.00173104
0.0017328
0.00173455
0.00173628
0.00173801
0.00173972
0.00174142
0.00174311
0.00174479
0.00174646
0.00174812
0.00174976
0.0017514
0.00175302
0.00175464
0.00175624
0.00175783
0.00175942
0.00176099
0.00176255
0.0017641
0.00176564
0.00176717
0.00176869
0.0017702
0.00177171
0.0017732
0.00177468
0.00177615
0.00177761
0.00177906
0.0017805
0.00178194
0.00178336
0.00178478
0.00178618
0.00178758
0.00178896
0.00179034
0.00179171
0.00179307
0.00179442
0.00179576
0.00179709
0.00179841
0.00179973
0.00180104
0.00180233
0.00180362
0.0018049
0.00180618
0.00180744
0.0018087
0.00180994
0.00181118
0.00181241
0.00181364
0.00181485
0.00181606
0.00181726
0.00181845
0.00181963
0.00182081
0.00182198
0.00182314
0.00182429
0.00182544
0.00182657
0.0018277
0.00182883
0.00182994
0.00183105
0.00183215
0.00183324
0.00183433
0.00183541
0.00183648
0.00183755
0.0018386
0.00183966
0.0018407
0.00184174
0.00184277
0.00184379
0.00184481
0.00184582
0.00184682
0.00184782
0.00184881
0.0018498
0.00185077
0.00185175
0.00185271
0.00185367
0.00185462
0.00185557
0.00185651
0.00185744
0.00185837
0.00185929
0.00186021
0.00186112
0.00186202
0.00186292
0.00186381
0.0018647
0.00186558
0.00186645
0.00186732
0.00186818
0.00186904
0.00186989
0.00187074
0.00187158
0.00187241
0.00187324
0.00187407
0.00187489
0.0018757
0.00187651
0.00187731
0.00187811
0.0018789
0.00187969
0.00188047
0.00188125
0.00188202
0.00188279
0.00188355
0.00188431
0.00188506
0.00188581
0.00188655
0.00188729
0.00188802
0.00188875
0.00188947
0.00189019
0.00189091
0.00189162
0.00189232
0.00189302
0.00189371
0.00189441
0.00189509
0.00189577
0.00189645
0.00189712
0.00189779
0.00189846
0.00189912
0.00189977
0.00190043
0.00190107
0.00190172
0.00190235
0.00190299
0.00190362
0.00190425
0.00190487
0.00190549
0.0019061
0.00190671
0.00190732
0.00190792
0.00190852
0.00190911
0.0019097
0.00191029
0.00191087
0.00191145
0.00191203
0.0019126
0.00191317
0.00191373
0.0019143
0.00191485
0.00191541
0.00191596
0.0019165
0.00191705
0.00191758
0.00191812
0.00191865
0.00191918
0.00191971
0.00192023
0.00192075
0.00192126
0.00192178
0.00192228
0.00192279
0.00192329
0.00192379
0.00192429
0.00192478
0.00192527
0.00192575
0.00192624
0.00192672
0.00192719
0.00192767
0.00192814
0.00192861
0.00192907
0.00192953
0.00192999
0.00193045
0.0019309
0.00193135
0.0019318
0.00193224
0.00193268
0.00193312
0.00193355
0.00193399
0.00193442
0.00193484
0.00193527
0.00193569
0.00193611
0.00193653
0.00193694
0.00193735
0.00193776
0.00193816
0.00193857
0.00193897
0.00193937
0.00193976
0.00194015
0.00194054
0.00194093
0.00194132
0.0019417
0.00194208
0.00194246
0.00194283
0.00194321
0.00194358
0.00194394
0.00194431
0.00194467
0.00194503
0.00194539
0.00194575
0.0019461
0.00194646
0.00194681
0.00194715
0.0019475
0.00194784
0.00194818
0.00194852
0.00194886
0.00194919
0.00194953
0.00194986
0.00195018
0.00195051
0.00195083
0.00195115
0.00195147
0.00195179
0.00195211
0.00195242
0.00195273
0.00195304
0.00195335
0.00195366
0.00195396
0.00195426
0.00195456
0.00195486
0.00195516
0.00195545
0.00195574
0.00195603
0.00195632
0.00195661
0.00195689
0.00195718
0.00195746
0.00195774
0.00195801
0.00195829
0.00195856
0.00195884
0.00195911
0.00195938
0.00195964
0.00195991
0.00196017
0.00196044
0.0019607
0.00196096
0.00196121
0.00196147
0.00196172
0.00196198
0.00196223
0.00196247
0.00196272
0.00196297
0.00196321
0.00196346
0.0019637
0.00196394
0.00196418
0.00196441
0.00196465
0.00196488
0.00196511
0.00196535
0.00196557
0.0019658
0.00196603
0.00196625
0.00196648
0.0019667
0.00196692
0.00196714
0.00196736
0.00196758
0.00196779
0.00196801
0.00196822
0.00196843
0.00196864
0.00196885
0.00196906
0.00196926
0.00196947
0.00196967
0.00196987
0.00197007
0.00197027
0.00197047
0.00197067
0.00197087
0.00197106
0.00197125
0.00197145
0.00197164
0.00197183
0.00197202
0.0019722
0.00197239
0.00197258
0.00197276
0.00197294
0
0

