-14930.3
-0.0225614
-0.00870577
-0.00489892
-0.00324153
-0.00236936
-0.0018921
-0.00165507
-0.00158189
-0.00162821
-0.00176481
-0.00197058
-0.00222925
-0.00252779
-0.0028555
-0.00320359
-0.00356477
-0.00393303
-0.00430344
-0.00467202
-0.00503554
-0.00539146
-0.00573778
-0.00607298
-0.00639593
-0.0067058
-0.00700205
-0.00728434
-0.00755252
-0.00780658
-0.00804661
-0.00827279
-0.00848538
-0.0086847
-0.0088711
-0.00904495
-0.00920666
-0.00935664
-0.00949532
-0.00962312
-0.00974048
-0.00984782
-0.00994556
-0.0100341
-0.0101139
-0.0101852
-0.0102486
-0.0103043
-0.0103527
-0.0103942
-0.0104291
-0.0104577
-0.0104804
-0.0104974
-0.0105091
-0.0105156
-0.0105174
-0.0105146
-0.0105074
-0.0104962
-0.0104811
-0.0104624
-0.0104402
-0.0104148
-0.0103863
-0.010355
-0.010321
-0.0102844
-0.0102455
-0.0102043
-0.0101611
-0.0101159
-0.0100688
-0.0100201
-0.0099698
-0.00991801
-0.00986486
-0.00981043
-0.00975483
-0.00969814
-0.00964046
-0.00958186
-0.00952242
-0.00946221
-0.0094013
-0.00933976
-0.00927765
-0.00921502
-0.00915194
-0.00908845
-0.0090246
-0.00896045
-0.00889602
-0.00883138
-0.00876654
-0.00870156
-0.00863647
-0.00857129
-0.00850606
-0.00844082
-0.00837557
-0.00831036
-0.00824521
-0.00818013
-0.00811515
-0.00805029
-0.00798557
-0.007921
-0.0078566
-0.00779239
-0.00772838
-0.00766458
-0.007601
-0.00753767
-0.00747458
-0.00741174
-0.00734918
-0.00728688
-0.00722488
-0.00716316
-0.00710173
-0.00704061
-0.0069798
-0.0069193
-0.00685912
-0.00679926
-0.00673972
-0.00668052
-0.00662164
-0.00656311
-0.0065049
-0.00644704
-0.00638952
-0.00633234
-0.00627551
-0.00621902
-0.00616288
-0.00610708
-0.00605163
-0.00599653
-0.00594178
-0.00588738
-0.00583332
-0.00577961
-0.00572625
-0.00567323
-0.00562056
-0.00556823
-0.00551625
-0.00546461
-0.00541332
-0.00536236
-0.00531175
-0.00526147
-0.00521153
-0.00516193
-0.00511266
-0.00506372
-0.00501512
-0.00496685
-0.0049189
-0.00487128
-0.00482399
-0.00477702
-0.00473037
-0.00468404
-0.00463803
-0.00459234
-0.00454696
-0.0045019
-0.00445714
-0.0044127
-0.00436856
-0.00432473
-0.0042812
-0.00423797
-0.00419504
-0.00415241
-0.00411008
-0.00406804
-0.00402629
-0.00398483
-0.00394366
-0.00390278
-0.00386219
-0.00382187
-0.00378184
-0.00374208
-0.00370261
-0.0036634
-0.00362447
-0.00358582
-0.00354743
-0.00350931
-0.00347146
-0.00343387
-0.00339654
-0.00335948
-0.00332267
-0.00328612
-0.00324982
-0.00321378
-0.00317799
-0.00314245
-0.00310716
-0.00307212
-0.00303732
-0.00300276
-0.00296844
-0.00293437
-0.00290053
-0.00286693
-0.00283356
-0.00280042
-0.00276752
-0.00273485
-0.0027024
-0.00267018
-0.00263819
-0.00260642
-0.00257486
-0.00254354
-0.00251242
-0.00248153
-0.00245085
-0.00242039
-0.00239013
-0.00236009
-0.00233026
-0.00230064
-0.00227122
-0.00224201
-0.002213
-0.00218419
-0.00215558
-0.00212717
-0.00209896
-0.00207095
-0.00204313
-0.00201551
-0.00198807
-0.00196083
-0.00193378
-0.00190692
-0.00188024
-0.00185375
-0.00182744
-0.00180131
-0.00177537
-0.00174961
-0.00172402
-0.00169861
-0.00167338
-0.00164833
-0.00162345
-0.00159874
-0.0015742
-0.00154984
-0.00152564
-0.00150161
-0.00147775
-0.00145405
-0.00143052
-0.00140715
-0.00138394
-0.00136089
-0.001338
-0.00131527
-0.0012927
-0.00127029
-0.00124803
-0.00122592
-0.00120397
-0.00118217
-0.00116052
-0.00113902
-0.00111767
-0.00109646
-0.00107541
-0.00105449
-0.00103373
-0.0010131
-0.000992623
-0.000972284
-0.000952086
-0.000932027
-0.000912106
-0.000892323
-0.000872677
-0.000853166
-0.000833791
-0.000814548
-0.000795439
-0.000776462
-0.000757616
-0.000738899
-0.000720311
-0.000701852
-0.000683521
-0.000665316
-0.000647235
-0.00062928
-0.000611448
-0.00059374
-0.000576153
-0.000558688
-0.000541343
-0.000524117
-0.00050701
-0.00049002
-0.000473148
-0.000456393
-0.000439751
-0.000423225
-0.000406813
-0.000390513
-0.000374325
-0.000358249
-0.000342284
-0.000326428
-0.000310681
-0.000295042
-0.000279512
-0.000264087
-0.000248769
-0.000233556
-0.000218447
-0.000203442
-0.00018854
-0.000173741
-0.000159043
-0.000144446
-0.000129949
-0.000115552
-0.000101253
-8.7053e-05
-7.29505e-05
-5.8944e-05
-4.50342e-05
-3.12195e-05
-1.74994e-05
-3.87374e-06
9.65881e-06
2.30983e-05
3.64461e-05
4.97015e-05
6.28674e-05
7.59424e-05
8.89278e-05
0.000101824
0.000114632
0.000127353
0.000139986
0.000152533
0.000164994
0.000177369
0.000189661
0.000201867
0.000213991
0.000226031
0.000237989
0.000249865
0.000261661
0.000273375
0.00028501
0.000296564
0.000308039
0.000319437
0.000330757
0.000341998
0.000353163
0.000364252
0.000375266
0.000386204
0.000397067
0.000407856
0.000418572
0.000429214
0.000439783
0.000450281
0.000460707
0.000471061
0.000481346
0.000491559
0.000501703
0.000511778
0.000521785
0.000531723
0.000541593
0.000551396
0.000561132
0.000570802
0.000580405
0.000589944
0.000599418
0.000608826
0.000618171
0.000627452
0.00063667
0.000645825
0.000654918
0.000663948
0.000672918
0.000681825
0.000690672
0.000699459
0.000708186
0.000716853
0.000725462
0.000734012
0.000742504
0.000750937
0.000759314
0.000767634
0.000775897
0.000784104
0.000792256
0.000800351
0.000808392
0.000816378
0.00082431
0.000832187
0.000840012
0.000847783
0.000855502
0.000863168
0.000870781
0.000878344
0.000885854
0.000893315
0.000900724
0.000908083
0.000915392
0.000922651
0.000929861
0.000937023
0.000944136
0.0009512
0.000958216
0.000965185
0.000972107
0.000978981
0.000985809
0.000992591
0.000999327
0.00100602
0.00101266
0.00101926
0.00102582
0.00103233
0.00103879
0.00104522
0.0010516
0.00105793
0.00106422
0.00107047
0.00107668
0.00108285
0.00108897
0.00109506
0.0011011
0.0011071
0.00111306
0.00111898
0.00112486
0.0011307
0.0011365
0.00114226
0.00114798
0.00115367
0.00115931
0.00116492
0.00117049
0.00117602
0.00118151
0.00118697
0.00119239
0.00119777
0.00120312
0.00120843
0.00121371
0.00121895
0.00122415
0.00122932
0.00123445
0.00123955
0.00124462
0.00124965
0.00125464
0.00125961
0.00126454
0.00126943
0.0012743
0.00127913
0.00128392
0.00128869
0.00129342
0.00129812
0.00130279
0.00130743
0.00131204
0.00131661
0.00132116
0.00132567
0.00133016
0.00133461
0.00133903
0.00134343
0.00134779
0.00135213
0.00135643
0.00136071
0.00136496
0.00136918
0.00137337
0.00137753
0.00138166
0.00138577
0.00138985
0.0013939
0.00139792
0.00140192
0.00140589
0.00140983
0.00141375
0.00141764
0.00142151
0.00142535
0.00142916
0.00143294
0.00143671
0.00144044
0.00144415
0.00144784
0.0014515
0.00145514
0.00145875
0.00146234
0.0014659
0.00146944
0.00147296
0.00147645
0.00147992
0.00148337
0.00148679
0.00149019
0.00149357
0.00149692
0.00150025
0.00150356
0.00150685
0.00151011
0.00151336
0.00151658
0.00151978
0.00152296
0.00152611
0.00152925
0.00153236
0.00153546
0.00153853
0.00154158
0.00154461
0.00154763
0.00155062
0.00155359
0.00155654
0.00155947
0.00156238
0.00156528
0.00156815
0.001571
0.00157384
0.00157666
0.00157945
0.00158223
0.00158499
0.00158773
0.00159045
0.00159316
0.00159585
0.00159851
0.00160116
0.0016038
0.00160641
0.00160901
0.00161159
0.00161415
0.0016167
0.00161923
0.00162174
0.00162424
0.00162671
0.00162918
0.00163162
0.00163405
0.00163646
0.00163886
0.00164124
0.00164361
0.00164596
0.00164829
0.00165061
0.00165291
0.0016552
0.00165747
0.00165973
0.00166197
0.00166419
0.0016664
0.0016686
0.00167078
0.00167295
0.0016751
0.00167724
0.00167937
0.00168148
0.00168358
0.00168566
0.00168773
0.00168978
0.00169182
0.00169385
0.00169586
0.00169786
0.00169985
0.00170182
0.00170379
0.00170573
0.00170767
0.00170959
0.0017115
0.00171339
0.00171528
0.00171715
0.00171901
0.00172085
0.00172269
0.00172451
0.00172632
0.00172812
0.0017299
0.00173168
0.00173344
0.00173519
0.00173693
0.00173865
0.00174037
0.00174207
0.00174377
0.00174545
0.00174712
0.00174878
0.00175043
0.00175206
0.00175369
0.00175531
0.00175691
0.00175851
0.00176009
0.00176166
0.00176322
0.00176478
0.00176632
0.00176785
0.00176937
0.00177088
0.00177239
0.00177388
0.00177536
0.00177683
0.00177829
0.00177974
0.00178119
0.00178262
0.00178404
0.00178546
0.00178686
0.00178826
0.00178965
0.00179102
0.00179239
0.00179375
0.0017951
0.00179644
0.00179777
0.00179909
0.00180041
0.00180172
0.00180301
0.0018043
0.00180558
0.00180685
0.00180812
0.00180937
0.00181062
0.00181186
0.00181309
0.00181431
0.00181552
0.00181673
0.00181793
0.00181911
0.0018203
0.00182147
0.00182264
0.0018238
0.00182495
0.00182609
0.00182723
0.00182836
0.00182948
0.00183059
0.0018317
0.0018328
0.00183389
0.00183497
0.00183605
0.00183712
0.00183818
0.00183924
0.00184029
0.00184133
0.00184237
0.0018434
0.00184442
0.00184543
0.00184644
0.00184744
0.00184844
0.00184943
0.00185041
0.00185138
0.00185235
0.00185332
0.00185427
0.00185522
0.00185617
0.0018571
0.00185804
0.00185896
0.00185988
0.00186079
0.0018617
0.0018626
0.0018635
0.00186439
0.00186527
0.00186615
0.00186702
0.00186789
0.00186875
0.0018696
0.00187045
0.0018713
0.00187214
0.00187297
0.0018738
0.00187462
0.00187543
0.00187625
0.00187705
0.00187785
0.00187865
0.00187944
0.00188022
0.001881
0.00188178
0.00188255
0.00188331
0.00188407
0.00188482
0.00188557
0.00188632
0.00188706
0.00188779
0.00188852
0.00188925
0.00188997
0.00189069
0.0018914
0.0018921
0.00189281
0.0018935
0.0018942
0.00189488
0.00189557
0.00189625
0.00189692
0.00189759
0.00189826
0.00189892
0.00189958
0.00190023
0.00190088
0.00190152
0.00190217
0.0019028
0.00190343
0.00190406
0.00190469
0.00190531
0.00190592
0.00190653
0.00190714
0.00190774
0.00190834
0.00190894
0.00190953
0.00191012
0.0019107
0.00191129
0.00191186
0.00191244
0.001913
0.00191357
0.00191413
0.00191469
0.00191525
0.0019158
0.00191634
0.00191689
0.00191743
0.00191797
0.0019185
0.00191903
0.00191955
0.00192008
0.0019206
0.00192111
0.00192163
0.00192214
0.00192264
0.00192315
0.00192365
0.00192414
0.00192464
0.00192513
0.00192561
0.0019261
0.00192658
0.00192705
0.00192753
0.001928
0.00192847
0.00192893
0.0019294
0.00192986
0.00193031
0.00193077
0.00193122
0.00193166
0.00193211
0.00193255
0.00193299
0.00193342
0.00193386
0.00193429
0.00193472
0.00193514
0.00193556
0.00193598
0.0019364
0.00193681
0.00193722
0.00193763
0.00193804
0.00193844
0.00193884
0.00193924
0.00193964
0.00194003
0.00194042
0.00194081
0.0019412
0.00194158
0.00194196
0.00194234
0.00194271
0.00194309
0.00194346
0.00194383
0.00194419
0.00194456
0.00194492
0.00194528
0.00194563
0.00194599
0.00194634
0.00194669
0.00194704
0.00194738
0.00194773
0.00194807
0.00194841
0.00194874
0.00194908
0.00194941
0.00194974
0.00195007
0.0019504
0.00195072
0.00195104
0.00195136
0.00195168
0.001952
0.00195231
0.00195262
0.00195293
0.00195324
0.00195355
0.00195385
0.00195415
0.00195445
0.00195475
0.00195505
0.00195534
0.00195563
0.00195592
0.00195621
0.0019565
0.00195678
0.00195707
0.00195735
0.00195763
0.00195791
0.00195818
0.00195846
0.00195873
0.001959
0.00195927
0.00195954
0.0019598
0.00196007
0.00196033
0.00196059
0.00196085
0.00196111
0.00196136
0.00196162
0.00196187
0.00196212
0.00196237
0.00196262
0.00196286
0.00196311
0.00196335
0.00196359
0.00196383
0.00196407
0.00196431
0.00196454
0.00196478
0.00196501
0.00196524
0.00196547
0.0019657
0.00196593
0.00196615
0.00196638
0.0019666
0.00196682
0.00196704
0.00196726
0.00196747
0.00196769
0.0019679
0.00196812
0.00196833
0.00196854
0.00196875
0.00196895
0.00196916
0.00196937
0.00196957
0.00196977
0.00196997
0.00197017
0.00197037
0.00197057
0.00197076
0.00197096
0.00197115
0.00197135
0.00197154
0.00197173
0.00197192
0.0019721
0.00197229
0.00197248
0.00197266
0.00197284
0.00197302
0.0019732
0.00197338
0.00197356
0.00197374
0.00197392
0.00197409
0.00197427
0.00197444
0
0

