-14930.3
-0.0225614
-0.00870449
-0.00489174
-0.00321928
-0.00231876
-0.00179739
-0.00150001
-0.00135141
-0.00130949
-0.00134788
-0.00144838
-0.00159751
-0.00178468
-0.00200133
-0.00224039
-0.00249595
-0.00276308
-0.00303764
-0.00331622
-0.00359597
-0.00387455
-0.00415007
-0.00442101
-0.00468616
-0.00494456
-0.00519551
-0.00543846
-0.00567304
-0.00589901
-0.00611622
-0.00632463
-0.00652425
-0.00671516
-0.00689748
-0.00707136
-0.007237
-0.0073946
-0.00754436
-0.00768654
-0.00782135
-0.00794904
-0.00806985
-0.00818402
-0.00829178
-0.00839336
-0.008489
-0.00857889
-0.00866328
-0.00874234
-0.0088163
-0.00888534
-0.00894964
-0.00900938
-0.00906474
-0.00911588
-0.00916295
-0.00920611
-0.0092455
-0.00928126
-0.00931353
-0.00934242
-0.00936807
-0.00939058
-0.00941008
-0.00942666
-0.00944044
-0.00945151
-0.00945996
-0.00946589
-0.00946939
-0.00947053
-0.00946941
-0.00946609
-0.00946065
-0.00945317
-0.00944371
-0.00943234
-0.00941913
-0.00940413
-0.00938742
-0.00936904
-0.00934906
-0.00932752
-0.00930448
-0.00927999
-0.00925411
-0.00922687
-0.00919833
-0.00916852
-0.0091375
-0.0091053
-0.00907197
-0.00903754
-0.00900206
-0.00896556
-0.00892808
-0.00888966
-0.00885032
-0.0088101
-0.00876904
-0.00872716
-0.0086845
-0.00864109
-0.00859695
-0.00855212
-0.00850662
-0.00846048
-0.00841373
-0.00836639
-0.00831848
-0.00827004
-0.00822108
-0.00817162
-0.0081217
-0.00807133
-0.00802053
-0.00796933
-0.00791774
-0.00786579
-0.00781349
-0.00776086
-0.00770792
-0.00765469
-0.00760119
-0.00754743
-0.00749344
-0.00743921
-0.00738478
-0.00733016
-0.00727536
-0.00722039
-0.00716528
-0.00711003
-0.00705465
-0.00699917
-0.0069436
-0.00688794
-0.00683221
-0.00677641
-0.00672057
-0.0066647
-0.0066088
-0.00655288
-0.00649696
-0.00644104
-0.00638514
-0.00632926
-0.00627341
-0.00621761
-0.00616186
-0.00610617
-0.00605054
-0.005995
-0.00593953
-0.00588416
-0.00582889
-0.00577372
-0.00571867
-0.00566373
-0.00560892
-0.00555425
-0.00549971
-0.00544532
-0.00539107
-0.00533699
-0.00528306
-0.0052293
-0.00517571
-0.0051223
-0.00506907
-0.00501602
-0.00496317
-0.00491051
-0.00485804
-0.00480578
-0.00475373
-0.00470189
-0.00465026
-0.00459884
-0.00454765
-0.00449668
-0.00444594
-0.00439542
-0.00434514
-0.00429509
-0.00424528
-0.00419571
-0.00414638
-0.0040973
-0.00404846
-0.00399987
-0.00395154
-0.00390345
-0.00385562
-0.00380804
-0.00376073
-0.00371367
-0.00366687
-0.00362033
-0.00357405
-0.00352804
-0.0034823
-0.00343682
-0.0033916
-0.00334666
-0.00330198
-0.00325757
-0.00321344
-0.00316957
-0.00312597
-0.00308265
-0.0030396
-0.00299681
-0.00295431
-0.00291207
-0.00287011
-0.00282842
-0.002787
-0.00274586
-0.00270499
-0.00266439
-0.00262406
-0.00258401
-0.00254423
-0.00250472
-0.00246549
-0.00242652
-0.00238783
-0.0023494
-0.00231125
-0.00227337
-0.00223575
-0.00219841
-0.00216133
-0.00212452
-0.00208798
-0.0020517
-0.00201569
-0.00197994
-0.00194446
-0.00190924
-0.00187428
-0.00183958
-0.00180514
-0.00177097
-0.00173705
-0.00170339
-0.00166998
-0.00163683
-0.00160394
-0.0015713
-0.00153891
-0.00150678
-0.00147489
-0.00144326
-0.00141187
-0.00138073
-0.00134983
-0.00131918
-0.00128878
-0.00125862
-0.0012287
-0.00119901
-0.00116957
-0.00114037
-0.0011114
-0.00108267
-0.00105417
-0.00102591
-0.000997873
-0.000970071
-0.000942497
-0.00091515
-0.00088803
-0.000861137
-0.000834466
-0.000808018
-0.000781791
-0.000755785
-0.000729997
-0.000704427
-0.000679072
-0.000653932
-0.000629006
-0.000604292
-0.000579788
-0.000555494
-0.000531408
-0.000507529
-0.000483854
-0.000460384
-0.000437117
-0.000414051
-0.000391185
-0.000368517
-0.000346047
-0.000323773
-0.000301694
-0.000279808
-0.000258113
-0.00023661
-0.000215296
-0.000194169
-0.00017323
-0.000152476
-0.000131905
-0.000111518
-9.1312e-05
-7.12857e-05
-5.14384e-05
-3.17688e-05
-1.22747e-05
7.04396e-06
2.61892e-05
4.51625e-05
6.39645e-05
8.25968e-05
0.000101061
0.000119358
0.000137489
0.000155456
0.000173259
0.0001909
0.00020838
0.000225701
0.000242864
0.000259869
0.000276718
0.000293413
0.000309954
0.000326343
0.000342582
0.00035867
0.000374609
0.000390402
0.000406048
0.000421549
0.000436907
0.000452121
0.000467194
0.000482127
0.00049692
0.000511576
0.000526094
0.000540476
0.000554724
0.000568839
0.00058282
0.000596671
0.000610391
0.000623982
0.000637445
0.000650782
0.000663992
0.000677076
0.000690037
0.000702875
0.000715591
0.000728187
0.000740663
0.000753019
0.000765259
0.000777382
0.00078939
0.000801283
0.000813062
0.000824729
0.000836285
0.000847729
0.000859065
0.000870291
0.00088141
0.000892422
0.000903328
0.00091413
0.000924827
0.000935421
0.000945914
0.000956305
0.000966595
0.000976787
0.000986879
0.000996875
0.00100677
0.00101657
0.00102628
0.0010359
0.00104542
0.00105484
0.00106418
0.00107342
0.00108258
0.00109165
0.00110062
0.00110951
0.00111832
0.00112703
0.00113567
0.00114421
0.00115268
0.00116106
0.00116936
0.00117758
0.00118571
0.00119377
0.00120175
0.00120965
0.00121747
0.00122522
0.00123289
0.00124048
0.001248
0.00125545
0.00126282
0.00127012
0.00127734
0.0012845
0.00129159
0.0012986
0.00130555
0.00131242
0.00131923
0.00132597
0.00133265
0.00133926
0.0013458
0.00135228
0.0013587
0.00136505
0.00137133
0.00137756
0.00138372
0.00138982
0.00139587
0.00140185
0.00140777
0.00141363
0.00141944
0.00142518
0.00143087
0.00143651
0.00144208
0.0014476
0.00145307
0.00145848
0.00146384
0.00146914
0.0014744
0.00147959
0.00148474
0.00148984
0.00149488
0.00149987
0.00150482
0.00150971
0.00151456
0.00151935
0.0015241
0.0015288
0.00153346
0.00153807
0.00154263
0.00154714
0.00155161
0.00155604
0.00156042
0.00156476
0.00156905
0.0015733
0.00157751
0.00158167
0.0015858
0.00158988
0.00159392
0.00159792
0.00160188
0.0016058
0.00160968
0.00161352
0.00161732
0.00162109
0.00162482
0.00162851
0.00163216
0.00163577
0.00163935
0.0016429
0.0016464
0.00164988
0.00165331
0.00165671
0.00166008
0.00166342
0.00166672
0.00166998
0.00167322
0.00167642
0.00167959
0.00168273
0.00168583
0.00168891
0.00169195
0.00169496
0.00169794
0.0017009
0.00170382
0.00170671
0.00170957
0.00171241
0.00171521
0.00171799
0.00172074
0.00172346
0.00172616
0.00172882
0.00173146
0.00173408
0.00173667
0.00173923
0.00174176
0.00174427
0.00174675
0.00174921
0.00175165
0.00175406
0.00175644
0.0017588
0.00176114
0.00176345
0.00176574
0.00176801
0.00177026
0.00177248
0.00177468
0.00177685
0.00177901
0.00178114
0.00178325
0.00178534
0.00178741
0.00178946
0.00179149
0.0017935
0.00179548
0.00179745
0.0017994
0.00180132
0.00180323
0.00180512
0.00180699
0.00180884
0.00181067
0.00181249
0.00181428
0.00181606
0.00181782
0.00181956
0.00182128
0.00182299
0.00182468
0.00182635
0.00182801
0.00182964
0.00183127
0.00183287
0.00183446
0.00183604
0.00183759
0.00183914
0.00184066
0.00184217
0.00184367
0.00184515
0.00184662
0.00184807
0.0018495
0.00185093
0.00185233
0.00185373
0.00185511
0.00185647
0.00185783
0.00185916
0.00186049
0.0018618
0.0018631
0.00186439
0.00186566
0.00186692
0.00186817
0.0018694
0.00187062
0.00187183
0.00187303
0.00187422
0.00187539
0.00187655
0.0018777
0.00187884
0.00187997
0.00188109
0.00188219
0.00188329
0.00188437
0.00188544
0.0018865
0.00188756
0.0018886
0.00188963
0.00189065
0.00189166
0.00189266
0.00189365
0.00189463
0.0018956
0.00189656
0.00189751
0.00189845
0.00189938
0.00190031
0.00190122
0.00190212
0.00190302
0.00190391
0.00190478
0.00190565
0.00190651
0.00190737
0.00190821
0.00190904
0.00190987
0.00191069
0.0019115
0.0019123
0.0019131
0.00191388
0.00191466
0.00191544
0.0019162
0.00191695
0.0019177
0.00191844
0.00191918
0.00191991
0.00192063
0.00192134
0.00192204
0.00192274
0.00192343
0.00192412
0.0019248
0.00192547
0.00192613
0.00192679
0.00192744
0.00192809
0.00192873
0.00192936
0.00192999
0.00193061
0.00193122
0.00193183
0.00193243
0.00193303
0.00193362
0.00193421
0.00193479
0.00193536
0.00193593
0.00193649
0.00193705
0.0019376
0.00193815
0.00193869
0.00193922
0.00193975
0.00194028
0.0019408
0.00194132
0.00194183
0.00194233
0.00194283
0.00194333
0.00194382
0.00194431
0.00194479
0.00194526
0.00194574
0.0019462
0.00194667
0.00194713
0.00194758
0.00194803
0.00194848
0.00194892
0.00194935
0.00194979
0.00195022
0.00195064
0.00195106
0.00195148
0.00195189
0.0019523
0.0019527
0.00195311
0.0019535
0.0019539
0.00195429
0.00195467
0.00195505
0.00195543
0.00195581
0.00195618
0.00195655
0.00195691
0.00195727
0.00195763
0.00195799
0.00195834
0.00195868
0.00195903
0.00195937
0.00195971
0.00196004
0.00196037
0.0019607
0.00196103
0.00196135
0.00196167
0.00196199
0.0019623
0.00196261
0.00196292
0.00196322
0.00196352
0.00196382
0.00196412
0.00196441
0.00196471
0.00196499
0.00196528
0.00196556
0.00196584
0.00196612
0.00196639
0.00196667
0.00196694
0.00196721
0.00196747
0.00196773
0.00196799
0.00196825
0.00196851
0.00196876
0.00196901
0.00196926
0.00196951
0.00196975
0.00196999
0.00197023
0.00197047
0.00197071
0.00197094
0.00197117
0.0019714
0.00197163
0.00197185
0.00197207
0.0019723
0.00197251
0.00197273
0.00197295
0.00197316
0.00197337
0.00197358
0.00197379
0.00197399
0.0019742
0.0019744
0.0019746
0.0019748
0.00197499
0.00197519
0.00197538
0.00197557
0.00197576
0.00197595
0.00197614
0.00197632
0.00197651
0.00197669
0.00197687
0.00197705
0.00197722
0.0019774
0.00197757
0.00197774
0.00197792
0.00197808
0.00197825
0.00197842
0.00197858
0.00197875
0.00197891
0.00197907
0.00197923
0.00197939
0.00197954
0.0019797
0.00197985
0.00198001
0.00198016
0.00198031
0.00198046
0.0019806
0.00198075
0.0019809
0.00198104
0.00198118
0.00198132
0.00198146
0.0019816
0.00198174
0.00198188
0.00198201
0.00198215
0.00198228
0.00198241
0.00198254
0.00198267
0.0019828
0.00198293
0.00198306
0.00198318
0.00198331
0.00198343
0.00198355
0.00198367
0.0019838
0.00198391
0.00198403
0.00198415
0.00198427
0.00198438
0.0019845
0.00198461
0.00198473
0.00198484
0.00198495
0.00198506
0.00198517
0.00198528
0.00198538
0.00198549
0.0019856
0.0019857
0.00198581
0.00198591
0.00198601
0.00198611
0.00198622
0.00198632
0.00198642
0.00198651
0.00198661
0.00198671
0.0019868
0.0019869
0.001987
0.00198709
0.00198718
0.00198728
0.00198737
0.00198746
0.00198755
0.00198764
0.00198773
0.00198782
0.0019879
0.00198799
0.00198808
0.00198816
0.00198825
0.00198833
0.00198842
0.0019885
0.00198858
0.00198866
0.00198875
0.00198883
0.00198891
0.00198899
0.00198907
0.00198914
0.00198922
0.0019893
0.00198937
0.00198945
0.00198953
0.0019896
0.00198968
0.00198975
0.00198982
0.0019899
0.00198997
0.00199004
0.00199011
0.00199018
0.00199025
0.00199032
0.00199039
0.00199046
0.00199053
0.00199059
0.00199066
0.00199073
0.00199079
0.00199086
0.00199093
0.00199099
0.00199106
0.00199112
0.00199118
0.00199125
0.00199131
0.00199137
0.00199143
0.00199149
0.00199155
0.00199161
0.00199167
0.00199173
0.00199179
0.00199185
0.00199191
0.00199197
0.00199203
0.00199208
0.00199214
0.0019922
0.00199225
0.00199231
0.00199236
0.00199242
0.00199247
0.00199253
0.00199258
0.00199263
0.00199269
0.00199274
0.00199279
0.00199285
0.0019929
0.00199295
0.001993
0.00199305
0.0019931
0.00199315
0.0019932
0.00199325
0.0019933
0.00199335
0.0019934
0.00199344
0.00199349
0.00199354
0.00199359
0.00199363
0.00199368
0.00199373
0.00199377
0.00199382
0.00199386
0.00199391
0.00199396
0.001994
0.00199404
0.00199409
0.00199413
0.00199418
0.00199422
0.00199426
0.0019943
0.00199435
0.00199439
0.00199443
0.00199447
0.00199451
0.00199456
0.0019946
0.00199464
0.00199468
0.00199472
0.00199476
0.0019948
0.00199484
0.00199488
0.00199492
0.00199495
0.00199499
0
0

