-14930.3
-0.0225614
-0.00870509
-0.00489488
-0.00322835
-0.00233781
-0.00183001
-0.00154833
-0.00141565
-0.00138796
-0.00143732
-0.00154443
-0.00169526
-0.00187909
-0.00208762
-0.00231423
-0.00255362
-0.00280155
-0.00305455
-0.00330986
-0.00356522
-0.00381884
-0.00406926
-0.00431535
-0.0045562
-0.00479113
-0.0050196
-0.00524123
-0.00545574
-0.00566297
-0.0058628
-0.00605521
-0.0062402
-0.00641783
-0.0065882
-0.00675142
-0.00690762
-0.00705696
-0.00719959
-0.00733569
-0.00746544
-0.00758901
-0.00770659
-0.00781836
-0.00792449
-0.00802516
-0.00812055
-0.00821083
-0.00829616
-0.00837671
-0.00845263
-0.00852407
-0.00859119
-0.00865412
-0.00871301
-0.00876799
-0.00881918
-0.00886671
-0.0089107
-0.00895127
-0.00898852
-0.00902257
-0.00905352
-0.00908146
-0.0091065
-0.00912872
-0.00914822
-0.00916508
-0.00917939
-0.00919122
-0.00920066
-0.00920778
-0.00921264
-0.00921533
-0.00921591
-0.00921444
-0.00921099
-0.00920562
-0.00919839
-0.00918936
-0.00917858
-0.00916611
-0.009152
-0.00913631
-0.00911907
-0.00910035
-0.00908018
-0.00905861
-0.00903569
-0.00901146
-0.00898597
-0.00895924
-0.00893133
-0.00890226
-0.00887209
-0.00884084
-0.00880855
-0.00877526
-0.008741
-0.0087058
-0.00866969
-0.00863271
-0.00859488
-0.00855625
-0.00851682
-0.00847664
-0.00843573
-0.00839412
-0.00835184
-0.0083089
-0.00826534
-0.00822118
-0.00817644
-0.00813115
-0.00808533
-0.008039
-0.00799218
-0.0079449
-0.00789717
-0.00784902
-0.00780046
-0.00775152
-0.00770221
-0.00765255
-0.00760255
-0.00755225
-0.00750164
-0.00745076
-0.00739961
-0.00734821
-0.00729658
-0.00724473
-0.00719268
-0.00714044
-0.00708802
-0.00703544
-0.00698271
-0.00692984
-0.00687685
-0.00682376
-0.00677056
-0.00671727
-0.00666391
-0.00661048
-0.006557
-0.00650348
-0.00644992
-0.00639634
-0.00634274
-0.00628915
-0.00623555
-0.00618197
-0.00612841
-0.00607489
-0.0060214
-0.00596796
-0.00591458
-0.00586126
-0.00580801
-0.00575483
-0.00570175
-0.00564875
-0.00559585
-0.00554305
-0.00549037
-0.0054378
-0.00538536
-0.00533304
-0.00528086
-0.00522881
-0.00517691
-0.00512516
-0.00507357
-0.00502213
-0.00497085
-0.00491975
-0.00486881
-0.00481805
-0.00476748
-0.00471708
-0.00466688
-0.00461686
-0.00456704
-0.00451742
-0.004468
-0.00441879
-0.00436978
-0.00432098
-0.0042724
-0.00422403
-0.00417588
-0.00412795
-0.00408024
-0.00403276
-0.00398551
-0.00393849
-0.00389169
-0.00384514
-0.00379881
-0.00375273
-0.00370688
-0.00366128
-0.00361591
-0.00357079
-0.00352591
-0.00348128
-0.00343689
-0.00339275
-0.00334886
-0.00330523
-0.00326184
-0.0032187
-0.00317581
-0.00313318
-0.0030908
-0.00304867
-0.0030068
-0.00296519
-0.00292383
-0.00288272
-0.00284187
-0.00280128
-0.00276094
-0.00272086
-0.00268104
-0.00264147
-0.00260216
-0.0025631
-0.0025243
-0.00248576
-0.00244748
-0.00240945
-0.00237167
-0.00233415
-0.00229689
-0.00225988
-0.00222312
-0.00218662
-0.00215037
-0.00211438
-0.00207864
-0.00204315
-0.00200791
-0.00197292
-0.00193818
-0.00190369
-0.00186945
-0.00183546
-0.00180171
-0.00176821
-0.00173496
-0.00170195
-0.00166919
-0.00163667
-0.00160439
-0.00157235
-0.00154055
-0.001509
-0.00147768
-0.0014466
-0.00141576
-0.00138515
-0.00135478
-0.00132464
-0.00129473
-0.00126506
-0.00123562
-0.0012064
-0.00117742
-0.00114866
-0.00112013
-0.00109183
-0.00106375
-0.00103589
-0.00100825
-0.000980838
-0.000953643
-0.000926667
-0.000899908
-0.000873366
-0.000847038
-0.000820925
-0.000795024
-0.000769335
-0.000743856
-0.000718587
-0.000693525
-0.000668671
-0.000644021
-0.000619576
-0.000595334
-0.000571295
-0.000547455
-0.000523815
-0.000500373
-0.000477129
-0.00045408
-0.000431225
-0.000408564
-0.000386095
-0.000363817
-0.000341729
-0.000319828
-0.000298115
-0.000276588
-0.000255245
-0.000234086
-0.000213109
-0.000192313
-0.000171697
-0.000151259
-0.000130998
-0.000110913
-9.10044e-05
-7.12679e-05
-5.17049e-05
-3.23124e-05
-1.30897e-05
5.96392e-06
2.48498e-05
4.35694e-05
6.21242e-05
8.05148e-05
9.87428e-05
0.000116809
0.000134715
0.000152462
0.00017005
0.000187481
0.000204758
0.000221879
0.000238848
0.000255664
0.000272328
0.000288843
0.000305209
0.000321428
0.0003375
0.000353427
0.000369209
0.000384849
0.000400346
0.000415703
0.00043092
0.000445998
0.000460939
0.000475742
0.000490411
0.000504945
0.000519346
0.000533615
0.000547752
0.00056176
0.000575639
0.000589389
0.000603013
0.000616511
0.000629883
0.000643132
0.000656259
0.000669263
0.000682146
0.000694909
0.000707553
0.000720079
0.000732488
0.000744782
0.000756961
0.000769025
0.000780976
0.000792816
0.000804545
0.000816163
0.000827672
0.000839073
0.000850366
0.000861553
0.000872635
0.000883612
0.000894486
0.000905255
0.000915924
0.000926492
0.000936959
0.000947327
0.000957596
0.000967768
0.000977843
0.000987823
0.000997707
0.0010075
0.00101719
0.0010268
0.00103631
0.00104573
0.00105506
0.0010643
0.00107346
0.00108252
0.0010915
0.00110039
0.0011092
0.00111792
0.00112656
0.00113512
0.00114359
0.00115198
0.00116029
0.00116852
0.00117667
0.00118474
0.00119274
0.00120065
0.00120849
0.00121626
0.00122394
0.00123156
0.0012391
0.00124656
0.00125396
0.00126128
0.00126853
0.00127571
0.00128282
0.00128986
0.00129684
0.00130374
0.00131058
0.00131735
0.00132406
0.0013307
0.00133727
0.00134378
0.00135023
0.00135661
0.00136293
0.00136919
0.00137539
0.00138152
0.0013876
0.00139361
0.00139957
0.00140547
0.00141131
0.0014171
0.00142282
0.00142849
0.00143411
0.00143967
0.00144517
0.00145062
0.00145602
0.00146136
0.00146665
0.00147189
0.00147708
0.00148221
0.0014873
0.00149233
0.00149732
0.00150225
0.00150714
0.00151198
0.00151677
0.00152151
0.00152621
0.00153086
0.00153546
0.00154002
0.00154453
0.001549
0.00155342
0.0015578
0.00156214
0.00156643
0.00157068
0.00157489
0.00157906
0.00158318
0.00158726
0.00159131
0.00159531
0.00159927
0.0016032
0.00160708
0.00161093
0.00161473
0.0016185
0.00162224
0.00162593
0.00162959
0.00163321
0.0016368
0.00164035
0.00164386
0.00164734
0.00165078
0.00165419
0.00165757
0.00166091
0.00166422
0.0016675
0.00167074
0.00167395
0.00167713
0.00168028
0.00168339
0.00168648
0.00168953
0.00169255
0.00169554
0.00169851
0.00170144
0.00170434
0.00170722
0.00171006
0.00171288
0.00171567
0.00171843
0.00172117
0.00172387
0.00172655
0.0017292
0.00173183
0.00173443
0.001737
0.00173955
0.00174207
0.00174457
0.00174704
0.00174949
0.00175191
0.00175431
0.00175668
0.00175903
0.00176136
0.00176366
0.00176594
0.0017682
0.00177043
0.00177265
0.00177484
0.00177701
0.00177915
0.00178128
0.00178338
0.00178546
0.00178753
0.00178957
0.00179159
0.00179359
0.00179557
0.00179753
0.00179947
0.00180139
0.00180329
0.00180518
0.00180704
0.00180889
0.00181071
0.00181252
0.00181431
0.00181609
0.00181784
0.00181958
0.0018213
0.001823
0.00182469
0.00182635
0.00182801
0.00182964
0.00183126
0.00183286
0.00183445
0.00183602
0.00183758
0.00183912
0.00184064
0.00184215
0.00184364
0.00184512
0.00184659
0.00184804
0.00184947
0.00185089
0.0018523
0.00185369
0.00185507
0.00185643
0.00185779
0.00185912
0.00186045
0.00186176
0.00186306
0.00186434
0.00186561
0.00186687
0.00186812
0.00186935
0.00187058
0.00187179
0.00187298
0.00187417
0.00187534
0.00187651
0.00187766
0.0018788
0.00187992
0.00188104
0.00188215
0.00188324
0.00188433
0.0018854
0.00188646
0.00188751
0.00188855
0.00188959
0.00189061
0.00189162
0.00189262
0.00189361
0.00189459
0.00189556
0.00189652
0.00189747
0.00189842
0.00189935
0.00190027
0.00190119
0.00190209
0.00190299
0.00190388
0.00190476
0.00190563
0.00190649
0.00190734
0.00190819
0.00190902
0.00190985
0.00191067
0.00191148
0.00191229
0.00191308
0.00191387
0.00191465
0.00191542
0.00191619
0.00191695
0.0019177
0.00191844
0.00191918
0.0019199
0.00192062
0.00192134
0.00192205
0.00192275
0.00192344
0.00192413
0.0019248
0.00192548
0.00192614
0.0019268
0.00192746
0.0019281
0.00192875
0.00192938
0.00193001
0.00193063
0.00193125
0.00193186
0.00193246
0.00193306
0.00193365
0.00193424
0.00193482
0.00193539
0.00193596
0.00193653
0.00193709
0.00193764
0.00193819
0.00193873
0.00193927
0.0019398
0.00194033
0.00194085
0.00194136
0.00194188
0.00194238
0.00194289
0.00194338
0.00194388
0.00194436
0.00194485
0.00194532
0.0019458
0.00194627
0.00194673
0.00194719
0.00194765
0.0019481
0.00194855
0.00194899
0.00194943
0.00194986
0.00195029
0.00195072
0.00195114
0.00195156
0.00195197
0.00195238
0.00195279
0.00195319
0.00195359
0.00195398
0.00195437
0.00195476
0.00195514
0.00195552
0.0019559
0.00195627
0.00195664
0.00195701
0.00195737
0.00195773
0.00195809
0.00195844
0.00195879
0.00195913
0.00195947
0.00195981
0.00196015
0.00196048
0.00196081
0.00196114
0.00196146
0.00196178
0.0019621
0.00196241
0.00196273
0.00196303
0.00196334
0.00196364
0.00196394
0.00196424
0.00196453
0.00196483
0.00196512
0.0019654
0.00196569
0.00196597
0.00196625
0.00196652
0.0019668
0.00196707
0.00196733
0.0019676
0.00196786
0.00196813
0.00196838
0.00196864
0.00196889
0.00196915
0.0019694
0.00196964
0.00196989
0.00197013
0.00197037
0.00197061
0.00197085
0.00197108
0.00197131
0.00197154
0.00197177
0.00197199
0.00197222
0.00197244
0.00197266
0.00197288
0.00197309
0.00197331
0.00197352
0.00197373
0.00197394
0.00197414
0.00197435
0.00197455
0.00197475
0.00197495
0.00197515
0.00197534
0.00197553
0.00197573
0.00197592
0.00197611
0.00197629
0.00197648
0.00197666
0.00197684
0.00197702
0.0019772
0.00197738
0.00197756
0.00197773
0.0019779
0.00197807
0.00197824
0.00197841
0.00197858
0.00197874
0.00197891
0.00197907
0.00197923
0.00197939
0.00197955
0.00197971
0.00197986
0.00198002
0.00198017
0.00198032
0.00198047
0.00198062
0.00198077
0.00198091
0.00198106
0.0019812
0.00198135
0.00198149
0.00198163
0.00198177
0.0019819
0.00198204
0.00198218
0.00198231
0.00198245
0.00198258
0.00198271
0.00198284
0.00198297
0.0019831
0.00198322
0.00198335
0.00198347
0.0019836
0.00198372
0.00198384
0.00198396
0.00198408
0.0019842
0.00198432
0.00198444
0.00198455
0.00198467
0.00198478
0.00198489
0.00198501
0.00198512
0.00198523
0.00198534
0.00198545
0.00198555
0.00198566
0.00198577
0.00198587
0.00198597
0.00198608
0.00198618
0.00198628
0.00198638
0.00198648
0.00198658
0.00198668
0.00198678
0.00198688
0.00198697
0.00198707
0.00198716
0.00198726
0.00198735
0.00198744
0.00198754
0.00198763
0.00198772
0.00198781
0.0019879
0.00198798
0.00198807
0.00198816
0.00198825
0.00198833
0.00198842
0.0019885
0.00198858
0.00198867
0.00198875
0.00198883
0.00198891
0.00198899
0.00198907
0.00198915
0.00198923
0.00198931
0.00198939
0.00198946
0.00198954
0.00198962
0.00198969
0.00198977
0.00198984
0.00198991
0.00198999
0.00199006
0.00199013
0.0019902
0.00199027
0.00199034
0.00199041
0.00199048
0.00199055
0.00199062
0.00199069
0.00199076
0.00199082
0.00199089
0.00199096
0.00199102
0.00199109
0.00199115
0.00199122
0.00199128
0.00199134
0.00199141
0.00199147
0.00199153
0.00199159
0.00199165
0.00199171
0.00199177
0.00199183
0.00199189
0.00199195
0.00199201
0.00199207
0.00199213
0.00199218
0.00199224
0.0019923
0.00199235
0.00199241
0.00199247
0.00199252
0.00199257
0.00199263
0.00199268
0.00199274
0.00199279
0.00199284
0.0019929
0.00199295
0.001993
0.00199305
0.0019931
0.00199315
0.0019932
0.00199325
0.0019933
0.00199335
0.0019934
0.00199345
0.0019935
0.00199355
0.0019936
0.00199364
0.00199369
0.00199374
0.00199378
0.00199383
0.00199388
0.00199392
0.00199397
0.00199401
0.00199406
0.0019941
0.00199415
0.00199419
0.00199424
0.00199428
0.00199432
0.00199436
0.00199441
0.00199445
0.00199449
0.00199453
0.00199458
0.00199462
0.00199466
0.0019947
0.00199474
0.00199478
0.00199482
0.00199486
0
0

