-14930.3
-0.0225614
-0.00870323
-0.00488402
-0.00319341
-0.00225565
-0.00167157
-0.00128213
-0.0010112
-0.000818411
-0.000681103
-0.000586016
-0.000525094
-0.000493197
-0.000486827
-0.000503405
-0.000540862
-0.000597413
-0.000671432
-0.000761396
-0.00086585
-0.000983399
-0.0011127
-0.00125248
-0.0014015
-0.00155861
-0.00172272
-0.00189279
-0.00206786
-0.00224704
-0.00242948
-0.00261441
-0.00280112
-0.00298896
-0.00317732
-0.00336565
-0.00355346
-0.00374028
-0.0039257
-0.00410936
-0.00429092
-0.00447007
-0.00464656
-0.00482014
-0.00499061
-0.00515779
-0.0053215
-0.00548163
-0.00563804
-0.00579065
-0.00593936
-0.00608412
-0.00622487
-0.00636157
-0.00649419
-0.00662272
-0.00674715
-0.00686748
-0.00698372
-0.00709589
-0.00720402
-0.00730812
-0.00740824
-0.00750441
-0.00759667
-0.00768508
-0.00776968
-0.00785053
-0.00792767
-0.00800117
-0.00807109
-0.00813748
-0.0082004
-0.00825993
-0.00831611
-0.00836902
-0.00841872
-0.00846527
-0.00850875
-0.0085492
-0.0085867
-0.00862132
-0.0086531
-0.00868213
-0.00870846
-0.00873215
-0.00875327
-0.00877188
-0.00878804
-0.0088018
-0.00881323
-0.00882238
-0.00882932
-0.0088341
-0.00883677
-0.0088374
-0.00883602
-0.00883271
-0.0088275
-0.00882045
-0.00881162
-0.00880104
-0.00878878
-0.00877487
-0.00875936
-0.00874231
-0.00872374
-0.00870372
-0.00868228
-0.00865946
-0.00863531
-0.00860987
-0.00858317
-0.00855526
-0.00852617
-0.00849594
-0.00846461
-0.00843221
-0.00839878
-0.00836436
-0.00832897
-0.00829265
-0.00825543
-0.00821735
-0.00817843
-0.0081387
-0.0080982
-0.00805694
-0.00801497
-0.00797231
-0.00792898
-0.00788501
-0.00784043
-0.00779526
-0.00774952
-0.00770325
-0.00765646
-0.00760917
-0.00756141
-0.00751321
-0.00746457
-0.00741553
-0.00736609
-0.00731629
-0.00726615
-0.00721567
-0.00716488
-0.00711379
-0.00706243
-0.00701082
-0.00695896
-0.00690687
-0.00685457
-0.00680208
-0.00674941
-0.00669657
-0.00664358
-0.00659046
-0.00653721
-0.00648385
-0.00643039
-0.00637685
-0.00632324
-0.00626957
-0.00621585
-0.00616209
-0.0061083
-0.0060545
-0.00600069
-0.00594689
-0.0058931
-0.00583933
-0.0057856
-0.00573191
-0.00567827
-0.00562469
-0.00557118
-0.00551775
-0.0054644
-0.00541113
-0.00535797
-0.00530492
-0.00525198
-0.00519915
-0.00514646
-0.00509389
-0.00504146
-0.00498918
-0.00493705
-0.00488508
-0.00483326
-0.00478161
-0.00473013
-0.00467883
-0.00462771
-0.00457678
-0.00452603
-0.00447548
-0.00442513
-0.00437498
-0.00432503
-0.0042753
-0.00422577
-0.00417646
-0.00412738
-0.00407851
-0.00402987
-0.00398146
-0.00393328
-0.00388533
-0.00383762
-0.00379015
-0.00374292
-0.00369593
-0.00364919
-0.00360269
-0.00355644
-0.00351045
-0.0034647
-0.00341921
-0.00337397
-0.003329
-0.00328428
-0.00323981
-0.00319561
-0.00315167
-0.003108
-0.00306458
-0.00302143
-0.00297855
-0.00293593
-0.00289358
-0.00285149
-0.00280967
-0.00276812
-0.00272684
-0.00268583
-0.00264508
-0.00260461
-0.0025644
-0.00252446
-0.00248479
-0.00244539
-0.00240626
-0.0023674
-0.0023288
-0.00229048
-0.00225242
-0.00221463
-0.00217711
-0.00213986
-0.00210287
-0.00206615
-0.00202969
-0.0019935
-0.00195758
-0.00192192
-0.00188652
-0.00185139
-0.00181651
-0.0017819
-0.00174755
-0.00171346
-0.00167963
-0.00164605
-0.00161274
-0.00157968
-0.00154687
-0.00151432
-0.00148203
-0.00144998
-0.00141819
-0.00138665
-0.00135536
-0.00132431
-0.00129352
-0.00126297
-0.00123266
-0.0012026
-0.00117278
-0.0011432
-0.00111387
-0.00108477
-0.00105592
-0.00102729
-0.000998909
-0.000970757
-0.00094284
-0.000915155
-0.000887699
-0.000860474
-0.000833477
-0.000806707
-0.000780163
-0.000753843
-0.000727747
-0.000701872
-0.000676217
-0.000650781
-0.000625563
-0.000600563
-0.000575776
-0.000551204
-0.000526844
-0.000502696
-0.000478757
-0.000455026
-0.000431503
-0.000408186
-0.000385072
-0.000362162
-0.000339453
-0.000316945
-0.000294636
-0.000272524
-0.000250608
-0.000228887
-0.00020736
-0.000186026
-0.000164881
-0.000143927
-0.00012316
-0.00010258
-8.21856e-05
-6.19753e-05
-4.19475e-05
-2.21017e-05
-2.43487e-06
1.70522e-05
3.63623e-05
5.54961e-05
7.44552e-05
9.32409e-05
0.000111855
0.000130298
0.000148571
0.000166676
0.000184614
0.000202387
0.000219996
0.000237441
0.000254724
0.000271847
0.000288811
0.000305616
0.000322266
0.00033876
0.000355099
0.000371285
0.000387321
0.000403205
0.00041894
0.000434527
0.000449967
0.000465262
0.000480411
0.000495418
0.000510283
0.000525007
0.000539591
0.000554037
0.000568346
0.000582518
0.000596555
0.000610458
0.000624229
0.000637868
0.000651376
0.000664755
0.000678005
0.000691128
0.000704124
0.000716996
0.000729744
0.000742368
0.000754871
0.000767253
0.000779516
0.00079166
0.000803686
0.000815597
0.00082739
0.000839071
0.000850637
0.000862091
0.000873434
0.000884666
0.000895789
0.000906803
0.00091771
0.000928511
0.000939205
0.000949795
0.000960282
0.000970665
0.000980947
0.000991128
0.00100121
0.00101119
0.00102107
0.00103086
0.00104055
0.00105015
0.00105965
0.00106905
0.00107837
0.00108759
0.00109672
0.00110576
0.00111471
0.00112357
0.00113234
0.00114103
0.00114963
0.00115815
0.00116658
0.00117493
0.00118319
0.00119137
0.00119947
0.00120749
0.00121543
0.0012233
0.00123108
0.00123878
0.00124641
0.00125396
0.00126144
0.00126884
0.00127617
0.00128342
0.0012906
0.00129771
0.00130475
0.00131172
0.00131862
0.00132545
0.00133221
0.0013389
0.00134552
0.00135208
0.00135857
0.001365
0.00137136
0.00137766
0.0013839
0.00139007
0.00139618
0.00140223
0.00140822
0.00141414
0.00142001
0.00142582
0.00143157
0.00143726
0.00144289
0.00144847
0.00145399
0.00145946
0.00146486
0.00147022
0.00147552
0.00148077
0.00148596
0.0014911
0.00149619
0.00150123
0.00150621
0.00151115
0.00151603
0.00152087
0.00152566
0.0015304
0.00153509
0.00153973
0.00154432
0.00154887
0.00155338
0.00155783
0.00156224
0.00156661
0.00157093
0.00157521
0.00157945
0.00158364
0.00158779
0.00159189
0.00159596
0.00159998
0.00160396
0.00160791
0.00161181
0.00161567
0.00161949
0.00162328
0.00162702
0.00163073
0.0016344
0.00163803
0.00164162
0.00164518
0.0016487
0.00165219
0.00165564
0.00165906
0.00166244
0.00166578
0.00166909
0.00167237
0.00167562
0.00167883
0.00168201
0.00168515
0.00168827
0.00169135
0.0016944
0.00169742
0.00170041
0.00170336
0.00170629
0.00170919
0.00171206
0.0017149
0.00171771
0.00172049
0.00172324
0.00172597
0.00172866
0.00173133
0.00173398
0.00173659
0.00173918
0.00174174
0.00174428
0.00174679
0.00174927
0.00175173
0.00175416
0.00175657
0.00175896
0.00176132
0.00176365
0.00176596
0.00176825
0.00177052
0.00177276
0.00177498
0.00177717
0.00177935
0.0017815
0.00178363
0.00178574
0.00178782
0.00178989
0.00179193
0.00179396
0.00179596
0.00179794
0.0017999
0.00180185
0.00180377
0.00180567
0.00180755
0.00180942
0.00181126
0.00181309
0.0018149
0.00181668
0.00181845
0.00182021
0.00182194
0.00182366
0.00182536
0.00182704
0.00182871
0.00183036
0.00183199
0.0018336
0.0018352
0.00183678
0.00183835
0.0018399
0.00184143
0.00184295
0.00184446
0.00184594
0.00184742
0.00184888
0.00185032
0.00185175
0.00185316
0.00185456
0.00185595
0.00185732
0.00185868
0.00186002
0.00186135
0.00186267
0.00186397
0.00186526
0.00186654
0.0018678
0.00186905
0.00187029
0.00187152
0.00187273
0.00187393
0.00187512
0.0018763
0.00187746
0.00187862
0.00187976
0.00188089
0.00188201
0.00188312
0.00188421
0.0018853
0.00188637
0.00188744
0.00188849
0.00188953
0.00189056
0.00189158
0.00189259
0.0018936
0.00189459
0.00189557
0.00189654
0.0018975
0.00189845
0.00189939
0.00190033
0.00190125
0.00190216
0.00190307
0.00190396
0.00190485
0.00190573
0.0019066
0.00190746
0.00190831
0.00190915
0.00190999
0.00191082
0.00191163
0.00191244
0.00191325
0.00191404
0.00191483
0.0019156
0.00191637
0.00191714
0.00191789
0.00191864
0.00191938
0.00192011
0.00192084
0.00192156
0.00192227
0.00192297
0.00192367
0.00192436
0.00192504
0.00192572
0.00192639
0.00192705
0.00192771
0.00192836
0.001929
0.00192964
0.00193027
0.0019309
0.00193152
0.00193213
0.00193274
0.00193334
0.00193393
0.00193452
0.0019351
0.00193568
0.00193625
0.00193682
0.00193738
0.00193793
0.00193848
0.00193903
0.00193957
0.0019401
0.00194063
0.00194115
0.00194167
0.00194218
0.00194269
0.00194319
0.00194369
0.00194419
0.00194468
0.00194516
0.00194564
0.00194611
0.00194658
0.00194705
0.00194751
0.00194796
0.00194842
0.00194886
0.00194931
0.00194975
0.00195018
0.00195061
0.00195104
0.00195146
0.00195188
0.00195229
0.0019527
0.00195311
0.00195351
0.00195391
0.0019543
0.00195469
0.00195508
0.00195547
0.00195585
0.00195622
0.00195659
0.00195696
0.00195733
0.00195769
0.00195805
0.0019584
0.00195876
0.0019591
0.00195945
0.00195979
0.00196013
0.00196046
0.0019608
0.00196113
0.00196145
0.00196177
0.00196209
0.00196241
0.00196273
0.00196304
0.00196334
0.00196365
0.00196395
0.00196425
0.00196455
0.00196484
0.00196513
0.00196542
0.00196571
0.00196599
0.00196627
0.00196655
0.00196682
0.0019671
0.00196737
0.00196763
0.0019679
0.00196816
0.00196842
0.00196868
0.00196893
0.00196919
0.00196944
0.00196969
0.00196993
0.00197018
0.00197042
0.00197066
0.0019709
0.00197113
0.00197136
0.00197159
0.00197182
0.00197205
0.00197227
0.0019725
0.00197272
0.00197294
0.00197315
0.00197337
0.00197358
0.00197379
0.001974
0.00197421
0.00197441
0.00197462
0.00197482
0.00197502
0.00197521
0.00197541
0.0019756
0.0019758
0.00197599
0.00197618
0.00197636
0.00197655
0.00197673
0.00197692
0.0019771
0.00197728
0.00197746
0.00197763
0.00197781
0.00197798
0.00197815
0.00197832
0.00197849
0.00197866
0.00197882
0.00197899
0.00197915
0.00197931
0.00197947
0.00197963
0.00197979
0.00197994
0.0019801
0.00198025
0.0019804
0.00198055
0.0019807
0.00198085
0.001981
0.00198114
0.00198129
0.00198143
0.00198157
0.00198171
0.00198185
0.00198199
0.00198213
0.00198226
0.0019824
0.00198253
0.00198266
0.00198279
0.00198292
0.00198305
0.00198318
0.00198331
0.00198343
0.00198356
0.00198368
0.00198381
0.00198393
0.00198405
0.00198417
0.00198429
0.00198441
0.00198452
0.00198464
0.00198475
0.00198487
0.00198498
0.00198509
0.0019852
0.00198531
0.00198542
0.00198553
0.00198564
0.00198575
0.00198585
0.00198596
0.00198606
0.00198616
0.00198627
0.00198637
0.00198647
0.00198657
0.00198667
0.00198677
0.00198687
0.00198696
0.00198706
0.00198715
0.00198725
0.00198734
0.00198744
0.00198753
0.00198762
0.00198771
0.0019878
0.00198789
0.00198798
0.00198807
0.00198816
0.00198824
0.00198833
0.00198841
0.0019885
0.00198858
0.00198867
0.00198875
0.00198883
0.00198891
0.00198899
0.00198908
0.00198915
0.00198923
0.00198931
0.00198939
0.00198947
0.00198955
0.00198962
0.0019897
0.00198977
0.00198985
0.00198992
0.00198999
0.00199007
0.00199014
0.00199021
0.00199028
0.00199035
0.00199042
0.00199049
0.00199056
0.00199063
0.0019907
0.00199077
0.00199084
0.0019909
0.00199097
0.00199103
0.0019911
0.00199116
0.00199123
0.00199129
0.00199136
0.00199142
0.00199148
0.00199154
0.00199161
0.00199167
0.00199173
0.00199179
0.00199185
0.00199191
0.00199197
0.00199203
0.00199208
0.00199214
0.0019922
0.00199226
0.00199231
0.00199237
0.00199243
0.00199248
0.00199254
0.00199259
0.00199265
0.0019927
0.00199276
0.00199281
0.00199286
0.00199291
0.00199297
0.00199302
0.00199307
0.00199312
0.00199317
0.00199322
0.00199327
0.00199332
0.00199337
0.00199342
0.00199347
0.00199352
0.00199357
0.00199362
0.00199366
0.00199371
0.00199376
0.00199381
0.00199385
0.0019939
0.00199394
0.00199399
0.00199404
0.00199408
0.00199412
0.00199417
0.00199421
0.00199426
0.0019943
0.00199434
0.00199439
0.00199443
0.00199447
0.00199452
0.00199456
0.0019946
0.00199464
0.00199468
0.00199472
0.00199476
0.0019948
0
0

