-14930.3
-0.0225614
-0.00870567
-0.00489851
-0.0032406
-0.00236795
-0.00189047
-0.00165368
-0.00158118
-0.00162852
-0.00176628
-0.00197314
-0.00223267
-0.00253169
-0.00285948
-0.00320722
-0.00356767
-0.00393489
-0.00430404
-0.00467119
-0.00503323
-0.00538768
-0.00573261
-0.00606656
-0.00638842
-0.00669741
-0.00699301
-0.00727489
-0.0075429
-0.00779702
-0.00803733
-0.00826401
-0.00847729
-0.00867747
-0.00886487
-0.00903987
-0.00920283
-0.00935414
-0.00949423
-0.00962348
-0.00974232
-0.00985115
-0.00995036
-0.0100404
-0.0101216
-0.0101943
-0.010259
-0.010316
-0.0103656
-0.0104082
-0.0104442
-0.0104738
-0.0104973
-0.0105152
-0.0105275
-0.0105347
-0.010537
-0.0105346
-0.0105278
-0.0105169
-0.010502
-0.0104834
-0.0104613
-0.0104359
-0.0104073
-0.0103759
-0.0103416
-0.0103048
-0.0102656
-0.0102241
-0.0101804
-0.0101348
-0.0100873
-0.010038
-0.00998718
-0.00993482
-0.00988108
-0.00982604
-0.00976981
-0.00971249
-0.00965415
-0.00959489
-0.00953478
-0.00947389
-0.00941231
-0.00935009
-0.0092873
-0.00922399
-0.00916023
-0.00909608
-0.00903157
-0.00896676
-0.00890169
-0.00883641
-0.00877095
-0.00870536
-0.00863966
-0.0085739
-0.00850809
-0.00844228
-0.00837649
-0.00831075
-0.00824507
-0.00817949
-0.00811402
-0.00804869
-0.0079835
-0.00791849
-0.00785366
-0.00778903
-0.00772462
-0.00766044
-0.00759649
-0.0075328
-0.00746936
-0.0074062
-0.00734332
-0.00728073
-0.00721843
-0.00715643
-0.00709474
-0.00703337
-0.00697232
-0.00691159
-0.00685119
-0.00679113
-0.0067314
-0.00667201
-0.00661296
-0.00655426
-0.0064959
-0.00643789
-0.00638023
-0.00632293
-0.00626597
-0.00620937
-0.00615312
-0.00609723
-0.00604169
-0.00598651
-0.00593168
-0.00587721
-0.00582309
-0.00576932
-0.0057159
-0.00566284
-0.00561013
-0.00555777
-0.00550575
-0.00545409
-0.00540277
-0.0053518
-0.00530117
-0.00525088
-0.00520093
-0.00515133
-0.00510206
-0.00505313
-0.00500453
-0.00495627
-0.00490833
-0.00486073
-0.00481345
-0.0047665
-0.00471988
-0.00467357
-0.00462759
-0.00458192
-0.00453657
-0.00449154
-0.00444682
-0.00440241
-0.0043583
-0.00431451
-0.00427102
-0.00422783
-0.00418494
-0.00414236
-0.00410007
-0.00405807
-0.00401637
-0.00397496
-0.00393383
-0.003893
-0.00385245
-0.00381218
-0.0037722
-0.00373249
-0.00369307
-0.00365392
-0.00361504
-0.00357643
-0.0035381
-0.00350003
-0.00346223
-0.00342469
-0.00338742
-0.0033504
-0.00331365
-0.00327715
-0.00324091
-0.00320492
-0.00316918
-0.0031337
-0.00309846
-0.00306347
-0.00302872
-0.00299421
-0.00295995
-0.00292593
-0.00289214
-0.00285859
-0.00282528
-0.0027922
-0.00275934
-0.00272672
-0.00269433
-0.00266216
-0.00263022
-0.0025985
-0.002567
-0.00253572
-0.00250466
-0.00247382
-0.00244319
-0.00241278
-0.00238257
-0.00235258
-0.0023228
-0.00229322
-0.00226386
-0.00223469
-0.00220573
-0.00217697
-0.00214841
-0.00212005
-0.00209189
-0.00206392
-0.00203615
-0.00200858
-0.00198119
-0.00195399
-0.00192699
-0.00190017
-0.00187354
-0.00184709
-0.00182083
-0.00179475
-0.00176885
-0.00174313
-0.00171759
-0.00169222
-0.00166704
-0.00164203
-0.00161719
-0.00159252
-0.00156803
-0.0015437
-0.00151955
-0.00149556
-0.00147174
-0.00144808
-0.00142459
-0.00140126
-0.00137809
-0.00135508
-0.00133223
-0.00130954
-0.00128701
-0.00126464
-0.00124242
-0.00122035
-0.00119843
-0.00117667
-0.00115506
-0.00113359
-0.00111228
-0.00109111
-0.00107009
-0.00104922
-0.00102849
-0.0010079
-0.000987455
-0.000967151
-0.000946987
-0.000926964
-0.000907078
-0.00088733
-0.000867718
-0.000848241
-0.000828899
-0.00080969
-0.000790614
-0.00077167
-0.000752856
-0.000734172
-0.000715617
-0.00069719
-0.000678891
-0.000660717
-0.000642669
-0.000624745
-0.000606944
-0.000589266
-0.00057171
-0.000554275
-0.000536961
-0.000519765
-0.000502688
-0.000485728
-0.000468885
-0.000452158
-0.000435546
-0.000419049
-0.000402665
-0.000386394
-0.000370234
-0.000354186
-0.000338248
-0.00032242
-0.000306701
-0.000291089
-0.000275586
-0.000260188
-0.000244896
-0.000229709
-0.000214627
-0.000199649
-0.000184773
-0.000169999
-0.000155327
-0.000140755
-0.000126284
-0.000111912
-9.76381e-05
-8.34632e-05
-6.9385e-05
-5.54026e-05
-4.15169e-05
-2.77264e-05
-1.40304e-05
-4.28254e-07
1.30801e-05
2.64969e-05
3.98212e-05
5.30539e-05
6.61964e-05
7.92486e-05
9.22113e-05
0.000105085
0.000117872
0.000130569
0.000143181
0.000155706
0.000168145
0.000180499
0.000192769
0.000204955
0.000217057
0.000229077
0.000241013
0.000252869
0.000264644
0.000276338
0.000287952
0.000299486
0.000310942
0.00032232
0.000333619
0.000344842
0.000355988
0.000367057
0.000378051
0.00038897
0.000399814
0.000410585
0.000421282
0.000431905
0.000442457
0.000452936
0.000463344
0.00047368
0.000483946
0.000494142
0.000504269
0.000514326
0.000524315
0.000534236
0.000544089
0.000553875
0.000563594
0.000573247
0.000582834
0.000592356
0.000601813
0.000611206
0.000620534
0.000629799
0.000639001
0.00064814
0.000657216
0.000666232
0.000675185
0.000684078
0.000692909
0.00070168
0.000710392
0.000719045
0.000727638
0.000736173
0.00074465
0.00075307
0.000761432
0.000769737
0.000777986
0.000786179
0.000794316
0.000802397
0.000810425
0.000818397
0.000826315
0.000834179
0.00084199
0.000849747
0.000857453
0.000865105
0.000872706
0.000880255
0.000887753
0.0008952
0.000902597
0.000909943
0.000917239
0.000924486
0.000931684
0.000938832
0.000945933
0.000952985
0.000959989
0.000966946
0.000973855
0.000980719
0.000987534
0.000994305
0.00100103
0.00100771
0.00101434
0.00102093
0.00102747
0.00103397
0.00104043
0.00104684
0.00105321
0.00105953
0.00106581
0.00107205
0.00107825
0.00108441
0.00109052
0.00109659
0.00110262
0.00110861
0.00111456
0.00112047
0.00112634
0.00113217
0.00113796
0.00114371
0.00114943
0.0011551
0.00116074
0.00116633
0.00117189
0.00117742
0.0011829
0.00118835
0.00119376
0.00119913
0.00120447
0.00120977
0.00121504
0.00122027
0.00122546
0.00123062
0.00123575
0.00124084
0.00124589
0.00125092
0.0012559
0.00126086
0.00126578
0.00127067
0.00127552
0.00128034
0.00128513
0.00128989
0.00129462
0.00129931
0.00130397
0.0013086
0.0013132
0.00131777
0.0013223
0.00132681
0.00133129
0.00133573
0.00134015
0.00134453
0.00134889
0.00135322
0.00135752
0.00136179
0.00136603
0.00137024
0.00137442
0.00137858
0.0013827
0.0013868
0.00139088
0.00139492
0.00139894
0.00140293
0.00140689
0.00141083
0.00141474
0.00141862
0.00142248
0.00142631
0.00143012
0.0014339
0.00143765
0.00144138
0.00144509
0.00144877
0.00145242
0.00145605
0.00145966
0.00146324
0.0014668
0.00147033
0.00147384
0.00147733
0.00148079
0.00148423
0.00148765
0.00149104
0.00149441
0.00149776
0.00150109
0.00150439
0.00150767
0.00151093
0.00151417
0.00151739
0.00152058
0.00152375
0.00152691
0.00153004
0.00153315
0.00153623
0.0015393
0.00154235
0.00154538
0.00154838
0.00155137
0.00155434
0.00155728
0.00156021
0.00156312
0.001566
0.00156887
0.00157172
0.00157455
0.00157736
0.00158015
0.00158293
0.00158568
0.00158842
0.00159114
0.00159384
0.00159652
0.00159918
0.00160183
0.00160446
0.00160707
0.00160966
0.00161224
0.0016148
0.00161734
0.00161986
0.00162237
0.00162486
0.00162734
0.00162979
0.00163223
0.00163466
0.00163707
0.00163946
0.00164184
0.0016442
0.00164654
0.00164887
0.00165119
0.00165349
0.00165577
0.00165804
0.00166029
0.00166253
0.00166475
0.00166696
0.00166915
0.00167133
0.00167349
0.00167564
0.00167778
0.0016799
0.00168201
0.0016841
0.00168618
0.00168824
0.00169029
0.00169233
0.00169436
0.00169637
0.00169836
0.00170035
0.00170232
0.00170427
0.00170622
0.00170815
0.00171007
0.00171197
0.00171387
0.00171575
0.00171762
0.00171947
0.00172132
0.00172315
0.00172496
0.00172677
0.00172857
0.00173035
0.00173212
0.00173388
0.00173563
0.00173736
0.00173908
0.0017408
0.0017425
0.00174419
0.00174587
0.00174754
0.00174919
0.00175084
0.00175247
0.0017541
0.00175571
0.00175731
0.0017589
0.00176048
0.00176205
0.00176361
0.00176516
0.0017667
0.00176823
0.00176975
0.00177126
0.00177276
0.00177425
0.00177573
0.0017772
0.00177866
0.00178011
0.00178155
0.00178298
0.0017844
0.00178581
0.00178721
0.0017886
0.00178999
0.00179136
0.00179273
0.00179409
0.00179543
0.00179677
0.0017981
0.00179942
0.00180074
0.00180204
0.00180333
0.00180462
0.0018059
0.00180717
0.00180843
0.00180968
0.00181093
0.00181216
0.00181339
0.00181461
0.00181582
0.00181703
0.00181822
0.00181941
0.00182059
0.00182176
0.00182293
0.00182408
0.00182523
0.00182637
0.00182751
0.00182863
0.00182975
0.00183087
0.00183197
0.00183307
0.00183416
0.00183524
0.00183632
0.00183738
0.00183845
0.0018395
0.00184055
0.00184159
0.00184262
0.00184365
0.00184467
0.00184568
0.00184669
0.00184769
0.00184868
0.00184967
0.00185065
0.00185162
0.00185259
0.00185355
0.00185451
0.00185546
0.0018564
0.00185733
0.00185827
0.00185919
0.00186011
0.00186102
0.00186192
0.00186282
0.00186372
0.00186461
0.00186549
0.00186636
0.00186724
0.0018681
0.00186896
0.00186981
0.00187066
0.0018715
0.00187234
0.00187317
0.001874
0.00187482
0.00187563
0.00187644
0.00187725
0.00187805
0.00187884
0.00187963
0.00188041
0.00188119
0.00188197
0.00188273
0.0018835
0.00188426
0.00188501
0.00188576
0.0018865
0.00188724
0.00188797
0.0018887
0.00188943
0.00189015
0.00189086
0.00189157
0.00189228
0.00189298
0.00189367
0.00189436
0.00189505
0.00189573
0.00189641
0.00189709
0.00189776
0.00189842
0.00189908
0.00189974
0.00190039
0.00190104
0.00190168
0.00190232
0.00190296
0.00190359
0.00190421
0.00190484
0.00190546
0.00190607
0.00190668
0.00190729
0.00190789
0.00190849
0.00190908
0.00190968
0.00191026
0.00191085
0.00191143
0.001912
0.00191257
0.00191314
0.00191371
0.00191427
0.00191483
0.00191538
0.00191593
0.00191648
0.00191702
0.00191756
0.0019181
0.00191863
0.00191916
0.00191968
0.0019202
0.00192072
0.00192124
0.00192175
0.00192226
0.00192277
0.00192327
0.00192377
0.00192426
0.00192475
0.00192524
0.00192573
0.00192621
0.00192669
0.00192717
0.00192764
0.00192811
0.00192858
0.00192905
0.00192951
0.00192997
0.00193042
0.00193087
0.00193132
0.00193177
0.00193221
0.00193266
0.00193309
0.00193353
0.00193396
0.00193439
0.00193482
0.00193524
0.00193566
0.00193608
0.0019365
0.00193691
0.00193732
0.00193773
0.00193814
0.00193854
0.00193894
0.00193934
0.00193973
0.00194012
0.00194051
0.0019409
0.00194129
0.00194167
0.00194205
0.00194243
0.0019428
0.00194318
0.00194355
0.00194391
0.00194428
0.00194464
0.001945
0.00194536
0.00194572
0.00194607
0.00194642
0.00194677
0.00194712
0.00194747
0.00194781
0.00194815
0.00194849
0.00194882
0.00194916
0.00194949
0.00194982
0.00195015
0.00195047
0.0019508
0.00195112
0.00195144
0.00195176
0.00195207
0.00195238
0.0019527
0.00195301
0.00195331
0.00195362
0.00195392
0.00195422
0.00195452
0.00195482
0.00195512
0.00195541
0.0019557
0.00195599
0.00195628
0.00195657
0.00195685
0.00195713
0.00195742
0.00195769
0.00195797
0.00195825
0.00195852
0.00195879
0.00195906
0.00195933
0.0019596
0.00195987
0.00196013
0.00196039
0.00196065
0.00196091
0.00196117
0.00196142
0.00196168
0.00196193
0.00196218
0.00196243
0.00196268
0.00196292
0.00196317
0.00196341
0.00196365
0.00196389
0.00196413
0.00196436
0.0019646
0.00196483
0.00196507
0.0019653
0.00196553
0.00196575
0.00196598
0.0019662
0.00196643
0.00196665
0.00196687
0.00196709
0.00196731
0.00196752
0.00196774
0.00196795
0.00196817
0.00196838
0.00196859
0.0019688
0.001969
0.00196921
0.00196941
0.00196962
0.00196982
0.00197002
0.00197022
0.00197042
0.00197061
0.00197081
0.001971
0.0019712
0.00197139
0.00197158
0.00197177
0.00197196
0.00197215
0.00197233
0.00197252
0.0019727
0.00197288
0.00197307
0.00197325
0.00197343
0.0019736
0.00197378
0.00197396
0.00197413
0.0019743
0.00197448
0
0

