-14930.3
-0.0221924
-0.00760968
-0.00336254
-0.00141458
-0.000313338
0.00038139
0.000852175
0.00118962
0.00144349
0.00164277
0.00180509
0.00194119
0.00205727
0.00215621
0.00223862
0.00230374
0.00235032
0.00237714
0.00238337
0.00236872
0.00233339
0.00227802
0.00220358
0.00211122
0.00200226
0.00187805
0.00173998
0.0015894
0.00142762
0.00125591
0.00107546
0.000887379
0.000692726
0.00049248
0.000287551
7.87846e-05
-0.000133039
-0.000347199
-0.000563032
-0.000779928
-0.000997332
-0.00121473
-0.00143167
-0.00164771
-0.00186249
-0.00207565
-0.00228687
-0.00249589
-0.00270244
-0.00290631
-0.0031073
-0.00330522
-0.00349993
-0.00369129
-0.00387919
-0.00406352
-0.0042442
-0.00442117
-0.00459436
-0.00476372
-0.00492923
-0.00509086
-0.00524858
-0.00540241
-0.00555233
-0.00569834
-0.00584047
-0.00597873
-0.00611314
-0.00624374
-0.00637055
-0.00649361
-0.00661296
-0.00672863
-0.00684066
-0.00694911
-0.00705401
-0.00715541
-0.00725337
-0.00734793
-0.00743915
-0.00752707
-0.00761174
-0.00769323
-0.00777159
-0.00784686
-0.00791911
-0.00798838
-0.00805473
-0.00811822
-0.00817889
-0.0082368
-0.00829201
-0.00834456
-0.00839451
-0.0084419
-0.0084868
-0.00852924
-0.00856928
-0.00860697
-0.00864236
-0.00867548
-0.0087064
-0.00873516
-0.0087618
-0.00878636
-0.0088089
-0.00882945
-0.00884806
-0.00886477
-0.00887962
-0.00889265
-0.00890391
-0.00891343
-0.00892124
-0.0089274
-0.00893193
-0.00893487
-0.00893626
-0.00893613
-0.00893453
-0.00893147
-0.00892699
-0.00892114
-0.00891393
-0.00890541
-0.0088956
-0.00888453
-0.00887223
-0.00885873
-0.00884406
-0.00882825
-0.00881133
-0.00879332
-0.00877424
-0.00875413
-0.00873301
-0.00871091
-0.00868784
-0.00866384
-0.00863893
-0.00861312
-0.00858645
-0.00855893
-0.00853059
-0.00850145
-0.00847153
-0.00844084
-0.00840941
-0.00837727
-0.00834442
-0.00831088
-0.00827669
-0.00824185
-0.00820637
-0.00817029
-0.00813362
-0.00809637
-0.00805855
-0.0080202
-0.00798131
-0.00794191
-0.00790202
-0.00786164
-0.0078208
-0.0077795
-0.00773776
-0.0076956
-0.00765302
-0.00761005
-0.00756669
-0.00752295
-0.00747886
-0.00743442
-0.00738964
-0.00734454
-0.00729912
-0.00725341
-0.0072074
-0.00716111
-0.00711456
-0.00706775
-0.00702069
-0.00697339
-0.00692586
-0.00687812
-0.00683017
-0.00678202
-0.00673367
-0.00668515
-0.00663645
-0.00658759
-0.00653858
-0.00648942
-0.00644012
-0.00639069
-0.00634113
-0.00629146
-0.00624168
-0.0061918
-0.00614183
-0.00609177
-0.00604163
-0.00599141
-0.00594113
-0.00589079
-0.0058404
-0.00578996
-0.00573948
-0.00568896
-0.00563842
-0.00558785
-0.00553727
-0.00548667
-0.00543607
-0.00538548
-0.00533488
-0.00528429
-0.00523372
-0.00518317
-0.00513264
-0.00508213
-0.00503166
-0.00498123
-0.00493084
-0.00488049
-0.00483019
-0.00477995
-0.00472976
-0.00467964
-0.00462958
-0.00457959
-0.00452967
-0.00447983
-0.00443006
-0.00438038
-0.00433079
-0.00428129
-0.00423187
-0.00418256
-0.00413334
-0.00408423
-0.00403522
-0.00398632
-0.00393752
-0.00388884
-0.00384028
-0.00379184
-0.00374351
-0.00369531
-0.00364723
-0.00359929
-0.00355147
-0.00350378
-0.00345623
-0.00340882
-0.00336154
-0.0033144
-0.00326741
-0.00322056
-0.00317386
-0.0031273
-0.00308089
-0.00303464
-0.00298854
-0.00294259
-0.0028968
-0.00285116
-0.00280569
-0.00276037
-0.00271522
-0.00267023
-0.0026254
-0.00258074
-0.00253625
-0.00249192
-0.00244777
-0.00240378
-0.00235996
-0.00231632
-0.00227284
-0.00222955
-0.00218642
-0.00214348
-0.0021007
-0.00205811
-0.00201569
-0.00197346
-0.0019314
-0.00188952
-0.00184782
-0.00180631
-0.00176497
-0.00172382
-0.00168285
-0.00164206
-0.00160146
-0.00156104
-0.00152081
-0.00148076
-0.0014409
-0.00140122
-0.00136173
-0.00132242
-0.0012833
-0.00124437
-0.00120563
-0.00116707
-0.0011287
-0.00109051
-0.00105252
-0.00101471
-0.000977089
-0.000939656
-0.000902411
-0.000865354
-0.000828484
-0.000791803
-0.000755309
-0.000719003
-0.000682885
-0.000646954
-0.00061121
-0.000575655
-0.000540286
-0.000505104
-0.000470109
-0.000435301
-0.00040068
-0.000366245
-0.000331996
-0.000297933
-0.000264055
-0.000230363
-0.000196855
-0.000163533
-0.000130396
-9.74413e-05
-6.46711e-05
-3.2085e-05
3.18541e-07
3.25395e-05
6.4577e-05
9.64334e-05
0.000128108
0.000159601
0.000190914
0.000222046
0.000252999
0.000283772
0.000314366
0.00034478
0.000375017
0.000405077
0.000434959
0.000464665
0.000494194
0.000523548
0.000552727
0.00058173
0.00061056
0.000639217
0.000667701
0.000696011
0.00072415
0.000752118
0.000779915
0.000807541
0.000834998
0.000862285
0.000889404
0.000916356
0.00094314
0.000969758
0.00099621
0.0010225
0.00104862
0.00107458
0.00110037
0.001126
0.00115147
0.00117678
0.00120192
0.00122691
0.00125174
0.0012764
0.00130091
0.00132526
0.00134946
0.0013735
0.00139738
0.00142111
0.00144468
0.0014681
0.00149136
0.00151448
0.00153744
0.00156025
0.00158291
0.00160543
0.00162779
0.00165
0.00167207
0.00169399
0.00171577
0.00173739
0.00175888
0.00178022
0.00180141
0.00182247
0.00184338
0.00186415
0.00188478
0.00190527
0.00192562
0.00194584
0.00196591
0.00198585
0.00200565
0.00202532
0.00204485
0.00206424
0.00208351
0.00210264
0.00212164
0.0021405
0.00215924
0.00217785
0.00219632
0.00221467
0.00223289
0.00225098
0.00226895
0.00228679
0.0023045
0.00232209
0.00233956
0.0023569
0.00237413
0.00239123
0.0024082
0.00242506
0.0024418
0.00245842
0.00247492
0.0024913
0.00250757
0.00252372
0.00253975
0.00255567
0.00257148
0.00258717
0.00260275
0.00261821
0.00263357
0.00264881
0.00266394
0.00267897
0.00269388
0.00270869
0.00272339
0.00273798
0.00275246
0.00276684
0.00278112
0.00279529
0.00280935
0.00282332
0.00283718
0.00285094
0.00286459
0.00287815
0.00289161
0.00290496
0.00291822
0.00293138
0.00294444
0.00295741
0.00297028
0.00298305
0.00299573
0.00300831
0.0030208
0.0030332
0.0030455
0.00305772
0.00306984
0.00308187
0.0030938
0.00310565
0.00311742
0.00312909
0.00314067
0.00315217
0.00316358
0.0031749
0.00318614
0.00319729
0.00320836
0.00321935
0.00323025
0.00324107
0.0032518
0.00326246
0.00327303
0.00328352
0.00329393
0.00330427
0.00331452
0.0033247
0.00333479
0.00334481
0.00335475
0.00336462
0.00337441
0.00338413
0.00339377
0.00340333
0.00341282
0.00342224
0.00343159
0.00344086
0.00345006
0.00345919
0.00346825
0.00347724
0.00348616
0.00349501
0.00350379
0.00351251
0.00352115
0.00352973
0.00353824
0.00354669
0.00355507
0.00356338
0.00357163
0.00357981
0.00358793
0.00359599
0.00360398
0.00361191
0.00361978
0.00362759
0.00363533
0.00364301
0.00365064
0.0036582
0.0036657
0.00367315
0.00368053
0.00368786
0.00369513
0.00370234
0.00370949
0.00371659
0.00372363
0.00373062
0.00373755
0.00374442
0.00375124
0.00375801
0.00376472
0.00377138
0.00377799
0.00378454
0.00379104
0.00379749
0.00380389
0.00381024
0.00381653
0.00382278
0.00382897
0.00383512
0.00384122
0.00384727
0.00385327
0.00385922
0.00386512
0.00387098
0.00387678
0.00388255
0.00388826
0.00389393
0.00389956
0.00390514
0.00391067
0.00391616
0.00392161
0.00392701
0.00393236
0.00393768
0.00394295
0.00394818
0.00395337
0.00395851
0.00396361
0.00396868
0.0039737
0.00397868
0.00398362
0.00398852
0.00399338
0.0039982
0.00400298
0.00400772
0.00401243
0.0040171
0.00402172
0.00402631
0.00403087
0.00403538
0.00403986
0.00404431
0.00404871
0.00405308
0.00405742
0.00406172
0.00406598
0.00407022
0.00407441
0.00407857
0.0040827
0.00408679
0.00409085
0.00409488
0.00409887
0.00410284
0.00410676
0.00411066
0.00411453
0.00411836
0.00412216
0.00412593
0.00412967
0.00413338
0.00413706
0.00414071
0.00414433
0.00414792
0.00415148
0.00415501
0.00415851
0.00416198
0.00416543
0.00416884
0.00417223
0.00417559
0.00417892
0.00418223
0.0041855
0.00418875
0.00419198
0.00419517
0.00419835
0.00420149
0.00420461
0.0042077
0.00421077
0.00421381
0.00421683
0.00421982
0.00422279
0.00422573
0.00422865
0.00423155
0.00423442
0.00423727
0.00424009
0.00424289
0.00424567
0.00424842
0.00425115
0.00425386
0.00425655
0.00425921
0.00426186
0.00426448
0.00426708
0.00426965
0.00427221
0.00427474
0.00427726
0.00427975
0.00428222
0.00428468
0.00428711
0.00428952
0.00429191
0.00429429
0.00429664
0.00429897
0.00430128
0.00430358
0.00430585
0.00430811
0.00431035
0.00431257
0.00431477
0.00431695
0.00431912
0.00432126
0.00432339
0.0043255
0.0043276
0.00432968
0.00433173
0.00433378
0.0043358
0.00433781
0.0043398
0.00434178
0.00434374
0.00434568
0.00434761
0.00434952
0.00435141
0.00435329
0.00435516
0.00435701
0.00435884
0.00436066
0.00436246
0.00436425
0.00436602
0.00436778
0.00436952
0.00437125
0.00437297
0.00437467
0.00437636
0.00437803
0.00437969
0.00438133
0.00438297
0.00438458
0.00438619
0.00438778
0.00438936
0.00439092
0.00439248
0.00439402
0.00439554
0.00439706
0.00439856
0.00440005
0.00440153
0.00440299
0.00440444
0.00440589
0.00440731
0.00440873
0.00441014
0.00441153
0.00441291
0.00441428
0.00441564
0.00441699
0.00441833
0.00441966
0.00442097
0.00442228
0.00442357
0.00442485
0.00442613
0.00442739
0.00442864
0.00442988
0.00443111
0.00443233
0.00443355
0.00443475
0.00443594
0.00443712
0.00443829
0.00443945
0.00444061
0.00444175
0.00444288
0.00444401
0.00444512
0.00444623
0.00444733
0.00444841
0.00444949
0.00445056
0.00445163
0.00445268
0.00445372
0.00445476
0.00445579
0.0044568
0.00445782
0.00445882
0.00445981
0.0044608
0.00446178
0.00446275
0.00446371
0.00446466
0.00446561
0.00446655
0.00446748
0.0044684
0.00446932
0.00447023
0.00447113
0.00447202
0.00447291
0.00447379
0.00447466
0.00447553
0.00447639
0.00447724
0.00447808
0.00447892
0.00447975
0.00448057
0.00448139
0.0044822
0.00448301
0.0044838
0.0044846
0.00448538
0.00448616
0.00448693
0.0044877
0.00448846
0.00448921
0.00448996
0.0044907
0.00449144
0.00449217
0.00449289
0.00449361
0.00449432
0.00449503
0.00449573
0.00449643
0.00449712
0.0044978
0.00449848
0.00449916
0.00449982
0.00450049
0.00450114
0.0045018
0.00450244
0.00450309
0.00450372
0.00450436
0.00450498
0.0045056
0.00450622
0.00450683
0.00450744
0.00450804
0.00450864
0.00450923
0.00450982
0.00451041
0.00451099
0.00451156
0.00451213
0.0045127
0.00451326
0.00451381
0.00451437
0.00451491
0.00451546
0.004516
0.00451653
0.00451706
0.00451759
0.00451811
0.00451863
0.00451915
0.00451966
0.00452016
0.00452067
0.00452117
0.00452166
0.00452215
0.00452264
0.00452312
0.0045236
0.00452408
0.00452455
0.00452502
0.00452548
0.00452595
0.0045264
0.00452686
0.00452731
0.00452776
0.0045282
0.00452864
0.00452908
0.00452951
0.00452994
0.00453037
0.00453079
0.00453121
0.00453163
0.00453205
0.00453246
0.00453287
0.00453327
0.00453367
0.00453407
0.00453447
0.00453486
0.00453525
0.00453564
0.00453602
0.0045364
0.00453678
0.00453716
0.00453753
0.0045379
0.00453827
0.00453863
0.00453899
0.00453935
0.00453971
0.00454006
0.00454041
0.00454076
0.0045411
0.00454145
0.00454179
0.00454213
0.00454246
0.0045428
0.00454313
0.00454345
0.00454378
0.0045441
0.00454442
0.00454474
0.00454506
0.00454537
0.00454568
0.00454599
0.0045463
0.00454661
0.00454691
0.00454721
0.00454751
0.0045478
0.0045481
0.00454839
0.00454868
0.00454897
0.00454925
0.00454954
0.00454982
0.0045501
0.00455037
0.00455065
0.00455092
0.00455119
0.00455146
0.00455173
0.004552
0.00455226
0.00455252
0.00455278
0.00455304
0.0045533
0.00455355
0.0045538
0.00455406
0.0045543
0.00455455
0.0045548
0.00455504
0.00455528
0.00455553
0.00455576
0.004556
0.00455624
0.00455647
0.0045567
0.00455693
0.00455716
0.00455739
0.00455762
0.00455784
0.00455806
0.00455828
0.0045585
0.00455872
0.00455894
0.00455916
0.00455937
0.00455958
0.00455979
0.00456
0.00456021
0
0

