-14930.3
-0.0225614
-0.00870319
-0.00488374
-0.00319222
-0.00225201
-0.00166265
-0.00126345
-0.000976405
-0.000759287
-0.000587709
-0.000446966
-0.000328546
-0.000229006
-0.000149389
-9.41713e-05
-6.96941e-05
-8.25487e-05
-0.000138319
-0.000240856
-0.000392028
-0.000591785
-0.000838385
-0.00112865
-0.00145826
-0.00182198
-0.00221402
-0.00262826
-0.00305855
-0.00349892
-0.00394381
-0.00438817
-0.00482755
-0.00525811
-0.00567667
-0.00608061
-0.00646789
-0.00683695
-0.00718668
-0.00751635
-0.00782558
-0.00811423
-0.00838242
-0.00863044
-0.00885875
-0.00906793
-0.00925862
-0.00943156
-0.00958754
-0.00972736
-0.00985184
-0.00996182
-0.0100581
-0.0101416
-0.0102129
-0.010273
-0.0103225
-0.0103621
-0.0103926
-0.0104146
-0.0104287
-0.0104355
-0.0104355
-0.0104293
-0.0104173
-0.0104
-0.0103779
-0.0103513
-0.0103205
-0.0102861
-0.0102482
-0.0102072
-0.0101633
-0.0101169
-0.0100681
-0.0100172
-0.00996432
-0.00990974
-0.00985361
-0.00979608
-0.0097373
-0.00967741
-0.00961654
-0.00955481
-0.00949231
-0.00942915
-0.00936542
-0.0093012
-0.00923656
-0.00917159
-0.00910634
-0.00904087
-0.00897523
-0.00890948
-0.00884365
-0.00877779
-0.00871195
-0.00864614
-0.00858041
-0.00851477
-0.00844927
-0.00838392
-0.00831874
-0.00825375
-0.00818897
-0.00812442
-0.00806011
-0.00799605
-0.00793226
-0.00786874
-0.00780551
-0.00774257
-0.00767994
-0.00761761
-0.0075556
-0.00749391
-0.00743254
-0.00737151
-0.0073108
-0.00725043
-0.0071904
-0.00713072
-0.00707137
-0.00701236
-0.00695371
-0.0068954
-0.00683743
-0.00677981
-0.00672254
-0.00666562
-0.00660904
-0.00655281
-0.00649693
-0.00644139
-0.0063862
-0.00633135
-0.00627684
-0.00622268
-0.00616885
-0.00611537
-0.00606222
-0.00600941
-0.00595694
-0.0059048
-0.00585299
-0.00580151
-0.00575036
-0.00569954
-0.00564904
-0.00559887
-0.00554902
-0.00549949
-0.00545028
-0.00540139
-0.00535281
-0.00530455
-0.00525659
-0.00520895
-0.00516162
-0.00511459
-0.00506787
-0.00502144
-0.00497532
-0.0049295
-0.00488398
-0.00483875
-0.00479381
-0.00474917
-0.00470482
-0.00466075
-0.00461697
-0.00457348
-0.00453027
-0.00448734
-0.00444469
-0.00440231
-0.00436022
-0.00431839
-0.00427684
-0.00423556
-0.00419455
-0.00415381
-0.00411333
-0.00407311
-0.00403316
-0.00399347
-0.00395404
-0.00391486
-0.00387594
-0.00383727
-0.00379886
-0.0037607
-0.00372278
-0.00368512
-0.0036477
-0.00361052
-0.00357359
-0.00353689
-0.00350044
-0.00346423
-0.00342825
-0.00339251
-0.003357
-0.00332172
-0.00328667
-0.00325186
-0.00321727
-0.0031829
-0.00314876
-0.00311485
-0.00308115
-0.00304768
-0.00301442
-0.00298139
-0.00294857
-0.00291596
-0.00288357
-0.00285139
-0.00281942
-0.00278766
-0.0027561
-0.00272476
-0.00269362
-0.00266268
-0.00263195
-0.00260141
-0.00257108
-0.00254095
-0.00251101
-0.00248127
-0.00245172
-0.00242237
-0.00239321
-0.00236424
-0.00233546
-0.00230687
-0.00227847
-0.00225025
-0.00222222
-0.00219437
-0.00216671
-0.00213923
-0.00211192
-0.0020848
-0.00205785
-0.00203108
-0.00200449
-0.00197807
-0.00195182
-0.00192575
-0.00189985
-0.00187412
-0.00184855
-0.00182316
-0.00179793
-0.00177287
-0.00174797
-0.00172323
-0.00169866
-0.00167425
-0.00165
-0.00162591
-0.00160198
-0.0015782
-0.00155458
-0.00153112
-0.00150781
-0.00148465
-0.00146165
-0.00143879
-0.00141609
-0.00139354
-0.00137113
-0.00134887
-0.00132676
-0.00130479
-0.00128297
-0.0012613
-0.00123976
-0.00121837
-0.00119711
-0.001176
-0.00115503
-0.00113419
-0.00111349
-0.00109293
-0.0010725
-0.00105221
-0.00103205
-0.00101202
-0.000992126
-0.000972362
-0.000952728
-0.000933224
-0.000913848
-0.0008946
-0.000875478
-0.000856483
-0.000837612
-0.000818866
-0.000800244
-0.000781744
-0.000763366
-0.00074511
-0.000726973
-0.000708956
-0.000691058
-0.000673278
-0.000655615
-0.000638069
-0.000620637
-0.000603322
-0.00058612
-0.000569032
-0.000552056
-0.000535192
-0.00051844
-0.000501798
-0.000485266
-0.000468843
-0.000452528
-0.000436321
-0.000420221
-0.000404226
-0.000388338
-0.000372555
-0.000356876
-0.000341299
-0.000325826
-0.000310455
-0.000295186
-0.000280017
-0.000264948
-0.000249979
-0.000235109
-0.000220337
-0.000205662
-0.000191084
-0.000176603
-0.000162217
-0.000147926
-0.00013373
-0.000119627
-0.000105618
-9.17007e-05
-7.78761e-05
-6.41418e-05
-5.04991e-05
-3.69466e-05
-2.3483e-05
-1.01089e-05
3.17711e-06
1.63757e-05
2.94862e-05
4.25107e-05
5.54492e-05
6.83018e-05
8.10698e-05
9.37532e-05
0.000106353
0.000118869
0.000131303
0.000143654
0.000155923
0.000168112
0.00018022
0.000192248
0.000204197
0.000216066
0.000227857
0.000239569
0.000251205
0.000262763
0.000274246
0.000285652
0.000296982
0.000308238
0.00031942
0.000330527
0.000341561
0.000352522
0.00036341
0.000374226
0.000384971
0.000395645
0.000406248
0.000416781
0.000427244
0.000437638
0.000447963
0.00045822
0.000468409
0.00047853
0.000488585
0.000498573
0.000508495
0.000518352
0.000528142
0.000537868
0.000547531
0.000557128
0.000566662
0.000576134
0.000585542
0.000594888
0.000604173
0.000613396
0.000622558
0.000631658
0.000640699
0.00064968
0.000658602
0.000667465
0.000676268
0.000685013
0.0006937
0.000702329
0.000710902
0.000719417
0.000727876
0.000736279
0.000744626
0.000752918
0.000761156
0.000769339
0.000777467
0.000785542
0.000793562
0.00080153
0.000809446
0.000817308
0.00082512
0.000832878
0.000840586
0.000848242
0.000855848
0.000863404
0.000870909
0.000878364
0.000885771
0.000893128
0.000900436
0.000907697
0.000914908
0.000922073
0.000929189
0.000936259
0.000943282
0.000950258
0.000957188
0.000964072
0.00097091
0.000977703
0.000984451
0.000991155
0.000997813
0.00100443
0.001011
0.00101753
0.00102401
0.00103045
0.00103685
0.00104321
0.00104952
0.00105579
0.00106202
0.00106821
0.00107436
0.00108047
0.00108654
0.00109256
0.00109855
0.0011045
0.0011104
0.00111627
0.0011221
0.00112789
0.00113365
0.00113936
0.00114504
0.00115068
0.00115628
0.00116184
0.00116737
0.00117286
0.00117832
0.00118374
0.00118912
0.00119447
0.00119978
0.00120505
0.0012103
0.0012155
0.00122067
0.00122581
0.00123092
0.00123599
0.00124102
0.00124603
0.001251
0.00125593
0.00126084
0.00126571
0.00127055
0.00127536
0.00128013
0.00128487
0.00128959
0.00129427
0.00129892
0.00130354
0.00130813
0.00131268
0.00131721
0.00132171
0.00132618
0.00133062
0.00133503
0.00133941
0.00134376
0.00134808
0.00135237
0.00135664
0.00136088
0.00136509
0.00136927
0.00137342
0.00137754
0.00138164
0.00138571
0.00138976
0.00139378
0.00139777
0.00140173
0.00140567
0.00140958
0.00141347
0.00141733
0.00142116
0.00142497
0.00142876
0.00143252
0.00143625
0.00143996
0.00144364
0.0014473
0.00145094
0.00145455
0.00145814
0.00146171
0.00146525
0.00146876
0.00147226
0.00147573
0.00147918
0.0014826
0.001486
0.00148938
0.00149274
0.00149608
0.00149939
0.00150268
0.00150595
0.0015092
0.00151243
0.00151563
0.00151881
0.00152198
0.00152512
0.00152824
0.00153134
0.00153442
0.00153748
0.00154052
0.00154354
0.00154654
0.00154952
0.00155247
0.00155541
0.00155833
0.00156124
0.00156412
0.00156698
0.00156982
0.00157265
0.00157546
0.00157824
0.00158101
0.00158376
0.0015865
0.00158921
0.00159191
0.00159459
0.00159725
0.00159989
0.00160252
0.00160513
0.00160772
0.00161029
0.00161285
0.00161539
0.00161791
0.00162042
0.00162291
0.00162539
0.00162784
0.00163029
0.00163271
0.00163512
0.00163751
0.00163989
0.00164225
0.0016446
0.00164693
0.00164924
0.00165154
0.00165383
0.0016561
0.00165835
0.00166059
0.00166282
0.00166503
0.00166722
0.0016694
0.00167157
0.00167372
0.00167586
0.00167798
0.00168009
0.00168219
0.00168427
0.00168634
0.0016884
0.00169044
0.00169246
0.00169448
0.00169648
0.00169847
0.00170044
0.0017024
0.00170435
0.00170629
0.00170821
0.00171012
0.00171202
0.0017139
0.00171578
0.00171764
0.00171949
0.00172132
0.00172315
0.00172496
0.00172676
0.00172855
0.00173032
0.00173209
0.00173384
0.00173558
0.00173731
0.00173903
0.00174073
0.00174243
0.00174411
0.00174579
0.00174745
0.0017491
0.00175074
0.00175237
0.00175399
0.0017556
0.0017572
0.00175879
0.00176036
0.00176193
0.00176348
0.00176503
0.00176657
0.00176809
0.00176961
0.00177111
0.00177261
0.00177409
0.00177557
0.00177704
0.00177849
0.00177994
0.00178138
0.00178281
0.00178422
0.00178563
0.00178703
0.00178842
0.00178981
0.00179118
0.00179254
0.0017939
0.00179524
0.00179658
0.00179791
0.00179923
0.00180054
0.00180184
0.00180313
0.00180442
0.00180569
0.00180696
0.00180822
0.00180947
0.00181072
0.00181195
0.00181318
0.0018144
0.00181561
0.00181681
0.001818
0.00181919
0.00182037
0.00182154
0.00182271
0.00182386
0.00182501
0.00182615
0.00182729
0.00182841
0.00182953
0.00183064
0.00183175
0.00183284
0.00183393
0.00183502
0.00183609
0.00183716
0.00183822
0.00183928
0.00184032
0.00184136
0.0018424
0.00184343
0.00184445
0.00184546
0.00184647
0.00184747
0.00184846
0.00184945
0.00185043
0.0018514
0.00185237
0.00185333
0.00185429
0.00185524
0.00185618
0.00185712
0.00185805
0.00185897
0.00185989
0.0018608
0.00186171
0.00186261
0.00186351
0.00186439
0.00186528
0.00186615
0.00186703
0.00186789
0.00186875
0.00186961
0.00187046
0.0018713
0.00187214
0.00187297
0.0018738
0.00187462
0.00187543
0.00187624
0.00187705
0.00187785
0.00187865
0.00187944
0.00188022
0.001881
0.00188177
0.00188254
0.00188331
0.00188407
0.00188482
0.00188557
0.00188632
0.00188706
0.00188779
0.00188852
0.00188925
0.00188997
0.00189068
0.00189139
0.0018921
0.0018928
0.0018935
0.00189419
0.00189488
0.00189557
0.00189625
0.00189692
0.00189759
0.00189826
0.00189892
0.00189958
0.00190023
0.00190088
0.00190153
0.00190217
0.0019028
0.00190344
0.00190406
0.00190469
0.00190531
0.00190592
0.00190654
0.00190714
0.00190775
0.00190835
0.00190895
0.00190954
0.00191013
0.00191071
0.00191129
0.00191187
0.00191244
0.00191301
0.00191358
0.00191414
0.0019147
0.00191526
0.00191581
0.00191636
0.0019169
0.00191744
0.00191798
0.00191851
0.00191904
0.00191957
0.00192009
0.00192061
0.00192113
0.00192164
0.00192215
0.00192266
0.00192316
0.00192366
0.00192416
0.00192466
0.00192515
0.00192563
0.00192612
0.0019266
0.00192708
0.00192755
0.00192802
0.00192849
0.00192896
0.00192942
0.00192988
0.00193034
0.00193079
0.00193124
0.00193169
0.00193214
0.00193258
0.00193302
0.00193346
0.00193389
0.00193432
0.00193475
0.00193517
0.0019356
0.00193602
0.00193643
0.00193685
0.00193726
0.00193767
0.00193808
0.00193848
0.00193888
0.00193928
0.00193968
0.00194007
0.00194046
0.00194085
0.00194124
0.00194162
0.001942
0.00194238
0.00194276
0.00194313
0.0019435
0.00194387
0.00194424
0.0019446
0.00194497
0.00194533
0.00194568
0.00194604
0.00194639
0.00194674
0.00194709
0.00194744
0.00194778
0.00194812
0.00194846
0.0019488
0.00194914
0.00194947
0.0019498
0.00195013
0.00195045
0.00195078
0.0019511
0.00195142
0.00195174
0.00195206
0.00195237
0.00195268
0.001953
0.0019533
0.00195361
0.00195391
0.00195422
0.00195452
0.00195482
0.00195511
0.00195541
0.0019557
0.00195599
0.00195628
0.00195657
0.00195685
0.00195714
0.00195742
0.0019577
0.00195798
0.00195826
0.00195853
0.0019588
0.00195908
0.00195934
0.00195961
0.00195988
0.00196014
0.00196041
0.00196067
0.00196093
0.00196118
0.00196144
0.0019617
0.00196195
0.0019622
0.00196245
0.0019627
0.00196295
0.00196319
0.00196343
0.00196368
0.00196392
0.00196416
0.00196439
0.00196463
0.00196486
0.0019651
0.00196533
0.00196556
0.00196579
0.00196601
0.00196624
0.00196646
0.00196669
0.00196691
0.00196713
0.00196735
0.00196756
0.00196778
0.00196799
0.00196821
0.00196842
0.00196863
0.00196884
0.00196905
0.00196925
0.00196946
0.00196966
0.00196987
0.00197007
0.00197027
0.00197047
0.00197066
0.00197086
0.00197106
0.00197125
0.00197144
0.00197163
0.00197182
0.00197201
0.0019722
0
0

