-14930.3
-0.0225614
-0.00870319
-0.00488374
-0.00319222
-0.00225201
-0.00166265
-0.00126345
-0.000976405
-0.000759287
-0.000587709
-0.000446966
-0.000335986
-0.000269655
-0.000271774
-0.00036406
-0.000558494
-0.000855358
-0.00124533
-0.00171315
-0.00224103
-0.00281119
-0.00340733
-0.00401535
-0.00462356
-0.00522257
-0.00580505
-0.00636545
-0.0068997
-0.00740497
-0.00787942
-0.008322
-0.00873231
-0.00911043
-0.00945684
-0.00977233
-0.0100579
-0.0103147
-0.0105441
-0.0107474
-0.010926
-0.0110814
-0.0112151
-0.0113283
-0.0114226
-0.0114993
-0.0115596
-0.0116049
-0.0116363
-0.011655
-0.0116621
-0.0116585
-0.0116452
-0.0116231
-0.0115931
-0.0115559
-0.0115122
-0.0114628
-0.0114081
-0.0113488
-0.0112855
-0.0112185
-0.0111483
-0.0110754
-0.0110001
-0.0109226
-0.0108434
-0.0107627
-0.0106807
-0.0105977
-0.0105139
-0.0104294
-0.0103444
-0.0102591
-0.0101736
-0.0100879
-0.0100023
-0.00991676
-0.0098314
-0.00974628
-0.00966147
-0.00957703
-0.00949299
-0.00940941
-0.00932631
-0.00924373
-0.00916169
-0.00908021
-0.00899931
-0.00891901
-0.00883932
-0.00876024
-0.00868178
-0.00860395
-0.00852675
-0.00845019
-0.00837425
-0.00829895
-0.00822428
-0.00815023
-0.00807681
-0.008004
-0.00793181
-0.00786023
-0.00778925
-0.00771886
-0.00764907
-0.00757987
-0.00751124
-0.00744318
-0.00737569
-0.00730876
-0.00724238
-0.00717655
-0.00711125
-0.00704649
-0.00698225
-0.00691854
-0.00685533
-0.00679264
-0.00673044
-0.00666874
-0.00660752
-0.0065468
-0.00648654
-0.00642676
-0.00636745
-0.0063086
-0.0062502
-0.00619225
-0.00613475
-0.00607769
-0.00602107
-0.00596488
-0.00590911
-0.00585377
-0.00579884
-0.00574433
-0.00569022
-0.00563652
-0.00558323
-0.00553033
-0.00547782
-0.0054257
-0.00537397
-0.00532262
-0.00527165
-0.00522105
-0.00517083
-0.00512097
-0.00507148
-0.00502234
-0.00497357
-0.00492515
-0.00487709
-0.00482937
-0.004782
-0.00473497
-0.00468829
-0.00464194
-0.00459592
-0.00455024
-0.00450488
-0.00445985
-0.00441514
-0.00437076
-0.00432669
-0.00428294
-0.0042395
-0.00419637
-0.00415355
-0.00411104
-0.00406883
-0.00402692
-0.00398531
-0.00394399
-0.00390297
-0.00386224
-0.0038218
-0.00378165
-0.00374178
-0.0037022
-0.00366289
-0.00362387
-0.00358512
-0.00354664
-0.00350844
-0.0034705
-0.00343284
-0.00339544
-0.00335831
-0.00332143
-0.00328482
-0.00324847
-0.00321237
-0.00317653
-0.00314094
-0.00310559
-0.0030705
-0.00303566
-0.00300106
-0.0029667
-0.00293259
-0.00289872
-0.00286508
-0.00283168
-0.00279851
-0.00276558
-0.00273288
-0.00270041
-0.00266816
-0.00263614
-0.00260435
-0.00257278
-0.00254143
-0.0025103
-0.00247939
-0.00244869
-0.00241821
-0.00238794
-0.00235788
-0.00232804
-0.0022984
-0.00226897
-0.00223975
-0.00221073
-0.00218191
-0.00215329
-0.00212488
-0.00209666
-0.00206864
-0.00204081
-0.00201318
-0.00198574
-0.0019585
-0.00193144
-0.00190457
-0.00187789
-0.00185139
-0.00182508
-0.00179895
-0.00177301
-0.00174724
-0.00172166
-0.00169625
-0.00167102
-0.00164596
-0.00162108
-0.00159637
-0.00157184
-0.00154747
-0.00152328
-0.00149925
-0.00147539
-0.00145169
-0.00142816
-0.00140479
-0.00138159
-0.00135854
-0.00133566
-0.00131293
-0.00129036
-0.00126795
-0.0012457
-0.0012236
-0.00120165
-0.00117985
-0.00115821
-0.00113671
-0.00111536
-0.00109417
-0.00107311
-0.00105221
-0.00103145
-0.00101083
-0.000990356
-0.000970022
-0.00094983
-0.000929777
-0.000909863
-0.000890087
-0.000870448
-0.000850944
-0.000831575
-0.00081234
-0.000793237
-0.000774267
-0.000755428
-0.000736719
-0.000718139
-0.000699687
-0.000681364
-0.000663165
-0.000645094
-0.000627146
-0.000609322
-0.000591622
-0.000574043
-0.000556586
-0.000539249
-0.000522032
-0.000504933
-0.000487952
-0.000471088
-0.000454341
-0.000437708
-0.00042119
-0.000404786
-0.000388495
-0.000372317
-0.000356249
-0.000340292
-0.000324445
-0.000308707
-0.000293078
-0.000277555
-0.000262139
-0.00024683
-0.000231626
-0.000216526
-0.000201531
-0.000186638
-0.000171847
-0.000157159
-0.000142571
-0.000128083
-0.000113695
-9.9406e-05
-8.52148e-05
-7.11209e-05
-5.71243e-05
-4.3223e-05
-2.94176e-05
-1.57066e-05
-2.09025e-06
1.14331e-05
2.48633e-05
3.82019e-05
5.14488e-05
6.46048e-05
7.76705e-05
9.06467e-05
0.000103534
0.000116333
0.000129044
0.000141668
0.000154206
0.000166658
0.000179024
0.000191306
0.000203504
0.000215618
0.000227649
0.000239598
0.000251465
0.000263251
0.000274957
0.000286581
0.000298127
0.000309593
0.000320982
0.000332292
0.000343525
0.000354682
0.000365762
0.000376766
0.000387695
0.000398549
0.000409329
0.000420036
0.000430669
0.00044123
0.000451718
0.000462136
0.000472482
0.000482757
0.000492962
0.000503097
0.000513163
0.000523161
0.000533091
0.000542952
0.000552746
0.000562474
0.000572135
0.00058173
0.00059126
0.000600725
0.000610126
0.000619462
0.000628734
0.000637944
0.00064709
0.000656175
0.000665197
0.000674158
0.000683057
0.000691897
0.000700675
0.000709394
0.000718053
0.000726653
0.000735196
0.000743679
0.000752106
0.000760474
0.000768786
0.000777041
0.00078524
0.000793383
0.000801471
0.000809504
0.000817482
0.000825407
0.000833277
0.000841094
0.000848857
0.000856568
0.000864226
0.000871833
0.000879388
0.000886891
0.000894343
0.000901745
0.000909097
0.000916398
0.000923651
0.000930854
0.000938008
0.000945113
0.00095217
0.00095918
0.000966142
0.000973056
0.000979924
0.000986745
0.000993519
0.00100025
0.00100693
0.00101357
0.00102016
0.00102671
0.00103321
0.00103967
0.00104609
0.00105246
0.00105879
0.00106508
0.00107132
0.00107752
0.00108368
0.0010898
0.00109588
0.00110191
0.00110791
0.00111386
0.00111977
0.00112565
0.00113148
0.00113728
0.00114303
0.00114875
0.00115443
0.00116006
0.00116566
0.00117123
0.00117675
0.00118224
0.00118769
0.00119311
0.00119848
0.00120383
0.00120913
0.0012144
0.00121963
0.00122483
0.00122999
0.00123512
0.00124022
0.00124528
0.0012503
0.00125529
0.00126025
0.00126517
0.00127006
0.00127492
0.00127975
0.00128454
0.0012893
0.00129403
0.00129872
0.00130339
0.00130802
0.00131262
0.00131719
0.00132173
0.00132624
0.00133072
0.00133517
0.00133959
0.00134398
0.00134834
0.00135266
0.00135697
0.00136124
0.00136548
0.00136969
0.00137388
0.00137804
0.00138217
0.00138627
0.00139034
0.00139439
0.00139841
0.0014024
0.00140637
0.00141031
0.00141422
0.00141811
0.00142197
0.0014258
0.00142961
0.00143339
0.00143715
0.00144088
0.00144459
0.00144827
0.00145193
0.00145556
0.00145917
0.00146275
0.00146631
0.00146985
0.00147336
0.00147685
0.00148031
0.00148376
0.00148717
0.00149057
0.00149394
0.00149729
0.00150062
0.00150393
0.00150721
0.00151047
0.00151371
0.00151693
0.00152012
0.0015233
0.00152645
0.00152958
0.0015327
0.00153579
0.00153886
0.0015419
0.00154493
0.00154794
0.00155093
0.0015539
0.00155685
0.00155977
0.00156268
0.00156557
0.00156844
0.00157129
0.00157412
0.00157694
0.00157973
0.00158251
0.00158526
0.001588
0.00159072
0.00159342
0.0015961
0.00159877
0.00160142
0.00160405
0.00160666
0.00160925
0.00161183
0.00161439
0.00161694
0.00161946
0.00162197
0.00162446
0.00162694
0.0016294
0.00163184
0.00163427
0.00163668
0.00163907
0.00164145
0.00164381
0.00164616
0.00164849
0.0016508
0.0016531
0.00165539
0.00165766
0.00165991
0.00166215
0.00166437
0.00166658
0.00166878
0.00167096
0.00167312
0.00167527
0.00167741
0.00167953
0.00168164
0.00168373
0.00168581
0.00168788
0.00168993
0.00169197
0.001694
0.00169601
0.00169801
0.00169999
0.00170196
0.00170392
0.00170587
0.0017078
0.00170972
0.00171163
0.00171352
0.0017154
0.00171727
0.00171913
0.00172097
0.0017228
0.00172462
0.00172643
0.00172823
0.00173001
0.00173178
0.00173354
0.00173529
0.00173703
0.00173875
0.00174047
0.00174217
0.00174386
0.00174554
0.00174721
0.00174886
0.00175051
0.00175215
0.00175377
0.00175539
0.00175699
0.00175858
0.00176016
0.00176173
0.0017633
0.00176485
0.00176639
0.00176792
0.00176944
0.00177095
0.00177245
0.00177394
0.00177542
0.00177689
0.00177835
0.0017798
0.00178124
0.00178267
0.00178409
0.00178551
0.00178691
0.0017883
0.00178969
0.00179106
0.00179243
0.00179379
0.00179514
0.00179648
0.00179781
0.00179913
0.00180044
0.00180175
0.00180304
0.00180433
0.00180561
0.00180688
0.00180814
0.00180939
0.00181064
0.00181187
0.0018131
0.00181432
0.00181554
0.00181674
0.00181794
0.00181913
0.00182031
0.00182148
0.00182265
0.0018238
0.00182495
0.0018261
0.00182723
0.00182836
0.00182948
0.00183059
0.0018317
0.00183279
0.00183389
0.00183497
0.00183605
0.00183711
0.00183818
0.00183923
0.00184028
0.00184132
0.00184236
0.00184338
0.0018444
0.00184542
0.00184643
0.00184743
0.00184842
0.00184941
0.00185039
0.00185136
0.00185233
0.00185329
0.00185425
0.0018552
0.00185614
0.00185708
0.00185801
0.00185894
0.00185985
0.00186077
0.00186167
0.00186257
0.00186347
0.00186436
0.00186524
0.00186612
0.00186699
0.00186785
0.00186871
0.00186957
0.00187042
0.00187126
0.0018721
0.00187293
0.00187376
0.00187458
0.00187539
0.0018762
0.00187701
0.00187781
0.0018786
0.00187939
0.00188018
0.00188096
0.00188173
0.0018825
0.00188326
0.00188402
0.00188478
0.00188552
0.00188627
0.00188701
0.00188774
0.00188847
0.0018892
0.00188992
0.00189063
0.00189134
0.00189205
0.00189275
0.00189345
0.00189414
0.00189483
0.00189551
0.00189619
0.00189686
0.00189753
0.0018982
0.00189886
0.00189952
0.00190017
0.00190082
0.00190146
0.0019021
0.00190274
0.00190337
0.001904
0.00190462
0.00190524
0.00190586
0.00190647
0.00190707
0.00190768
0.00190828
0.00190887
0.00190946
0.00191005
0.00191064
0.00191122
0.00191179
0.00191237
0.00191293
0.0019135
0.00191406
0.00191462
0.00191517
0.00191572
0.00191627
0.00191681
0.00191735
0.00191789
0.00191842
0.00191895
0.00191948
0.00192
0.00192052
0.00192104
0.00192155
0.00192206
0.00192257
0.00192307
0.00192357
0.00192406
0.00192456
0.00192505
0.00192553
0.00192602
0.0019265
0.00192698
0.00192745
0.00192792
0.00192839
0.00192885
0.00192932
0.00192977
0.00193023
0.00193068
0.00193113
0.00193158
0.00193203
0.00193247
0.00193291
0.00193334
0.00193378
0.00193421
0.00193463
0.00193506
0.00193548
0.0019359
0.00193631
0.00193673
0.00193714
0.00193755
0.00193795
0.00193836
0.00193876
0.00193916
0.00193955
0.00193995
0.00194034
0.00194072
0.00194111
0.00194149
0.00194187
0.00194225
0.00194263
0.001943
0.00194337
0.00194374
0.0019441
0.00194447
0.00194483
0.00194519
0.00194555
0.0019459
0.00194625
0.0019466
0.00194695
0.0019473
0.00194764
0.00194798
0.00194832
0.00194866
0.00194899
0.00194932
0.00194965
0.00194998
0.00195031
0.00195063
0.00195095
0.00195127
0.00195159
0.00195191
0.00195222
0.00195253
0.00195284
0.00195315
0.00195346
0.00195376
0.00195406
0.00195436
0.00195466
0.00195496
0.00195525
0.00195554
0.00195583
0.00195612
0.00195641
0.00195669
0.00195698
0.00195726
0.00195754
0.00195782
0.00195809
0.00195837
0.00195864
0.00195891
0.00195918
0.00195945
0.00195971
0.00195998
0.00196024
0.0019605
0.00196076
0.00196102
0.00196127
0.00196153
0.00196178
0.00196203
0.00196228
0.00196253
0.00196277
0.00196302
0.00196326
0.0019635
0.00196374
0.00196398
0.00196422
0.00196445
0.00196469
0.00196492
0.00196515
0.00196538
0.00196561
0.00196584
0.00196606
0.00196628
0.00196651
0.00196673
0.00196695
0.00196717
0.00196738
0.0019676
0.00196781
0.00196803
0.00196824
0.00196845
0.00196866
0.00196886
0.00196907
0.00196928
0.00196948
0.00196968
0.00196988
0.00197008
0.00197028
0.00197048
0.00197067
0.00197087
0.00197106
0.00197126
0.00197145
0.00197164
0.00197183
0.00197201
0.0019722
0.00197238
0.00197257
0.00197275
0.00197293
0.00197312
0.00197329
0.00197347
0.00197365
0.00197383
0.001974
0.00197418
0.00197435
0.00197452
0.00197469
0.00197486
0.00197503
0.0019752
0.00197536
0.00197553
0
0

