-14930.3
-0.0222844
-0.00732297
-0.00273103
-0.000498033
0.000835757
0.00172032
0.00234637
0.00281073
0.00316783
0.00345024
0.00367834
0.00386533
0.00402008
0.00414877
0.00425581
0.00434448
0.00441732
0.00447631
0.00452306
0.00455892
0.004585
0.00460229
0.0046116
0.00461368
0.00460917
0.00459865
0.00458262
0.00456154
0.00453582
0.00450584
0.00447191
0.00443436
0.00439345
0.00434943
0.00430254
0.00425298
0.00420095
0.00414663
0.00409019
0.00403177
0.00397152
0.00390957
0.00384604
0.00378104
0.00371468
0.00364707
0.00357828
0.00350842
0.00343755
0.00336577
0.00329314
0.00321972
0.00314559
0.00307081
0.00299543
0.0029195
0.00284308
0.00276622
0.00268895
0.00261133
0.0025334
0.00245519
0.00237674
0.00229809
0.00221928
0.00214033
0.00206128
0.00198215
0.00190298
0.00182379
0.00174461
0.00166547
0.00158638
0.00150737
0.00142846
0.00134968
0.00127104
0.00119256
0.00111426
0.00103616
0.00095827
0.000880609
0.000803194
0.000726039
0.000649161
0.000572573
0.00049629
0.000420324
0.000344688
0.000269394
0.000194455
0.00011988
4.56791e-05
-2.81357e-05
-0.000101557
-0.000174574
-0.000247178
-0.000319361
-0.000391117
-0.000462439
-0.000533318
-0.000603749
-0.000673724
-0.000743236
-0.000812281
-0.000880854
-0.000948951
-0.00101656
-0.00108369
-0.00115031
-0.00121644
-0.00128207
-0.00134719
-0.00141179
-0.00147588
-0.00153945
-0.0016025
-0.00166502
-0.00172702
-0.00178848
-0.00184942
-0.00190981
-0.00196968
-0.002029
-0.00208778
-0.00214603
-0.00220373
-0.00226088
-0.0023175
-0.00237356
-0.00242908
-0.00248406
-0.00253848
-0.00259235
-0.00264568
-0.00269845
-0.00275067
-0.00280234
-0.00285347
-0.00290404
-0.00295406
-0.00300353
-0.00305245
-0.00310082
-0.00314864
-0.00319592
-0.00324264
-0.00328883
-0.00333446
-0.00337955
-0.0034241
-0.00346811
-0.00351157
-0.00355449
-0.00359688
-0.00363873
-0.00368004
-0.00372082
-0.00376107
-0.00380079
-0.00383998
-0.00387864
-0.00391678
-0.00395439
-0.00399148
-0.00402805
-0.0040641
-0.00409963
-0.00413465
-0.00416915
-0.00420315
-0.00423663
-0.00426961
-0.00430208
-0.00433405
-0.00436552
-0.00439649
-0.00442696
-0.00445694
-0.00448643
-0.00451543
-0.00454395
-0.00457198
-0.00459954
-0.00462661
-0.00465321
-0.00467933
-0.00470498
-0.00473016
-0.00475487
-0.00477912
-0.0048029
-0.00482622
-0.00484909
-0.00487149
-0.00489345
-0.00491495
-0.004936
-0.00495661
-0.00497677
-0.00499649
-0.00501577
-0.00503461
-0.00505302
-0.005071
-0.00508855
-0.00510568
-0.00512238
-0.00513866
-0.00515451
-0.00516996
-0.00518499
-0.00519961
-0.00521382
-0.00522762
-0.00524102
-0.00525402
-0.00526662
-0.00527882
-0.00529063
-0.00530205
-0.00531308
-0.00532373
-0.00533399
-0.00534387
-0.00535337
-0.0053625
-0.00537125
-0.00537963
-0.00538765
-0.00539529
-0.00540257
-0.00540949
-0.00541605
-0.00542226
-0.00542811
-0.00543361
-0.00543876
-0.00544356
-0.00544801
-0.00545213
-0.0054559
-0.00545934
-0.00546244
-0.00546521
-0.00546765
-0.00546976
-0.00547154
-0.005473
-0.00547414
-0.00547496
-0.00547547
-0.00547565
-0.00547553
-0.0054751
-0.00547436
-0.00547331
-0.00547196
-0.0054703
-0.00546835
-0.00546611
-0.00546356
-0.00546073
-0.0054576
-0.00545419
-0.00545049
-0.00544651
-0.00544224
-0.0054377
-0.00543288
-0.00542778
-0.00542241
-0.00541676
-0.00541085
-0.00540467
-0.00539823
-0.00539152
-0.00538455
-0.00537732
-0.00536984
-0.00536209
-0.0053541
-0.00534585
-0.00533736
-0.00532862
-0.00531963
-0.0053104
-0.00530092
-0.00529121
-0.00528126
-0.00527107
-0.00526065
-0.00525
-0.00523911
-0.005228
-0.00521666
-0.00520509
-0.0051933
-0.00518129
-0.00516906
-0.00515662
-0.00514395
-0.00513108
-0.00511798
-0.00510468
-0.00509117
-0.00507745
-0.00506353
-0.0050494
-0.00503507
-0.00502054
-0.00500581
-0.00499088
-0.00497575
-0.00496043
-0.00494492
-0.00492922
-0.00491333
-0.00489725
-0.00488098
-0.00486453
-0.0048479
-0.00483109
-0.00481409
-0.00479692
-0.00477957
-0.00476204
-0.00474434
-0.00472647
-0.00470843
-0.00469022
-0.00467184
-0.00465329
-0.00463458
-0.00461571
-0.00459667
-0.00457747
-0.00455812
-0.0045386
-0.00451893
-0.00449911
-0.00447913
-0.004459
-0.00443872
-0.00441829
-0.00439771
-0.00437698
-0.00435611
-0.0043351
-0.00431394
-0.00429264
-0.0042712
-0.00424963
-0.00422791
-0.00420606
-0.00418408
-0.00416196
-0.0041397
-0.00411732
-0.00409481
-0.00407216
-0.00404939
-0.0040265
-0.00400348
-0.00398033
-0.00395706
-0.00393368
-0.00391017
-0.00388654
-0.00386279
-0.00383893
-0.00381496
-0.00379087
-0.00376667
-0.00374235
-0.00371793
-0.0036934
-0.00366876
-0.00364401
-0.00361916
-0.0035942
-0.00356913
-0.00354397
-0.0035187
-0.00349333
-0.00346786
-0.0034423
-0.00341663
-0.00339087
-0.00336501
-0.00333906
-0.00331301
-0.00328687
-0.00326064
-0.00323431
-0.0032079
-0.0031814
-0.00315481
-0.00312813
-0.00310137
-0.00307452
-0.00304759
-0.00302058
-0.00299348
-0.0029663
-0.00293904
-0.0029117
-0.00288429
-0.00285679
-0.00282922
-0.00280158
-0.00277385
-0.00274606
-0.00271819
-0.00269025
-0.00266224
-0.00263416
-0.00260601
-0.00257779
-0.0025495
-0.00252114
-0.00249272
-0.00246424
-0.00243569
-0.00240707
-0.00237839
-0.00234965
-0.00232085
-0.002292
-0.00226308
-0.0022341
-0.00220506
-0.00217597
-0.00214682
-0.00211762
-0.00208837
-0.00205905
-0.00202969
-0.00200027
-0.00197081
-0.00194129
-0.00191172
-0.0018821
-0.00185244
-0.00182272
-0.00179296
-0.00176315
-0.0017333
-0.0017034
-0.00167346
-0.00164347
-0.00161344
-0.00158337
-0.00155326
-0.0015231
-0.00149291
-0.00146268
-0.0014324
-0.00140209
-0.00137175
-0.00134136
-0.00131094
-0.00128048
-0.00124999
-0.00121947
-0.00118891
-0.00115831
-0.00112769
-0.00109703
-0.00106635
-0.00103563
-0.00100488
-0.000974107
-0.000943302
-0.000912469
-0.000881608
-0.000850721
-0.000819808
-0.000788869
-0.000757905
-0.000726917
-0.000695905
-0.000664869
-0.000633811
-0.00060273
-0.000571628
-0.000540505
-0.00050936
-0.000478197
-0.000447013
-0.000415811
-0.000384591
-0.000353353
-0.000322097
-0.000290824
-0.000259536
-0.000228232
-0.000196914
-0.000165581
-0.000134235
-0.000102876
-7.15046e-05
-4.01207e-05
-8.72472e-06
2.26819e-05
5.40999e-05
8.55278e-05
0.000116966
0.000148414
0.000179871
0.000211335
0.000242809
0.000274289
0.000305778
0.000337272
0.000368773
0.00040028
0.000431791
0.000463308
0.00049483
0.000526355
0.000557885
0.000589417
0.000620952
0.00065249
0.000684029
0.00071557
0.000747112
0.000778654
0.000810196
0.000841739
0.000873281
0.000904822
0.000936361
0.0009679
0.000999434
0.00103097
0.00106249
0.00109402
0.00112553
0.00115705
0.00118855
0.00122006
0.00125155
0.00128304
0.00131453
0.00134601
0.00137748
0.00140894
0.0014404
0.00147184
0.00150328
0.00153471
0.00156613
0.00159755
0.00162895
0.00166034
0.00169172
0.0017231
0.00175445
0.0017858
0.00181714
0.00184846
0.00187977
0.00191107
0.00194235
0.00197362
0.00200487
0.00203611
0.00206734
0.00209855
0.00212975
0.00216093
0.0021921
0.00222325
0.00225438
0.0022855
0.0023166
0.00234769
0.00237876
0.00240981
0.00244084
0.00247185
0.00250285
0.00253383
0.00256479
0.00259573
0.00262665
0.00265755
0.00268843
0.00271929
0.00275013
0.00278095
0.00281175
0.00284252
0.00287328
0.00290401
0.00293472
0.00296541
0.00299607
0.00302672
0.00305734
0.00308793
0.00311851
0.00314906
0.00317958
0.00321008
0.00324056
0.00327101
0.00330144
0.00333184
0.00336222
0.00339257
0.00342289
0.00345319
0.00348347
0.00351371
0.00354394
0.00357413
0.0036043
0.00363444
0.00366455
0.00369463
0.00372468
0.0037547
0.0037847
0.00381467
0.0038446
0.00387451
0.00390439
0.00393424
0.00396406
0.00399385
0.00402361
0.00405334
0.00408305
0.00411272
0.00414236
0.00417197
0.00420154
0.00423109
0.00426061
0.0042901
0.00431955
0.00434897
0.00437836
0.00440772
0.00443705
0.00446634
0.0044956
0.00452483
0.00455403
0.00458319
0.00461232
0.00464142
0.00467048
0.00469951
0.00472851
0.00475747
0.0047864
0.00481529
0.00484415
0.00487297
0.00490177
0.00493052
0.00495924
0.00498793
0.00501658
0.0050452
0.00507378
0.00510232
0.00513084
0.00515931
0.00518775
0.00521615
0.00524452
0.00527285
0.00530115
0.00532941
0.00535763
0.00538582
0.00541397
0.00544208
0.00547016
0.0054982
0.0055262
0.00555416
0.00558209
0.00560998
0.00563783
0.00566565
0.00569343
0.00572117
0.00574887
0.00577653
0.00580416
0.00583175
0.0058593
0.00588681
0.00591428
0.00594172
0.00596911
0.00599647
0.00602379
0.00605107
0.00607831
0.00610551
0.00613267
0.00615979
0.00618688
0.00621392
0.00624092
0.00626788
0.00629481
0.00632169
0.00634854
0.00637534
0.0064021
0.00642883
0.00645551
0.00648215
0.00650875
0.00653532
0.00656184
0.00658832
0.00661476
0.00664116
0.00666752
0.00669384
0.00672012
0.00674636
0.00677256
0.00679871
0.00682483
0.0068509
0.00687694
0.00690293
0.00692888
0.00695479
0.00698066
0.00700649
0.00703228
0.00705802
0.00708373
0.00710939
0.00713501
0.00716059
0.00718613
0.00721163
0.00723708
0.00726249
0.00728787
0.0073132
0.00733848
0.00736373
0.00738893
0.0074141
0.00743922
0.0074643
0.00748933
0.00751433
0.00753928
0.00756419
0.00758906
0.00761389
0.00763867
0.00766341
0.00768811
0.00771277
0.00773739
0.00776196
0.00778649
0.00781097
0.00783542
0.00785982
0.00788418
0.00790849
0.00793277
0.007957
0.00798118
0.00800533
0.00802943
0.00805349
0.00807751
0.00810148
0.00812542
0.00814931
0.00817315
0.00819696
0.00822072
0.00824444
0.00826811
0.00829175
0.00831534
0.00833889
0.00836239
0.00838585
0.00840927
0.00843265
0.00845598
0.00847928
0.00850252
0.00852573
0.00854889
0.00857201
0.00859509
0.00861813
0.00864112
0.00866407
0.00868697
0.00870984
0.00873266
0.00875543
0.00877817
0.00880086
0.00882351
0.00884612
0.00886868
0.0088912
0.00891368
0.00893611
0.00895851
0.00898086
0.00900316
0.00902543
0.00904765
0.00906983
0.00909197
0.00911406
0.00913611
0.00915812
0.00918009
0.00920201
0.00922389
0.00924573
0.00926753
0.00928928
0.00931099
0.00933266
0.00935429
0.00937587
0.00939741
0.00941891
0.00944036
0.00946177
0.00948314
0.00950447
0.00952575
0.00954699
0.00956819
0.00958935
0.00961046
0.00963153
0.00965256
0.00967355
0.00969449
0.0097154
0.00973626
0.00975708
0.00977785
0.00979859
0.00981928
0.00983993
0.00986054
0.0098811
0.00990162
0.00992211
0.00994254
0.00996294
0.0099833
0.0100036
0.0100239
0.0100441
0.0100643
0.0100844
0.0101046
0.0101246
0.0101446
0.0101646
0.0101846
0.0102045
0.0102243
0.0102441
0.0102639
0.0102836
0.0103033
0.010323
0.0103426
0.0103621
0.0103817
0.0104011
0.0104206
0.01044
0.0104593
0.0104787
0.0104979
0.0105172
0.0105364
0.0105555
0.0105746
0.0105937
0.0106127
0.0106317
0.0106507
0.0106696
0.0106885
0.0107073
0.0107261
0.0107448
0.0107635
0.0107822
0.0108008
0.0108194
0.0108379
0.0108564
0.0108749
0.0108933
0.0109117
0.0109301
0.0109484
0.0109666
0.0109848
0.011003
0.0110212
0.0110393
0.0110573
0.0110754
0.0110933
0.0111113
0.0111292
0.0111471
0.0111649
0.0111827
0.0112004
0.0112181
0.0112358
0.0112534
0.011271
0.0112886
0.0113061
0.0113235
0.011341
0.0113584
0.0113757
0.011393
0.0114103
0.0114276
0.0114448
0.0114619
0.011479
0.0114961
0.0115132
0.0115302
0.0115472
0.0115641
0.011581
0.0115978
0.0116147
0.0116314
0.0116482
0.0116649
0.0116815
0.0116982
0.0117148
0.0117313
0.0117478
0.0117643
0.0117807
0.0117971
0.0118135
0.0118298
0.0118461
0.0118624
0.0118786
0.0118948
0.0119109
0.011927
0.0119431
0.0119591
0.0119751
0.0119911
0.012007
0.0120229
0.0120387
0.0120545
0.0120703
0.012086
0.0121017
0.0121174
0.012133
0.0121486
0.0121641
0.0121797
0.0121951
0.0122106
0.012226
0.0122414
0.0122567
0.012272
0.0122873
0
0

