-14930.3
-0.0222844
-0.00732401
-0.00274444
-0.000540334
0.000747814
0.00157182
0.00212458
0.00250488
0.00276876
0.0029501
0.00307035
0.00314361
0.00317949
0.00318481
0.00316453
0.00312245
0.00306152
0.00298412
0.00289223
0.00278751
0.00267139
0.00254511
0.00240976
0.00226631
0.00211563
0.0019585
0.00179561
0.00162761
0.00145508
0.00127854
0.00109848
0.000915343
0.000729532
0.000541426
0.000351369
0.000159682
-3.33377e-05
-0.000227414
-0.000422293
-0.000617736
-0.000813522
-0.00100944
-0.00120531
-0.00140095
-0.00159618
-0.00179086
-0.00198483
-0.00217797
-0.00237015
-0.00256124
-0.00275115
-0.00293976
-0.00312699
-0.00331274
-0.00349693
-0.00367948
-0.00386033
-0.00403941
-0.00421666
-0.00439202
-0.00456544
-0.00473687
-0.00490626
-0.00507359
-0.0052388
-0.00540187
-0.00556276
-0.00572145
-0.00587791
-0.00603212
-0.00618406
-0.0063337
-0.00648104
-0.00662606
-0.00676874
-0.00690908
-0.00704706
-0.00718268
-0.00731594
-0.00744683
-0.00757534
-0.00770148
-0.00782525
-0.00794664
-0.00806567
-0.00818232
-0.00829661
-0.00840855
-0.00851813
-0.00862537
-0.00873027
-0.00883284
-0.0089331
-0.00903104
-0.00912668
-0.00922004
-0.00931111
-0.00939993
-0.00948649
-0.00957081
-0.00965291
-0.0097328
-0.00981049
-0.009886
-0.00995934
-0.0100305
-0.0100996
-0.0101665
-0.0102314
-0.0102941
-0.0103548
-0.0104134
-0.01047
-0.0105246
-0.0105771
-0.0106277
-0.0106763
-0.010723
-0.0107677
-0.0108105
-0.0108515
-0.0108905
-0.0109277
-0.0109631
-0.0109966
-0.0110283
-0.0110583
-0.0110865
-0.0111129
-0.0111376
-0.0111606
-0.0111818
-0.0112015
-0.0112194
-0.0112357
-0.0112504
-0.0112635
-0.011275
-0.0112849
-0.0112933
-0.0113002
-0.0113055
-0.0113093
-0.0113117
-0.0113126
-0.0113121
-0.0113101
-0.0113067
-0.0113019
-0.0112958
-0.0112882
-0.0112794
-0.0112692
-0.0112577
-0.0112449
-0.0112309
-0.0112156
-0.011199
-0.0111812
-0.0111622
-0.011142
-0.0111207
-0.0110981
-0.0110744
-0.0110496
-0.0110237
-0.0109967
-0.0109685
-0.0109393
-0.0109091
-0.0108778
-0.0108455
-0.0108122
-0.0107778
-0.0107425
-0.0107062
-0.010669
-0.0106308
-0.0105917
-0.0105517
-0.0105108
-0.010469
-0.0104263
-0.0103828
-0.0103384
-0.0102932
-0.0102472
-0.0102003
-0.0101527
-0.0101043
-0.0100551
-0.0100052
-0.00995447
-0.00990305
-0.00985091
-0.00979806
-0.00974452
-0.00969029
-0.00963539
-0.00957983
-0.00952361
-0.00946676
-0.00940928
-0.00935119
-0.00929248
-0.00923319
-0.00917331
-0.00911286
-0.00905184
-0.00899028
-0.00892817
-0.00886553
-0.00880237
-0.00873869
-0.00867452
-0.00860986
-0.00854471
-0.00847909
-0.00841301
-0.00834648
-0.0082795
-0.00821209
-0.00814426
-0.00807601
-0.00800735
-0.0079383
-0.00786885
-0.00779903
-0.00772883
-0.00765827
-0.00758735
-0.00751609
-0.00744449
-0.00737256
-0.00730031
-0.00722775
-0.00715488
-0.00708171
-0.00700825
-0.00693451
-0.00686049
-0.00678621
-0.00671166
-0.00663686
-0.00656182
-0.00648654
-0.00641103
-0.00633529
-0.00625934
-0.00618317
-0.0061068
-0.00603024
-0.00595348
-0.00587654
-0.00579942
-0.00572213
-0.00564468
-0.00556707
-0.00548931
-0.0054114
-0.00533335
-0.00525516
-0.00517685
-0.00509842
-0.00501987
-0.0049412
-0.00486244
-0.00478357
-0.00470461
-0.00462556
-0.00454642
-0.00446721
-0.00438792
-0.00430857
-0.00422915
-0.00414968
-0.00407015
-0.00399057
-0.00391096
-0.0038313
-0.00375161
-0.00367189
-0.00359214
-0.00351238
-0.0034326
-0.00335281
-0.00327301
-0.00319321
-0.00311342
-0.00303362
-0.00295384
-0.00287407
-0.00279433
-0.0027146
-0.0026349
-0.00255523
-0.00247559
-0.00239599
-0.00231644
-0.00223692
-0.00215746
-0.00207805
-0.00199869
-0.0019194
-0.00184016
-0.00176099
-0.00168189
-0.00160287
-0.00152391
-0.00144504
-0.00136625
-0.00128755
-0.00120893
-0.0011304
-0.00105197
-0.000973634
-0.000895398
-0.000817265
-0.000739236
-0.000661317
-0.000583507
-0.00050581
-0.00042823
-0.000350768
-0.000273428
-0.00019621
-0.000119119
-4.21557e-05
3.46768e-05
0.000111376
0.000187941
0.000264368
0.000340655
0.000416801
0.000492802
0.000568658
0.000644365
0.000719922
0.000795326
0.000870576
0.00094567
0.00102061
0.00109538
0.00117
0.00124445
0.00131873
0.00139285
0.0014668
0.00154058
0.00161419
0.00168763
0.00176089
0.00183397
0.00190688
0.00197961
0.00205215
0.00212452
0.0021967
0.00226869
0.0023405
0.00241213
0.00248356
0.0025548
0.00262585
0.00269671
0.00276738
0.00283785
0.00290812
0.0029782
0.00304808
0.00311776
0.00318725
0.00325653
0.0033256
0.00339448
0.00346315
0.00353162
0.00359988
0.00366794
0.00373579
0.00380343
0.00387086
0.00393808
0.00400509
0.00407189
0.00413848
0.00420486
0.00427103
0.00433698
0.00440272
0.00446824
0.00453355
0.00459864
0.00466351
0.00472817
0.00479261
0.00485684
0.00492084
0.00498463
0.0050482
0.00511155
0.00517468
0.00523759
0.00530028
0.00536274
0.00542499
0.00548702
0.00554882
0.0056104
0.00567176
0.0057329
0.00579382
0.00585451
0.00591498
0.00597522
0.00603525
0.00609505
0.00615462
0.00621398
0.00627311
0.00633201
0.00639069
0.00644915
0.00650739
0.0065654
0.00662318
0.00668074
0.00673808
0.0067952
0.00685209
0.00690875
0.0069652
0.00702142
0.00707741
0.00713318
0.00718873
0.00724406
0.00729916
0.00735404
0.0074087
0.00746313
0.00751734
0.00757133
0.0076251
0.00767864
0.00773197
0.00778507
0.00783795
0.00789061
0.00794305
0.00799527
0.00804727
0.00809904
0.0081506
0.00820194
0.00825306
0.00830396
0.00835464
0.00840511
0.00845535
0.00850538
0.00855519
0.00860479
0.00865417
0.00870333
0.00875228
0.00880101
0.00884953
0.00889783
0.00894592
0.00899379
0.00904145
0.0090889
0.00913613
0.00918316
0.00922997
0.00927657
0.00932296
0.00936914
0.00941511
0.00946087
0.00950642
0.00955177
0.0095969
0.00964183
0.00968655
0.00973107
0.00977538
0.00981948
0.00986338
0.00990707
0.00995057
0.00999385
0.0100369
0.0100798
0.0101225
0.010165
0.0102073
0.0102493
0.0102912
0.0103329
0.0103744
0.0104157
0.0104568
0.0104976
0.0105383
0.0105788
0.0106191
0.0106592
0.0106992
0.0107389
0.0107784
0.0108177
0.0108569
0.0108958
0.0109346
0.0109732
0.0110116
0.0110498
0.0110878
0.0111256
0.0111632
0.0112007
0.0112379
0.011275
0.0113119
0.0113486
0.0113852
0.0114215
0.0114577
0.0114936
0.0115295
0.0115651
0.0116005
0.0116358
0.0116709
0.0117058
0.0117405
0.0117751
0.0118094
0.0118437
0.0118777
0.0119115
0.0119452
0.0119787
0.0120121
0.0120453
0.0120783
0.0121111
0.0121437
0.0121762
0.0122086
0.0122407
0.0122727
0.0123045
0.0123362
0.0123677
0.012399
0.0124302
0.0124612
0.012492
0.0125227
0.0125533
0.0125836
0.0126138
0.0126439
0.0126737
0.0127035
0.012733
0.0127625
0.0127917
0.0128208
0.0128498
0.0128786
0.0129072
0.0129357
0.0129641
0.0129922
0.0130203
0.0130482
0.0130759
0.0131035
0.0131309
0.0131582
0.0131854
0.0132124
0.0132393
0.013266
0.0132925
0.013319
0.0133453
0.0133714
0.0133974
0.0134233
0.013449
0.0134746
0.0135
0.0135253
0.0135505
0.0135755
0.0136004
0.0136251
0.0136497
0.0136742
0.0136986
0.0137228
0.0137469
0.0137708
0.0137947
0.0138183
0.0138419
0.0138653
0.0138886
0.0139118
0.0139348
0.0139578
0.0139805
0.0140032
0.0140257
0.0140482
0.0140704
0.0140926
0.0141146
0.0141366
0.0141584
0.01418
0.0142016
0.014223
0.0142443
0.0142655
0.0142866
0.0143076
0.0143284
0.0143491
0.0143697
0.0143902
0.0144106
0.0144308
0.014451
0.014471
0.0144909
0.0145108
0.0145304
0.01455
0.0145695
0.0145889
0.0146081
0.0146273
0.0146463
0.0146652
0.014684
0.0147028
0.0147214
0.0147399
0.0147583
0.0147766
0.0147947
0.0148128
0.0148308
0.0148487
0.0148665
0.0148841
0.0149017
0.0149192
0.0149366
0.0149538
0.014971
0.0149881
0.0150051
0.0150219
0.0150387
0.0150554
0.015072
0.0150885
0.0151049
0.0151212
0.0151374
0.0151535
0.0151695
0.0151855
0.0152013
0.0152171
0.0152327
0.0152483
0.0152638
0.0152792
0.0152944
0.0153097
0.0153248
0.0153398
0.0153548
0.0153696
0.0153844
0.0153991
0.0154137
0.0154282
0.0154426
0.015457
0.0154712
0.0154854
0.0154995
0.0155135
0.0155275
0.0155413
0.0155551
0.0155688
0.0155824
0.0155959
0.0156094
0.0156228
0.0156361
0.0156493
0.0156624
0.0156755
0.0156885
0.0157014
0.0157142
0.015727
0.0157397
0.0157523
0.0157648
0.0157773
0.0157897
0.015802
0.0158142
0.0158264
0.0158385
0.0158505
0.0158625
0.0158744
0.0158862
0.0158979
0.0159096
0.0159212
0.0159328
0.0159442
0.0159557
0.015967
0.0159783
0.0159895
0.0160006
0.0160117
0.0160227
0.0160336
0.0160445
0.0160553
0.0160661
0.0160768
0.0160874
0.0160979
0.0161084
0.0161189
0.0161292
0.0161395
0.0161498
0.01616
0.0161701
0.0161802
0.0161902
0.0162001
0.01621
0.0162199
0.0162296
0.0162393
0.016249
0.0162586
0.0162681
0.0162776
0.0162871
0.0162964
0.0163058
0.016315
0.0163242
0.0163334
0.0163425
0.0163515
0.0163605
0.0163694
0.0163783
0.0163872
0.0163959
0.0164047
0.0164133
0.0164219
0.0164305
0.016439
0.0164475
0.0164559
0.0164643
0.0164726
0.0164809
0.0164891
0.0164973
0.0165054
0.0165135
0.0165215
0.0165295
0.0165374
0.0165453
0.0165531
0.0165609
0.0165686
0.0165763
0.016584
0.0165916
0.0165991
0.0166066
0.0166141
0.0166215
0.0166289
0.0166362
0.0166435
0.0166508
0.016658
0.0166651
0.0166723
0.0166793
0.0166864
0.0166934
0.0167003
0.0167072
0.0167141
0.0167209
0.0167277
0.0167344
0.0167411
0.0167478
0.0167544
0.016761
0.0167676
0.0167741
0.0167805
0.016787
0.0167934
0.0167997
0.016806
0.0168123
0.0168185
0.0168247
0.0168309
0.016837
0.0168431
0.0168492
0.0168552
0.0168612
0.0168671
0.016873
0.0168789
0.0168848
0.0168906
0.0168963
0.0169021
0.0169078
0.0169134
0.0169191
0.0169247
0.0169303
0.0169358
0.0169413
0.0169468
0.0169522
0.0169576
0.016963
0.0169683
0.0169736
0.0169789
0.0169841
0.0169894
0.0169945
0.0169997
0.0170048
0.0170099
0.017015
0.01702
0.017025
0.01703
0.0170349
0.0170398
0.0170447
0.0170496
0.0170544
0.0170592
0.0170639
0.0170687
0.0170734
0.0170781
0.0170827
0.0170874
0.017092
0.0170965
0.0171011
0.0171056
0.0171101
0.0171146
0.017119
0.0171234
0.0171278
0.0171322
0.0171365
0.0171408
0.0171451
0.0171493
0.0171536
0.0171578
0.017162
0.0171661
0.0171703
0.0171744
0.0171785
0.0171825
0.0171866
0.0171906
0.0171946
0.0171985
0.0172025
0.0172064
0.0172103
0.0172142
0.017218
0.0172218
0.0172256
0.0172294
0.0172332
0.0172369
0.0172407
0.0172443
0.017248
0.0172517
0.0172553
0.0172589
0.0172625
0.0172661
0.0172696
0.0172731
0.0172766
0.0172801
0.0172836
0.017287
0.0172905
0.0172939
0.0172972
0.0173006
0.017304
0.0173073
0.0173106
0.0173139
0.0173171
0.0173204
0.0173236
0.0173268
0.01733
0.0173332
0.0173363
0.0173395
0.0173426
0.0173457
0.0173488
0.0173518
0.0173549
0.0173579
0.0173609
0.0173639
0.0173669
0.0173699
0.0173728
0.0173757
0.0173786
0.0173815
0.0173844
0.0173873
0.0173901
0.0173929
0.0173957
0.0173985
0.0174013
0.0174041
0.0174068
0.0174095
0.0174122
0.0174149
0.0174176
0.0174203
0.0174229
0.0174256
0.0174282
0.0174308
0.0174334
0.017436
0.0174385
0.0174411
0.0174436
0.0174461
0.0174486
0.0174511
0.0174536
0.0174561
0.0174585
0.0174609
0.0174634
0.0174658
0
0

