-14930.3
-0.0222844
-0.00729284
-0.00263701
-0.000314088
0.00112707
0.00212964
0.00287941
0.00346965
0.00395225
0.00435791
0.00470564
0.00500765
0.00527211
0.00550465
0.00570935
0.00588926
0.00604678
0.00618384
0.00630206
0.00640285
0.00648741
0.00655686
0.00661217
0.00665425
0.00668392
0.00670196
0.00670906
0.0067059
0.00669308
0.0066712
0.00664078
0.00660234
0.00655635
0.00650328
0.00644353
0.00637753
0.00630564
0.00622823
0.00614565
0.00605821
0.00596623
0.00587001
0.00576981
0.0056659
0.00555854
0.00544797
0.00533441
0.00521808
0.00509919
0.00497793
0.0048545
0.00472906
0.0046018
0.00447287
0.00434242
0.00421061
0.00407756
0.00394342
0.00380832
0.00367236
0.00353566
0.00339834
0.00326049
0.00312222
0.00298362
0.00284478
0.00270578
0.00256671
0.00242763
0.00228863
0.00214978
0.00201113
0.00187276
0.00173471
0.00159706
0.00145984
0.00132312
0.00118694
0.00105134
0.000916371
0.000782073
0.000648482
0.000515634
0.000383564
0.000252303
0.000121883
-7.66883e-06
-0.000136323
-0.000264056
-0.000390842
-0.000516661
-0.00064149
-0.000765311
-0.000888106
-0.00100986
-0.00113055
-0.00125017
-0.0013687
-0.00148613
-0.00160246
-0.00171766
-0.00183173
-0.00194467
-0.00205645
-0.00216709
-0.00227656
-0.00238487
-0.00249201
-0.00259797
-0.00270276
-0.00280637
-0.00290879
-0.00301004
-0.00311009
-0.00320896
-0.00330664
-0.00340314
-0.00349845
-0.00359258
-0.00368552
-0.00377728
-0.00386787
-0.00395727
-0.0040455
-0.00413256
-0.00421845
-0.00430318
-0.00438675
-0.00446916
-0.00455042
-0.00463053
-0.00470949
-0.00478732
-0.00486402
-0.00493958
-0.00501402
-0.00508735
-0.00515956
-0.00523067
-0.00530068
-0.00536959
-0.00543741
-0.00550415
-0.00556982
-0.00563441
-0.00569794
-0.00576042
-0.00582184
-0.00588222
-0.00594156
-0.00599987
-0.00605716
-0.00611343
-0.00616869
-0.00622295
-0.00627621
-0.00632848
-0.00637977
-0.00643008
-0.00647943
-0.00652781
-0.00657523
-0.00662171
-0.00666725
-0.00671185
-0.00675553
-0.00679829
-0.00684013
-0.00688107
-0.00692111
-0.00696026
-0.00699852
-0.0070359
-0.00707241
-0.00710806
-0.00714285
-0.00717678
-0.00720988
-0.00724213
-0.00727356
-0.00730416
-0.00733394
-0.00736292
-0.00739109
-0.00741846
-0.00744504
-0.00747084
-0.00749586
-0.00752011
-0.0075436
-0.00756633
-0.0075883
-0.00760953
-0.00763002
-0.00764978
-0.00766882
-0.00768713
-0.00770473
-0.00772162
-0.00773781
-0.0077533
-0.0077681
-0.00778222
-0.00779567
-0.00780844
-0.00782055
-0.00783199
-0.00784278
-0.00785293
-0.00786243
-0.00787129
-0.00787953
-0.00788714
-0.00789412
-0.0079005
-0.00790627
-0.00791143
-0.00791599
-0.00791997
-0.00792335
-0.00792616
-0.00792838
-0.00793004
-0.00793113
-0.00793166
-0.00793164
-0.00793107
-0.00792995
-0.00792829
-0.00792609
-0.00792337
-0.00792012
-0.00791635
-0.00791206
-0.00790727
-0.00790197
-0.00789616
-0.00788987
-0.00788308
-0.0078758
-0.00786804
-0.00785981
-0.0078511
-0.00784192
-0.00783228
-0.00782218
-0.00781162
-0.00780062
-0.00778916
-0.00777727
-0.00776494
-0.00775217
-0.00773898
-0.00772536
-0.00771132
-0.00769687
-0.007682
-0.00766672
-0.00765104
-0.00763496
-0.00761849
-0.00760162
-0.00758436
-0.00756672
-0.0075487
-0.0075303
-0.00751153
-0.00749239
-0.00747288
-0.00745302
-0.00743279
-0.00741221
-0.00739128
-0.00737001
-0.00734839
-0.00732643
-0.00730414
-0.00728151
-0.00725855
-0.00723527
-0.00721167
-0.00718775
-0.00716351
-0.00713896
-0.0071141
-0.00708894
-0.00706347
-0.0070377
-0.00701164
-0.00698529
-0.00695865
-0.00693172
-0.00690451
-0.00687702
-0.00684925
-0.00682121
-0.0067929
-0.00676432
-0.00673548
-0.00670638
-0.00667701
-0.00664739
-0.00661752
-0.0065874
-0.00655703
-0.00652642
-0.00649557
-0.00646448
-0.00643315
-0.00640159
-0.0063698
-0.00633778
-0.00630553
-0.00627307
-0.00624039
-0.00620748
-0.00617437
-0.00614104
-0.0061075
-0.00607376
-0.00603982
-0.00600567
-0.00597132
-0.00593678
-0.00590204
-0.00586711
-0.00583199
-0.00579669
-0.0057612
-0.00572553
-0.00568968
-0.00565365
-0.00561745
-0.00558108
-0.00554453
-0.00550782
-0.00547094
-0.0054339
-0.00539669
-0.00535933
-0.00532181
-0.00528413
-0.0052463
-0.00520833
-0.0051702
-0.00513193
-0.00509351
-0.00505495
-0.00501625
-0.00497741
-0.00493844
-0.00489933
-0.00486009
-0.00482072
-0.00478122
-0.0047416
-0.00470185
-0.00466198
-0.00462198
-0.00458187
-0.00454165
-0.0045013
-0.00446085
-0.00442028
-0.00437961
-0.00433882
-0.00429793
-0.00425694
-0.00421584
-0.00417465
-0.00413335
-0.00409196
-0.00405047
-0.00400889
-0.00396722
-0.00392545
-0.0038836
-0.00384166
-0.00379963
-0.00375752
-0.00371533
-0.00367306
-0.00363071
-0.00358828
-0.00354577
-0.0035032
-0.00346054
-0.00341782
-0.00337502
-0.00333216
-0.00328923
-0.00324624
-0.00320318
-0.00316006
-0.00311687
-0.00307363
-0.00303033
-0.00298697
-0.00294356
-0.00290009
-0.00285657
-0.002813
-0.00276938
-0.00272571
-0.00268199
-0.00263822
-0.00259441
-0.00255056
-0.00250666
-0.00246273
-0.00241875
-0.00237474
-0.00233069
-0.0022866
-0.00224247
-0.00219832
-0.00215413
-0.00210991
-0.00206566
-0.00202138
-0.00197707
-0.00193274
-0.00188838
-0.001844
-0.00179959
-0.00175516
-0.00171071
-0.00166624
-0.00162175
-0.00157725
-0.00153273
-0.00148819
-0.00144363
-0.00139907
-0.00135449
-0.0013099
-0.0012653
-0.00122069
-0.00117607
-0.00113145
-0.00108681
-0.00104218
-0.000997534
-0.000952889
-0.000908241
-0.000863591
-0.000818941
-0.00077429
-0.000729641
-0.000684994
-0.00064035
-0.000595709
-0.000551074
-0.000506444
-0.000461821
-0.000417204
-0.000372596
-0.000327997
-0.000283408
-0.00023883
-0.000194263
-0.000149708
-0.000105167
-6.06401e-05
-1.61273e-05
2.83692e-05
7.28501e-05
0.000117313
0.000161759
0.000206186
0.000250594
0.000294981
0.000339347
0.000383692
0.000428015
0.000472314
0.000516589
0.000560841
0.000605066
0.000649267
0.00069344
0.000737585
0.000781703
0.000825792
0.000869851
0.000913881
0.000957879
0.00100185
0.00104578
0.00108969
0.00113356
0.00117739
0.00122119
0.00126496
0.00130869
0.00135239
0.00139605
0.00143967
0.00148325
0.00152679
0.0015703
0.00161377
0.00165719
0.00170058
0.00174392
0.00178722
0.00183048
0.0018737
0.00191687
0.00196
0.00200308
0.00204612
0.00208912
0.00213206
0.00217496
0.00221782
0.00226063
0.00230338
0.0023461
0.00238876
0.00243137
0.00247393
0.00251644
0.00255891
0.00260132
0.00264368
0.00268598
0.00272824
0.00277044
0.00281259
0.00285468
0.00289672
0.00293871
0.00298064
0.00302251
0.00306433
0.0031061
0.00314781
0.00318946
0.00323105
0.00327258
0.00331406
0.00335548
0.00339684
0.00343814
0.00347938
0.00352057
0.00356169
0.00360275
0.00364375
0.00368469
0.00372557
0.00376639
0.00380714
0.00384783
0.00388846
0.00392903
0.00396953
0.00400997
0.00405035
0.00409066
0.00413091
0.00417109
0.00421121
0.00425126
0.00429125
0.00433117
0.00437102
0.00441081
0.00445053
0.00449019
0.00452977
0.00456929
0.00460875
0.00464813
0.00468745
0.00472669
0.00476587
0.00480499
0.00484403
0.004883
0.0049219
0.00496074
0.0049995
0.00503819
0.00507682
0.00511537
0.00515385
0.00519226
0.00523061
0.00526887
0.00530707
0.0053452
0.00538325
0.00542123
0.00545915
0.00549698
0.00553475
0.00557244
0.00561006
0.00564761
0.00568508
0.00572248
0.00575981
0.00579706
0.00583424
0.00587135
0.00590838
0.00594534
0.00598223
0.00601904
0.00605577
0.00609243
0.00612902
0.00616553
0.00620196
0.00623832
0.00627461
0.00631082
0.00634696
0.00638302
0.006419
0.00645491
0.00649074
0.0065265
0.00656218
0.00659778
0.00663331
0.00666876
0.00670414
0.00673944
0.00677466
0.0068098
0.00684487
0.00687987
0.00691478
0.00694962
0.00698438
0.00701907
0.00705367
0.00708821
0.00712266
0.00715704
0.00719133
0.00722556
0.0072597
0.00729377
0.00732776
0.00736167
0.0073955
0.00742926
0.00746294
0.00749654
0.00753006
0.00756351
0.00759688
0.00763017
0.00766338
0.00769652
0.00772958
0.00776255
0.00779546
0.00782828
0.00786103
0.00789369
0.00792628
0.0079588
0.00799123
0.00802359
0.00805586
0.00808806
0.00812019
0.00815223
0.0081842
0.00821608
0.0082479
0.00827963
0.00831128
0.00834286
0.00837436
0.00840578
0.00843712
0.00846839
0.00849958
0.00853069
0.00856172
0.00859267
0.00862355
0.00865435
0.00868507
0.00871571
0.00874628
0.00877677
0.00880718
0.00883751
0.00886777
0.00889794
0.00892805
0.00895807
0.00898801
0.00901788
0.00904768
0.00907739
0.00910703
0.00913659
0.00916607
0.00919548
0.00922481
0.00925406
0.00928324
0.00931234
0.00934136
0.0093703
0.00939917
0.00942796
0.00945668
0.00948532
0.00951388
0.00954237
0.00957078
0.00959912
0.00962737
0.00965556
0.00968366
0.0097117
0.00973965
0.00976753
0.00979533
0.00982306
0.00985071
0.00987829
0.00990579
0.00993322
0.00996057
0.00998785
0.010015
0.0100422
0.0100692
0.0100962
0.0101231
0.0101499
0.0101767
0.0102034
0.01023
0.0102565
0.0102829
0.0103093
0.0103356
0.0103619
0.010388
0.0104141
0.0104401
0.0104661
0.0104919
0.0105177
0.0105434
0.0105691
0.0105947
0.0106202
0.0106456
0.0106709
0.0106962
0.0107214
0.0107466
0.0107716
0.0107966
0.0108215
0.0108464
0.0108712
0.0108959
0.0109205
0.0109451
0.0109696
0.010994
0.0110183
0.0110426
0.0110668
0.0110909
0.011115
0.011139
0.0111629
0.0111868
0.0112105
0.0112343
0.0112579
0.0112815
0.011305
0.0113284
0.0113518
0.0113751
0.0113983
0.0114214
0.0114445
0.0114675
0.0114905
0.0115134
0.0115362
0.0115589
0.0115816
0.0116042
0.0116267
0.0116492
0.0116716
0.0116939
0.0117162
0.0117384
0.0117605
0.0117826
0.0118046
0.0118265
0.0118483
0.0118701
0.0118919
0.0119135
0.0119351
0.0119566
0.0119781
0.0119995
0.0120208
0.0120421
0.0120633
0.0120844
0.0121055
0.0121265
0.0121474
0.0121683
0.0121891
0.0122099
0.0122305
0.0122511
0.0122717
0.0122922
0.0123126
0.012333
0.0123533
0.0123735
0.0123936
0.0124137
0.0124338
0.0124538
0.0124737
0.0124935
0.0125133
0.012533
0.0125527
0.0125723
0.0125918
0.0126113
0.0126307
0.0126501
0.0126694
0.0126886
0.0127078
0.0127269
0.0127459
0.0127649
0.0127838
0.0128027
0.0128215
0.0128402
0.0128589
0.0128775
0.0128961
0.0129146
0.012933
0.0129514
0.0129698
0.012988
0.0130062
0.0130244
0.0130425
0.0130605
0.0130785
0.0130964
0.0131142
0.013132
0.0131498
0.0131674
0.0131851
0.0132026
0.0132201
0.0132376
0.013255
0.0132723
0.0132896
0.0133068
0.013324
0.0133411
0.0133581
0.0133751
0.0133921
0.0134089
0.0134258
0.0134425
0.0134592
0.0134759
0.0134925
0.0135091
0.0135256
0.013542
0.0135584
0.0135747
0.013591
0.0136072
0.0136234
0.0136395
0.0136556
0.0136716
0.0136875
0.0137034
0.0137193
0.0137351
0.0137508
0.0137665
0.0137821
0.0137977
0.0138132
0.0138287
0.0138441
0.0138595
0.0138748
0.0138901
0.0139053
0.0139205
0.0139356
0.0139507
0.0139657
0.0139806
0.0139955
0.0140104
0.0140252
0.01404
0.0140547
0.0140693
0.0140839
0.0140985
0.014113
0.0141275
0.0141419
0.0141562
0.0141706
0.0141848
0.014199
0.0142132
0.0142273
0.0142414
0.0142554
0.0142694
0.0142833
0.0142972
0.014311
0.0143248
0.0143385
0.0143522
0.0143658
0.0143794
0.014393
0.0144064
0.0144199
0.0144333
0.0144467
0.01446
0.0144732
0.0144864
0.0144996
0.0145127
0.0145258
0.0145389
0.0145518
0.0145648
0.0145777
0.0145905
0.0146033
0.0146161
0.0146288
0.0146415
0.0146541
0.0146667
0.0146793
0.0146918
0.0147042
0.0147166
0.014729
0.0147413
0.0147536
0.0147658
0.014778
0.0147902
0.0148023
0.0148143
0.0148263
0.0148383
0.0148503
0.0148622
0.014874
0.0148858
0.0148976
0.0149093
0.014921
0.0149326
0
0

