-14930.3
-0.0222844
-0.00729402
-0.00264245
-0.00032845
0.00109834
0.00208117
0.00280644
0.00336839
0.00381996
0.00419293
0.00450732
0.00477623
0.00500859
0.0052107
0.00538715
0.00554145
0.00567633
0.005794
0.00589628
0.00598471
0.0060606
0.00612508
0.00617917
0.00622374
0.00625957
0.00628738
0.00630778
0.00632135
0.0063286
0.00632999
0.00632594
0.00631685
0.00630305
0.00628488
0.00626263
0.00623656
0.00620694
0.00617399
0.00613793
0.00609896
0.00605726
0.006013
0.00596635
0.00591746
0.00586646
0.0058135
0.00575869
0.00570216
0.005644
0.00558433
0.00552324
0.00546083
0.00539717
0.00533235
0.00526645
0.00519953
0.00513167
0.00506293
0.00499337
0.00492306
0.00485204
0.00478038
0.00470811
0.0046353
0.00456197
0.00448819
0.00441399
0.00433941
0.00426449
0.00418927
0.00411379
0.00403807
0.00396216
0.00388607
0.00380985
0.00373352
0.00365711
0.00358063
0.00350412
0.0034276
0.00335109
0.00327462
0.0031982
0.00312187
0.00304563
0.0029695
0.0028935
0.00281766
0.00274197
0.00266648
0.00259118
0.0025161
0.00244124
0.00236663
0.00229227
0.00221819
0.00214439
0.00207088
0.00199768
0.0019248
0.00185224
0.00178003
0.00170816
0.00163664
0.00156547
0.00149468
0.00142425
0.00135419
0.00128452
0.00121524
0.00114636
0.00107787
0.0010098
0.00094214
0.000874903
0.000808091
0.00074171
0.000675765
0.00061026
0.0005452
0.000480588
0.000416429
0.000352727
0.000289485
0.000226703
0.000164386
0.000102534
4.11479e-05
-1.97689e-05
-8.02146e-05
-0.000140186
-0.000199681
-0.0002587
-0.000317242
-0.00037531
-0.000432905
-0.00049003
-0.000546687
-0.000602875
-0.000658594
-0.000713845
-0.000768628
-0.000822941
-0.000876784
-0.000930157
-0.000983058
-0.00103549
-0.00108745
-0.00113893
-0.00118995
-0.00124049
-0.00129056
-0.00134016
-0.00138928
-0.00143794
-0.00148613
-0.00153385
-0.0015811
-0.00162789
-0.00167422
-0.00172009
-0.0017655
-0.00181045
-0.00185496
-0.00189902
-0.00194263
-0.00198579
-0.00202851
-0.00207079
-0.00211263
-0.00215403
-0.00219499
-0.00223551
-0.0022756
-0.00231526
-0.00235448
-0.00239327
-0.00243164
-0.00246958
-0.0025071
-0.0025442
-0.00258088
-0.00261714
-0.002653
-0.00268844
-0.00272349
-0.00275813
-0.00279238
-0.00282624
-0.0028597
-0.00289278
-0.00292547
-0.00295778
-0.0029897
-0.00302125
-0.00305241
-0.0030832
-0.00311362
-0.00314366
-0.00317333
-0.00320263
-0.00323157
-0.00326014
-0.00328835
-0.0033162
-0.00334369
-0.00337083
-0.00339762
-0.00342406
-0.00345015
-0.0034759
-0.0035013
-0.00352637
-0.00355109
-0.00357548
-0.00359954
-0.00362326
-0.00364666
-0.00366973
-0.00369247
-0.00371489
-0.00373698
-0.00375876
-0.00378022
-0.00380137
-0.00382221
-0.00384274
-0.00386296
-0.00388288
-0.0039025
-0.00392182
-0.00394083
-0.00395956
-0.00397798
-0.00399612
-0.00401396
-0.00403152
-0.00404879
-0.00406578
-0.00408248
-0.0040989
-0.00411505
-0.00413091
-0.00414651
-0.00416183
-0.00417688
-0.00419167
-0.00420619
-0.00422044
-0.00423444
-0.00424817
-0.00426164
-0.00427486
-0.00428782
-0.00430053
-0.00431299
-0.00432521
-0.00433717
-0.0043489
-0.00436038
-0.00437162
-0.00438262
-0.00439339
-0.00440391
-0.00441421
-0.00442426
-0.00443409
-0.00444369
-0.00445306
-0.0044622
-0.00447111
-0.0044798
-0.00448827
-0.00449651
-0.00450453
-0.00451234
-0.00451993
-0.0045273
-0.00453446
-0.0045414
-0.00454813
-0.00455465
-0.00456097
-0.00456707
-0.00457297
-0.00457866
-0.00458416
-0.00458944
-0.00459453
-0.00459942
-0.00460411
-0.0046086
-0.0046129
-0.00461701
-0.00462092
-0.00462464
-0.00462817
-0.00463151
-0.00463467
-0.00463763
-0.00464041
-0.00464301
-0.00464543
-0.00464766
-0.00464971
-0.00465158
-0.00465327
-0.00465478
-0.00465612
-0.00465728
-0.00465827
-0.00465908
-0.00465973
-0.0046602
-0.0046605
-0.00466063
-0.00466059
-0.00466038
-0.00466001
-0.00465947
-0.00465877
-0.00465791
-0.00465688
-0.0046557
-0.00465435
-0.00465284
-0.00465118
-0.00464936
-0.00464738
-0.00464525
-0.00464296
-0.00464052
-0.00463792
-0.00463518
-0.00463228
-0.00462923
-0.00462604
-0.00462269
-0.0046192
-0.00461556
-0.00461178
-0.00460785
-0.00460378
-0.00459957
-0.00459521
-0.00459071
-0.00458608
-0.0045813
-0.00457638
-0.00457133
-0.00456613
-0.00456081
-0.00455534
-0.00454974
-0.00454401
-0.00453815
-0.00453215
-0.00452602
-0.00451976
-0.00451337
-0.00450685
-0.0045002
-0.00449343
-0.00448653
-0.0044795
-0.00447235
-0.00446508
-0.00445768
-0.00445016
-0.00444251
-0.00443474
-0.00442686
-0.00441885
-0.00441072
-0.00440248
-0.00439411
-0.00438563
-0.00437703
-0.00436832
-0.00435949
-0.00435054
-0.00434148
-0.00433231
-0.00432302
-0.00431362
-0.00430411
-0.00429449
-0.00428476
-0.00427491
-0.00426496
-0.0042549
-0.00424473
-0.00423446
-0.00422407
-0.00421358
-0.00420299
-0.00419229
-0.00418149
-0.00417058
-0.00415957
-0.00414845
-0.00413724
-0.00412592
-0.0041145
-0.00410298
-0.00409136
-0.00407964
-0.00406783
-0.00405591
-0.0040439
-0.00403179
-0.00401959
-0.00400729
-0.00399489
-0.0039824
-0.00396982
-0.00395715
-0.00394438
-0.00393152
-0.00391858
-0.00390554
-0.00389241
-0.00387919
-0.00386589
-0.00385249
-0.00383901
-0.00382544
-0.00381178
-0.00379804
-0.00378421
-0.0037703
-0.0037563
-0.00374222
-0.00372805
-0.0037138
-0.00369947
-0.00368506
-0.00367057
-0.00365599
-0.00364133
-0.0036266
-0.00361178
-0.00359689
-0.00358191
-0.00356686
-0.00355173
-0.00353652
-0.00352123
-0.00350587
-0.00349043
-0.00347492
-0.00345932
-0.00344366
-0.00342792
-0.0034121
-0.00339621
-0.00338025
-0.00336421
-0.0033481
-0.00333192
-0.00331567
-0.00329934
-0.00328295
-0.00326648
-0.00324994
-0.00323334
-0.00321666
-0.00319992
-0.00318311
-0.00316623
-0.00314929
-0.00313228
-0.0031152
-0.00309806
-0.00308086
-0.00306358
-0.00304625
-0.00302885
-0.00301138
-0.00299386
-0.00297626
-0.00295861
-0.00294089
-0.00292312
-0.00290528
-0.00288738
-0.00286941
-0.00285139
-0.00283331
-0.00281517
-0.00279697
-0.00277871
-0.00276039
-0.00274201
-0.00272358
-0.00270508
-0.00268654
-0.00266793
-0.00264927
-0.00263055
-0.00261178
-0.00259296
-0.00257408
-0.00255515
-0.00253617
-0.00251713
-0.00249805
-0.00247891
-0.00245971
-0.00244047
-0.00242118
-0.00240183
-0.00238244
-0.00236299
-0.0023435
-0.00232396
-0.00230437
-0.00228473
-0.00226504
-0.0022453
-0.00222552
-0.00220569
-0.00218581
-0.00216589
-0.00214592
-0.0021259
-0.00210584
-0.00208574
-0.00206559
-0.0020454
-0.00202517
-0.00200491
-0.0019846
-0.00196425
-0.00194386
-0.00192344
-0.00190298
-0.00188248
-0.00186194
-0.00184136
-0.00182075
-0.0018001
-0.00177941
-0.00175868
-0.00173791
-0.00171711
-0.00169627
-0.00167539
-0.00165447
-0.00163352
-0.00161253
-0.0015915
-0.00157044
-0.00154934
-0.0015282
-0.00150703
-0.00148582
-0.00146458
-0.0014433
-0.00142199
-0.00140064
-0.00137925
-0.00135784
-0.00133639
-0.0013149
-0.00129338
-0.00127183
-0.00125024
-0.00122862
-0.00120697
-0.00118529
-0.00116358
-0.00114183
-0.00112005
-0.00109824
-0.0010764
-0.00105453
-0.00103263
-0.0010107
-0.000988736
-0.000966744
-0.000944724
-0.000922676
-0.000900598
-0.000878492
-0.000856357
-0.000834195
-0.000812007
-0.000789792
-0.000767551
-0.000745287
-0.000722998
-0.000700686
-0.000678352
-0.000655995
-0.000633616
-0.000611215
-0.000588792
-0.000566348
-0.000543881
-0.000521394
-0.000498885
-0.000476355
-0.000453804
-0.000431233
-0.000408641
-0.00038603
-0.000363399
-0.000340748
-0.000318078
-0.000295387
-0.000272677
-0.000249947
-0.000227198
-0.000204428
-0.00018164
-0.000158833
-0.000136006
-0.00011316
-9.02959e-05
-6.74132e-05
-4.45119e-05
-2.15929e-05
1.34459e-06
2.42991e-05
4.72714e-05
7.02615e-05
9.32679e-05
0.000116291
0.000139331
0.000162387
0.00018546
0.000208548
0.000231652
0.000254771
0.000277905
0.000301055
0.000324217
0.000347394
0.000370584
0.000393787
0.000417001
0.000440229
0.000463468
0.000486719
0.000509983
0.000533258
0.000556544
0.000579842
0.000603151
0.000626471
0.000649803
0.000673146
0.000696498
0.000719862
0.000743235
0.000766617
0.000790008
0.000813407
0.000836812
0.000860225
0.000883645
0.00090707
0.000930502
0.000953939
0.000977382
0.00100083
0.00102428
0.00104774
0.0010712
0.00109467
0.00111814
0.00114161
0.00116509
0.00118857
0.00121205
0.00123554
0.00125904
0.00128253
0.00130603
0.00132954
0.00135305
0.00137657
0.00140008
0.00142361
0.00144714
0.00147067
0.0014942
0.00151774
0.00154128
0.00156483
0.00158838
0.00161193
0.00163549
0.00165905
0.00168261
0.00170617
0.00172974
0.0017533
0.00177687
0.00180044
0.00182401
0.00184758
0.00187115
0.00189472
0.0019183
0.00194187
0.00196544
0.00198902
0.00201259
0.00203617
0.00205974
0.00208331
0.00210689
0.00213046
0.00215404
0.00217761
0.00220118
0.00222475
0.00224832
0.00227189
0.00229546
0.00231903
0.00234259
0.00236615
0.00238971
0.00241327
0.00243682
0.00246037
0.00248392
0.00250746
0.00253099
0.00255452
0.00257805
0.00260157
0.00262509
0.0026486
0.00267211
0.00269561
0.00271911
0.0027426
0.00276608
0.00278956
0.00281303
0.0028365
0.00285996
0.00288341
0.00290686
0.0029303
0.00295373
0.00297716
0.00300058
0.00302399
0.00304739
0.00307079
0.00309418
0.00311756
0.00314094
0.00316431
0.00318767
0.00321102
0.00323437
0.0032577
0.00328104
0.00330436
0.00332767
0.00335098
0.00337428
0.00339756
0.00342084
0.00344411
0.00346737
0.00349062
0.00351386
0.00353709
0.00356031
0.00358352
0.00360672
0.00362991
0.00365308
0.00367625
0.0036994
0.00372254
0.00374567
0.00376879
0.00379189
0.00381498
0.00383805
0.00386112
0.00388417
0.00390721
0.00393024
0.00395325
0.00397625
0.00399925
0.00402222
0.00404519
0.00406815
0.00409109
0.00411402
0.00413693
0.00415984
0.00418273
0.00420561
0.00422848
0.00425133
0.00427417
0.004297
0.00431981
0.00434261
0.0043654
0.00438817
0.00441093
0.00443368
0.00445641
0.00447913
0.00450183
0.00452452
0.0045472
0.00456986
0.00459251
0.00461514
0.00463776
0.00466037
0.00468295
0.00470553
0.00472808
0.00475062
0.00477315
0.00479566
0.00481815
0.00484063
0.0048631
0.00488554
0.00490797
0.00493039
0.00495279
0.00497517
0.00499754
0.0050199
0.00504223
0.00506455
0.00508686
0.00510914
0.00513142
0.00515367
0.00517591
0.00519813
0.00522033
0.00524252
0.00526469
0.00528684
0.00530897
0.00533108
0.00535318
0.00537525
0.00539731
0.00541935
0.00544137
0.00546337
0.00548535
0.00550731
0.00552925
0.00555117
0.00557307
0.00559495
0.00561682
0.00563866
0.00566049
0.00568229
0.00570407
0.00572584
0.00574758
0.00576931
0.00579101
0.0058127
0.00583436
0.00585601
0.00587763
0.00589924
0.00592082
0.00594239
0.00596393
0.00598546
0.00600696
0.00602845
0.00604991
0.00607136
0.00609279
0.00611419
0.00613558
0.00615694
0.00617829
0.00619961
0.00622092
0.0062422
0.00626347
0.00628471
0.00630593
0.00632713
0.00634831
0.00636947
0.00639061
0.00641173
0.00643282
0.0064539
0.00647495
0.00649598
0.00651698
0.00653797
0.00655893
0.00657986
0.00660078
0.00662167
0.00664254
0.00666338
0.00668421
0.00670501
0.00672578
0.00674654
0.00676727
0.00678797
0.00680866
0.00682932
0.00684996
0.00687058
0.00689118
0.00691175
0.0069323
0.00695283
0.00697333
0.00699381
0.00701427
0.00703471
0.00705513
0.00707552
0.00709589
0.00711624
0.00713656
0.00715686
0.00717714
0.0071974
0.00721763
0.00723785
0.00725803
0.0072782
0.00729834
0.00731846
0.00733856
0.00735863
0.00737868
0.00739871
0.00741871
0.00743869
0.00745865
0.00747858
0.00749849
0.00751838
0.00753824
0.00755808
0.00757789
0.00759768
0.00761744
0.00763718
0.0076569
0.00767659
0.00769626
0.00771591
0.00773553
0.00775512
0.00777469
0.00779424
0.00781376
0.00783326
0.00785273
0.00787218
0.0078916
0.007911
0.00793038
0.00794973
0.00796905
0.00798836
0.00800763
0.00802689
0.00804612
0.00806532
0.0080845
0.00810366
0.00812279
0.0081419
0.00816098
0.00818004
0.00819908
0.00821809
0.00823707
0.00825603
0.00827497
0.00829387
0.00831276
0.00833162
0
0

