-14930.3
-0.0222844
-0.00730284
-0.0026773
-0.000410355
0.00094795
0.001842
0.00245975
0.00289691
0.00320772
0.00342508
0.00356996
0.00365638
0.00369406
0.00369006
0.00364975
0.00357731
0.00347618
0.00334924
0.00319897
0.00302753
0.00283686
0.0026287
0.00240464
0.00216614
0.00191451
0.00165101
0.00137676
0.00109284
0.000800216
0.000499819
0.000192502
-0.000120934
-0.000439739
-0.000763212
-0.00109069
-0.00142157
-0.00175527
-0.00209123
-0.00242897
-0.002768
-0.00310787
-0.00344816
-0.00378849
-0.00412849
-0.0044678
-0.00480611
-0.00514312
-0.00547854
-0.00581212
-0.0061436
-0.00647276
-0.00679938
-0.00712328
-0.00744425
-0.00776215
-0.0080768
-0.00838806
-0.00869581
-0.00899991
-0.00930026
-0.00959675
-0.00988929
-0.0101778
-0.0104622
-0.0107424
-0.0110184
-0.0112901
-0.0115574
-0.0118204
-0.0120789
-0.012333
-0.0125826
-0.0128277
-0.0130683
-0.0133044
-0.0135359
-0.0137629
-0.0139854
-0.0142033
-0.0144167
-0.0146256
-0.01483
-0.0150298
-0.0152253
-0.0154162
-0.0156027
-0.0157849
-0.0159626
-0.016136
-0.016305
-0.0164697
-0.0166302
-0.0167865
-0.0169385
-0.0170864
-0.0172301
-0.0173698
-0.0175054
-0.017637
-0.0177646
-0.0178882
-0.018008
-0.0181239
-0.018236
-0.0183443
-0.0184489
-0.0185498
-0.018647
-0.0187406
-0.0188307
-0.0189172
-0.0190003
-0.0190799
-0.0191562
-0.019229
-0.0192986
-0.0193649
-0.019428
-0.0194879
-0.0195446
-0.0195983
-0.0196489
-0.0196964
-0.019741
-0.0197827
-0.0198215
-0.0198574
-0.0198905
-0.0199208
-0.0199484
-0.0199733
-0.0199956
-0.0200152
-0.0200322
-0.0200468
-0.0200588
-0.0200683
-0.0200754
-0.0200801
-0.0200825
-0.0200825
-0.0200803
-0.0200758
-0.0200691
-0.0200602
-0.0200491
-0.020036
-0.0200207
-0.0200035
-0.0199842
-0.0199629
-0.0199396
-0.0199145
-0.0198874
-0.0198585
-0.0198278
-0.0197953
-0.019761
-0.019725
-0.0196872
-0.0196478
-0.0196067
-0.0195641
-0.0195198
-0.0194739
-0.0194265
-0.0193776
-0.0193272
-0.0192753
-0.019222
-0.0191673
-0.0191112
-0.0190537
-0.0189949
-0.0189348
-0.0188734
-0.0188107
-0.0187468
-0.0186816
-0.0186153
-0.0185478
-0.0184791
-0.0184093
-0.0183384
-0.0182664
-0.0181934
-0.0181193
-0.0180442
-0.017968
-0.0178909
-0.0178128
-0.0177338
-0.0176538
-0.017573
-0.0174912
-0.0174086
-0.0173251
-0.0172408
-0.0171556
-0.0170697
-0.016983
-0.0168955
-0.0168073
-0.0167183
-0.0166287
-0.0165383
-0.0164472
-0.0163555
-0.0162631
-0.0161701
-0.0160765
-0.0159823
-0.0158874
-0.015792
-0.0156961
-0.0155996
-0.0155025
-0.015405
-0.0153069
-0.0152083
-0.0151093
-0.0150098
-0.0149098
-0.0148094
-0.0147086
-0.0146073
-0.0145057
-0.0144037
-0.0143013
-0.0141985
-0.0140953
-0.0139919
-0.013888
-0.0137839
-0.0136795
-0.0135747
-0.0134697
-0.0133644
-0.0132588
-0.013153
-0.0130469
-0.0129406
-0.012834
-0.0127273
-0.0126203
-0.0125132
-0.0124058
-0.0122983
-0.0121906
-0.0120827
-0.0119747
-0.0118665
-0.0117582
-0.0116498
-0.0115413
-0.0114326
-0.0113239
-0.011215
-0.0111061
-0.0109971
-0.010888
-0.0107789
-0.0106697
-0.0105604
-0.0104511
-0.0103418
-0.0102325
-0.0101231
-0.0100137
-0.00990434
-0.00979496
-0.00968558
-0.00957622
-0.00946687
-0.00935756
-0.00924827
-0.00913903
-0.00902983
-0.00892068
-0.00881158
-0.00870255
-0.00859358
-0.00848469
-0.00837588
-0.00826715
-0.00815851
-0.00804996
-0.00794151
-0.00783317
-0.00772494
-0.00761682
-0.00750882
-0.00740094
-0.00729319
-0.00718558
-0.0070781
-0.00697076
-0.00686357
-0.00675653
-0.00664964
-0.00654291
-0.00643635
-0.00632995
-0.00622372
-0.00611767
-0.00601179
-0.0059061
-0.00580059
-0.00569527
-0.00559015
-0.00548522
-0.00538049
-0.00527596
-0.00517164
-0.00506752
-0.00496362
-0.00485994
-0.00475647
-0.00465322
-0.0045502
-0.00444741
-0.00434484
-0.00424251
-0.00414042
-0.00403856
-0.00393694
-0.00383557
-0.00373444
-0.00363356
-0.00353293
-0.00343255
-0.00333243
-0.00323256
-0.00313296
-0.00303361
-0.00293453
-0.00283572
-0.00273717
-0.00263889
-0.00254089
-0.00244316
-0.0023457
-0.00224852
-0.00215162
-0.002055
-0.00195866
-0.0018626
-0.00176683
-0.00167135
-0.00157615
-0.00148124
-0.00138663
-0.00129231
-0.00119828
-0.00110454
-0.00101111
-0.000917965
-0.000825123
-0.000732582
-0.00064034
-0.000548401
-0.000456765
-0.000365432
-0.000274405
-0.000183683
-9.32682e-05
-3.16035e-06
8.66384e-05
0.000176128
0.000265307
0.000354177
0.000442734
0.000530979
0.000618912
0.00070653
0.000793835
0.000880824
0.000967498
0.00105386
0.0011399
0.00122562
0.00131103
0.00139612
0.00148089
0.00156535
0.00164948
0.0017333
0.0018168
0.00189998
0.00198284
0.00206538
0.0021476
0.0022295
0.00231107
0.00239233
0.00247327
0.00255389
0.00263418
0.00271416
0.00279382
0.00287315
0.00295216
0.00303086
0.00310923
0.00318728
0.00326501
0.00334243
0.00341952
0.00349629
0.00357274
0.00364887
0.00372468
0.00380018
0.00387535
0.00395021
0.00402474
0.00409896
0.00417286
0.00424645
0.00431972
0.00439266
0.0044653
0.00453762
0.00460962
0.0046813
0.00475267
0.00482373
0.00489447
0.0049649
0.00503502
0.00510482
0.00517432
0.0052435
0.00531237
0.00538092
0.00544917
0.00551711
0.00558474
0.00565207
0.00571908
0.00578579
0.00585219
0.00591828
0.00598407
0.00604956
0.00611474
0.00617962
0.00624419
0.00630847
0.00637244
0.00643611
0.00649948
0.00656256
0.00662533
0.00668781
0.00674999
0.00681187
0.00687346
0.00693475
0.00699575
0.00705645
0.00711687
0.00717699
0.00723682
0.00729636
0.00735561
0.00741458
0.00747325
0.00753164
0.00758974
0.00764756
0.00770509
0.00776234
0.00781931
0.00787599
0.0079324
0.00798852
0.00804437
0.00809993
0.00815522
0.00821024
0.00826497
0.00831943
0.00837362
0.00842754
0.00848118
0.00853455
0.00858765
0.00864048
0.00869305
0.00874534
0.00879737
0.00884914
0.00890063
0.00895187
0.00900284
0.00905355
0.009104
0.00915419
0.00920411
0.00925378
0.0093032
0.00935235
0.00940125
0.0094499
0.00949829
0.00954643
0.00959432
0.00964196
0.00968935
0.00973649
0.00978338
0.00983002
0.00987642
0.00992257
0.00996848
0.0100141
0.0100596
0.0101048
0.0101497
0.0101944
0.0102389
0.0102831
0.0103271
0.0103708
0.0104144
0.0104576
0.0105007
0.0105435
0.0105861
0.0106285
0.0106706
0.0107125
0.0107542
0.0107957
0.0108369
0.0108779
0.0109187
0.0109592
0.0109996
0.0110397
0.0110796
0.0111193
0.0111587
0.011198
0.011237
0.0112758
0.0113145
0.0113528
0.011391
0.011429
0.0114668
0.0115043
0.0115417
0.0115788
0.0116157
0.0116525
0.011689
0.0117253
0.0117614
0.0117974
0.0118331
0.0118686
0.0119039
0.011939
0.011974
0.0120087
0.0120432
0.0120776
0.0121117
0.0121457
0.0121794
0.012213
0.0122464
0.0122796
0.0123126
0.0123454
0.0123781
0.0124105
0.0124428
0.0124749
0.0125068
0.0125385
0.0125701
0.0126014
0.0126326
0.0126636
0.0126945
0.0127251
0.0127556
0.0127859
0.012816
0.012846
0.0128758
0.0129054
0.0129349
0.0129642
0.0129933
0.0130222
0.013051
0.0130796
0.0131081
0.0131363
0.0131645
0.0131924
0.0132202
0.0132479
0.0132753
0.0133027
0.0133298
0.0133568
0.0133837
0.0134104
0.0134369
0.0134633
0.0134895
0.0135156
0.0135415
0.0135673
0.0135929
0.0136184
0.0136437
0.0136689
0.0136939
0.0137188
0.0137436
0.0137682
0.0137926
0.0138169
0.0138411
0.0138651
0.013889
0.0139127
0.0139363
0.0139598
0.0139831
0.0140063
0.0140294
0.0140523
0.0140751
0.0140977
0.0141203
0.0141426
0.0141649
0.014187
0.014209
0.0142309
0.0142526
0.0142742
0.0142957
0.014317
0.0143382
0.0143593
0.0143803
0.0144012
0.0144219
0.0144425
0.014463
0.0144833
0.0145036
0.0145237
0.0145437
0.0145636
0.0145833
0.014603
0.0146225
0.0146419
0.0146612
0.0146804
0.0146994
0.0147184
0.0147372
0.0147559
0.0147746
0.0147931
0.0148115
0.0148297
0.0148479
0.014866
0.0148839
0.0149018
0.0149195
0.0149372
0.0149547
0.0149721
0.0149894
0.0150067
0.0150238
0.0150408
0.0150577
0.0150745
0.0150912
0.0151078
0.0151243
0.0151407
0.015157
0.0151733
0.0151894
0.0152054
0.0152213
0.0152371
0.0152529
0.0152685
0.015284
0.0152995
0.0153148
0.0153301
0.0153453
0.0153604
0.0153754
0.0153902
0.0154051
0.0154198
0.0154344
0.015449
0.0154634
0.0154778
0.0154921
0.0155062
0.0155204
0.0155344
0.0155483
0.0155622
0.0155759
0.0155896
0.0156032
0.0156168
0.0156302
0.0156436
0.0156568
0.01567
0.0156832
0.0156962
0.0157092
0.0157221
0.0157349
0.0157476
0.0157602
0.0157728
0.0157853
0.0157977
0.0158101
0.0158223
0.0158345
0.0158467
0.0158587
0.0158707
0.0158826
0.0158944
0.0159062
0.0159179
0.0159295
0.0159411
0.0159525
0.0159639
0.0159753
0.0159866
0.0159978
0.0160089
0.01602
0.016031
0.0160419
0.0160528
0.0160636
0.0160743
0.016085
0.0160956
0.0161061
0.0161166
0.016127
0.0161374
0.0161477
0.0161579
0.0161681
0.0161782
0.0161882
0.0161982
0.0162081
0.016218
0.0162278
0.0162375
0.0162472
0.0162568
0.0162664
0.0162759
0.0162853
0.0162947
0.0163041
0.0163133
0.0163226
0.0163317
0.0163408
0.0163499
0.0163589
0.0163678
0.0163767
0.0163856
0.0163944
0.0164031
0.0164118
0.0164204
0.016429
0.0164375
0.016446
0.0164544
0.0164627
0.0164711
0.0164793
0.0164875
0.0164957
0.0165038
0.0165119
0.0165199
0.0165279
0.0165358
0.0165437
0.0165515
0.0165593
0.016567
0.0165747
0.0165824
0.0165899
0.0165975
0.016605
0.0166125
0.0166199
0.0166272
0.0166346
0.0166418
0.0166491
0.0166563
0.0166634
0.0166705
0.0166776
0.0166846
0.0166916
0.0166985
0.0167054
0.0167122
0.0167191
0.0167258
0.0167326
0.0167392
0.0167459
0.0167525
0.0167591
0.0167656
0.0167721
0.0167785
0.0167849
0.0167913
0.0167976
0.0168039
0.0168102
0.0168164
0.0168226
0.0168287
0.0168349
0.0168409
0.016847
0.016853
0.0168589
0.0168649
0.0168707
0.0168766
0.0168824
0.0168882
0.016894
0.0168997
0.0169054
0.016911
0.0169166
0.0169222
0.0169278
0.0169333
0.0169388
0.0169442
0.0169496
0.016955
0.0169604
0.0169657
0.016971
0.0169762
0.0169815
0.0169866
0.0169918
0.0169969
0.017002
0.0170071
0.0170122
0.0170172
0.0170222
0.0170271
0.017032
0.0170369
0.0170418
0.0170466
0.0170514
0.0170562
0.017061
0.0170657
0.0170704
0.017075
0.0170797
0.0170843
0.0170889
0.0170934
0.017098
0.0171025
0.0171069
0.0171114
0.0171158
0.0171202
0.0171246
0.0171289
0.0171332
0.0171375
0.0171418
0.0171461
0.0171503
0.0171545
0.0171586
0.0171628
0.0171669
0.017171
0.0171751
0.0171791
0.0171831
0.0171871
0.0171911
0.0171951
0.017199
0.0172029
0.0172068
0.0172107
0.0172145
0.0172183
0.0172221
0.0172259
0.0172296
0.0172334
0.0172371
0.0172407
0.0172444
0.017248
0.0172517
0.0172553
0.0172588
0.0172624
0.0172659
0.0172695
0.017273
0.0172764
0.0172799
0.0172833
0.0172867
0.0172901
0.0172935
0.0172969
0.0173002
0.0173035
0.0173068
0.0173101
0.0173134
0.0173166
0.0173198
0.017323
0.0173262
0.0173294
0.0173325
0.0173357
0.0173388
0.0173419
0.0173449
0.017348
0.017351
0.0173541
0.0173571
0.0173601
0.017363
0.017366
0.0173689
0.0173719
0.0173748
0.0173776
0.0173805
0.0173834
0.0173862
0.017389
0.0173918
0.0173946
0.0173974
0.0174002
0.0174029
0.0174056
0.0174084
0.017411
0.0174137
0.0174164
0.017419
0
0

