-14930.3
-0.0222844
-0.00735349
-0.00278162
-0.000548973
0.000802333
0.00171868
0.00238767
0.00290376
0.00331958
0.00366638
0.00396348
0.00422328
0.00445399
0.00466124
0.00484899
0.00502016
0.00517693
0.00532102
0.0054538
0.0055764
0.00568975
0.00579467
0.00589184
0.00598187
0.00606528
0.00614256
0.00621411
0.00628033
0.00634154
0.00639805
0.00645014
0.00649807
0.00654205
0.0065823
0.00661901
0.00665237
0.00668253
0.00670965
0.00673388
0.00675534
0.00677416
0.00679046
0.00680434
0.0068159
0.00682525
0.00683246
0.00683764
0.00684085
0.00684218
0.0068417
0.00683948
0.00683558
0.00683007
0.006823
0.00681444
0.00680444
0.00679305
0.00678031
0.00676629
0.00675101
0.00673454
0.0067169
0.00669814
0.00667831
0.00665742
0.00663553
0.00661267
0.00658886
0.00656415
0.00653857
0.00651214
0.00648489
0.00645686
0.00642807
0.00639855
0.00636832
0.00633741
0.00630585
0.00627366
0.00624085
0.00620746
0.00617351
0.00613901
0.00610399
0.00606847
0.00603246
0.00599599
0.00595908
0.00592173
0.00588398
0.00584583
0.0058073
0.00576842
0.00572918
0.00568962
0.00564974
0.00560956
0.00556909
0.00552835
0.00548735
0.00544609
0.0054046
0.00536289
0.00532097
0.00527884
0.00523653
0.00519404
0.00515138
0.00510856
0.0050656
0.0050225
0.00497927
0.00493592
0.00489246
0.0048489
0.00480525
0.00476151
0.0047177
0.00467382
0.00462987
0.00458588
0.00454183
0.00449775
0.00445364
0.0044095
0.00436534
0.00432116
0.00427698
0.0042328
0.00418863
0.00414446
0.00410031
0.00405619
0.00401208
0.00396802
0.00392398
0.00387999
0.00383605
0.00379215
0.00374831
0.00370453
0.00366082
0.00361717
0.00357359
0.00353009
0.00348667
0.00344333
0.00340007
0.00335691
0.00331384
0.00327086
0.00322799
0.00318522
0.00314255
0.00309999
0.00305754
0.0030152
0.00297299
0.00293089
0.00288891
0.00284705
0.00280532
0.00276372
0.00272225
0.00268091
0.00263971
0.00259864
0.00255771
0.00251693
0.00247628
0.00243578
0.00239542
0.00235521
0.00231514
0.00227523
0.00223547
0.00219586
0.00215641
0.00211711
0.00207797
0.00203898
0.00200016
0.00196149
0.00192299
0.00188465
0.00184647
0.00180846
0.00177061
0.00173292
0.00169541
0.00165806
0.00162088
0.00158387
0.00154703
0.00151036
0.00147386
0.00143753
0.00140137
0.00136539
0.00132958
0.00129395
0.00125848
0.0012232
0.00118809
0.00115315
0.00111839
0.0010838
0.00104939
0.00101516
0.000981107
0.000947229
0.000913528
0.000880006
0.000846661
0.000813493
0.000780504
0.000747692
0.000715059
0.000682604
0.000650328
0.000618229
0.000586309
0.000554567
0.000523004
0.000491618
0.000460411
0.000429383
0.000398532
0.00036786
0.000337365
0.000307049
0.00027691
0.000246949
0.000217166
0.00018756
0.000158132
0.00012888
9.98058e-05
7.09081e-05
4.21867e-05
1.36422e-05
-1.47268e-05
-4.29203e-05
-7.09375e-05
-9.87793e-05
-0.000126446
-0.000153938
-0.000181256
-0.0002084
-0.000235369
-0.000262165
-0.000288787
-0.000315236
-0.000341513
-0.000367616
-0.000393549
-0.000419309
-0.000444898
-0.000470315
-0.000495562
-0.000520639
-0.000545546
-0.000570283
-0.000594851
-0.000619249
-0.00064348
-0.000667542
-0.000691438
-0.000715165
-0.000738725
-0.00076212
-0.000785348
-0.00080841
-0.000831307
-0.000854039
-0.000876607
-0.000899011
-0.000921251
-0.000943328
-0.000965242
-0.000986995
-0.00100858
-0.00103001
-0.00105128
-0.00107239
-0.00109334
-0.00111412
-0.00113475
-0.00115522
-0.00117554
-0.00119569
-0.00121569
-0.00123553
-0.00125521
-0.00127474
-0.00129411
-0.00131333
-0.00133239
-0.0013513
-0.00137005
-0.00138865
-0.0014071
-0.0014254
-0.00144354
-0.00146154
-0.00147938
-0.00149707
-0.00151461
-0.00153201
-0.00154925
-0.00156635
-0.0015833
-0.0016001
-0.00161675
-0.00163326
-0.00164962
-0.00166584
-0.00168191
-0.00169783
-0.00171361
-0.00172925
-0.00174475
-0.0017601
-0.00177531
-0.00179038
-0.00180531
-0.00182009
-0.00183474
-0.00184924
-0.00186361
-0.00187784
-0.00189193
-0.00190588
-0.00191969
-0.00193337
-0.00194691
-0.00196032
-0.00197359
-0.00198672
-0.00199972
-0.00201259
-0.00202532
-0.00203792
-0.00205038
-0.00206271
-0.00207492
-0.00208699
-0.00209893
-0.00211073
-0.00212241
-0.00213396
-0.00214538
-0.00215668
-0.00216784
-0.00217888
-0.00218978
-0.00220057
-0.00221122
-0.00222175
-0.00223216
-0.00224244
-0.00225259
-0.00226262
-0.00227253
-0.00228232
-0.00229198
-0.00230152
-0.00231094
-0.00232023
-0.00232941
-0.00233847
-0.0023474
-0.00235622
-0.00236491
-0.00237349
-0.00238195
-0.00239029
-0.00239852
-0.00240663
-0.00241462
-0.0024225
-0.00243026
-0.0024379
-0.00244543
-0.00245285
-0.00246015
-0.00246734
-0.00247441
-0.00248138
-0.00248823
-0.00249497
-0.00250159
-0.00250811
-0.00251452
-0.00252081
-0.002527
-0.00253308
-0.00253905
-0.00254491
-0.00255066
-0.0025563
-0.00256184
-0.00256727
-0.0025726
-0.00257782
-0.00258293
-0.00258794
-0.00259284
-0.00259764
-0.00260233
-0.00260693
-0.00261141
-0.0026158
-0.00262008
-0.00262427
-0.00262835
-0.00263232
-0.0026362
-0.00263998
-0.00264366
-0.00264724
-0.00265072
-0.0026541
-0.00265738
-0.00266056
-0.00266365
-0.00266664
-0.00266953
-0.00267233
-0.00267503
-0.00267763
-0.00268014
-0.00268256
-0.00268488
-0.0026871
-0.00268923
-0.00269127
-0.00269322
-0.00269507
-0.00269683
-0.0026985
-0.00270007
-0.00270156
-0.00270295
-0.00270426
-0.00270547
-0.00270659
-0.00270763
-0.00270857
-0.00270943
-0.0027102
-0.00271088
-0.00271147
-0.00271198
-0.0027124
-0.00271273
-0.00271297
-0.00271313
-0.00271321
-0.0027132
-0.0027131
-0.00271292
-0.00271266
-0.00271231
-0.00271188
-0.00271136
-0.00271076
-0.00271008
-0.00270932
-0.00270848
-0.00270755
-0.00270655
-0.00270546
-0.00270429
-0.00270305
-0.00270172
-0.00270031
-0.00269883
-0.00269726
-0.00269562
-0.0026939
-0.0026921
-0.00269022
-0.00268827
-0.00268624
-0.00268413
-0.00268195
-0.00267969
-0.00267735
-0.00267494
-0.00267246
-0.0026699
-0.00266727
-0.00266456
-0.00266178
-0.00265892
-0.00265599
-0.00265299
-0.00264992
-0.00264677
-0.00264356
-0.00264027
-0.00263691
-0.00263348
-0.00262998
-0.00262641
-0.00262277
-0.00261905
-0.00261527
-0.00261142
-0.00260751
-0.00260352
-0.00259946
-0.00259534
-0.00259115
-0.00258689
-0.00258257
-0.00257818
-0.00257372
-0.00256919
-0.0025646
-0.00255995
-0.00255523
-0.00255044
-0.00254559
-0.00254067
-0.00253569
-0.00253065
-0.00252554
-0.00252037
-0.00251514
-0.00250984
-0.00250448
-0.00249906
-0.00249358
-0.00248803
-0.00248243
-0.00247676
-0.00247103
-0.00246524
-0.00245939
-0.00245348
-0.00244751
-0.00244149
-0.0024354
-0.00242925
-0.00242305
-0.00241678
-0.00241046
-0.00240408
-0.00239764
-0.00239115
-0.00238459
-0.00237799
-0.00237132
-0.0023646
-0.00235782
-0.00235098
-0.00234409
-0.00233715
-0.00233015
-0.00232309
-0.00231598
-0.00230882
-0.0023016
-0.00229433
-0.002287
-0.00227962
-0.00227219
-0.00226471
-0.00225717
-0.00224958
-0.00224194
-0.00223424
-0.0022265
-0.0022187
-0.00221085
-0.00220295
-0.002195
-0.002187
-0.00217895
-0.00217085
-0.0021627
-0.0021545
-0.00214625
-0.00213795
-0.0021296
-0.00212121
-0.00211276
-0.00210427
-0.00209573
-0.00208714
-0.00207851
-0.00206983
-0.0020611
-0.00205232
-0.0020435
-0.00203463
-0.00202572
-0.00201676
-0.00200775
-0.0019987
-0.0019896
-0.00198046
-0.00197127
-0.00196204
-0.00195276
-0.00194344
-0.00193408
-0.00192467
-0.00191522
-0.00190573
-0.00189619
-0.00188661
-0.00187699
-0.00186733
-0.00185762
-0.00184787
-0.00183808
-0.00182825
-0.00181838
-0.00180846
-0.00179851
-0.00178851
-0.00177848
-0.0017684
-0.00175828
-0.00174813
-0.00173793
-0.00172769
-0.00171742
-0.00170711
-0.00169675
-0.00168636
-0.00167593
-0.00166546
-0.00165496
-0.00164441
-0.00163383
-0.00162321
-0.00161255
-0.00160186
-0.00159113
-0.00158036
-0.00156956
-0.00155872
-0.00154784
-0.00153693
-0.00152598
-0.001515
-0.00150398
-0.00149292
-0.00148183
-0.00147071
-0.00145955
-0.00144836
-0.00143713
-0.00142587
-0.00141457
-0.00140324
-0.00139188
-0.00138048
-0.00136905
-0.00135759
-0.0013461
-0.00133457
-0.00132301
-0.00131142
-0.00129979
-0.00128814
-0.00127645
-0.00126473
-0.00125298
-0.0012412
-0.00122938
-0.00121754
-0.00120566
-0.00119376
-0.00118182
-0.00116986
-0.00115786
-0.00114584
-0.00113378
-0.0011217
-0.00110958
-0.00109744
-0.00108527
-0.00107307
-0.00106084
-0.00104858
-0.00103629
-0.00102398
-0.00101163
-0.000999264
-0.000986866
-0.000974441
-0.000961987
-0.000949507
-0.000937001
-0.000924466
-0.000911906
-0.000899318
-0.000886705
-0.000874065
-0.000861399
-0.000848707
-0.00083599
-0.000823247
-0.000810478
-0.000797684
-0.000784865
-0.000772021
-0.000759152
-0.000746259
-0.000733341
-0.000720399
-0.000707432
-0.000694441
-0.000681427
-0.000668389
-0.000655327
-0.000642241
-0.000629133
-0.000616001
-0.000602846
-0.000589668
-0.000576468
-0.000563245
-0.000549999
-0.000536731
-0.000523442
-0.000510129
-0.000496796
-0.00048344
-0.000470063
-0.000456664
-0.000443245
-0.000429804
-0.000416341
-0.000402859
-0.000389355
-0.00037583
-0.000362286
-0.000348721
-0.000335136
-0.00032153
-0.000307905
-0.000294261
-0.000280596
-0.000266912
-0.000253209
-0.000239487
-0.000225744
-0.000211984
-0.000198205
-0.000184406
-0.00017059
-0.000156754
-0.000142901
-0.00012903
-0.00011514
-0.000101232
-8.73066e-05
-7.33641e-05
-5.94031e-05
-4.54257e-05
-3.14299e-05
-1.74177e-05
-3.38843e-06
1.06579e-05
2.47212e-05
3.88009e-05
5.28969e-05
6.70093e-05
8.1138e-05
9.52831e-05
0.000109444
0.000123621
0.000137814
0.000152022
0.000166246
0.000180486
0.00019474
0.000209011
0.000223295
0.000237595
0.00025191
0.000266239
0.000280583
0.000294941
0.000309314
0.000323701
0.000338102
0.000352517
0.000366946
0.000381389
0.000395845
0.000410315
0.000424798
0.000439295
0.000453805
0.000468328
0.000482863
0.000497413
0.000511974
0.000526548
0.000541135
0.000555734
0.000570346
0.000584969
0.000599605
0.000614253
0.000628913
0.000643584
0.000658267
0.000672962
0.000687667
0.000702384
0.000717113
0.000731853
0.000746603
0.000761365
0.000776137
0.00079092
0.000805714
0.000820517
0.000835332
0.000850157
0.000864992
0.000879837
0.000894692
0.000909557
0.000924432
0.000939316
0.00095421
0.000969114
0.000984027
0.000998949
0.00101388
0.00102882
0.00104377
0.00105873
0.0010737
0.00108867
0.00110366
0.00111865
0.00113365
0.00114866
0.00116368
0.00117871
0.00119374
0.00120878
0.00122383
0.00123889
0.00125396
0.00126903
0.00128411
0.0012992
0.00131429
0.0013294
0.00134451
0.00135962
0.00137475
0.00138988
0.00140501
0.00142016
0.00143531
0.00145047
0.00146563
0.0014808
0.00149597
0.00151116
0.00152634
0.00154154
0.00155674
0.00157194
0.00158716
0.00160237
0.0016176
0.00163282
0.00164806
0.0016633
0.00167854
0.00169379
0.00170904
0.0017243
0.00173957
0.00175484
0.00177011
0.00178539
0.00180067
0.00181596
0.00183125
0.00184655
0.00186185
0.00187715
0.00189246
0.00190777
0.00192309
0.00193841
0.00195373
0.00196906
0.00198439
0.00199973
0.00201506
0.00203041
0.00204575
0.0020611
0.00207645
0.0020918
0.00210716
0.00212252
0.00213788
0.00215325
0.00216862
0.00218399
0.00219936
0.00221474
0.00223012
0.0022455
0.00226088
0.00227627
0.00229166
0.00230705
0.00232244
0.00233783
0.00235323
0.00236862
0.00238402
0.00239942
0.00241482
0.00243023
0.00244563
0.00246104
0.00247645
0.00249185
0.00250726
0.00252267
0.00253809
0.0025535
0.00256891
0.00258433
0.00259974
0.00261516
0.00263058
0.00264599
0.00266141
0.00267683
0.00269225
0.00270767
0.00272308
0.0027385
0.00275392
0.00276934
0.00278476
0.00280018
0.0028156
0.00283102
0.00284644
0.00286185
0.00287727
0.00289269
0.0029081
0.00292352
0.00293893
0.00295435
0.00296976
0.00298518
0.00300059
0.003016
0.00303141
0.00304682
0.00306222
0.00307763
0.00309304
0.00310844
0.00312384
0.00313924
0.00315464
0.00317004
0.00318544
0.00320083
0.00321623
0.00323162
0.00324701
0.00326239
0.00327778
0.00329316
0.00330855
0.00332393
0.0033393
0.00335468
0.00337005
0.00338542
0.00340079
0.00341616
0.00343152
0.00344688
0.00346224
0.0034776
0
0

