-14930.3
-0.0222844
-0.00729261
-0.00263601
-0.000311623
0.0011315
0.00213612
0.0028875
0.00347841
0.00396027
0.00436349
0.00470686
0.00500248
0.00525848
0.00548051
0.0056727
0.0058382
0.00597949
0.00609863
0.00619736
0.00627718
0.00633944
0.00638533
0.00641595
0.00643231
0.00643531
0.00642583
0.00640464
0.0063725
0.00633009
0.00627806
0.00621701
0.00614751
0.0060701
0.00598528
0.00589352
0.00579528
0.00569097
0.00558099
0.00546573
0.00534555
0.00522078
0.00509175
0.00495876
0.00482212
0.00468208
0.00453892
0.00439289
0.00424422
0.00409315
0.00393988
0.00378461
0.00362756
0.00346889
0.00330879
0.00314742
0.00298495
0.00282153
0.00265729
0.00249239
0.00232694
0.00216108
0.00199492
0.00182859
0.00166217
0.00149578
0.00132952
0.00116348
0.000997747
0.000832405
0.000667534
0.000503211
0.000339508
0.000176493
1.42341e-05
-0.000147208
-0.000307774
-0.000467407
-0.000626055
-0.000783667
-0.000940196
-0.0010956
-0.00124982
-0.00140284
-0.00155461
-0.0017051
-0.00185427
-0.00200208
-0.00214852
-0.00229355
-0.00243715
-0.00257929
-0.00271995
-0.00285911
-0.00299674
-0.00313284
-0.00326738
-0.00340034
-0.00353173
-0.00366151
-0.00378968
-0.00391623
-0.00404115
-0.00416443
-0.00428607
-0.00440605
-0.00452437
-0.00464103
-0.00475602
-0.00486934
-0.00498098
-0.00509096
-0.00519925
-0.00530588
-0.00541082
-0.0055141
-0.0056157
-0.00571563
-0.00581389
-0.00591049
-0.00600543
-0.00609871
-0.00619035
-0.00628033
-0.00636868
-0.00645539
-0.00654047
-0.00662393
-0.00670578
-0.00678602
-0.00686466
-0.00694171
-0.00701717
-0.00709106
-0.00716338
-0.00723414
-0.00730335
-0.00737102
-0.00743716
-0.00750178
-0.00756489
-0.00762649
-0.00768661
-0.00774524
-0.0078024
-0.0078581
-0.00791235
-0.00796517
-0.00801655
-0.00806651
-0.00811507
-0.00816223
-0.008208
-0.0082524
-0.00829544
-0.00833712
-0.00837747
-0.00841648
-0.00845418
-0.00849057
-0.00852566
-0.00855947
-0.008592
-0.00862327
-0.0086533
-0.00868208
-0.00870964
-0.00873597
-0.00876111
-0.00878505
-0.0088078
-0.00882938
-0.00884981
-0.00886908
-0.00888722
-0.00890422
-0.00892012
-0.0089349
-0.0089486
-0.00896121
-0.00897274
-0.00898322
-0.00899264
-0.00900103
-0.00900838
-0.00901472
-0.00902005
-0.00902438
-0.00902773
-0.00903009
-0.00903149
-0.00903194
-0.00903144
-0.00903001
-0.00902764
-0.00902437
-0.00902019
-0.00901511
-0.00900915
-0.00900231
-0.0089946
-0.00898604
-0.00897664
-0.00896639
-0.00895532
-0.00894343
-0.00893073
-0.00891723
-0.00890294
-0.00888787
-0.00887203
-0.00885542
-0.00883806
-0.00881995
-0.00880111
-0.00878154
-0.00876125
-0.00874024
-0.00871854
-0.00869614
-0.00867306
-0.0086493
-0.00862487
-0.00859978
-0.00857404
-0.00854765
-0.00852063
-0.00849298
-0.0084647
-0.00843582
-0.00840633
-0.00837624
-0.00834556
-0.0083143
-0.00828246
-0.00825006
-0.00821709
-0.00818358
-0.00814951
-0.00811491
-0.00807978
-0.00804412
-0.00800795
-0.00797126
-0.00793407
-0.00789638
-0.00785821
-0.00781954
-0.00778041
-0.0077408
-0.00770073
-0.0076602
-0.00761922
-0.00757779
-0.00753593
-0.00749363
-0.0074509
-0.00740776
-0.0073642
-0.00732024
-0.00727587
-0.00723111
-0.00718595
-0.00714041
-0.00709449
-0.0070482
-0.00700154
-0.00695452
-0.00690714
-0.00685941
-0.00681134
-0.00676292
-0.00671417
-0.00666509
-0.00661569
-0.00656596
-0.00651593
-0.00646558
-0.00641493
-0.00636398
-0.00631273
-0.0062612
-0.00620938
-0.00615728
-0.00610491
-0.00605226
-0.00599935
-0.00594618
-0.00589276
-0.00583908
-0.00578516
-0.00573099
-0.00567658
-0.00562194
-0.00556708
-0.00551198
-0.00545667
-0.00540113
-0.00534539
-0.00528944
-0.00523328
-0.00517692
-0.00512037
-0.00506362
-0.00500669
-0.00494957
-0.00489227
-0.0048348
-0.00477715
-0.00471933
-0.00466135
-0.00460321
-0.00454491
-0.00448645
-0.00442784
-0.00436909
-0.00431019
-0.00425116
-0.00419199
-0.00413268
-0.00407324
-0.00401368
-0.003954
-0.00389419
-0.00383427
-0.00377424
-0.0037141
-0.00365385
-0.0035935
-0.00353304
-0.00347249
-0.00341185
-0.00335111
-0.00329029
-0.00322938
-0.00316839
-0.00310732
-0.00304617
-0.00298495
-0.00292366
-0.0028623
-0.00280088
-0.0027394
-0.00267785
-0.00261625
-0.0025546
-0.00249289
-0.00243114
-0.00236933
-0.00230749
-0.0022456
-0.00218368
-0.00212172
-0.00205973
-0.0019977
-0.00193565
-0.00187357
-0.00181147
-0.00174935
-0.0016872
-0.00162504
-0.00156287
-0.00150068
-0.00143849
-0.00137629
-0.00131408
-0.00125187
-0.00118965
-0.00112744
-0.00106523
-0.00100303
-0.000940834
-0.000878648
-0.000816473
-0.000754311
-0.000692165
-0.000630037
-0.000567929
-0.000505841
-0.000443777
-0.000381738
-0.000319726
-0.000257742
-0.00019579
-0.00013387
-7.19849e-05
-1.01352e-05
5.16762e-05
0.000113448
0.000175179
0.000236867
0.000298509
0.000360105
0.000421654
0.000483153
0.0005446
0.000605995
0.000667335
0.00072862
0.000789845
0.000851012
0.000912118
0.000973162
0.00103414
0.00109506
0.00115591
0.00121669
0.0012774
0.00133804
0.00139861
0.0014591
0.00151952
0.00157987
0.00164014
0.00170033
0.00176043
0.00182046
0.00188041
0.00194027
0.00200004
0.00205973
0.00211934
0.00217885
0.00223828
0.00229761
0.00235685
0.002416
0.00247506
0.00253402
0.00259288
0.00265164
0.00271031
0.00276888
0.00282735
0.00288571
0.00294398
0.00300214
0.00306019
0.00311814
0.00317598
0.00323372
0.00329135
0.00334887
0.00340628
0.00346357
0.00352076
0.00357783
0.0036348
0.00369164
0.00374837
0.00380499
0.00386149
0.00391787
0.00397413
0.00403027
0.0040863
0.0041422
0.00419798
0.00425364
0.00430918
0.0043646
0.00441989
0.00447505
0.00453009
0.00458501
0.0046398
0.00469446
0.00474899
0.0048034
0.00485767
0.00491182
0.00496584
0.00501972
0.00507347
0.0051271
0.00518059
0.00523394
0.00528717
0.00534026
0.00539321
0.00544604
0.00549872
0.00555127
0.00560368
0.00565596
0.0057081
0.0057601
0.00581197
0.00586369
0.00591528
0.00596673
0.00601804
0.00606921
0.00612024
0.00617112
0.00622187
0.00627248
0.00632294
0.00637326
0.00642344
0.00647348
0.00652338
0.00657313
0.00662274
0.0066722
0.00672152
0.0067707
0.00681973
0.00686862
0.00691736
0.00696596
0.00701441
0.00706271
0.00711087
0.00715889
0.00720676
0.00725448
0.00730206
0.00734948
0.00739677
0.0074439
0.00749089
0.00753773
0.00758442
0.00763097
0.00767737
0.00772362
0.00776972
0.00781568
0.00786148
0.00790714
0.00795265
0.00799802
0.00804323
0.0080883
0.00813321
0.00817798
0.0082226
0.00826707
0.0083114
0.00835557
0.0083996
0.00844347
0.0084872
0.00853078
0.00857421
0.0086175
0.00866063
0.00870361
0.00874645
0.00878914
0.00883168
0.00887407
0.00891631
0.00895841
0.00900035
0.00904215
0.0090838
0.0091253
0.00916665
0.00920786
0.00924892
0.00928983
0.00933059
0.0093712
0.00941167
0.00945199
0.00949216
0.00953219
0.00957207
0.0096118
0.00965138
0.00969082
0.00973011
0.00976926
0.00980826
0.00984711
0.00988582
0.00992438
0.00996279
0.0100011
0.0100392
0.0100772
0.010115
0.0101527
0.0101902
0.0102276
0.0102649
0.010302
0.010339
0.0103758
0.0104125
0.010449
0.0104854
0.0105217
0.0105578
0.0105938
0.0106296
0.0106653
0.0107008
0.0107362
0.0107715
0.0108066
0.0108416
0.0108764
0.0109111
0.0109457
0.0109801
0.0110144
0.0110485
0.0110825
0.0111164
0.0111501
0.0111837
0.0112172
0.0112505
0.0112837
0.0113167
0.0113496
0.0113824
0.011415
0.0114475
0.0114799
0.0115121
0.0115442
0.0115761
0.0116079
0.0116396
0.0116712
0.0117026
0.0117339
0.011765
0.0117961
0.011827
0.0118577
0.0118883
0.0119188
0.0119492
0.0119794
0.0120095
0.0120395
0.0120693
0.0120991
0.0121286
0.0121581
0.0121874
0.0122166
0.0122457
0.0122746
0.0123035
0.0123322
0.0123607
0.0123892
0.0124175
0.0124457
0.0124737
0.0125017
0.0125295
0.0125572
0.0125848
0.0126122
0.0126395
0.0126667
0.0126938
0.0127208
0.0127476
0.0127743
0.0128009
0.0128274
0.0128537
0.01288
0.0129061
0.0129321
0.012958
0.0129837
0.0130094
0.0130349
0.0130603
0.0130856
0.0131108
0.0131358
0.0131608
0.0131856
0.0132103
0.0132349
0.0132594
0.0132838
0.013308
0.0133322
0.0133562
0.0133801
0.0134039
0.0134276
0.0134512
0.0134747
0.0134981
0.0135213
0.0135445
0.0135675
0.0135904
0.0136132
0.013636
0.0136586
0.0136811
0.0137034
0.0137257
0.0137479
0.01377
0.0137919
0.0138138
0.0138356
0.0138572
0.0138788
0.0139002
0.0139215
0.0139428
0.0139639
0.0139849
0.0140059
0.0140267
0.0140474
0.0140681
0.0140886
0.014109
0.0141293
0.0141496
0.0141697
0.0141897
0.0142097
0.0142295
0.0142493
0.0142689
0.0142884
0.0143079
0.0143272
0.0143465
0.0143657
0.0143847
0.0144037
0.0144226
0.0144414
0.0144601
0.0144787
0.0144972
0.0145156
0.0145339
0.0145522
0.0145703
0.0145884
0.0146063
0.0146242
0.014642
0.0146597
0.0146773
0.0146948
0.0147122
0.0147296
0.0147468
0.014764
0.0147811
0.0147981
0.014815
0.0148318
0.0148485
0.0148652
0.0148817
0.0148982
0.0149146
0.0149309
0.0149472
0.0149633
0.0149794
0.0149954
0.0150113
0.0150271
0.0150429
0.0150585
0.0150741
0.0150896
0.015105
0.0151204
0.0151356
0.0151508
0.0151659
0.0151809
0.0151959
0.0152108
0.0152256
0.0152403
0.0152549
0.0152695
0.015284
0.0152984
0.0153127
0.015327
0.0153412
0.0153553
0.0153694
0.0153833
0.0153972
0.0154111
0.0154248
0.0154385
0.0154521
0.0154657
0.0154791
0.0154925
0.0155059
0.0155191
0.0155323
0.0155454
0.0155585
0.0155715
0.0155844
0.0155972
0.01561
0.0156227
0.0156353
0.0156479
0.0156604
0.0156729
0.0156853
0.0156976
0.0157098
0.015722
0.0157341
0.0157462
0.0157582
0.0157701
0.0157819
0.0157937
0.0158055
0.0158171
0.0158288
0.0158403
0.0158518
0.0158632
0.0158746
0.0158859
0.0158971
0.0159083
0.0159194
0.0159305
0.0159415
0.0159524
0.0159633
0.0159742
0.0159849
0.0159956
0.0160063
0.0160169
0.0160274
0.0160379
0.0160483
0.0160587
0.016069
0.0160793
0.0160895
0.0160996
0.0161097
0.0161198
0.0161297
0.0161397
0.0161495
0.0161594
0.0161691
0.0161789
0.0161885
0.0161981
0.0162077
0.0162172
0.0162266
0.016236
0.0162454
0.0162547
0.016264
0.0162732
0.0162823
0.0162914
0.0163004
0.0163095
0.0163184
0.0163273
0.0163362
0.016345
0.0163537
0.0163624
0.0163711
0.0163797
0.0163883
0.0163968
0.0164053
0.0164137
0.0164221
0.0164304
0.0164387
0.0164469
0.0164551
0.0164633
0.0164714
0.0164795
0.0164875
0.0164954
0.0165034
0.0165113
0.0165191
0.0165269
0.0165347
0.0165424
0.0165501
0.0165577
0.0165653
0.0165728
0.0165803
0.0165878
0.0165952
0.0166026
0.0166099
0.0166172
0.0166245
0.0166317
0.0166389
0.016646
0.0166531
0.0166602
0.0166672
0.0166742
0.0166811
0.016688
0.0166949
0.0167017
0.0167085
0.0167152
0.016722
0.0167286
0.0167353
0.0167419
0.0167484
0.016755
0.0167615
0.0167679
0.0167743
0.0167807
0.0167871
0.0167934
0.0167997
0.0168059
0.0168121
0.0168183
0.0168244
0.0168305
0.0168366
0.0168427
0.0168487
0.0168546
0.0168606
0.0168665
0.0168723
0.0168782
0.016884
0.0168898
0.0168955
0.0169012
0.0169069
0.0169125
0.0169181
0.0169237
0.0169293
0.0169348
0.0169403
0.0169457
0.0169512
0.0169566
0.0169619
0.0169673
0.0169726
0.0169779
0.0169831
0.0169883
0.0169935
0.0169987
0.0170038
0.0170089
0.017014
0.017019
0.017024
0.017029
0.017034
0.0170389
0.0170438
0.0170487
0.0170536
0.0170584
0.0170632
0.0170679
0.0170727
0.0170774
0.0170821
0.0170868
0.0170914
0.017096
0
0

