-14930.3
-0.0222844
-0.00729798
-0.00266028
-0.000375066
0.00100518
0.00192285
0.00256488
0.00302685
0.00336345
0.00360836
0.00378344
0.00390358
0.00397933
0.00401845
0.00402687
0.00400924
0.00396931
0.00391019
0.00383448
0.00374438
0.00364179
0.00352837
0.00340555
0.00327459
0.00313658
0.00299251
0.00284323
0.00268949
0.00253199
0.00237132
0.00220802
0.00204259
0.00187544
0.00170697
0.00153749
0.00136733
0.00119675
0.00102602
0.000855345
0.000684931
0.00051495
0.000345553
0.000176881
9.05981e-06
-0.000157794
-0.000323571
-0.000488174
-0.000651517
-0.000813516
-0.000974105
-0.00113323
-0.00129084
-0.00144688
-0.00160133
-0.00175415
-0.00190531
-0.00205479
-0.00220257
-0.00234862
-0.00249292
-0.00263545
-0.00277616
-0.00291505
-0.00305209
-0.00318729
-0.00332064
-0.00345212
-0.00358173
-0.00370947
-0.00383532
-0.00395927
-0.00408133
-0.0042015
-0.00431978
-0.00443617
-0.00455069
-0.00466331
-0.00477405
-0.00488288
-0.0049898
-0.00509478
-0.00519782
-0.00529891
-0.00539807
-0.00549531
-0.00559062
-0.00568403
-0.00577553
-0.00586511
-0.00595276
-0.00603846
-0.00612219
-0.00620394
-0.0062837
-0.00636145
-0.00643719
-0.00651092
-0.00658264
-0.00665236
-0.00672013
-0.00678594
-0.00684982
-0.00691178
-0.0069718
-0.00702988
-0.00708602
-0.0071402
-0.0071924
-0.00724263
-0.00729087
-0.00733711
-0.00738135
-0.00742359
-0.00746383
-0.00750207
-0.00753831
-0.00757256
-0.00760483
-0.00763512
-0.00766345
-0.00768982
-0.00771426
-0.00773678
-0.00775739
-0.00777611
-0.00779298
-0.007808
-0.00782119
-0.00783258
-0.00784219
-0.00785003
-0.00785614
-0.00786054
-0.00786323
-0.00786426
-0.00786364
-0.00786141
-0.00785757
-0.00785217
-0.00784524
-0.00783679
-0.00782686
-0.00781548
-0.00780268
-0.00778849
-0.00777294
-0.00775606
-0.00773788
-0.00771844
-0.00769778
-0.00767592
-0.0076529
-0.00762876
-0.00760353
-0.00757725
-0.00754995
-0.00752166
-0.0074924
-0.00746222
-0.00743115
-0.00739921
-0.00736643
-0.00733285
-0.00729849
-0.00726339
-0.00722758
-0.00719107
-0.00715391
-0.0071161
-0.00707769
-0.00703869
-0.00699912
-0.00695902
-0.00691839
-0.00687727
-0.00683567
-0.00679363
-0.00675115
-0.00670825
-0.00666496
-0.0066213
-0.00657728
-0.00653291
-0.00648822
-0.00644322
-0.00639793
-0.00635239
-0.0063066
-0.0062606
-0.00621441
-0.00616803
-0.00612149
-0.00607479
-0.00602795
-0.00598098
-0.00593387
-0.00588665
-0.00583931
-0.00579187
-0.00574433
-0.00569669
-0.00564896
-0.00560114
-0.00555324
-0.00550526
-0.00545721
-0.00540908
-0.00536087
-0.0053126
-0.00526425
-0.00521584
-0.00516737
-0.00511883
-0.00507025
-0.0050216
-0.00497292
-0.0049242
-0.00487545
-0.00482667
-0.00477787
-0.00472906
-0.00468023
-0.00463139
-0.00458254
-0.00453369
-0.00448482
-0.00443595
-0.00438707
-0.00433819
-0.0042893
-0.0042404
-0.00419149
-0.00414257
-0.00409363
-0.00404468
-0.00399571
-0.00394673
-0.00389772
-0.0038487
-0.00379966
-0.00375061
-0.00370154
-0.00365245
-0.00360336
-0.00355424
-0.00350511
-0.00345597
-0.00340682
-0.00335765
-0.00330848
-0.0032593
-0.00321012
-0.00316092
-0.00311171
-0.00306248
-0.00301324
-0.00296398
-0.00291469
-0.00286539
-0.00281607
-0.00276673
-0.00271738
-0.00266802
-0.00261864
-0.00256924
-0.00251983
-0.0024704
-0.00242095
-0.00237149
-0.00232201
-0.00227251
-0.002223
-0.00217346
-0.00212391
-0.00207434
-0.00202475
-0.00197514
-0.00192551
-0.00187586
-0.00182619
-0.00177651
-0.00172682
-0.00167712
-0.0016274
-0.00157767
-0.00152793
-0.00147817
-0.0014284
-0.00137861
-0.00132881
-0.00127899
-0.00122915
-0.0011793
-0.00112944
-0.00107957
-0.00102968
-0.000979791
-0.000929894
-0.000879991
-0.000830083
-0.000780169
-0.000730248
-0.000680319
-0.00063038
-0.00058043
-0.000530469
-0.000480495
-0.000430511
-0.000380515
-0.00033051
-0.000280496
-0.000230475
-0.000180447
-0.000130413
-8.03759e-05
-3.03356e-05
1.97054e-05
6.97435e-05
0.000119775
0.000169798
0.00021981
0.000269809
0.000319793
0.000369762
0.000419713
0.000469647
0.000519564
0.000569465
0.00061935
0.000669221
0.000719076
0.000768917
0.000818744
0.000868555
0.000918351
0.00096813
0.00101789
0.00106764
0.00111736
0.00116706
0.00121674
0.0012664
0.00131603
0.00136563
0.00141521
0.00146477
0.00151429
0.00156379
0.00161325
0.00166268
0.00171208
0.00176145
0.00181078
0.00186008
0.00190934
0.00195857
0.00200777
0.00205693
0.00210606
0.00215515
0.00220421
0.00225324
0.00230223
0.00235119
0.00240011
0.00244899
0.00249784
0.00254665
0.00259542
0.00264414
0.00269281
0.00274143
0.00279
0.00283851
0.00288696
0.00293536
0.0029837
0.00303198
0.0030802
0.00312836
0.00317647
0.00322451
0.0032725
0.00332043
0.00336831
0.00341612
0.00346388
0.00351157
0.00355921
0.00360678
0.00365429
0.00370174
0.00374913
0.00379645
0.00384371
0.00389091
0.00393805
0.00398512
0.00403212
0.00407907
0.00412594
0.00417275
0.00421948
0.00426615
0.00431273
0.00435925
0.00440568
0.00445205
0.00449833
0.00454453
0.00459066
0.0046367
0.00468267
0.00472856
0.00477437
0.0048201
0.00486574
0.00491131
0.00495679
0.0050022
0.00504752
0.00509276
0.00513792
0.005183
0.005228
0.00527292
0.00531775
0.0053625
0.00540716
0.00545174
0.00549623
0.00554063
0.00558495
0.00562918
0.00567333
0.00571738
0.00576135
0.00580523
0.00584902
0.00589271
0.00593632
0.00597983
0.00602326
0.00606658
0.00610982
0.00615296
0.00619601
0.00623897
0.00628183
0.00632459
0.00636726
0.00640984
0.00645232
0.0064947
0.00653699
0.00657918
0.00662128
0.00666329
0.0067052
0.00674701
0.00678873
0.00683035
0.00687188
0.0069133
0.00695463
0.00699586
0.00703698
0.00707801
0.00711893
0.00715975
0.00720047
0.00724109
0.0072816
0.00732202
0.00736233
0.00740254
0.00744264
0.00748264
0.00752254
0.00756234
0.00760203
0.00764162
0.00768111
0.00772049
0.00775977
0.00779894
0.00783801
0.00787698
0.00791585
0.00795461
0.00799326
0.00803182
0.00807027
0.00810861
0.00814685
0.00818499
0.00822301
0.00826094
0.00829875
0.00833646
0.00837406
0.00841155
0.00844893
0.00848621
0.00852338
0.00856044
0.00859739
0.00863424
0.00867098
0.00870762
0.00874415
0.00878057
0.00881689
0.0088531
0.0088892
0.0089252
0.0089611
0.00899688
0.00903256
0.00906814
0.00910361
0.00913897
0.00917422
0.00920937
0.00924441
0.00927934
0.00931416
0.00934887
0.00938348
0.00941798
0.00945237
0.00948665
0.00952082
0.00955489
0.00958885
0.00962271
0.00965646
0.0096901
0.00972363
0.00975706
0.00979038
0.0098236
0.0098567
0.0098897
0.0099226
0.00995538
0.00998806
0.0100206
0.0100531
0.0100855
0.0101177
0.0101498
0.0101819
0.0102138
0.0102456
0.0102773
0.0103089
0.0103404
0.0103718
0.0104031
0.0104343
0.0104653
0.0104963
0.0105271
0.0105579
0.0105885
0.010619
0.0106495
0.0106798
0.01071
0.0107401
0.0107701
0.0108
0.0108298
0.0108594
0.010889
0.0109185
0.0109478
0.0109771
0.0110062
0.0110353
0.0110642
0.0110931
0.0111218
0.0111504
0.011179
0.0112074
0.0112357
0.0112639
0.0112921
0.0113201
0.011348
0.0113758
0.0114035
0.0114311
0.0114586
0.011486
0.0115133
0.0115405
0.0115677
0.0115947
0.0116216
0.0116484
0.0116751
0.0117017
0.0117282
0.0117546
0.0117809
0.0118071
0.0118332
0.0118592
0.0118851
0.0119109
0.0119366
0.0119622
0.0119878
0.0120132
0.0120385
0.0120637
0.0120888
0.0121139
0.0121388
0.0121636
0.0121884
0.012213
0.0122376
0.012262
0.0122864
0.0123106
0.0123348
0.0123588
0.0123828
0.0124067
0.0124305
0.0124541
0.0124777
0.0125012
0.0125246
0.0125479
0.0125712
0.0125943
0.0126173
0.0126402
0.0126631
0.0126858
0.0127085
0.0127311
0.0127535
0.0127759
0.0127982
0.0128204
0.0128425
0.0128645
0.0128864
0.0129083
0.01293
0.0129517
0.0129733
0.0129947
0.0130161
0.0130374
0.0130587
0.0130798
0.0131008
0.0131218
0.0131427
0.0131635
0.0131841
0.0132048
0.0132253
0.0132457
0.0132661
0.0132863
0.0133065
0.0133266
0.0133466
0.0133666
0.0133864
0.0134062
0.0134259
0.0134455
0.013465
0.0134844
0.0135038
0.013523
0.0135422
0.0135613
0.0135803
0.0135993
0.0136181
0.0136369
0.0136556
0.0136742
0.0136928
0.0137112
0.0137296
0.0137479
0.0137661
0.0137843
0.0138023
0.0138203
0.0138382
0.013856
0.0138738
0.0138915
0.0139091
0.0139266
0.013944
0.0139614
0.0139787
0.0139959
0.014013
0.0140301
0.0140471
0.014064
0.0140808
0.0140976
0.0141143
0.0141309
0.0141474
0.0141639
0.0141803
0.0141966
0.0142128
0.014229
0.0142451
0.0142611
0.0142771
0.014293
0.0143088
0.0143245
0.0143402
0.0143558
0.0143714
0.0143868
0.0144022
0.0144175
0.0144328
0.014448
0.0144631
0.0144782
0.0144931
0.0145081
0.0145229
0.0145377
0.0145524
0.0145671
0.0145816
0.0145962
0.0146106
0.014625
0.0146393
0.0146536
0.0146678
0.0146819
0.0146959
0.0147099
0.0147239
0.0147377
0.0147516
0.0147653
0.014779
0.0147926
0.0148062
0.0148197
0.0148331
0.0148465
0.0148598
0.014873
0.0148862
0.0148993
0.0149124
0.0149254
0.0149384
0.0149513
0.0149641
0.0149769
0.0149896
0.0150022
0.0150148
0.0150274
0.0150398
0.0150523
0.0150646
0.0150769
0.0150892
0.0151014
0.0151135
0.0151256
0.0151376
0.0151496
0.0151615
0.0151734
0.0151852
0.015197
0.0152087
0.0152203
0.0152319
0.0152434
0.0152549
0.0152663
0.0152777
0.015289
0.0153003
0.0153115
0.0153227
0.0153338
0.0153449
0.0153559
0.0153668
0.0153777
0.0153886
0.0153994
0.0154101
0.0154209
0.0154315
0.0154421
0.0154527
0.0154632
0.0154736
0.015484
0.0154944
0.0155047
0.015515
0.0155252
0.0155354
0.0155455
0.0155556
0.0155656
0.0155756
0.0155855
0.0155954
0.0156052
0.015615
0.0156248
0.0156345
0.0156441
0.0156538
0.0156633
0.0156728
0.0156823
0.0156918
0.0157012
0.0157105
0.0157198
0.0157291
0.0157383
0.0157474
0.0157566
0.0157657
0.0157747
0.0157837
0.0157927
0.0158016
0.0158105
0.0158193
0.0158281
0.0158368
0.0158455
0.0158542
0.0158628
0.0158714
0.01588
0.0158885
0.0158969
0.0159054
0.0159137
0.0159221
0.0159304
0.0159387
0.0159469
0.0159551
0.0159632
0.0159713
0.0159794
0.0159875
0.0159955
0.0160034
0.0160113
0.0160192
0.0160271
0.0160349
0.0160427
0.0160504
0.0160581
0.0160658
0.0160734
0.016081
0.0160885
0.0160961
0.0161036
0.016111
0.0161184
0.0161258
0.0161332
0.0161405
0.0161477
0.016155
0.0161622
0.0161694
0.0161765
0.0161836
0.0161907
0.0161977
0.0162048
0.0162117
0.0162187
0.0162256
0.0162325
0.0162393
0.0162461
0.0162529
0.0162597
0.0162664
0.0162731
0.0162797
0.0162864
0.0162929
0.0162995
0.016306
0.0163125
0.016319
0.0163255
0.0163319
0.0163383
0.0163446
0.0163509
0.0163572
0.0163635
0.0163697
0.0163759
0.0163821
0.0163883
0.0163944
0.0164005
0.0164065
0.0164126
0.0164186
0.0164246
0.0164305
0.0164364
0.0164423
0.0164482
0.016454
0.0164599
0.0164656
0.0164714
0.0164771
0.0164828
0.0164885
0.0164942
0.0164998
0.0165054
0.016511
0.0165166
0.0165221
0.0165276
0.0165331
0.0165385
0.0165439
0.0165493
0.0165547
0.0165601
0.0165654
0.0165707
0.016576
0.0165812
0.0165865
0.0165917
0.0165968
0.016602
0.0166071
0.0166123
0.0166173
0.0166224
0.0166275
0.0166325
0.0166375
0.0166424
0.0166474
0.0166523
0.0166572
0.0166621
0.016667
0.0166718
0.0166766
0.0166814
0.0166862
0.016691
0.0166957
0.0167004
0.0167051
0.0167098
0.0167144
0.016719
0.0167236
0.0167282
0.0167328
0.0167373
0.0167418
0
0

