-14930.3
-0.0222844
-0.00729325
-0.00263949
-0.000322241
0.00110746
0.00209088
0.00281244
0.0033647
0.00379937
0.00414746
0.00442859
0.00465579
0.00483813
0.0049822
0.00509303
0.00517459
0.00523012
0.00526237
0.00527368
0.00526609
0.00524143
0.00520132
0.00514721
0.00508042
0.00500214
0.00491346
0.00481538
0.0047088
0.00459454
0.00447339
0.00434602
0.0042131
0.00407521
0.0039329
0.00378668
0.00363701
0.00348433
0.00332902
0.00317146
0.00301199
0.00285091
0.00268852
0.0025251
0.00236087
0.00219608
0.00203094
0.00186564
0.00170037
0.0015353
0.00137059
0.00120639
0.00104282
0.00088
0.000718054
0.000557083
0.000397186
0.000238455
8.0971e-05
-7.51881e-05
-0.000229954
-0.000383266
-0.00053507
-0.000685311
-0.000833944
-0.000980917
-0.00112619
-0.00126972
-0.00141146
-0.0015514
-0.0016895
-0.00182575
-0.00196013
-0.00209264
-0.00222326
-0.00235196
-0.00247874
-0.00260357
-0.00272644
-0.00284734
-0.00296627
-0.00308321
-0.00319817
-0.00331116
-0.00342217
-0.00353121
-0.00363828
-0.00374337
-0.00384649
-0.00394765
-0.00404684
-0.00414407
-0.00423934
-0.00433267
-0.00442404
-0.00451348
-0.00460099
-0.00468658
-0.00477025
-0.00485202
-0.0049319
-0.00500988
-0.00508599
-0.00516022
-0.00523258
-0.00530308
-0.00537174
-0.00543856
-0.00550357
-0.00556678
-0.00562818
-0.0056878
-0.00574565
-0.00580173
-0.00585606
-0.00590865
-0.0059595
-0.00600864
-0.00605607
-0.00610182
-0.0061459
-0.00618833
-0.00622911
-0.00626828
-0.00630583
-0.00634179
-0.00637617
-0.00640898
-0.00644023
-0.00646994
-0.00649811
-0.00652476
-0.0065499
-0.00657354
-0.00659571
-0.0066164
-0.00663565
-0.00665346
-0.00666986
-0.00668486
-0.00669847
-0.00671073
-0.00672166
-0.00673126
-0.00673956
-0.00674659
-0.00675235
-0.00675688
-0.0067602
-0.00676231
-0.00676325
-0.00676304
-0.00676169
-0.00675923
-0.00675568
-0.00675106
-0.00674539
-0.00673869
-0.00673099
-0.0067223
-0.00671265
-0.00670205
-0.00669054
-0.00667813
-0.00666484
-0.0066507
-0.00663573
-0.00661994
-0.00660336
-0.006586
-0.0065679
-0.00654907
-0.00652953
-0.0065093
-0.00648841
-0.00646686
-0.00644469
-0.00642191
-0.00639854
-0.0063746
-0.00635012
-0.00632511
-0.00629958
-0.00627356
-0.00624707
-0.00622011
-0.00619271
-0.00616489
-0.00613665
-0.00610802
-0.006079
-0.00604961
-0.00601988
-0.0059898
-0.00595939
-0.00592866
-0.00589764
-0.00586632
-0.00583472
-0.00580286
-0.00577074
-0.00573837
-0.00570576
-0.00567293
-0.00563989
-0.00560663
-0.00557319
-0.00553956
-0.00550575
-0.00547179
-0.00543766
-0.00540339
-0.00536897
-0.00533442
-0.00529974
-0.00526494
-0.00523003
-0.00519501
-0.00515988
-0.00512466
-0.00508935
-0.00505395
-0.00501847
-0.0049829
-0.00494725
-0.00491153
-0.00487574
-0.00483989
-0.00480397
-0.00476799
-0.00473196
-0.00469587
-0.00465974
-0.00462357
-0.00458736
-0.00455111
-0.00451482
-0.0044785
-0.00444214
-0.00440574
-0.00436932
-0.00433287
-0.00429639
-0.00425989
-0.00422335
-0.0041868
-0.00415021
-0.0041136
-0.00407696
-0.00404028
-0.00400358
-0.00396685
-0.00393007
-0.00389326
-0.00385642
-0.00381953
-0.00378261
-0.00374564
-0.00370864
-0.0036716
-0.00363451
-0.00359739
-0.00356022
-0.00352302
-0.00348577
-0.00344848
-0.00341114
-0.00337376
-0.00333633
-0.00329885
-0.00326132
-0.00322375
-0.00318612
-0.00314845
-0.00311074
-0.00307298
-0.00303517
-0.00299733
-0.00295944
-0.00292152
-0.00288355
-0.00284554
-0.00280749
-0.0027694
-0.00273127
-0.00269309
-0.00265487
-0.00261661
-0.0025783
-0.00253996
-0.00250156
-0.00246312
-0.00242464
-0.00238612
-0.00234755
-0.00230894
-0.00227029
-0.0022316
-0.00219287
-0.0021541
-0.00211528
-0.00207642
-0.00203752
-0.00199858
-0.0019596
-0.00192057
-0.00188151
-0.0018424
-0.00180324
-0.00176405
-0.00172481
-0.00168553
-0.00164621
-0.00160685
-0.00156745
-0.00152801
-0.00148853
-0.00144902
-0.00140946
-0.00136988
-0.00133025
-0.00129059
-0.00125089
-0.00121116
-0.00117139
-0.00113159
-0.00109176
-0.00105189
-0.00101199
-0.00097206
-0.000932096
-0.000892101
-0.000852074
-0.000812016
-0.000771927
-0.000731807
-0.000691655
-0.000651471
-0.000611254
-0.000571005
-0.000530723
-0.000490408
-0.00045006
-0.00040968
-0.000369268
-0.000328826
-0.000288357
-0.000247863
-0.000207347
-0.000166812
-0.00012626
-8.56937e-05
-4.51145e-05
-4.52248e-06
3.60809e-05
7.66963e-05
0.000117322
0.000157958
0.000198606
0.000239263
0.000279931
0.000320608
0.000361294
0.000401989
0.000442691
0.000483401
0.000524116
0.000564837
0.000605562
0.00064629
0.000687022
0.000727755
0.00076849
0.000809225
0.000849961
0.000890697
0.000931434
0.000972172
0.00101291
0.00105365
0.00109439
0.00113513
0.00117587
0.0012166
0.00125734
0.00129807
0.0013388
0.00137952
0.00142023
0.00146094
0.00150163
0.00154231
0.00158299
0.00162365
0.00166429
0.00170492
0.00174554
0.00178614
0.00182672
0.00186729
0.00190784
0.00194837
0.00198889
0.00202938
0.00206986
0.00211031
0.00215074
0.00219115
0.00223154
0.0022719
0.00231224
0.00235255
0.00239283
0.0024331
0.00247334
0.00251355
0.00255374
0.0025939
0.00263404
0.00267415
0.00271423
0.00275429
0.00279433
0.00283434
0.00287431
0.00291427
0.00295419
0.00299408
0.00303394
0.00307376
0.00311355
0.00315331
0.00319303
0.00323272
0.00327237
0.00331199
0.00335156
0.0033911
0.0034306
0.00347005
0.00350947
0.00354884
0.00358817
0.00362746
0.00366671
0.00370592
0.00374509
0.00378422
0.0038233
0.00386234
0.00390134
0.00394029
0.0039792
0.00401806
0.00405688
0.00409566
0.00413438
0.00417306
0.0042117
0.00425029
0.00428884
0.00432734
0.00436579
0.00440419
0.00444255
0.00448086
0.00451913
0.00455734
0.00459551
0.00463363
0.0046717
0.00470971
0.00474768
0.00478559
0.00482345
0.00486125
0.00489901
0.00493671
0.00497435
0.00501194
0.00504948
0.00508696
0.00512438
0.00516175
0.00519906
0.00523631
0.00527351
0.00531064
0.00534772
0.00538474
0.0054217
0.0054586
0.00549544
0.00553222
0.00556893
0.00560559
0.00564219
0.00567873
0.00571521
0.00575163
0.00578799
0.00582429
0.00586052
0.0058967
0.00593282
0.00596888
0.00600488
0.00604081
0.00607669
0.0061125
0.00614825
0.00618393
0.00621955
0.00625511
0.0062906
0.00632603
0.00636139
0.00639668
0.00643191
0.00646708
0.00650217
0.00653721
0.00657217
0.00660707
0.00664191
0.00667668
0.00671138
0.00674602
0.0067806
0.0068151
0.00684955
0.00688392
0.00691824
0.00695248
0.00698666
0.00702078
0.00705482
0.0070888
0.00712272
0.00715656
0.00719033
0.00722404
0.00725767
0.00729123
0.00732472
0.00735814
0.00739149
0.00742477
0.00745797
0.00749111
0.00752417
0.00755717
0.00759009
0.00762294
0.00765572
0.00768843
0.00772107
0.00775364
0.00778613
0.00781856
0.00785091
0.0078832
0.0079154
0.00794754
0.00797961
0.0080116
0.00804352
0.00807536
0.00810714
0.00813883
0.00817046
0.00820201
0.00823349
0.0082649
0.00829623
0.00832749
0.00835868
0.0083898
0.00842084
0.00845181
0.00848271
0.00851353
0.00854429
0.00857496
0.00860557
0.0086361
0.00866656
0.00869695
0.00872726
0.0087575
0.00878767
0.00881776
0.00884778
0.00887773
0.00890761
0.00893741
0.00896714
0.00899679
0.00902638
0.00905589
0.00908532
0.00911468
0.00914396
0.00917318
0.00920231
0.00923138
0.00926036
0.00928928
0.00931812
0.00934688
0.00937557
0.00940419
0.00943273
0.0094612
0.00948959
0.0095179
0.00954615
0.00957431
0.00960241
0.00963042
0.00965837
0.00968623
0.00971403
0.00974174
0.00976939
0.00979695
0.00982445
0.00985186
0.00987921
0.00990648
0.00993367
0.00996079
0.00998784
0.0100148
0.0100417
0.0100685
0.0100953
0.010122
0.0101486
0.0101751
0.0102016
0.0102279
0.0102543
0.0102805
0.0103067
0.0103327
0.0103588
0.0103847
0.0104106
0.0104364
0.0104621
0.0104877
0.0105133
0.0105388
0.0105642
0.0105896
0.0106149
0.0106401
0.0106652
0.0106903
0.0107153
0.0107402
0.010765
0.0107898
0.0108145
0.0108391
0.0108637
0.0108882
0.0109126
0.0109369
0.0109612
0.0109854
0.0110095
0.0110336
0.0110575
0.0110815
0.0111053
0.0111291
0.0111527
0.0111764
0.0111999
0.0112234
0.0112468
0.0112701
0.0112934
0.0113166
0.0113397
0.0113628
0.0113857
0.0114087
0.0114315
0.0114543
0.011477
0.0114996
0.0115221
0.0115446
0.011567
0.0115894
0.0116117
0.0116339
0.011656
0.0116781
0.0117001
0.011722
0.0117439
0.0117656
0.0117874
0.011809
0.0118306
0.0118521
0.0118736
0.0118949
0.0119162
0.0119375
0.0119587
0.0119798
0.0120008
0.0120218
0.0120427
0.0120635
0.0120843
0.012105
0.0121256
0.0121462
0.0121667
0.0121871
0.0122075
0.0122278
0.012248
0.0122682
0.0122883
0.0123083
0.0123283
0.0123482
0.012368
0.0123878
0.0124075
0.0124271
0.0124467
0.0124662
0.0124857
0.0125051
0.0125244
0.0125436
0.0125628
0.012582
0.012601
0.01262
0.012639
0.0126578
0.0126766
0.0126954
0.0127141
0.0127327
0.0127513
0.0127697
0.0127882
0.0128066
0.0128249
0.0128431
0.0128613
0.0128794
0.0128975
0.0129155
0.0129334
0.0129513
0.0129691
0.0129869
0.0130046
0.0130222
0.0130398
0.0130573
0.0130748
0.0130922
0.0131095
0.0131268
0.013144
0.0131611
0.0131782
0.0131953
0.0132123
0.0132292
0.0132461
0.0132629
0.0132796
0.0132963
0.0133129
0.0133295
0.013346
0.0133625
0.0133789
0.0133953
0.0134115
0.0134278
0.013444
0.0134601
0.0134761
0.0134922
0.0135081
0.013524
0.0135398
0.0135556
0.0135714
0.013587
0.0136026
0.0136182
0.0136337
0.0136492
0.0136646
0.0136799
0.0136952
0.0137104
0.0137256
0.0137408
0.0137558
0.0137708
0.0137858
0.0138007
0.0138156
0.0138304
0.0138452
0.0138599
0.0138745
0.0138891
0.0139037
0.0139182
0.0139326
0.013947
0.0139613
0.0139756
0.0139899
0.014004
0.0140182
0.0140323
0.0140463
0.0140603
0.0140742
0.0140881
0.0141019
0.0141157
0.0141295
0.0141431
0.0141568
0.0141704
0.0141839
0.0141974
0.0142108
0.0142242
0.0142376
0.0142509
0.0142641
0.0142773
0.0142904
0.0143036
0.0143166
0.0143296
0.0143426
0.0143555
0.0143684
0.0143812
0.0143939
0.0144067
0.0144194
0.014432
0.0144446
0.0144571
0.0144696
0.0144821
0.0144945
0.0145068
0.0145191
0.0145314
0.0145436
0.0145558
0.0145679
0.01458
0.0145921
0.0146041
0.014616
0.0146279
0.0146398
0.0146516
0.0146634
0.0146751
0.0146868
0.0146985
0.0147101
0.0147216
0.0147331
0.0147446
0.0147561
0.0147674
0.0147788
0.0147901
0.0148014
0.0148126
0.0148238
0.0148349
0.014846
0.014857
0.0148681
0.014879
0.01489
0.0149008
0.0149117
0.0149225
0.0149333
0.014944
0.0149547
0.0149653
0.0149759
0.0149865
0.014997
0.0150075
0.0150179
0.0150284
0.0150387
0.0150491
0.0150593
0.0150696
0.0150798
0.01509
0.0151001
0.0151102
0.0151203
0.0151303
0.0151403
0.0151502
0.0151601
0.01517
0.0151799
0.0151897
0.0151994
0.0152091
0.0152188
0.0152285
0.0152381
0.0152477
0.0152572
0.0152667
0.0152762
0.0152856
0.015295
0.0153044
0.0153137
0.015323
0.0153323
0.0153415
0.0153507
0.0153599
0.015369
0.0153781
0.0153871
0.0153961
0.0154051
0.0154141
0.015423
0.0154319
0.0154407
0.0154495
0.0154583
0.015467
0.0154758
0.0154844
0.0154931
0.0155017
0.0155103
0.0155188
0.0155274
0.0155359
0.0155443
0.0155527
0.0155611
0.0155695
0.0155778
0.0155861
0.0155944
0.0156026
0.0156108
0.015619
0.0156271
0.0156352
0.0156433
0.0156514
0.0156594
0.0156674
0.0156753
0.0156833
0.0156911
0.015699
0.0157069
0.0157147
0.0157224
0.0157302
0.0157379
0.0157456
0.0157533
0.0157609
0.0157685
0.0157761
0.0157836
0
0

