-14930.3
-0.0232648
-0.00913912
-0.00515758
-0.00338529
-0.00242355
-0.00186556
-0.0015501
-0.00139952
-0.00137095
-0.00143781
-0.00158173
-0.0017888
-0.00204769
-0.00234876
-0.00268354
-0.00304451
-0.00342496
-0.00381893
-0.00422112
-0.00462687
-0.00503213
-0.00543339
-0.00582763
-0.00621234
-0.00658542
-0.00694516
-0.0072902
-0.0076195
-0.0079323
-0.00822809
-0.00850655
-0.00876756
-0.00901116
-0.00923752
-0.00944691
-0.00963971
-0.00981638
-0.00997743
-0.0101234
-0.010255
-0.0103726
-0.0104771
-0.010569
-0.010649
-0.0107177
-0.0107758
-0.0108238
-0.0108625
-0.0108922
-0.0109137
-0.0109274
-0.0109339
-0.0109337
-0.0109272
-0.0109149
-0.0108973
-0.0108746
-0.0108474
-0.0108159
-0.0107805
-0.0107416
-0.0106993
-0.010654
-0.010606
-0.0105554
-0.0105026
-0.0104477
-0.0103909
-0.0103324
-0.0102723
-0.0102109
-0.0101483
-0.0100845
-0.0100198
-0.00995422
-0.00988789
-0.00982092
-0.00975338
-0.00968536
-0.00961694
-0.00954819
-0.00947917
-0.00940994
-0.00934056
-0.00927108
-0.00920155
-0.009132
-0.00906248
-0.00899301
-0.00892364
-0.0088544
-0.0087853
-0.00871637
-0.00864764
-0.00857913
-0.00851085
-0.00844282
-0.00837506
-0.00830758
-0.00824039
-0.0081735
-0.00810692
-0.00804067
-0.00797474
-0.00790915
-0.0078439
-0.007779
-0.00771446
-0.00765026
-0.00758643
-0.00752296
-0.00745986
-0.00739712
-0.00733476
-0.00727276
-0.00721114
-0.00714988
-0.007089
-0.0070285
-0.00696836
-0.0069086
-0.00684921
-0.00679019
-0.00673154
-0.00667326
-0.00661536
-0.00655782
-0.00650065
-0.00644385
-0.00638741
-0.00633133
-0.00627561
-0.00622026
-0.00616526
-0.00611061
-0.00605632
-0.00600238
-0.00594879
-0.00589555
-0.00584265
-0.0057901
-0.00573789
-0.00568602
-0.00563449
-0.00558329
-0.00553243
-0.0054819
-0.0054317
-0.00538183
-0.00533229
-0.00528306
-0.00523416
-0.00518558
-0.00513732
-0.00508938
-0.00504174
-0.00499442
-0.00494741
-0.00490071
-0.00485431
-0.00480822
-0.00476243
-0.00471694
-0.00467175
-0.00462685
-0.00458225
-0.00453794
-0.00449392
-0.00445019
-0.00440675
-0.00436359
-0.00432071
-0.00427812
-0.0042358
-0.00419376
-0.004152
-0.00411051
-0.0040693
-0.00402835
-0.00398768
-0.00394727
-0.00390712
-0.00386724
-0.00382762
-0.00378826
-0.00374915
-0.00371031
-0.00367172
-0.00363338
-0.00359529
-0.00355746
-0.00351987
-0.00348253
-0.00344543
-0.00340858
-0.00337197
-0.0033356
-0.00329947
-0.00326357
-0.00322791
-0.00319249
-0.00315729
-0.00312233
-0.0030876
-0.0030531
-0.00301882
-0.00298476
-0.00295093
-0.00291733
-0.00288394
-0.00285077
-0.00281782
-0.00278509
-0.00275257
-0.00272027
-0.00268818
-0.00265629
-0.00262462
-0.00259316
-0.0025619
-0.00253085
-0.0025
-0.00246935
-0.00243891
-0.00240866
-0.00237862
-0.00234877
-0.00231912
-0.00228966
-0.00226039
-0.00223132
-0.00220244
-0.00217375
-0.00214525
-0.00211693
-0.0020888
-0.00206086
-0.0020331
-0.00200552
-0.00197813
-0.00195091
-0.00192387
-0.00189701
-0.00187033
-0.00184382
-0.00181749
-0.00179133
-0.00176534
-0.00173952
-0.00171388
-0.0016884
-0.00166309
-0.00163794
-0.00161296
-0.00158815
-0.0015635
-0.00153901
-0.00151468
-0.00149051
-0.00146651
-0.00144265
-0.00141896
-0.00139542
-0.00137204
-0.00134881
-0.00132574
-0.00130281
-0.00128004
-0.00125741
-0.00123494
-0.00121261
-0.00119044
-0.0011684
-0.00114651
-0.00112477
-0.00110317
-0.00108171
-0.0010604
-0.00103922
-0.00101818
-0.000997284
-0.000976523
-0.000955899
-0.000935411
-0.000915058
-0.00089484
-0.000874754
-0.000854801
-0.000834979
-0.000815288
-0.000795727
-0.000776295
-0.00075699
-0.000737814
-0.000718763
-0.000699839
-0.000681038
-0.000662362
-0.000643809
-0.000625379
-0.00060707
-0.000588882
-0.000570813
-0.000552864
-0.000535034
-0.00051732
-0.000499724
-0.000482244
-0.000464879
-0.000447629
-0.000430492
-0.000413469
-0.000396557
-0.000379758
-0.00036307
-0.000346491
-0.000330022
-0.000313662
-0.000297409
-0.000281264
-0.000265225
-0.000249292
-0.000233465
-0.000217741
-0.000202123
-0.000186606
-0.000171192
-0.00015588
-0.000140669
-0.000125559
-0.000110548
-9.56365e-05
-8.08235e-05
-6.61086e-05
-5.14903e-05
-3.69686e-05
-2.25429e-05
-8.21241e-06
6.02289e-06
2.01651e-05
3.42135e-05
4.81689e-05
6.20318e-05
7.58038e-05
8.94849e-05
0.000103075
0.000116576
0.000129987
0.00014331
0.000156545
0.000169693
0.000182753
0.000195727
0.000208615
0.000221419
0.000234138
0.000246772
0.000259324
0.000271792
0.000284178
0.000296482
0.000308705
0.000320847
0.000332908
0.00034489
0.000356793
0.000368617
0.000380363
0.000392031
0.000403622
0.000415137
0.000426575
0.000437938
0.000449226
0.000460439
0.000471578
0.000482643
0.000493635
0.000504555
0.000515402
0.000526178
0.000536882
0.000547516
0.000558079
0.000568572
0.000578996
0.000589351
0.000599638
0.000609856
0.000620007
0.000630092
0.000640109
0.00065006
0.000659945
0.000669765
0.000679519
0.00068921
0.000698836
0.000708398
0.000717898
0.000727334
0.000736708
0.00074602
0.00075527
0.00076446
0.000773588
0.000782656
0.000791664
0.000800613
0.000809502
0.000818333
0.000827105
0.000835819
0.000844476
0.000853075
0.000861617
0.000870103
0.000878533
0.000886907
0.000895226
0.000903489
0.000911698
0.000919853
0.000927953
0.000936001
0.000943995
0.000951936
0.000959824
0.000967661
0.000975446
0.000983179
0.000990861
0.000998491
0.00100607
0.0010136
0.00102108
0.00102851
0.0010359
0.00104323
0.00105051
0.00105775
0.00106494
0.00107208
0.00107917
0.00108622
0.00109322
0.00110018
0.00110708
0.00111395
0.00112076
0.00112754
0.00113426
0.00114095
0.00114758
0.00115418
0.00116073
0.00116724
0.0011737
0.00118012
0.0011865
0.00119284
0.00119914
0.00120539
0.0012116
0.00121777
0.0012239
0.00122999
0.00123604
0.00124205
0.00124802
0.00125395
0.00125985
0.0012657
0.00127151
0.00127729
0.00128302
0.00128872
0.00129438
0.00130001
0.0013056
0.00131114
0.00131666
0.00132213
0.00132758
0.00133298
0.00133835
0.00134368
0.00134898
0.00135424
0.00135947
0.00136467
0.00136983
0.00137495
0.00138004
0.0013851
0.00139012
0.00139512
0.00140007
0.001405
0.00140989
0.00141475
0.00141958
0.00142438
0.00142914
0.00143388
0.00143858
0.00144325
0.00144789
0.0014525
0.00145708
0.00146163
0.00146615
0.00147063
0.00147509
0.00147952
0.00148393
0.0014883
0.00149264
0.00149695
0.00150124
0.0015055
0.00150972
0.00151393
0.0015181
0.00152224
0.00152636
0.00153045
0.00153452
0.00153856
0.00154257
0.00154655
0.00155051
0.00155444
0.00155835
0.00156223
0.00156608
0.00156991
0.00157371
0.00157749
0.00158125
0.00158497
0.00158868
0.00159236
0.00159602
0.00159965
0.00160325
0.00160684
0.0016104
0.00161394
0.00161745
0.00162094
0.00162441
0.00162785
0.00163127
0.00163467
0.00163805
0.0016414
0.00164473
0.00164804
0.00165133
0.0016546
0.00165785
0.00166107
0.00166427
0.00166745
0.00167061
0.00167375
0.00167687
0.00167997
0.00168305
0.00168611
0.00168914
0.00169216
0.00169516
0.00169814
0.0017011
0.00170404
0.00170695
0.00170986
0.00171274
0.0017156
0.00171844
0.00172127
0.00172407
0.00172686
0.00172963
0.00173238
0.00173511
0.00173783
0.00174053
0.00174321
0.00174587
0.00174851
0.00175114
0.00175375
0.00175634
0.00175892
0.00176147
0.00176402
0.00176654
0.00176905
0.00177154
0.00177402
0.00177647
0.00177892
0.00178134
0.00178375
0.00178615
0.00178853
0.00179089
0.00179324
0.00179557
0.00179789
0.00180019
0.00180248
0.00180475
0.00180701
0.00180925
0.00181148
0.00181369
0.00181589
0.00181807
0.00182024
0.0018224
0.00182454
0.00182666
0.00182878
0.00183088
0.00183296
0.00183503
0.00183709
0.00183914
0.00184117
0.00184319
0.00184519
0.00184718
0.00184916
0.00185113
0.00185308
0.00185502
0.00185695
0.00185886
0.00186076
0.00186265
0.00186453
0.00186639
0.00186825
0.00187009
0.00187191
0.00187373
0.00187554
0.00187733
0.00187911
0.00188088
0.00188264
0.00188438
0.00188612
0.00188784
0.00188955
0.00189125
0.00189294
0.00189462
0.00189629
0.00189795
0.00189959
0.00190123
0.00190285
0.00190447
0.00190607
0.00190766
0.00190924
0.00191082
0.00191238
0.00191393
0.00191547
0.001917
0.00191853
0.00192004
0.00192154
0.00192303
0.00192451
0.00192598
0.00192745
0.0019289
0.00193034
0.00193178
0.0019332
0.00193462
0.00193603
0.00193742
0.00193881
0.00194019
0.00194156
0.00194292
0.00194427
0.00194562
0.00194695
0.00194828
0.0019496
0.0019509
0.0019522
0.0019535
0.00195478
0.00195605
0.00195732
0.00195858
0.00195983
0.00196107
0.00196231
0.00196353
0.00196475
0.00196596
0.00196716
0.00196836
0.00196954
0.00197072
0.00197189
0.00197306
0.00197421
0.00197536
0.0019765
0.00197764
0.00197876
0.00197988
0.00198099
0.0019821
0.0019832
0.00198429
0.00198537
0.00198645
0.00198752
0.00198858
0.00198963
0.00199068
0.00199172
0.00199276
0.00199379
0.00199481
0.00199582
0.00199683
0.00199783
0.00199883
0.00199982
0.0020008
0.00200178
0.00200275
0.00200371
0.00200467
0.00200562
0.00200656
0.0020075
0.00200843
0.00200936
0.00201028
0.0020112
0.0020121
0.00201301
0.0020139
0.0020148
0.00201568
0.00201656
0.00201743
0.0020183
0.00201917
0.00202002
0.00202088
0.00202172
0.00202256
0.0020234
0.00202423
0.00202505
0.00202587
0.00202668
0.00202749
0.0020283
0.0020291
0.00202989
0.00203068
0.00203146
0.00203224
0.00203301
0.00203378
0.00203454
0.0020353
0.00203605
0.0020368
0.00203754
0.00203828
0.00203902
0.00203975
0.00204047
0.00204119
0.00204191
0.00204262
0.00204332
0.00204402
0.00204472
0.00204541
0.0020461
0.00204679
0.00204747
0.00204814
0.00204881
0.00204948
0.00205014
0.0020508
0.00205145
0.0020521
0.00205275
0.00205339
0.00205402
0.00205466
0.00205529
0.00205591
0.00205653
0.00205715
0.00205776
0.00205837
0.00205897
0.00205958
0.00206017
0.00206077
0.00206136
0.00206194
0.00206253
0.0020631
0.00206368
0.00206425
0.00206482
0.00206538
0.00206594
0.0020665
0.00206705
0.0020676
0.00206815
0.00206869
0.00206923
0.00206977
0.0020703
0.00207083
0.00207135
0.00207187
0.00207239
0.00207291
0.00207342
0.00207393
0.00207444
0.00207494
0.00207544
0.00207593
0.00207643
0.00207692
0.0020774
0.00207789
0.00207837
0.00207885
0.00207932
0.00207979
0.00208026
0.00208073
0.00208119
0.00208165
0.00208211
0.00208256
0.00208301
0.00208346
0.00208391
0.00208435
0.00208479
0.00208522
0.00208566
0.00208609
0.00208652
0.00208695
0.00208737
0.00208779
0.00208821
0.00208862
0.00208904
0.00208945
0.00208985
0.00209026
0.00209066
0.00209106
0.00209146
0.00209185
0.00209225
0.00209264
0.00209302
0.00209341
0.00209379
0.00209417
0.00209455
0.00209492
0.0020953
0.00209567
0.00209604
0.0020964
0.00209677
0.00209713
0.00209749
0.00209784
0.0020982
0.00209855
0.0020989
0.00209925
0.0020996
0.00209994
0.00210028
0.00210062
0.00210096
0.00210129
0.00210163
0.00210196
0.00210229
0.00210261
0.00210294
0.00210326
0.00210358
0.0021039
0.00210422
0.00210453
0.00210484
0.00210516
0.00210546
0.00210577
0.00210608
0.00210638
0.00210668
0.00210698
0.00210728
0.00210757
0.00210787
0.00210816
0.00210845
0.00210874
0.00210903
0.00210931
0.00210959
0.00210987
0.00211015
0.00211043
0.00211071
0.00211098
0.00211126
0.00211153
0.0021118
0.00211206
0.00211233
0.00211259
0.00211286
0.00211312
0.00211338
0.00211364
0.00211389
0.00211415
0.0021144
0.00211465
0.0021149
0.00211515
0.0021154
0.00211564
0.00211589
0.00211613
0.00211637
0.00211661
0.00211685
0.00211708
0.00211732
0.00211755
0.00211779
0.00211802
0.00211825
0.00211847
0.0021187
0.00211893
0.00211915
0.00211937
0.00211959
0.00211981
0.00212003
0.00212025
0.00212046
0.00212068
0.00212089
0.0021211
0.00212131
0.00212152
0.00212173
0.00212194
0.00212214
0.00212235
0.00212255
0.00212275
0.00212295
0.00212315
0.00212335
0.00212355
0.00212374
0.00212394
0
0

