-14930.3
-0.0232648
-0.00913869
-0.00515507
-0.00337716
-0.00240431
-0.00182829
-0.00148715
-0.00130331
-0.00123453
-0.00125519
-0.00134806
-0.00150041
-0.00170203
-0.00194431
-0.00221975
-0.00252167
-0.00284415
-0.00318192
-0.00353031
-0.00388524
-0.00424314
-0.00460092
-0.00495595
-0.00530597
-0.00564912
-0.00598384
-0.00630885
-0.00662313
-0.00692588
-0.00721649
-0.00749451
-0.00775965
-0.00801172
-0.00825065
-0.00847646
-0.00868923
-0.0088891
-0.0090763
-0.00925106
-0.00941367
-0.00956445
-0.00970374
-0.0098319
-0.00994929
-0.0100563
-0.0101533
-0.0102407
-0.0103189
-0.0103882
-0.0104491
-0.0105019
-0.010547
-0.0105848
-0.0106155
-0.0106397
-0.0106576
-0.0106695
-0.0106757
-0.0106766
-0.0106724
-0.0106635
-0.0106501
-0.0106324
-0.0106108
-0.0105854
-0.0105565
-0.0105243
-0.010489
-0.0104509
-0.01041
-0.0103667
-0.010321
-0.0102731
-0.0102232
-0.0101714
-0.0101179
-0.0100628
-0.0100062
-0.00994826
-0.00988906
-0.00982872
-0.00976734
-0.00970501
-0.00964182
-0.00957785
-0.00951319
-0.0094479
-0.00938206
-0.00931573
-0.00924897
-0.00918184
-0.0091144
-0.00904669
-0.00897876
-0.00891066
-0.00884244
-0.00877412
-0.00870574
-0.00863734
-0.00856896
-0.00850062
-0.00843234
-0.00836416
-0.0082961
-0.00822818
-0.00816042
-0.00809284
-0.00802546
-0.0079583
-0.00789137
-0.00782468
-0.00775826
-0.0076921
-0.00762623
-0.00756064
-0.00749536
-0.00743039
-0.00736574
-0.00730141
-0.00723742
-0.00717376
-0.00711044
-0.00704748
-0.00698486
-0.0069226
-0.0068607
-0.00679916
-0.00673799
-0.00667718
-0.00661674
-0.00655668
-0.00649699
-0.00643767
-0.00637873
-0.00632017
-0.00626198
-0.00620416
-0.00614672
-0.00608965
-0.00603296
-0.00597663
-0.00592069
-0.00586511
-0.0058099
-0.00575507
-0.0057006
-0.0056465
-0.00559277
-0.0055394
-0.00548639
-0.00543375
-0.00538146
-0.00532953
-0.00527796
-0.00522675
-0.00517588
-0.00512537
-0.0050752
-0.00502539
-0.00497592
-0.00492679
-0.004878
-0.00482955
-0.00478144
-0.00473367
-0.00468622
-0.00463911
-0.00459233
-0.00454587
-0.00449974
-0.00445393
-0.00440844
-0.00436327
-0.00431842
-0.00427388
-0.00422965
-0.00418573
-0.00414212
-0.00409882
-0.00405581
-0.00401312
-0.00397071
-0.00392861
-0.0038868
-0.00384529
-0.00380407
-0.00376313
-0.00372249
-0.00368213
-0.00364205
-0.00360225
-0.00356273
-0.00352349
-0.00348453
-0.00344583
-0.00340741
-0.00336926
-0.00333138
-0.00329376
-0.00325641
-0.00321931
-0.00318248
-0.0031459
-0.00310959
-0.00307352
-0.00303771
-0.00300215
-0.00296684
-0.00293177
-0.00289696
-0.00286238
-0.00282805
-0.00279395
-0.0027601
-0.00272648
-0.0026931
-0.00265995
-0.00262703
-0.00259434
-0.00256189
-0.00252965
-0.00249765
-0.00246586
-0.0024343
-0.00240296
-0.00237184
-0.00234093
-0.00231024
-0.00227976
-0.0022495
-0.00221945
-0.0021896
-0.00215997
-0.00213054
-0.00210132
-0.0020723
-0.00204348
-0.00201486
-0.00198645
-0.00195823
-0.0019302
-0.00190237
-0.00187474
-0.0018473
-0.00182005
-0.00179298
-0.00176611
-0.00173942
-0.00171292
-0.0016866
-0.00166047
-0.00163451
-0.00160874
-0.00158315
-0.00155773
-0.00153249
-0.00150742
-0.00148253
-0.00145781
-0.00143327
-0.00140889
-0.00138468
-0.00136064
-0.00133677
-0.00131306
-0.00128952
-0.00126614
-0.00124292
-0.00121986
-0.00119696
-0.00117422
-0.00115164
-0.00112921
-0.00110694
-0.00108482
-0.00106286
-0.00104105
-0.00101939
-0.000997876
-0.000976513
-0.000955298
-0.000934229
-0.000913306
-0.000892528
-0.000871893
-0.0008514
-0.000831049
-0.000810839
-0.000790768
-0.000770835
-0.00075104
-0.000731382
-0.000711858
-0.00069247
-0.000673216
-0.000654094
-0.000635104
-0.000616245
-0.000597516
-0.000578915
-0.000560444
-0.000542099
-0.000523881
-0.000505788
-0.000487819
-0.000469974
-0.000452253
-0.000434652
-0.000417174
-0.000399815
-0.000382576
-0.000365456
-0.000348453
-0.000331566
-0.000314796
-0.000298142
-0.000281602
-0.000265175
-0.000248862
-0.00023266
-0.00021657
-0.00020059
-0.00018472
-0.000168959
-0.000153306
-0.00013776
-0.000122321
-0.000106989
-9.17611e-05
-7.66376e-05
-6.16186e-05
-4.67019e-05
-3.18875e-05
-1.71754e-05
-2.56348e-06
1.19482e-05
2.63605e-05
4.06739e-05
5.48893e-05
6.90074e-05
8.30288e-05
9.69536e-05
0.000110784
0.000124519
0.00013816
0.000151708
0.000165163
0.000178526
0.000191797
0.000204978
0.000218069
0.00023107
0.000243982
0.000256806
0.000269542
0.000282192
0.000294754
0.000307231
0.000319622
0.000331929
0.000344152
0.000356291
0.000368348
0.000380322
0.000392214
0.000404026
0.000415756
0.000427407
0.000438977
0.00045047
0.000461883
0.000473219
0.000484477
0.000495659
0.000506764
0.000517794
0.000528748
0.000539628
0.000550434
0.000561166
0.000571824
0.000582411
0.000592925
0.000603368
0.000613739
0.00062404
0.00063427
0.000644431
0.000654523
0.000664546
0.000674501
0.000684388
0.000694208
0.00070396
0.000713647
0.000723268
0.000732823
0.000742313
0.000751739
0.0007611
0.000770398
0.000779633
0.000788805
0.000797914
0.000806963
0.000815949
0.000824874
0.000833739
0.000842543
0.000851288
0.000859973
0.000868599
0.000877167
0.000885677
0.000894129
0.000902523
0.000910861
0.000919142
0.000927367
0.000935536
0.000943649
0.000951708
0.000959712
0.000967662
0.000975557
0.0009834
0.000991189
0.000998925
0.00100661
0.00101424
0.00102182
0.00102935
0.00103683
0.00104426
0.00105163
0.00105896
0.00106624
0.00107346
0.00108064
0.00108777
0.00109486
0.00110189
0.00110888
0.00111582
0.00112271
0.00112956
0.00113636
0.00114311
0.00114982
0.00115648
0.0011631
0.00116967
0.0011762
0.00118269
0.00118913
0.00119552
0.00120188
0.00120819
0.00121446
0.00122068
0.00122687
0.00123301
0.00123911
0.00124517
0.00125119
0.00125717
0.00126311
0.001269
0.00127486
0.00128068
0.00128646
0.0012922
0.0012979
0.00130357
0.00130919
0.00131478
0.00132033
0.00132584
0.00133132
0.00133675
0.00134215
0.00134752
0.00135285
0.00135814
0.0013634
0.00136862
0.00137381
0.00137896
0.00138408
0.00138916
0.00139421
0.00139922
0.0014042
0.00140915
0.00141407
0.00141895
0.0014238
0.00142861
0.0014334
0.00143815
0.00144287
0.00144755
0.00145221
0.00145683
0.00146143
0.00146599
0.00147052
0.00147503
0.0014795
0.00148394
0.00148835
0.00149273
0.00149708
0.00150141
0.0015057
0.00150997
0.0015142
0.00151841
0.00152259
0.00152675
0.00153087
0.00153497
0.00153904
0.00154308
0.00154709
0.00155108
0.00155504
0.00155898
0.00156289
0.00156677
0.00157062
0.00157445
0.00157826
0.00158204
0.00158579
0.00158952
0.00159322
0.0015969
0.00160056
0.00160419
0.00160779
0.00161137
0.00161493
0.00161847
0.00162198
0.00162546
0.00162893
0.00163237
0.00163578
0.00163918
0.00164255
0.0016459
0.00164923
0.00165253
0.00165581
0.00165907
0.00166231
0.00166553
0.00166872
0.0016719
0.00167505
0.00167818
0.0016813
0.00168439
0.00168746
0.00169051
0.00169353
0.00169654
0.00169953
0.0017025
0.00170545
0.00170838
0.00171129
0.00171418
0.00171705
0.0017199
0.00172274
0.00172555
0.00172834
0.00173112
0.00173388
0.00173662
0.00173934
0.00174205
0.00174473
0.0017474
0.00175005
0.00175268
0.0017553
0.00175789
0.00176047
0.00176304
0.00176558
0.00176811
0.00177062
0.00177312
0.0017756
0.00177806
0.0017805
0.00178293
0.00178535
0.00178775
0.00179013
0.00179249
0.00179484
0.00179718
0.0017995
0.0018018
0.00180409
0.00180636
0.00180862
0.00181086
0.00181309
0.0018153
0.0018175
0.00181969
0.00182186
0.00182401
0.00182615
0.00182828
0.00183039
0.00183249
0.00183458
0.00183665
0.0018387
0.00184075
0.00184278
0.00184479
0.0018468
0.00184879
0.00185076
0.00185273
0.00185468
0.00185662
0.00185854
0.00186045
0.00186235
0.00186424
0.00186612
0.00186798
0.00186983
0.00187167
0.00187349
0.0018753
0.00187711
0.0018789
0.00188067
0.00188244
0.00188419
0.00188594
0.00188767
0.00188939
0.0018911
0.00189279
0.00189448
0.00189616
0.00189782
0.00189947
0.00190111
0.00190275
0.00190437
0.00190598
0.00190758
0.00190916
0.00191074
0.00191231
0.00191387
0.00191542
0.00191695
0.00191848
0.00192
0.0019215
0.001923
0.00192449
0.00192596
0.00192743
0.00192889
0.00193034
0.00193178
0.00193321
0.00193463
0.00193604
0.00193744
0.00193883
0.00194022
0.00194159
0.00194295
0.00194431
0.00194566
0.001947
0.00194833
0.00194965
0.00195096
0.00195226
0.00195356
0.00195484
0.00195612
0.00195739
0.00195865
0.00195991
0.00196115
0.00196239
0.00196362
0.00196484
0.00196605
0.00196725
0.00196845
0.00196964
0.00197082
0.00197199
0.00197316
0.00197432
0.00197547
0.00197661
0.00197775
0.00197888
0.00198
0.00198111
0.00198222
0.00198332
0.00198441
0.00198549
0.00198657
0.00198764
0.0019887
0.00198976
0.00199081
0.00199185
0.00199289
0.00199392
0.00199494
0.00199596
0.00199697
0.00199797
0.00199896
0.00199995
0.00200094
0.00200191
0.00200289
0.00200385
0.00200481
0.00200576
0.0020067
0.00200764
0.00200858
0.0020095
0.00201043
0.00201134
0.00201225
0.00201315
0.00201405
0.00201494
0.00201583
0.00201671
0.00201758
0.00201845
0.00201931
0.00202017
0.00202102
0.00202187
0.00202271
0.00202355
0.00202438
0.0020252
0.00202602
0.00202683
0.00202764
0.00202845
0.00202924
0.00203004
0.00203083
0.00203161
0.00203239
0.00203316
0.00203393
0.00203469
0.00203545
0.0020362
0.00203695
0.00203769
0.00203843
0.00203916
0.00203989
0.00204062
0.00204134
0.00204205
0.00204276
0.00204347
0.00204417
0.00204486
0.00204556
0.00204624
0.00204693
0.00204761
0.00204828
0.00204895
0.00204962
0.00205028
0.00205093
0.00205159
0.00205224
0.00205288
0.00205352
0.00205416
0.00205479
0.00205542
0.00205604
0.00205666
0.00205728
0.00205789
0.0020585
0.0020591
0.00205971
0.0020603
0.00206089
0.00206148
0.00206207
0.00206265
0.00206323
0.0020638
0.00206437
0.00206494
0.0020655
0.00206606
0.00206662
0.00206717
0.00206772
0.00206827
0.00206881
0.00206935
0.00206988
0.00207041
0.00207094
0.00207146
0.00207199
0.0020725
0.00207302
0.00207353
0.00207404
0.00207454
0.00207505
0.00207554
0.00207604
0.00207653
0.00207702
0.00207751
0.00207799
0.00207847
0.00207895
0.00207942
0.00207989
0.00208036
0.00208082
0.00208129
0.00208175
0.0020822
0.00208265
0.0020831
0.00208355
0.002084
0.00208444
0.00208488
0.00208531
0.00208575
0.00208618
0.0020866
0.00208703
0.00208745
0.00208787
0.00208829
0.0020887
0.00208912
0.00208953
0.00208993
0.00209034
0.00209074
0.00209114
0.00209153
0.00209193
0.00209232
0.00209271
0.00209309
0.00209348
0.00209386
0.00209424
0.00209462
0.00209499
0.00209536
0.00209573
0.0020961
0.00209647
0.00209683
0.00209719
0.00209755
0.0020979
0.00209826
0.00209861
0.00209896
0.00209931
0.00209965
0.0021
0.00210034
0.00210067
0.00210101
0.00210135
0.00210168
0.00210201
0.00210234
0.00210266
0.00210299
0.00210331
0.00210363
0.00210395
0.00210426
0.00210458
0.00210489
0.0021052
0.00210551
0.00210581
0.00210612
0.00210642
0.00210672
0.00210702
0.00210732
0.00210761
0.0021079
0.0021082
0.00210849
0.00210877
0.00210906
0.00210934
0.00210963
0.00210991
0.00211019
0.00211046
0.00211074
0.00211101
0.00211128
0.00211155
0.00211182
0.00211209
0.00211236
0.00211262
0.00211288
0.00211314
0.0021134
0.00211366
0.00211391
0.00211417
0.00211442
0.00211467
0.00211492
0.00211517
0.00211541
0.00211566
0.0021159
0.00211614
0.00211639
0.00211662
0.00211686
0.0021171
0.00211733
0.00211757
0.0021178
0.00211803
0.00211826
0.00211848
0.00211871
0.00211893
0.00211916
0.00211938
0.0021196
0.00211982
0.00212004
0.00212025
0.00212047
0.00212068
0.00212089
0.00212111
0.00212131
0.00212152
0.00212173
0.00212194
0.00212214
0.00212234
0.00212255
0.00212275
0.00212295
0.00212315
0.00212334
0.00212354
0.00212374
0.00212393
0.00212412
0.00212431
0.0021245
0.00212469
0.00212488
0.00212507
0.00212525
0
0

