-14930.3
-0.0232648
-0.00913974
-0.00516096
-0.00339534
-0.00244538
-0.00190441
-0.00161026
-0.00148365
-0.00147981
-0.0015703
-0.00173518
-0.00195936
-0.00223073
-0.00253921
-0.00287622
-0.00323438
-0.00360731
-0.00398951
-0.00437624
-0.00476345
-0.00514768
-0.00552603
-0.0058961
-0.00625589
-0.00660381
-0.00693858
-0.00725923
-0.00756505
-0.00785556
-0.00813044
-0.00838957
-0.00863294
-0.00886067
-0.00907297
-0.00927013
-0.00945252
-0.00962056
-0.0097747
-0.00991543
-0.0100433
-0.0101587
-0.0102623
-0.0103547
-0.0104362
-0.0105075
-0.0105692
-0.0106216
-0.0106653
-0.0107009
-0.0107287
-0.0107492
-0.0107629
-0.0107702
-0.0107715
-0.0107671
-0.0107575
-0.0107429
-0.0107238
-0.0107004
-0.0106731
-0.010642
-0.0106076
-0.01057
-0.0105294
-0.0104861
-0.0104404
-0.0103923
-0.0103422
-0.01029
-0.0102362
-0.0101807
-0.0101237
-0.0100654
-0.0100059
-0.00994522
-0.0098836
-0.0098211
-0.0097578
-0.0096938
-0.00962917
-0.00956401
-0.00949838
-0.00943234
-0.00936596
-0.00929929
-0.00923239
-0.00916531
-0.0090981
-0.00903079
-0.00896343
-0.00889605
-0.00882868
-0.00876137
-0.00869412
-0.00862698
-0.00855997
-0.0084931
-0.00842641
-0.0083599
-0.0082936
-0.00822752
-0.00816167
-0.00809608
-0.00803074
-0.00796568
-0.0079009
-0.00783641
-0.00777222
-0.00770834
-0.00764477
-0.00758152
-0.0075186
-0.00745601
-0.00739375
-0.00733183
-0.00727025
-0.00720901
-0.00714812
-0.00708758
-0.00702738
-0.00696754
-0.00690805
-0.00684892
-0.00679014
-0.00673171
-0.00667363
-0.00661592
-0.00655855
-0.00650155
-0.0064449
-0.0063886
-0.00633265
-0.00627706
-0.00622181
-0.00616692
-0.00611237
-0.00605816
-0.00600431
-0.00595079
-0.00589762
-0.00584479
-0.00579229
-0.00574014
-0.00568832
-0.00563683
-0.00558567
-0.00553485
-0.00548435
-0.00543418
-0.00538434
-0.00533482
-0.00528562
-0.00523674
-0.00518818
-0.00513993
-0.005092
-0.00504438
-0.00499707
-0.00495007
-0.00490337
-0.00485698
-0.00481089
-0.00476511
-0.00471962
-0.00467443
-0.00462953
-0.00458493
-0.00454062
-0.0044966
-0.00445287
-0.00440942
-0.00436626
-0.00432338
-0.00428078
-0.00423846
-0.00419641
-0.00415464
-0.00411315
-0.00407193
-0.00403097
-0.00399029
-0.00394987
-0.00390972
-0.00386982
-0.0038302
-0.00379083
-0.00375171
-0.00371286
-0.00367426
-0.00363591
-0.00359782
-0.00355997
-0.00352237
-0.00348502
-0.00344791
-0.00341105
-0.00337443
-0.00333805
-0.0033019
-0.003266
-0.00323033
-0.00319489
-0.00315969
-0.00312471
-0.00308997
-0.00305545
-0.00302117
-0.0029871
-0.00295326
-0.00291964
-0.00288624
-0.00285307
-0.0028201
-0.00278736
-0.00275483
-0.00272251
-0.00269041
-0.00265852
-0.00262683
-0.00259536
-0.00256409
-0.00253302
-0.00250216
-0.00247151
-0.00244105
-0.0024108
-0.00238074
-0.00235088
-0.00232122
-0.00229175
-0.00226247
-0.00223339
-0.0022045
-0.00217579
-0.00214728
-0.00211896
-0.00209082
-0.00206286
-0.00203509
-0.0020075
-0.00198009
-0.00195287
-0.00192582
-0.00189895
-0.00187225
-0.00184574
-0.00181939
-0.00179322
-0.00176722
-0.0017414
-0.00171574
-0.00169025
-0.00166493
-0.00163977
-0.00161478
-0.00158996
-0.0015653
-0.0015408
-0.00151646
-0.00149228
-0.00146826
-0.0014444
-0.0014207
-0.00139715
-0.00137376
-0.00135052
-0.00132743
-0.0013045
-0.00128172
-0.00125908
-0.0012366
-0.00121426
-0.00119207
-0.00117003
-0.00114813
-0.00112638
-0.00110477
-0.0010833
-0.00106198
-0.00104079
-0.00101974
-0.000998837
-0.000978067
-0.000957434
-0.000936937
-0.000916575
-0.000896347
-0.000876252
-0.00085629
-0.00083646
-0.000816759
-0.000797189
-0.000777748
-0.000758435
-0.00073925
-0.00072019
-0.000701257
-0.000682449
-0.000663764
-0.000645203
-0.000626764
-0.000608446
-0.000590249
-0.000572173
-0.000554215
-0.000536376
-0.000518654
-0.00050105
-0.000483562
-0.000466189
-0.00044893
-0.000431786
-0.000414755
-0.000397836
-0.000381028
-0.000364331
-0.000347745
-0.000331269
-0.0003149
-0.00029864
-0.000282487
-0.000266441
-0.0002505
-0.000234665
-0.000218934
-0.000203308
-0.000187784
-0.000172363
-0.000157044
-0.000141826
-0.000126708
-0.00011169
-9.67712e-05
-8.19505e-05
-6.72284e-05
-5.2603e-05
-3.80743e-05
-2.36414e-05
-9.30453e-06
4.93858e-06
1.90872e-05
3.3142e-05
4.71045e-05
6.09745e-05
7.47529e-05
8.84411e-05
0.000102038
0.000115545
0.000128963
0.000142293
0.000155534
0.000168688
0.000181755
0.000194735
0.000207631
0.000220441
0.000233165
0.000245806
0.000258364
0.000270838
0.00028323
0.00029554
0.000307769
0.000319917
0.000331985
0.000343973
0.000355881
0.000367711
0.000379463
0.000391138
0.000402735
0.000414255
0.000425699
0.000437067
0.000448361
0.00045958
0.000470724
0.000481795
0.000492793
0.000503718
0.000514571
0.000525352
0.000536061
0.000546701
0.000557269
0.000567768
0.000578197
0.000588558
0.00059885
0.000609073
0.00061923
0.000629319
0.000639342
0.000649297
0.000659187
0.000669012
0.000678773
0.000688467
0.000698099
0.000707666
0.00071717
0.000726611
0.00073599
0.000745307
0.000754562
0.000763756
0.000772889
0.000781962
0.000790975
0.000799928
0.000808822
0.000817657
0.000826434
0.000835153
0.000843814
0.000852417
0.000860964
0.000869455
0.000877888
0.000886267
0.00089459
0.000902858
0.000911071
0.00091923
0.000927335
0.000935387
0.000943385
0.00095133
0.000959222
0.000967063
0.000974852
0.000982589
0.000990274
0.00099791
0.00100549
0.00101303
0.00102051
0.00102795
0.00103533
0.00104267
0.00104996
0.0010572
0.00106439
0.00107154
0.00107864
0.00108569
0.00109269
0.00109965
0.00110656
0.00111343
0.00112025
0.00112702
0.00113375
0.00114044
0.00114708
0.00115368
0.00116023
0.00116675
0.00117321
0.00117964
0.00118602
0.00119236
0.00119866
0.00120492
0.00121113
0.00121731
0.00122344
0.00122953
0.00123559
0.0012416
0.00124757
0.00125351
0.0012594
0.00126526
0.00127107
0.00127685
0.00128259
0.00128829
0.00129396
0.00129959
0.00130518
0.00131073
0.00131624
0.00132172
0.00132717
0.00133258
0.00133795
0.00134328
0.00134858
0.00135385
0.00135908
0.00136428
0.00136944
0.00137457
0.00137966
0.00138472
0.00138975
0.00139474
0.0013997
0.00140463
0.00140953
0.00141439
0.00141922
0.00142402
0.00142879
0.00143352
0.00143823
0.0014429
0.00144755
0.00145216
0.00145674
0.00146129
0.00146581
0.0014703
0.00147477
0.0014792
0.0014836
0.00148797
0.00149232
0.00149664
0.00150092
0.00150518
0.00150941
0.00151362
0.00151779
0.00152194
0.00152606
0.00153015
0.00153422
0.00153826
0.00154227
0.00154626
0.00155022
0.00155415
0.00155806
0.00156194
0.0015658
0.00156963
0.00157344
0.00157722
0.00158097
0.0015847
0.00158841
0.00159209
0.00159575
0.00159938
0.00160299
0.00160658
0.00161014
0.00161368
0.0016172
0.00162069
0.00162416
0.0016276
0.00163103
0.00163443
0.00163781
0.00164116
0.0016445
0.00164781
0.0016511
0.00165437
0.00165761
0.00166084
0.00166404
0.00166723
0.00167039
0.00167353
0.00167665
0.00167975
0.00168283
0.00168589
0.00168893
0.00169195
0.00169495
0.00169793
0.00170089
0.00170383
0.00170675
0.00170965
0.00171253
0.0017154
0.00171824
0.00172107
0.00172388
0.00172667
0.00172944
0.00173219
0.00173492
0.00173764
0.00174034
0.00174302
0.00174568
0.00174833
0.00175096
0.00175357
0.00175616
0.00175874
0.0017613
0.00176384
0.00176637
0.00176888
0.00177137
0.00177385
0.00177631
0.00177875
0.00178118
0.00178359
0.00178599
0.00178837
0.00179073
0.00179308
0.00179541
0.00179773
0.00180004
0.00180232
0.0018046
0.00180685
0.0018091
0.00181133
0.00181354
0.00181574
0.00181792
0.0018201
0.00182225
0.00182439
0.00182652
0.00182864
0.00183074
0.00183282
0.0018349
0.00183696
0.001839
0.00184103
0.00184305
0.00184506
0.00184705
0.00184903
0.001851
0.00185295
0.00185489
0.00185682
0.00185873
0.00186064
0.00186253
0.00186441
0.00186627
0.00186813
0.00186997
0.0018718
0.00187361
0.00187542
0.00187721
0.00187899
0.00188076
0.00188252
0.00188427
0.00188601
0.00188773
0.00188944
0.00189115
0.00189284
0.00189452
0.00189618
0.00189784
0.00189949
0.00190112
0.00190275
0.00190436
0.00190597
0.00190756
0.00190915
0.00191072
0.00191228
0.00191383
0.00191538
0.00191691
0.00191843
0.00191994
0.00192145
0.00192294
0.00192442
0.00192589
0.00192736
0.00192881
0.00193026
0.00193169
0.00193312
0.00193453
0.00193594
0.00193734
0.00193873
0.00194011
0.00194148
0.00194284
0.00194419
0.00194554
0.00194687
0.0019482
0.00194952
0.00195083
0.00195213
0.00195342
0.0019547
0.00195598
0.00195725
0.00195851
0.00195976
0.001961
0.00196223
0.00196346
0.00196468
0.00196589
0.00196709
0.00196829
0.00196948
0.00197066
0.00197183
0.00197299
0.00197415
0.0019753
0.00197644
0.00197757
0.0019787
0.00197982
0.00198093
0.00198204
0.00198314
0.00198423
0.00198531
0.00198639
0.00198746
0.00198852
0.00198957
0.00199062
0.00199167
0.0019927
0.00199373
0.00199475
0.00199577
0.00199678
0.00199778
0.00199877
0.00199976
0.00200075
0.00200172
0.00200269
0.00200366
0.00200461
0.00200557
0.00200651
0.00200745
0.00200838
0.00200931
0.00201023
0.00201115
0.00201206
0.00201296
0.00201386
0.00201475
0.00201564
0.00201652
0.00201739
0.00201826
0.00201912
0.00201998
0.00202083
0.00202168
0.00202252
0.00202336
0.00202419
0.00202501
0.00202583
0.00202665
0.00202745
0.00202826
0.00202906
0.00202985
0.00203064
0.00203142
0.0020322
0.00203297
0.00203374
0.0020345
0.00203526
0.00203602
0.00203677
0.00203751
0.00203825
0.00203898
0.00203971
0.00204044
0.00204116
0.00204187
0.00204258
0.00204329
0.00204399
0.00204469
0.00204538
0.00204607
0.00204676
0.00204743
0.00204811
0.00204878
0.00204945
0.00205011
0.00205077
0.00205142
0.00205207
0.00205272
0.00205336
0.002054
0.00205463
0.00205526
0.00205588
0.0020565
0.00205712
0.00205773
0.00205834
0.00205895
0.00205955
0.00206015
0.00206074
0.00206133
0.00206192
0.0020625
0.00206308
0.00206366
0.00206423
0.00206479
0.00206536
0.00206592
0.00206648
0.00206703
0.00206758
0.00206813
0.00206867
0.00206921
0.00206974
0.00207028
0.00207081
0.00207133
0.00207185
0.00207237
0.00207289
0.0020734
0.00207391
0.00207442
0.00207492
0.00207542
0.00207592
0.00207641
0.0020769
0.00207739
0.00207787
0.00207835
0.00207883
0.00207931
0.00207978
0.00208025
0.00208071
0.00208117
0.00208163
0.00208209
0.00208255
0.002083
0.00208345
0.00208389
0.00208433
0.00208477
0.00208521
0.00208565
0.00208608
0.00208651
0.00208693
0.00208736
0.00208778
0.00208819
0.00208861
0.00208902
0.00208943
0.00208984
0.00209025
0.00209065
0.00209105
0.00209145
0.00209184
0.00209223
0.00209262
0.00209301
0.0020934
0.00209378
0.00209416
0.00209454
0.00209491
0.00209529
0.00209566
0.00209603
0.00209639
0.00209676
0.00209712
0.00209748
0.00209784
0.00209819
0.00209854
0.00209889
0.00209924
0.00209959
0.00209993
0.00210027
0.00210061
0.00210095
0.00210128
0.00210162
0.00210195
0.00210228
0.00210261
0.00210293
0.00210325
0.00210357
0.00210389
0.00210421
0.00210453
0.00210484
0.00210515
0.00210546
0.00210577
0.00210607
0.00210637
0.00210668
0.00210698
0.00210727
0.00210757
0.00210786
0.00210816
0.00210845
0.00210873
0.00210902
0.00210931
0.00210959
0.00210987
0.00211015
0.00211043
0.00211071
0.00211098
0.00211125
0.00211152
0.00211179
0.00211206
0.00211233
0.00211259
0.00211285
0.00211312
0.00211338
0.00211363
0.00211389
0.00211415
0.0021144
0.00211465
0.0021149
0.00211515
0.0021154
0.00211564
0.00211589
0.00211613
0.00211637
0.00211661
0.00211685
0.00211708
0.00211732
0.00211755
0.00211778
0.00211802
0.00211825
0.00211847
0.0021187
0.00211893
0.00211915
0.00211937
0.00211959
0.00211981
0.00212003
0.00212025
0.00212046
0.00212068
0.00212089
0.0021211
0.00212131
0.00212152
0.00212173
0.00212194
0.00212214
0.00212235
0.00212255
0.00212275
0.00212295
0.00212315
0.00212335
0.00212355
0.00212374
0
0

