-14930.3
-0.0232648
-0.00913799
-0.00515053
-0.00336111
-0.0023632
-0.00174257
-0.00133248
-0.00105242
-0.000859359
-0.00072881
-0.000646187
-0.00060241
-0.000591521
-0.00060935
-0.000652755
-0.000719189
-0.000806447
-0.000912537
-0.0010356
-0.00117388
-0.00132568
-0.00148941
-0.00166354
-0.0018466
-0.00203722
-0.00223411
-0.00243604
-0.00264189
-0.00285061
-0.00306123
-0.00327285
-0.00348468
-0.00369597
-0.00390605
-0.00411432
-0.00432025
-0.00452335
-0.0047232
-0.00491943
-0.00511172
-0.00529977
-0.00548337
-0.00566229
-0.00583638
-0.0060055
-0.00616954
-0.00632842
-0.00648208
-0.00663048
-0.00677361
-0.00691146
-0.00704404
-0.00717139
-0.00729355
-0.00741056
-0.00752249
-0.00762939
-0.00773135
-0.00782844
-0.00792075
-0.00800836
-0.00809137
-0.00816987
-0.00824396
-0.00831375
-0.00837933
-0.0084408
-0.00849828
-0.00855185
-0.00860163
-0.00864771
-0.0086902
-0.0087292
-0.00876481
-0.00879712
-0.00882624
-0.00885226
-0.00887528
-0.00889538
-0.00891266
-0.00892721
-0.00893911
-0.00894846
-0.00895533
-0.0089598
-0.00896196
-0.00896189
-0.00895966
-0.00895535
-0.00894902
-0.00894075
-0.00893061
-0.00891867
-0.00890499
-0.00888963
-0.00887265
-0.00885412
-0.0088341
-0.00881264
-0.00878979
-0.00876561
-0.00874015
-0.00871347
-0.0086856
-0.00865661
-0.00862653
-0.00859541
-0.00856329
-0.00853021
-0.00849623
-0.00846136
-0.00842567
-0.00838917
-0.00835191
-0.00831392
-0.00827524
-0.00823589
-0.00819592
-0.00815535
-0.00811421
-0.00807253
-0.00803033
-0.00798765
-0.00794451
-0.00790094
-0.00785696
-0.00781259
-0.00776786
-0.00772279
-0.0076774
-0.00763171
-0.00758574
-0.00753951
-0.00749304
-0.00744635
-0.00739945
-0.00735237
-0.00730511
-0.0072577
-0.00721014
-0.00716246
-0.00711467
-0.00706677
-0.0070188
-0.00697075
-0.00692264
-0.00687448
-0.00682628
-0.00677806
-0.00672982
-0.00668158
-0.00663334
-0.00658512
-0.00653692
-0.00648876
-0.00644064
-0.00639257
-0.00634455
-0.0062966
-0.00624872
-0.00620092
-0.00615321
-0.00610558
-0.00605806
-0.00601064
-0.00596332
-0.00591613
-0.00586905
-0.0058221
-0.00577528
-0.00572859
-0.00568204
-0.00563564
-0.00558938
-0.00554327
-0.00549732
-0.00545153
-0.0054059
-0.00536043
-0.00531513
-0.00527
-0.00522505
-0.00518027
-0.00513567
-0.00509125
-0.00504702
-0.00500297
-0.00495911
-0.00491544
-0.00487196
-0.00482867
-0.00478558
-0.00474268
-0.00469999
-0.00465748
-0.00461518
-0.00457309
-0.00453119
-0.00448949
-0.004448
-0.00440672
-0.00436564
-0.00432476
-0.0042841
-0.00424364
-0.00420339
-0.00416334
-0.00412351
-0.00408388
-0.00404447
-0.00400526
-0.00396626
-0.00392747
-0.00388889
-0.00385052
-0.00381236
-0.00377442
-0.00373667
-0.00369914
-0.00366182
-0.00362471
-0.00358781
-0.00355111
-0.00351462
-0.00347834
-0.00344227
-0.00340641
-0.00337075
-0.00333529
-0.00330005
-0.003265
-0.00323017
-0.00319553
-0.0031611
-0.00312687
-0.00309285
-0.00305902
-0.0030254
-0.00299198
-0.00295875
-0.00292573
-0.0028929
-0.00286028
-0.00282784
-0.00279561
-0.00276357
-0.00273172
-0.00270007
-0.00266861
-0.00263734
-0.00260626
-0.00257538
-0.00254468
-0.00251417
-0.00248385
-0.00245372
-0.00242378
-0.00239401
-0.00236444
-0.00233504
-0.00230583
-0.00227681
-0.00224796
-0.00221929
-0.0021908
-0.00216249
-0.00213436
-0.00210641
-0.00207863
-0.00205102
-0.00202359
-0.00199633
-0.00196925
-0.00194233
-0.00191558
-0.00188901
-0.0018626
-0.00183636
-0.00181029
-0.00178438
-0.00175864
-0.00173306
-0.00170764
-0.00168239
-0.00165729
-0.00163236
-0.00160759
-0.00158297
-0.00155851
-0.00153421
-0.00151007
-0.00148607
-0.00146224
-0.00143855
-0.00141502
-0.00139164
-0.00136841
-0.00134533
-0.0013224
-0.00129961
-0.00127698
-0.00125449
-0.00123214
-0.00120994
-0.00118788
-0.00116596
-0.00114419
-0.00112256
-0.00110106
-0.00107971
-0.00105849
-0.00103741
-0.00101647
-0.000995664
-0.000974993
-0.000954455
-0.000934052
-0.00091378
-0.000893641
-0.000873632
-0.000853753
-0.000834004
-0.000814383
-0.000794889
-0.000775523
-0.000756282
-0.000737168
-0.000718177
-0.00069931
-0.000680566
-0.000661945
-0.000643445
-0.000625065
-0.000606806
-0.000588666
-0.000570644
-0.00055274
-0.000534953
-0.000517282
-0.000499726
-0.000482285
-0.000464958
-0.000447744
-0.000430643
-0.000413655
-0.000396777
-0.000380009
-0.000363352
-0.000346803
-0.000330363
-0.00031403
-0.000297805
-0.000281685
-0.000265671
-0.000249763
-0.000233958
-0.000218257
-0.00020266
-0.000187164
-0.00017177
-0.000156477
-0.000141284
-0.000126191
-0.000111198
-9.63023e-05
-8.15042e-05
-6.68035e-05
-5.21994e-05
-3.76913e-05
-2.32783e-05
-8.96062e-06
5.26402e-06
1.93949e-05
3.34326e-05
4.7378e-05
6.12317e-05
7.49945e-05
8.86671e-05
0.000102249
0.000115743
0.000129147
0.000142464
0.000155692
0.000168834
0.000181889
0.000194859
0.000207743
0.000220542
0.000233257
0.000245888
0.000258437
0.000270902
0.000283286
0.000295588
0.000307809
0.00031995
0.00033201
0.000343991
0.000355894
0.000367718
0.000379464
0.000391132
0.000402724
0.000414239
0.000425679
0.000437043
0.000448333
0.000459547
0.000470688
0.000481756
0.00049275
0.000503672
0.000514522
0.000525301
0.000536009
0.000546645
0.000557213
0.00056771
0.000578137
0.000588496
0.000598787
0.00060901
0.000619165
0.000629255
0.000639276
0.000649232
0.000659122
0.000668947
0.000678707
0.000688403
0.000698034
0.000707603
0.000717107
0.00072655
0.00073593
0.000745247
0.000754504
0.000763699
0.000772834
0.000781908
0.000790923
0.000799878
0.000808774
0.000817611
0.00082639
0.000835111
0.000843775
0.000852381
0.000860929
0.000869423
0.000877859
0.000886241
0.000894567
0.000902837
0.000911054
0.000919216
0.000927324
0.000935378
0.00094338
0.000951328
0.000959224
0.000967068
0.00097486
0.000982601
0.000990291
0.000997929
0.00100552
0.00101306
0.00102054
0.00102798
0.00103537
0.00104271
0.00105001
0.00105725
0.00106445
0.0010716
0.0010787
0.00108575
0.00109276
0.00109972
0.00110664
0.00111351
0.00112033
0.00112711
0.00113385
0.00114054
0.00114719
0.00115379
0.00116035
0.00116686
0.00117334
0.00117976
0.00118615
0.0011925
0.0011988
0.00120506
0.00121128
0.00121746
0.0012236
0.0012297
0.00123575
0.00124177
0.00124775
0.00125369
0.00125959
0.00126545
0.00127127
0.00127705
0.0012828
0.0012885
0.00129417
0.0012998
0.0013054
0.00131095
0.00131647
0.00132196
0.00132741
0.00133282
0.0013382
0.00134354
0.00134884
0.00135411
0.00135935
0.00136455
0.00136972
0.00137485
0.00137995
0.00138501
0.00139004
0.00139504
0.00140001
0.00140494
0.00140984
0.00141471
0.00141954
0.00142435
0.00142912
0.00143386
0.00143857
0.00144324
0.00144789
0.00145251
0.00145709
0.00146165
0.00146617
0.00147067
0.00147514
0.00147957
0.00148398
0.00148836
0.00149271
0.00149703
0.00150132
0.00150558
0.00150982
0.00151402
0.0015182
0.00152236
0.00152648
0.00153058
0.00153465
0.00153869
0.00154271
0.0015467
0.00155066
0.0015546
0.00155851
0.0015624
0.00156626
0.00157009
0.0015739
0.00157769
0.00158145
0.00158518
0.00158889
0.00159258
0.00159624
0.00159987
0.00160349
0.00160708
0.00161064
0.00161418
0.0016177
0.0016212
0.00162467
0.00162812
0.00163155
0.00163495
0.00163833
0.00164169
0.00164503
0.00164834
0.00165164
0.00165491
0.00165816
0.00166139
0.0016646
0.00166778
0.00167095
0.00167409
0.00167722
0.00168032
0.0016834
0.00168646
0.00168951
0.00169253
0.00169553
0.00169851
0.00170148
0.00170442
0.00170734
0.00171025
0.00171313
0.001716
0.00171885
0.00172168
0.00172449
0.00172728
0.00173005
0.00173281
0.00173554
0.00173826
0.00174096
0.00174365
0.00174631
0.00174896
0.00175159
0.0017542
0.0017568
0.00175938
0.00176194
0.00176449
0.00176701
0.00176953
0.00177202
0.0017745
0.00177696
0.00177941
0.00178184
0.00178425
0.00178665
0.00178903
0.0017914
0.00179375
0.00179609
0.00179841
0.00180071
0.001803
0.00180528
0.00180754
0.00180978
0.00181201
0.00181423
0.00181643
0.00181862
0.00182079
0.00182295
0.00182509
0.00182722
0.00182934
0.00183144
0.00183353
0.0018356
0.00183766
0.00183971
0.00184174
0.00184376
0.00184577
0.00184776
0.00184975
0.00185171
0.00185367
0.00185561
0.00185754
0.00185946
0.00186136
0.00186325
0.00186513
0.001867
0.00186885
0.0018707
0.00187253
0.00187435
0.00187615
0.00187795
0.00187973
0.0018815
0.00188326
0.00188501
0.00188675
0.00188847
0.00189019
0.00189189
0.00189358
0.00189526
0.00189693
0.00189859
0.00190024
0.00190187
0.0019035
0.00190512
0.00190672
0.00190832
0.0019099
0.00191147
0.00191304
0.00191459
0.00191613
0.00191767
0.00191919
0.0019207
0.0019222
0.0019237
0.00192518
0.00192665
0.00192812
0.00192957
0.00193102
0.00193245
0.00193388
0.0019353
0.00193671
0.0019381
0.00193949
0.00194087
0.00194225
0.00194361
0.00194496
0.00194631
0.00194764
0.00194897
0.00195029
0.0019516
0.0019529
0.00195419
0.00195547
0.00195675
0.00195802
0.00195928
0.00196053
0.00196177
0.00196301
0.00196423
0.00196545
0.00196666
0.00196787
0.00196906
0.00197025
0.00197143
0.0019726
0.00197377
0.00197492
0.00197607
0.00197721
0.00197835
0.00197947
0.00198059
0.00198171
0.00198281
0.00198391
0.001985
0.00198608
0.00198716
0.00198823
0.00198929
0.00199035
0.0019914
0.00199244
0.00199347
0.0019945
0.00199553
0.00199654
0.00199755
0.00199855
0.00199955
0.00200054
0.00200152
0.0020025
0.00200347
0.00200443
0.00200539
0.00200634
0.00200728
0.00200822
0.00200916
0.00201008
0.002011
0.00201192
0.00201283
0.00201373
0.00201463
0.00201552
0.0020164
0.00201728
0.00201816
0.00201903
0.00201989
0.00202075
0.0020216
0.00202244
0.00202329
0.00202412
0.00202495
0.00202577
0.00202659
0.00202741
0.00202822
0.00202902
0.00202982
0.00203061
0.0020314
0.00203218
0.00203296
0.00203373
0.0020345
0.00203526
0.00203602
0.00203677
0.00203752
0.00203826
0.002039
0.00203974
0.00204047
0.00204119
0.00204191
0.00204263
0.00204334
0.00204404
0.00204474
0.00204544
0.00204613
0.00204682
0.0020475
0.00204818
0.00204886
0.00204953
0.00205019
0.00205085
0.00205151
0.00205217
0.00205281
0.00205346
0.0020541
0.00205474
0.00205537
0.002056
0.00205662
0.00205724
0.00205786
0.00205847
0.00205908
0.00205968
0.00206028
0.00206088
0.00206148
0.00206206
0.00206265
0.00206323
0.00206381
0.00206438
0.00206495
0.00206552
0.00206609
0.00206664
0.0020672
0.00206775
0.0020683
0.00206885
0.00206939
0.00206993
0.00207046
0.002071
0.00207152
0.00207205
0.00207257
0.00207309
0.0020736
0.00207412
0.00207462
0.00207513
0.00207563
0.00207613
0.00207663
0.00207712
0.00207761
0.00207809
0.00207858
0.00207906
0.00207953
0.00208001
0.00208048
0.00208095
0.00208141
0.00208187
0.00208233
0.00208279
0.00208324
0.00208369
0.00208414
0.00208458
0.00208503
0.00208546
0.0020859
0.00208633
0.00208677
0.00208719
0.00208762
0.00208804
0.00208846
0.00208888
0.00208929
0.0020897
0.00209011
0.00209052
0.00209092
0.00209133
0.00209172
0.00209212
0.00209252
0.00209291
0.0020933
0.00209368
0.00209407
0.00209445
0.00209483
0.00209521
0.00209558
0.00209595
0.00209632
0.00209669
0.00209705
0.00209742
0.00209778
0.00209814
0.00209849
0.00209885
0.0020992
0.00209955
0.00209989
0.00210024
0.00210058
0.00210092
0.00210126
0.0021016
0.00210193
0.00210226
0.00210259
0.00210292
0.00210325
0.00210357
0.00210389
0.00210421
0.00210453
0.00210485
0.00210516
0.00210547
0.00210578
0.00210609
0.0021064
0.0021067
0.002107
0.0021073
0.0021076
0.0021079
0.00210819
0.00210849
0.00210878
0.00210907
0.00210936
0.00210964
0.00210993
0.00211021
0.00211049
0.00211077
0.00211104
0.00211132
0.00211159
0.00211186
0.00211213
0.0021124
0.00211267
0.00211293
0.0021132
0.00211346
0.00211372
0.00211398
0.00211423
0.00211449
0.00211474
0.002115
0.00211525
0.0021155
0.00211574
0.00211599
0.00211623
0.00211648
0.00211672
0.00211696
0.0021172
0.00211743
0
0

