-14930.3
-0.0225614
-0.00870361
-0.00488671
-0.00320366
-0.00228381
-0.00173432
-0.00140261
-0.00121836
-0.00114564
-0.00116445
-0.00126226
-0.00142989
-0.00165932
-0.00194275
-0.00227227
-0.00263979
-0.0030373
-0.00345701
-0.00389162
-0.00433446
-0.00477956
-0.00522175
-0.00565663
-0.00608053
-0.00649048
-0.00688414
-0.00725973
-0.00761598
-0.00795201
-0.00826733
-0.00856173
-0.00883528
-0.00908824
-0.00932103
-0.00953422
-0.00972846
-0.00990448
-0.0100631
-0.0102051
-0.0103313
-0.0104426
-0.0105399
-0.0106239
-0.0106955
-0.0107555
-0.0108047
-0.0108437
-0.0108732
-0.0108941
-0.0109068
-0.010912
-0.0109103
-0.0109021
-0.0108881
-0.0108686
-0.0108442
-0.0108151
-0.0107819
-0.0107448
-0.0107042
-0.0106605
-0.0106138
-0.0105645
-0.0105128
-0.0104589
-0.0104031
-0.0103455
-0.0102864
-0.0102258
-0.010164
-0.0101011
-0.0100372
-0.00997237
-0.00990682
-0.00984062
-0.00977386
-0.00970662
-0.00963898
-0.00957102
-0.00950279
-0.00943435
-0.00936577
-0.00929709
-0.00922836
-0.00915962
-0.00909091
-0.00902226
-0.0089537
-0.00888527
-0.00881699
-0.00874888
-0.00868097
-0.00861327
-0.00854581
-0.0084786
-0.00841165
-0.00834497
-0.00827859
-0.0082125
-0.00814672
-0.00808126
-0.00801613
-0.00795132
-0.00788686
-0.00782273
-0.00775895
-0.00769553
-0.00763245
-0.00756973
-0.00750738
-0.00744538
-0.00738375
-0.00732248
-0.00726157
-0.00720103
-0.00714086
-0.00708106
-0.00702162
-0.00696254
-0.00690383
-0.00684549
-0.00678751
-0.0067299
-0.00667264
-0.00661575
-0.00655922
-0.00650305
-0.00644723
-0.00639177
-0.00633667
-0.00628192
-0.00622752
-0.00617347
-0.00611976
-0.0060664
-0.00601339
-0.00596072
-0.00590839
-0.0058564
-0.00580474
-0.00575342
-0.00570244
-0.00565178
-0.00560146
-0.00555146
-0.00550178
-0.00545243
-0.0054034
-0.00535469
-0.0053063
-0.00525822
-0.00521046
-0.00516301
-0.00511586
-0.00506903
-0.0050225
-0.00497628
-0.00493035
-0.00488473
-0.0048394
-0.00479438
-0.00474964
-0.0047052
-0.00466105
-0.00461719
-0.00457361
-0.00453032
-0.00448731
-0.00444459
-0.00440214
-0.00435997
-0.00431808
-0.00427646
-0.00423511
-0.00419404
-0.00415323
-0.00411269
-0.00407242
-0.00403241
-0.00399266
-0.00395317
-0.00391394
-0.00387497
-0.00383625
-0.00379779
-0.00375958
-0.00372161
-0.0036839
-0.00364644
-0.00360922
-0.00357224
-0.00353551
-0.00349902
-0.00346276
-0.00342675
-0.00339097
-0.00335542
-0.00332011
-0.00328503
-0.00325018
-0.00321556
-0.00318116
-0.00314699
-0.00311305
-0.00307932
-0.00304582
-0.00301254
-0.00297948
-0.00294663
-0.002914
-0.00288158
-0.00284938
-0.00281739
-0.0027856
-0.00275403
-0.00272266
-0.0026915
-0.00266055
-0.00262979
-0.00259924
-0.00256889
-0.00253874
-0.00250879
-0.00247903
-0.00244947
-0.0024201
-0.00239093
-0.00236195
-0.00233316
-0.00230455
-0.00227614
-0.00224791
-0.00221987
-0.00219201
-0.00216433
-0.00213684
-0.00210953
-0.0020824
-0.00205544
-0.00202866
-0.00200206
-0.00197564
-0.00194939
-0.0019233
-0.0018974
-0.00187166
-0.00184609
-0.00182069
-0.00179546
-0.00177039
-0.00174549
-0.00172075
-0.00169617
-0.00167176
-0.00164751
-0.00162341
-0.00159948
-0.0015757
-0.00155208
-0.00152861
-0.0015053
-0.00148214
-0.00145914
-0.00143629
-0.00141358
-0.00139103
-0.00136863
-0.00134637
-0.00132426
-0.00130229
-0.00128047
-0.0012588
-0.00123726
-0.00121587
-0.00119462
-0.00117351
-0.00115254
-0.0011317
-0.00111101
-0.00109045
-0.00107002
-0.00104973
-0.00102958
-0.00100956
-0.000989664
-0.000969905
-0.000950276
-0.000930775
-0.000911404
-0.000892161
-0.000873044
-0.000854054
-0.000835188
-0.000816448
-0.000797831
-0.000779337
-0.000760964
-0.000742714
-0.000724583
-0.000706572
-0.00068868
-0.000670906
-0.00065325
-0.00063571
-0.000618285
-0.000600976
-0.000583781
-0.0005667
-0.000549731
-0.000532874
-0.000516129
-0.000499494
-0.000482969
-0.000466554
-0.000450246
-0.000434046
-0.000417954
-0.000401968
-0.000386087
-0.000370311
-0.000354639
-0.000339071
-0.000323606
-0.000308243
-0.000292982
-0.000277821
-0.000262761
-0.000247799
-0.000232937
-0.000218173
-0.000203508
-0.000188938
-0.000174465
-0.000160088
-0.000145805
-0.000131618
-0.000117524
-0.000103523
-8.96145e-05
-7.57985e-05
-6.20733e-05
-4.84392e-05
-3.48952e-05
-2.14401e-05
-8.07527e-06
5.2022e-06
1.83916e-05
3.14935e-05
4.45088e-05
5.74381e-05
7.02821e-05
8.30409e-05
9.57151e-05
0.000108306
0.000120813
0.000133237
0.00014558
0.00015784
0.00017002
0.000182119
0.000194138
0.000206077
0.000217937
0.000229719
0.000241423
0.000253049
0.000264599
0.000276072
0.000287469
0.000298791
0.000310037
0.00032121
0.000332308
0.000343332
0.000354284
0.000365163
0.000375971
0.000386707
0.000397371
0.000407965
0.000418489
0.000428943
0.000439328
0.000449644
0.000459892
0.000470072
0.000480185
0.00049023
0.000500209
0.000510122
0.000519969
0.000529752
0.000539469
0.000549121
0.00055871
0.000568236
0.000577699
0.000587098
0.000596435
0.000605711
0.000614925
0.000624078
0.00063317
0.000642203
0.000651175
0.000660088
0.000668942
0.000677737
0.000686473
0.000695152
0.000703772
0.000712336
0.000720843
0.000729294
0.000737688
0.000746027
0.000754311
0.000762539
0.000770714
0.000778834
0.0007869
0.000794913
0.000802873
0.00081078
0.000818634
0.000826437
0.000834188
0.000841887
0.000849536
0.000857134
0.000864681
0.000872178
0.000879626
0.000887024
0.000894373
0.000901674
0.000908926
0.000916131
0.000923287
0.000930396
0.000937457
0.000944473
0.000951441
0.000958363
0.000965239
0.00097207
0.000978856
0.000985596
0.000992292
0.000998943
0.00100555
0.00101211
0.00101863
0.00102511
0.00103154
0.00103794
0.00104429
0.00105059
0.00105686
0.00106308
0.00106926
0.0010754
0.0010815
0.00108756
0.00109358
0.00109956
0.0011055
0.00111141
0.00111727
0.00112309
0.00112887
0.00113462
0.00114033
0.001146
0.00115163
0.00115723
0.00116278
0.00116831
0.00117379
0.00117924
0.00118465
0.00119003
0.00119537
0.00120067
0.00120594
0.00121118
0.00121638
0.00122154
0.00122667
0.00123177
0.00123684
0.00124187
0.00124686
0.00125183
0.00125676
0.00126166
0.00126652
0.00127135
0.00127616
0.00128093
0.00128566
0.00129037
0.00129505
0.00129969
0.0013043
0.00130889
0.00131344
0.00131796
0.00132245
0.00132692
0.00133135
0.00133575
0.00134013
0.00134447
0.00134879
0.00135308
0.00135734
0.00136157
0.00136577
0.00136995
0.0013741
0.00137822
0.00138231
0.00138638
0.00139042
0.00139443
0.00139841
0.00140237
0.00140631
0.00141021
0.00141409
0.00141795
0.00142178
0.00142558
0.00142936
0.00143312
0.00143685
0.00144055
0.00144423
0.00144789
0.00145152
0.00145513
0.00145871
0.00146227
0.00146581
0.00146932
0.00147281
0.00147627
0.00147972
0.00148314
0.00148654
0.00148991
0.00149326
0.0014966
0.0014999
0.00150319
0.00150646
0.0015097
0.00151292
0.00151612
0.0015193
0.00152246
0.0015256
0.00152872
0.00153181
0.00153489
0.00153794
0.00154098
0.00154399
0.00154699
0.00154996
0.00155292
0.00155585
0.00155877
0.00156167
0.00156455
0.00156741
0.00157025
0.00157307
0.00157587
0.00157865
0.00158142
0.00158417
0.0015869
0.00158961
0.0015923
0.00159498
0.00159763
0.00160027
0.0016029
0.0016055
0.00160809
0.00161066
0.00161321
0.00161575
0.00161827
0.00162078
0.00162326
0.00162573
0.00162819
0.00163063
0.00163305
0.00163545
0.00163784
0.00164022
0.00164258
0.00164492
0.00164725
0.00164956
0.00165185
0.00165414
0.0016564
0.00165865
0.00166089
0.00166311
0.00166532
0.00166751
0.00166969
0.00167185
0.001674
0.00167614
0.00167826
0.00168037
0.00168246
0.00168454
0.00168661
0.00168866
0.0016907
0.00169272
0.00169473
0.00169673
0.00169872
0.00170069
0.00170265
0.00170459
0.00170653
0.00170845
0.00171035
0.00171225
0.00171413
0.001716
0.00171786
0.00171971
0.00172154
0.00172336
0.00172517
0.00172697
0.00172875
0.00173053
0.00173229
0.00173404
0.00173578
0.00173751
0.00173922
0.00174093
0.00174262
0.0017443
0.00174598
0.00174763
0.00174928
0.00175092
0.00175255
0.00175417
0.00175577
0.00175737
0.00175895
0.00176053
0.00176209
0.00176365
0.00176519
0.00176673
0.00176825
0.00176976
0.00177127
0.00177276
0.00177424
0.00177572
0.00177718
0.00177864
0.00178008
0.00178152
0.00178294
0.00178436
0.00178577
0.00178717
0.00178855
0.00178993
0.00179131
0.00179267
0.00179402
0.00179536
0.0017967
0.00179802
0.00179934
0.00180065
0.00180195
0.00180324
0.00180453
0.0018058
0.00180707
0.00180833
0.00180958
0.00181082
0.00181205
0.00181328
0.00181449
0.0018157
0.0018169
0.0018181
0.00181928
0.00182046
0.00182163
0.00182279
0.00182395
0.0018251
0.00182624
0.00182737
0.00182849
0.00182961
0.00183072
0.00183182
0.00183292
0.00183401
0.00183509
0.00183616
0.00183723
0.00183829
0.00183934
0.00184039
0.00184143
0.00184246
0.00184349
0.00184451
0.00184552
0.00184652
0.00184752
0.00184852
0.0018495
0.00185048
0.00185145
0.00185242
0.00185338
0.00185434
0.00185528
0.00185623
0.00185716
0.00185809
0.00185901
0.00185993
0.00186084
0.00186175
0.00186265
0.00186354
0.00186443
0.00186531
0.00186619
0.00186706
0.00186792
0.00186878
0.00186964
0.00187048
0.00187133
0.00187216
0.00187299
0.00187382
0.00187464
0.00187546
0.00187627
0.00187707
0.00187787
0.00187866
0.00187945
0.00188024
0.00188102
0.00188179
0.00188256
0.00188332
0.00188408
0.00188483
0.00188558
0.00188633
0.00188707
0.0018878
0.00188853
0.00188925
0.00188997
0.00189069
0.0018914
0.0018921
0.00189281
0.0018935
0.0018942
0.00189488
0.00189557
0.00189625
0.00189692
0.00189759
0.00189826
0.00189892
0.00189957
0.00190023
0.00190087
0.00190152
0.00190216
0.00190279
0.00190343
0.00190405
0.00190468
0.0019053
0.00190591
0.00190652
0.00190713
0.00190774
0.00190834
0.00190893
0.00190952
0.00191011
0.00191069
0.00191128
0.00191185
0.00191243
0.00191299
0.00191356
0.00191412
0.00191468
0.00191523
0.00191579
0.00191633
0.00191688
0.00191742
0.00191795
0.00191849
0.00191902
0.00191954
0.00192007
0.00192059
0.0019211
0.00192162
0.00192213
0.00192263
0.00192314
0.00192364
0.00192413
0.00192463
0.00192512
0.0019256
0.00192609
0.00192657
0.00192704
0.00192752
0.00192799
0.00192846
0.00192892
0.00192939
0.00192985
0.0019303
0.00193076
0.00193121
0.00193166
0.0019321
0.00193254
0.00193298
0.00193342
0.00193385
0.00193428
0.00193471
0.00193514
0.00193556
0.00193598
0.00193639
0.00193681
0.00193722
0.00193763
0.00193804
0.00193844
0.00193884
0.00193924
0.00193964
0.00194003
0.00194042
0.00194081
0.00194119
0.00194158
0.00194196
0.00194234
0.00194271
0.00194309
0.00194346
0.00194383
0.00194419
0.00194456
0.00194492
0.00194528
0.00194564
0.00194599
0.00194634
0.00194669
0.00194704
0.00194739
0.00194773
0.00194807
0.00194841
0.00194875
0.00194908
0.00194942
0.00194975
0.00195008
0.0019504
0.00195073
0.00195105
0.00195137
0.00195169
0.00195201
0.00195232
0.00195263
0.00195294
0.00195325
0.00195356
0.00195386
0.00195416
0.00195446
0.00195476
0.00195506
0.00195535
0.00195565
0.00195594
0.00195623
0.00195651
0.0019568
0.00195708
0.00195737
0.00195764
0.00195792
0.0019582
0.00195847
0.00195875
0.00195902
0.00195929
0.00195956
0.00195982
0.00196009
0.00196035
0.00196061
0.00196087
0.00196113
0.00196138
0.00196164
0.00196189
0.00196214
0.00196239
0.00196264
0.00196289
0.00196313
0.00196338
0.00196362
0.00196386
0.0019641
0.00196433
0.00196457
0.0019648
0.00196504
0.00196527
0.0019655
0.00196573
0.00196595
0.00196618
0.0019664
0.00196663
0.00196685
0.00196707
0.00196729
0.0019675
0.00196772
0.00196793
0.00196815
0.00196836
0.00196857
0.00196878
0.00196899
0.00196919
0.0019694
0.0019696
0.0019698
0.00197001
0.00197021
0.00197041
0.0019706
0.0019708
0.00197099
0.00197119
0.00197138
0.00197157
0.00197176
0.00197195
0.00197214
0.00197233
0.00197251
0.0019727
0.00197288
0.00197306
0
0

