-14930.3
-0.0225614
-0.00870468
-0.00489301
-0.00322392
-0.00233106
-0.00182386
-0.00154923
-0.00143365
-0.0014361
-0.00153064
-0.00169895
-0.00192687
-0.00220279
-0.00251682
-0.00286035
-0.00322586
-0.00360675
-0.00399727
-0.00439243
-0.00478794
-0.00518013
-0.00556593
-0.00594278
-0.00630856
-0.0066616
-0.00700056
-0.00732444
-0.00763252
-0.00792431
-0.00819953
-0.00845808
-0.00870002
-0.0089255
-0.00913483
-0.00932835
-0.0095065
-0.00966976
-0.00981866
-0.00995376
-0.0100756
-0.0101848
-0.010282
-0.0103677
-0.0104426
-0.0105072
-0.010562
-0.0106077
-0.0106448
-0.0106737
-0.010695
-0.0107093
-0.0107168
-0.0107181
-0.0107136
-0.0107037
-0.0106888
-0.0106692
-0.0106452
-0.0106172
-0.0105855
-0.0105504
-0.010512
-0.0104708
-0.0104269
-0.0103805
-0.0103318
-0.0102811
-0.0102284
-0.0101741
-0.0101182
-0.0100609
-0.0100022
-0.00994248
-0.00988169
-0.00981997
-0.00975742
-0.00969415
-0.00963023
-0.00956576
-0.0095008
-0.00943543
-0.00936971
-0.00930371
-0.00923747
-0.00917105
-0.00910449
-0.00903785
-0.00897115
-0.00890444
-0.00883776
-0.00877112
-0.00870457
-0.00863812
-0.00857181
-0.00850565
-0.00843967
-0.00837388
-0.00830831
-0.00824296
-0.00817785
-0.00811299
-0.0080484
-0.00798408
-0.00792006
-0.00785632
-0.00779289
-0.00772976
-0.00766696
-0.00760447
-0.00754231
-0.00748048
-0.00741898
-0.00735782
-0.007297
-0.00723653
-0.0071764
-0.00711661
-0.00705718
-0.00699809
-0.00693936
-0.00688097
-0.00682294
-0.00676526
-0.00670793
-0.00665095
-0.00659432
-0.00653804
-0.00648211
-0.00642653
-0.0063713
-0.00631641
-0.00626187
-0.00620767
-0.00615382
-0.00610031
-0.00604714
-0.00599431
-0.00594182
-0.00588966
-0.00583784
-0.00578635
-0.00573519
-0.00568436
-0.00563386
-0.00558368
-0.00553383
-0.0054843
-0.00543509
-0.0053862
-0.00533762
-0.00528937
-0.00524142
-0.00519379
-0.00514646
-0.00509945
-0.00505274
-0.00500633
-0.00496023
-0.00491442
-0.00486892
-0.00482371
-0.0047788
-0.00473417
-0.00468984
-0.0046458
-0.00460205
-0.00455858
-0.0045154
-0.0044725
-0.00442988
-0.00438754
-0.00434547
-0.00430368
-0.00426216
-0.00422091
-0.00417994
-0.00413923
-0.00409879
-0.00405861
-0.0040187
-0.00397904
-0.00393965
-0.00390051
-0.00386163
-0.00382301
-0.00378463
-0.00374651
-0.00370864
-0.00367102
-0.00363364
-0.00359651
-0.00355962
-0.00352297
-0.00348656
-0.0034504
-0.00341446
-0.00337877
-0.00334331
-0.00330808
-0.00327308
-0.00323831
-0.00320377
-0.00316945
-0.00313536
-0.00310149
-0.00306785
-0.00303443
-0.00300122
-0.00296823
-0.00293546
-0.00290291
-0.00287057
-0.00283844
-0.00280652
-0.00277481
-0.00274331
-0.00271201
-0.00268092
-0.00265004
-0.00261935
-0.00258887
-0.00255859
-0.00252851
-0.00249863
-0.00246894
-0.00243945
-0.00241015
-0.00238104
-0.00235212
-0.0023234
-0.00229486
-0.00226651
-0.00223835
-0.00221037
-0.00218257
-0.00215496
-0.00212753
-0.00210028
-0.00207321
-0.00204632
-0.0020196
-0.00199306
-0.00196669
-0.0019405
-0.00191448
-0.00188863
-0.00186295
-0.00183744
-0.0018121
-0.00178692
-0.00176191
-0.00173707
-0.00171239
-0.00168787
-0.00166351
-0.00163931
-0.00161527
-0.00159139
-0.00156767
-0.0015441
-0.00152069
-0.00149743
-0.00147432
-0.00145137
-0.00142857
-0.00140592
-0.00138341
-0.00136106
-0.00133885
-0.00131679
-0.00129488
-0.00127311
-0.00125148
-0.00122999
-0.00120865
-0.00118745
-0.00116638
-0.00114546
-0.00112467
-0.00110402
-0.00108351
-0.00106313
-0.00104289
-0.00102278
-0.0010028
-0.000982957
-0.000963241
-0.000943656
-0.000924201
-0.000904873
-0.000885673
-0.000866599
-0.000847652
-0.000828829
-0.000810131
-0.000791555
-0.000773103
-0.000754772
-0.000736562
-0.000718472
-0.000700502
-0.00068265
-0.000664917
-0.0006473
-0.000629799
-0.000612414
-0.000595144
-0.000577987
-0.000560945
-0.000544014
-0.000527195
-0.000510488
-0.00049389
-0.000477402
-0.000461024
-0.000444753
-0.00042859
-0.000412534
-0.000396583
-0.000380738
-0.000364998
-0.000349361
-0.000333829
-0.000318398
-0.000303069
-0.000287842
-0.000272716
-0.000257689
-0.000242762
-0.000227933
-0.000213202
-0.000198569
-0.000184033
-0.000169592
-0.000155247
-0.000140997
-0.000126841
-0.000112779
-9.88091e-05
-8.49319e-05
-7.11464e-05
-5.74526e-05
-4.3849e-05
-3.03349e-05
-1.6911e-05
-3.57531e-06
9.67231e-06
2.28318e-05
3.59047e-05
4.88908e-05
6.1791e-05
7.46058e-05
8.73362e-05
9.9982e-05
0.000112545
0.000125023
0.000137421
0.000149735
0.000161968
0.00017412
0.000186192
0.000198184
0.000210097
0.000221931
0.000233686
0.000245363
0.000256964
0.000268487
0.000279935
0.000291306
0.000302602
0.000313824
0.000324971
0.000336045
0.000347045
0.000357972
0.000368827
0.00037961
0.000390321
0.000400962
0.000411532
0.000422033
0.000432464
0.000442825
0.000453118
0.000463343
0.0004735
0.00048359
0.000493613
0.00050357
0.000513461
0.000523286
0.000533047
0.000542742
0.000552373
0.000561941
0.000571445
0.000580886
0.000590265
0.000599582
0.000608836
0.00061803
0.000627162
0.000636234
0.000645246
0.000654199
0.000663091
0.000671926
0.0006807
0.000689417
0.000698076
0.000706678
0.000715223
0.00072371
0.000732142
0.000740518
0.000748838
0.000757104
0.000765314
0.00077347
0.000781572
0.00078962
0.000797615
0.000805557
0.000813447
0.000821283
0.000829068
0.000836802
0.000844484
0.000852116
0.000859696
0.000867227
0.000874707
0.000882138
0.00088952
0.000896853
0.000904137
0.000911373
0.000918561
0.000925702
0.000932795
0.00093984
0.00094684
0.000953793
0.000960699
0.000967561
0.000974376
0.000981146
0.000987872
0.000994553
0.00100119
0.00100778
0.00101433
0.00102084
0.0010273
0.00103372
0.0010401
0.00104643
0.00105272
0.00105897
0.00106518
0.00107135
0.00107748
0.00108357
0.00108961
0.00109562
0.00110159
0.00110751
0.0011134
0.00111925
0.00112506
0.00113083
0.00113656
0.00114226
0.00114792
0.00115354
0.00115912
0.00116466
0.00117017
0.00117565
0.00118108
0.00118648
0.00119185
0.00119717
0.00120247
0.00120773
0.00121295
0.00121814
0.00122329
0.00122841
0.0012335
0.00123855
0.00124357
0.00124856
0.00125351
0.00125843
0.00126332
0.00126817
0.00127299
0.00127778
0.00128254
0.00128727
0.00129197
0.00129663
0.00130127
0.00130587
0.00131044
0.00131498
0.0013195
0.00132398
0.00132843
0.00133285
0.00133725
0.00134161
0.00134595
0.00135026
0.00135453
0.00135878
0.00136301
0.0013672
0.00137137
0.00137551
0.00137962
0.0013837
0.00138776
0.00139179
0.00139579
0.00139977
0.00140372
0.00140764
0.00141154
0.00141541
0.00141926
0.00142308
0.00142688
0.00143065
0.00143439
0.00143812
0.00144181
0.00144548
0.00144913
0.00145275
0.00145635
0.00145993
0.00146348
0.00146701
0.00147051
0.001474
0.00147745
0.00148089
0.0014843
0.00148769
0.00149106
0.00149441
0.00149773
0.00150103
0.00150431
0.00150757
0.00151081
0.00151402
0.00151722
0.00152039
0.00152354
0.00152667
0.00152978
0.00153287
0.00153594
0.00153899
0.00154201
0.00154502
0.00154801
0.00155098
0.00155393
0.00155686
0.00155977
0.00156266
0.00156553
0.00156838
0.00157122
0.00157403
0.00157683
0.00157961
0.00158237
0.00158511
0.00158783
0.00159054
0.00159322
0.00159589
0.00159854
0.00160118
0.00160379
0.00160639
0.00160898
0.00161154
0.00161409
0.00161662
0.00161914
0.00162163
0.00162412
0.00162658
0.00162903
0.00163146
0.00163388
0.00163628
0.00163866
0.00164103
0.00164339
0.00164572
0.00164805
0.00165035
0.00165264
0.00165492
0.00165718
0.00165943
0.00166166
0.00166388
0.00166608
0.00166827
0.00167044
0.0016726
0.00167474
0.00167687
0.00167899
0.00168109
0.00168318
0.00168526
0.00168732
0.00168936
0.0016914
0.00169342
0.00169543
0.00169742
0.0016994
0.00170137
0.00170332
0.00170527
0.00170719
0.00170911
0.00171101
0.00171291
0.00171478
0.00171665
0.0017185
0.00172034
0.00172217
0.00172399
0.0017258
0.00172759
0.00172937
0.00173114
0.0017329
0.00173465
0.00173638
0.0017381
0.00173982
0.00174152
0.00174321
0.00174489
0.00174655
0.00174821
0.00174986
0.00175149
0.00175312
0.00175473
0.00175633
0.00175792
0.00175951
0.00176108
0.00176264
0.00176419
0.00176573
0.00176726
0.00176878
0.00177029
0.00177179
0.00177328
0.00177476
0.00177623
0.00177769
0.00177914
0.00178058
0.00178202
0.00178344
0.00178485
0.00178626
0.00178765
0.00178904
0.00179042
0.00179178
0.00179314
0.00179449
0.00179583
0.00179717
0.00179849
0.0017998
0.00180111
0.00180241
0.0018037
0.00180498
0.00180625
0.00180751
0.00180877
0.00181001
0.00181125
0.00181248
0.00181371
0.00181492
0.00181613
0.00181733
0.00181852
0.0018197
0.00182087
0.00182204
0.0018232
0.00182435
0.0018255
0.00182664
0.00182777
0.00182889
0.00183
0.00183111
0.00183221
0.0018333
0.00183439
0.00183547
0.00183654
0.0018376
0.00183866
0.00183971
0.00184076
0.00184179
0.00184282
0.00184385
0.00184487
0.00184588
0.00184688
0.00184788
0.00184887
0.00184985
0.00185083
0.0018518
0.00185276
0.00185372
0.00185467
0.00185562
0.00185656
0.00185749
0.00185842
0.00185934
0.00186026
0.00186117
0.00186207
0.00186297
0.00186386
0.00186474
0.00186563
0.0018665
0.00186737
0.00186823
0.00186909
0.00186994
0.00187079
0.00187163
0.00187246
0.00187329
0.00187411
0.00187493
0.00187575
0.00187655
0.00187736
0.00187815
0.00187895
0.00187973
0.00188052
0.00188129
0.00188207
0.00188283
0.00188359
0.00188435
0.0018851
0.00188585
0.00188659
0.00188733
0.00188806
0.00188879
0.00188951
0.00189023
0.00189095
0.00189165
0.00189236
0.00189306
0.00189375
0.00189444
0.00189513
0.00189581
0.00189649
0.00189716
0.00189783
0.00189849
0.00189915
0.00189981
0.00190046
0.00190111
0.00190175
0.00190239
0.00190302
0.00190365
0.00190428
0.0019049
0.00190552
0.00190614
0.00190674
0.00190735
0.00190795
0.00190855
0.00190915
0.00190974
0.00191032
0.00191091
0.00191149
0.00191206
0.00191263
0.0019132
0.00191377
0.00191433
0.00191488
0.00191544
0.00191599
0.00191653
0.00191708
0.00191761
0.00191815
0.00191868
0.00191921
0.00191974
0.00192026
0.00192078
0.00192129
0.0019218
0.00192231
0.00192282
0.00192332
0.00192382
0.00192431
0.00192481
0.00192529
0.00192578
0.00192626
0.00192674
0.00192722
0.00192769
0.00192816
0.00192863
0.0019291
0.00192956
0.00193002
0.00193047
0.00193092
0.00193137
0.00193182
0.00193226
0.00193271
0.00193314
0.00193358
0.00193401
0.00193444
0.00193487
0.00193529
0.00193571
0.00193613
0.00193655
0.00193696
0.00193737
0.00193778
0.00193819
0.00193859
0.00193899
0.00193939
0.00193978
0.00194017
0.00194056
0.00194095
0.00194134
0.00194172
0.0019421
0.00194248
0.00194285
0.00194323
0.0019436
0.00194396
0.00194433
0.00194469
0.00194505
0.00194541
0.00194577
0.00194612
0.00194648
0.00194683
0.00194717
0.00194752
0.00194786
0.0019482
0.00194854
0.00194888
0.00194921
0.00194954
0.00194987
0.0019502
0.00195053
0.00195085
0.00195117
0.00195149
0.00195181
0.00195212
0.00195244
0.00195275
0.00195306
0.00195337
0.00195367
0.00195398
0.00195428
0.00195458
0.00195488
0.00195517
0.00195547
0.00195576
0.00195605
0.00195634
0.00195662
0.00195691
0.00195719
0.00195747
0.00195775
0.00195803
0.00195831
0.00195858
0.00195885
0.00195912
0.00195939
0.00195966
0.00195992
0.00196019
0.00196045
0.00196071
0.00196097
0.00196123
0.00196148
0.00196174
0.00196199
0.00196224
0.00196249
0.00196274
0.00196298
0.00196323
0.00196347
0.00196371
0.00196395
0.00196419
0.00196443
0.00196466
0.00196489
0.00196513
0.00196536
0.00196559
0.00196582
0.00196604
0.00196627
0.00196649
0.00196671
0.00196693
0.00196715
0.00196737
0.00196759
0.0019678
0.00196802
0.00196823
0.00196844
0.00196865
0.00196886
0.00196907
0.00196927
0.00196948
0.00196968
0.00196988
0.00197008
0.00197028
0.00197048
0.00197068
0.00197088
0.00197107
0.00197126
0.00197146
0.00197165
0.00197184
0.00197203
0.00197221
0.0019724
0.00197259
0.00197277
0.00197295
0
0

