-14930.3
-0.0225614
-0.00870511
-0.00489551
-0.00323189
-0.00234957
-0.00185902
-0.00160726
-0.00151992
-0.00155448
-0.0016831
-0.00188542
-0.0021454
-0.00244979
-0.00278744
-0.00314886
-0.00352605
-0.00391224
-0.00430181
-0.00469011
-0.00507338
-0.00544857
-0.00581331
-0.00616573
-0.00650447
-0.00682851
-0.00713718
-0.00743007
-0.00770699
-0.00796791
-0.00821296
-0.00844238
-0.0086565
-0.00885572
-0.00904048
-0.00921129
-0.00936864
-0.00951309
-0.00964516
-0.00976541
-0.00987438
-0.00997261
-0.0100606
-0.0101389
-0.0102081
-0.0102685
-0.0103206
-0.010365
-0.010402
-0.0104321
-0.0104557
-0.0104731
-0.0104847
-0.0104908
-0.0104919
-0.0104881
-0.0104799
-0.0104674
-0.010451
-0.0104309
-0.0104073
-0.0103805
-0.0103507
-0.010318
-0.0102827
-0.010245
-0.0102051
-0.010163
-0.0101189
-0.010073
-0.0100255
-0.00997639
-0.00992585
-0.00987399
-0.00982091
-0.00976671
-0.00971149
-0.00965533
-0.00959831
-0.00954052
-0.00948203
-0.0094229
-0.0093632
-0.00930299
-0.00924233
-0.00918126
-0.00911984
-0.00905812
-0.00899614
-0.00893394
-0.00887155
-0.00880903
-0.00874639
-0.00868367
-0.00862089
-0.0085581
-0.00849531
-0.00843254
-0.00836983
-0.00830718
-0.00824463
-0.00818218
-0.00811986
-0.00805768
-0.00799565
-0.0079338
-0.00787213
-0.00781065
-0.00774938
-0.00768832
-0.00762749
-0.00756689
-0.00750653
-0.00744643
-0.00738658
-0.00732699
-0.00726767
-0.00720862
-0.00714986
-0.00709137
-0.00703318
-0.00697527
-0.00691766
-0.00686035
-0.00680333
-0.00674662
-0.00669022
-0.00663411
-0.00657832
-0.00652284
-0.00646767
-0.00641281
-0.00635826
-0.00630402
-0.0062501
-0.00619649
-0.0061432
-0.00609022
-0.00603755
-0.0059852
-0.00593316
-0.00588144
-0.00583003
-0.00577892
-0.00572814
-0.00567766
-0.00562749
-0.00557763
-0.00552808
-0.00547884
-0.0054299
-0.00538127
-0.00533294
-0.00528491
-0.00523719
-0.00518977
-0.00514264
-0.00509581
-0.00504928
-0.00500305
-0.00495711
-0.00491146
-0.0048661
-0.00482103
-0.00477625
-0.00473175
-0.00468754
-0.00464361
-0.00459997
-0.0045566
-0.00451352
-0.00447071
-0.00442817
-0.00438592
-0.00434393
-0.00430221
-0.00426077
-0.00421959
-0.00417868
-0.00413803
-0.00409765
-0.00405753
-0.00401767
-0.00397807
-0.00393872
-0.00389963
-0.0038608
-0.00382221
-0.00378388
-0.0037458
-0.00370796
-0.00367037
-0.00363303
-0.00359593
-0.00355907
-0.00352245
-0.00348607
-0.00344993
-0.00341402
-0.00337835
-0.00334291
-0.0033077
-0.00327272
-0.00323798
-0.00320345
-0.00316916
-0.00313508
-0.00310123
-0.00306761
-0.0030342
-0.00300101
-0.00296804
-0.00293528
-0.00290274
-0.00287041
-0.00283829
-0.00280638
-0.00277468
-0.00274319
-0.00271191
-0.00268083
-0.00264995
-0.00261928
-0.00258881
-0.00255854
-0.00252846
-0.00249859
-0.00246891
-0.00243942
-0.00241013
-0.00238103
-0.00235212
-0.0023234
-0.00229487
-0.00226652
-0.00223836
-0.00221039
-0.0021826
-0.00215499
-0.00212757
-0.00210032
-0.00207326
-0.00204637
-0.00201966
-0.00199312
-0.00196676
-0.00194057
-0.00191455
-0.0018887
-0.00186303
-0.00183752
-0.00181218
-0.00178701
-0.001762
-0.00173716
-0.00171248
-0.00168796
-0.00166361
-0.00163941
-0.00161537
-0.00159149
-0.00156777
-0.00154421
-0.0015208
-0.00149754
-0.00147444
-0.00145149
-0.00142869
-0.00140604
-0.00138354
-0.00136118
-0.00133898
-0.00131692
-0.001295
-0.00127323
-0.00125161
-0.00123012
-0.00120878
-0.00118758
-0.00116652
-0.00114559
-0.00112481
-0.00110416
-0.00108365
-0.00106327
-0.00104303
-0.00102292
-0.00100294
-0.000983095
-0.000963381
-0.000943796
-0.000924341
-0.000905013
-0.000885813
-0.000866741
-0.000847793
-0.000828971
-0.000810273
-0.000791697
-0.000773246
-0.000754915
-0.000736705
-0.000718615
-0.000700645
-0.000682793
-0.000665059
-0.000647442
-0.000629942
-0.000612557
-0.000595287
-0.00057813
-0.000561087
-0.000544156
-0.000527337
-0.000510629
-0.000494032
-0.000477544
-0.000461165
-0.000444894
-0.000428731
-0.000412673
-0.000396723
-0.000380877
-0.000365137
-0.0003495
-0.000333967
-0.000318536
-0.000303207
-0.000287979
-0.000272852
-0.000257825
-0.000242897
-0.000228068
-0.000213337
-0.000198703
-0.000184166
-0.000169725
-0.000155379
-0.000141128
-0.000126972
-0.000112909
-9.89392e-05
-8.50613e-05
-7.12758e-05
-5.75805e-05
-4.39762e-05
-3.04621e-05
-1.70375e-05
-3.70108e-06
9.54726e-06
2.27075e-05
3.5781e-05
4.87679e-05
6.16687e-05
7.44843e-05
8.72154e-05
9.98619e-05
0.000112425
0.000124905
0.000137302
0.000149617
0.000161852
0.000174004
0.000186077
0.000198069
0.000209983
0.000221818
0.000233574
0.000245252
0.000256853
0.000268378
0.000279825
0.000291198
0.000302495
0.000313717
0.000324865
0.000335939
0.00034694
0.000357868
0.000368724
0.000379507
0.00039022
0.000400862
0.000411433
0.000421934
0.000432365
0.000442728
0.000453021
0.000463247
0.000473405
0.000483496
0.00049352
0.000503477
0.000513369
0.000523195
0.000532956
0.000542653
0.000552285
0.000561853
0.000571358
0.0005808
0.00059018
0.000599496
0.000608752
0.000617947
0.00062708
0.000636153
0.000645166
0.000654119
0.000663012
0.000671847
0.000680623
0.000689341
0.000698
0.000706603
0.000715148
0.000723637
0.000732069
0.000740446
0.000748767
0.000757033
0.000765244
0.000773401
0.000781503
0.000789553
0.000797549
0.000805491
0.000813381
0.000821219
0.000829005
0.000836739
0.000844423
0.000852055
0.000859636
0.000867167
0.000874648
0.00088208
0.000889463
0.000896796
0.000904082
0.000911318
0.000918507
0.000925648
0.000932741
0.000939789
0.000946788
0.000953742
0.00096065
0.000967511
0.000974327
0.000981098
0.000987825
0.000994506
0.00100114
0.00100774
0.00101429
0.00102079
0.00102726
0.00103368
0.00104005
0.00104639
0.00105268
0.00105893
0.00106514
0.00107131
0.00107744
0.00108353
0.00108958
0.00109558
0.00110155
0.00110748
0.00111337
0.00111922
0.00112503
0.0011308
0.00113653
0.00114223
0.00114789
0.00115351
0.00115909
0.00116464
0.00117015
0.00117562
0.00118105
0.00118646
0.00119182
0.00119715
0.00120244
0.0012077
0.00121293
0.00121812
0.00122327
0.00122839
0.00123348
0.00123853
0.00124355
0.00124854
0.00125349
0.00125841
0.0012633
0.00126815
0.00127298
0.00127777
0.00128253
0.00128726
0.00129195
0.00129662
0.00130125
0.00130586
0.00131043
0.00131497
0.00131949
0.00132397
0.00132842
0.00133285
0.00133724
0.0013416
0.00134594
0.00135025
0.00135453
0.00135878
0.001363
0.0013672
0.00137136
0.0013755
0.00137961
0.0013837
0.00138775
0.00139179
0.00139579
0.00139977
0.00140372
0.00140764
0.00141154
0.00141541
0.00141926
0.00142308
0.00142688
0.00143065
0.0014344
0.00143812
0.00144181
0.00144549
0.00144913
0.00145276
0.00145636
0.00145993
0.00146349
0.00146702
0.00147052
0.001474
0.00147746
0.0014809
0.00148431
0.0014877
0.00149107
0.00149442
0.00149774
0.00150104
0.00150432
0.00150758
0.00151082
0.00151403
0.00151723
0.0015204
0.00152355
0.00152668
0.00152979
0.00153288
0.00153595
0.001539
0.00154203
0.00154504
0.00154803
0.001551
0.00155394
0.00155687
0.00155978
0.00156268
0.00156555
0.0015684
0.00157123
0.00157405
0.00157685
0.00157962
0.00158238
0.00158513
0.00158785
0.00159055
0.00159324
0.00159591
0.00159856
0.0016012
0.00160382
0.00160642
0.001609
0.00161156
0.00161411
0.00161664
0.00161916
0.00162166
0.00162414
0.0016266
0.00162905
0.00163149
0.0016339
0.0016363
0.00163869
0.00164106
0.00164341
0.00164575
0.00164807
0.00165038
0.00165267
0.00165495
0.00165721
0.00165945
0.00166169
0.0016639
0.00166611
0.00166829
0.00167047
0.00167263
0.00167477
0.0016769
0.00167902
0.00168112
0.00168321
0.00168529
0.00168735
0.00168939
0.00169143
0.00169345
0.00169546
0.00169745
0.00169943
0.0017014
0.00170335
0.0017053
0.00170722
0.00170914
0.00171104
0.00171294
0.00171482
0.00171668
0.00171853
0.00172038
0.00172221
0.00172402
0.00172583
0.00172762
0.0017294
0.00173117
0.00173293
0.00173468
0.00173642
0.00173814
0.00173985
0.00174155
0.00174324
0.00174492
0.00174659
0.00174825
0.00174989
0.00175153
0.00175315
0.00175476
0.00175637
0.00175796
0.00175954
0.00176111
0.00176267
0.00176422
0.00176576
0.00176729
0.00176881
0.00177032
0.00177183
0.00177332
0.0017748
0.00177627
0.00177773
0.00177918
0.00178062
0.00178205
0.00178348
0.00178489
0.00178629
0.00178769
0.00178908
0.00179045
0.00179182
0.00179318
0.00179453
0.00179587
0.0017972
0.00179853
0.00179984
0.00180115
0.00180244
0.00180373
0.00180501
0.00180629
0.00180755
0.0018088
0.00181005
0.00181129
0.00181252
0.00181374
0.00181496
0.00181617
0.00181736
0.00181855
0.00181974
0.00182091
0.00182208
0.00182324
0.00182439
0.00182554
0.00182668
0.0018278
0.00182893
0.00183004
0.00183115
0.00183225
0.00183334
0.00183443
0.00183551
0.00183658
0.00183764
0.0018387
0.00183975
0.0018408
0.00184183
0.00184286
0.00184389
0.00184491
0.00184592
0.00184692
0.00184792
0.00184891
0.00184989
0.00185087
0.00185184
0.0018528
0.00185376
0.00185471
0.00185566
0.0018566
0.00185753
0.00185846
0.00185938
0.0018603
0.00186121
0.00186211
0.00186301
0.0018639
0.00186479
0.00186567
0.00186654
0.00186741
0.00186827
0.00186913
0.00186998
0.00187083
0.00187167
0.0018725
0.00187333
0.00187416
0.00187497
0.00187579
0.0018766
0.0018774
0.0018782
0.00187899
0.00187978
0.00188056
0.00188133
0.00188211
0.00188287
0.00188363
0.00188439
0.00188514
0.00188589
0.00188663
0.00188737
0.0018881
0.00188883
0.00188955
0.00189027
0.00189099
0.00189169
0.0018924
0.0018931
0.00189379
0.00189448
0.00189517
0.00189585
0.00189653
0.0018972
0.00189787
0.00189854
0.00189919
0.00189985
0.0019005
0.00190115
0.00190179
0.00190243
0.00190306
0.00190369
0.00190432
0.00190494
0.00190556
0.00190618
0.00190679
0.00190739
0.00190799
0.00190859
0.00190919
0.00190978
0.00191036
0.00191095
0.00191153
0.0019121
0.00191267
0.00191324
0.00191381
0.00191437
0.00191492
0.00191548
0.00191603
0.00191657
0.00191711
0.00191765
0.00191819
0.00191872
0.00191925
0.00191978
0.0019203
0.00192082
0.00192133
0.00192184
0.00192235
0.00192286
0.00192336
0.00192386
0.00192435
0.00192485
0.00192533
0.00192582
0.0019263
0.00192678
0.00192726
0.00192773
0.0019282
0.00192867
0.00192914
0.0019296
0.00193005
0.00193051
0.00193096
0.00193141
0.00193186
0.0019323
0.00193274
0.00193318
0.00193362
0.00193405
0.00193448
0.00193491
0.00193533
0.00193575
0.00193617
0.00193659
0.001937
0.00193741
0.00193782
0.00193822
0.00193863
0.00193903
0.00193942
0.00193982
0.00194021
0.0019406
0.00194099
0.00194138
0.00194176
0.00194214
0.00194252
0.00194289
0.00194326
0.00194363
0.001944
0.00194437
0.00194473
0.00194509
0.00194545
0.00194581
0.00194616
0.00194651
0.00194686
0.00194721
0.00194756
0.0019479
0.00194824
0.00194858
0.00194891
0.00194925
0.00194958
0.00194991
0.00195024
0.00195056
0.00195089
0.00195121
0.00195153
0.00195185
0.00195216
0.00195247
0.00195279
0.0019531
0.0019534
0.00195371
0.00195401
0.00195431
0.00195461
0.00195491
0.00195521
0.0019555
0.00195579
0.00195608
0.00195637
0.00195666
0.00195694
0.00195723
0.00195751
0.00195779
0.00195806
0.00195834
0.00195861
0.00195889
0.00195916
0.00195943
0.00195969
0.00195996
0.00196022
0.00196048
0.00196075
0.001961
0.00196126
0.00196152
0.00196177
0.00196202
0.00196227
0.00196252
0.00196277
0.00196302
0.00196326
0.0019635
0.00196374
0.00196398
0.00196422
0.00196446
0.00196469
0.00196493
0.00196516
0.00196539
0.00196562
0.00196585
0.00196608
0.0019663
0.00196652
0.00196675
0.00196697
0.00196719
0.0019674
0.00196762
0.00196784
0.00196805
0.00196826
0.00196847
0.00196868
0.00196889
0.0019691
0.00196931
0.00196951
0.00196971
0.00196992
0.00197012
0.00197032
0.00197052
0.00197071
0.00197091
0.0019711
0.0019713
0.00197149
0.00197168
0.00197187
0.00197206
0.00197225
0.00197243
0.00197262
0
0

