-14930.3
-0.0225614
-0.00870344
-0.00488549
-0.00319898
-0.00227084
-0.00170513
-0.00134601
-0.00112
-0.000988601
-0.000930024
-0.00093096
-0.000982498
-0.00107802
-0.00121212
-0.00138003
-0.00157737
-0.00180003
-0.00204413
-0.00230604
-0.00258233
-0.00286985
-0.00316569
-0.0034672
-0.003772
-0.00407794
-0.00438312
-0.00468587
-0.00498473
-0.00527843
-0.00556589
-0.0058462
-0.00611858
-0.0063824
-0.00663716
-0.00688247
-0.00711801
-0.00734357
-0.00755902
-0.00776428
-0.00795935
-0.00814426
-0.00831909
-0.00848398
-0.00863906
-0.00878452
-0.00892057
-0.00904744
-0.00916535
-0.00927456
-0.00937533
-0.00946793
-0.00955263
-0.00962971
-0.00969944
-0.0097621
-0.00981797
-0.00986731
-0.0099104
-0.0099475
-0.00997886
-0.0100048
-0.0100254
-0.0100411
-0.010052
-0.0100585
-0.0100606
-0.0100586
-0.0100528
-0.0100433
-0.0100303
-0.010014
-0.00999455
-0.00997218
-0.00994704
-0.00991927
-0.00988903
-0.00985646
-0.00982171
-0.0097849
-0.00974616
-0.00970562
-0.00966338
-0.00961956
-0.00957426
-0.00952759
-0.00947964
-0.00943049
-0.00938024
-0.00932896
-0.00927674
-0.00922365
-0.00916975
-0.00911512
-0.00905982
-0.0090039
-0.00894742
-0.00889044
-0.008833
-0.00877516
-0.00871696
-0.00865844
-0.00859964
-0.00854061
-0.00848136
-0.00842195
-0.0083624
-0.00830274
-0.008243
-0.00818321
-0.00812339
-0.00806356
-0.00800376
-0.00794398
-0.00788427
-0.00782463
-0.00776509
-0.00770565
-0.00764634
-0.00758717
-0.00752815
-0.00746929
-0.00741061
-0.00735211
-0.00729381
-0.00723572
-0.00717784
-0.00712018
-0.00706275
-0.00700555
-0.0069486
-0.0068919
-0.00683545
-0.00677926
-0.00672334
-0.00666768
-0.00661229
-0.00655718
-0.00650235
-0.00644779
-0.00639352
-0.00633954
-0.00628585
-0.00623244
-0.00617932
-0.0061265
-0.00607398
-0.00602174
-0.00596981
-0.00591817
-0.00586682
-0.00581578
-0.00576503
-0.00571458
-0.00566442
-0.00561457
-0.00556501
-0.00551575
-0.00546678
-0.00541812
-0.00536974
-0.00532166
-0.00527388
-0.00522639
-0.00517919
-0.00513228
-0.00508566
-0.00503934
-0.0049933
-0.00494755
-0.00490208
-0.0048569
-0.00481201
-0.0047674
-0.00472306
-0.00467901
-0.00463524
-0.00459175
-0.00454853
-0.00450559
-0.00446292
-0.00442052
-0.00437839
-0.00433654
-0.00429495
-0.00425362
-0.00421257
-0.00417177
-0.00413124
-0.00409097
-0.00405095
-0.0040112
-0.0039717
-0.00393246
-0.00389347
-0.00385473
-0.00381624
-0.00377801
-0.00374001
-0.00370227
-0.00366477
-0.00362751
-0.0035905
-0.00355372
-0.00351718
-0.00348088
-0.00344482
-0.00340899
-0.00337339
-0.00333803
-0.00330289
-0.00326799
-0.00323331
-0.00319885
-0.00316463
-0.00313062
-0.00309684
-0.00306327
-0.00302993
-0.0029968
-0.00296389
-0.00293119
-0.00289871
-0.00286644
-0.00283438
-0.00280252
-0.00277088
-0.00273944
-0.00270821
-0.00267719
-0.00264636
-0.00261574
-0.00258532
-0.0025551
-0.00252507
-0.00249524
-0.00246561
-0.00243617
-0.00240692
-0.00237787
-0.002349
-0.00232032
-0.00229183
-0.00226353
-0.00223542
-0.00220748
-0.00217973
-0.00215217
-0.00212478
-0.00209757
-0.00207054
-0.00204369
-0.00201702
-0.00199052
-0.00196419
-0.00193803
-0.00191205
-0.00188624
-0.0018606
-0.00183512
-0.00180981
-0.00178467
-0.0017597
-0.00173488
-0.00171024
-0.00168575
-0.00166142
-0.00163725
-0.00161325
-0.0015894
-0.0015657
-0.00154216
-0.00151878
-0.00149555
-0.00147247
-0.00144955
-0.00142677
-0.00140415
-0.00138167
-0.00135934
-0.00133716
-0.00131512
-0.00129323
-0.00127149
-0.00124988
-0.00122842
-0.0012071
-0.00118592
-0.00116488
-0.00114397
-0.00112321
-0.00110258
-0.00108209
-0.00106173
-0.00104151
-0.00102141
-0.00100146
-0.000981629
-0.000961933
-0.000942366
-0.000922927
-0.000903617
-0.000884435
-0.000865378
-0.000846447
-0.000827641
-0.000808958
-0.000790399
-0.000771962
-0.000753646
-0.000735452
-0.000717377
-0.000699421
-0.000681583
-0.000663863
-0.000646261
-0.000628773
-0.000611401
-0.000594144
-0.000577001
-0.000559971
-0.000543052
-0.000526246
-0.00050955
-0.000492964
-0.000476489
-0.000460121
-0.000443861
-0.000427709
-0.000411664
-0.000395724
-0.000379889
-0.000364159
-0.000348533
-0.000333009
-0.000317589
-0.000302269
-0.000287052
-0.000271934
-0.000256917
-0.000241998
-0.000227178
-0.000212456
-0.000197831
-0.000183303
-0.00016887
-0.000154533
-0.000140291
-0.000126142
-0.000112087
-9.81256e-05
-8.42555e-05
-7.04771e-05
-5.67903e-05
-4.31931e-05
-2.96861e-05
-1.62687e-05
-2.93936e-06
1.03012e-05
2.3455e-05
3.65214e-05
4.95019e-05
6.23963e-05
7.52056e-05
8.79302e-05
0.00010057
0.000113127
0.000125601
0.000137993
0.000150302
0.00016253
0.000174677
0.000186745
0.000198732
0.00021064
0.000222468
0.00023422
0.000245893
0.000257489
0.000269009
0.000280451
0.000291819
0.000303111
0.000314329
0.000325472
0.000336542
0.000347538
0.000358462
0.000369313
0.000380093
0.000390801
0.000401439
0.000412005
0.000422502
0.00043293
0.000443289
0.000453579
0.000463801
0.000473955
0.000484042
0.000494063
0.000504017
0.000513905
0.000523728
0.000533486
0.000543178
0.000552808
0.000562373
0.000571875
0.000581314
0.00059069
0.000600004
0.000609257
0.000618448
0.000627579
0.000636649
0.000645659
0.00065461
0.000663501
0.000672333
0.000681106
0.000689822
0.000698478
0.000707079
0.000715621
0.000724108
0.000732538
0.000740913
0.000749231
0.000757495
0.000765704
0.000773859
0.00078196
0.000790007
0.000798
0.000805941
0.00081383
0.000821666
0.000829449
0.000837181
0.000844863
0.000852493
0.000860073
0.000867602
0.000875082
0.000882512
0.000889893
0.000897225
0.000904509
0.000911744
0.000918931
0.000926071
0.000933163
0.000940208
0.000947206
0.000954158
0.000961065
0.000967925
0.00097474
0.00098151
0.000988234
0.000994915
0.00100155
0.00100814
0.00101469
0.0010212
0.00102766
0.00103408
0.00104045
0.00104679
0.00105308
0.00105933
0.00106554
0.00107171
0.00107783
0.00108392
0.00108997
0.00109597
0.00110194
0.00110787
0.00111375
0.0011196
0.00112541
0.00113118
0.00113692
0.00114261
0.00114827
0.00115389
0.00115947
0.00116502
0.00117052
0.001176
0.00118143
0.00118683
0.0011922
0.00119752
0.00120282
0.00120808
0.0012133
0.00121849
0.00122364
0.00122876
0.00123385
0.0012389
0.00124392
0.0012489
0.00125386
0.00125878
0.00126366
0.00126852
0.00127334
0.00127813
0.00128289
0.00128762
0.00129231
0.00129698
0.00130161
0.00130622
0.00131079
0.00131533
0.00131984
0.00132433
0.00132878
0.0013332
0.0013376
0.00134196
0.0013463
0.0013506
0.00135488
0.00135913
0.00136335
0.00136755
0.00137171
0.00137585
0.00137996
0.00138405
0.00138811
0.00139214
0.00139614
0.00140012
0.00140407
0.00140799
0.00141189
0.00141576
0.00141961
0.00142343
0.00142722
0.001431
0.00143474
0.00143846
0.00144216
0.00144583
0.00144948
0.0014531
0.0014567
0.00146028
0.00146383
0.00146736
0.00147086
0.00147434
0.0014778
0.00148124
0.00148465
0.00148804
0.00149141
0.00149476
0.00149808
0.00150138
0.00150466
0.00150792
0.00151115
0.00151437
0.00151756
0.00152074
0.00152389
0.00152702
0.00153013
0.00153322
0.00153629
0.00153933
0.00154236
0.00154537
0.00154836
0.00155133
0.00155428
0.00155721
0.00156012
0.00156301
0.00156588
0.00156873
0.00157156
0.00157438
0.00157718
0.00157995
0.00158271
0.00158545
0.00158818
0.00159088
0.00159357
0.00159624
0.00159889
0.00160152
0.00160414
0.00160674
0.00160932
0.00161189
0.00161444
0.00161697
0.00161948
0.00162198
0.00162446
0.00162693
0.00162937
0.00163181
0.00163422
0.00163662
0.00163901
0.00164138
0.00164373
0.00164607
0.00164839
0.0016507
0.00165299
0.00165527
0.00165753
0.00165977
0.001662
0.00166422
0.00166642
0.00166861
0.00167078
0.00167294
0.00167509
0.00167722
0.00167933
0.00168144
0.00168352
0.0016856
0.00168766
0.00168971
0.00169174
0.00169376
0.00169577
0.00169776
0.00169974
0.00170171
0.00170366
0.00170561
0.00170753
0.00170945
0.00171135
0.00171324
0.00171512
0.00171699
0.00171884
0.00172068
0.00172251
0.00172433
0.00172614
0.00172793
0.00172971
0.00173148
0.00173324
0.00173498
0.00173672
0.00173844
0.00174015
0.00174186
0.00174354
0.00174522
0.00174689
0.00174855
0.00175019
0.00175183
0.00175345
0.00175506
0.00175667
0.00175826
0.00175984
0.00176141
0.00176297
0.00176452
0.00176606
0.00176759
0.00176911
0.00177062
0.00177212
0.00177361
0.00177509
0.00177656
0.00177802
0.00177947
0.00178092
0.00178235
0.00178377
0.00178518
0.00178659
0.00178798
0.00178937
0.00179074
0.00179211
0.00179347
0.00179482
0.00179616
0.00179749
0.00179881
0.00180013
0.00180143
0.00180273
0.00180402
0.0018053
0.00180657
0.00180784
0.00180909
0.00181034
0.00181158
0.00181281
0.00181403
0.00181524
0.00181645
0.00181765
0.00181884
0.00182002
0.00182119
0.00182236
0.00182352
0.00182467
0.00182582
0.00182695
0.00182808
0.00182921
0.00183032
0.00183143
0.00183253
0.00183362
0.00183471
0.00183578
0.00183686
0.00183792
0.00183898
0.00184003
0.00184107
0.00184211
0.00184314
0.00184416
0.00184518
0.00184619
0.00184719
0.00184819
0.00184918
0.00185016
0.00185114
0.00185211
0.00185307
0.00185403
0.00185498
0.00185593
0.00185687
0.0018578
0.00185873
0.00185965
0.00186056
0.00186147
0.00186237
0.00186327
0.00186416
0.00186505
0.00186593
0.0018668
0.00186767
0.00186853
0.00186939
0.00187024
0.00187109
0.00187193
0.00187276
0.00187359
0.00187441
0.00187523
0.00187605
0.00187685
0.00187766
0.00187845
0.00187924
0.00188003
0.00188081
0.00188159
0.00188236
0.00188313
0.00188389
0.00188465
0.0018854
0.00188614
0.00188688
0.00188762
0.00188835
0.00188908
0.0018898
0.00189052
0.00189123
0.00189194
0.00189265
0.00189335
0.00189404
0.00189473
0.00189542
0.0018961
0.00189678
0.00189745
0.00189812
0.00189878
0.00189944
0.00190009
0.00190075
0.00190139
0.00190203
0.00190267
0.00190331
0.00190394
0.00190456
0.00190518
0.0019058
0.00190641
0.00190702
0.00190763
0.00190823
0.00190883
0.00190942
0.00191001
0.0019106
0.00191118
0.00191176
0.00191234
0.00191291
0.00191348
0.00191404
0.0019146
0.00191516
0.00191571
0.00191626
0.0019168
0.00191735
0.00191788
0.00191842
0.00191895
0.00191948
0.00192
0.00192053
0.00192104
0.00192156
0.00192207
0.00192258
0.00192308
0.00192358
0.00192408
0.00192458
0.00192507
0.00192556
0.00192604
0.00192653
0.00192701
0.00192748
0.00192796
0.00192842
0.00192889
0.00192936
0.00192982
0.00193028
0.00193073
0.00193118
0.00193163
0.00193208
0.00193252
0.00193296
0.0019334
0.00193383
0.00193427
0.00193469
0.00193512
0.00193555
0.00193597
0.00193638
0.0019368
0.00193721
0.00193762
0.00193803
0.00193844
0.00193884
0.00193924
0.00193964
0.00194003
0.00194042
0.00194081
0.0019412
0.00194158
0.00194197
0.00194235
0.00194272
0.0019431
0.00194347
0.00194384
0.00194421
0.00194457
0.00194494
0.0019453
0.00194565
0.00194601
0.00194636
0.00194672
0.00194706
0.00194741
0.00194776
0.0019481
0.00194844
0.00194878
0.00194911
0.00194945
0.00194978
0.00195011
0.00195043
0.00195076
0.00195108
0.0019514
0.00195172
0.00195204
0.00195236
0.00195267
0.00195298
0.00195329
0.0019536
0.0019539
0.0019542
0.00195451
0.00195481
0.0019551
0.0019554
0.00195569
0.00195598
0.00195627
0.00195656
0.00195685
0.00195713
0.00195741
0.0019577
0.00195797
0.00195825
0.00195853
0.0019588
0.00195907
0.00195934
0.00195961
0.00195988
0.00196014
0.00196041
0.00196067
0.00196093
0.00196119
0.00196144
0.0019617
0.00196195
0.0019622
0.00196245
0.0019627
0.00196295
0.0019632
0.00196344
0.00196368
0.00196392
0.00196416
0.0019644
0.00196464
0.00196487
0.00196511
0.00196534
0.00196557
0.0019658
0.00196602
0.00196625
0.00196647
0.0019667
0.00196692
0.00196714
0.00196736
0.00196758
0.00196779
0.00196801
0.00196822
0.00196843
0.00196864
0.00196885
0.00196906
0.00196927
0.00196948
0.00196968
0.00196988
0.00197008
0.00197028
0.00197048
0.00197068
0.00197088
0.00197107
0
0

