-14930.3
-0.0225614
-0.00870329
-0.0048844
-0.0031948
-0.00225924
-0.00167908
-0.00129562
-0.00103278
-0.000850001
-0.00072418
-0.000641453
-0.000593079
-0.00057322
-0.000577721
-0.000603415
-0.000647741
-0.000708515
-0.00078382
-0.000871924
-0.000971252
-0.00108036
-0.00119792
-0.00132272
-0.00145365
-0.00158969
-0.00172993
-0.00187352
-0.0020197
-0.0021678
-0.0023172
-0.00246735
-0.00261776
-0.00276798
-0.00291762
-0.00306634
-0.00321382
-0.0033598
-0.00350401
-0.00364627
-0.00378637
-0.00392415
-0.00405948
-0.00419223
-0.0043223
-0.00444959
-0.00457404
-0.00469559
-0.00481417
-0.00492975
-0.00504231
-0.00515182
-0.00525826
-0.00536163
-0.00546193
-0.00555916
-0.00565333
-0.00574446
-0.00583256
-0.00591766
-0.00599977
-0.00607894
-0.00615518
-0.00622854
-0.00629904
-0.00636673
-0.00643163
-0.0064938
-0.00655327
-0.00661009
-0.00666429
-0.00671592
-0.00676503
-0.00681165
-0.00685584
-0.00689763
-0.00693708
-0.00697423
-0.00700913
-0.00704181
-0.00707233
-0.00710073
-0.00712705
-0.00715135
-0.00717366
-0.00719403
-0.0072125
-0.00722911
-0.00724391
-0.00725695
-0.00726825
-0.00727787
-0.00728585
-0.00729222
-0.00729702
-0.0073003
-0.00730209
-0.00730243
-0.00730136
-0.00729891
-0.00729513
-0.00729004
-0.00728368
-0.00727609
-0.0072673
-0.00725734
-0.00724625
-0.00723406
-0.0072208
-0.0072065
-0.00719119
-0.00717491
-0.00715767
-0.00713951
-0.00712046
-0.00710055
-0.00707979
-0.00705823
-0.00703588
-0.00701276
-0.00698891
-0.00696435
-0.00693911
-0.00691319
-0.00688664
-0.00685946
-0.00683169
-0.00680334
-0.00677443
-0.00674499
-0.00671503
-0.00668458
-0.00665365
-0.00662226
-0.00659043
-0.00655817
-0.00652551
-0.00649246
-0.00645904
-0.00642527
-0.00639115
-0.0063567
-0.00632195
-0.0062869
-0.00625157
-0.00621597
-0.00618011
-0.00614401
-0.00610769
-0.00607115
-0.00603441
-0.00599747
-0.00596035
-0.00592307
-0.00588563
-0.00584804
-0.00581031
-0.00577246
-0.00573449
-0.00569641
-0.00565823
-0.00561997
-0.00558162
-0.00554321
-0.00550473
-0.0054662
-0.00542762
-0.005389
-0.00535034
-0.00531167
-0.00527298
-0.00523427
-0.00519556
-0.00515686
-0.00511816
-0.00507948
-0.00504082
-0.00500218
-0.00496358
-0.00492501
-0.00488649
-0.00484802
-0.00480959
-0.00477123
-0.00473292
-0.00469469
-0.00465652
-0.00461843
-0.00458041
-0.00454248
-0.00450464
-0.00446688
-0.00442922
-0.00439166
-0.00435419
-0.00431683
-0.00427958
-0.00424243
-0.0042054
-0.00416848
-0.00413169
-0.00409501
-0.00405845
-0.00402202
-0.00398571
-0.00394953
-0.00391349
-0.00387758
-0.0038418
-0.00380616
-0.00377066
-0.0037353
-0.00370008
-0.003665
-0.00363007
-0.00359529
-0.00356065
-0.00352617
-0.00349183
-0.00345764
-0.00342361
-0.00338973
-0.003356
-0.00332243
-0.00328902
-0.00325576
-0.00322266
-0.00318971
-0.00315693
-0.0031243
-0.00309184
-0.00305954
-0.00302739
-0.00299541
-0.00296359
-0.00293193
-0.00290043
-0.0028691
-0.00283793
-0.00280692
-0.00277608
-0.0027454
-0.00271488
-0.00268452
-0.00265433
-0.00262431
-0.00259444
-0.00256474
-0.00253521
-0.00250583
-0.00247662
-0.00244757
-0.00241869
-0.00238997
-0.00236141
-0.00233301
-0.00230477
-0.0022767
-0.00224879
-0.00222104
-0.00219345
-0.00216601
-0.00213874
-0.00211163
-0.00208468
-0.00205789
-0.00203125
-0.00200478
-0.00197846
-0.0019523
-0.00192629
-0.00190044
-0.00187475
-0.00184921
-0.00182382
-0.00179859
-0.00177351
-0.00174859
-0.00172382
-0.0016992
-0.00167473
-0.00165041
-0.00162624
-0.00160222
-0.00157835
-0.00155463
-0.00153105
-0.00150762
-0.00148434
-0.00146121
-0.00143821
-0.00141537
-0.00139266
-0.0013701
-0.00134768
-0.00132541
-0.00130327
-0.00128128
-0.00125942
-0.00123771
-0.00121613
-0.00119469
-0.00117339
-0.00115222
-0.00113119
-0.00111029
-0.00108953
-0.0010689
-0.0010484
-0.00102804
-0.00100781
-0.000987704
-0.000967733
-0.00094789
-0.000928176
-0.00090859
-0.000889132
-0.0008698
-0.000850593
-0.000831512
-0.000812556
-0.000793722
-0.000775013
-0.000756425
-0.000737959
-0.000719614
-0.00070139
-0.000683285
-0.000665299
-0.000647431
-0.00062968
-0.000612047
-0.000594529
-0.000577128
-0.000559841
-0.000542667
-0.000525608
-0.000508661
-0.000491826
-0.000475102
-0.00045849
-0.000441988
-0.000425594
-0.00040931
-0.000393133
-0.000377065
-0.000361102
-0.000345246
-0.000329496
-0.00031385
-0.000298308
-0.00028287
-0.000267534
-0.000252302
-0.00023717
-0.00022214
-0.00020721
-0.000192379
-0.000177648
-0.000163015
-0.00014848
-0.000134042
-0.0001197
-0.000105455
-9.13056e-05
-7.72501e-05
-6.32891e-05
-4.94219e-05
-3.5647e-05
-2.19652e-05
-8.37512e-06
5.12404e-06
1.8533e-05
3.18516e-05
4.50801e-05
5.82204e-05
7.12726e-05
8.42367e-05
9.71135e-05
0.000109904
0.000122609
0.000135228
0.000147762
0.000160212
0.000172577
0.00018486
0.00019706
0.000209178
0.000221214
0.000233169
0.000245044
0.000256838
0.000268553
0.000280189
0.000291746
0.000303226
0.000314628
0.000325953
0.000337202
0.000348376
0.000359473
0.000370495
0.000381444
0.000392318
0.000403119
0.000413847
0.000424503
0.000435086
0.000445598
0.000456039
0.00046641
0.00047671
0.000486941
0.000497103
0.000507196
0.00051722
0.000527177
0.000537068
0.00054689
0.000556647
0.000566338
0.000575963
0.000585523
0.000595018
0.000604449
0.000613816
0.00062312
0.000632361
0.00064154
0.000650656
0.000659711
0.000668705
0.000677637
0.000686508
0.000695321
0.000704073
0.000712766
0.0007214
0.000729975
0.000738493
0.000746953
0.000755355
0.000763701
0.00077199
0.000780224
0.000788402
0.000796524
0.000804592
0.000812604
0.000820563
0.000828468
0.000836319
0.000844117
0.000851863
0.000859555
0.000867197
0.000874786
0.000882324
0.000889811
0.000897247
0.000904633
0.000911969
0.000919256
0.000926493
0.000933681
0.000940821
0.000947912
0.000954955
0.000961951
0.000968899
0.000975801
0.000982656
0.000989464
0.000996227
0.00100294
0.00100961
0.00101624
0.00102282
0.00102936
0.00103585
0.0010423
0.00104871
0.00105507
0.00106139
0.00106766
0.0010739
0.00108009
0.00108624
0.00109235
0.00109841
0.00110444
0.00111042
0.00111637
0.00112227
0.00112814
0.00113396
0.00113975
0.0011455
0.0011512
0.00115687
0.0011625
0.0011681
0.00117365
0.00117917
0.00118465
0.00119009
0.0011955
0.00120087
0.0012062
0.0012115
0.00121676
0.00122199
0.00122718
0.00123234
0.00123746
0.00124255
0.0012476
0.00125262
0.0012576
0.00126255
0.00126747
0.00127236
0.00127721
0.00128203
0.00128681
0.00129157
0.00129629
0.00130098
0.00130564
0.00131027
0.00131486
0.00131943
0.00132396
0.00132846
0.00133294
0.00133738
0.00134179
0.00134618
0.00135053
0.00135486
0.00135915
0.00136342
0.00136765
0.00137186
0.00137604
0.0013802
0.00138432
0.00138842
0.00139249
0.00139653
0.00140055
0.00140453
0.00140849
0.00141243
0.00141634
0.00142022
0.00142407
0.0014279
0.00143171
0.00143549
0.00143924
0.00144297
0.00144667
0.00145034
0.001454
0.00145763
0.00146123
0.00146481
0.00146836
0.0014719
0.0014754
0.00147889
0.00148235
0.00148579
0.0014892
0.00149259
0.00149596
0.00149931
0.00150263
0.00150593
0.00150921
0.00151247
0.0015157
0.00151892
0.00152211
0.00152528
0.00152843
0.00153156
0.00153466
0.00153775
0.00154082
0.00154386
0.00154689
0.00154989
0.00155287
0.00155584
0.00155878
0.00156171
0.00156461
0.0015675
0.00157036
0.00157321
0.00157604
0.00157885
0.00158164
0.00158441
0.00158716
0.00158989
0.00159261
0.00159531
0.00159799
0.00160065
0.00160329
0.00160592
0.00160853
0.00161112
0.00161369
0.00161625
0.00161879
0.00162131
0.00162382
0.00162631
0.00162878
0.00163123
0.00163367
0.0016361
0.0016385
0.00164089
0.00164327
0.00164563
0.00164797
0.0016503
0.00165261
0.0016549
0.00165718
0.00165945
0.0016617
0.00166393
0.00166616
0.00166836
0.00167055
0.00167273
0.00167489
0.00167704
0.00167917
0.00168129
0.00168339
0.00168548
0.00168756
0.00168962
0.00169167
0.00169371
0.00169573
0.00169774
0.00169973
0.00170171
0.00170368
0.00170563
0.00170758
0.00170951
0.00171142
0.00171332
0.00171522
0.00171709
0.00171896
0.00172081
0.00172265
0.00172448
0.0017263
0.0017281
0.00172989
0.00173168
0.00173344
0.0017352
0.00173694
0.00173868
0.0017404
0.00174211
0.00174381
0.0017455
0.00174717
0.00174884
0.00175049
0.00175213
0.00175377
0.00175539
0.001757
0.0017586
0.00176019
0.00176177
0.00176333
0.00176489
0.00176644
0.00176798
0.0017695
0.00177102
0.00177253
0.00177402
0.00177551
0.00177699
0.00177845
0.00177991
0.00178136
0.0017828
0.00178422
0.00178564
0.00178705
0.00178845
0.00178984
0.00179122
0.0017926
0.00179396
0.00179531
0.00179666
0.001798
0.00179932
0.00180064
0.00180195
0.00180325
0.00180455
0.00180583
0.0018071
0.00180837
0.00180963
0.00181088
0.00181212
0.00181336
0.00181458
0.0018158
0.00181701
0.00181821
0.0018194
0.00182059
0.00182177
0.00182294
0.0018241
0.00182525
0.0018264
0.00182754
0.00182867
0.0018298
0.00183091
0.00183202
0.00183312
0.00183422
0.00183531
0.00183639
0.00183746
0.00183853
0.00183959
0.00184064
0.00184168
0.00184272
0.00184375
0.00184478
0.00184579
0.00184681
0.00184781
0.00184881
0.0018498
0.00185078
0.00185176
0.00185273
0.0018537
0.00185466
0.00185561
0.00185656
0.0018575
0.00185843
0.00185936
0.00186028
0.0018612
0.0018621
0.00186301
0.00186391
0.0018648
0.00186568
0.00186656
0.00186744
0.00186831
0.00186917
0.00187003
0.00187088
0.00187172
0.00187256
0.0018734
0.00187423
0.00187505
0.00187587
0.00187668
0.00187749
0.00187829
0.00187909
0.00187988
0.00188067
0.00188145
0.00188222
0.00188299
0.00188376
0.00188452
0.00188528
0.00188603
0.00188678
0.00188752
0.00188825
0.00188898
0.00188971
0.00189043
0.00189115
0.00189186
0.00189257
0.00189327
0.00189397
0.00189467
0.00189536
0.00189604
0.00189672
0.0018974
0.00189807
0.00189874
0.0018994
0.00190006
0.00190071
0.00190136
0.00190201
0.00190265
0.00190329
0.00190392
0.00190455
0.00190517
0.00190579
0.00190641
0.00190702
0.00190763
0.00190824
0.00190884
0.00190943
0.00191003
0.00191061
0.0019112
0.00191178
0.00191236
0.00191293
0.0019135
0.00191407
0.00191463
0.00191519
0.00191575
0.0019163
0.00191685
0.00191739
0.00191793
0.00191847
0.001919
0.00191953
0.00192006
0.00192058
0.0019211
0.00192162
0.00192213
0.00192264
0.00192315
0.00192365
0.00192415
0.00192465
0.00192514
0.00192563
0.00192612
0.00192661
0.00192709
0.00192756
0.00192804
0.00192851
0.00192898
0.00192945
0.00192991
0.00193037
0.00193082
0.00193128
0.00193173
0.00193218
0.00193262
0.00193306
0.0019335
0.00193394
0.00193437
0.0019348
0.00193523
0.00193565
0.00193608
0.0019365
0.00193691
0.00193733
0.00193774
0.00193815
0.00193855
0.00193896
0.00193936
0.00193976
0.00194015
0.00194054
0.00194093
0.00194132
0.00194171
0.00194209
0.00194247
0.00194285
0.00194323
0.0019436
0.00194397
0.00194434
0.00194471
0.00194507
0.00194543
0.00194579
0.00194615
0.0019465
0.00194685
0.0019472
0.00194755
0.0019479
0.00194824
0.00194858
0.00194892
0.00194926
0.00194959
0.00194992
0.00195025
0.00195058
0.00195091
0.00195123
0.00195155
0.00195187
0.00195219
0.0019525
0.00195282
0.00195313
0.00195344
0.00195375
0.00195405
0.00195436
0.00195466
0.00195496
0.00195525
0.00195555
0.00195585
0.00195614
0.00195643
0.00195672
0.001957
0.00195729
0.00195757
0.00195785
0.00195813
0.00195841
0.00195868
0.00195896
0.00195923
0.0019595
0.00195977
0.00196004
0.0019603
0.00196056
0.00196083
0.00196109
0.00196135
0.0019616
0.00196186
0.00196211
0.00196236
0.00196261
0.00196286
0.00196311
0.00196336
0.0019636
0.00196384
0.00196408
0.00196432
0.00196456
0.0019648
0.00196503
0.00196527
0.0019655
0.00196573
0.00196596
0.00196619
0.00196641
0.00196664
0.00196686
0.00196708
0.0019673
0.00196752
0.00196774
0.00196796
0.00196817
0.00196838
0.0019686
0.00196881
0.00196902
0.00196922
0.00196943
0
0

