-14930.3
-0.0225614
-0.0087049
-0.00489438
-0.00322865
-0.00234283
-0.00184755
-0.0015903
-0.00149722
-0.0015263
-0.00165002
-0.00184825
-0.00210502
-0.00240712
-0.00274335
-0.00310417
-0.0034815
-0.00386854
-0.00425958
-0.00464994
-0.00503578
-0.00541403
-0.00578223
-0.0061385
-0.00648138
-0.00680984
-0.00712312
-0.00742078
-0.00770255
-0.00796837
-0.00821832
-0.00845259
-0.00867146
-0.00887529
-0.00906451
-0.00923957
-0.00940097
-0.0095492
-0.00968481
-0.00980832
-0.00992026
-0.0100212
-0.0101116
-0.010192
-0.0102629
-0.0103248
-0.0103782
-0.0104236
-0.0104613
-0.0104918
-0.0105156
-0.010533
-0.0105444
-0.0105501
-0.0105505
-0.010546
-0.0105368
-0.0105232
-0.0105056
-0.0104841
-0.0104591
-0.0104307
-0.0103993
-0.0103649
-0.0103279
-0.0102884
-0.0102466
-0.0102026
-0.0101567
-0.0101089
-0.0100594
-0.0100084
-0.00995594
-0.00990218
-0.00984721
-0.00979114
-0.00973407
-0.00967609
-0.00961729
-0.00955775
-0.00949754
-0.00943673
-0.0093754
-0.00931359
-0.00925137
-0.0091888
-0.00912592
-0.00906277
-0.00899942
-0.00893589
-0.00887222
-0.00880846
-0.00874463
-0.00868076
-0.00861688
-0.00855303
-0.00848922
-0.00842549
-0.00836184
-0.0082983
-0.0082349
-0.00817164
-0.00810854
-0.00804562
-0.00798289
-0.00792037
-0.00785806
-0.00779599
-0.00773414
-0.00767255
-0.0076112
-0.00755012
-0.00748931
-0.00742878
-0.00736853
-0.00730856
-0.00724889
-0.00718951
-0.00713044
-0.00707167
-0.0070132
-0.00695505
-0.00689721
-0.00683968
-0.00678247
-0.00672558
-0.00666901
-0.00661276
-0.00655683
-0.00650122
-0.00644594
-0.00639099
-0.00633635
-0.00628204
-0.00622806
-0.0061744
-0.00612106
-0.00606804
-0.00601535
-0.00596298
-0.00591093
-0.00585921
-0.0058078
-0.00575671
-0.00570594
-0.00565548
-0.00560534
-0.00555552
-0.00550601
-0.00545681
-0.00540792
-0.00535934
-0.00531107
-0.00526311
-0.00521545
-0.00516809
-0.00512104
-0.00507428
-0.00502783
-0.00498167
-0.00493581
-0.00489025
-0.00484497
-0.00479999
-0.0047553
-0.0047109
-0.00466678
-0.00462295
-0.0045794
-0.00453613
-0.00449314
-0.00445043
-0.004408
-0.00436584
-0.00432396
-0.00428235
-0.004241
-0.00419993
-0.00415912
-0.00411858
-0.00407831
-0.00403829
-0.00399853
-0.00395904
-0.0039198
-0.00388082
-0.00384209
-0.00380361
-0.00376539
-0.00372741
-0.00368968
-0.0036522
-0.00361496
-0.00357797
-0.00354122
-0.0035047
-0.00346843
-0.00343239
-0.00339659
-0.00336103
-0.00332569
-0.00329059
-0.00325571
-0.00322107
-0.00318665
-0.00315246
-0.00311849
-0.00308474
-0.00305121
-0.00301791
-0.00298482
-0.00295195
-0.00291929
-0.00288685
-0.00285462
-0.0028226
-0.00279079
-0.00275919
-0.0027278
-0.00269661
-0.00266563
-0.00263485
-0.00260427
-0.00257389
-0.00254372
-0.00251374
-0.00248395
-0.00245437
-0.00242497
-0.00239577
-0.00236676
-0.00233795
-0.00230932
-0.00228088
-0.00225262
-0.00222455
-0.00219667
-0.00216897
-0.00214145
-0.00211411
-0.00208695
-0.00205997
-0.00203317
-0.00200654
-0.00198009
-0.00195381
-0.0019277
-0.00190177
-0.00187601
-0.00185041
-0.00182499
-0.00179973
-0.00177464
-0.00174971
-0.00172494
-0.00170034
-0.00167591
-0.00165163
-0.00162751
-0.00160355
-0.00157975
-0.0015561
-0.00153261
-0.00150928
-0.0014861
-0.00146307
-0.00144019
-0.00141746
-0.00139489
-0.00137246
-0.00135018
-0.00132805
-0.00130606
-0.00128421
-0.00126251
-0.00124096
-0.00121954
-0.00119827
-0.00117714
-0.00115614
-0.00113529
-0.00111457
-0.00109399
-0.00107354
-0.00105323
-0.00103305
-0.00101301
-0.000993096
-0.000973315
-0.000953665
-0.000934143
-0.000914751
-0.000895486
-0.000876349
-0.000857338
-0.000838452
-0.000819691
-0.000801053
-0.000782539
-0.000764146
-0.000745876
-0.000727725
-0.000709694
-0.000691782
-0.000673989
-0.000656313
-0.000638753
-0.000621309
-0.000603981
-0.000586767
-0.000569666
-0.000552679
-0.000535803
-0.000519039
-0.000502386
-0.000485842
-0.000469409
-0.000453083
-0.000436865
-0.000420754
-0.000404749
-0.000388851
-0.000373057
-0.000357368
-0.000341783
-0.0003263
-0.00031092
-0.000295641
-0.000280463
-0.000265385
-0.000250407
-0.000235528
-0.000220748
-0.000206065
-0.000191479
-0.000176989
-0.000162595
-0.000148297
-0.000134093
-0.000119982
-0.000105965
-9.20411e-05
-7.82087e-05
-6.44679e-05
-5.08181e-05
-3.72586e-05
-2.37885e-05
-1.04073e-05
2.88507e-06
1.60894e-05
2.92069e-05
4.22371e-05
5.51814e-05
6.80403e-05
8.0814e-05
9.35031e-05
0.000106108
0.00011863
0.000131069
0.000143425
0.0001557
0.000167894
0.000180007
0.00019204
0.000203993
0.000215867
0.000227663
0.00023938
0.000251021
0.000262584
0.00027407
0.000285481
0.000296815
0.000308075
0.000319261
0.000330372
0.00034141
0.000352375
0.000363267
0.000374086
0.000384835
0.000395512
0.000406118
0.000416654
0.000427122
0.000437519
0.000447847
0.000458107
0.000468299
0.000478423
0.000488481
0.000498472
0.000508397
0.000518256
0.000528049
0.000537778
0.000547442
0.000557043
0.00056658
0.000576054
0.000585464
0.000594813
0.000604099
0.000613325
0.000622489
0.000631592
0.000640635
0.000649618
0.000658542
0.000667406
0.000676211
0.000684958
0.000693647
0.000702278
0.000710852
0.000719369
0.00072783
0.000736235
0.000744584
0.000752877
0.000761116
0.0007693
0.00077743
0.000785506
0.000793528
0.000801498
0.000809414
0.000817278
0.00082509
0.00083285
0.000840559
0.000848217
0.000855823
0.00086338
0.000870887
0.000878343
0.00088575
0.000893108
0.000900418
0.000907678
0.000914891
0.000922057
0.000929174
0.000936244
0.000943267
0.000950244
0.000957175
0.00096406
0.000970899
0.000977692
0.000984441
0.000991145
0.000997805
0.00100442
0.00101099
0.00101752
0.001024
0.00103045
0.00103684
0.0010432
0.00104952
0.00105579
0.00106202
0.00106821
0.00107436
0.00108047
0.00108653
0.00109256
0.00109855
0.00110449
0.0011104
0.00111627
0.0011221
0.00112789
0.00113365
0.00113936
0.00114504
0.00115068
0.00115628
0.00116184
0.00116737
0.00117286
0.00117832
0.00118374
0.00118912
0.00119447
0.00119978
0.00120505
0.0012103
0.0012155
0.00122067
0.00122581
0.00123092
0.00123599
0.00124102
0.00124603
0.001251
0.00125593
0.00126084
0.00126571
0.00127055
0.00127535
0.00128013
0.00128487
0.00128959
0.00129427
0.00129892
0.00130354
0.00130812
0.00131268
0.00131721
0.00132171
0.00132618
0.00133062
0.00133502
0.0013394
0.00134376
0.00134808
0.00135237
0.00135664
0.00136087
0.00136508
0.00136926
0.00137341
0.00137754
0.00138164
0.00138571
0.00138975
0.00139377
0.00139776
0.00140172
0.00140566
0.00140957
0.00141346
0.00141732
0.00142115
0.00142496
0.00142875
0.00143251
0.00143624
0.00143995
0.00144363
0.00144729
0.00145093
0.00145454
0.00145813
0.00146169
0.00146523
0.00146875
0.00147224
0.00147572
0.00147916
0.00148259
0.00148599
0.00148937
0.00149273
0.00149606
0.00149937
0.00150267
0.00150593
0.00150918
0.00151241
0.00151561
0.0015188
0.00152196
0.0015251
0.00152822
0.00153132
0.0015344
0.00153746
0.0015405
0.00154352
0.00154651
0.00154949
0.00155245
0.00155539
0.00155831
0.00156121
0.00156409
0.00156696
0.0015698
0.00157263
0.00157543
0.00157822
0.00158099
0.00158374
0.00158647
0.00158918
0.00159188
0.00159456
0.00159722
0.00159986
0.00160249
0.0016051
0.00160769
0.00161026
0.00161282
0.00161536
0.00161788
0.00162039
0.00162288
0.00162535
0.00162781
0.00163025
0.00163268
0.00163509
0.00163748
0.00163986
0.00164222
0.00164456
0.00164689
0.00164921
0.00165151
0.00165379
0.00165606
0.00165832
0.00166055
0.00166278
0.00166499
0.00166718
0.00166936
0.00167153
0.00167368
0.00167582
0.00167794
0.00168005
0.00168215
0.00168423
0.0016863
0.00168835
0.00169039
0.00169242
0.00169444
0.00169644
0.00169842
0.0017004
0.00170236
0.00170431
0.00170624
0.00170817
0.00171008
0.00171197
0.00171386
0.00171573
0.00171759
0.00171944
0.00172128
0.0017231
0.00172491
0.00172671
0.0017285
0.00173027
0.00173204
0.00173379
0.00173553
0.00173726
0.00173898
0.00174069
0.00174238
0.00174407
0.00174574
0.0017474
0.00174905
0.00175069
0.00175232
0.00175394
0.00175555
0.00175715
0.00175873
0.00176031
0.00176188
0.00176343
0.00176498
0.00176651
0.00176804
0.00176955
0.00177106
0.00177255
0.00177404
0.00177552
0.00177698
0.00177844
0.00177988
0.00178132
0.00178275
0.00178417
0.00178558
0.00178698
0.00178837
0.00178975
0.00179112
0.00179249
0.00179384
0.00179518
0.00179652
0.00179785
0.00179917
0.00180048
0.00180178
0.00180307
0.00180436
0.00180563
0.0018069
0.00180816
0.00180941
0.00181066
0.00181189
0.00181312
0.00181434
0.00181555
0.00181675
0.00181794
0.00181913
0.00182031
0.00182148
0.00182265
0.0018238
0.00182495
0.00182609
0.00182723
0.00182835
0.00182947
0.00183058
0.00183169
0.00183278
0.00183387
0.00183495
0.00183603
0.0018371
0.00183816
0.00183921
0.00184026
0.0018413
0.00184234
0.00184336
0.00184438
0.0018454
0.0018464
0.0018474
0.0018484
0.00184938
0.00185036
0.00185134
0.00185231
0.00185327
0.00185422
0.00185517
0.00185612
0.00185705
0.00185798
0.00185891
0.00185983
0.00186074
0.00186164
0.00186255
0.00186344
0.00186433
0.00186521
0.00186609
0.00186696
0.00186783
0.00186869
0.00186954
0.00187039
0.00187123
0.00187207
0.0018729
0.00187373
0.00187455
0.00187537
0.00187618
0.00187698
0.00187778
0.00187858
0.00187937
0.00188015
0.00188093
0.00188171
0.00188248
0.00188324
0.001884
0.00188475
0.0018855
0.00188625
0.00188699
0.00188772
0.00188845
0.00188918
0.0018899
0.00189062
0.00189133
0.00189203
0.00189274
0.00189343
0.00189413
0.00189481
0.0018955
0.00189618
0.00189685
0.00189752
0.00189819
0.00189885
0.00189951
0.00190016
0.00190081
0.00190146
0.0019021
0.00190273
0.00190337
0.001904
0.00190462
0.00190524
0.00190586
0.00190647
0.00190708
0.00190768
0.00190828
0.00190888
0.00190947
0.00191006
0.00191064
0.00191122
0.0019118
0.00191237
0.00191294
0.00191351
0.00191407
0.00191463
0.00191519
0.00191574
0.00191629
0.00191683
0.00191737
0.00191791
0.00191844
0.00191897
0.0019195
0.00192002
0.00192054
0.00192106
0.00192157
0.00192209
0.00192259
0.0019231
0.0019236
0.00192409
0.00192459
0.00192508
0.00192557
0.00192605
0.00192653
0.00192701
0.00192748
0.00192796
0.00192843
0.00192889
0.00192935
0.00192981
0.00193027
0.00193072
0.00193118
0.00193162
0.00193207
0.00193251
0.00193295
0.00193339
0.00193382
0.00193425
0.00193468
0.00193511
0.00193553
0.00193595
0.00193637
0.00193678
0.00193719
0.0019376
0.00193801
0.00193841
0.00193882
0.00193921
0.00193961
0.00194001
0.0019404
0.00194078
0.00194117
0.00194156
0.00194194
0.00194232
0.00194269
0.00194307
0.00194344
0.00194381
0.00194417
0.00194454
0.0019449
0.00194526
0.00194562
0.00194597
0.00194633
0.00194668
0.00194703
0.00194737
0.00194772
0.00194806
0.0019484
0.00194873
0.00194907
0.0019494
0.00194973
0.00195006
0.00195039
0.00195071
0.00195104
0.00195136
0.00195168
0.00195199
0.00195231
0.00195262
0.00195293
0.00195324
0.00195355
0.00195385
0.00195415
0.00195445
0.00195475
0.00195505
0.00195534
0.00195564
0.00195593
0.00195622
0.00195651
0.00195679
0.00195707
0.00195736
0.00195764
0.00195792
0.00195819
0.00195847
0.00195874
0.00195901
0.00195928
0.00195955
0.00195982
0.00196008
0.00196034
0.00196061
0.00196086
0.00196112
0.00196138
0.00196163
0.00196189
0.00196214
0.00196239
0.00196264
0.00196288
0.00196313
0.00196337
0.00196361
0.00196386
0.00196409
0.00196433
0.00196457
0.0019648
0.00196504
0.00196527
0.0019655
0.00196573
0.00196595
0.00196618
0.0019664
0.00196663
0.00196685
0.00196707
0.00196729
0.0019675
0.00196772
0.00196793
0.00196815
0.00196836
0.00196857
0.00196878
0.00196899
0.00196919
0.0019694
0.0019696
0.00196981
0.00197001
0.00197021
0.00197041
0.0019706
0.0019708
0.001971
0.00197119
0.00197138
0.00197158
0.00197177
0.00197195
0.00197214
0.00197233
0.00197252
0.0019727
0
0

