-0
-0
-0
-0
-0
-0
-0
-0
-0
-0
-0
-0
-0
-0
-0
-0
-0
-0
-0
-0
-0
-0
-0
-0
-0
-0
-0
-0
-0
-0
-0
-0
-0
-0
-0
-0
-0
-0
-0
-0
-0
-0
-0
-0
-0
-0
-0
-0
-0
-0
-0
-0
-0
-0
-0
-0
-0
-0
0.00741437
0.0133749
0.0171963
0.0194444
0.0206711
0.0212619
0.021464
0.0214308
0.0212564
0.0209981
0.0206906
0.0203551
0.0200045
0.0196467
0.0192865
0.018927
0.0185699
0.0182166
0.0178676
0.0175236
0.0171847
0.0168512
0.0165232
0.0162007
0.0158838
0.0155724
0.0152666
0.0149664
0.0146715
0.0143822
0.0140981
0.0138194
0.0135459
0.0132776
0.0130144
0.0127562
0.012503
0.0122546
0.012011
0.0117721
0.0115379
0.0113082
0.011083
0.0108622
0.0106457
0.0104334
0.0102254
0.0100214
0.00982145
0.00962544
0.00943331
0.00924497
0.00906037
0.00887943
0.00870208
0.00852825
0.00835788
0.0081909
0.00802724
0.00786685
0.00770965
0.00755559
0.00740461
0.00725664
0.00711163
0.00696952
0.00683025
0.00669377
0.00656003
0.00642896
0.00630052
0.00617466
0.00605131
0.00593045
0.00581201
0.00569594
0.00558221
0.00547076
0.00536155
0.00525453
0.00514967
0.00504691
0.00494622
0.00484755
0.00475087
0.00465613
0.0045633
0.00447234
0.0043832
0.00429586
0.00421028
0.00412642
0.00404425
0

