-0
-0
-0
-0
-0
-0
-0
-0
-0
-0
-0
-0
-0
-0
-0
-0
-0
-0
-0
-0
-0
-0
-0
-0
-0
-0
-0
-0
-0
-0
-0
-0
-0
-0
-0
-0
-0
-0
-0
-0
-0
-0
2.2131e-05
0.000111674
0.000315288
0.000660995
0.00115193
0.00177088
0.00248872
0.00327205
0.00408854
0.00490993
0.00571338
0.00648172
0.00720309
0.00787022
0.00847961
0.00903067
0.00952493
0.00996532
0.0103557
0.0107002
0.0110033
0.0112692
0.011502
0.0117052
0.0118823
0.0120361
0.0121693
0.0122842
0.0123827
0.0124666
0.0125373
0.0125961
0.0126443
0.0126827
0.0127122
0.0127337
0.0127477
0.012755
0.0127559
0.0127511
0.012741
0.012726
0.0127064
0.0126826
0.0126549
0.0126237
0.0125891
0.0125514
0.0125108
0.0124677
0.0124221
0.0123742
0.0123243
0.0122725
0.012219
0.0121638
0.0121072
0.0120492
0.0119901
0.0119298
0.0118685
0.0118063
0.0117433
0.0116795
0.0116151
0.0115501
0.0114846
0.0114186
0.0113523
0.0112856
0.0112186
0.0111514
0.011084
0.0110165
0.0109489
0.0108812
0.0108135
0.0107458
0.0106781
0.0106105
0.0105429
0.0104755
0.0104082
0.0103411
0.0102741
0.0102073
0.0101407
0.0100743
0.0100082
0.00994232
0.00987669
0.00981133
0.00974626
0.00968147
0.00961697
0.00955278
0.00948891
0.00942535
0.00936212
0.00929921
0.00923664
0.00917441
0.00911252
0.00905097
0.00898977
0.00892893
0.00886843
0.0088083
0.00874852
0

