-14930.3
-0.0221924
-0.00760968
-0.00336254
-0.00141458
-0.000313338
0.00038139
0.000852175
0.00118962
0.00144349
0.00164277
0.00180509
0.00193858
0.00204272
0.00211132
0.00213693
0.00211425
0.00204157
0.00192068
0.00175597
0.0015533
0.0013191
0.00105973
0.00078105
0.000488281
0.000185906
-0.000122292
-0.000433174
-0.000744172
-0.00105321
-0.00135862
-0.00165909
-0.00195361
-0.0022414
-0.00252187
-0.00279461
-0.00305934
-0.00331589
-0.00356418
-0.00380419
-0.00403597
-0.00425962
-0.00447526
-0.00468305
-0.00488316
-0.00507578
-0.00526112
-0.00543939
-0.0056108
-0.00577556
-0.00593389
-0.00608599
-0.00623208
-0.00637236
-0.00650703
-0.00663628
-0.00676031
-0.00687927
-0.00699336
-0.00710273
-0.00720754
-0.00730795
-0.0074041
-0.00749614
-0.00758419
-0.00766839
-0.00774887
-0.00782573
-0.0078991
-0.00796908
-0.00803578
-0.00809929
-0.00815972
-0.00821715
-0.00827167
-0.00832337
-0.00837232
-0.00841861
-0.0084623
-0.00850348
-0.0085422
-0.00857853
-0.00861255
-0.0086443
-0.00867385
-0.00870126
-0.00872658
-0.00874987
-0.00877117
-0.00879053
-0.00880801
-0.00882365
-0.0088375
-0.00884959
-0.00885998
-0.0088687
-0.0088758
-0.00888131
-0.00888527
-0.00888771
-0.00888868
-0.00888821
-0.00888634
-0.00888309
-0.00887849
-0.00887259
-0.0088654
-0.00885697
-0.00884732
-0.00883648
-0.00882447
-0.00881133
-0.00879708
-0.00878174
-0.00876535
-0.00874793
-0.0087295
-0.00871009
-0.00868971
-0.0086684
-0.00864617
-0.00862305
-0.00859906
-0.00857423
-0.00854856
-0.00852208
-0.00849482
-0.00846678
-0.008438
-0.00840849
-0.00837826
-0.00834734
-0.00831574
-0.00828349
-0.00825059
-0.00821706
-0.00818293
-0.00814821
-0.00811291
-0.00807704
-0.00804063
-0.00800369
-0.00796624
-0.00792828
-0.00788984
-0.00785092
-0.00781154
-0.00777172
-0.00773146
-0.00769078
-0.00764969
-0.00760821
-0.00756635
-0.00752411
-0.00748152
-0.00743857
-0.0073953
-0.00735169
-0.00730777
-0.00726355
-0.00721904
-0.00717424
-0.00712917
-0.00708384
-0.00703826
-0.00699243
-0.00694637
-0.00690009
-0.00685359
-0.00680688
-0.00675998
-0.00671289
-0.00666562
-0.00661818
-0.00657057
-0.00652281
-0.0064749
-0.00642685
-0.00637867
-0.00633036
-0.00628193
-0.00623339
-0.00618475
-0.00613602
-0.00608719
-0.00603828
-0.00598929
-0.00594023
-0.00589111
-0.00584192
-0.00579269
-0.00574341
-0.00569409
-0.00564473
-0.00559535
-0.00554594
-0.00549652
-0.00544709
-0.00539764
-0.0053482
-0.00529876
-0.00524932
-0.0051999
-0.00515049
-0.0051011
-0.00505174
-0.00500241
-0.00495311
-0.00490384
-0.00485462
-0.00480545
-0.00475632
-0.00470725
-0.00465823
-0.00460928
-0.00456039
-0.00451156
-0.00446281
-0.00441413
-0.00436553
-0.00431702
-0.00426858
-0.00422023
-0.00417198
-0.00412381
-0.00407575
-0.00402778
-0.00397991
-0.00393215
-0.00388449
-0.00383694
-0.00378951
-0.00374219
-0.00369499
-0.0036479
-0.00360094
-0.0035541
-0.00350738
-0.0034608
-0.00341434
-0.00336802
-0.00332183
-0.00327577
-0.00322985
-0.00318407
-0.00313843
-0.00309294
-0.00304759
-0.00300238
-0.00295732
-0.00291241
-0.00286765
-0.00282304
-0.00277859
-0.00273429
-0.00269014
-0.00264616
-0.00260233
-0.00255866
-0.00251515
-0.0024718
-0.00242861
-0.00238559
-0.00234274
-0.00230004
-0.00225752
-0.00221516
-0.00217297
-0.00213095
-0.0020891
-0.00204742
-0.00200591
-0.00196458
-0.00192341
-0.00188242
-0.00184161
-0.00180096
-0.0017605
-0.00172021
-0.00168009
-0.00164015
-0.00160039
-0.00156081
-0.0015214
-0.00148217
-0.00144312
-0.00140425
-0.00136556
-0.00132704
-0.00128871
-0.00125056
-0.00121258
-0.00117479
-0.00113718
-0.00109975
-0.00106249
-0.00102542
-0.000988533
-0.000951824
-0.000915295
-0.000878948
-0.000842781
-0.000806796
-0.000770992
-0.000735368
-0.000699925
-0.000664663
-0.000629582
-0.000594681
-0.00055996
-0.00052542
-0.000491059
-0.000456879
-0.000422879
-0.000389058
-0.000355417
-0.000321955
-0.000288671
-0.000255567
-0.00022264
-0.000189892
-0.000157321
-0.000124928
-9.27125e-05
-6.06742e-05
-2.88122e-05
2.8737e-06
3.43841e-05
6.57182e-05
9.68775e-05
0.000127862
0.000158673
0.000189308
0.000219771
0.00025006
0.000280177
0.000310121
0.000339894
0.000369495
0.000398925
0.000428185
0.000457275
0.000486195
0.000514946
0.000543529
0.000571943
0.000600191
0.00062827
0.000656184
0.000683932
0.000711514
0.00073893
0.000766183
0.000793272
0.000820197
0.00084696
0.00087356
0.000899999
0.000926277
0.000952395
0.000978353
0.00100415
0.00102979
0.00105527
0.0010806
0.00110577
0.00113078
0.00115563
0.00118033
0.00120488
0.00122927
0.00125351
0.0012776
0.00130154
0.00132532
0.00134895
0.00137244
0.00139577
0.00141896
0.001442
0.00146489
0.00148763
0.00151023
0.00153268
0.00155499
0.00157715
0.00159917
0.00162104
0.00164278
0.00166437
0.00168582
0.00170713
0.00172831
0.00174934
0.00177023
0.00179099
0.00181161
0.0018321
0.00185244
0.00187266
0.00189274
0.00191268
0.0019325
0.00195218
0.00197172
0.00199114
0.00201043
0.00202959
0.00204862
0.00206752
0.00208629
0.00210494
0.00212346
0.00214185
0.00216012
0.00217827
0.00219629
0.00221419
0.00223196
0.00224962
0.00226715
0.00228456
0.00230186
0.00231903
0.00233609
0.00235303
0.00236985
0.00238655
0.00240314
0.00241962
0.00243597
0.00245222
0.00246835
0.00248437
0.00250028
0.00251607
0.00253176
0.00254734
0.0025628
0.00257816
0.00259341
0.00260855
0.00262359
0.00263851
0.00265334
0.00266806
0.00268267
0.00269718
0.00271159
0.00272589
0.00274009
0.00275419
0.00276819
0.00278209
0.00279589
0.00280959
0.0028232
0.0028367
0.00285011
0.00286342
0.00287664
0.00288976
0.00290279
0.00291572
0.00292856
0.0029413
0.00295395
0.00296651
0.00297898
0.00299136
0.00300365
0.00301585
0.00302796
0.00303998
0.00305191
0.00306376
0.00307552
0.00308719
0.00309878
0.00311029
0.0031217
0.00313304
0.00314429
0.00315546
0.00316654
0.00317755
0.00318847
0.00319931
0.00321007
0.00322075
0.00323136
0.00324188
0.00325232
0.00326269
0.00327298
0.0032832
0.00329334
0.0033034
0.00331339
0.0033233
0.00333314
0.0033429
0.00335259
0.00336221
0.00337176
0.00338123
0.00339063
0.00339997
0.00340923
0.00341842
0.00342754
0.0034366
0.00344559
0.0034545
0.00346335
0.00347214
0.00348086
0.00348951
0.00349809
0.00350662
0.00351507
0.00352346
0.00353179
0.00354006
0.00354826
0.0035564
0.00356448
0.00357249
0.00358045
0.00358834
0.00359618
0.00360395
0.00361166
0.00361932
0.00362692
0.00363445
0.00364193
0.00364936
0.00365672
0.00366403
0.00367128
0.00367848
0.00368562
0.00369271
0.00369974
0.00370672
0.00371364
0.00372051
0.00372733
0.00373409
0.00374081
0.00374747
0.00375408
0.00376064
0.00376714
0.0037736
0.00378001
0.00378636
0.00379267
0.00379893
0.00380514
0.0038113
0.00381742
0.00382348
0.0038295
0.00383547
0.0038414
0.00384728
0.00385311
0.0038589
0.00386464
0.00387034
0.00387599
0.0038816
0.00388716
0.00389268
0.00389816
0.0039036
0.00390899
0.00391434
0.00391965
0.00392491
0.00393014
0.00393532
0.00394046
0.00394557
0.00395063
0.00395565
0.00396064
0.00396558
0.00397049
0.00397535
0.00398018
0.00398497
0.00398972
0.00399444
0.00399912
0.00400376
0.00400836
0.00401293
0.00401746
0.00402196
0.00402642
0.00403084
0.00403523
0.00403959
0.00404391
0.0040482
0.00405245
0.00405667
0.00406085
0.00406501
0.00406913
0.00407321
0.00407727
0.00408129
0.00408528
0.00408924
0.00409317
0.00409706
0.00410093
0.00410476
0.00410857
0.00411234
0.00411608
0.0041198
0.00412348
0.00412713
0.00413076
0.00413436
0.00413793
0.00414147
0.00414498
0.00414846
0.00415192
0.00415534
0.00415874
0.00416212
0.00416546
0.00416878
0.00417208
0.00417535
0.00417859
0.0041818
0.00418499
0.00418816
0.00419129
0.00419441
0.0041975
0.00420056
0.0042036
0.00420661
0.0042096
0.00421257
0.00421552
0.00421843
0.00422133
0.0042242
0.00422705
0.00422988
0.00423269
0.00423547
0.00423823
0.00424097
0.00424368
0.00424638
0.00424905
0.0042517
0.00425433
0.00425694
0.00425952
0.00426209
0.00426464
0.00426716
0.00426967
0.00427215
0.00427462
0.00427707
0.00427949
0.0042819
0.00428429
0.00428665
0.004289
0.00429133
0.00429365
0.00429594
0.00429821
0.00430047
0.00430271
0.00430493
0.00430713
0.00430931
0.00431148
0.00431363
0.00431576
0.00431788
0.00431998
0.00432206
0.00432412
0.00432617
0.0043282
0.00433022
0.00433222
0.0043342
0.00433617
0.00433812
0.00434005
0.00434197
0.00434388
0.00434577
0.00434764
0.0043495
0.00435135
0.00435318
0.00435499
0.00435679
0.00435858
0.00436035
0.00436211
0.00436385
0.00436558
0.00436729
0.00436899
0.00437068
0.00437236
0.00437402
0.00437566
0.0043773
0.00437892
0.00438053
0.00438212
0.00438371
0.00438527
0.00438683
0.00438838
0.00438991
0.00439143
0.00439294
0.00439443
0.00439592
0.00439739
0.00439885
0.0044003
0.00440173
0.00440316
0.00440457
0.00440598
0.00440737
0.00440875
0.00441012
0.00441147
0.00441282
0.00441416
0.00441548
0.0044168
0.0044181
0.0044194
0.00442068
0.00442196
0.00442322
0.00442447
0.00442572
0.00442695
0.00442817
0.00442939
0.00443059
0.00443179
0.00443297
0.00443415
0.00443532
0.00443647
0.00443762
0.00443876
0.00443989
0.00444101
0.00444212
0.00444322
0.00444432
0.0044454
0.00444648
0.00444755
0.00444861
0.00444966
0.0044507
0.00445174
0.00445277
0.00445378
0.0044548
0.0044558
0.00445679
0.00445778
0.00445876
0.00445973
0.00446069
0.00446165
0.0044626
0.00446354
0.00446447
0.0044654
0.00446631
0.00446723
0.00446813
0.00446903
0.00446992
0.0044708
0.00447168
0.00447255
0.00447341
0.00447426
0.00447511
0.00447595
0.00447679
0.00447762
0.00447844
0.00447926
0.00448007
0.00448087
0.00448167
0.00448246
0.00448324
0.00448402
0.00448479
0.00448556
0.00448632
0.00448708
0.00448782
0.00448857
0.0044893
0.00449004
0.00449076
0.00449148
0.00449219
0.0044929
0.00449361
0.0044943
0.004495
0.00449568
0.00449636
0.00449704
0.00449771
0.00449838
0.00449904
0.0044997
0.00450035
0.00450099
0.00450163
0.00450227
0.0045029
0.00450352
0.00450414
0.00450476
0.00450537
0.00450598
0.00450658
0.00450718
0.00450777
0.00450836
0.00450894
0.00450952
0.0045101
0.00451067
0.00451124
0.0045118
0.00451236
0.00451291
0.00451346
0.004514
0.00451454
0.00451508
0.00451561
0.00451614
0.00451667
0.00451719
0.0045177
0.00451822
0.00451872
0.00451923
0.00451973
0.00452023
0.00452072
0.00452121
0.0045217
0.00452218
0.00452266
0.00452314
0.00452361
0.00452407
0.00452454
0.004525
0.00452546
0.00452591
0.00452636
0.00452681
0.00452726
0.0045277
0.00452813
0.00452857
0.004529
0.00452943
0.00452985
0.00453027
0.00453069
0.00453111
0.00453152
0.00453193
0.00453234
0.00453274
0.00453314
0.00453354
0.00453393
0.00453432
0.00453471
0.0045351
0.00453548
0.00453586
0.00453624
0.00453661
0.00453698
0.00453735
0.00453772
0.00453808
0.00453844
0.0045388
0.00453916
0.00453951
0.00453986
0.00454021
0.00454055
0.0045409
0.00454124
0.00454158
0.00454191
0.00454225
0.00454258
0.0045429
0.00454323
0.00454355
0.00454388
0.0045442
0.00454451
0.00454483
0.00454514
0.00454545
0.00454576
0.00454606
0.00454637
0.00454667
0.00454697
0.00454727
0.00454756
0.00454785
0.00454814
0.00454843
0.00454872
0.004549
0.00454929
0.00454957
0.00454985
0.00455012
0.0045504
0.00455067
0.00455094
0.00455121
0.00455148
0.00455175
0.00455201
0.00455227
0.00455253
0.00455279
0.00455305
0.0045533
0.00455355
0.0045538
0.00455405
0.0045543
0.00455455
0.00455479
0.00455503
0.00455528
0.00455552
0.00455575
0.00455599
0.00455622
0.00455646
0.00455669
0.00455692
0.00455715
0.00455737
0.0045576
0.00455782
0.00455804
0.00455826
0.00455848
0.0045587
0.00455892
0.00455913
0.00455934
0.00455956
0.00455977
0.00455998
0.00456018
0
0

