-0
-0
-0
-0
-0
-0
-0
-0
-0
-0
-0
-0
-0
-0
-0
-0
-0
-0
-0
-0
-0
-0
-0
-0
-0
-0
-0
-0
-0
-0
-0
-0
-0
-0
-0
-0
-0
-0
-0
-0
-0
-0
-0
-0
-0
-0
-0
-0
-0
-0
-0
-0
-0
-0
0.000532521
0.00195964
0.00419031
0.00688161
0.00967782
0.0123215
0.0146666
0.0166517
0.0182687
0.0195388
0.0204969
0.0211823
0.021634
0.0218879
0.0219766
0.0219285
0.0217683
0.0215171
0.0211931
0.0208115
0.0203855
0.019926
0.0194423
0.0189422
0.0184323
0.0179178
0.0174035
0.0168928
0.016389
0.0158943
0.0154107
0.0149398
0.0144828
0.0140403
0.0136132
0.0132017
0.012806
0.0124261
0.0120621
0.0117136
0.0113804
0.0110622
0.0107585
0.010469
0.010193
0.00993024
0.00968005
0.00944195
0.00921543
0.00899996
0.00879502
0.00860009
0.0084147
0.00823834
0.00807055
0.00791088
0.00775888
0.00761414
0.00747625
0.00734482
0.00721949
0.00709991
0.00698575
0.00687667
0.0067724
0.00667264
0.00657712
0.00648559
0.00639781
0.00631356
0.00623261
0.00615478
0.00607987
0.00600771
0.00593813
0.00587097
0.00580609
0.00574335
0.00568262
0.00562378
0.00556672
0.00551133
0.00545752
0.0054052
0.00535426
0.00530465
0.00525627
0.00520906
0.00516296
0.00511789
0.00507382
0.00503067
0.00498841
0.00494697
0.00490633
0.00486644
0.00482727
0

