-14930.3
-0.0221924
-0.00760968
-0.00336254
-0.00141458
-0.000313338
0.00038139
0.000852175
0.00118962
0.00144349
0.00164277
0.00180509
0.00194127
0.00205776
0.00215783
0.00224239
0.00231084
0.00236167
0.00239315
0.0024037
0.00239215
0.00235782
0.00230058
0.00222072
0.00211892
0.00199616
0.00185363
0.00169265
0.00151467
0.00132117
0.00111364
0.000893567
0.000662415
0.00042159
0.000172445
-8.37276e-05
-0.000345705
-0.000612336
-0.000882541
-0.00115532
-0.00142973
-0.00170491
-0.00198008
-0.0022545
-0.00252751
-0.0027985
-0.00306693
-0.00333231
-0.00359419
-0.00385218
-0.00410593
-0.00435513
-0.00459952
-0.00483884
-0.00507292
-0.00530156
-0.00552464
-0.00574203
-0.00595364
-0.0061594
-0.00635926
-0.00655319
-0.00674117
-0.00692319
-0.00709926
-0.00726941
-0.00743365
-0.00759204
-0.00774462
-0.00789145
-0.00803259
-0.00816811
-0.00829808
-0.00842259
-0.00854172
-0.00865555
-0.00876418
-0.0088677
-0.00896619
-0.00905976
-0.0091485
-0.0092325
-0.00931187
-0.00938671
-0.0094571
-0.00952315
-0.00958496
-0.00964262
-0.00969623
-0.00974588
-0.00979167
-0.00983369
-0.00987203
-0.00990678
-0.00993805
-0.0099659
-0.00999043
-0.0100117
-0.0100299
-0.010045
-0.0100571
-0.0100662
-0.0100726
-0.0100762
-0.0100771
-0.0100755
-0.0100713
-0.0100646
-0.0100556
-0.0100442
-0.0100306
-0.0100148
-0.00999689
-0.0099769
-0.00995491
-0.00993098
-0.00990516
-0.00987752
-0.00984811
-0.00981699
-0.0097842
-0.0097498
-0.00971384
-0.00967637
-0.00963744
-0.00959709
-0.00955538
-0.00951235
-0.00946803
-0.00942248
-0.00937574
-0.00932785
-0.00927884
-0.00922876
-0.00917764
-0.00912553
-0.00907246
-0.00901846
-0.00896357
-0.00890782
-0.00885125
-0.00879389
-0.00873577
-0.00867691
-0.00861736
-0.00855714
-0.00849628
-0.0084348
-0.00837274
-0.00831011
-0.00824696
-0.00818329
-0.00811914
-0.00805453
-0.00798948
-0.00792402
-0.00785816
-0.00779194
-0.00772537
-0.00765847
-0.00759126
-0.00752377
-0.007456
-0.00738799
-0.00731974
-0.00725128
-0.00718262
-0.00711378
-0.00704478
-0.00697563
-0.00690635
-0.00683696
-0.00676746
-0.00669787
-0.00662821
-0.00655849
-0.00648873
-0.00641893
-0.00634911
-0.00627928
-0.00620946
-0.00613965
-0.00606987
-0.00600013
-0.00593044
-0.0058608
-0.00579124
-0.00572175
-0.00565236
-0.00558307
-0.00551388
-0.00544482
-0.00537588
-0.00530707
-0.00523841
-0.0051699
-0.00510155
-0.00503336
-0.00496534
-0.0048975
-0.00482985
-0.00476238
-0.00469512
-0.00462806
-0.00456121
-0.00449458
-0.00442816
-0.00436198
-0.00429602
-0.0042303
-0.00416483
-0.0040996
-0.00403462
-0.0039699
-0.00390543
-0.00384123
-0.0037773
-0.00371364
-0.00365025
-0.00358714
-0.00352432
-0.00346178
-0.00339952
-0.00333756
-0.00327589
-0.00321452
-0.00315345
-0.00309268
-0.00303221
-0.00297205
-0.0029122
-0.00285266
-0.00279343
-0.00273451
-0.00267591
-0.00261763
-0.00255967
-0.00250203
-0.00244471
-0.00238771
-0.00233104
-0.00227469
-0.00221867
-0.00216298
-0.00210761
-0.00205257
-0.00199787
-0.00194349
-0.00188945
-0.00183573
-0.00178235
-0.0017293
-0.00167658
-0.0016242
-0.00157215
-0.00152043
-0.00146904
-0.00141799
-0.00136727
-0.00131688
-0.00126683
-0.00121711
-0.00116772
-0.00111866
-0.00106993
-0.00102153
-0.00097347
-0.000925735
-0.000878329
-0.000831253
-0.000784504
-0.000738084
-0.00069199
-0.000646222
-0.00060078
-0.000555662
-0.000510868
-0.000466397
-0.000422248
-0.00037842
-0.000334912
-0.000291724
-0.000248852
-0.000206299
-0.000164061
-0.000122137
-8.05279e-05
-3.92311e-05
1.75458e-06
4.24304e-05
8.27971e-05
0.000122856
0.000162609
0.000202056
0.0002412
0.000280041
0.000318581
0.000356822
0.000394764
0.000432408
0.000469757
0.000506812
0.000543574
0.000580045
0.000616225
0.000652117
0.000687723
0.000723042
0.000758076
0.000792829
0.0008273
0.000861492
0.000895405
0.000929042
0.000962404
0.000995493
0.00102831
0.00106086
0.00109313
0.00112515
0.00115689
0.00118837
0.00121959
0.00125055
0.00128125
0.00131169
0.00134187
0.0013718
0.00140148
0.00143091
0.00146009
0.00148901
0.0015177
0.00154614
0.00157433
0.00160228
0.00163
0.00165747
0.00168471
0.00171171
0.00173848
0.00176501
0.00179132
0.0018174
0.00184325
0.00186887
0.00189427
0.00191945
0.00194441
0.00196914
0.00199366
0.00201797
0.00204206
0.00206593
0.00208959
0.00211305
0.00213629
0.00215933
0.00218217
0.0022048
0.00222722
0.00224945
0.00227147
0.0022933
0.00231494
0.00233637
0.00235762
0.00237867
0.00239953
0.00242021
0.00244069
0.00246099
0.00248111
0.00250104
0.00252079
0.00254036
0.00255975
0.00257897
0.00259801
0.00261687
0.00263556
0.00265408
0.00267243
0.00269061
0.00270862
0.00272647
0.00274415
0.00276167
0.00277903
0.00279622
0.00281326
0.00283013
0.00284685
0.00286342
0.00287983
0.00289608
0.00291219
0.00292814
0.00294395
0.00295961
0.00297512
0.00299048
0.0030057
0.00302078
0.00303572
0.00305051
0.00306517
0.00307969
0.00309407
0.00310832
0.00312243
0.00313641
0.00315025
0.00316397
0.00317755
0.00319101
0.00320434
0.00321754
0.00323062
0.00324357
0.0032564
0.0032691
0.00328169
0.00329415
0.0033065
0.00331873
0.00333084
0.00334283
0.00335471
0.00336648
0.00337813
0.00338967
0.0034011
0.00341243
0.00342364
0.00343474
0.00344574
0.00345663
0.00346742
0.0034781
0.00348868
0.00349916
0.00350954
0.00351982
0.00352999
0.00354007
0.00355006
0.00355994
0.00356973
0.00357943
0.00358903
0.00359854
0.00360795
0.00361728
0.00362651
0.00363565
0.00364471
0.00365367
0.00366255
0.00367135
0.00368005
0.00368868
0.00369722
0.00370567
0.00371405
0.00372234
0.00373055
0.00373868
0.00374673
0.00375471
0.0037626
0.00377042
0.00377816
0.00378583
0.00379342
0.00380094
0.00380838
0.00381575
0.00382305
0.00383028
0.00383743
0.00384452
0.00385153
0.00385848
0.00386536
0.00387217
0.00387892
0.0038856
0.00389221
0.00389876
0.00390524
0.00391166
0.00391802
0.00392432
0.00393055
0.00393672
0.00394283
0.00394888
0.00395488
0.00396081
0.00396668
0.0039725
0.00397826
0.00398396
0.00398961
0.0039952
0.00400074
0.00400622
0.00401165
0.00401702
0.00402235
0.00402761
0.00403283
0.004038
0.00404311
0.00404818
0.00405319
0.00405816
0.00406308
0.00406795
0.00407277
0.00407754
0.00408227
0.00408695
0.00409158
0.00409617
0.00410071
0.00410521
0.00410966
0.00411407
0.00411844
0.00412276
0.00412704
0.00413128
0.00413548
0.00413963
0.00414375
0.00414782
0.00415186
0.00415585
0.00415981
0.00416372
0.0041676
0.00417144
0.00417524
0.00417901
0.00418273
0.00418642
0.00419008
0.0041937
0.00419728
0.00420083
0.00420434
0.00420782
0.00421126
0.00421467
0.00421805
0.00422139
0.00422471
0.00422798
0.00423123
0.00423444
0.00423763
0.00424078
0.0042439
0.00424699
0.00425005
0.00425308
0.00425608
0.00425905
0.00426199
0.0042649
0.00426779
0.00427064
0.00427347
0.00427627
0.00427905
0.00428179
0.00428451
0.0042872
0.00428987
0.00429251
0.00429512
0.00429771
0.00430027
0.00430281
0.00430533
0.00430782
0.00431028
0.00431272
0.00431514
0.00431753
0.0043199
0.00432225
0.00432457
0.00432688
0.00432916
0.00433141
0.00433365
0.00433586
0.00433805
0.00434023
0.00434238
0.0043445
0.00434661
0.0043487
0.00435077
0.00435282
0.00435484
0.00435685
0.00435884
0.00436081
0.00436276
0.00436469
0.00436661
0.0043685
0.00437038
0.00437224
0.00437408
0.0043759
0.00437771
0.00437949
0.00438126
0.00438302
0.00438476
0.00438648
0.00438818
0.00438987
0.00439154
0.00439319
0.00439483
0.00439646
0.00439806
0.00439966
0.00440124
0.0044028
0.00440435
0.00440588
0.0044074
0.0044089
0.00441039
0.00441187
0.00441333
0.00441478
0.00441621
0.00441763
0.00441904
0.00442043
0.00442181
0.00442318
0.00442453
0.00442587
0.0044272
0.00442852
0.00442982
0.00443112
0.0044324
0.00443366
0.00443492
0.00443616
0.00443739
0.00443862
0.00443983
0.00444102
0.00444221
0.00444339
0.00444455
0.0044457
0.00444685
0.00444798
0.0044491
0.00445021
0.00445131
0.0044524
0.00445349
0.00445456
0.00445562
0.00445667
0.00445771
0.00445874
0.00445976
0.00446078
0.00446178
0.00446277
0.00446376
0.00446474
0.0044657
0.00446666
0.00446761
0.00446855
0.00446948
0.00447041
0.00447132
0.00447223
0.00447313
0.00447402
0.0044749
0.00447577
0.00447664
0.0044775
0.00447835
0.00447919
0.00448003
0.00448086
0.00448168
0.00448249
0.0044833
0.00448409
0.00448489
0.00448567
0.00448645
0.00448722
0.00448798
0.00448874
0.00448949
0.00449023
0.00449097
0.0044917
0.00449242
0.00449314
0.00449385
0.00449455
0.00449525
0.00449594
0.00449663
0.00449731
0.00449798
0.00449865
0.00449931
0.00449997
0.00450062
0.00450127
0.00450191
0.00450254
0.00450317
0.00450379
0.00450441
0.00450502
0.00450563
0.00450623
0.00450683
0.00450742
0.004508
0.00450858
0.00450916
0.00450973
0.0045103
0.00451086
0.00451142
0.00451197
0.00451251
0.00451306
0.0045136
0.00451413
0.00451466
0.00451518
0.0045157
0.00451622
0.00451673
0.00451724
0.00451774
0.00451824
0.00451873
0.00451922
0.00451971
0.00452019
0.00452067
0.00452114
0.00452161
0.00452208
0.00452254
0.004523
0.00452345
0.0045239
0.00452435
0.0045248
0.00452524
0.00452567
0.0045261
0.00452653
0.00452696
0.00452738
0.0045278
0.00452822
0.00452863
0.00452904
0.00452944
0.00452985
0.00453025
0.00453064
0.00453103
0.00453142
0.00453181
0.00453219
0.00453257
0.00453295
0.00453333
0.0045337
0.00453407
0.00453443
0.00453479
0.00453515
0.00453551
0.00453587
0.00453622
0.00453657
0.00453691
0.00453726
0.0045376
0.00453793
0.00453827
0.0045386
0.00453893
0.00453926
0.00453959
0.00453991
0.00454023
0.00454055
0.00454086
0.00454118
0.00454149
0.0045418
0.0045421
0.00454241
0.00454271
0.00454301
0.0045433
0.0045436
0.00454389
0.00454418
0.00454447
0.00454476
0.00454504
0.00454532
0.0045456
0.00454588
0.00454615
0.00454643
0.0045467
0.00454697
0.00454724
0.0045475
0.00454777
0.00454803
0.00454829
0.00454855
0.00454881
0.00454906
0.00454931
0.00454956
0.00454981
0.00455006
0.00455031
0.00455055
0.00455079
0.00455103
0.00455127
0.00455151
0.00455174
0.00455198
0.00455221
0.00455244
0.00455267
0.0045529
0.00455312
0.00455335
0.00455357
0.00455379
0.00455401
0.00455423
0.00455445
0.00455466
0.00455488
0.00455509
0.0045553
0.00455551
0.00455572
0.00455593
0.00455613
0.00455634
0.00455654
0.00455674
0.00455694
0.00455714
0.00455734
0.00455753
0.00455773
0.00455792
0.00455811
0.0045583
0.00455849
0.00455868
0.00455887
0.00455906
0.00455924
0.00455943
0.00455961
0.00455979
0.00455997
0.00456015
0.00456033
0.0045605
0.00456068
0.00456085
0.00456103
0.0045612
0.00456137
0.00456154
0.00456171
0.00456188
0.00456205
0.00456221
0.00456238
0.00456254
0.00456271
0.00456287
0.00456303
0.00456319
0.00456335
0.00456351
0.00456367
0.00456382
0.00456398
0.00456413
0.00456429
0.00456444
0.00456459
0.00456474
0.00456489
0.00456504
0.00456519
0.00456534
0.00456548
0.00456563
0.00456577
0.00456592
0.00456606
0.0045662
0.00456634
0.00456649
0.00456663
0.00456676
0.0045669
0.00456704
0.00456718
0.00456731
0.00456745
0.00456758
0.00456772
0.00456785
0.00456798
0.00456811
0.00456824
0.00456837
0.0045685
0.00456863
0.00456876
0.00456889
0.00456901
0.00456914
0.00456927
0.00456939
0.00456951
0.00456964
0.00456976
0.00456988
0.00457
0.00457012
0.00457024
0.00457036
0.00457048
0.0045706
0.00457072
0.00457083
0.00457095
0.00457107
0.00457118
0.0045713
0.00457141
0.00457152
0.00457163
0.00457175
0.00457186
0.00457197
0.00457208
0.00457219
0.0045723
0.00457241
0.00457252
0.00457262
0.00457273
0.00457284
0.00457294
0.00457305
0.00457315
0.00457326
0.00457336
0.00457347
0.00457357
0.00457367
0.00457377
0
0

