-0
-0
-0
-0
-0
-0
-0
-0
-0
-0
-0
-0
-0
-0
-0
-0
-0
-0
-0
-0
-0
-0
-0
-0
-0
-0
-0
-0
-0
-0
-0
-0
4.46206e-06
2.58375e-05
8.24923e-05
0.000193038
0.000371233
0.000623597
0.000949587
0.00134319
0.0017949
0.00229345
0.00282714
0.00338467
0.00395568
0.00453101
0.00510279
0.00566445
0.00621067
0.00673726
0.00724107
0.00771985
0.00817214
0.0085971
0.00899448
0.00936442
0.00970744
0.0100243
0.0103159
0.0105834
0.010828
0.0110508
0.0112531
0.011436
0.0116009
0.0117488
0.0118808
0.011998
0.0121014
0.012192
0.0122706
0.0123381
0.0123951
0.0124426
0.0124811
0.0125113
0.0125337
0.012549
0.0125576
0.01256
0.0125567
0.012548
0.0125344
0.0125162
0.0124938
0.0124674
0.0124374
0.012404
0.0123675
0.0123281
0.0122861
0.0122415
0.0121948
0.0121459
0.0120952
0.0120427
0.0119886
0.011933
0.011876
0.0118179
0.0117586
0.0116983
0.0116371
0.0115751
0.0115124
0.011449
0.011385
0.0113205
0.0112555
0.0111902
0.0111245
0.0110586
0.0109924
0.0109261
0.0108595
0.0107929
0.0107263
0.0106596
0.0105928
0.0105262
0.0104595
0.010393
0.0103266
0.0102602
0.0101941
0.0101281
0.0100623
0.00999667
0.00993127
0.0098661
0.00980118
0.00973651
0.0096721
0.00960797
0.00954412
0.00948056
0.00941731
0.00935436
0.00929172
0.0092294
0.0091674
0.00910574
0.0090444
0.00898341
0.00892275
0.00886243
0.00880246
0.00874284
0.00868357
0.00862465
0.00856608
0

