-14930.3
-0.0221924
-0.00760968
-0.00336254
-0.00141458
-0.000313338
0.00038139
0.000852175
0.00118962
0.00144349
0.00164277
0.00180509
0.00194134
0.00205826
0.00215974
0.00224772
0.00232281
0.00238489
0.00243343
0.00246788
0.00248781
0.00249296
0.00248336
0.00245922
0.00242096
0.00236913
0.00230443
0.0022276
0.00213945
0.0020408
0.00193249
0.00181537
0.00169023
0.00155788
0.00141908
0.00127455
0.00112499
0.000971049
0.000813352
0.000652473
0.000488954
0.000323299
0.000155977
-1.25774e-05
-0.00018196
-0.000351801
-0.000521757
-0.000691515
-0.000860788
-0.00102931
-0.00119685
-0.00136319
-0.00152812
-0.00169147
-0.00185309
-0.00201282
-0.00217055
-0.00232615
-0.00247952
-0.00263058
-0.00277925
-0.00292547
-0.00306916
-0.0032103
-0.00334883
-0.00348472
-0.00361795
-0.00374849
-0.00387634
-0.00400148
-0.00412391
-0.00424363
-0.00436065
-0.00447496
-0.00458658
-0.00469553
-0.00480182
-0.00490547
-0.0050065
-0.00510494
-0.0052008
-0.00529412
-0.00538491
-0.00547322
-0.00555907
-0.00564248
-0.0057235
-0.00580214
-0.00587845
-0.00595246
-0.0060242
-0.0060937
-0.00616101
-0.00622614
-0.00628914
-0.00635004
-0.00640887
-0.00646567
-0.00652046
-0.00657328
-0.00662416
-0.00667314
-0.00672025
-0.00676552
-0.00680899
-0.00685067
-0.00689062
-0.00692884
-0.00696539
-0.00700028
-0.00703355
-0.00706523
-0.00709535
-0.00712392
-0.007151
-0.00717659
-0.00720073
-0.00722345
-0.00724477
-0.00726472
-0.00728333
-0.00730061
-0.0073166
-0.00733133
-0.00734481
-0.00735706
-0.00736812
-0.00737801
-0.00738675
-0.00739435
-0.00740085
-0.00740627
-0.00741062
-0.00741393
-0.00741622
-0.00741751
-0.00741782
-0.00741717
-0.00741557
-0.00741305
-0.00740963
-0.00740532
-0.00740014
-0.00739411
-0.00738725
-0.00737958
-0.0073711
-0.00736184
-0.00735182
-0.00734105
-0.00732954
-0.00731731
-0.00730438
-0.00729076
-0.00727646
-0.00726151
-0.00724591
-0.00722968
-0.00721283
-0.00719537
-0.00717732
-0.0071587
-0.00713951
-0.00711976
-0.00709948
-0.00707866
-0.00705733
-0.00703549
-0.00701316
-0.00699034
-0.00696705
-0.0069433
-0.00691911
-0.00689447
-0.0068694
-0.00684391
-0.00681802
-0.00679172
-0.00676503
-0.00673797
-0.00671053
-0.00668273
-0.00665458
-0.00662608
-0.00659725
-0.00656809
-0.00653861
-0.00650883
-0.00647874
-0.00644835
-0.00641768
-0.00638673
-0.00635551
-0.00632402
-0.00629228
-0.00626029
-0.00622806
-0.00619559
-0.0061629
-0.00612998
-0.00609684
-0.0060635
-0.00602996
-0.00599621
-0.00596228
-0.00592817
-0.00589387
-0.00585941
-0.00582478
-0.00578998
-0.00575503
-0.00571994
-0.00568469
-0.00564931
-0.0056138
-0.00557815
-0.00554239
-0.0055065
-0.00547051
-0.0054344
-0.00539819
-0.00536188
-0.00532547
-0.00528898
-0.00525239
-0.00521573
-0.00517898
-0.00514216
-0.00510527
-0.00506831
-0.00503129
-0.00499421
-0.00495708
-0.0049199
-0.00488266
-0.00484539
-0.00480807
-0.00477071
-0.00473333
-0.00469591
-0.00465846
-0.00462099
-0.0045835
-0.00454599
-0.00450846
-0.00447093
-0.00443338
-0.00439583
-0.00435828
-0.00432073
-0.00428317
-0.00424563
-0.00420809
-0.00417056
-0.00413304
-0.00409554
-0.00405806
-0.0040206
-0.00398316
-0.00394574
-0.00390835
-0.00387099
-0.00383366
-0.00379637
-0.00375911
-0.00372189
-0.00368471
-0.00364757
-0.00361047
-0.00357342
-0.00353642
-0.00349946
-0.00346256
-0.00342571
-0.00338891
-0.00335217
-0.00331549
-0.00327887
-0.00324231
-0.00320581
-0.00316937
-0.003133
-0.0030967
-0.00306047
-0.0030243
-0.00298821
-0.00295219
-0.00291625
-0.00288038
-0.00284458
-0.00280887
-0.00277323
-0.00273767
-0.00270219
-0.0026668
-0.00263149
-0.00259627
-0.00256112
-0.00252607
-0.00249111
-0.00245623
-0.00242144
-0.00238674
-0.00235214
-0.00231763
-0.00228321
-0.00224888
-0.00221465
-0.00218052
-0.00214648
-0.00211254
-0.00207869
-0.00204495
-0.0020113
-0.00197776
-0.00194431
-0.00191097
-0.00187773
-0.00184459
-0.00181156
-0.00177863
-0.0017458
-0.00171308
-0.00168046
-0.00164795
-0.00161555
-0.00158325
-0.00155106
-0.00151898
-0.00148701
-0.00145515
-0.00142339
-0.00139175
-0.00136021
-0.00132879
-0.00129747
-0.00126627
-0.00123518
-0.0012042
-0.00117333
-0.00114258
-0.00111193
-0.0010814
-0.00105099
-0.00102068
-0.000990492
-0.000960416
-0.000930453
-0.000900604
-0.00087087
-0.000841249
-0.000811744
-0.000782354
-0.000753078
-0.000723917
-0.000694871
-0.000665941
-0.000637126
-0.000608426
-0.000579843
-0.000551374
-0.000523021
-0.000494784
-0.000466662
-0.000438657
-0.000410767
-0.000382993
-0.000355334
-0.000327792
-0.000300366
-0.000273055
-0.00024586
-0.00021878
-0.000191817
-0.000164968
-0.000138237
-0.00011162
-8.51181e-05
-5.87323e-05
-3.24616e-05
-6.30598e-06
1.97338e-05
4.56592e-05
7.14695e-05
9.71646e-05
0.000122745
0.000148212
0.000173563
0.000198801
0.000223924
0.000248932
0.000273828
0.000298609
0.000323277
0.000347831
0.000372273
0.000396601
0.000420816
0.000444919
0.00046891
0.000492787
0.000516553
0.000540207
0.000563749
0.00058718
0.000610499
0.000633708
0.000656805
0.000679792
0.000702669
0.000725435
0.000748091
0.000770638
0.000793075
0.000815403
0.000837623
0.000859733
0.000881735
0.00090363
0.000925416
0.000947095
0.000968667
0.000990131
0.00101149
0.00103274
0.00105389
0.00107493
0.00109586
0.00111669
0.00113741
0.00115803
0.00117854
0.00119895
0.00121926
0.00123947
0.00125956
0.00127956
0.00129946
0.00131925
0.00133894
0.00135853
0.00137802
0.0013974
0.00141669
0.00143587
0.00145496
0.00147394
0.00149283
0.00151162
0.00153031
0.0015489
0.00156739
0.00158579
0.00160408
0.00162228
0.00164039
0.0016584
0.00167631
0.00169412
0.00171184
0.00172947
0.001747
0.00176444
0.00178178
0.00179903
0.00181619
0.00183325
0.00185022
0.0018671
0.00188388
0.00190058
0.00191718
0.0019337
0.00195012
0.00196645
0.0019827
0.00199885
0.00201492
0.00203089
0.00204678
0.00206258
0.00207829
0.00209392
0.00210946
0.00212491
0.00214027
0.00215555
0.00217075
0.00218586
0.00220088
0.00221582
0.00223068
0.00224545
0.00226014
0.00227475
0.00228927
0.00230371
0.00231807
0.00233235
0.00234655
0.00236066
0.0023747
0.00238866
0.00240253
0.00241633
0.00243005
0.00244369
0.00245725
0.00247073
0.00248413
0.00249746
0.00251071
0.00252389
0.00253699
0.00255001
0.00256295
0.00257583
0.00258862
0.00260135
0.00261399
0.00262657
0.00263907
0.0026515
0.00266385
0.00267614
0.00268835
0.00270049
0.00271255
0.00272455
0.00273648
0.00274833
0.00276012
0.00277183
0.00278348
0.00279506
0.00280657
0.00281801
0.00282938
0.00284069
0.00285192
0.0028631
0.0028742
0.00288524
0.00289621
0.00290712
0.00291796
0.00292873
0.00293944
0.00295009
0.00296067
0.00297119
0.00298165
0.00299204
0.00300237
0.00301264
0.00302285
0.00303299
0.00304307
0.00305309
0.00306305
0.00307295
0.00308279
0.00309257
0.00310229
0.00311196
0.00312156
0.0031311
0.00314059
0.00315001
0.00315938
0.0031687
0.00317795
0.00318715
0.00319629
0.00320538
0.00321441
0.00322338
0.0032323
0.00324117
0.00324998
0.00325873
0.00326743
0.00327608
0.00328467
0.00329321
0.0033017
0.00331013
0.00331852
0.00332685
0.00333513
0.00334335
0.00335153
0.00335965
0.00336773
0.00337575
0.00338372
0.00339165
0.00339952
0.00340734
0.00341512
0.00342285
0.00343052
0.00343815
0.00344574
0.00345327
0.00346076
0.0034682
0.00347559
0.00348294
0.00349024
0.00349749
0.0035047
0.00351186
0.00351898
0.00352605
0.00353308
0.00354006
0.003547
0.0035539
0.00356075
0.00356756
0.00357432
0.00358104
0.00358772
0.00359436
0.00360095
0.00360751
0.00361402
0.00362048
0.00362691
0.0036333
0.00363964
0.00364595
0.00365221
0.00365843
0.00366462
0.00367076
0.00367687
0.00368293
0.00368896
0.00369495
0.0037009
0.00370681
0.00371268
0.00371852
0.00372432
0.00373008
0.0037358
0.00374149
0.00374714
0.00375275
0.00375833
0.00376387
0.00376937
0.00377484
0.00378028
0.00378568
0.00379104
0.00379637
0.00380167
0.00380693
0.00381215
0.00381734
0.0038225
0.00382763
0.00383272
0.00383778
0.0038428
0.0038478
0.00385276
0.00385769
0.00386258
0.00386744
0.00387228
0.00387708
0.00388184
0.00388658
0.00389129
0.00389596
0.00390061
0.00390522
0.00390981
0.00391436
0.00391889
0.00392338
0.00392785
0.00393228
0.00393669
0.00394107
0.00394542
0.00394974
0.00395403
0.0039583
0.00396253
0.00396674
0.00397092
0.00397507
0.0039792
0.0039833
0.00398737
0.00399141
0.00399543
0.00399942
0.00400339
0.00400733
0.00401124
0.00401513
0.00401899
0.00402282
0.00402663
0.00403042
0.00403418
0.00403791
0.00404162
0.00404531
0.00404897
0.00405261
0.00405622
0.00405981
0.00406338
0.00406692
0.00407044
0.00407393
0.0040774
0.00408085
0.00408428
0.00408768
0.00409106
0.00409442
0.00409775
0.00410106
0.00410435
0.00410762
0.00411087
0.0041141
0.0041173
0.00412048
0.00412364
0.00412678
0.0041299
0.004133
0.00413608
0.00413914
0.00414218
0.00414519
0.00414819
0.00415116
0.00415412
0.00415706
0.00415998
0.00416287
0.00416575
0.00416861
0.00417145
0.00417427
0.00417707
0.00417986
0.00418262
0.00418537
0.00418809
0.0041908
0.00419349
0.00419617
0.00419882
0.00420146
0.00420408
0.00420668
0.00420926
0.00421183
0.00421438
0.00421691
0.00421943
0.00422193
0.00422441
0.00422688
0.00422933
0.00423176
0.00423417
0.00423657
0.00423896
0.00424132
0.00424368
0.00424601
0.00424833
0.00425064
0.00425293
0.0042552
0.00425746
0.0042597
0.00426193
0.00426414
0.00426634
0.00426852
0.00427069
0.00427284
0.00427498
0.00427711
0.00427922
0.00428131
0.0042834
0.00428546
0.00428752
0.00428956
0.00429158
0.0042936
0.0042956
0.00429758
0.00429955
0.00430151
0.00430346
0.00430539
0.00430731
0.00430922
0.00431111
0.00431299
0.00431486
0.00431671
0.00431856
0.00432039
0.00432221
0.00432401
0.0043258
0.00432759
0.00432936
0.00433111
0.00433286
0.00433459
0.00433631
0.00433802
0.00433972
0.00434141
0.00434309
0.00434475
0.0043464
0.00434805
0.00434968
0.0043513
0.00435291
0.0043545
0.00435609
0.00435767
0.00435923
0.00436079
0.00436233
0.00436387
0.00436539
0.00436691
0.00436841
0.0043699
0.00437139
0.00437286
0.00437432
0.00437578
0.00437722
0.00437865
0.00438008
0.00438149
0.00438289
0.00438429
0.00438568
0.00438705
0.00438842
0.00438978
0.00439113
0.00439247
0.0043938
0.00439512
0.00439643
0.00439773
0.00439903
0.00440031
0.00440159
0.00440286
0.00440412
0.00440537
0.00440661
0.00440785
0.00440907
0.00441029
0.0044115
0.0044127
0.0044139
0.00441508
0.00441626
0.00441743
0.00441859
0.00441974
0.00442089
0.00442203
0.00442316
0.00442428
0.0044254
0.0044265
0.0044276
0.0044287
0.00442978
0.00443086
0.00443193
0.004433
0.00443405
0.0044351
0.00443614
0.00443718
0.00443821
0.00443923
0.00444024
0.00444125
0.00444225
0.00444324
0.00444423
0.00444521
0.00444619
0.00444715
0.00444811
0.00444907
0.00445002
0.00445096
0.00445189
0.00445282
0.00445374
0.00445466
0.00445557
0.00445647
0.00445737
0.00445826
0.00445915
0.00446003
0.00446091
0.00446177
0.00446264
0.00446349
0.00446434
0.00446519
0.00446603
0.00446686
0.00446769
0.00446851
0.00446933
0.00447014
0.00447095
0.00447175
0.00447254
0.00447333
0.00447412
0.0044749
0.00447567
0.00447644
0.0044772
0.00447796
0.00447872
0.00447947
0.00448021
0.00448095
0.00448168
0.00448241
0.00448313
0.00448385
0.00448457
0.00448528
0.00448598
0.00448668
0.00448738
0.00448807
0.00448875
0.00448944
0.00449011
0.00449079
0.00449145
0.00449212
0.00449278
0.00449343
0.00449408
0.00449473
0.00449537
0.00449601
0.00449664
0.00449727
0.00449789
0.00449851
0.00449913
0.00449974
0.00450035
0.00450095
0.00450156
0.00450215
0.00450274
0.00450333
0.00450392
0.0045045
0.00450507
0.00450565
0.00450622
0.00450678
0.00450734
0.0045079
0.00450846
0.00450901
0.00450955
0.0045101
0.00451064
0.00451117
0
0

