-14930.3
-0.0221924
-0.00760968
-0.00336254
-0.00141458
-0.000313338
0.00038139
0.000852175
0.00118962
0.00144349
0.00164277
0.00180509
0.00194107
0.00205638
0.00215271
0.00222876
0.00228142
0.00230701
0.00230225
0.00226488
0.00219392
0.00208963
0.00195335
0.0017872
0.00159387
0.00137636
0.00113776
0.000881173
0.000609559
0.000325698
3.21394e-05
-0.000268806
-0.000575068
-0.000884819
-0.00119645
-0.00150856
-0.00181994
-0.00212955
-0.00243649
-0.00273999
-0.0030394
-0.00333415
-0.00362379
-0.00390792
-0.0041862
-0.00445838
-0.00472423
-0.00498357
-0.00523625
-0.00548218
-0.00572127
-0.00595345
-0.00617869
-0.00639696
-0.00660825
-0.00681258
-0.00700995
-0.00720038
-0.00738392
-0.0075606
-0.00773048
-0.00789362
-0.00805007
-0.00819993
-0.00834324
-0.00848011
-0.00861062
-0.00873484
-0.00885288
-0.00896483
-0.00907078
-0.00917084
-0.00926512
-0.0093537
-0.00943671
-0.00951425
-0.00958643
-0.00965337
-0.00971516
-0.00977193
-0.00982379
-0.00987086
-0.00991325
-0.00995106
-0.00998443
-0.0100135
-0.0100383
-0.010059
-0.0100757
-0.0100885
-0.0100976
-0.010103
-0.0101048
-0.0101032
-0.0100983
-0.0100902
-0.0100789
-0.0100647
-0.0100475
-0.0100275
-0.0100048
-0.00997954
-0.00995173
-0.0099215
-0.00988895
-0.00985417
-0.00981724
-0.00977825
-0.00973729
-0.00969444
-0.00964978
-0.0096034
-0.00955537
-0.00950576
-0.00945465
-0.00940211
-0.00934821
-0.00929303
-0.00923661
-0.00917904
-0.00912036
-0.00906065
-0.00899996
-0.00893835
-0.00887586
-0.00881256
-0.0087485
-0.00868372
-0.00861828
-0.00855222
-0.00848558
-0.00841841
-0.00835076
-0.00828265
-0.00821413
-0.00814523
-0.008076
-0.00800647
-0.00793667
-0.00786662
-0.00779637
-0.00772594
-0.00765537
-0.00758466
-0.00751387
-0.00744299
-0.00737208
-0.00730113
-0.00723018
-0.00715925
-0.00708835
-0.00701751
-0.00694675
-0.00687608
-0.00680551
-0.00673507
-0.00666476
-0.00659461
-0.00652463
-0.00645482
-0.0063852
-0.00631579
-0.00624659
-0.00617762
-0.00610888
-0.00604038
-0.00597213
-0.00590415
-0.00583643
-0.00576899
-0.00570183
-0.00563495
-0.00556838
-0.0055021
-0.00543613
-0.00537047
-0.00530514
-0.00524012
-0.00517543
-0.00511107
-0.00504704
-0.00498335
-0.00491999
-0.00485698
-0.0047943
-0.00473197
-0.00466999
-0.00460835
-0.00454706
-0.00448612
-0.00442554
-0.00436531
-0.00430543
-0.00424591
-0.00418674
-0.00412793
-0.00406948
-0.00401138
-0.00395363
-0.00389624
-0.0038392
-0.00378252
-0.00372619
-0.00367022
-0.00361459
-0.00355932
-0.0035044
-0.00344983
-0.00339561
-0.00334174
-0.00328822
-0.00323504
-0.0031822
-0.00312971
-0.00307756
-0.00302576
-0.00297429
-0.00292316
-0.00287237
-0.00282191
-0.00277179
-0.002722
-0.00267254
-0.00262341
-0.0025746
-0.00252612
-0.00247797
-0.00243014
-0.00238263
-0.00233544
-0.00228857
-0.00224201
-0.00219577
-0.00214984
-0.00210422
-0.00205891
-0.0020139
-0.0019692
-0.00192481
-0.00188071
-0.00183692
-0.00179342
-0.00175022
-0.00170731
-0.00166469
-0.00162237
-0.00158033
-0.00153859
-0.00149712
-0.00145594
-0.00141504
-0.00137442
-0.00133408
-0.00129402
-0.00125423
-0.00121471
-0.00117546
-0.00113648
-0.00109777
-0.00105933
-0.00102114
-0.000983224
-0.000945564
-0.000908163
-0.000871018
-0.000834128
-0.000797491
-0.000761106
-0.000724972
-0.000689084
-0.000653444
-0.000618049
-0.000582897
-0.000547986
-0.000513318
-0.000478889
-0.000444698
-0.000410741
-0.00037702
-0.000343531
-0.000310272
-0.000277241
-0.000244438
-0.000211861
-0.000179507
-0.000147376
-0.000115466
-8.37745e-05
-5.23018e-05
-2.10451e-05
9.99704e-06
4.0826e-05
7.14432e-05
0.000101849
0.000132047
0.000162038
0.000191822
0.000221402
0.000250778
0.000279954
0.000308928
0.000337704
0.000366282
0.000394665
0.000422852
0.000450846
0.000478648
0.000506259
0.000533681
0.000560915
0.000587961
0.000614823
0.0006415
0.000667994
0.000694307
0.000720439
0.000746391
0.000772166
0.000797765
0.000823187
0.000848436
0.000873511
0.000898415
0.000923148
0.000947712
0.000972107
0.000996336
0.0010204
0.0010443
0.00106803
0.0010916
0.00111502
0.00113827
0.00116136
0.00118429
0.00120707
0.00122969
0.00125216
0.00127447
0.00129663
0.00131864
0.0013405
0.00136221
0.00138377
0.00140518
0.00142645
0.00144757
0.00146855
0.00148938
0.00151008
0.00153063
0.00155104
0.00157131
0.00159145
0.00161144
0.0016313
0.00165103
0.00167062
0.00169007
0.0017094
0.00172859
0.00174765
0.00176658
0.00178538
0.00180406
0.0018226
0.00184102
0.00185932
0.00187749
0.00189554
0.00191346
0.00193126
0.00194894
0.00196651
0.00198395
0.00200127
0.00201847
0.00203556
0.00205253
0.00206939
0.00208613
0.00210276
0.00211927
0.00213568
0.00215197
0.00216815
0.00218422
0.00220018
0.00221603
0.00223178
0.00224742
0.00226295
0.00227838
0.0022937
0.00230892
0.00232403
0.00233904
0.00235395
0.00236876
0.00238347
0.00239808
0.00241259
0.002427
0.00244132
0.00245554
0.00246966
0.00248368
0.00249761
0.00251145
0.00252519
0.00253884
0.0025524
0.00256586
0.00257923
0.00259252
0.00260571
0.00261882
0.00263183
0.00264476
0.0026576
0.00267035
0.00268302
0.0026956
0.0027081
0.00272051
0.00273284
0.00274508
0.00275724
0.00276932
0.00278132
0.00279324
0.00280508
0.00281683
0.00282851
0.00284011
0.00285163
0.00286307
0.00287444
0.00288573
0.00289694
0.00290808
0.00291914
0.00293012
0.00294104
0.00295188
0.00296264
0.00297334
0.00298396
0.00299451
0.00300499
0.0030154
0.00302574
0.00303601
0.00304621
0.00305634
0.0030664
0.0030764
0.00308633
0.00309619
0.00310598
0.00311571
0.00312537
0.00313497
0.00314451
0.00315398
0.00316338
0.00317273
0.00318201
0.00319123
0.00320038
0.00320948
0.00321851
0.00322748
0.0032364
0.00324525
0.00325404
0.00326278
0.00327145
0.00328007
0.00328863
0.00329713
0.00330558
0.00331397
0.0033223
0.00333058
0.0033388
0.00334696
0.00335507
0.00336313
0.00337113
0.00337908
0.00338698
0.00339482
0.00340261
0.00341035
0.00341804
0.00342567
0.00343326
0.00344079
0.00344827
0.00345571
0.00346309
0.00347042
0.00347771
0.00348494
0.00349213
0.00349927
0.00350636
0.00351341
0.00352041
0.00352736
0.00353426
0.00354112
0.00354793
0.0035547
0.00356142
0.0035681
0.00357473
0.00358132
0.00358786
0.00359436
0.00360082
0.00360724
0.00361361
0.00361994
0.00362622
0.00363247
0.00363867
0.00364483
0.00365095
0.00365703
0.00366307
0.00366907
0.00367503
0.00368095
0.00368683
0.00369268
0.00369848
0.00370424
0.00370997
0.00371566
0.0037213
0.00372692
0.00373249
0.00373803
0.00374353
0.003749
0.00375442
0.00375982
0.00376517
0.00377049
0.00377578
0.00378103
0.00378624
0.00379142
0.00379657
0.00380168
0.00380676
0.0038118
0.00381682
0.00382179
0.00382674
0.00383165
0.00383653
0.00384138
0.00384619
0.00385098
0.00385573
0.00386045
0.00386514
0.00386979
0.00387442
0.00387902
0.00388358
0.00388812
0.00389262
0.0038971
0.00390155
0.00390596
0.00391035
0.00391471
0.00391904
0.00392334
0.00392761
0.00393186
0.00393608
0.00394027
0.00394443
0.00394856
0.00395267
0.00395675
0.0039608
0.00396482
0.00396882
0.0039728
0.00397674
0.00398066
0.00398456
0.00398843
0.00399227
0.00399609
0.00399988
0.00400365
0.0040074
0.00401111
0.00401481
0.00401848
0.00402212
0.00402575
0.00402934
0.00403292
0.00403647
0.00404
0.0040435
0.00404698
0.00405044
0.00405388
0.00405729
0.00406068
0.00406405
0.0040674
0.00407072
0.00407403
0.00407731
0.00408057
0.00408381
0.00408702
0.00409022
0.00409339
0.00409655
0.00409968
0.00410279
0.00410589
0.00410896
0.00411201
0.00411504
0.00411806
0.00412105
0.00412402
0.00412698
0.00412991
0.00413283
0.00413572
0.0041386
0.00414146
0.0041443
0.00414712
0.00414992
0.00415271
0.00415547
0.00415822
0.00416095
0.00416366
0.00416636
0.00416904
0.0041717
0.00417434
0.00417696
0.00417957
0.00418216
0.00418474
0.00418729
0.00418983
0.00419236
0.00419487
0.00419736
0.00419983
0.00420229
0.00420474
0.00420716
0.00420957
0.00421197
0.00421435
0.00421671
0.00421906
0.0042214
0.00422372
0.00422602
0.00422831
0.00423058
0.00423284
0.00423509
0.00423732
0.00423953
0.00424174
0.00424392
0.0042461
0.00424826
0.0042504
0.00425253
0.00425465
0.00425675
0.00425884
0.00426092
0.00426298
0.00426503
0.00426707
0.00426909
0.0042711
0.0042731
0.00427508
0.00427705
0.00427901
0.00428096
0.00428289
0.00428481
0.00428672
0.00428862
0.0042905
0.00429238
0.00429424
0.00429608
0.00429792
0.00429974
0.00430156
0.00430336
0.00430515
0.00430693
0.00430869
0.00431045
0.00431219
0.00431392
0.00431564
0.00431735
0.00431905
0.00432074
0.00432242
0.00432409
0.00432574
0.00432739
0.00432902
0.00433065
0.00433226
0.00433387
0.00433546
0.00433704
0.00433862
0.00434018
0.00434173
0.00434328
0.00434481
0.00434633
0.00434785
0.00434935
0.00435084
0.00435233
0.00435381
0.00435527
0.00435673
0.00435817
0.00435961
0.00436104
0.00436246
0.00436387
0.00436527
0.00436667
0.00436805
0.00436943
0.00437079
0.00437215
0.0043735
0.00437484
0.00437617
0.00437749
0.00437881
0.00438012
0.00438141
0.0043827
0.00438399
0.00438526
0.00438652
0.00438778
0.00438903
0.00439027
0.00439151
0.00439273
0.00439395
0.00439516
0.00439637
0.00439756
0.00439875
0.00439993
0.0044011
0.00440227
0.00440343
0.00440458
0.00440572
0.00440686
0.00440799
0.00440911
0.00441022
0.00441133
0.00441243
0.00441353
0.00441461
0.00441569
0.00441677
0.00441783
0.00441889
0.00441995
0.00442099
0.00442203
0.00442307
0.00442409
0.00442511
0.00442613
0.00442714
0.00442814
0.00442913
0.00443012
0.0044311
0.00443208
0.00443305
0.00443402
0.00443497
0.00443593
0.00443687
0.00443781
0.00443875
0.00443968
0.0044406
0.00444152
0.00444243
0.00444333
0.00444423
0.00444513
0.00444602
0.0044469
0.00444778
0.00444865
0.00444952
0.00445038
0.00445124
0.00445209
0.00445293
0.00445377
0.00445461
0.00445544
0.00445626
0.00445708
0.0044579
0.00445871
0.00445951
0.00446031
0.00446111
0.0044619
0.00446268
0.00446346
0.00446424
0.00446501
0.00446577
0.00446653
0.00446729
0.00446804
0.00446879
0.00446953
0.00447027
0.004471
0.00447173
0.00447245
0.00447317
0.00447389
0.0044746
0.0044753
0.00447601
0.0044767
0.0044774
0.00447809
0.00447877
0.00447945
0.00448013
0.0044808
0.00448147
0.00448213
0.00448279
0.00448345
0.0044841
0.00448475
0.00448539
0.00448603
0.00448667
0.0044873
0.00448793
0.00448856
0.00448918
0.00448979
0.00449041
0.00449102
0.00449162
0.00449222
0.00449282
0.00449342
0.00449401
0.0044946
0.00449518
0.00449576
0.00449634
0.00449691
0.00449748
0.00449805
0.00449861
0.00449917
0.00449973
0.00450028
0.00450083
0.00450138
0.00450192
0.00450246
0.00450299
0.00450353
0.00450406
0.00450458
0.00450511
0.00450563
0.00450615
0.00450666
0.00450717
0.00450768
0.00450818
0.00450869
0.00450918
0.00450968
0.00451017
0.00451066
0.00451115
0.00451163
0.00451211
0.00451259
0.00451307
0.00451354
0.00451401
0.00451448
0.00451494
0.0045154
0.00451586
0.00451632
0.00451677
0.00451722
0.00451767
0.00451811
0.00451856
0.004519
0.00451943
0.00451987
0.0045203
0.00452073
0.00452116
0.00452158
0.004522
0.00452242
0.00452284
0.00452325
0.00452367
0.00452407
0.00452448
0.00452489
0.00452529
0.00452569
0.00452609
0.00452648
0.00452687
0.00452726
0.00452765
0.00452804
0.00452842
0.0045288
0.00452918
0.00452956
0.00452993
0.00453031
0.00453068
0.00453104
0.00453141
0.00453177
0.00453214
0.0045325
0.00453285
0.00453321
0.00453356
0.00453391
0.00453426
0.00453461
0.00453495
0.0045353
0.00453564
0.00453598
0.00453632
0.00453665
0.00453698
0.00453731
0.00453764
0.00453797
0.0045383
0.00453862
0.00453894
0.00453926
0.00453958
0.0045399
0.00454021
0.00454052
0.00454083
0
0

