-0
-0
-0
-0
-0
-0
-0
-0
-0
-0
-0
-0
-0
-0
-0
-0
-0
-0
-0
-0
-0
-0
-0
-0
-0
-0
-0
-0
-0
-0
-0
-0
-0
-0
-0
-0
-0
-0
-0
-0
-0
-0
-0
-0
-0
-0
-0
-0
1.53196e-05
9.21065e-05
0.000302064
0.000718401
0.00138989
0.00232652
0.00349972
0.00485277
0.0063149
0.00781419
0.00928674
0.0106816
0.0119624
0.0131065
0.0141028
0.0149493
0.0156506
0.0162157
0.0166561
0.0169847
0.0172146
0.0173586
0.0174289
0.0174364
0.0173913
0.0173023
0.0171773
0.0170231
0.0168456
0.0166497
0.0164397
0.0162194
0.0159916
0.0157589
0.0155234
0.015287
0.0150509
0.0148163
0.0145842
0.0143552
0.01413
0.0139089
0.0136923
0.0134803
0.0132731
0.0130708
0.0128734
0.0126809
0.0124932
0.0123102
0.0121318
0.011958
0.0117885
0.0116232
0.0114621
0.0113049
0.0111515
0.0110018
0.0108556
0.0107128
0.0105732
0.0104367
0.0103032
0.0101726
0.0100447
0.0099194
0.00979664
0.0096763
0.00955829
0.0094425
0.00932884
0.00921725
0.00910763
0.00899992
0.00889404
0.00878993
0.00868753
0.00858676
0.00848759
0.00838996
0.00829381
0.0081991
0.00810579
0.00801383
0.00792318
0.00783381
0.00774568
0.00765876
0.00757301
0.00748841
0.00740493
0.00732254
0.00724121
0.00716092
0.00708165
0.00700337
0.00692607
0.00684972
0.0067743
0.0066998
0.0066262
0.00655348
0.00648163
0

