-0
-0
-0
-0
-0
-0
-0
-0
-0
-0
-0
-0
-0
-0
-0
-0
-0
-0
-0
-0
-0
-0
-0
-0
-0
-0
-0
-0
-0
-0
-0
-0
-0
-0
-0
-0
-0
-0
-0
-0
-0
-0
-0
-0
-0
-0
-0
-0
-0
3.50935e-05
0.000194693
0.000591687
0.00130928
0.00236611
0.00371446
0.00526225
0.00690188
0.00853364
0.0100792
0.0114855
0.0127235
0.0137825
0.0146653
0.0153828
0.0159505
0.0163858
0.0167061
0.0169279
0.0170662
0.0171345
0.0171443
0.0171059
0.0170278
0.0169176
0.0167813
0.0166244
0.0164513
0.0162656
0.0160705
0.0158687
0.0156622
0.0154529
0.0152422
0.0150313
0.0148211
0.0146126
0.0144062
0.0142026
0.0140019
0.0138046
0.0136108
0.0134207
0.0132344
0.0130518
0.0128731
0.0126981
0.0125269
0.0123593
0.0121954
0.0120349
0.0118779
0.0117242
0.0115737
0.0114263
0.011282
0.0111405
0.0110019
0.0108659
0.0107326
0.0106018
0.0104734
0.0103473
0.0102236
0.0101019
0.0099824
0.00986489
0.00974934
0.00963567
0.00952383
0.00941375
0.00930538
0.00919866
0.00909354
0.00898997
0.00888791
0.00878731
0.00868813
0.00859033
0.00849388
0.00839874
0.00830487
0.00821225
0.00812084
0.00803061
0.00794154
0.00785361
0.00776678
0.00768103
0.00759635
0.0075127
0.00743007
0.00734844
0.0072678
0.00718811
0.00710937
0.00703156
0.00695466
0.00687866
0.00680354
0.00672929
0.00665589
0

