-0
-0
-0
-0
-0
-0
-0
-0
-0
-0
-0
-0
-0
-0
-0
-0
-0
-0
-0
-0
-0
-0
-0
-0
-0
-0
-0
-0
-0
-0
-0
-0
-0
-0
-0
-0
-0
-0
-0
-0
-0
-0
-0
-0
-0
-0
-0
-0
-0
-0
-0
-0
0.000122996
0.000589822
0.00158038
0.00313991
0.00517929
0.00752965
0.0100025
0.0124309
0.0146887
0.0166935
0.0184014
0.0197977
0.0208889
0.0216945
0.0222417
0.0225613
0.0226846
0.022642
0.0224617
0.0221691
0.0217871
0.0213354
0.020831
0.0202886
0.0197203
0.0191365
0.0185454
0.0179541
0.017368
0.0167915
0.016228
0.0156801
0.0151498
0.0146383
0.0141466
0.0136751
0.0132239
0.0127931
0.0123822
0.011991
0.0116187
0.0112649
0.0109287
0.0106096
0.0103065
0.0100189
0.00974597
0.00948686
0.00924086
0.00900725
0.0087853
0.00857435
0.00837374
0.00818284
0.00800107
0.00782787
0.0076627
0.00750507
0.0073545
0.00721055
0.0070728
0.00694087
0.00681438
0.006693
0.0065764
0.00646429
0.00635639
0.00625243
0.00615217
0.00605539
0.00596188
0.00587143
0.00578387
0.00569902
0.00561674
0.00553685
0.00545924
0.00538378
0.00531034
0.00523881
0.00516909
0.00510108
0.0050347
0.00496986
0.00490649
0.00484451
0.00478385
0.00472445
0.00466626
0.00460922
0.00455327
0.00449837
0.00444449
0.00439156
0.00433957
0.00428846
0.00423821
0.00418878
0.00414015
0

