-0
-0
-0
-0
-0
-0
-0
-0
-0
-0
-0
-0
-0
-0
-0
-0
-0
-0
-0
-0
-0
-0
-0
-0
-0
-0
-0
-0
-0
-0
-0
-0
-0
-0
-0
-0
-0
-0
-0
-0
-0
-0
-0
-0
-0
2.88847e-05
0.00015055
0.000435746
0.000930224
0.001641
0.00254083
0.00358127
0.00470618
0.00586156
0.00700128
0.00808938
0.00910029
0.0100178
0.0108336
0.0115454
0.0121556
0.0126698
0.0130954
0.0134411
0.0137159
0.0139287
0.014088
0.0142015
0.0142763
0.0143186
0.0143338
0.0143265
0.0143008
0.0142599
0.0142067
0.0141435
0.0140722
0.0139945
0.0139116
0.0138248
0.0137348
0.0136424
0.0135482
0.0134527
0.0133563
0.0132594
0.0131621
0.0130648
0.0129677
0.0128707
0.0127742
0.0126782
0.0125827
0.0124879
0.0123938
0.0123004
0.0122078
0.012116
0.012025
0.0119348
0.0118454
0.0117569
0.0116693
0.0115825
0.0114965
0.0114113
0.011327
0.0112435
0.0111608
0.0110789
0.0109978
0.0109175
0.010838
0.0107592
0.0106811
0.0106038
0.0105272
0.0104513
0.0103761
0.0103016
0.0102278
0.0101546
0.0100821
0.0100102
0.00993894
0.00986831
0.00979827
0.00972884
0.00966
0.00959173
0.00952403
0.0094569
0.00939031
0.00932427
0.00925876
0.00919379
0.00912933
0.00906538
0.00900194
0.008939
0.00887655
0.00881458
0.0087531
0.00869208
0.00863154
0.00857145
0.00851182
0.00845264
0.00839391
0.00833561
0.00827775
0

