-0
-0
-0
-0
-0
-0
-0
-0
-0
-0
-0
-0
-0
-0
-0
-0
-0
-0
-0
-0
-0
-0
-0
-0
-0
-0
-0
-0
-0
-0
-0
-0
-0
-0
-0
-0
-0
-0
-0
-0
-0
-0
-0
-0
-0
-0
-0
-0
-0
-0
-0
-0
-0
-0
0.000439967
0.00171718
0.00384931
0.00656005
0.00949108
0.0123425
0.0149188
0.0171194
0.0189126
0.0203087
0.0213403
0.0220504
0.0224841
0.0226849
0.0226927
0.0225431
0.022267
0.0218913
0.0214388
0.0209289
0.0203777
0.019799
0.0192038
0.0186016
0.0179997
0.0174043
0.0168201
0.0162508
0.0156993
0.0151675
0.014657
0.0141687
0.0137029
0.0132599
0.0128395
0.0124413
0.0120647
0.0117091
0.0113737
0.0110575
0.0107598
0.0104795
0.0102158
0.00996767
0.00973423
0.00951457
0.00930783
0.00911317
0.00892979
0.00875692
0.00859385
0.00843989
0.0082944
0.00815678
0.00802645
0.00790289
0.0077856
0.00767412
0.00756803
0.00746692
0.00737044
0.00727823
0.00718998
0.0071054
0.00702422
0.00694618
0.00687107
0.00679867
0.00672877
0.00666121
0.00659582
0.00653244
0.00647093
0.00641116
0.00635302
0.0062964
0.00624119
0.0061873
0.00613465
0.00608316
0.00603276
0.00598337
0.00593494
0.00588742
0.00584075
0.00579488
0.00574977
0.00570537
0.00566166
0.0056186
0.00557615
0.00553429
0.00549298
0.00545221
0.00541195
0.00537218
0.00533288
0

