-14930.3
-0.0221924
-0.00760968
-0.00336254
-0.00141458
-0.000313338
0.00038139
0.000852175
0.00118962
0.00144349
0.00164277
0.00180509
0.00194026
0.00205181
0.00213851
0.00219672
0.00222263
0.00221368
0.00216922
0.00209036
0.00197957
0.0018402
0.00167599
0.00149075
0.00128812
0.00107147
0.000843818
0.000607818
0.000365768
0.00011964
-0.000128883
-0.000378383
-0.000627664
-0.000875726
-0.00112174
-0.00136502
-0.00160501
-0.00184124
-0.00207335
-0.00230104
-0.00252409
-0.00274232
-0.0029556
-0.00316385
-0.00336702
-0.00356506
-0.00375797
-0.00394577
-0.00412848
-0.00430615
-0.00447883
-0.00464658
-0.00480946
-0.00496755
-0.00512093
-0.00526967
-0.00541387
-0.00555359
-0.00568894
-0.00581999
-0.00594684
-0.00606956
-0.00618824
-0.00630298
-0.00641386
-0.00652095
-0.00662434
-0.0067241
-0.00682032
-0.00691307
-0.00700243
-0.00708846
-0.00717124
-0.00725085
-0.00732734
-0.0074008
-0.00747128
-0.00753885
-0.00760357
-0.0076655
-0.00772471
-0.00778126
-0.00783519
-0.00788658
-0.00793547
-0.00798192
-0.00802598
-0.00806771
-0.00810715
-0.00814435
-0.00817937
-0.00821225
-0.00824303
-0.00827176
-0.00829849
-0.00832326
-0.00834612
-0.00836709
-0.00838624
-0.00840358
-0.00841918
-0.00843305
-0.00844524
-0.0084558
-0.00846474
-0.00847212
-0.00847795
-0.00848229
-0.00848515
-0.00848658
-0.0084866
-0.00848525
-0.00848255
-0.00847855
-0.00847326
-0.00846671
-0.00845894
-0.00844997
-0.00843983
-0.00842855
-0.00841615
-0.00840265
-0.00838809
-0.00837249
-0.00835587
-0.00833826
-0.00831967
-0.00830014
-0.00827969
-0.00825833
-0.00823609
-0.00821299
-0.00818905
-0.00816429
-0.00813873
-0.0081124
-0.0080853
-0.00805747
-0.00802891
-0.00799965
-0.00796971
-0.0079391
-0.00790784
-0.00787594
-0.00784343
-0.00781031
-0.00777662
-0.00774235
-0.00770753
-0.00767217
-0.00763629
-0.0075999
-0.00756302
-0.00752566
-0.00748783
-0.00744955
-0.00741083
-0.00737168
-0.00733212
-0.00729216
-0.00725181
-0.00721109
-0.00717
-0.00712856
-0.00708677
-0.00704466
-0.00700223
-0.00695949
-0.00691645
-0.00687312
-0.00682952
-0.00678566
-0.00674153
-0.00669716
-0.00665256
-0.00660772
-0.00656266
-0.0065174
-0.00647193
-0.00642627
-0.00638043
-0.00633441
-0.00628823
-0.00624188
-0.00619539
-0.00614875
-0.00610197
-0.00605506
-0.00600804
-0.0059609
-0.00591365
-0.0058663
-0.00581885
-0.00577132
-0.00572371
-0.00567603
-0.00562827
-0.00558046
-0.0055326
-0.00548468
-0.00543672
-0.00538873
-0.0053407
-0.00529264
-0.00524457
-0.00519647
-0.00514837
-0.00510025
-0.00505214
-0.00500402
-0.00495592
-0.00490782
-0.00485975
-0.00481169
-0.00476366
-0.00471566
-0.00466769
-0.00461976
-0.00457187
-0.00452402
-0.00447623
-0.00442849
-0.0043808
-0.00433317
-0.00428561
-0.00423812
-0.00419069
-0.00414334
-0.00409607
-0.00404887
-0.00400176
-0.00395474
-0.0039078
-0.00386095
-0.0038142
-0.00376755
-0.003721
-0.00367455
-0.0036282
-0.00358196
-0.00353583
-0.00348982
-0.00344391
-0.00339813
-0.00335246
-0.00330692
-0.00326149
-0.0032162
-0.00317103
-0.00312598
-0.00308107
-0.0030363
-0.00299165
-0.00294715
-0.00290278
-0.00285855
-0.00281446
-0.00277051
-0.00272671
-0.00268305
-0.00263954
-0.00259618
-0.00255297
-0.00250991
-0.002467
-0.00242424
-0.00238164
-0.0023392
-0.00229691
-0.00225478
-0.0022128
-0.00217099
-0.00212934
-0.00208785
-0.00204652
-0.00200536
-0.00196436
-0.00192352
-0.00188285
-0.00184235
-0.00180202
-0.00176185
-0.00172185
-0.00168202
-0.00164236
-0.00160287
-0.00156355
-0.0015244
-0.00148542
-0.00144662
-0.00140799
-0.00136953
-0.00133124
-0.00129313
-0.00125519
-0.00121743
-0.00117984
-0.00114242
-0.00110518
-0.00106812
-0.00103123
-0.000994515
-0.000957978
-0.000921616
-0.00088543
-0.00084942
-0.000813587
-0.00077793
-0.000742448
-0.000707143
-0.000672015
-0.000637062
-0.000602286
-0.000567686
-0.000533263
-0.000499015
-0.000464943
-0.000431047
-0.000397326
-0.000363781
-0.000330412
-0.000297218
-0.000264199
-0.000231354
-0.000198685
-0.00016619
-0.000133869
-0.000101722
-6.97481e-05
-3.79478e-05
-6.3209e-06
2.51326e-05
5.64142e-05
8.75238e-05
0.000118461
0.000149227
0.000179822
0.000210245
0.000240499
0.000270582
0.000300495
0.000330239
0.000359814
0.000389221
0.000418459
0.00044753
0.000476434
0.000505171
0.000533741
0.000562146
0.000590385
0.000618459
0.000646368
0.000674114
0.000701696
0.000729115
0.000756371
0.000783465
0.000810398
0.000837169
0.00086378
0.000890231
0.000916523
0.000942656
0.000968631
0.000994448
0.00102011
0.00104561
0.00107096
0.00109615
0.00112119
0.00114607
0.0011708
0.00119537
0.0012198
0.00124407
0.00126819
0.00129216
0.00131598
0.00133964
0.00136317
0.00138654
0.00140976
0.00143284
0.00145577
0.00147855
0.00150119
0.00152369
0.00154604
0.00156825
0.00159031
0.00161223
0.00163401
0.00165565
0.00167715
0.00169851
0.00171974
0.00174082
0.00176176
0.00178257
0.00180324
0.00182378
0.00184418
0.00186445
0.00188458
0.00190458
0.00192445
0.00194418
0.00196379
0.00198326
0.00200261
0.00202182
0.00204091
0.00205986
0.00207869
0.0020974
0.00211598
0.00213443
0.00215276
0.00217096
0.00218904
0.002207
0.00222483
0.00224254
0.00226014
0.00227761
0.00229496
0.0023122
0.00232931
0.00234631
0.00236319
0.00237996
0.0023966
0.00241314
0.00242956
0.00244586
0.00246205
0.00247813
0.0024941
0.00250996
0.0025257
0.00254134
0.00255686
0.00257228
0.00258759
0.00260279
0.00261789
0.00263288
0.00264776
0.00266253
0.00267721
0.00269178
0.00270624
0.0027206
0.00273487
0.00274902
0.00276308
0.00277704
0.0027909
0.00280466
0.00281832
0.00283188
0.00284535
0.00285872
0.00287199
0.00288517
0.00289825
0.00291124
0.00292413
0.00293693
0.00294964
0.00296226
0.00297478
0.00298721
0.00299956
0.00301181
0.00302397
0.00303605
0.00304804
0.00305994
0.00307175
0.00308348
0.00309512
0.00310667
0.00311814
0.00312953
0.00314083
0.00315205
0.00316318
0.00317424
0.00318521
0.0031961
0.00320691
0.00321764
0.0032283
0.00323887
0.00324936
0.00325978
0.00327012
0.00328038
0.00329056
0.00330067
0.00331071
0.00332067
0.00333055
0.00334036
0.0033501
0.00335976
0.00336935
0.00337887
0.00338832
0.00339769
0.003407
0.00341623
0.0034254
0.0034345
0.00344352
0.00345248
0.00346138
0.0034702
0.00347896
0.00348765
0.00349628
0.00350484
0.00351333
0.00352177
0.00353013
0.00353844
0.00354668
0.00355485
0.00356297
0.00357102
0.00357902
0.00358695
0.00359482
0.00360263
0.00361038
0.00361807
0.0036257
0.00363327
0.00364078
0.00364824
0.00365564
0.00366298
0.00367027
0.0036775
0.00368467
0.00369179
0.00369885
0.00370586
0.00371282
0.00371972
0.00372657
0.00373336
0.00374011
0.0037468
0.00375344
0.00376002
0.00376656
0.00377304
0.00377948
0.00378586
0.0037922
0.00379849
0.00380472
0.00381091
0.00381705
0.00382314
0.00382919
0.00383519
0.00384114
0.00384704
0.0038529
0.00385871
0.00386448
0.0038702
0.00387588
0.00388151
0.00388709
0.00389264
0.00389814
0.0039036
0.00390901
0.00391438
0.00391971
0.003925
0.00393025
0.00393545
0.00394061
0.00394574
0.00395082
0.00395586
0.00396087
0.00396583
0.00397075
0.00397564
0.00398049
0.0039853
0.00399007
0.0039948
0.0039995
0.00400415
0.00400877
0.00401336
0.00401791
0.00402242
0.0040269
0.00403134
0.00403574
0.00404012
0.00404445
0.00404875
0.00405302
0.00405726
0.00406146
0.00406562
0.00406976
0.00407386
0.00407793
0.00408196
0.00408597
0.00408994
0.00409388
0.00409779
0.00410166
0.00410551
0.00410933
0.00411311
0.00411687
0.00412059
0.00412429
0.00412795
0.00413159
0.0041352
0.00413878
0.00414233
0.00414585
0.00414934
0.00415281
0.00415625
0.00415966
0.00416304
0.0041664
0.00416973
0.00417303
0.0041763
0.00417955
0.00418278
0.00418598
0.00418915
0.00419229
0.00419542
0.00419851
0.00420158
0.00420463
0.00420765
0.00421065
0.00421362
0.00421658
0.0042195
0.0042224
0.00422528
0.00422814
0.00423097
0.00423378
0.00423657
0.00423934
0.00424208
0.0042448
0.0042475
0.00425018
0.00425284
0.00425547
0.00425808
0.00426068
0.00426325
0.0042658
0.00426833
0.00427084
0.00427333
0.0042758
0.00427825
0.00428068
0.00428309
0.00428548
0.00428785
0.0042902
0.00429254
0.00429485
0.00429715
0.00429943
0.00430168
0.00430393
0.00430615
0.00430835
0.00431054
0.00431271
0.00431486
0.004317
0.00431911
0.00432122
0.0043233
0.00432536
0.00432741
0.00432945
0.00433147
0.00433347
0.00433545
0.00433742
0.00433937
0.00434131
0.00434323
0.00434514
0.00434703
0.0043489
0.00435076
0.00435261
0.00435444
0.00435625
0.00435805
0.00435984
0.00436161
0.00436337
0.00436511
0.00436684
0.00436856
0.00437026
0.00437195
0.00437362
0.00437528
0.00437693
0.00437856
0.00438018
0.00438179
0.00438339
0.00438497
0.00438654
0.00438809
0.00438964
0.00439117
0.00439269
0.0043942
0.00439569
0.00439717
0.00439864
0.0044001
0.00440155
0.00440299
0.00440441
0.00440582
0.00440722
0.00440861
0.00440999
0.00441136
0.00441272
0.00441406
0.0044154
0.00441672
0.00441804
0.00441934
0.00442063
0.00442192
0.00442319
0.00442445
0.0044257
0.00442694
0.00442817
0.0044294
0.00443061
0.00443181
0.004433
0.00443419
0.00443536
0.00443653
0.00443768
0.00443883
0.00443996
0.00444109
0.00444221
0.00444332
0.00444442
0.00444551
0.00444659
0.00444767
0.00444873
0.00444979
0.00445084
0.00445188
0.00445291
0.00445394
0.00445495
0.00445596
0.00445696
0.00445795
0.00445894
0.00445991
0.00446088
0.00446184
0.0044628
0.00446374
0.00446468
0.00446561
0.00446653
0.00446745
0.00446836
0.00446926
0.00447015
0.00447104
0.00447192
0.00447279
0.00447366
0.00447452
0.00447537
0.00447622
0.00447706
0.00447789
0.00447872
0.00447954
0.00448035
0.00448116
0.00448196
0.00448275
0.00448354
0.00448432
0.00448509
0.00448586
0.00448663
0.00448738
0.00448814
0.00448888
0.00448962
0.00449035
0.00449108
0.00449181
0.00449252
0.00449323
0.00449394
0.00449464
0.00449533
0.00449602
0.00449671
0.00449738
0.00449806
0.00449873
0.00449939
0.00450005
0.0045007
0.00450135
0.00450199
0.00450263
0.00450326
0.00450389
0.00450451
0.00450513
0.00450574
0.00450635
0.00450695
0.00450755
0.00450814
0.00450873
0.00450932
0.0045099
0.00451048
0.00451105
0.00451161
0.00451218
0.00451274
0.00451329
0.00451384
0.00451439
0.00451493
0.00451547
0.004516
0.00451653
0.00451705
0.00451758
0.00451809
0.00451861
0.00451912
0.00451962
0.00452012
0.00452062
0.00452112
0.00452161
0.00452209
0.00452258
0.00452305
0.00452353
0.004524
0.00452447
0.00452494
0.0045254
0.00452586
0.00452631
0.00452676
0.00452721
0.00452765
0.00452809
0.00452853
0.00452897
0.0045294
0.00452983
0.00453025
0.00453067
0.00453109
0.00453151
0.00453192
0.00453233
0.00453273
0.00453314
0.00453354
0.00453393
0.00453433
0.00453472
0.00453511
0.00453549
0.00453588
0.00453626
0.00453663
0.00453701
0.00453738
0.00453775
0.00453811
0.00453848
0.00453884
0.0045392
0.00453955
0.0045399
0.00454026
0.0045406
0.00454095
0.00454129
0.00454163
0.00454197
0.0045423
0.00454264
0.00454297
0.0045433
0.00454362
0.00454394
0.00454427
0.00454458
0.0045449
0.00454521
0.00454553
0.00454584
0.00454614
0.00454645
0.00454675
0.00454705
0.00454735
0.00454765
0.00454794
0.00454823
0.00454852
0.00454881
0.0045491
0.00454938
0.00454967
0.00454995
0.00455022
0.0045505
0.00455077
0.00455105
0.00455132
0.00455159
0.00455185
0.00455212
0.00455238
0.00455264
0.0045529
0.00455316
0.00455341
0.00455367
0.00455392
0.00455417
0.00455442
0.00455467
0.00455491
0.00455515
0.0045554
0.00455564
0.00455587
0.00455611
0.00455635
0.00455658
0.00455681
0.00455704
0.00455727
0.0045575
0.00455772
0.00455795
0.00455817
0.00455839
0.00455861
0.00455883
0.00455905
0.00455926
0.00455948
0.00455969
0.0045599
0
0

