-0
-0
-0
-0
-0
-0
-0
-0
-0
-0
-0
-0
-0
-0
-0
-0
-0
-0
-0
-0
-0
-0
-0
-0
-0
-0
-0
-0
-0
-0
-0
-0
-0
-0
-0
-0
-0
-0
-0
-0
-0
-0
-0
-0
-0
-0
-0
-0
-0
-0
-0
6.67437e-05
0.00035007
0.00101102
0.0021359
0.0037003
0.00558859
0.00764076
0.0096981
0.0116328
0.0133593
0.0148331
0.0160419
0.0169957
0.0177175
0.0182363
0.0185826
0.0187853
0.0188704
0.0188606
0.018775
0.0186297
0.0184379
0.0182104
0.0179563
0.0176826
0.0173952
0.0170988
0.0167973
0.0164938
0.0161905
0.0158895
0.0155923
0.0153001
0.0150137
0.0147337
0.0144607
0.0141949
0.0139366
0.0136858
0.0134424
0.0132065
0.0129779
0.0127565
0.012542
0.0123343
0.0121331
0.0119382
0.0117493
0.0115663
0.0113887
0.0112165
0.0110494
0.0108871
0.0107295
0.0105762
0.0104271
0.010282
0.0101407
0.0100031
0.00986885
0.00973791
0.0096101
0.00948526
0.00936326
0.00924398
0.00912727
0.00901304
0.00890115
0.00879153
0.00868406
0.00857865
0.00847522
0.00837369
0.00827398
0.00817602
0.00807975
0.00798509
0.00789199
0.0078004
0.00771026
0.00762152
0.00753413
0.00744806
0.00736326
0.0072797
0.00719733
0.00711612
0.00703604
0.00695705
0.00687914
0.00680227
0.00672641
0.00665154
0.00657765
0.00650469
0.00643266
0.00636154
0.0062913
0.00622193
0.0061534
0

