-0
-0
-0
-0
-0
-0
-0
-0
-0
-0
-0
-0
-0
-0
-0
-0
-0
-0
-0
-0
-0
-0
-0
-0
-0
-0
-0
-0
-0
-0
-0
-0
-0
-0
-0
-0
-0
-0
-0
-0
-0
-0
-0
-0
-0
-0
-0
-0
-0
-0
-0
-0
0.000211512
0.000887262
0.00212317
0.00383976
0.00586472
0.00801453
0.0101388
0.0121332
0.0139349
0.0155135
0.0168602
0.0179805
0.018888
0.0196007
0.020138
0.0205199
0.0207653
0.0208918
0.0209157
0.0208517
0.0207129
0.0205108
0.0202558
0.0199569
0.0196221
0.0192582
0.0188714
0.0184668
0.0180492
0.0176223
0.0171896
0.0167542
0.0163183
0.0158843
0.0154539
0.0150287
0.0146099
0.0141986
0.0137956
0.0134017
0.0130174
0.0126431
0.0122792
0.0119257
0.011583
0.011251
0.0109297
0.010619
0.0103189
0.0100292
0.00974971
0.00948023
0.00922055
0.00897041
0.00872957
0.00849775
0.00827468
0.00806008
0.00785366
0.00765515
0.00746426
0.0072807
0.00710421
0.0069345
0.00677131
0.00661438
0.00646344
0.00631825
0.00617857
0.00604415
0.00591477
0.00579021
0.00567026
0.00555471
0.00544336
0.00533602
0.00523252
0.00513267
0.00503631
0.00494327
0.00485341
0.00476658
0.00468263
0.00460143
0.00452286
0.00444679
0.0043731
0.00430169
0.00423245
0.00416528
0.00410009
0.00403678
0.00397526
0.00391546
0.0038573
0.00380071
0.00374561
0.00369193
0.00363962
0

