-0
-0
-0
-0
-0
-0
-0
-0
-0
-0
-0
-0
-0
-0
-0
-0
-0
-0
-0
-0
-0
-0
-0
-0
-0
-0
-0
-0
-0
-0
-0
-0
-0
-0
-0
-0
-0
-0
-0
4.5379e-06
2.78369e-05
9.32862e-05
0.000227198
0.000451298
0.000777806
0.0012082
0.00173479
0.00234352
0.00301693
0.0037365
0.00448436
0.00524419
0.0060018
0.0067452
0.00746459
0.0081522
0.0088021
0.00940999
0.009973
0.0104895
0.0109588
0.0113814
0.0117581
0.0120907
0.0123811
0.0126318
0.0128453
0.0130243
0.0131716
0.01329
0.0133821
0.0134506
0.0134978
0.0135261
0.0135376
0.0135343
0.013518
0.0134902
0.0134526
0.0134063
0.0133527
0.0132926
0.0132272
0.0131571
0.0130832
0.013006
0.0129262
0.0128442
0.0127604
0.0126753
0.012589
0.012502
0.0124145
0.0123266
0.0122386
0.0121506
0.0120626
0.011975
0.0118876
0.0118006
0.0117142
0.0116282
0.0115428
0.011458
0.0113738
0.0112903
0.0112075
0.0111254
0.0110439
0.0109632
0.0108832
0.0108038
0.0107252
0.0106473
0.0105701
0.0104935
0.0104177
0.0103425
0.0102681
0.0101942
0.0101211
0.0100486
0.00997668
0.00990542
0.00983479
0.00976477
0.00969536
0.00962653
0.00955829
0.00949062
0.00942352
0.00935698
0.00929099
0.00922554
0.00916062
0.00909623
0.00903236
0.008969
0.00890615
0.00884379
0.00878193
0.00872054
0.00865964
0.00859921
0.00853924
0.00847973
0.00842068
0.00836207
0.00830391
0.00824619
0.0081889
0

