-0
-0
-0
-0
-0
-0
-0
-0
-0
-0
-0
-0
-0
-0
-0
-0
-0
-0
-0
-0
-0
-0
-0
-0
-0
-0
-0
-0
-0
-0
-0
-0
2.13535e-06
1.33958e-05
4.58833e-05
0.000114172
0.000231643
0.000407697
0.000646614
0.000947833
0.00130702
0.00171739
0.00217083
0.00265887
0.00317323
0.00370621
0.00425087
0.00480106
0.00535139
0.0058972
0.00643449
0.0069598
0.00747014
0.00796299
0.00843618
0.00888787
0.00931656
0.00972102
0.0101003
0.0104537
0.0107808
0.0110814
0.0113556
0.0116037
0.0118261
0.0120236
0.0121969
0.0123471
0.0124752
0.0125826
0.0126704
0.01274
0.0127928
0.01283
0.0128529
0.012863
0.0128614
0.0128492
0.0128277
0.0127979
0.0127607
0.0127171
0.0126678
0.0126137
0.0125554
0.0124935
0.0124287
0.0123613
0.0122918
0.0122206
0.012148
0.0120744
0.012
0.0119249
0.0118495
0.0117738
0.0116981
0.0116223
0.0115467
0.0114713
0.0113962
0.0113214
0.0112469
0.0111729
0.0110994
0.0110263
0.0109537
0.0108816
0.01081
0.0107389
0.0106684
0.0105983
0.0105288
0.0104598
0.0103913
0.0103233
0.0102558
0.0101889
0.0101224
0.0100563
0.0099908
0.00992573
0.00986112
0.00979698
0.00973328
0.00967002
0.00960721
0.00954483
0.00948287
0.00942133
0.00936022
0.00929951
0.0092392
0.0091793
0.0091198
0.00906068
0.00900196
0.00894362
0.00888566
0.00882807
0.00877086
0.00871401
0.00865754
0.00860142
0.00854566
0.00849027
0.00843522
0.00838053
0.00832618
0.00827218
0.00821852
0

