70
0.000116042
5.23555e-05
3.48594e-05
2.71229e-05
2.28197e-05
2.01147e-05
1.82757e-05
1.6947e-05
1.59373e-05
1.51358e-05
1.4475e-05
1.19234e-05
6.42555e-07
-3.17397e-05
-0.000100883
-0.000221979
-0.00040645
-0.000660167
-0.000983257
-0.00137099
-0.00181516
-0.00230549
-0.00283091
-0.00338039
-0.00394361
-0.00451132
-0.00507549
-0.0056294
-0.00616755
-0.00668558
-0.00718015
-0.00764883
-0.00808995
-0.00850248
-0.00888591
-0.00924019
-0.0095656
-0.00986273
-0.0101324
-0.0103754
-0.010593
-0.0107862
-0.0109563
-0.0111045
-0.0112321
-0.0113402
-0.0114301
-0.011503
-0.01156
-0.0116022
-0.0116307
-0.0116466
-0.0116507
-0.011644
-0.0116275
-0.0116018
-0.0115677
-0.0115261
-0.0114775
-0.0114226
-0.011362
-0.0112963
-0.0112259
-0.0111513
-0.011073
-0.0109914
-0.0109069
-0.0108198
-0.0107304
-0.010639
-0.010546
-0.0104516
-0.0103559
-0.0102593
-0.0101618
-0.0100638
-0.00996524
-0.00986643
-0.00976745
-0.00966841
-0.00956945
-0.00947065
-0.0093721
-0.00927389
-0.0091761
-0.00907878
-0.008982
-0.00888582
-0.00879026
-0.00869539
-0.00860123
-0.00850782
-0.00841518
-0.00832335
-0.00823233
-0.00814215
-0.00805282
-0.00796435
-0.00787676
-0.00779004
-0.00770421
-0.00761928
-0.00753523
-0.00745208
-0.00736982
-0.00728845
-0.00720797
-0.00712838
-0.00704966
-0.00697182
-0.00689485
-0.00681875
-0.0067435
-0.0066691
-0.00659554
-0.00652282
-0.00645092
-0.00637985
-0.00630958
-0.00624011
-0.00617144
-0.00610355
-0.00603644
-0.00597009
-0.0059045
-0.00583965
-0.00577555
-0.00571218
-0.00564952
-0.00558759
-0.00552635
-0.00546581
-0.00540596
-0.00534679
-0.00528828
-0.00523044
-0.00517325
-0.00511671
-0.00506081
-0.00500553
-0.00495088
-0.00489684
-0.0048434
-0.00479057
-0.00473833
-0.00468667
-0.00463559
-0.00458507
-0.00453513
-0.00448573
-0.00443689
-0.00438859
-0.00434083
-0.0042936
-0.00424689
-0.00420069
-0.00415501
-0.00410983
-0.00406516
-0.00402097
-0.00397727
-0.00393406
-0.00389132
-0.00384905
-0.00380724
-0.00376589
-0.003725
-0.00368456
-0.00364456
-0.003605
-0.00356587
-0.00352717
-0.00348889
-0.00345104
-0.00341359
-0.00337656
-0.00333993
-0.0033037
-0.00326786
-0.00323242
-0.00319736
-0.00316269
-0.00312839
-0.00309447
-0.00306091
-0.00302773
-0.0029949
-0.00296243
-0.00293031
-0.00289855
-0.00286712
-0.00283604
-0.0028053
-0.00277489
-0.00274481
-0.00271506
-0.00268564
-0.00265653
-0.00262773
-0.00259925
-0.00257108
-0.00254322
-0.00251566
-0.00248839
-0.00246142
-0.00243475
-0.00240836
-0.00238226
-0.00235645
-0.00233091
-0.00230565
-0.00228066
-0.00225595
-0.0022315
-0.00220732
-0.0021834
-0.00215974
-0.00213633
-0.00211318
-0.00209028
-0.00206763
-0.00204522
-0.00202306
-0.00200113
-0.00197945
-0.00195799
-0.00193678
-0.00191579
-0.00189502
-0.00187449
-0.00185417
-0.00183408
-0.0018142
-0.00179454
-0.00177509
-0.00175585
-0.00173682
-0.001718
-0.00169938
-0.00168096
-0.00166274
-0.00164472
-0.00162689
-0.00160926
-0.00159181
-0.00157456
-0.00155749
-0.00154061
-0.00152391
-0.00150739
-0.00149105
-0.00147489
-0.0014589
-0.00144309
-0.00142744
-0.00141197
-0.00139666
-0.00138152
-0.00136654
-0.00135173
-0.00133707
-0.00132258
-0.00130824
-0.00129405
-0.00128002
-0.00126614
-0.00125241
-0.00123884
-0.0012254
-0.00121211
-0.00119897
-0.00118597
-0.00117311
-0.00116039
-0.0011478
-0.00113536
-0.00112304
-0.00111086
-0.00109882
-0.0010869
-0.00107511
-0.00106345
-0.00105192
-0.00104051
-0.00102922
-0.00101806
-0.00100701
-0.00099609
-0.000985285
-0.000974597
-0.000964024
-0.000953566
-0.000943221
-0.000932987
-0.000922865
-0.000912852
-0.000902949
-0.000893151
-0.00088346
-0.000873874
-0.000864391
-0.000855012
-0.000845733
-0.000836555
-0.000827476
-0.000818496
-0.000809613
-0.000800826
-0.000792134
-0.000783536
-0.000775031
-0.000766618
-0.000758297
-0.000750065
-0.000741923
-0.000733868
-0.000725901
-0.00071802
-0.000710224
-0.000702513
-0.000694885
-0.000687339
-0.000679876
-0.000672493
-0.00066519
-0.000657966
-0.00065082
-0.000643752
-0.000636759
-0.000629843
-0.000623001
-0.000616234
-0.00060954
-0.000602918
-0.000596368
-0.000589889
-0.000583479
-0.00057714
-0.000570868
-0.000564665
-0.000558529
-0.000552459
-0.000546455
-0.000540515
-0.000534641
-0.00052883
-0.000523081
-0.000517395
-0.00051177
-0.000506206
-0.000500702
-0.000495258
-0.000489873
-0.000484546
-0.000479277
-0.000474064
-0.000468908
-0.000463808
-0.000458763
-0.000453773
-0.000448837
-0.000443954
-0.000439123
-0.000434345
-0.00042962
-0.000424944
-0.00042032
-0.000415745
-0.00041122
-0.000406744
-0.000402316
-0.000397937
-0.000393604
-0.000389319
-0.00038508
-0.000380887
-0.000376739
-0.000372636
-0.000368577
-0.000364562
-0.000360591
-0.000356662
-0.000352777
-0.000348933
-0.000345131
-0.00034137
-0.000337649
-0.000333969
-0.000330328
-0.000326727
-0.000323165
-0.000319642
-0.000316156
-0.000312709
-0.000309298
-0.000305924
-0.000302588
-0.000299286
-0.000296021
-0.000292791
-0.000289596
-0.000286435
-0.00028331
-0.000280216
-0.000277157
-0.000274131
-0.000271138
-0.000268177
-0.000265249
-0.000262351
-0.000259485
-0.00025665
-0.000253846
-0.000251072
-0.000248328
-0.000245614
-0.000242929
-0.000240273
-0.000237646
-0.000235047
-0.000232476
-0.000229934
-0.000227419
-0.00022493
-0.000222469
-0.000220034
-0.000217626
-0.000215243
-0.000212887
-0.000210556
-0.00020825
-0.000205969
-0.000203712
-0.00020148
-0.000199273
-0.000197088
-0.000194928
-0.000192791
-0.000190677
-0.000188587
-0.000186518
-0.000184472
-0.000182448
-0.000180446
-0.000178465
-0.000176506
-0.000174568
-0.000172652
-0.000170755
-0.000168879
-0.000167024
-0.000165189
-0.000163373
-0.000161577
-0.0001598
-0.000158043
-0.000156305
-0.000154585
-0.000152884
-0.000151201
-0.000149537
-0.00014789
-0.000146262
-0.000144651
-0.000143057
-0.000141481
-0.000139921
-0.000138379
-0.000136852
-0.000135343
-0.00013385
-0.000132373
-0.000130912
-0.000129467
-0.000128037
-0.000126623
-0.000125224
-0.00012384
-0.000122471
-0.000121117
-0.000119778
-0.000118452
-0.000117142
-0.000115845
-0.000114563
-0.000113295
-0.000112039
-0.000110798
-0.00010957
-0.000108355
-0.000107153
-0.000105965
-0.000104789
-0.000103626
-0.000102476
-0.000101337
-0.000100211
-9.90976e-05
-9.79955e-05
-9.69063e-05
-9.58283e-05
-9.47618e-05
-9.37066e-05
-9.26635e-05
-9.16311e-05
-9.061e-05
-8.95996e-05
-8.86006e-05
-8.76122e-05
-8.66344e-05
-8.56674e-05
-8.4711e-05
-8.37645e-05
-8.2828e-05
-8.19021e-05
-8.09862e-05
-8.00796e-05
-7.91835e-05
-7.82968e-05
-7.74192e-05
-7.65516e-05
-7.56933e-05
-7.48442e-05
-7.40043e-05
-7.31737e-05
-7.23515e-05
-7.15387e-05
-7.07343e-05
-6.99392e-05
-6.91519e-05
-6.83731e-05
-6.76036e-05
-6.68419e-05
-6.6088e-05
-6.53426e-05
-6.4605e-05
-6.3876e-05
-6.31541e-05
-6.244e-05
-6.17344e-05
-6.10359e-05
-6.03445e-05
-5.9661e-05
-5.89853e-05
-5.83166e-05
-5.76544e-05
-5.7e-05
-5.63526e-05
-5.57124e-05
-5.50786e-05
-5.44519e-05
-5.38323e-05
-5.32191e-05
-5.26123e-05
-5.20118e-05
-5.14185e-05
-5.08309e-05
-5.02504e-05
-4.96755e-05
-4.91071e-05
-4.85443e-05
-4.79887e-05
-4.7438e-05
-4.68937e-05
-4.63551e-05
-4.58229e-05
-4.52957e-05
-4.47741e-05
-4.4259e-05
-4.37488e-05
-4.32443e-05
-4.27448e-05
-4.22509e-05
-4.17628e-05
-4.12796e-05
-4.08014e-05
-4.03289e-05
-3.98606e-05
-3.9398e-05
-3.89404e-05
-3.84878e-05
-3.80402e-05
-3.75968e-05
-3.71584e-05
-3.67249e-05
-3.62957e-05
-3.58715e-05
-3.54516e-05
-3.50366e-05
-3.46259e-05
-3.42195e-05
-3.38173e-05
-3.34201e-05
-3.30265e-05
-3.26378e-05
-3.22527e-05
-3.18718e-05
-3.14952e-05
-3.11229e-05
-3.07541e-05
-3.03896e-05
-3.00286e-05
-2.96719e-05
-2.93188e-05
-2.89699e-05
-2.86246e-05
-2.82828e-05
-2.79446e-05
-2.76099e-05
-2.72795e-05
-2.69519e-05
-2.66286e-05
-2.63082e-05
-2.59913e-05
-2.56779e-05
-2.53681e-05
-2.50611e-05
-2.47577e-05
-2.44579e-05
-2.41609e-05
-2.38674e-05
-2.35768e-05
-2.32897e-05
-2.30055e-05
-2.27241e-05
-2.24456e-05
-2.21706e-05
-2.18984e-05
-2.16291e-05
-2.13627e-05
-2.10991e-05
-2.08383e-05
-2.05804e-05
-2.03253e-05
-2.00723e-05
-1.98229e-05
-1.95756e-05
-1.93312e-05
-1.90896e-05
-1.88502e-05
-1.86142e-05
-1.83798e-05
-1.81481e-05
-1.79193e-05
-1.76927e-05
-1.74688e-05
-1.72471e-05
-1.70276e-05
-1.68109e-05
-1.65956e-05
-1.63838e-05
-1.61735e-05
-1.59653e-05
-1.57599e-05
-1.55567e-05
-1.53556e-05
-1.51567e-05
-1.49599e-05
-1.47645e-05
-1.45719e-05
-1.43815e-05
-1.41932e-05
-1.40063e-05
-1.38215e-05
-1.36389e-05
-1.34584e-05
-1.32801e-05
-1.31032e-05
-1.29284e-05
-1.27557e-05
-1.25845e-05
-1.24153e-05
-1.22477e-05
-1.20821e-05
-1.1918e-05
-1.1756e-05
-1.15954e-05
-1.14369e-05
-1.12799e-05
-1.1125e-05
-1.09708e-05
-1.08187e-05
-1.06688e-05
-1.05203e-05
-1.03732e-05
-1.02275e-05
-1.00833e-05
-9.94119e-06
-9.79979e-06
-9.66052e-06
-9.52267e-06
-9.38625e-06
-9.25124e-06
-9.11765e-06
-8.98549e-06
-8.85475e-06
-8.72543e-06
-8.59753e-06
-8.47105e-06
-8.34599e-06
-8.22235e-06
-8.10014e-06
-7.97863e-06
-7.85855e-06
-7.73988e-06
-7.62264e-06
-7.50682e-06
-7.39171e-06
-7.27802e-06
-7.16575e-06
-7.05491e-06
-6.94477e-06
-6.83606e-06
-6.72805e-06
-6.62218e-06
-6.51631e-06
-6.41256e-06
-6.30882e-06
-6.20721e-06
-6.10631e-06
-6.00613e-06
-5.90736e-06
-5.81001e-06
-5.71338e-06
-5.61745e-06
-5.52295e-06
-5.42915e-06
-5.33678e-06
-5.24512e-06
-5.15488e-06
-5.06535e-06
-4.97653e-06
-4.88842e-06
-4.80173e-06
-4.71575e-06
-4.6312e-06
-4.54664e-06
-4.46351e-06
-4.38179e-06
-4.30008e-06
-4.21979e-06
-4.1402e-06
-4.06133e-06
-3.98317e-06
-3.90643e-06
-3.82969e-06
-3.75437e-06
-3.67976e-06
-3.60586e-06
-3.53268e-06
-3.4602e-06
-3.38914e-06
-3.31809e-06
-3.24845e-06
-3.17882e-06
-3.11061e-06
-3.04239e-06
-2.9756e-06
-2.90881e-06
-2.84344e-06
-2.77878e-06
-2.71412e-06
-2.65088e-06
-2.58764e-06
-2.52582e-06
-2.464e-06
-2.40289e-06
-2.3432e-06
-2.28352e-06
-2.22454e-06
-2.16628e-06
-2.10801e-06
-2.05117e-06
-1.99503e-06
-1.9389e-06
-1.88347e-06
-1.82876e-06
-1.77476e-06
-1.72147e-06
-1.66818e-06
-1.61559e-06
-1.56372e-06
-1.51256e-06
-1.46211e-06
-1.41166e-06
-1.36193e-06
-1.3129e-06
-1.26458e-06
-1.21626e-06
-1.16865e-06
-1.12176e-06
-1.07486e-06
-1.02867e-06
-9.83199e-07
-9.38434e-07
-8.93669e-07
-8.49614e-07
-8.0556e-07
-7.62216e-07
-7.19582e-07
-6.77659e-07
-6.35736e-07
-5.93814e-07
-5.53312e-07
-5.1281e-07
-4.72308e-07
-4.33228e-07
-3.93437e-07
-3.55066e-07
-3.16696e-07
-2.78326e-07
-2.40667e-07
-2.03718e-07
-1.66769e-07
-1.3053e-07
-9.42921e-08
-5.87642e-08
-2.32364e-08
1.15809e-08
4.56876e-08
8.05049e-08
1.13901e-07
1.47297e-07
1.80693e-07
2.13379e-07
2.45354e-07
2.77329e-07
3.09304e-07
3.40569e-07
3.71833e-07
4.02387e-07
4.32941e-07
4.62785e-07
4.92628e-07
5.21761e-07
5.50894e-07
5.80026e-07
6.08449e-07
6.36871e-07
6.64583e-07
6.92294e-07
7.19296e-07
7.46297e-07
7.73298e-07
7.99589e-07
8.25879e-07
8.51459e-07
8.77039e-07
9.02619e-07
9.27489e-07
9.52358e-07
9.77228e-07
1.00139e-06
1.02484e-06
1.04899e-06
1.07244e-06
1.09589e-06
1.11863e-06
1.14137e-06
1.1641e-06
1.18613e-06
1.20816e-06
1.23019e-06
1.2515e-06
1.27353e-06
1.29414e-06
1.31545e-06
1.33606e-06
1.35667e-06
1.37656e-06
1.39646e-06
1.41635e-06
1.43625e-06
1.45543e-06
1.47462e-06
1.4938e-06
1.51299e-06
1.53146e-06
1.54994e-06
1.5677e-06
1.58618e-06
1.60394e-06
1.6217e-06
1.63876e-06
1.65581e-06
1.67357e-06
1.68992e-06
1.70697e-06
1.72331e-06
1.73966e-06
1.756e-06
1.77234e-06
1.78797e-06
1.80361e-06
1.81924e-06
1.83487e-06
1.84979e-06
1.86471e-06
1.87964e-06
1.89456e-06
1.90877e-06
1.92369e-06
1.9379e-06
1.95211e-06
1.96561e-06
1.97982e-06
1.99332e-06
2.00682e-06
2.02033e-06
2.03383e-06
2.04662e-06
2.05941e-06
2.0722e-06
2.08499e-06
2.09778e-06
2.10986e-06
2.12265e-06
2.13473e-06
2.1468e-06
2.15888e-06
2.17025e-06
2.18233e-06
2.1937e-06
2.20507e-06
2.21644e-06
2.22781e-06
2.23847e-06
2.24984e-06
2.26049e-06
2.27115e-06
2.28181e-06
2.29247e-06
2.30242e-06
2.31307e-06
2.32302e-06
2.33297e-06
2.34292e-06
2.35287e-06
2.36281e-06
2.37276e-06
2.382e-06
2.39124e-06
2.40118e-06
2.41042e-06
2.41895e-06
2.42819e-06
2.43742e-06
2.44595e-06
2.45519e-06
2.46371e-06
2.47224e-06
2.48077e-06
2.48929e-06
2.49782e-06
2.50564e-06
2.51416e-06
2.52198e-06
2.52979e-06
2.53761e-06
2.54543e-06
2.55324e-06
2.56106e-06
2.56888e-06
2.57598e-06
2.5838e-06
2.5909e-06
2.59801e-06
2.60511e-06
2.61222e-06
2.61932e-06
2.62643e-06
2.63354e-06
2.63993e-06
2.64704e-06
2.65343e-06
2.66054e-06
2.66693e-06
2.67333e-06
2.67972e-06
2.68612e-06
2.69251e-06
2.69891e-06
2.70459e-06
2.71099e-06
2.71667e-06
2.72307e-06
2.72875e-06
2.73444e-06
2.74012e-06
2.7458e-06
2.75149e-06
2.75717e-06
2.76286e-06
2.76854e-06
2.77352e-06
2.7792e-06
2.78417e-06
2.78986e-06
2.79483e-06
2.79981e-06
0
0

