-0
-0
-0
-0
-0
-0
-0
-0
-0
-0
-0
-0
-0
-0
-0
-0
-0
-0
-0
-0
-0
-0
-0
-0
-0
-0
-0
-0
-0
-0
-0
-0
-0
-0
-0
-0
-0
-0
-0
-0
-0
-0
-0
-0
-0
-0
-0
1.66161e-19
1.00025e-18
3.31625e-18
8.04168e-18
1.59819e-17
2.76583e-17
4.32522e-17
6.26351e-17
8.54432e-17
1.11165e-16
1.39219e-16
1.69017e-16
1.99998e-16
2.31662e-16
2.63572e-16
2.95365e-16
3.26741e-16
3.57462e-16
3.87344e-16
4.16248e-16
4.44073e-16
4.70749e-16
4.96232e-16
5.20499e-16
5.43543e-16
5.65369e-16
5.85994e-16
6.05441e-16
6.23739e-16
6.40923e-16
6.57028e-16
6.72093e-16
6.86158e-16
6.99263e-16
7.11449e-16
7.22756e-16
7.33223e-16
7.42889e-16
7.51791e-16
7.59966e-16
7.67449e-16
7.74275e-16
7.80474e-16
7.8608e-16
7.91121e-16
7.95626e-16
7.99623e-16
8.03136e-16
8.06192e-16
8.08813e-16
8.11022e-16
8.12839e-16
8.14286e-16
8.1538e-16
8.16141e-16
8.16585e-16
8.16728e-16
8.16587e-16
8.16176e-16
8.15508e-16
8.14598e-16
8.13457e-16
8.12098e-16
8.10531e-16
8.08768e-16
8.06818e-16
8.04692e-16
8.02398e-16
7.99946e-16
7.97343e-16
7.94597e-16
7.91717e-16
7.88709e-16
7.8558e-16
7.82337e-16
7.78985e-16
7.75531e-16
7.71981e-16
7.68339e-16
7.64611e-16
7.60801e-16
7.56915e-16
7.52957e-16
7.48931e-16
7.44842e-16
7.40692e-16
7.36487e-16
7.32229e-16
7.27922e-16
7.23569e-16
7.19173e-16
7.14738e-16
7.10267e-16
7.05761e-16
7.01224e-16
6.96659e-16
6.92067e-16
6.87451e-16
6.82814e-16
6.78157e-16
6.73483e-16
6.68794e-16
6.64091e-16
6.59376e-16
0

