-0
-0
-0
-0
-0
-0
-0
-0
-0
-0
-0
-0
-0
-0
-0
-0
-0
-0
-0
-0
-0
-0
-0
-0
-0
-0
-0
-0
-0
-0
-0
-0
-0
-0
-0
-0
-0
-0
-0
-0
-0
-0
-0
-0
-0
-0
-0
-0
-0
-0
-0
-0
-0
-0
-0
0.000486167
0.00196618
0.00452449
0.007845
0.0114477
0.014888
0.0178516
0.020171
0.0218023
0.0227879
0.023221
0.0232153
0.0228845
0.02233
0.0216357
0.0208662
0.0200691
0.0192773
0.0185125
0.0177878
0.0171101
0.0164823
0.0159043
0.0153743
0.0148896
0.0144466
0.0140419
0.0136719
0.0133333
0.0130228
0.0127374
0.0124745
0.0122318
0.0120069
0.0117981
0.0116035
0.0114217
0.0112513
0.0110911
0.0109401
0.0107972
0.0106618
0.0105331
0.0104103
0.010293
0.0101807
0.0100728
0.00996901
0.00986894
0.00977228
0.00967874
0.00958806
0.00950003
0.00941442
0.00933106
0.00924979
0.00917045
0.00909291
0.00901704
0.00894275
0.00886991
0.00879846
0.00872829
0.00865935
0.00859155
0.00852484
0.00845916
0.00839445
0.00833067
0.00826778
0.00820572
0.00814447
0.00808399
0.00802425
0.00796522
0.00790687
0.00784918
0.00779212
0.00773567
0.00767981
0.00762452
0.00756978
0.00751559
0.00746191
0.00740874
0.00735607
0.00730388
0.00725216
0.0072009
0.00715009
0.00709971
0.00704977
0.00700025
0.00695114
0.00690243
0.00685412
0

