-0
-0
-0
-0
-0
-0
-0
-0
-0
-0
-0
-0
-0
-0
-0
-0
-0
-0
-0
-0
-0
-0
-0
-0
-0
-0
-0
-0
-0
-0
-0
-0
-0
-0
-0
-0
-0
-0
-0
-0
-0
-0
-0
-0
-0
-0
-0
-0
-0
7.42185e-05
0.000358445
0.000966762
0.00193248
0.00320537
0.00468321
0.00624858
0.00779553
0.00924298
0.0105381
0.0116536
0.0125821
0.0133308
0.0139151
0.0143555
0.0146736
0.0148904
0.0150253
0.0150952
0.0151143
0.0150943
0.0150449
0.0149736
0.0148863
0.0147876
0.0146809
0.014569
0.0144537
0.0143365
0.0142185
0.0141004
0.0139828
0.013866
0.0137504
0.013636
0.0135231
0.0134116
0.0133016
0.013193
0.013086
0.0129804
0.0128763
0.0127736
0.0126722
0.0125722
0.0124735
0.0123761
0.0122799
0.0121849
0.0120911
0.0119984
0.0119069
0.0118164
0.011727
0.0116386
0.0115512
0.0114648
0.0113794
0.0112949
0.0112112
0.0111285
0.0110467
0.0109656
0.0108855
0.0108061
0.0107275
0.0106497
0.0105726
0.0104963
0.0104206
0.0103457
0.0102715
0.010198
0.0101252
0.0100529
0.00998137
0.00991043
0.00984011
0.00977039
0.00970127
0.00963273
0.00956476
0.00949736
0.00943052
0.00936422
0.00929846
0.00923324
0.00916853
0.00910434
0.00904066
0.00897747
0.00891478
0.00885258
0.00879085
0.00872961
0.00866882
0.0086085
0.00854864
0.00848923
0.00843026
0.00837173
0.00831364
0

