-0
-0
-0
-0
-0
-0
-0
-0
-0
-0
-0
-0
-0
-0
-0
-0
-0
-0
-0
-0
-0
-0
-0
-0
-0
-0
-0
-0
-0
-0
-0
-0
-0
-0
-0
-0
-0
-0
-0
-0
-0
-0
-0
-0
-0
-0
-0
-0
-0
-0
-0
-0
-0
-0
-0
-0
-0
-0
0.00682115
0.0128595
0.0167675
0.0190304
0.0202549
0.0208622
0.021107
0.0211367
0.021036
0.0208543
0.0206206
0.0203529
0.0200623
0.0197564
0.0194399
0.0191166
0.0187888
0.0184585
0.0181272
0.017796
0.0174658
0.0171373
0.0168111
0.0164878
0.0161676
0.0158511
0.0155384
0.0152297
0.0149253
0.0146253
0.0143299
0.014039
0.0137529
0.0134714
0.0131948
0.012923
0.0126559
0.0123937
0.0121363
0.0118836
0.0116357
0.0113925
0.0111539
0.01092
0.0106906
0.0104657
0.0102453
0.0100293
0.00981761
0.0096102
0.009407
0.00920794
0.00901296
0.00882198
0.00863495
0.00845179
0.00827244
0.00809682
0.00792488
0.00775654
0.00759174
0.00743042
0.00727249
0.00711791
0.0069666
0.00681851
0.00667357
0.00653171
0.00639288
0.00625701
0.00612405
0.00599393
0.00586661
0.00574201
0.00562009
0.0055008
0.00538406
0.00526984
0.00515808
0.00504873
0.00494174
0.00483706
0.00473463
0.00463442
0.00453637
0.00444045
0.00434659
0.00425477
0.00416494
0.00407704
0.00399105
0.00390693
0.00382462
0

