-0
-0
-0
-0
-0
-0
-0
-0
-0
-0
-0
-0
-0
-0
-0
-0
-0
-0
-0
-0
-0
-0
-0
-0
-0
-0
-0
-0
-0
-0
-0
-0
-0
-0
-0
-0
-0
-0
-0
-0
-0
-0
-0
-0
-0
-0
-0
-0
-0
-0
-0
-0
-0
-0
-0
0.00104885
0.00325377
0.00608548
0.00901092
0.0117069
0.0140342
0.0159627
0.0175147
0.0187328
0.0196634
0.0203506
0.0208329
0.0211436
0.0213109
0.0213583
0.0213058
0.0211701
0.0209656
0.0207042
0.0203963
0.0200506
0.0196746
0.0192749
0.018857
0.0184257
0.0179851
0.0175386
0.0170894
0.0166399
0.0161925
0.015749
0.015311
0.0148797
0.0144564
0.0140419
0.0136369
0.013242
0.0128577
0.0124843
0.0121221
0.0117712
0.0114316
0.0111034
0.0107865
0.0104808
0.0101862
0.00990244
0.00962941
0.00936682
0.00911444
0.008872
0.00863921
0.00841579
0.00820144
0.00799587
0.00779876
0.00760981
0.00742873
0.00725522
0.00708897
0.0069297
0.00677713
0.00663097
0.00649095
0.00635681
0.00622829
0.00610514
0.00598711
0.00587397
0.0057655
0.00566148
0.0055617
0.00546595
0.00537405
0.00528581
0.00520105
0.0051196
0.00504129
0.00496598
0.00489351
0.00482375
0.00475655
0.00469178
0.00462934
0.00456909
0.00451092
0.00445474
0.00440044
0.00434792
0.0042971
0.00424789
0.0042002
0.00415396
0.0041091
0.00406555
0.00402324
0

