-0
-0
-0
-0
-0
-0
-0
-0
-0
-0
-0
-0
-0
-0
-0
-0
-0
-0
-0
-0
-0
-0
-0
-0
-0
-0
-0
-0
-0
-0
-0
-0
-0
-0
-0
-0
-0
-0
-0
-0
-0
-0
-0
-0
-0
-0
-0
-0
-0
-0
-0
-0
0.000122995
0.000589818
0.00158037
0.0031399
0.00517926
0.00752961
0.0100024
0.0124308
0.0146886
0.0166935
0.0184013
0.0197977
0.0208889
0.0216945
0.0222417
0.0225613
0.0226846
0.022642
0.0224617
0.0221691
0.0217871
0.0213354
0.020831
0.0202886
0.0197204
0.0191365
0.0185455
0.0179541
0.017368
0.0167915
0.016228
0.0156802
0.0151499
0.0146384
0.0141467
0.0136751
0.013224
0.0127931
0.0123823
0.011991
0.0116188
0.0112649
0.0109288
0.0106096
0.0103066
0.010019
0.009746
0.00948689
0.0092409
0.00900728
0.00878533
0.00857438
0.00837377
0.00818287
0.0080011
0.00782789
0.00766273
0.00750509
0.00735452
0.00721057
0.00707282
0.00694089
0.0068144
0.00669302
0.00657642
0.00646431
0.0063564
0.00625244
0.00615219
0.00605541
0.00596189
0.00587145
0.00578389
0.00569904
0.00561675
0.00553687
0.00545926
0.00538379
0.00531035
0.00523882
0.0051691
0.0051011
0.00503472
0.00496988
0.0049065
0.00484452
0.00478386
0.00472446
0.00466627
0.00460923
0.00455328
0.00449839
0.0044445
0.00439157
0.00433958
0.00428847
0.00423822
0.00418879
0.00414016
0

