-0
-0
-0
-0
-0
-0
-0
-0
-0
-0
-0
-0
-0
-0
-0
-0
-0
-0
-0
-0
-0
-0
-0
-0
-0
-0
-0
-0
-0
-0
-0
-0
-0
-0
-0
-0
-0
-0
-0
5.0432e-06
2.971e-05
9.62768e-05
0.000228175
0.000443536
0.000751754
0.00115323
0.00164112
0.00220373
0.0028268
0.00349524
0.00419428
0.00491017
0.00563054
0.00634453
0.00704281
0.00771751
0.00836216
0.00897161
0.00954189
0.0100702
0.0105548
0.0109948
0.0113901
0.0117416
0.0120504
0.0123185
0.0125479
0.0127412
0.012901
0.01303
0.0131309
0.0132066
0.0132596
0.0132924
0.0133074
0.0133067
0.0132925
0.0132664
0.0132303
0.0131855
0.0131333
0.013075
0.0130116
0.012944
0.0128729
0.012799
0.0127229
0.0126452
0.0125661
0.0124861
0.0124054
0.0123244
0.0122433
0.0121621
0.0120811
0.0120003
0.0119199
0.01184
0.0117605
0.0116816
0.0116033
0.0115255
0.0114484
0.0113719
0.011296
0.0112207
0.0111461
0.0110721
0.0109987
0.010926
0.0108538
0.0107823
0.0107113
0.0106409
0.010571
0.0105017
0.010433
0.0103648
0.010297
0.0102299
0.0101632
0.010097
0.0100312
0.00996598
0.0099012
0.00983687
0.009773
0.00970957
0.00964657
0.00958401
0.00952187
0.00946015
0.00939884
0.00933795
0.00927745
0.00921736
0.00915765
0.00909834
0.00903942
0.00898087
0.00892271
0.00886492
0.0088075
0.00875044
0.00869376
0.00863743
0.00858147
0.00852586
0.0084706
0.00841569
0.00836114
0

