-0
-0
-0
-0
-0
-0
-0
-0
-0
-0
-0
-0
-0
-0
-0
-0
-0
-0
-0
-0
-0
-0
-0
-0
-0
-0
-0
-0
-0
-0
-0
-0
-0
-0
-0
-0
-0
-0
-0
-0
-0
-0
-0
-0
-0
-0
-0
-0
-0
-0
-0
-0
0.000207246
0.000873541
0.0020986
0.0038074
0.00582994
0.00798265
0.0101138
0.0121172
0.0139288
0.0155168
0.0168719
0.0179993
0.0189125
0.0196292
0.0201693
0.0205527
0.0207985
0.0209246
0.0209473
0.0208815
0.0207403
0.0205356
0.0202777
0.0199757
0.0196376
0.0192704
0.0188803
0.0184725
0.0180517
0.0176218
0.0171862
0.0167479
0.0163094
0.0158729
0.0154402
0.0150128
0.014592
0.0141789
0.0137742
0.0133788
0.0129932
0.0126177
0.0122527
0.0118984
0.0115548
0.0112221
0.0109003
0.0105892
0.0102887
0.00999874
0.00971908
0.00944952
0.00918982
0.00893973
0.008699
0.00846735
0.0082445
0.00803016
0.00782405
0.00762587
0.00743535
0.00725219
0.00707612
0.00690685
0.00674412
0.00658766
0.0064372
0.0062925
0.00615332
0.0060194
0.00589053
0.00576648
0.00564704
0.00553199
0.00542114
0.00531431
0.00521129
0.00511193
0.00501605
0.00492348
0.00483409
0.00474771
0.00466421
0.00458345
0.0045053
0.00442965
0.00435637
0.00428536
0.00421651
0.00414972
0.00408489
0.00402194
0.00396077
0.00390131
0.00384348
0.00378721
0.00373242
0.00367904
0.00362703
0

