-0
-0
-0
-0
-0
-0
-0
-0
-0
-0
-0
-0
-0
-0
-0
-0
-0
-0
-0
-0
-0
-0
-0
-0
-0
-0
-0
-0
-0
-0
-0
-0
-0
-0
-0
-0
-0
-0
9.17292e-06
5.15381e-05
0.000160449
0.000367344
0.00069263
0.0011421
0.00170814
0.00237343
0.00311524
0.00390905
0.00473121
0.00556055
0.00637918
0.00717268
0.00793006
0.00864335
0.00930722
0.00991851
0.0104759
0.0109793
0.01143
0.0118297
0.012181
0.0124866
0.0127497
0.0129734
0.0131608
0.0133152
0.0134396
0.0135368
0.0136097
0.0136607
0.0136923
0.0137067
0.0137058
0.0136916
0.0136655
0.0136293
0.0135841
0.0135312
0.0134717
0.0134065
0.0133365
0.0132625
0.013185
0.0131047
0.013022
0.0129375
0.0128514
0.0127642
0.0126762
0.0125875
0.0124985
0.0124092
0.0123199
0.0122307
0.0121417
0.012053
0.0119647
0.0118769
0.0117896
0.0117029
0.0116168
0.0115313
0.0114465
0.0113624
0.011279
0.0111963
0.0111143
0.011033
0.0109525
0.0108726
0.0107935
0.0107152
0.0106375
0.0105605
0.0104842
0.0104086
0.0103337
0.0102595
0.0101859
0.010113
0.0100407
0.00996902
0.00989799
0.00982757
0.00975775
0.00968854
0.0096199
0.00955185
0.00948436
0.00941743
0.00935106
0.00928523
0.00921993
0.00915516
0.00909091
0.00902718
0.00896395
0.00890122
0.00883898
0.00877723
0.00871596
0.00865516
0.00859483
0.00853496
0.00847554
0.00841658
0.00835806
0.00829998
0.00824233
0.00818512
0.00812833
0

