-0
-0
-0
-0
-0
-0
-0
-0
-0
-0
-0
-0
-0
-0
-0
-0
-0
-0
-0
-0
-0
-0
-0
-0
-0
-0
-0
-0
-0
-0
-0
-0
-0
-0
-0
-0
-0
-0
-0
-0
-0
-0
-0
-0
1.54674e-05
8.40123e-05
0.000253184
0.000562247
0.00103067
0.00165621
0.00241926
0.00328941
0.0042316
0.00521077
0.0061949
0.00715679
0.0080748
0.00893292
0.0097204
0.0104311
0.0110626
0.0116156
0.012093
0.0124993
0.0128398
0.0131205
0.0133476
0.0135271
0.0136646
0.0137656
0.013835
0.0138772
0.0138962
0.0138955
0.0138782
0.0138469
0.0138041
0.0137516
0.0136912
0.0136244
0.0135524
0.0134762
0.0133968
0.0133149
0.0132311
0.0131459
0.0130597
0.012973
0.012886
0.0127989
0.012712
0.0126254
0.0125391
0.0124534
0.0123683
0.0122838
0.0122
0.012117
0.0120346
0.011953
0.0118722
0.0117921
0.0117127
0.0116341
0.0115562
0.011479
0.0114025
0.0113267
0.0112516
0.0111771
0.0111033
0.0110301
0.0109575
0.0108855
0.0108141
0.0107433
0.010673
0.0106033
0.010534
0.0104654
0.0103972
0.0103295
0.0102623
0.0101956
0.0101294
0.0100637
0.00999836
0.00993351
0.00986911
0.00980514
0.00974161
0.0096785
0.00961582
0.00955355
0.00949169
0.00943023
0.00936918
0.00930853
0.00924827
0.00918839
0.00912891
0.0090698
0.00901107
0.00895272
0.00889474
0.00883713
0.00877989
0.00872301
0.00866649
0.00861033
0.00855452
0

