-0
-0
-0
-0
-0
-0
-0
-0
-0
-0
-0
-0
-0
-0
-0
-0
-0
-0
-0
-0
-0
-0
-0
-0
-0
-0
-0
-0
-0
-0
-0
-0
-0
-0
-0
-0
-0
-0
-0
-0
-0
-0
-0
-0
-0
-0
-0
-0
-0
-0
-0
-0
-0
0.000166492
0.000801641
0.00214144
0.00421393
0.00684333
0.00974374
0.0126222
0.0152467
0.0174723
0.0192364
0.0205393
0.0214213
0.0219429
0.0221704
0.0221672
0.0219892
0.021683
0.021286
0.0208277
0.0203304
0.019811
0.0192819
0.0187522
0.0182284
0.0177151
0.0172154
0.0167314
0.0162645
0.0158153
0.0153842
0.014971
0.0145757
0.0141977
0.0138366
0.0134917
0.0131625
0.0128482
0.0125482
0.0122617
0.0119882
0.0117269
0.0114772
0.0112384
0.0110099
0.0107913
0.0105818
0.010381
0.0101884
0.0100035
0.00982578
0.00965494
0.00949051
0.00933213
0.00917944
0.00903211
0.00888982
0.00875228
0.00861921
0.00849036
0.00836549
0.00824437
0.00812678
0.00801254
0.00790145
0.00779335
0.00768808
0.00758548
0.00748542
0.00738776
0.00729238
0.00719917
0.00710803
0.00701884
0.00693153
0.006846
0.00676217
0.00667997
0.00659933
0.00652018
0.00644246
0.00636611
0.00629107
0.00621731
0.00614476
0.00607339
0.00600315
0.00593401
0.00586592
0.00579886
0.00573279
0.00566768
0.0056035
0.00554023
0.00547784
0.0054163
0.0053556
0.00529571
0.00523661
0

