-0
-0
-0
-0
-0
-0
-0
-0
-0
-0
-0
-0
-0
-0
-0
-0
-0
-0
-0
-0
-0
-0
-0
-0
-0
-0
-0
-0
-0
-0
-0
-0
-0
-0
-0
-0
-0
-0
3.9444e-06
2.4411e-05
8.24104e-05
0.000201939
0.000403155
0.000697746
0.00108766
0.00156646
0.00212185
0.00273844
0.00339986
0.00409035
0.00479555
0.00550299
0.00620212
0.00688423
0.00754233
0.00817089
0.0087657
0.00932369
0.00984277
0.0103217
0.0107599
0.0111577
0.0115156
0.0118347
0.0121166
0.0123629
0.0125758
0.0127572
0.0129093
0.0130345
0.0131349
0.0132126
0.0132699
0.0133086
0.0133307
0.0133379
0.013332
0.0133143
0.0132863
0.0132492
0.0132042
0.0131524
0.0130945
0.0130316
0.0129643
0.0128932
0.012819
0.0127422
0.0126632
0.0125824
0.0125002
0.0124169
0.0123327
0.0122479
0.0121626
0.0120771
0.0119915
0.011906
0.0118205
0.0117353
0.0116505
0.011566
0.011482
0.0113984
0.0113154
0.011233
0.0111511
0.0110699
0.0109893
0.0109093
0.01083
0.0107514
0.0106734
0.0105961
0.0105194
0.0104434
0.0103681
0.0102934
0.0102194
0.010146
0.0100732
0.0100011
0.00992962
0.00985874
0.00978847
0.00971881
0.00964973
0.00958124
0.00951333
0.00944599
0.0093792
0.00931297
0.00924728
0.00918213
0.00911752
0.00905342
0.00898984
0.00892676
0.00886419
0.00880211
0.00874053
0.00867942
0.00861879
0.00855862
0.00849893
0.00843969
0.0083809
0.00832256
0.00826466
0.0082072
0.00815017
0

