-0
-0
-0
-0
-0
-0
-0
-0
-0
-0
-0
-0
-0
-0
-0
-0
-0
-0
-0
-0
-0
-0
-0
-0
-0
-0
-0
-0
-0
-0
-0
-0
-0
-0
-0
-0
-0
-0
-0
-0
-0
-0
-0
-0
-0
-0
-0
-0
-0
-0
-0
-0
-0
-0
-0
-0
-0
-0
0.00574271
0.0118795
0.0163145
0.0190643
0.0206146
0.0213949
0.0217004
0.0217181
0.0215636
0.0213071
0.0209915
0.0206426
0.0202761
0.0199016
0.0195247
0.019149
0.0187766
0.0184088
0.0180462
0.0176894
0.0173386
0.0169938
0.0166553
0.0163229
0.0159966
0.0156764
0.0153623
0.015054
0.0147517
0.0144551
0.0141642
0.0138789
0.0135991
0.0133248
0.0130558
0.012792
0.0125334
0.0122799
0.0120314
0.0117877
0.0115488
0.0113147
0.0110852
0.0108602
0.0106397
0.0104236
0.0102118
0.0100042
0.0098007
0.0096013
0.00940588
0.00921437
0.00902669
0.00884278
0.00866255
0.00848595
0.00831289
0.00814331
0.00797715
0.00781433
0.0076548
0.00749848
0.00734532
0.00719525
0.00704822
0.00690416
0.00676301
0.00662472
0.00648923
0.00635649
0.00622644
0.00609903
0.0059742
0.00585191
0.00573211
0.00561474
0.00549976
0.00538711
0.00527676
0.00516866
0.00506276
0.00495901
0.00485738
0.00475782
0.0046603
0.00456476
0.00447118
0.0043795
0.0042897
0.00420173
0.00411556
0.00403115
0.00394847
0

