-0
-0
-0
-0
-0
-0
-0
-0
-0
-0
-0
-0
-0
-0
-0
-0
-0
-0
-0
-0
-0
-0
-0
-0
-0
-0
-0
-0
-0
-0
-0
-0
-0
-0
-0
-0
-0
-0
-0
-0
-0
-0
-0
-0
-0
-0
-0
-0
-0
-0
6.47955e-05
0.000316779
0.000867634
0.00176688
0.00299467
0.00448262
0.00614033
0.00787577
0.00960707
0.0112676
0.0128067
0.0141892
0.0153928
0.016407
0.0172301
0.0178682
0.0183326
0.0186386
0.0188039
0.018847
0.0187865
0.0186403
0.018425
0.0181555
0.017845
0.0175047
0.0171444
0.0167718
0.0163937
0.0160153
0.0156406
0.015273
0.0149147
0.0145676
0.0142328
0.0139112
0.0136032
0.0133089
0.0130283
0.0127612
0.0125073
0.012266
0.012037
0.0118195
0.0116132
0.0114175
0.0112316
0.0110551
0.0108874
0.010728
0.0105763
0.0104319
0.0102942
0.0101628
0.0100373
0.00991721
0.00980226
0.00969206
0.00958626
0.00948457
0.00938669
0.00929236
0.00920132
0.00911335
0.00902823
0.00894576
0.00886575
0.00878805
0.00871248
0.00863891
0.00856719
0.00849721
0.00842886
0.00836201
0.00829659
0.0082325
0.00816965
0.00810797
0.00804738
0.00798784
0.00792926
0.00787161
0.00781483
0.00775886
0.00770368
0.00764924
0.00759549
0.00754242
0.00748998
0.00743816
0.00738691
0.00733623
0.00728608
0.00723644
0.0071873
0.00713863
0.00709043
0.00704267
0.00699534
0.00694843
0.00690193
0

