-0
-0
-0
-0
-0
-0
-0
-0
-0
-0
-0
-0
-0
-0
-0
-0
-0
-0
-0
-0
-0
-0
-0
-0
-0
-0
-0
-0
-0
-0
-0
-0
-0
-0
-0
-0
-0
-0
-0
7.30559e-06
4.2218e-05
0.000134589
0.00031448
0.000603633
0.00101132
0.00153449
0.00216044
0.00287028
0.00364217
0.0044538
0.00528407
0.00611414
0.00692796
0.00771239
0.00845717
0.00915475
0.00979993
0.0103897
0.0109226
0.0113989
0.0118198
0.0121875
0.0125049
0.0127751
0.0130018
0.0131887
0.0133393
0.0134574
0.0135463
0.0136094
0.0136498
0.0136702
0.0136733
0.0136613
0.0136365
0.0136007
0.0135554
0.0135023
0.0134426
0.0133775
0.0133078
0.0132344
0.0131581
0.0130795
0.0129992
0.0129174
0.0128348
0.0127514
0.0126677
0.0125839
0.0125
0.0124164
0.012333
0.01225
0.0121675
0.0120855
0.0120041
0.0119233
0.0118432
0.0117637
0.0116848
0.0116067
0.0115291
0.0114523
0.0113761
0.0113006
0.0112257
0.0111514
0.0110778
0.0110048
0.0109323
0.0108605
0.0107892
0.0107185
0.0106484
0.0105788
0.0105097
0.0104411
0.0103731
0.0103055
0.0102385
0.0101719
0.0101058
0.0100402
0.00997499
0.00991026
0.00984598
0.00978214
0.00971873
0.00965575
0.00959319
0.00953104
0.00946931
0.00940798
0.00934705
0.00928653
0.00922639
0.00916664
0.00910728
0.0090483
0.0089897
0.00893148
0.00887363
0.00881614
0.00875902
0.00870227
0.00864587
0.00858984
0.00853415
0.00847882
0.00842384
0

