-0
-0
-0
-0
-0
-0
-0
-0
-0
-0
-0
-0
-0
-0
-0
-0
-0
-0
-0
-0
-0
-0
-0
-0
-0
-0
-0
-0
-0
-0
-0
-0
-0
-0
-0
-0
-0
-0
-0
-0
-0
-0
-0
-0
4.40516e-06
2.91066e-05
0.000104308
0.000269753
0.000565068
0.00102024
0.00164968
0.00245075
0.00340574
0.00448576
0.00565523
0.00687597
0.00811058
0.00932493
0.0104898
0.0115817
0.0125831
0.0134822
0.0142728
0.0149526
0.0155236
0.0159901
0.0163586
0.0166372
0.0168343
0.0169589
0.0170198
0.0170253
0.0169835
0.0169014
0.0167859
0.0166427
0.016477
0.0162934
0.0160958
0.0158877
0.0156717
0.0154505
0.0152261
0.0150001
0.014774
0.0145488
0.0143256
0.0141051
0.0138879
0.0136743
0.0134648
0.0132595
0.0130587
0.0128624
0.0126707
0.0124835
0.0123008
0.0121227
0.0119488
0.0117793
0.0116139
0.0114526
0.0112952
0.0111415
0.0109915
0.010845
0.0107018
0.0105619
0.0104251
0.0102913
0.0101604
0.0100323
0.00990674
0.00978375
0.0096632
0.00954498
0.00942902
0.00931521
0.00920347
0.00909373
0.00898591
0.00887995
0.00877576
0.00867329
0.00857248
0.00847328
0.00837562
0.00827946
0.00818476
0.00809145
0.00799952
0.0079089
0.00781957
0.00773148
0.00764462
0.00755893
0.00747439
0.00739098
0.00730866
0.00722742
0.00714721
0.00706803
0.00698984
0.00691263
0.00683638
0.00676106
0.00668667
0.00661317
0.00654056
0.00646881
0.00639792
0

