-0
-0
-0
-0
-0
-0
-0
-0
-0
-0
-0
-0
-0
-0
-0
-0
-0
-0
-0
-0
-0
-0
-0
-0
-0
-0
-0
-0
-0
-0
-0
-0
-0
-0
-0
-0
-0
-0
-0
-0
-0
-0
-0
-0
-0
-0
-0
-0
-0
-0
-0
-0
0.000200002
0.000858156
0.00209723
0.00386494
0.00600024
0.00831335
0.010637
0.0128464
0.0148601
0.0166324
0.0181436
0.0193919
0.0203865
0.0211438
0.0216836
0.0220276
0.022198
0.0222164
0.0221038
0.0218797
0.0215624
0.0211685
0.0207133
0.0202104
0.0196718
0.0191081
0.0185286
0.0179413
0.0173527
0.0167686
0.0161936
0.0156314
0.0150849
0.0145565
0.0140477
0.0135598
0.0130935
0.0126491
0.0122266
0.0118259
0.0114466
0.0110881
0.0107497
0.0104307
0.0101303
0.00984752
0.00958158
0.00933154
0.00909652
0.00887563
0.00866801
0.00847284
0.00828932
0.00811667
0.00795417
0.00780112
0.00765688
0.00752081
0.00739235
0.00727094
0.00715607
0.00704728
0.00694411
0.00684615
0.00675301
0.00666435
0.00657982
0.00649913
0.00642198
0.00634812
0.0062773
0.0062093
0.00614391
0.00608093
0.0060202
0.00596155
0.00590483
0.0058499
0.00579664
0.00574492
0.00569465
0.00564572
0.00559803
0.00555152
0.00550609
0.00546168
0.00541822
0.00537565
0.00533392
0.00529297
0.00525277
0.00521326
0.0051744
0.00513616
0.00509851
0.00506141
0.00502483
0.00498876
0.00495316
0

