-14930.3
-0.0222844
-0.00729239
-0.00263464
-0.000307
0.00114303
0.00215984
0.00293018
0.00354811
0.00406603
0.00451502
0.00491433
0.00518542
0.00531956
0.00534043
0.00527378
0.00513984
0.00495356
0.00472608
0.00446597
0.00417996
0.00387346
0.00355096
0.00321613
0.00287207
0.00252139
0.00216627
0.00180859
0.00144993
0.00109161
0.00073477
0.000380386
2.92723e-05
-0.000317877
-0.000660475
-0.000998027
-0.00133012
-0.00165642
-0.00197665
-0.00229061
-0.00259812
-0.00289906
-0.00319333
-0.00348086
-0.00376158
-0.00403547
-0.00430252
-0.00456274
-0.00481616
-0.00506282
-0.00530278
-0.00553611
-0.00576289
-0.00598319
-0.0061971
-0.00640468
-0.00660604
-0.00680127
-0.00699046
-0.0071737
-0.0073511
-0.00752275
-0.00768876
-0.00784924
-0.00800428
-0.00815398
-0.00829847
-0.00843784
-0.0085722
-0.00870164
-0.00882628
-0.00894619
-0.00906147
-0.00917221
-0.00927851
-0.00938044
-0.0094781
-0.00957157
-0.00966094
-0.00974631
-0.00982774
-0.00990534
-0.00997918
-0.0100493
-0.0101159
-0.010179
-0.0102386
-0.0102948
-0.0103478
-0.0103976
-0.0104442
-0.0104878
-0.0105283
-0.010566
-0.0106007
-0.0106327
-0.0106619
-0.0106884
-0.0107123
-0.0107336
-0.0107525
-0.0107688
-0.0107828
-0.0107944
-0.0108038
-0.0108109
-0.0108158
-0.0108186
-0.0108193
-0.0108179
-0.0108146
-0.0108092
-0.010802
-0.010793
-0.0107821
-0.0107694
-0.010755
-0.0107389
-0.0107211
-0.0107017
-0.0106807
-0.0106582
-0.0106342
-0.0106087
-0.0105817
-0.0105534
-0.0105237
-0.0104926
-0.0104603
-0.0104267
-0.0103918
-0.0103557
-0.0103184
-0.01028
-0.0102405
-0.0101998
-0.0101581
-0.0101153
-0.0100716
-0.0100268
-0.00998103
-0.00993434
-0.00988672
-0.0098382
-0.00978881
-0.00973857
-0.0096875
-0.00963562
-0.00958295
-0.00952952
-0.00947534
-0.00942044
-0.00936482
-0.00930851
-0.00925153
-0.00919389
-0.00913562
-0.00907674
-0.00901725
-0.00895719
-0.00889656
-0.00883539
-0.00877368
-0.00871146
-0.00864873
-0.00858552
-0.00852182
-0.00845767
-0.00839307
-0.00832804
-0.00826258
-0.00819672
-0.00813046
-0.00806382
-0.00799681
-0.00792944
-0.00786173
-0.00779368
-0.00772531
-0.00765663
-0.00758764
-0.00751837
-0.00744882
-0.007379
-0.00730892
-0.00723859
-0.00716802
-0.00709723
-0.00702621
-0.00695498
-0.00688354
-0.00681192
-0.00674012
-0.00666814
-0.00659601
-0.00652372
-0.00645127
-0.00637869
-0.00630598
-0.00623313
-0.00616017
-0.0060871
-0.00601392
-0.00594065
-0.00586728
-0.00579383
-0.0057203
-0.00564671
-0.00557304
-0.00549932
-0.00542554
-0.00535171
-0.00527784
-0.00520394
-0.00513001
-0.00505606
-0.00498208
-0.0049081
-0.0048341
-0.00476011
-0.00468611
-0.00461212
-0.00453815
-0.00446419
-0.00439026
-0.00431635
-0.00424247
-0.00416862
-0.00409481
-0.00402103
-0.0039473
-0.00387361
-0.00379998
-0.00372639
-0.00365287
-0.0035794
-0.003506
-0.00343267
-0.00335941
-0.00328623
-0.00321314
-0.00314012
-0.0030672
-0.00299436
-0.00292161
-0.00284896
-0.0027764
-0.00270394
-0.00263158
-0.00255932
-0.00248717
-0.00241512
-0.00234319
-0.00227137
-0.00219967
-0.00212809
-0.00205662
-0.00198529
-0.00191408
-0.001843
-0.00177204
-0.00170122
-0.00163053
-0.00155998
-0.00148956
-0.00141929
-0.00134916
-0.00127917
-0.00120933
-0.00113964
-0.00107009
-0.00100069
-0.000931442
-0.000862342
-0.000793394
-0.000724599
-0.000655957
-0.000587469
-0.000519137
-0.000450962
-0.000382945
-0.000315089
-0.000247394
-0.000179862
-0.000112492
-4.52871e-05
2.17504e-05
8.86187e-05
0.000155317
0.000221842
0.000288194
0.000354369
0.000420369
0.000486194
0.000551843
0.000617316
0.000682615
0.000747739
0.000812687
0.000877458
0.000942054
0.00100647
0.00107072
0.00113478
0.00119867
0.00126238
0.0013259
0.00138925
0.00145241
0.00151539
0.00157819
0.0016408
0.00170324
0.00176548
0.00182755
0.00188943
0.00195113
0.00201264
0.00207397
0.00213511
0.00219606
0.00225683
0.00231741
0.0023778
0.002438
0.00249802
0.00255785
0.0026175
0.00267696
0.00273623
0.00279532
0.00285422
0.00291294
0.00297147
0.00302981
0.00308797
0.00314594
0.00320372
0.00326132
0.00331874
0.00337596
0.003433
0.00348986
0.00354652
0.003603
0.00365929
0.00371539
0.0037713
0.00382703
0.00388256
0.00393792
0.00399309
0.00404807
0.00410286
0.00415747
0.0042119
0.00426614
0.0043202
0.00437407
0.00442776
0.00448126
0.00453458
0.00458772
0.00464067
0.00469344
0.00474603
0.00479844
0.00485066
0.00490271
0.00495457
0.00500625
0.00505775
0.00510907
0.00516021
0.00521116
0.00526193
0.00531252
0.00536293
0.00541316
0.00546321
0.00551308
0.00556276
0.00561227
0.0056616
0.00571076
0.00575973
0.00580853
0.00585715
0.00590559
0.00595385
0.00600194
0.00604985
0.00609758
0.00614514
0.00619253
0.00623974
0.00628678
0.00633364
0.00638034
0.00642686
0.00647321
0.00651938
0.00656539
0.00661123
0.00665689
0.00670239
0.00674772
0.00679288
0.00683787
0.00688269
0.00692734
0.00697182
0.00701614
0.00706029
0.00710427
0.00714808
0.00719173
0.00723521
0.00727853
0.00732169
0.00736468
0.00740751
0.00745017
0.00749268
0.00753502
0.0075772
0.00761922
0.00766108
0.00770278
0.00774433
0.00778571
0.00782693
0.007868
0.0079089
0.00794965
0.00799025
0.00803069
0.00807097
0.00811109
0.00815106
0.00819088
0.00823054
0.00827005
0.0083094
0.0083486
0.00838765
0.00842655
0.00846529
0.00850389
0.00854233
0.00858062
0.00861877
0.00865677
0.00869461
0.00873231
0.00876987
0.00880727
0.00884453
0.00888164
0.00891861
0.00895543
0.0089921
0.00902863
0.00906502
0.00910126
0.00913736
0.00917332
0.00920913
0.0092448
0.00928033
0.00931571
0.00935096
0.00938607
0.00942103
0.00945585
0.00949054
0.00952508
0.00955949
0.00959376
0.00962789
0.00966189
0.00969575
0.00972947
0.00976306
0.00979651
0.00982984
0.00986302
0.00989607
0.00992899
0.00996178
0.00999444
0.010027
0.0100594
0.0100916
0.0101237
0.0101557
0.0101876
0.0102194
0.010251
0.0102825
0.0103138
0.0103451
0.0103762
0.0104071
0.010438
0.0104687
0.0104993
0.0105298
0.0105601
0.0105904
0.0106205
0.0106505
0.0106803
0.0107101
0.0107397
0.0107692
0.0107986
0.0108278
0.010857
0.010886
0.0109149
0.0109437
0.0109723
0.0110009
0.0110293
0.0110576
0.0110858
0.0111139
0.0111419
0.0111697
0.0111975
0.0112251
0.0112526
0.01128
0.0113073
0.0113345
0.0113616
0.0113885
0.0114154
0.0114421
0.0114687
0.0114952
0.0115216
0.0115479
0.0115741
0.0116002
0.0116262
0.011652
0.0116778
0.0117034
0.011729
0.0117544
0.0117798
0.011805
0.0118301
0.0118551
0.01188
0.0119049
0.0119296
0.0119542
0.0119787
0.0120031
0.0120274
0.0120516
0.0120757
0.0120997
0.0121236
0.0121474
0.0121711
0.0121947
0.0122182
0.0122416
0.0122649
0.0122882
0.0123113
0.0123343
0.0123572
0.01238
0.0124028
0.0124254
0.012448
0.0124704
0.0124928
0.012515
0.0125372
0.0125593
0.0125813
0.0126032
0.012625
0.0126467
0.0126683
0.0126898
0.0127113
0.0127326
0.0127539
0.0127751
0.0127962
0.0128171
0.0128381
0.0128589
0.0128796
0.0129002
0.0129208
0.0129413
0.0129617
0.012982
0.0130022
0.0130223
0.0130423
0.0130623
0.0130822
0.013102
0.0131217
0.0131413
0.0131608
0.0131803
0.0131997
0.013219
0.0132382
0.0132573
0.0132764
0.0132954
0.0133143
0.0133331
0.0133518
0.0133705
0.013389
0.0134075
0.013426
0.0134443
0.0134626
0.0134808
0.0134989
0.0135169
0.0135349
0.0135528
0.0135706
0.0135883
0.013606
0.0136235
0.0136411
0.0136585
0.0136759
0.0136932
0.0137104
0.0137275
0.0137446
0.0137616
0.0137785
0.0137954
0.0138122
0.0138289
0.0138455
0.0138621
0.0138786
0.013895
0.0139114
0.0139277
0.0139439
0.0139601
0.0139762
0.0139922
0.0140082
0.014024
0.0140399
0.0140556
0.0140713
0.0140869
0.0141025
0.014118
0.0141334
0.0141487
0.014164
0.0141793
0.0141944
0.0142095
0.0142246
0.0142395
0.0142545
0.0142693
0.0142841
0.0142988
0.0143135
0.0143281
0.0143426
0.0143571
0.0143715
0.0143858
0.0144001
0.0144144
0.0144285
0.0144426
0.0144567
0.0144707
0.0144846
0.0144985
0.0145123
0.0145261
0.0145398
0.0145534
0.014567
0.0145805
0.014594
0.0146074
0.0146208
0.0146341
0.0146473
0.0146605
0.0146736
0.0146867
0.0146997
0.0147127
0.0147256
0.0147385
0.0147513
0.014764
0.0147767
0.0147893
0.0148019
0.0148145
0.014827
0.0148394
0.0148518
0.0148641
0.0148764
0.0148886
0.0149007
0.0149129
0.0149249
0.0149369
0.0149489
0.0149608
0.0149727
0.0149845
0.0149963
0.015008
0.0150196
0.0150313
0.0150428
0.0150543
0.0150658
0.0150772
0.0150886
0.0150999
0.0151112
0.0151224
0.0151336
0.0151448
0.0151558
0.0151669
0.0151779
0.0151888
0.0151997
0.0152106
0.0152214
0.0152322
0.0152429
0.0152536
0.0152642
0.0152748
0.0152853
0.0152958
0.0153063
0.0153167
0.015327
0.0153374
0.0153476
0.0153579
0.0153681
0.0153782
0.0153883
0.0153984
0.0154084
0.0154184
0.0154283
0.0154382
0.0154481
0.0154579
0.0154676
0.0154774
0.0154871
0.0154967
0.0155063
0.0155159
0.0155254
0.0155349
0.0155444
0.0155538
0.0155631
0.0155725
0.0155817
0.015591
0.0156002
0.0156094
0.0156185
0.0156276
0.0156367
0.0156457
0.0156547
0.0156636
0.0156725
0.0156814
0.0156902
0.015699
0.0157078
0.0157165
0.0157252
0.0157339
0.0157425
0.0157511
0.0157596
0.0157681
0.0157766
0.015785
0.0157934
0.0158018
0.0158101
0.0158184
0.0158267
0.0158349
0.0158431
0.0158512
0.0158594
0.0158675
0.0158755
0.0158835
0.0158915
0.0158995
0.0159074
0.0159153
0.0159232
0.015931
0.0159388
0.0159465
0.0159543
0.015962
0.0159696
0.0159773
0.0159849
0.0159924
0.016
0.0160075
0.0160149
0.0160224
0.0160298
0.0160372
0.0160445
0.0160519
0.0160591
0.0160664
0.0160736
0.0160808
0.016088
0.0160952
0.0161023
0.0161093
0.0161164
0.0161234
0.0161304
0.0161374
0.0161443
0.0161512
0.0161581
0.016165
0.0161718
0.0161786
0.0161853
0.0161921
0.0161988
0.0162055
0.0162121
0.0162188
0.0162254
0.0162319
0.0162385
0.016245
0.0162515
0.016258
0.0162644
0.0162708
0.0162772
0.0162836
0.0162899
0.0162962
0.0163025
0.0163087
0.016315
0.0163212
0.0163274
0.0163335
0.0163396
0.0163457
0.0163518
0.0163579
0.0163639
0.0163699
0.0163759
0.0163818
0.0163878
0.0163937
0.0163996
0.0164054
0.0164113
0.0164171
0.0164229
0.0164286
0.0164344
0.0164401
0.0164458
0.0164514
0.0164571
0.0164627
0.0164683
0.0164739
0.0164794
0.016485
0.0164905
0.016496
0.0165014
0.0165069
0.0165123
0.0165177
0.0165231
0.0165284
0.0165337
0.0165391
0.0165443
0.0165496
0.0165549
0.0165601
0.0165653
0.0165705
0.0165756
0.0165808
0.0165859
0.016591
0.0165961
0.0166011
0.0166062
0.0166112
0.0166162
0.0166211
0.0166261
0.016631
0.016636
0.0166408
0.0166457
0.0166506
0.0166554
0.0166602
0.016665
0.0166698
0.0166746
0.0166793
0.016684
0.0166887
0.0166934
0.0166981
0.0167027
0.0167074
0.016712
0.0167165
0.0167211
0.0167257
0.0167302
0.0167347
0.0167392
0.0167437
0.0167482
0.0167526
0.016757
0.0167614
0.0167658
0.0167702
0.0167746
0.0167789
0.0167832
0.0167875
0.0167918
0.0167961
0.0168003
0.0168046
0.0168088
0.016813
0.0168172
0.0168213
0.0168255
0.0168296
0.0168337
0.0168378
0.0168419
0.016846
0.01685
0.0168541
0.0168581
0.0168621
0.0168661
0.0168701
0.016874
0.016878
0.0168819
0
0

