-0
-0
-0
-0
-0
-0
-0
-0
-0
-0
-0
-0
-0
-0
-0
-0
-0
-0
-0
-0
-0
-0
-0
-0
-0
-0
-0
-0
-0
-0
-0
-0
-0
-0
-0
-0
-0
-0
-0
-0
-0
-0
-0
-0
-0
-0
-0
-0
-0
-0
-0
-0
-0
-0
-0
-0
-0
-0
0.00646683
0.0123887
0.0161987
0.0184058
0.0196442
0.0203216
0.0206668
0.0208061
0.0208112
0.0207253
0.0205752
0.0203786
0.0201474
0.0198904
0.0196137
0.019322
0.0190188
0.0187072
0.0183893
0.018067
0.0177418
0.017415
0.0170877
0.0167607
0.0164349
0.016111
0.0157894
0.0154706
0.0151551
0.0148431
0.0145351
0.0142311
0.0139315
0.0136363
0.0133457
0.0130599
0.0127788
0.0125026
0.0122314
0.011965
0.0117036
0.0114472
0.0111957
0.0109491
0.0107074
0.0104705
0.0102385
0.0100112
0.00978861
0.00957069
0.00935737
0.00914858
0.00894426
0.00874433
0.00854873
0.0083574
0.00817025
0.00798721
0.00780822
0.0076332
0.00746208
0.00729478
0.00713123
0.00697135
0.00681508
0.00666234
0.00651307
0.00636718
0.00622461
0.00608529
0.00594916
0.00581614
0.00568617
0.00555918
0.00543511
0.00531389
0.00519547
0.00507977
0.00496674
0.00485633
0.00474847
0.0046431
0.00454016
0.00443962
0.0043414
0.00424545
0.00415174
0.00406019
0.00397077
0.00388342
0.00379809
0.00371475
0.00363334
0

