-0
-0
-0
-0
-0
-0
-0
-0
-0
-0
-0
-0
-0
-0
-0
-0
-0
-0
-0
-0
-0
-0
-0
-0
-0
-0
-0
-0
-0
-0
-0
-0
-0
-0
-0
-0
-0
-0
-0
-0
-0
-0
-0
-0
-0
-0
-0
-0
-0
-0
-0
-0
0.00020121
0.000872596
0.00214658
0.0039703
0.00617343
0.00855406
0.0109343
0.0131823
0.0152126
0.0169782
0.0184603
0.0196591
0.0205871
0.0212641
0.021714
0.0219625
0.0220358
0.0219591
0.0217566
0.0214504
0.021061
0.0206065
0.020103
0.0195645
0.019003
0.0184287
0.0178502
0.0172742
0.0167065
0.0161514
0.0156124
0.015092
0.014592
0.0141135
0.0136572
0.0132234
0.012812
0.0124226
0.0120547
0.0117076
0.0113805
0.0110726
0.0107829
0.0105104
0.0102542
0.0100134
0.00978702
0.00957415
0.00937391
0.00918547
0.00900804
0.00884085
0.00868319
0.00853438
0.00839379
0.00826082
0.00813492
0.00801557
0.00790228
0.00779462
0.00769215
0.0075945
0.00750131
0.00741224
0.00732699
0.00724527
0.00716683
0.00709142
0.00701882
0.00694882
0.00688123
0.00681588
0.00675261
0.00669127
0.00663172
0.00657385
0.00651752
0.00646264
0.00640911
0.00635684
0.00630575
0.00625575
0.00620679
0.00615879
0.00611169
0.00606545
0.00602001
0.00597532
0.00593135
0.00588804
0.00584538
0.00580332
0.00576183
0.00572089
0.00568046
0.00564053
0.00560107
0.00556207
0.0055235
0

