-0
-0
-0
-0
-0
-0
-0
-0
-0
-0
-0
-0
-0
-0
-0
-0
-0
-0
-0
-0
-0
-0
-0
-0
-0
-0
-0
-0
-0
-0
-0
-0
-0
-0
-0
-0
-0
-0
-0
-0
-0
-0
-0
1.31647e-05
7.30525e-05
0.000223809
0.000503206
0.000930938
0.00150611
0.00221123
0.00301867
0.00389663
0.00481356
0.0057409
0.00665445
0.00753483
0.00836746
0.00914211
0.00985236
0.010495
0.0110693
0.0115765
0.0120195
0.0124019
0.0127281
0.0130027
0.0132305
0.0134163
0.0135644
0.0136791
0.0137643
0.0138237
0.0138604
0.0138774
0.0138773
0.0138624
0.0138348
0.0137962
0.0137482
0.0136922
0.0136295
0.0135611
0.0134878
0.0134106
0.0133301
0.0132469
0.0131615
0.0130743
0.0129858
0.0128963
0.012806
0.0127153
0.0126242
0.0125331
0.0124421
0.0123512
0.0122606
0.0121704
0.0120806
0.0119914
0.0119028
0.0118147
0.0117274
0.0116407
0.0115547
0.0114695
0.0113849
0.0113012
0.0112181
0.0111358
0.0110543
0.0109735
0.0108934
0.0108141
0.0107355
0.0106577
0.0105805
0.0105041
0.0104283
0.0103532
0.0102788
0.0102051
0.010132
0.0100596
0.00998781
0.00991665
0.0098461
0.00977616
0.00970681
0.00963806
0.00956988
0.00950227
0.00943523
0.00936873
0.00930278
0.00923737
0.00917249
0.00910813
0.00904428
0.00898094
0.0089181
0.00885575
0.00879388
0.0087325
0.00867159
0.00861115
0.00855117
0.00849165
0.00843258
0.00837395
0.00831577
0

