-0
-0
-0
-0
-0
-0
-0
-0
-0
-0
-0
-0
-0
-0
-0
-0
-0
-0
-0
-0
-0
-0
-0
-0
-0
-0
-0
-0
-0
-0
-0
-0
-0
-0
-0
-0
-0
-0
-0
-0
-0
-0
-0
-0
-0
-0
-0
-0
-0
-0
-0
-0
-0
-0
0.000265735
0.00114002
0.00275983
0.00499724
0.00756782
0.0101633
0.012537
0.0145352
0.016093
0.0172129
0.0179398
0.0183391
0.0184816
0.0184329
0.0182496
0.0179769
0.0176495
0.0172932
0.016926
0.0165603
0.0162043
0.0158627
0.0155384
0.0152324
0.014945
0.0146756
0.0144234
0.0141872
0.0139658
0.013758
0.0135626
0.0133784
0.0132043
0.0130394
0.0128828
0.0127336
0.0125912
0.0124549
0.0123242
0.0121984
0.0120772
0.0119601
0.0118467
0.0117369
0.0116302
0.0115263
0.0114252
0.0113266
0.0112302
0.0111359
0.0110437
0.0109532
0.0108645
0.0107774
0.0106919
0.0106077
0.010525
0.0104435
0.0103632
0.0102841
0.010206
0.010129
0.0100531
0.00997806
0.00990396
0.00983075
0.00975839
0.00968685
0.0096161
0.00954612
0.00947687
0.00940834
0.0093405
0.00927334
0.00920683
0.00914096
0.0090757
0.00901106
0.008947
0.00888352
0.0088206
0.00875823
0.00869641
0.00863511
0.00857432
0.00851405
0.00845427
0.00839499
0.00833618
0.00827785
0.00821999
0.00816258
0.00810562
0.00804911
0.00799304
0.0079374
0.00788218
0

