-14930.3
-0.0222844
-0.00729239
-0.00263464
-0.000307
0.00114303
0.00215984
0.00293018
0.00354811
0.00406603
0.00451502
0.00491433
0.00472702
0.00440135
0.00402407
0.0036217
0.00320682
0.00278663
0.00236563
0.00194673
0.00153185
0.00112231
0.000719038
0.000322671
-6.63239e-05
-0.000447609
-0.000820939
-0.00118614
-0.0015431
-0.00189173
-0.00223201
-0.00256391
-0.00288746
-0.00320268
-0.00350962
-0.00380833
-0.0040989
-0.0043814
-0.00465591
-0.00492253
-0.00518136
-0.0054325
-0.00567607
-0.00591217
-0.00614092
-0.00636243
-0.00657683
-0.00678422
-0.00698473
-0.00717847
-0.00736558
-0.00754615
-0.00772032
-0.00788821
-0.00804992
-0.00820558
-0.00835531
-0.00849921
-0.00863741
-0.00877001
-0.00889713
-0.00901888
-0.00913536
-0.00924669
-0.00935297
-0.00945431
-0.00955081
-0.00964256
-0.00972968
-0.00981225
-0.00989038
-0.00996416
-0.0100337
-0.010099
-0.0101603
-0.0102176
-0.010271
-0.0103206
-0.0103664
-0.0104086
-0.0104473
-0.0104824
-0.0105142
-0.0105426
-0.0105677
-0.0105897
-0.0106086
-0.0106244
-0.0106373
-0.0106472
-0.0106544
-0.0106587
-0.0106604
-0.0106594
-0.0106558
-0.0106498
-0.0106412
-0.0106303
-0.010617
-0.0106015
-0.0105837
-0.0105638
-0.0105417
-0.0105176
-0.0104914
-0.0104633
-0.0104332
-0.0104013
-0.0103676
-0.0103321
-0.0102949
-0.0102559
-0.0102154
-0.0101732
-0.0101295
-0.0100843
-0.0100376
-0.0099894
-0.00993985
-0.00988895
-0.00983671
-0.00978319
-0.00972842
-0.00967244
-0.00961527
-0.00955695
-0.00949751
-0.00943699
-0.00937542
-0.00931283
-0.00924925
-0.0091847
-0.00911922
-0.00905283
-0.00898557
-0.00891746
-0.00884852
-0.00877879
-0.00870828
-0.00863703
-0.00856505
-0.00849237
-0.00841902
-0.00834502
-0.00827038
-0.00819514
-0.00811931
-0.00804292
-0.00796598
-0.00788851
-0.00781054
-0.00773208
-0.00765316
-0.00757378
-0.00749398
-0.00741376
-0.00733315
-0.00725215
-0.0071708
-0.0070891
-0.00700707
-0.00692472
-0.00684207
-0.00675914
-0.00667594
-0.00659248
-0.00650878
-0.00642485
-0.0063407
-0.00625636
-0.00617182
-0.0060871
-0.00600222
-0.00591718
-0.005832
-0.00574669
-0.00566126
-0.00557573
-0.00549009
-0.00540436
-0.00531856
-0.00523268
-0.00514675
-0.00506077
-0.00497475
-0.00488869
-0.00480262
-0.00471652
-0.00463043
-0.00454433
-0.00445825
-0.00437218
-0.00428614
-0.00420013
-0.00411416
-0.00402823
-0.00394237
-0.00385656
-0.00377081
-0.00368514
-0.00359955
-0.00351405
-0.00342864
-0.00334332
-0.00325811
-0.003173
-0.00308801
-0.00300314
-0.00291838
-0.00283376
-0.00274927
-0.00266492
-0.00258071
-0.00249665
-0.00241274
-0.00232898
-0.00224539
-0.00216195
-0.00207868
-0.00199559
-0.00191266
-0.00182992
-0.00174736
-0.00166498
-0.00158279
-0.00150078
-0.00141898
-0.00133737
-0.00125596
-0.00117475
-0.00109375
-0.00101295
-0.000932365
-0.000851992
-0.000771834
-0.000691893
-0.000612172
-0.000532672
-0.000453396
-0.000374346
-0.000295523
-0.00021693
-0.000138568
-6.04383e-05
1.74565e-05
9.51154e-05
0.000172536
0.000249718
0.000326659
0.000403358
0.000479814
0.000556025
0.000631991
0.000707709
0.00078318
0.000858401
0.000933371
0.00100809
0.00108256
0.00115677
0.00123073
0.00130444
0.00137789
0.00145109
0.00152403
0.00159671
0.00166914
0.0017413
0.00181321
0.00188486
0.00195625
0.00202738
0.00209825
0.00216886
0.00223921
0.0023093
0.00237912
0.00244869
0.00251799
0.00258703
0.00265581
0.00272433
0.00279258
0.00286057
0.0029283
0.00299577
0.00306298
0.00312992
0.0031966
0.00326302
0.00332918
0.00339507
0.00346071
0.00352608
0.00359119
0.00365604
0.00372063
0.00378496
0.00384903
0.00391284
0.00397639
0.00403968
0.00410271
0.00416549
0.004228
0.00429026
0.00435226
0.00441401
0.00447549
0.00453673
0.0045977
0.00465842
0.00471889
0.0047791
0.00483906
0.00489877
0.00495822
0.00501743
0.00507638
0.00513508
0.00519353
0.00525173
0.00530968
0.00536739
0.00542485
0.00548206
0.00553902
0.00559574
0.00565221
0.00570844
0.00576443
0.00582017
0.00587567
0.00593092
0.00598594
0.00604072
0.00609525
0.00614955
0.00620361
0.00625743
0.00631102
0.00636437
0.00641748
0.00647036
0.00652301
0.00657542
0.0066276
0.00667955
0.00673127
0.00678275
0.00683401
0.00688504
0.00693585
0.00698642
0.00703677
0.0070869
0.0071368
0.00718647
0.00723592
0.00728516
0.00733417
0.00738295
0.00743152
0.00747987
0.007528
0.00757592
0.00762361
0.0076711
0.00771836
0.00776541
0.00781225
0.00785888
0.00790529
0.00795149
0.00799749
0.00804327
0.00808884
0.00813421
0.00817937
0.00822432
0.00826907
0.00831362
0.00835795
0.00840209
0.00844602
0.00848976
0.00853329
0.00857662
0.00861975
0.00866269
0.00870542
0.00874796
0.00879031
0.00883246
0.00887441
0.00891618
0.00895775
0.00899912
0.00904031
0.00908131
0.00912211
0.00916273
0.00920316
0.00924341
0.00928346
0.00932333
0.00936302
0.00940252
0.00944184
0.00948098
0.00951994
0.00955871
0.00959731
0.00963572
0.00967396
0.00971202
0.0097499
0.00978761
0.00982514
0.0098625
0.00989968
0.00993669
0.00997353
0.0100102
0.0100467
0.010083
0.0101192
0.0101552
0.010191
0.0102266
0.0102621
0.0102974
0.0103326
0.0103676
0.0104024
0.0104371
0.0104716
0.0105059
0.0105401
0.0105741
0.010608
0.0106417
0.0106752
0.0107086
0.0107418
0.0107749
0.0108078
0.0108406
0.0108732
0.0109057
0.010938
0.0109701
0.0110021
0.011034
0.0110657
0.0110973
0.0111287
0.0111599
0.011191
0.011222
0.0112528
0.0112835
0.011314
0.0113444
0.0113747
0.0114048
0.0114348
0.0114646
0.0114943
0.0115238
0.0115532
0.0115825
0.0116116
0.0116406
0.0116695
0.0116982
0.0117268
0.0117552
0.0117836
0.0118117
0.0118398
0.0118677
0.0118955
0.0119232
0.0119507
0.0119781
0.0120054
0.0120325
0.0120595
0.0120864
0.0121132
0.0121398
0.0121663
0.0121927
0.012219
0.0122451
0.0122711
0.012297
0.0123228
0.0123484
0.012374
0.0123994
0.0124247
0.0124498
0.0124749
0.0124998
0.0125246
0.0125493
0.0125739
0.0125984
0.0126227
0.012647
0.0126711
0.0126951
0.012719
0.0127428
0.0127665
0.01279
0.0128135
0.0128368
0.0128601
0.0128832
0.0129062
0.0129291
0.0129519
0.0129746
0.0129972
0.0130197
0.013042
0.0130643
0.0130865
0.0131085
0.0131305
0.0131523
0.0131741
0.0131957
0.0132173
0.0132387
0.0132601
0.0132813
0.0133024
0.0133235
0.0133444
0.0133653
0.013386
0.0134067
0.0134272
0.0134477
0.0134681
0.0134883
0.0135085
0.0135286
0.0135485
0.0135684
0.0135882
0.0136079
0.0136275
0.0136471
0.0136665
0.0136858
0.0137051
0.0137242
0.0137433
0.0137623
0.0137811
0.0137999
0.0138186
0.0138373
0.0138558
0.0138742
0.0138926
0.0139109
0.0139291
0.0139472
0.0139652
0.0139831
0.014001
0.0140187
0.0140364
0.014054
0.0140715
0.014089
0.0141063
0.0141236
0.0141408
0.0141579
0.0141749
0.0141919
0.0142088
0.0142256
0.0142423
0.0142589
0.0142755
0.014292
0.0143084
0.0143247
0.0143409
0.0143571
0.0143732
0.0143892
0.0144052
0.0144211
0.0144369
0.0144526
0.0144682
0.0144838
0.0144993
0.0145148
0.0145301
0.0145454
0.0145607
0.0145758
0.0145909
0.0146059
0.0146208
0.0146357
0.0146505
0.0146652
0.0146799
0.0146945
0.014709
0.0147235
0.0147379
0.0147522
0.0147664
0.0147806
0.0147947
0.0148088
0.0148228
0.0148367
0.0148506
0.0148644
0.0148781
0.0148918
0.0149054
0.0149189
0.0149324
0.0149458
0.0149592
0.0149725
0.0149857
0.0149989
0.015012
0.015025
0.015038
0.015051
0.0150638
0.0150766
0.0150894
0.0151021
0.0151147
0.0151273
0.0151398
0.0151522
0.0151646
0.015177
0.0151893
0.0152015
0.0152136
0.0152258
0.0152378
0.0152498
0.0152618
0.0152736
0.0152855
0.0152973
0.015309
0.0153207
0.0153323
0.0153438
0.0153553
0.0153668
0.0153782
0.0153896
0.0154008
0.0154121
0.0154233
0.0154344
0.0154455
0.0154566
0.0154675
0.0154785
0.0154894
0.0155002
0.015511
0.0155217
0.0155324
0.015543
0.0155536
0.0155642
0.0155747
0.0155851
0.0155955
0.0156058
0.0156161
0.0156264
0.0156366
0.0156468
0.0156569
0.0156669
0.0156769
0.0156869
0.0156968
0.0157067
0.0157166
0.0157263
0.0157361
0.0157458
0.0157554
0.0157651
0.0157746
0.0157841
0.0157936
0.0158031
0.0158124
0.0158218
0.0158311
0.0158404
0.0158496
0.0158588
0.0158679
0.015877
0.015886
0.015895
0.015904
0.0159129
0.0159218
0.0159307
0.0159395
0.0159482
0.015957
0.0159657
0.0159743
0.0159829
0.0159915
0.016
0.0160085
0.0160169
0.0160253
0.0160337
0.0160421
0.0160503
0.0160586
0.0160668
0.016075
0.0160832
0.0160913
0.0160993
0.0161074
0.0161154
0.0161233
0.0161312
0.0161391
0.016147
0.0161548
0.0161626
0.0161703
0.016178
0.0161857
0.0161934
0.016201
0.0162085
0.0162161
0.0162236
0.016231
0.0162385
0.0162459
0.0162532
0.0162606
0.0162679
0.0162751
0.0162824
0.0162896
0.0162967
0.0163039
0.016311
0.016318
0.0163251
0.0163321
0.0163391
0.016346
0.0163529
0.0163598
0.0163666
0.0163735
0.0163802
0.016387
0.0163937
0.0164004
0.0164071
0.0164137
0.0164203
0.0164269
0.0164334
0.01644
0.0164464
0.0164529
0.0164593
0.0164657
0.0164721
0.0164784
0.0164848
0.016491
0.0164973
0.0165035
0.0165097
0.0165159
0.016522
0.0165281
0.0165342
0.0165403
0.0165463
0.0165523
0.0165583
0.0165643
0.0165702
0.0165761
0.016582
0.0165878
0.0165936
0.0165994
0.0166052
0.0166109
0.0166166
0.0166223
0.016628
0.0166336
0.0166392
0.0166448
0.0166504
0.0166559
0.0166614
0.0166669
0.0166724
0.0166778
0.0166832
0.0166886
0.016694
0.0166993
0.0167047
0.01671
0.0167152
0.0167205
0.0167257
0.0167309
0.0167361
0.0167412
0.0167464
0.0167515
0.0167566
0.0167616
0.0167667
0.0167717
0.0167767
0.0167816
0.0167866
0.0167915
0.0167964
0.0168013
0.0168062
0.016811
0.0168158
0.0168206
0.0168254
0.0168302
0.0168349
0.0168396
0.0168443
0.016849
0.0168536
0.0168582
0.0168629
0.0168674
0.016872
0.0168766
0.0168811
0.0168856
0.0168901
0.0168946
0.016899
0.0169034
0.0169078
0.0169122
0.0169166
0.0169209
0.0169253
0.0169296
0.0169339
0.0169382
0.0169424
0.0169466
0.0169509
0.0169551
0.0169592
0.0169634
0.0169675
0.0169717
0.0169758
0.0169799
0.0169839
0.016988
0.016992
0.016996
0.017
0.017004
0.017008
0.0170119
0.0170159
0.0170198
0.0170237
0.0170275
0.0170314
0.0170352
0.0170391
0.0170429
0.0170467
0.0170504
0.0170542
0.0170579
0.0170617
0.0170654
0.0170691
0.0170728
0.0170764
0.0170801
0.0170837
0.0170873
0.0170909
0.0170945
0.017098
0.0171016
0.0171051
0.0171087
0.0171122
0.0171156
0.0171191
0.0171226
0.017126
0.0171294
0.0171329
0.0171363
0.0171396
0.017143
0.0171464
0.0171497
0.017153
0.0171563
0.0171596
0.0171629
0.0171662
0.0171694
0.0171727
0.0171759
0.0171791
0.0171823
0.0171855
0.0171887
0.0171918
0.017195
0.0171981
0.0172012
0.0172043
0.0172074
0.0172105
0.0172135
0.0172166
0.0172196
0.0172226
0.0172256
0.0172286
0.0172316
0.0172346
0.0172375
0.0172405
0.0172434
0.0172463
0.0172492
0.0172521
0.017255
0.0172579
0.0172607
0.0172636
0.0172664
0.0172692
0.017272
0.0172748
0.0172776
0.0172804
0.0172831
0.0172859
0.0172886
0.0172913
0.017294
0.0172967
0.0172994
0.0173021
0.0173048
0.0173074
0.0173101
0.0173127
0.0173153
0
0

