-14930.3
-0.0242328
-0.0104949
-0.00669191
-0.00501042
-0.00409236
-0.00354751
-0.00322308
-0.00304688
-0.00298011
-0.00299944
-0.00308907
-0.00323696
-0.00343312
-0.00366872
-0.00393574
-0.00422683
-0.00453533
-0.00485522
-0.00518115
-0.00550844
-0.00583307
-0.00615163
-0.00646132
-0.00675986
-0.00704547
-0.00731681
-0.00757293
-0.00781319
-0.00803726
-0.00824504
-0.00843663
-0.0086123
-0.00877244
-0.00891756
-0.00904822
-0.00916507
-0.00926876
-0.00936
-0.00943948
-0.0095079
-0.00956596
-0.00961433
-0.00965366
-0.0096846
-0.00970776
-0.0097237
-0.00973298
-0.00973612
-0.00973361
-0.00972591
-0.00971345
-0.00969662
-0.00967582
-0.00965137
-0.00962362
-0.00959285
-0.00955935
-0.00952337
-0.00948516
-0.00944492
-0.00940286
-0.00935917
-0.00931401
-0.00926755
-0.00921992
-0.00917126
-0.0091217
-0.00907133
-0.00902027
-0.0089686
-0.00891641
-0.00886379
-0.00881079
-0.00875748
-0.00870393
-0.00865019
-0.0085963
-0.00854232
-0.00848827
-0.00843421
-0.00838016
-0.00832616
-0.00827223
-0.00821839
-0.00816468
-0.0081111
-0.00805768
-0.00800444
-0.00795139
-0.00789854
-0.00784591
-0.0077935
-0.00774134
-0.00768941
-0.00763774
-0.00758633
-0.00753519
-0.00748431
-0.00743372
-0.0073834
-0.00733337
-0.00728362
-0.00723417
-0.007185
-0.00713613
-0.00708755
-0.00703927
-0.00699129
-0.0069436
-0.00689621
-0.00684912
-0.00680232
-0.00675582
-0.00670962
-0.00666371
-0.0066181
-0.00657279
-0.00652776
-0.00648303
-0.0064386
-0.00639445
-0.00635059
-0.00630702
-0.00626373
-0.00622073
-0.00617801
-0.00613558
-0.00609342
-0.00605155
-0.00600995
-0.00596862
-0.00592757
-0.0058868
-0.00584629
-0.00580605
-0.00576608
-0.00572638
-0.00568694
-0.00564776
-0.00560884
-0.00557018
-0.00553178
-0.00549363
-0.00545574
-0.0054181
-0.00538071
-0.00534357
-0.00530667
-0.00527003
-0.00523362
-0.00519746
-0.00516154
-0.00512585
-0.00509041
-0.0050552
-0.00502022
-0.00498548
-0.00495097
-0.00491669
-0.00488263
-0.00484881
-0.0048152
-0.00478183
-0.00474867
-0.00471573
-0.00468301
-0.00465051
-0.00461823
-0.00458616
-0.0045543
-0.00452265
-0.00449122
-0.00445999
-0.00442897
-0.00439816
-0.00436755
-0.00433714
-0.00430694
-0.00427694
-0.00424713
-0.00421753
-0.00418812
-0.0041589
-0.00412988
-0.00410105
-0.00407242
-0.00404397
-0.00401571
-0.00398764
-0.00395975
-0.00393205
-0.00390454
-0.0038772
-0.00385005
-0.00382308
-0.00379629
-0.00376967
-0.00374323
-0.00371697
-0.00369088
-0.00366496
-0.00363921
-0.00361364
-0.00358823
-0.003563
-0.00353793
-0.00351303
-0.00348829
-0.00346371
-0.0034393
-0.00341505
-0.00339096
-0.00336703
-0.00334326
-0.00331965
-0.0032962
-0.0032729
-0.00324975
-0.00322676
-0.00320392
-0.00318123
-0.00315869
-0.0031363
-0.00311406
-0.00309197
-0.00307002
-0.00304822
-0.00302656
-0.00300505
-0.00298368
-0.00296245
-0.00294136
-0.00292041
-0.0028996
-0.00287893
-0.0028584
-0.002838
-0.00281774
-0.00279761
-0.00277761
-0.00275775
-0.00273802
-0.00271842
-0.00269895
-0.00267961
-0.0026604
-0.00264131
-0.00262235
-0.00260352
-0.00258481
-0.00256623
-0.00254777
-0.00252943
-0.00251121
-0.00249312
-0.00247514
-0.00245729
-0.00243955
-0.00242193
-0.00240443
-0.00238704
-0.00236977
-0.00235261
-0.00233557
-0.00231864
-0.00230182
-0.00228511
-0.00226852
-0.00225203
-0.00223566
-0.00221939
-0.00220323
-0.00218718
-0.00217124
-0.0021554
-0.00213966
-0.00212403
-0.00210851
-0.00209308
-0.00207776
-0.00206255
-0.00204743
-0.00203241
-0.00201749
-0.00200268
-0.00198796
-0.00197333
-0.00195881
-0.00194438
-0.00193005
-0.00191581
-0.00190167
-0.00188762
-0.00187366
-0.0018598
-0.00184603
-0.00183235
-0.00181876
-0.00180527
-0.00179186
-0.00177854
-0.00176531
-0.00175217
-0.00173911
-0.00172614
-0.00171326
-0.00170046
-0.00168775
-0.00167513
-0.00166258
-0.00165012
-0.00163775
-0.00162545
-0.00161324
-0.00160111
-0.00158906
-0.00157709
-0.00156519
-0.00155338
-0.00154165
-0.00152999
-0.00151841
-0.00150691
-0.00149549
-0.00148414
-0.00147287
-0.00146167
-0.00145055
-0.0014395
-0.00142852
-0.00141762
-0.00140679
-0.00139603
-0.00138534
-0.00137473
-0.00136418
-0.00135371
-0.0013433
-0.00133296
-0.0013227
-0.0013125
-0.00130237
-0.0012923
-0.00128231
-0.00127238
-0.00126251
-0.00125272
-0.00124298
-0.00123331
-0.00122371
-0.00121417
-0.0012047
-0.00119528
-0.00118593
-0.00117664
-0.00116742
-0.00115825
-0.00114915
-0.0011401
-0.00113112
-0.0011222
-0.00111333
-0.00110453
-0.00109578
-0.0010871
-0.00107846
-0.00106989
-0.00106138
-0.00105292
-0.00104452
-0.00103617
-0.00102788
-0.00101964
-0.00101146
-0.00100334
-0.000995264
-0.000987246
-0.000979282
-0.00097137
-0.000963511
-0.000955704
-0.00094795
-0.000940246
-0.000932595
-0.000924994
-0.000917445
-0.000909945
-0.000902495
-0.000895095
-0.000887745
-0.000880443
-0.00087319
-0.000865985
-0.000858829
-0.00085172
-0.000844658
-0.000837644
-0.000830676
-0.000823755
-0.00081688
-0.000810051
-0.000803267
-0.000796528
-0.000789835
-0.000783186
-0.000776582
-0.000770021
-0.000763505
-0.000757031
-0.000750601
-0.000744214
-0.000737869
-0.000731567
-0.000725306
-0.000719088
-0.000712911
-0.000706775
-0.000700681
-0.000694626
-0.000688612
-0.000682638
-0.000676704
-0.00067081
-0.000664955
-0.000659139
-0.000653362
-0.000647623
-0.000641923
-0.000636261
-0.000630637
-0.00062505
-0.0006195
-0.000613987
-0.000608512
-0.000603072
-0.000597669
-0.000592302
-0.000586971
-0.000581675
-0.000576415
-0.00057119
-0.000566
-0.000560844
-0.000555723
-0.000550635
-0.000545582
-0.000540563
-0.000535577
-0.000530625
-0.000525705
-0.000520818
-0.000515964
-0.000511142
-0.000506353
-0.000501595
-0.00049687
-0.000492176
-0.000487512
-0.000482881
-0.00047828
-0.00047371
-0.00046917
-0.000464661
-0.000460181
-0.000455733
-0.000451313
-0.000446922
-0.000442562
-0.00043823
-0.000433927
-0.000429653
-0.000425408
-0.000421191
-0.000417002
-0.00041284
-0.000408707
-0.000404602
-0.000400524
-0.000396472
-0.000392448
-0.000388451
-0.000384481
-0.000380537
-0.00037662
-0.000372728
-0.000368863
-0.000365024
-0.000361209
-0.000357421
-0.000353657
-0.000349919
-0.000346207
-0.000342518
-0.000338854
-0.000335215
-0.0003316
-0.00032801
-0.000324443
-0.0003209
-0.000317381
-0.000313885
-0.000310412
-0.000306963
-0.000303537
-0.000300133
-0.000296753
-0.000293395
-0.00029006
-0.000286746
-0.000283455
-0.000280186
-0.000276939
-0.000273713
-0.000270509
-0.000267326
-0.000264164
-0.000261024
-0.000257905
-0.000254806
-0.000251728
-0.000248671
-0.000245634
-0.000242617
-0.000239621
-0.000236645
-0.000233688
-0.000230752
-0.000227834
-0.000224937
-0.000222058
-0.0002192
-0.000216359
-0.000213538
-0.000210736
-0.000207953
-0.000205187
-0.000202441
-0.000199713
-0.000197003
-0.000194312
-0.000191638
-0.000188982
-0.000186343
-0.000183723
-0.00018112
-0.000178534
-0.000175966
-0.000173415
-0.000170881
-0.000168363
-0.000165863
-0.00016338
-0.000160912
-0.000158461
-0.000156027
-0.000153609
-0.000151207
-0.000148822
-0.000146451
-0.000144097
-0.000141759
-0.000139436
-0.000137129
-0.000134837
-0.000132561
-0.0001303
-0.000128054
-0.000125822
-0.000123606
-0.000121404
-0.000119218
-0.000117046
-0.000114888
-0.000112745
-0.000110616
-0.000108501
-0.000106401
-0.000104314
-0.000102241
-0.000100183
-9.81377e-05
-9.61062e-05
-9.40882e-05
-9.20837e-05
-9.00934e-05
-8.81152e-05
-8.61513e-05
-8.41994e-05
-8.22617e-05
-8.03361e-05
-7.8424e-05
-7.65239e-05
-7.46367e-05
-7.27622e-05
-7.09006e-05
-6.9051e-05
-6.72142e-05
-6.53895e-05
-6.35769e-05
-6.17763e-05
-5.99871e-05
-5.82107e-05
-5.64464e-05
-5.46935e-05
-5.29519e-05
-5.12224e-05
-4.95043e-05
-4.77975e-05
-4.61029e-05
-4.44188e-05
-4.27462e-05
-4.10842e-05
-3.94343e-05
-3.7795e-05
-3.61664e-05
-3.45492e-05
-3.29419e-05
-3.1346e-05
-2.97608e-05
-2.81862e-05
-2.66215e-05
-2.50682e-05
-2.35242e-05
-2.19915e-05
-2.04681e-05
-1.8956e-05
-1.74532e-05
-1.59603e-05
-1.44781e-05
-1.30051e-05
-1.15421e-05
-1.0089e-05
-8.64584e-06
-7.21194e-06
-5.78727e-06
-4.37256e-06
-2.96707e-06
-1.57154e-06
-1.85243e-07
1.19253e-06
2.56035e-06
3.91964e-06
5.2697e-06
6.61052e-06
7.94282e-06
9.26587e-06
1.05797e-05
1.18857e-05
1.31825e-05
1.44707e-05
1.57497e-05
1.70209e-05
1.82836e-05
1.95377e-05
2.07833e-05
2.20211e-05
2.32503e-05
2.44711e-05
2.5684e-05
2.68884e-05
2.8085e-05
2.92737e-05
3.04547e-05
3.16278e-05
3.27931e-05
3.39499e-05
3.50996e-05
3.62415e-05
3.73762e-05
3.85025e-05
3.96216e-05
4.07336e-05
4.18378e-05
4.29349e-05
4.40249e-05
4.51071e-05
4.61822e-05
4.72501e-05
4.8311e-05
4.93647e-05
5.04121e-05
5.14516e-05
5.24848e-05
5.35108e-05
5.45298e-05
5.55423e-05
5.65478e-05
5.75468e-05
5.85387e-05
5.95243e-05
6.05034e-05
6.14762e-05
6.24418e-05
6.34018e-05
6.43546e-05
6.53018e-05
6.62426e-05
6.7177e-05
6.8105e-05
6.90266e-05
6.99425e-05
7.0852e-05
7.17558e-05
7.26532e-05
7.3545e-05
7.44303e-05
7.531e-05
7.6184e-05
7.70523e-05
7.79142e-05
7.87704e-05
7.96217e-05
8.04665e-05
8.13064e-05
8.21399e-05
8.29684e-05
8.37912e-05
8.46091e-05
8.54205e-05
8.6227e-05
8.70285e-05
8.78243e-05
8.86145e-05
8.93996e-05
9.01798e-05
9.09551e-05
9.17246e-05
9.24891e-05
9.32487e-05
9.40026e-05
9.47523e-05
9.54962e-05
9.62359e-05
9.69706e-05
9.77004e-05
9.84251e-05
9.91449e-05
9.98598e-05
0.00010057
0.000101276
0.000101977
0.000102674
0.000103365
0.000104052
0.000104734
0.000105412
0.000106086
0.000106755
0.000107419
0.000108079
0.000108735
0.000109386
0.000110034
0.000110676
0.000111315
0.000111948
0.000112579
0.000113205
0.000113826
0.000114443
0.000115057
0.000115666
0.000116271
0.000116873
0.00011747
0.000118063
0.000118653
0.000119238
0.000119819
0.000120397
0.000120971
0.000121541
0.000122107
0.000122669
0.000123228
0.000123783
0.000124334
0.000124882
0.000125426
0.000125966
0.000126504
0.000127036
0.000127566
0.000128092
0.000128615
0.000129134
0.00012965
0.000130162
0.000130671
0.000131177
0.000131679
0.000132178
0.000132673
0.000133166
0.000133655
0.000134141
0.000134623
0.000135102
0.000135578
0.000136051
0.000136521
0.000136988
0.000137451
0.000137912
0.000138369
0.000138824
0.000139275
0.000139723
0.000140169
0.000140612
0.000141051
0.000141488
0.000141922
0.000142352
0.000142781
0.000143206
0.000143628
0.000144048
0.000144465
0.000144879
0.00014529
0.000145698
0.000146104
0.000146508
0.000146908
0.000147306
0.000147701
0.000148094
0.000148484
0.000148871
0.000149256
0.000149639
0.000150018
0.000150395
0.00015077
0.000151142
0.000151512
0.00015188
0.000152244
0.000152607
0.000152967
0.000153325
0.00015368
0.000154033
0.000154384
0.000154732
0.000155078
0.000155422
0.000155764
0.000156102
0.000156439
0.000156774
0.000157106
0.000157437
0.000157765
0.000158091
0.000158415
0.000158737
0.000159056
0.000159374
0.000159689
0.000160002
0.000160313
0.000160622
0.000160929
0.000161235
0.000161538
0.000161839
0.000162138
0.000162435
0.00016273
0.000163023
0.000163315
0.000163604
0.000163891
0.000164177
0.00016446
0.000164742
0.000165022
0.0001653
0.000165576
0.000165851
0.000166123
0.000166393
0.000166663
0.00016693
0.000167196
0.000167459
0.000167721
0.000167982
0.000168239
0.000168497
0.000168752
0.000169005
0.000169257
0.000169507
0.000169755
0.000170002
0.000170248
0.000170491
0.000170733
0.000170973
0.000171212
0.000171449
0.000171685
0.000171919
0.000172152
0.000172383
0.000172612
0.00017284
0.000173066
0.000173292
0.000173515
0.000173737
0.000173958
0.000174177
0.000174394
0.000174611
0.000174826
0.000175039
0.000175251
0.000175462
0.000175671
0.000175879
0.000176085
0.000176291
0.000176494
0.000176697
0.000176898
0.000177098
0.000177296
0.000177493
0.000177689
0.000177884
0.000178077
0.000178269
0.00017846
0.00017865
0.000178838
0.000179025
0.00017921
0.000179395
0.000179579
0.000179761
0.000179942
0.000180122
0.0001803
0.000180478
0.000180654
0.000180829
0.000181003
0.000181176
0.000181348
0.000181518
0.000181688
0.000181857
0.000182024
0.00018219
0.000182355
0.000182519
0.000182682
0.000182844
0.000183004
0.000183164
0.000183323
0.00018348
0.000183637
0.000183793
0.000183947
0.000184101
0.000184253
0.000184405
0.000184556
0.000184705
0.000184854
0.000185002
0.000185148
0.000185294
0.000185439
0.000185583
0.000185726
0.000185868
0.000186008
0.000186148
0.000186288
0.000186426
0.000186563
0.0001867
0.000186835
0.00018697
0.000187104
0.000187237
0.000187369
0.0001875
0.000187631
0.00018776
0.000187889
0.000188016
0.000188144
0.000188269
0
0

