-14930.3
-0.0242328
-0.0106816
-0.00739238
-0.00655363
-0.00671434
-0.00736047
-0.00822469
-0.00914601
-0.0100254
-0.0108046
-0.0114524
-0.0119564
-0.0123161
-0.0125386
-0.0126356
-0.0126213
-0.0125107
-0.012319
-0.0120606
-0.0117488
-0.0113959
-0.0110126
-0.0106084
-0.0101915
-0.00976862
-0.00934564
-0.00892726
-0.00851729
-0.00811872
-0.00773383
-0.00736428
-0.00701123
-0.00667539
-0.00635713
-0.00605652
-0.00577337
-0.00550733
-0.0052579
-0.00502447
-0.00480634
-0.00460277
-0.00441298
-0.0042362
-0.00407162
-0.00391847
-0.003776
-0.00364345
-0.00352013
-0.00340537
-0.00329853
-0.00319901
-0.00310624
-0.0030197
-0.0029389
-0.00286338
-0.00279271
-0.00272651
-0.0026644
-0.00260607
-0.00255119
-0.00249949
-0.00245071
-0.00240461
-0.00236098
-0.0023196
-0.00228031
-0.00224294
-0.00220732
-0.00217333
-0.00214084
-0.00210973
-0.00207989
-0.00205123
-0.00202366
-0.00199709
-0.00197146
-0.0019467
-0.00192275
-0.00189954
-0.00187704
-0.00185518
-0.00183394
-0.00181326
-0.00179311
-0.00177347
-0.00175429
-0.00173556
-0.00171724
-0.00169931
-0.00168176
-0.00166455
-0.00164768
-0.00163112
-0.00161486
-0.00159888
-0.00158318
-0.00156773
-0.00155254
-0.00153758
-0.00152284
-0.00150833
-0.00149402
-0.00147992
-0.001466
-0.00145228
-0.00143874
-0.00142536
-0.00141216
-0.00139912
-0.00138624
-0.00137352
-0.00136094
-0.00134851
-0.00133622
-0.00132406
-0.00131204
-0.00130015
-0.00128839
-0.00127675
-0.00126523
-0.00125383
-0.00124255
-0.00123138
-0.00122032
-0.00120938
-0.00119854
-0.0011878
-0.00117717
-0.00116664
-0.00115621
-0.00114587
-0.00113564
-0.00112549
-0.00111544
-0.00110549
-0.00109562
-0.00108584
-0.00107615
-0.00106654
-0.00105702
-0.00104759
-0.00103824
-0.00102896
-0.00101977
-0.00101066
-0.00100163
-0.000992669
-0.000983789
-0.000974985
-0.000966255
-0.000957598
-0.000949015
-0.000940502
-0.000932061
-0.000923691
-0.00091539
-0.000907156
-0.000898991
-0.000890893
-0.000882862
-0.000874896
-0.000866994
-0.000859158
-0.000851384
-0.000843674
-0.000836025
-0.000828439
-0.000820913
-0.000813447
-0.000806041
-0.000798694
-0.000791406
-0.000784175
-0.000777002
-0.000769886
-0.000762826
-0.000755822
-0.000748873
-0.000741978
-0.000735138
-0.000728351
-0.000721617
-0.000714936
-0.000708306
-0.000701729
-0.000695203
-0.000688727
-0.000682301
-0.000675926
-0.0006696
-0.000663322
-0.000657092
-0.000650911
-0.000644778
-0.000638691
-0.000632651
-0.000626658
-0.00062071
-0.000614808
-0.000608951
-0.000603138
-0.00059737
-0.000591646
-0.000585966
-0.000580328
-0.000574733
-0.000569181
-0.00056367
-0.000558202
-0.000552775
-0.000547388
-0.000542042
-0.000536737
-0.000531472
-0.000526246
-0.00052106
-0.000515912
-0.000510803
-0.000505732
-0.0005007
-0.000495705
-0.000490747
-0.000485827
-0.000480943
-0.000476096
-0.000471284
-0.00046651
-0.000461769
-0.000457065
-0.000452396
-0.000447761
-0.00044316
-0.000438594
-0.000434061
-0.000429563
-0.000425097
-0.000420664
-0.000416265
-0.000411898
-0.000407562
-0.000403259
-0.000398988
-0.000394748
-0.00039054
-0.000386362
-0.000382215
-0.000378099
-0.000374012
-0.000369956
-0.00036593
-0.000361933
-0.000357965
-0.000354026
-0.000350117
-0.000346236
-0.000342383
-0.000338558
-0.000334762
-0.000330992
-0.000327251
-0.000323537
-0.00031985
-0.000316189
-0.000312556
-0.000308949
-0.000305367
-0.000301812
-0.000298283
-0.00029478
-0.000291302
-0.000287849
-0.000284421
-0.000281018
-0.00027764
-0.000274286
-0.000270956
-0.000267651
-0.000264369
-0.000261111
-0.000257877
-0.000254666
-0.000251477
-0.000248312
-0.00024517
-0.000242051
-0.000238954
-0.000235879
-0.000232827
-0.000229796
-0.000226787
-0.0002238
-0.000220834
-0.000217889
-0.000214966
-0.000212063
-0.000209182
-0.000206321
-0.000203481
-0.00020066
-0.000197861
-0.00019508
-0.000192321
-0.00018958
-0.000186859
-0.000184158
-0.000181476
-0.000178813
-0.00017617
-0.000173544
-0.000170938
-0.00016835
-0.000165781
-0.00016323
-0.000160697
-0.000158182
-0.000155685
-0.000153206
-0.000150744
-0.0001483
-0.000145874
-0.000143464
-0.000141072
-0.000138696
-0.000136337
-0.000133995
-0.00013167
-0.000129361
-0.000127069
-0.000124792
-0.000122532
-0.000120288
-0.00011806
-0.000115847
-0.00011365
-0.000111468
-0.000109303
-0.000107152
-0.000105016
-0.000102896
-0.00010079
-9.8699e-05
-9.66235e-05
-9.45614e-05
-9.2515e-05
-9.04821e-05
-8.84641e-05
-8.64604e-05
-8.44701e-05
-8.2494e-05
-8.05322e-05
-7.85838e-05
-7.66497e-05
-7.47284e-05
-7.28212e-05
-7.09269e-05
-6.9046e-05
-6.7178e-05
-6.53234e-05
-6.34824e-05
-6.16534e-05
-5.98372e-05
-5.80345e-05
-5.62439e-05
-5.44654e-05
-5.27004e-05
-5.09467e-05
-4.92059e-05
-4.74771e-05
-4.57604e-05
-4.4055e-05
-4.23625e-05
-4.06813e-05
-3.90122e-05
-3.73545e-05
-3.57081e-05
-3.40731e-05
-3.24502e-05
-3.0838e-05
-2.92371e-05
-2.76476e-05
-2.60694e-05
-2.45019e-05
-2.29451e-05
-2.13989e-05
-1.98641e-05
-1.83393e-05
-1.68258e-05
-1.53222e-05
-1.38294e-05
-1.23471e-05
-1.08749e-05
-9.41254e-06
-7.96087e-06
-6.51915e-06
-5.08738e-06
-3.66555e-06
-2.25296e-06
-8.51035e-07
5.41656e-07
1.9244e-06
3.29791e-06
4.66218e-06
6.0165e-06
7.36158e-06
8.69743e-06
1.00233e-05
1.13407e-05
1.26495e-05
1.39484e-05
1.52388e-05
1.652e-05
1.77926e-05
1.90566e-05
2.03115e-05
2.15578e-05
2.27956e-05
2.40249e-05
2.52456e-05
2.64578e-05
2.76622e-05
2.88581e-05
3.00454e-05
3.12249e-05
3.23959e-05
3.35591e-05
3.47145e-05
3.58613e-05
3.7001e-05
3.81323e-05
3.92564e-05
4.03719e-05
4.14804e-05
4.2581e-05
4.36746e-05
4.47603e-05
4.58382e-05
4.6909e-05
4.79728e-05
4.90294e-05
5.00781e-05
5.11198e-05
5.21544e-05
5.31826e-05
5.42029e-05
5.52162e-05
5.6223e-05
5.72228e-05
5.82154e-05
5.92017e-05
6.01815e-05
6.11543e-05
6.21199e-05
6.30792e-05
6.40328e-05
6.49785e-05
6.59186e-05
6.68523e-05
6.77795e-05
6.87004e-05
6.96149e-05
7.0523e-05
7.14254e-05
7.23214e-05
7.3211e-05
7.4095e-05
7.49725e-05
7.58443e-05
7.67105e-05
7.75703e-05
7.84244e-05
7.92728e-05
8.01155e-05
8.09525e-05
8.17832e-05
8.26089e-05
8.34288e-05
8.42431e-05
8.50517e-05
8.58554e-05
8.66533e-05
8.74456e-05
8.82329e-05
8.90145e-05
8.97905e-05
9.05621e-05
9.13281e-05
9.20884e-05
9.28444e-05
9.35948e-05
9.43401e-05
9.50805e-05
9.58153e-05
9.65457e-05
9.72712e-05
9.79917e-05
9.87072e-05
9.94178e-05
0.000100124
0.000100825
0.000101522
0.000102213
0.0001029
0.000103583
0.000104261
0.000104934
0.000105602
0.000106267
0.000106926
0.000107581
0.000108232
0.000108879
0.000109521
0.000110159
0.000110792
0.000111421
0.000112047
0.000112667
0.000113284
0.000113896
0.000114504
0.000115108
0.000115709
0.000116305
0.000116897
0.000117485
0.000118069
0.000118649
0.000119225
0.000119798
0.000120366
0.000120931
0.000121493
0.00012205
0.000122603
0.000123153
0.000123699
0.000124241
0.00012478
0.000125315
0.000125847
0.000126375
0.000126899
0.00012742
0.000127938
0.000128452
0.000128962
0.000129469
0.000129973
0.000130473
0.000130971
0.000131465
0.000131955
0.000132442
0.000132926
0.000133407
0.000133884
0.000134358
0.000134829
0.000135297
0.000135762
0.000136224
0.000136682
0.000137138
0.00013759
0.00013804
0.000138486
0.00013893
0.000139371
0.000139809
0.000140243
0.000140675
0.000141104
0.00014153
0.000141953
0.000142374
0.000142792
0.000143207
0.000143619
0.000144028
0.000144434
0.000144839
0.000145239
0.000145638
0.000146035
0.000146428
0.000146818
0.000147206
0.000147592
0.000147975
0.000148355
0.000148733
0.000149109
0.000149481
0.000149852
0.00015022
0.000150586
0.000150949
0.00015131
0.000151668
0.000152024
0.000152378
0.000152729
0.000153078
0.000153424
0.000153769
0.000154111
0.000154451
0.000154789
0.000155124
0.000155457
0.000155788
0.000156117
0.000156443
0.000156768
0.00015709
0.00015741
0.000157728
0.000158044
0.000158358
0.00015867
0.00015898
0.000159287
0.000159593
0.000159896
0.000160198
0.000160498
0.000160796
0.000161091
0.000161385
0.000161677
0.000161967
0.000162254
0.000162541
0.000162825
0.000163108
0.000163388
0.000163667
0.000163943
0.000164218
0.000164492
0.000164763
0.000165033
0.000165301
0.000165567
0.000165831
0.000166094
0.000166355
0.000166614
0.000166872
0.000167127
0.000167382
0.000167634
0.000167885
0.000168134
0.000168382
0.000168628
0.000168873
0.000169115
0.000169356
0.000169596
0.000169834
0.000170071
0.000170305
0.000170539
0.00017077
0.000171001
0.00017123
0.000171457
0.000171683
0.000171907
0.000172131
0.000172351
0.000172572
0.000172791
0.000173007
0.000173223
0.000173438
0.00017365
0.000173862
0.000174072
0.000174281
0.000174489
0.000174695
0.0001749
0.000175103
0.000175305
0.000175506
0.000175706
0.000175904
0.000176101
0.000176296
0.000176491
0.000176684
0.000176876
0.000177067
0.000177256
0.000177444
0.000177631
0.000177817
0.000178002
0.000178185
0.000178367
0.000178548
0.000178728
0.000178906
0.000179084
0.00017926
0.000179436
0.00017961
0.000179782
0.000179954
0.000180125
0.000180295
0.000180463
0.000180631
0.000180797
0.000180963
0.000181127
0.00018129
0.000181452
0.000181613
0.000181773
0.000181932
0.00018209
0.000182247
0.000182403
0.000182558
0.000182712
0.000182865
0.000183017
0.000183168
0.000183318
0.000183467
0.000183615
0.000183762
0.000183909
0.000184054
0.000184198
0.000184341
0.000184484
0.000184626
0.000184766
0.000184906
0.000185045
0.000185183
0.00018532
0.000185456
0.000185592
0.000185726
0.00018586
0.000185993
0.000186125
0.000186256
0.000186386
0.000186516
0.000186644
0.000186772
0.000186899
0.000187025
0.00018715
0.000187275
0.000187399
0.000187522
0.000187644
0.000187766
0.000187886
0.000188006
0.000188125
0.000188243
0.000188361
0.000188478
0.000188594
0.000188709
0.000188824
0.000188938
0.000189051
0.000189163
0.000189276
0.000189386
0.000189497
0.000189606
0.000189715
0.000189823
0.000189931
0.000190038
0.000190144
0.00019025
0.000190355
0.000190459
0.000190562
0.000190665
0.000190768
0.000190869
0.00019097
0.00019107
0.00019117
0.000191269
0.000191367
0.000191465
0.000191563
0.000191659
0.000191755
0.000191851
0.000191946
0.00019204
0.000192133
0.000192226
0.000192319
0.000192411
0.000192501
0.000192592
0.000192683
0.000192772
0.000192861
0.00019295
0.000193037
0.000193125
0.000193211
0.000193298
0.000193383
0.000193469
0.000193553
0.000193638
0.000193721
0.000193804
0.000193886
0.000193969
0.00019405
0.000194131
0.000194212
0.000194291
0.000194371
0.00019445
0.000194529
0.000194607
0.000194684
0.000194761
0.000194838
0.000194914
0.00019499
0.000195064
0.000195139
0.000195214
0.000195288
0.000195361
0.000195433
0.000195506
0.000195577
0.000195649
0.00019572
0.000195791
0.000195861
0.000195931
0.000196
0.000196069
0.000196137
0.000196206
0.000196273
0.000196341
0.000196407
0.000196473
0.00019654
0.000196605
0.00019667
0.000196735
0.000196799
0.000196863
0.000196927
0.00019699
0.000197053
0.000197115
0.000197177
0.000197239
0.0001973
0.000197361
0.000197421
0.000197482
0.000197541
0.0001976
0.000197659
0.000197718
0.000197777
0.000197835
0.000197892
0.000197949
0.000198006
0.000198063
0.000198119
0.000198175
0.000198231
0.000198285
0.00019834
0.000198395
0.000198449
0.000198503
0.000198556
0.000198609
0.000198663
0.000198715
0.000198767
0.000198819
0.000198871
0.000198922
0.000198973
0.000199024
0.000199074
0.000199124
0.000199174
0.000199223
0.000199272
0.000199321
0.00019937
0.000199418
0.000199466
0.000199514
0.000199561
0.000199608
0.000199655
0.000199702
0.000199748
0.000199794
0.000199839
0.000199885
0.00019993
0.000199975
0.000200019
0.000200064
0.000200108
0.000200151
0.000200195
0.000200239
0.000200281
0.000200324
0.000200367
0.000200409
0.000200451
0.000200493
0.000200534
0.000200576
0.000200617
0.000200657
0.000200698
0.000200738
0.000200778
0.000200818
0.000200858
0.000200897
0.000200936
0.000200975
0.000201013
0.000201052
0.00020109
0.000201128
0.000201165
0.000201203
0.000201241
0.000201278
0.000201314
0.000201351
0.000201387
0.000201423
0.000201459
0.000201495
0.000201531
0.000201566
0.000201601
0.000201636
0.00020167
0.000201705
0.000201739
0.000201774
0.000201808
0.000201841
0.000201874
0.000201908
0.000201941
0.000201974
0.000202007
0.000202039
0.000202071
0.000202104
0.000202136
0.000202167
0.000202199
0.00020223
0.000202262
0.000202293
0.000202323
0.000202354
0.000202385
0.000202415
0.000202445
0.000202475
0.000202505
0.000202535
0.000202564
0.000202593
0.000202623
0.000202651
0.00020268
0
0

