-14930.3
-0.0242328
-0.0104946
-0.00668963
-0.00500291
-0.00407453
-0.00351317
-0.00316608
-0.00296217
-0.00286456
-0.00285222
-0.00291162
-0.00303279
-0.00320729
-0.00342735
-0.00368547
-0.00397438
-0.00428709
-0.00461696
-0.00495782
-0.00530405
-0.00565065
-0.00599326
-0.00632816
-0.00665226
-0.0069631
-0.00725875
-0.0075378
-0.00779928
-0.00804263
-0.0082676
-0.00847425
-0.00866284
-0.00883384
-0.00898783
-0.00912553
-0.00924772
-0.00935523
-0.00944891
-0.00952962
-0.00959822
-0.00965556
-0.00970245
-0.00973968
-0.00976801
-0.00978814
-0.00980076
-0.00980648
-0.00980592
-0.0097996
-0.00978806
-0.00977176
-0.00975114
-0.0097266
-0.00969853
-0.00966726
-0.0096331
-0.00959635
-0.00955726
-0.00951609
-0.00947305
-0.00942834
-0.00938214
-0.00933463
-0.00928596
-0.00923627
-0.00918568
-0.00913431
-0.00908226
-0.00902964
-0.00897652
-0.00892298
-0.00886911
-0.00881496
-0.00876059
-0.00870605
-0.0086514
-0.00859668
-0.00854193
-0.00848718
-0.00843247
-0.00837783
-0.00832328
-0.00826885
-0.00821457
-0.00816044
-0.00810648
-0.00805272
-0.00799917
-0.00794584
-0.00789273
-0.00783987
-0.00778725
-0.0077349
-0.00768281
-0.00763099
-0.00757944
-0.00752818
-0.0074772
-0.00742651
-0.00737612
-0.00732601
-0.00727621
-0.0072267
-0.00717749
-0.00712858
-0.00707998
-0.00703167
-0.00698367
-0.00693597
-0.00688858
-0.00684148
-0.00679469
-0.0067482
-0.00670201
-0.00665611
-0.00661052
-0.00656522
-0.00652022
-0.00647551
-0.0064311
-0.00638697
-0.00634314
-0.0062996
-0.00625634
-0.00621337
-0.00617069
-0.00612829
-0.00608617
-0.00604433
-0.00600276
-0.00596148
-0.00592046
-0.00587972
-0.00583925
-0.00579905
-0.00575912
-0.00571946
-0.00568005
-0.00564092
-0.00560204
-0.00556342
-0.00552505
-0.00548695
-0.00544909
-0.00541149
-0.00537414
-0.00533704
-0.00530019
-0.00526358
-0.00522721
-0.00519109
-0.00515521
-0.00511957
-0.00508416
-0.00504899
-0.00501405
-0.00497935
-0.00494488
-0.00491063
-0.00487662
-0.00484283
-0.00480926
-0.00477592
-0.0047428
-0.0047099
-0.00467722
-0.00464476
-0.00461251
-0.00458047
-0.00454865
-0.00451704
-0.00448564
-0.00445445
-0.00442347
-0.00439269
-0.00436212
-0.00433175
-0.00430158
-0.00427161
-0.00424184
-0.00421227
-0.00418289
-0.00415371
-0.00412472
-0.00409593
-0.00406732
-0.00403891
-0.00401068
-0.00398265
-0.00395479
-0.00392712
-0.00389964
-0.00387234
-0.00384522
-0.00381828
-0.00379151
-0.00376493
-0.00373852
-0.00371229
-0.00368623
-0.00366034
-0.00363463
-0.00360908
-0.00358371
-0.0035585
-0.00353346
-0.00350859
-0.00348388
-0.00345933
-0.00343495
-0.00341073
-0.00338667
-0.00336277
-0.00333902
-0.00331544
-0.00329201
-0.00326874
-0.00324562
-0.00322265
-0.00319984
-0.00317718
-0.00315466
-0.0031323
-0.00311009
-0.00308802
-0.0030661
-0.00304432
-0.00302269
-0.0030012
-0.00297986
-0.00295866
-0.00293759
-0.00291667
-0.00289588
-0.00287524
-0.00285473
-0.00283435
-0.00281411
-0.00279401
-0.00277404
-0.0027542
-0.00273449
-0.00271491
-0.00269547
-0.00267615
-0.00265696
-0.0026379
-0.00261896
-0.00260015
-0.00258146
-0.0025629
-0.00254446
-0.00252615
-0.00250795
-0.00248988
-0.00247193
-0.00245409
-0.00243637
-0.00241877
-0.00240129
-0.00238393
-0.00236668
-0.00234954
-0.00233252
-0.00231561
-0.00229881
-0.00228212
-0.00226555
-0.00224908
-0.00223273
-0.00221648
-0.00220034
-0.00218431
-0.00216838
-0.00215256
-0.00213684
-0.00212123
-0.00210573
-0.00209032
-0.00207502
-0.00205982
-0.00204472
-0.00202972
-0.00201482
-0.00200002
-0.00198532
-0.00197071
-0.00195621
-0.0019418
-0.00192748
-0.00191326
-0.00189913
-0.0018851
-0.00187116
-0.00185732
-0.00184356
-0.0018299
-0.00181633
-0.00180285
-0.00178945
-0.00177615
-0.00176294
-0.00174981
-0.00173677
-0.00172382
-0.00171095
-0.00169817
-0.00168547
-0.00167286
-0.00166033
-0.00164789
-0.00163553
-0.00162325
-0.00161105
-0.00159893
-0.00158689
-0.00157494
-0.00156306
-0.00155126
-0.00153954
-0.0015279
-0.00151634
-0.00150485
-0.00149344
-0.0014821
-0.00147084
-0.00145966
-0.00144855
-0.00143751
-0.00142655
-0.00141566
-0.00140484
-0.0013941
-0.00138342
-0.00137282
-0.00136229
-0.00135183
-0.00134143
-0.00133111
-0.00132085
-0.00131067
-0.00130055
-0.0012905
-0.00128051
-0.0012706
-0.00126074
-0.00125096
-0.00124124
-0.00123158
-0.00122199
-0.00121246
-0.00120299
-0.00119359
-0.00118425
-0.00117498
-0.00116576
-0.00115661
-0.00114751
-0.00113848
-0.00112951
-0.0011206
-0.00111174
-0.00110295
-0.00109421
-0.00108554
-0.00107692
-0.00106835
-0.00105985
-0.0010514
-0.00104301
-0.00103467
-0.00102639
-0.00101816
-0.00100999
-0.00100188
-0.000993815
-0.000985807
-0.000977851
-0.000969949
-0.0009621
-0.000954303
-0.000946557
-0.000938864
-0.000931221
-0.000923629
-0.000916089
-0.000908598
-0.000901157
-0.000893767
-0.000886425
-0.000879131
-0.000871887
-0.000864691
-0.000857543
-0.000850443
-0.00084339
-0.000836384
-0.000829425
-0.000822512
-0.000815645
-0.000808825
-0.000802049
-0.000795318
-0.000788633
-0.000781993
-0.000775396
-0.000768843
-0.000762334
-0.000755869
-0.000749446
-0.000743067
-0.00073673
-0.000730435
-0.000724182
-0.000717971
-0.000711802
-0.000705674
-0.000699586
-0.000693539
-0.000687533
-0.000681566
-0.000675639
-0.000669752
-0.000663904
-0.000658095
-0.000652325
-0.000646593
-0.000640899
-0.000635244
-0.000629626
-0.000624046
-0.000618503
-0.000612997
-0.000607528
-0.000602095
-0.000596699
-0.000591338
-0.000586014
-0.000580724
-0.000575471
-0.000570252
-0.000565067
-0.000559918
-0.000554803
-0.000549722
-0.000544675
-0.000539662
-0.000534682
-0.000529736
-0.000524821
-0.000519941
-0.000515092
-0.000510277
-0.000505493
-0.000500741
-0.000496021
-0.000491333
-0.000486675
-0.000482049
-0.000477454
-0.00047289
-0.000468355
-0.000463851
-0.000459378
-0.000454934
-0.000450519
-0.000446134
-0.000441779
-0.000437453
-0.000433155
-0.000428886
-0.000424646
-0.000420433
-0.00041625
-0.000412094
-0.000407965
-0.000403865
-0.000399791
-0.000395745
-0.000391726
-0.000387734
-0.000383768
-0.000379829
-0.000375916
-0.00037203
-0.000368169
-0.000364334
-0.000360525
-0.000356741
-0.000352982
-0.000349248
-0.00034554
-0.000341857
-0.000338197
-0.000334562
-0.000330952
-0.000327365
-0.000323803
-0.000320264
-0.000316749
-0.000313257
-0.000309789
-0.000306344
-0.000302922
-0.000299523
-0.000296146
-0.000292793
-0.000289461
-0.000286152
-0.000282865
-0.0002796
-0.000276356
-0.000273134
-0.000269934
-0.000266755
-0.000263597
-0.000260461
-0.000257345
-0.000254251
-0.000251176
-0.000248123
-0.000245089
-0.000242077
-0.000239084
-0.000236111
-0.000233158
-0.000230225
-0.000227311
-0.000224417
-0.000221542
-0.000218686
-0.00021585
-0.000213033
-0.000210234
-0.000207453
-0.000204692
-0.000201949
-0.000199224
-0.000196517
-0.000193829
-0.000191158
-0.000188506
-0.000185871
-0.000183253
-0.000180653
-0.000178071
-0.000175506
-0.000172957
-0.000170426
-0.000167912
-0.000165415
-0.000162934
-0.00016047
-0.000158022
-0.00015559
-0.000153176
-0.000150776
-0.000148394
-0.000146026
-0.000143675
-0.00014134
-0.00013902
-0.000136716
-0.000134427
-0.000132153
-0.000129895
-0.000127651
-0.000125422
-0.000123209
-0.00012101
-0.000118826
-0.000116656
-0.000114501
-0.000112361
-0.000110234
-0.000108122
-0.000106024
-0.00010394
-0.00010187
-9.98139e-05
-9.7771e-05
-9.57424e-05
-9.37272e-05
-9.17249e-05
-8.97367e-05
-8.77614e-05
-8.57995e-05
-8.38505e-05
-8.19142e-05
-7.99914e-05
-7.80815e-05
-7.61836e-05
-7.42992e-05
-7.24269e-05
-7.05673e-05
-6.87199e-05
-6.68852e-05
-6.50626e-05
-6.32521e-05
-6.14537e-05
-5.96674e-05
-5.78931e-05
-5.61302e-05
-5.43794e-05
-5.26407e-05
-5.09126e-05
-4.91966e-05
-4.7492e-05
-4.57994e-05
-4.41176e-05
-4.2447e-05
-4.07872e-05
-3.91387e-05
-3.75016e-05
-3.58751e-05
-3.42593e-05
-3.26549e-05
-3.10604e-05
-2.94772e-05
-2.79041e-05
-2.63423e-05
-2.47897e-05
-2.32485e-05
-2.17173e-05
-2.01959e-05
-1.86853e-05
-1.71846e-05
-1.56939e-05
-1.42131e-05
-1.27415e-05
-1.12806e-05
-9.82892e-06
-8.3872e-06
-6.95543e-06
-5.53289e-06
-4.1196e-06
-2.71625e-06
-1.32213e-06
6.2741e-08
1.43838e-06
2.80478e-06
4.16265e-06
5.51058e-06
6.84998e-06
8.18085e-06
9.50178e-06
1.08149e-05
1.21188e-05
1.34141e-05
1.47002e-05
1.59785e-05
1.72483e-05
1.85088e-05
1.97615e-05
2.10057e-05
2.22421e-05
2.34692e-05
2.46892e-05
2.59007e-05
2.71037e-05
2.82989e-05
2.94862e-05
3.06657e-05
3.18374e-05
3.30006e-05
3.41567e-05
3.53049e-05
3.64454e-05
3.75787e-05
3.87035e-05
3.9822e-05
4.09318e-05
4.20353e-05
4.3131e-05
4.42189e-05
4.53003e-05
4.6374e-05
4.74405e-05
4.85007e-05
4.9553e-05
5.05983e-05
5.16371e-05
5.26688e-05
5.36934e-05
5.47117e-05
5.57228e-05
5.67268e-05
5.77244e-05
5.87157e-05
5.97005e-05
6.06782e-05
6.16496e-05
6.26145e-05
6.3573e-05
6.45252e-05
6.54709e-05
6.64103e-05
6.73432e-05
6.82698e-05
6.91907e-05
7.01059e-05
7.1014e-05
7.19164e-05
7.28131e-05
7.37034e-05
7.45881e-05
7.5467e-05
7.63396e-05
7.72065e-05
7.80677e-05
7.89232e-05
7.9773e-05
8.06172e-05
8.14556e-05
8.22884e-05
8.31162e-05
8.39376e-05
8.4754e-05
8.55655e-05
8.63705e-05
8.71706e-05
8.79657e-05
8.87552e-05
8.95396e-05
9.03184e-05
9.10929e-05
9.1861e-05
9.26249e-05
9.33837e-05
9.41369e-05
9.48851e-05
9.56291e-05
9.63674e-05
9.71014e-05
9.78297e-05
9.85537e-05
9.92728e-05
9.99869e-05
0.000100697
0.000101402
0.000102102
0.000102797
0.000103488
0.000104174
0.000104856
0.000105533
0.000106206
0.000106874
0.000107537
0.000108197
0.000108852
0.000109502
0.000110149
0.00011079
0.000111428
0.000112061
0.00011269
0.000113316
0.000113937
0.000114553
0.000115166
0.000115774
0.000116379
0.000116979
0.000117576
0.000118169
0.000118757
0.000119342
0.000119922
0.000120499
0.000121073
0.000121642
0.000122207
0.000122769
0.000123327
0.000123882
0.000124432
0.000124979
0.000125522
0.000126062
0.000126598
0.000127131
0.00012766
0.000128185
0.000128708
0.000129226
0.000129742
0.000130253
0.000130761
0.000131266
0.000131768
0.000132266
0.000132761
0.000133252
0.000133741
0.000134227
0.000134708
0.000135187
0.000135663
0.000136135
0.000136604
0.00013707
0.000137533
0.000137993
0.00013845
0.000138904
0.000139355
0.000139803
0.000140248
0.00014069
0.000141129
0.000141565
0.000141999
0.000142429
0.000142856
0.000143281
0.000143703
0.000144122
0.000144538
0.000144952
0.000145362
0.000145771
0.000146176
0.000146579
0.000146979
0.000147376
0.000147771
0.000148163
0.000148553
0.000148939
0.000149324
0.000149705
0.000150085
0.000150462
0.000150836
0.000151208
0.000151577
0.000151944
0.000152309
0.00015267
0.000153031
0.000153387
0.000153743
0.000154095
0.000154445
0.000154794
0.000155139
0.000155482
0.000155823
0.000156162
0.000156499
0.000156833
0.000157165
0.000157495
0.000157823
0.000158149
0.000158472
0.000158793
0.000159112
0.000159429
0.000159745
0.000160057
0.000160368
0.000160677
0.000160983
0.000161288
0.000161591
0.000161891
0.000162191
0.000162487
0.000162782
0.000163074
0.000163366
0.000163654
0.000163941
0.000164227
0.00016451
0.000164791
0.000165071
0.000165349
0.000165625
0.000165899
0.000166171
0.000166441
0.00016671
0.000166977
0.000167242
0.000167505
0.000167767
0.000168027
0.000168285
0.000168541
0.000168797
0.00016905
0.000169301
0.00016955
0.000169799
0.000170046
0.00017029
0.000170534
0.000170775
0.000171016
0.000171254
0.000171491
0.000171726
0.00017196
0.000172192
0.000172423
0.000172652
0.00017288
0.000173106
0.000173331
0.000173554
0.000173776
0.000173996
0.000174215
0.000174433
0.000174649
0.000174863
0.000175076
0.000175288
0.000175499
0.000175707
0.000175915
0.000176122
0.000176326
0.00017653
0.000176732
0.000176933
0.000177133
0.000177331
0.000177528
0.000177723
0.000177918
0.000178111
0.000178302
0.000178494
0.000178683
0.000178871
0.000179058
0.000179243
0.000179427
0.000179611
0.000179792
0.000179974
0.000180153
0.000180332
0.000180509
0.000180685
0.00018086
0.000181034
0.000181206
0.000181378
0.000181548
0.000181717
0.000181886
0.000182053
0.000182219
0.000182384
0.000182547
0.00018271
0.000182872
0.000183033
0.000183192
0.00018335
0.000183508
0.000183664
0.00018382
0.000183974
0.000184128
0.00018428
0.000184432
0.000184582
0.000184732
0.000184879
0.000185027
0.000185173
0.000185319
0.000185464
0.000185608
0.00018575
0.000185892
0.000186033
0.000186173
0.000186312
0.00018645
0.000186587
0.000186723
0.000186859
0.000186993
0.000187127
0.00018726
0.000187392
0.000187523
0.000187653
0.000187783
0.000187911
0.000188038
0.000188166
0.000188291
0
0

