-14930.3
-0.0242328
-0.0104944
-0.00668839
-0.00499823
-0.00406181
-0.00348537
-0.00311394
-0.00287502
-0.00273128
-0.00266227
-0.00265595
-0.00270448
-0.00280197
-0.00294343
-0.00312413
-0.00333948
-0.00358489
-0.00385584
-0.00414792
-0.00445689
-0.00477874
-0.00510971
-0.00544633
-0.00578545
-0.00612423
-0.00646014
-0.00679093
-0.00711468
-0.0074297
-0.00773459
-0.00802816
-0.00830947
-0.00857776
-0.00883244
-0.0090731
-0.00929947
-0.0095114
-0.00970886
-0.00989192
-0.0100607
-0.0102155
-0.0103566
-0.0104842
-0.0105988
-0.0107008
-0.0107906
-0.0108688
-0.0109357
-0.0109918
-0.0110377
-0.0110738
-0.0111007
-0.0111187
-0.0111284
-0.0111303
-0.0111248
-0.0111123
-0.0110933
-0.0110682
-0.0110373
-0.0110011
-0.01096
-0.0109142
-0.0108642
-0.0108102
-0.0107526
-0.0106916
-0.0106275
-0.0105605
-0.010491
-0.0104191
-0.0103451
-0.0102692
-0.0101915
-0.0101122
-0.0100316
-0.00994977
-0.00986684
-0.00978298
-0.00969831
-0.00961297
-0.00952705
-0.00944067
-0.00935392
-0.00926691
-0.0091797
-0.00909239
-0.00900504
-0.00891773
-0.00883051
-0.00874344
-0.00865659
-0.00856998
-0.00848368
-0.00839773
-0.00831215
-0.00822699
-0.00814227
-0.00805803
-0.0079743
-0.00789109
-0.00780842
-0.00772633
-0.00764482
-0.00756391
-0.00748361
-0.00740394
-0.00732491
-0.00724652
-0.00716879
-0.00709172
-0.00701532
-0.00693959
-0.00686453
-0.00679016
-0.00671647
-0.00664346
-0.00657114
-0.00649951
-0.00642855
-0.00635829
-0.0062887
-0.0062198
-0.00615158
-0.00608403
-0.00601716
-0.00595096
-0.00588543
-0.00582056
-0.00575635
-0.00569279
-0.00562989
-0.00556764
-0.00550603
-0.00544506
-0.00538472
-0.00532501
-0.00526592
-0.00520745
-0.0051496
-0.00509235
-0.00503571
-0.00497966
-0.0049242
-0.00486934
-0.00481505
-0.00476134
-0.0047082
-0.00465562
-0.00460361
-0.00455215
-0.00450124
-0.00445087
-0.00440103
-0.00435174
-0.00430296
-0.00425472
-0.00420698
-0.00415976
-0.00411305
-0.00406683
-0.00402112
-0.00397589
-0.00393115
-0.00388688
-0.0038431
-0.00379978
-0.00375693
-0.00371455
-0.00367261
-0.00363113
-0.00359009
-0.0035495
-0.00350934
-0.00346962
-0.00343032
-0.00339145
-0.00335299
-0.00331495
-0.00327732
-0.00324009
-0.00320326
-0.00316683
-0.0031308
-0.00309515
-0.00305988
-0.003025
-0.00299049
-0.00295635
-0.00292258
-0.00288917
-0.00285613
-0.00282344
-0.0027911
-0.00275911
-0.00272746
-0.00269616
-0.00266519
-0.00263455
-0.00260425
-0.00257427
-0.00254462
-0.00251528
-0.00248626
-0.00245755
-0.00242916
-0.00240106
-0.00237327
-0.00234578
-0.00231859
-0.00229168
-0.00226507
-0.00223875
-0.0022127
-0.00218694
-0.00216145
-0.00213624
-0.0021113
-0.00208663
-0.00206223
-0.00203808
-0.0020142
-0.00199057
-0.0019672
-0.00194408
-0.0019212
-0.00189858
-0.00187619
-0.00185405
-0.00183215
-0.00181048
-0.00178904
-0.00176783
-0.00174686
-0.0017261
-0.00170558
-0.00168527
-0.00166518
-0.0016453
-0.00162564
-0.00160619
-0.00158695
-0.00156792
-0.00154909
-0.00153046
-0.00151203
-0.0014938
-0.00147577
-0.00145793
-0.00144028
-0.00142282
-0.00140555
-0.00138846
-0.00137156
-0.00135484
-0.0013383
-0.00132193
-0.00130575
-0.00128973
-0.00127389
-0.00125821
-0.00124271
-0.00122737
-0.0012122
-0.00119719
-0.00118234
-0.00116764
-0.00115311
-0.00113873
-0.00112451
-0.00111044
-0.00109652
-0.00108275
-0.00106912
-0.00105565
-0.00104231
-0.00102912
-0.00101607
-0.00100317
-0.000990395
-0.000977761
-0.000965262
-0.000952898
-0.000940666
-0.000928564
-0.000916593
-0.000904749
-0.000893033
-0.000881441
-0.000869974
-0.00085863
-0.000847406
-0.000836304
-0.000825319
-0.000814453
-0.000803703
-0.000793067
-0.000782546
-0.000772137
-0.000761839
-0.000751652
-0.000741573
-0.000731603
-0.000721738
-0.000711979
-0.000702325
-0.000692774
-0.000683325
-0.000673977
-0.000664728
-0.000655579
-0.000646527
-0.000637572
-0.000628713
-0.000619948
-0.000611276
-0.000602698
-0.000594211
-0.000585815
-0.000577508
-0.00056929
-0.000561159
-0.000553116
-0.000545158
-0.000537285
-0.000529497
-0.000521791
-0.000514167
-0.000506625
-0.000499164
-0.000491781
-0.000484478
-0.000477252
-0.000470104
-0.000463031
-0.000456035
-0.000449112
-0.000442264
-0.000435488
-0.000428785
-0.000422152
-0.000415591
-0.000409099
-0.000402677
-0.000396323
-0.000390037
-0.000383818
-0.000377664
-0.000371576
-0.000365554
-0.000359595
-0.000353699
-0.000347866
-0.000342096
-0.000336387
-0.000330738
-0.00032515
-0.00031962
-0.000314151
-0.000308738
-0.000303383
-0.000298086
-0.000292844
-0.000287659
-0.000282529
-0.000277452
-0.00027243
-0.000267461
-0.000262545
-0.000257681
-0.000252869
-0.000248108
-0.000243398
-0.000238736
-0.000234125
-0.000229563
-0.00022505
-0.000220583
-0.000216165
-0.000211793
-0.000207467
-0.000203188
-0.000198954
-0.000194765
-0.000190619
-0.000186519
-0.000182461
-0.000178446
-0.000174474
-0.000170545
-0.000166656
-0.000162809
-0.000159003
-0.000155237
-0.00015151
-0.000147823
-0.000144175
-0.000140566
-0.000136995
-0.000133462
-0.000129966
-0.000126507
-0.000123084
-0.000119698
-0.000116347
-0.000113032
-0.000109752
-0.000106507
-0.000103296
-0.000100119
-9.69745e-05
-9.38644e-05
-9.07869e-05
-8.77415e-05
-8.4728e-05
-8.17472e-05
-7.8797e-05
-7.58787e-05
-7.29903e-05
-7.01332e-05
-6.73059e-05
-6.45084e-05
-6.17401e-05
-5.90016e-05
-5.62915e-05
-5.36099e-05
-5.09567e-05
-4.83312e-05
-4.57334e-05
-4.31633e-05
-4.06195e-05
-3.81034e-05
-3.56129e-05
-3.31494e-05
-3.07115e-05
-2.82991e-05
-2.59124e-05
-2.35505e-05
-2.12128e-05
-1.89006e-05
-1.66126e-05
-1.43481e-05
-1.21077e-05
-9.89074e-06
-7.69725e-06
-5.5265e-06
-3.3792e-06
-1.25392e-06
8.49328e-07
2.92984e-06
4.98903e-06
7.02691e-06
9.04276e-06
1.1038e-05
1.30119e-05
1.49653e-05
1.6898e-05
1.88108e-05
2.07037e-05
2.25767e-05
2.44299e-05
2.62638e-05
2.80786e-05
2.98742e-05
3.16513e-05
3.34092e-05
3.51493e-05
3.6871e-05
3.85749e-05
4.02611e-05
4.19295e-05
4.35801e-05
4.52137e-05
4.68309e-05
4.84304e-05
5.00135e-05
5.15803e-05
5.31307e-05
5.46648e-05
5.61825e-05
5.76846e-05
5.91718e-05
6.06427e-05
6.20986e-05
6.35389e-05
6.4965e-05
6.63755e-05
6.77717e-05
6.91537e-05
7.05209e-05
7.18738e-05
7.32124e-05
7.45376e-05
7.58493e-05
7.71468e-05
7.84308e-05
7.9702e-05
8.09596e-05
8.22038e-05
8.34359e-05
8.46545e-05
8.58611e-05
8.70548e-05
8.82365e-05
8.94053e-05
9.05621e-05
9.17075e-05
9.28409e-05
9.39621e-05
9.5072e-05
9.61705e-05
9.72577e-05
9.83335e-05
9.93979e-05
0.000100452
0.000101495
0.000102526
0.000103548
0.000104559
0.000105559
0.000106549
0.000107529
0.000108499
0.000109459
0.000110408
0.000111348
0.000112279
0.000113199
0.000114111
0.000115012
0.000115906
0.000116789
0.000117663
0.000118528
0.000119385
0.000120233
0.000121072
0.000121902
0.000122724
0.000123538
0.000124343
0.000125139
0.000125928
0.000126709
0.000127481
0.000128246
0.000129003
0.000129752
0.000130493
0.000131227
0.000131953
0.000132673
0.000133384
0.000134088
0.000134786
0.000135476
0.000136159
0.000136834
0.000137504
0.000138166
0.000138821
0.00013947
0.000140112
0.000140748
0.000141378
0.000142
0.000142617
0.000143227
0.000143831
0.000144429
0.000145021
0.000145607
0.000146187
0.00014676
0.000147329
0.000147891
0.000148448
0.000148999
0.000149544
0.000150084
0.000150619
0.000151148
0.000151671
0.00015219
0.000152703
0.000153211
0.000153714
0.000154212
0.000154705
0.000155193
0.000155676
0.000156154
0.000156628
0.000157096
0.00015756
0.000158019
0.000158474
0.000158923
0.000159369
0.000159809
0.000160246
0.000160678
0.000161106
0.00016153
0.000161949
0.000162364
0.000162775
0.000163182
0.000163585
0.000163983
0.000164378
0.000164769
0.000165156
0.000165539
0.000165918
0.000166294
0.000166666
0.000167034
0.000167398
0.000167758
0.000168116
0.00016847
0.00016882
0.000169166
0.000169509
0.00016985
0.000170186
0.000170519
0.000170849
0.000171175
0.000171498
0.000171819
0.000172135
0.00017245
0.00017276
0.000173068
0.000173372
0.000173674
0.000173972
0.000174268
0.000174561
0.000174851
0.000175138
0.000175422
0.000175703
0.000175982
0.000176258
0.000176532
0.000176802
0.00017707
0.000177335
0.000177598
0.000177858
0.000178116
0.000178371
0.000178623
0.000178873
0.000179121
0.000179366
0.000179609
0.000179849
0.000180088
0.000180324
0.000180557
0.000180789
0.000181017
0.000181244
0.000181469
0.000181692
0.000181912
0.00018213
0.000182346
0.00018256
0.000182772
0.000182982
0.00018319
0.000183396
0.0001836
0.000183801
0.000184001
0.000184199
0.000184395
0.000184589
0.000184782
0.000184972
0.000185161
0.000185348
0.000185534
0.000185717
0.000185898
0.000186078
0.000186256
0.000186433
0.000186608
0.000186781
0.000186953
0.000187123
0.00018729
0.000187457
0.000187622
0.000187785
0.000187947
0.000188108
0.000188267
0.000188424
0.000188581
0.000188735
0.000188888
0.00018904
0.00018919
0.000189338
0.000189486
0.000189632
0.000189776
0.000189919
0.000190061
0.000190202
0.000190341
0.000190479
0.000190616
0.000190751
0.000190885
0.000191018
0.000191149
0.00019128
0.000191409
0.000191537
0.000191664
0.000191789
0.000191914
0.000192037
0.00019216
0.00019228
0.000192401
0.000192519
0.000192637
0.000192754
0.00019287
0.000192984
0.000193098
0.00019321
0.000193321
0.000193432
0.000193541
0.00019365
0.000193757
0.000193864
0.000193969
0.000194073
0.000194177
0.000194279
0.000194381
0.000194482
0.000194582
0.000194681
0.000194779
0.000194875
0.000194972
0.000195067
0.000195162
0.000195256
0.000195349
0.00019544
0.000195532
0.000195622
0.000195712
0.000195801
0.000195889
0.000195975
0.000196062
0.000196148
0.000196233
0.000196317
0.0001964
0.000196483
0.000196564
0.000196646
0.000196726
0.000196806
0.000196886
0.000196964
0.000197041
0.000197118
0.000197195
0.00019727
0.000197345
0.00019742
0.000197493
0.000197566
0.000197639
0.000197711
0.000197782
0.000197852
0.000197922
0.000197991
0.00019806
0.000198128
0.000198196
0.000198263
0.000198329
0.000198395
0.00019846
0.000198525
0.000198589
0.000198653
0.000198715
0.000198778
0.00019884
0.000198901
0.000198963
0.000199023
0.000199083
0.000199142
0.000199201
0.000199259
0.000199317
0.000199375
0.000199432
0.000199488
0.000199544
0.000199599
0.000199654
0.000199709
0.000199763
0.000199817
0.00019987
0.000199923
0.000199974
0.000200026
0.000200078
0.000200129
0.00020018
0.000200229
0.00020028
0.000200329
0.000200378
0.000200426
0.000200475
0.000200522
0.00020057
0.000200617
0.000200664
0.00020071
0.000200755
0.000200801
0.000200846
0.000200891
0.000200935
0.000200979
0.000201022
0.000201066
0.000201109
0.000201152
0.000201194
0.000201236
0.000201278
0.000201319
0.000201359
0.0002014
0.00020144
0.000201481
0.00020152
0.00020156
0.000201599
0.000201637
0.000201675
0.000201714
0.000201751
0.000201789
0.000201826
0.000201863
0.0002019
0.000201936
0.000201972
0.000202008
0.000202044
0.000202079
0.000202114
0.000202149
0.000202183
0.000202217
0.000202251
0.000202284
0.000202318
0.000202351
0.000202384
0.000202417
0.000202449
0.000202481
0.000202513
0.000202544
0.000202576
0.000202608
0.000202638
0.000202669
0.000202699
0.00020273
0.00020276
0.00020279
0.000202819
0.000202849
0.000202878
0.000202907
0.000202935
0.000202964
0.000202992
0.00020302
0.000203048
0.000203076
0.000203103
0.000203131
0.000203158
0.000203185
0.000203211
0.000203237
0.000203264
0.00020329
0.000203315
0.000203342
0.000203367
0.000203392
0.000203418
0.000203443
0.000203467
0.000203492
0.000203517
0.000203541
0.000203565
0.000203589
0.000203612
0.000203636
0.000203659
0.000203683
0.000203706
0.000203729
0.000203752
0.000203774
0.000203797
0.000203819
0.000203841
0.000203863
0.000203885
0.000203907
0.000203929
0.00020395
0.000203971
0.000203993
0.000204013
0.000204034
0.000204054
0.000204075
0.000204096
0.000204116
0.000204136
0.000204156
0.000204176
0.000204196
0.000204215
0.000204235
0.000204254
0.000204273
0.000204292
0.000204312
0.00020433
0.000204349
0.000204368
0.000204386
0.000204404
0.000204422
0.00020444
0.000204459
0.000204476
0.000204494
0.000204512
0.000204529
0.000204547
0.000204564
0.000204581
0.000204598
0.000204615
0.000204632
0.000204648
0.000204665
0.000204682
0.000204698
0.000204715
0.000204731
0.000204747
0.000204763
0.000204779
0.000204795
0.00020481
0.000204826
0.000204842
0.000204857
0.000204872
0.000204888
0.000204903
0.000204918
0.000204933
0
0

