-14930.3
-0.0242328
-0.0104945
-0.00668918
-0.00500103
-0.00406897
-0.00350005
-0.0031397
-0.00291519
-0.00278844
-0.00273787
-0.00275018
-0.00281627
-0.00292923
-0.00308322
-0.003273
-0.0034937
-0.00374068
-0.00400954
-0.00429613
-0.00459656
-0.00490723
-0.00522481
-0.00554627
-0.0058689
-0.00619024
-0.00650815
-0.00682072
-0.00712633
-0.00742356
-0.00771123
-0.00798836
-0.00825414
-0.00850794
-0.00874928
-0.0089778
-0.00919327
-0.00939557
-0.00958468
-0.00976064
-0.00992359
-0.0100737
-0.0102112
-0.0103364
-0.0104496
-0.0105512
-0.0106415
-0.0107209
-0.0107899
-0.0108487
-0.010898
-0.010938
-0.0109692
-0.0109921
-0.011007
-0.0110143
-0.0110145
-0.0110079
-0.010995
-0.0109761
-0.0109515
-0.0109216
-0.0108868
-0.0108473
-0.0108036
-0.0107557
-0.0107041
-0.0106491
-0.0105908
-0.0105295
-0.0104655
-0.010399
-0.0103302
-0.0102592
-0.0101864
-0.0101117
-0.0100356
-0.00995795
-0.00987908
-0.00979909
-0.0097181
-0.00963624
-0.00955363
-0.00947038
-0.00938659
-0.00930236
-0.00921777
-0.00913291
-0.00904786
-0.0089627
-0.00887748
-0.00879228
-0.00870715
-0.00862214
-0.00853731
-0.00845271
-0.00836837
-0.00828434
-0.00820065
-0.00811734
-0.00803444
-0.00795197
-0.00786997
-0.00778846
-0.00770745
-0.00762697
-0.00754704
-0.00746768
-0.00738889
-0.00731069
-0.00723309
-0.0071561
-0.00707974
-0.007004
-0.0069289
-0.00685444
-0.00678063
-0.00670747
-0.00663496
-0.00656311
-0.00649191
-0.00642138
-0.00635151
-0.00628229
-0.00621374
-0.00614584
-0.00607861
-0.00601202
-0.0059461
-0.00588082
-0.00581619
-0.00575221
-0.00568887
-0.00562617
-0.00556411
-0.00550268
-0.00544187
-0.00538169
-0.00532213
-0.00526318
-0.00520484
-0.00514711
-0.00508997
-0.00503344
-0.00497749
-0.00492214
-0.00486736
-0.00481315
-0.00475952
-0.00470646
-0.00465395
-0.004602
-0.00455061
-0.00449975
-0.00444944
-0.00439966
-0.00435041
-0.00430168
-0.00425348
-0.00420579
-0.0041586
-0.00411193
-0.00406575
-0.00402006
-0.00397486
-0.00393015
-0.00388592
-0.00384216
-0.00379887
-0.00375604
-0.00371367
-0.00367176
-0.0036303
-0.00358928
-0.00354871
-0.00350857
-0.00346886
-0.00342958
-0.00339072
-0.00335227
-0.00331425
-0.00327663
-0.00323941
-0.0032026
-0.00316618
-0.00313015
-0.00309451
-0.00305926
-0.00302438
-0.00298988
-0.00295575
-0.00292199
-0.00288859
-0.00285555
-0.00282287
-0.00279054
-0.00275856
-0.00272692
-0.00269562
-0.00266466
-0.00263403
-0.00260373
-0.00257376
-0.00254411
-0.00251478
-0.00248577
-0.00245706
-0.00242867
-0.00240058
-0.0023728
-0.00234531
-0.00231812
-0.00229122
-0.00226461
-0.00223829
-0.00221225
-0.00218649
-0.00216101
-0.0021358
-0.00211087
-0.0020862
-0.0020618
-0.00203766
-0.00201378
-0.00199015
-0.00196678
-0.00194367
-0.0019208
-0.00189817
-0.00187579
-0.00185365
-0.00183175
-0.00181009
-0.00178865
-0.00176745
-0.00174647
-0.00172573
-0.0017052
-0.00168489
-0.0016648
-0.00164493
-0.00162528
-0.00160583
-0.00158659
-0.00156756
-0.00154873
-0.00153011
-0.00151168
-0.00149345
-0.00147542
-0.00145759
-0.00143994
-0.00142248
-0.00140521
-0.00138813
-0.00137123
-0.00135451
-0.00133797
-0.00132161
-0.00130542
-0.00128941
-0.00127357
-0.0012579
-0.00124239
-0.00122706
-0.00121189
-0.00119688
-0.00118203
-0.00116734
-0.00115281
-0.00113843
-0.00112421
-0.00111014
-0.00109622
-0.00108245
-0.00106883
-0.00105536
-0.00104202
-0.00102884
-0.00101579
-0.00100288
-0.000990113
-0.000977481
-0.000964984
-0.000952621
-0.000940391
-0.000928291
-0.000916321
-0.000904479
-0.000892764
-0.000881174
-0.000869709
-0.000858366
-0.000847144
-0.000836043
-0.00082506
-0.000814195
-0.000803446
-0.000792813
-0.000782292
-0.000771885
-0.000761589
-0.000751403
-0.000741326
-0.000731356
-0.000721494
-0.000711736
-0.000702083
-0.000692533
-0.000683085
-0.000673739
-0.000664491
-0.000655344
-0.000646293
-0.00063734
-0.000628481
-0.000619718
-0.000611048
-0.00060247
-0.000593985
-0.00058559
-0.000577285
-0.000569068
-0.000560938
-0.000552896
-0.00054494
-0.000537069
-0.000529281
-0.000521576
-0.000513954
-0.000506413
-0.000498952
-0.000491572
-0.000484269
-0.000477045
-0.000469897
-0.000462826
-0.00045583
-0.000448909
-0.000442061
-0.000435287
-0.000428584
-0.000421953
-0.000415394
-0.000408903
-0.000402481
-0.000396129
-0.000389843
-0.000383625
-0.000377473
-0.000371386
-0.000365364
-0.000359407
-0.000353512
-0.00034768
-0.000341911
-0.000336203
-0.000330555
-0.000324967
-0.000319439
-0.00031397
-0.000308559
-0.000303205
-0.000297909
-0.000292668
-0.000287483
-0.000282354
-0.000277278
-0.000272257
-0.000267289
-0.000262374
-0.000257511
-0.0002527
-0.000247939
-0.00024323
-0.00023857
-0.00023396
-0.000229398
-0.000224885
-0.00022042
-0.000216003
-0.000211631
-0.000207307
-0.000203029
-0.000198795
-0.000194606
-0.000190462
-0.000186363
-0.000182306
-0.000178292
-0.000174321
-0.000170391
-0.000166504
-0.000162658
-0.000158852
-0.000155087
-0.000151361
-0.000147675
-0.000144028
-0.000140419
-0.000136849
-0.000133317
-0.000129821
-0.000126363
-0.000122941
-0.000119556
-0.000116206
-0.000112892
-0.000109612
-0.000106367
-0.000103157
-9.99808e-05
-9.6838e-05
-9.37279e-05
-9.06512e-05
-8.76065e-05
-8.45944e-05
-8.16136e-05
-7.86648e-05
-7.57466e-05
-7.28596e-05
-7.00024e-05
-6.71758e-05
-6.43791e-05
-6.16115e-05
-5.8873e-05
-5.61636e-05
-5.34827e-05
-5.08302e-05
-4.82054e-05
-4.5609e-05
-4.30389e-05
-4.04966e-05
-3.79805e-05
-3.54907e-05
-3.30279e-05
-3.05907e-05
-2.81791e-05
-2.57923e-05
-2.34311e-05
-2.10948e-05
-1.87827e-05
-1.64954e-05
-1.42315e-05
-1.19919e-05
-9.77563e-06
-7.58285e-06
-5.41281e-06
-3.26551e-06
-1.14094e-06
9.61596e-07
3.04211e-06
5.10059e-06
7.13705e-06
9.1529e-06
1.11474e-05
1.31206e-05
1.5074e-05
1.7006e-05
1.89181e-05
2.08103e-05
2.26826e-05
2.4535e-05
2.6369e-05
2.8183e-05
2.99779e-05
3.17543e-05
3.35122e-05
3.52517e-05
3.69726e-05
3.86765e-05
4.0362e-05
4.20297e-05
4.36803e-05
4.53131e-05
4.69297e-05
4.85284e-05
5.01115e-05
5.16776e-05
5.32273e-05
5.47607e-05
5.62785e-05
5.77806e-05
5.92663e-05
6.07372e-05
6.21924e-05
6.36327e-05
6.50581e-05
6.64678e-05
6.78641e-05
6.92447e-05
7.06118e-05
7.1964e-05
7.33027e-05
7.46272e-05
7.59381e-05
7.72356e-05
7.85189e-05
7.97894e-05
8.1047e-05
8.22912e-05
8.35226e-05
8.47405e-05
8.59463e-05
8.71401e-05
8.8321e-05
8.94899e-05
9.0646e-05
9.17907e-05
9.2924e-05
9.40446e-05
9.51544e-05
9.62523e-05
9.73387e-05
9.84145e-05
9.94782e-05
0.000100532
0.000101574
0.000102605
0.000103626
0.000104637
0.000105637
0.000106626
0.000107606
0.000108575
0.000109535
0.000110484
0.000111424
0.000112354
0.000113274
0.000114185
0.000115087
0.000115979
0.000116862
0.000117736
0.000118601
0.000119458
0.000120305
0.000121143
0.000121974
0.000122795
0.000123608
0.000124413
0.000125209
0.000125998
0.000126778
0.00012755
0.000128314
0.000129071
0.00012982
0.000130561
0.000131294
0.00013202
0.000132739
0.00013345
0.000134154
0.00013485
0.00013554
0.000136223
0.000136899
0.000137568
0.00013823
0.000138885
0.000139533
0.000140175
0.000140811
0.000141439
0.000142062
0.000142678
0.000143288
0.000143892
0.000144489
0.000145081
0.000145667
0.000146246
0.00014682
0.000147387
0.00014795
0.000148506
0.000149057
0.000149602
0.000150142
0.000150676
0.000151205
0.000151728
0.000152247
0.000152759
0.000153267
0.00015377
0.000154268
0.00015476
0.000155248
0.00015573
0.000156208
0.000156682
0.00015715
0.000157613
0.000158072
0.000158526
0.000158976
0.000159421
0.000159862
0.000160298
0.00016073
0.000161157
0.000161581
0.000162
0.000162415
0.000162826
0.000163232
0.000163634
0.000164033
0.000164428
0.000164818
0.000165205
0.000165588
0.000165967
0.000166342
0.000166713
0.000167081
0.000167446
0.000167806
0.000168163
0.000168517
0.000168866
0.000169212
0.000169555
0.000169895
0.000170231
0.000170564
0.000170893
0.00017122
0.000171543
0.000171863
0.00017218
0.000172494
0.000172803
0.000173111
0.000173416
0.000173717
0.000174016
0.000174311
0.000174603
0.000174893
0.00017518
0.000175464
0.000175745
0.000176024
0.000176299
0.000176572
0.000176843
0.000177111
0.000177376
0.000177638
0.000177898
0.000178155
0.00017841
0.000178663
0.000178913
0.00017916
0.000179405
0.000179648
0.000179888
0.000180126
0.000180362
0.000180595
0.000180826
0.000181055
0.000181282
0.000181506
0.000181729
0.000181949
0.000182166
0.000182382
0.000182596
0.000182808
0.000183018
0.000183226
0.000183431
0.000183635
0.000183837
0.000184037
0.000184234
0.00018443
0.000184624
0.000184817
0.000185007
0.000185196
0.000185382
0.000185567
0.00018575
0.000185932
0.000186111
0.00018629
0.000186466
0.000186641
0.000186813
0.000186985
0.000187155
0.000187323
0.000187489
0.000187654
0.000187817
0.000187979
0.000188139
0.000188299
0.000188456
0.000188611
0.000188766
0.000188919
0.00018907
0.00018922
0.000189369
0.000189516
0.000189661
0.000189806
0.000189949
0.000190091
0.000190231
0.00019037
0.000190508
0.000190645
0.00019078
0.000190914
0.000191047
0.000191178
0.000191308
0.000191438
0.000191566
0.000191692
0.000191818
0.000191942
0.000192065
0.000192187
0.000192308
0.000192428
0.000192547
0.000192664
0.000192781
0.000192897
0.000193011
0.000193124
0.000193236
0.000193348
0.000193458
0.000193567
0.000193675
0.000193783
0.000193889
0.000193994
0.000194099
0.000194202
0.000194305
0.000194406
0.000194507
0.000194607
0.000194706
0.000194803
0.0001949
0.000194996
0.000195091
0.000195186
0.00019528
0.000195373
0.000195464
0.000195555
0.000195646
0.000195735
0.000195824
0.000195912
0.000195999
0.000196086
0.000196171
0.000196255
0.00019634
0.000196423
0.000196505
0.000196587
0.000196668
0.000196748
0.000196828
0.000196908
0.000196986
0.000197063
0.00019714
0.000197216
0.000197292
0.000197367
0.000197441
0.000197514
0.000197588
0.00019766
0.000197732
0.000197803
0.000197873
0.000197943
0.000198012
0.000198081
0.000198149
0.000198216
0.000198283
0.000198349
0.000198415
0.00019848
0.000198545
0.000198609
0.000198672
0.000198735
0.000198798
0.00019886
0.000198921
0.000198982
0.000199042
0.000199102
0.000199161
0.00019922
0.000199278
0.000199336
0.000199393
0.00019945
0.000199506
0.000199562
0.000199618
0.000199672
0.000199727
0.000199781
0.000199834
0.000199888
0.00019994
0.000199993
0.000200044
0.000200096
0.000200146
0.000200198
0.000200247
0.000200297
0.000200346
0.000200395
0.000200443
0.000200492
0.000200539
0.000200587
0.000200634
0.00020068
0.000200726
0.000200772
0.000200817
0.000200863
0.000200907
0.000200951
0.000200995
0.000201039
0.000201082
0.000201125
0.000201167
0.00020121
0.000201252
0.000201293
0.000201334
0.000201376
0.000201416
0.000201456
0.000201496
0.000201535
0.000201575
0.000201614
0.000201653
0.000201691
0.000201729
0.000201766
0.000201804
0.000201841
0.000201878
0.000201915
0.000201951
0.000201987
0.000202023
0.000202058
0.000202093
0.000202128
0.000202163
0.000202197
0.000202231
0.000202265
0.000202299
0.000202332
0.000202365
0.000202398
0.000202431
0.000202463
0.000202495
0.000202527
0.000202559
0.00020259
0.000202621
0.000202652
0.000202682
0.000202713
0.000202743
0.000202773
0.000202803
0.000202832
0.000202861
0.000202891
0.00020292
0.000202948
0.000202976
0.000203005
0.000203033
0.000203061
0.000203088
0.000203116
0.000203143
0.00020317
0.000203197
0.000203224
0.00020325
0.000203276
0.000203302
0.000203328
0.000203354
0.000203379
0.000203404
0.00020343
0.000203455
0.00020348
0.000203504
0.000203529
0.000203553
0.000203577
0.0002036
0.000203625
0.000203648
0.000203671
0.000203694
0.000203718
0.00020374
0.000203763
0.000203786
0.000203808
0.000203831
0.000203853
0.000203875
0.000203896
0.000203918
0.000203939
0.000203961
0.000203982
0.000204003
0.000204024
0.000204045
0.000204066
0.000204086
0.000204106
0.000204127
0.000204147
0.000204167
0.000204187
0.000204206
0.000204226
0.000204245
0.000204265
0.000204283
0.000204302
0.000204322
0.00020434
0.000204359
0.000204378
0.000204396
0.000204414
0.000204432
0.00020445
0.000204469
0.000204486
0.000204504
0.000204521
0.000204539
0.000204556
0.000204574
0.000204591
0.000204608
0.000204625
0.000204641
0.000204658
0.000204675
0.000204691
0.000204707
0.000204724
0.00020474
0.000204756
0.000204772
0.000204788
0.000204804
0.00020482
0.000204835
0.000204851
0.000204866
0.000204881
0.000204896
0.000204911
0.000204927
0
0

