-14930.3
-0.0242328
-0.0104945
-0.00668882
-0.00499924
-0.00406306
-0.00348501
-0.00310772
-0.00285566
-0.00268833
-0.00258234
-0.00252336
-0.00250204
-0.00251186
-0.00254798
-0.00260658
-0.00268447
-0.00277888
-0.00288738
-0.00300778
-0.00313811
-0.00327657
-0.00342157
-0.00357165
-0.0037255
-0.00388195
-0.00403998
-0.00419867
-0.00435719
-0.00451484
-0.004671
-0.00482512
-0.00497674
-0.00512546
-0.00527093
-0.00541286
-0.00555101
-0.00568518
-0.0058152
-0.00594096
-0.00606235
-0.0061793
-0.00629175
-0.00639968
-0.00650309
-0.00660196
-0.00669634
-0.00678624
-0.0068717
-0.00695279
-0.00702957
-0.00710209
-0.00717044
-0.00723468
-0.00729492
-0.00735122
-0.00740369
-0.00745241
-0.00749748
-0.00753899
-0.00757704
-0.00761172
-0.00764314
-0.00767139
-0.00769657
-0.00771877
-0.00773809
-0.00775462
-0.00776847
-0.00777971
-0.00778844
-0.00779475
-0.00779873
-0.00780046
-0.00780004
-0.00779753
-0.00779303
-0.00778661
-0.00777834
-0.00776831
-0.00775659
-0.00774325
-0.00772835
-0.00771197
-0.00769417
-0.00767502
-0.00765457
-0.00763289
-0.00761004
-0.00758606
-0.00756102
-0.00753497
-0.00750796
-0.00748004
-0.00745125
-0.00742164
-0.00739127
-0.00736016
-0.00732836
-0.00729591
-0.00726285
-0.00722922
-0.00719504
-0.00716037
-0.00712522
-0.00708963
-0.00705363
-0.00701726
-0.00698053
-0.00694347
-0.00690612
-0.00686849
-0.00683061
-0.0067925
-0.00675419
-0.00671569
-0.00667703
-0.00663822
-0.00659928
-0.00656024
-0.0065211
-0.00648188
-0.00644261
-0.00640329
-0.00636393
-0.00632456
-0.00628518
-0.0062458
-0.00620644
-0.00616711
-0.00612782
-0.00608858
-0.00604939
-0.00601027
-0.00597123
-0.00593228
-0.00589341
-0.00585464
-0.00581598
-0.00577743
-0.005739
-0.0057007
-0.00566252
-0.00562448
-0.00558659
-0.00554883
-0.00551123
-0.00547378
-0.00543648
-0.00539935
-0.00536238
-0.00532558
-0.00528896
-0.0052525
-0.00521622
-0.00518012
-0.0051442
-0.00510846
-0.00507291
-0.00503754
-0.00500236
-0.00496737
-0.00493257
-0.00489797
-0.00486355
-0.00482933
-0.00479531
-0.00476148
-0.00472785
-0.00469441
-0.00466117
-0.00462813
-0.00459529
-0.00456264
-0.00453019
-0.00449794
-0.00446589
-0.00443404
-0.00440239
-0.00437093
-0.00433967
-0.00430861
-0.00427774
-0.00424708
-0.0042166
-0.00418633
-0.00415625
-0.00412636
-0.00409667
-0.00406717
-0.00403786
-0.00400875
-0.00397983
-0.0039511
-0.00392255
-0.0038942
-0.00386604
-0.00383806
-0.00381027
-0.00378267
-0.00375525
-0.00372801
-0.00370096
-0.00367409
-0.00364741
-0.0036209
-0.00359457
-0.00356842
-0.00354245
-0.00351665
-0.00349103
-0.00346559
-0.00344032
-0.00341522
-0.00339029
-0.00336554
-0.00334095
-0.00331653
-0.00329228
-0.0032682
-0.00324428
-0.00322053
-0.00319694
-0.00317351
-0.00315025
-0.00312714
-0.0031042
-0.00308141
-0.00305878
-0.00303631
-0.00301399
-0.00299183
-0.00296982
-0.00294796
-0.00292625
-0.0029047
-0.00288329
-0.00286203
-0.00284092
-0.00281996
-0.00279914
-0.00277847
-0.00275794
-0.00273755
-0.0027173
-0.0026972
-0.00267723
-0.00265741
-0.00263772
-0.00261816
-0.00259875
-0.00257947
-0.00256032
-0.00254131
-0.00252242
-0.00250367
-0.00248505
-0.00246656
-0.0024482
-0.00242997
-0.00241186
-0.00239388
-0.00237602
-0.00235829
-0.00234068
-0.00232319
-0.00230583
-0.00228858
-0.00227146
-0.00225446
-0.00223757
-0.0022208
-0.00220415
-0.00218761
-0.00217119
-0.00215488
-0.00213869
-0.0021226
-0.00210663
-0.00209078
-0.00207503
-0.00205939
-0.00204386
-0.00202844
-0.00201312
-0.00199791
-0.00198281
-0.00196781
-0.00195291
-0.00193812
-0.00192344
-0.00190885
-0.00189436
-0.00187998
-0.0018657
-0.00185151
-0.00183742
-0.00182343
-0.00180954
-0.00179575
-0.00178205
-0.00176844
-0.00175493
-0.00174151
-0.00172819
-0.00171496
-0.00170182
-0.00168877
-0.00167581
-0.00166294
-0.00165016
-0.00163747
-0.00162487
-0.00161236
-0.00159993
-0.00158758
-0.00157533
-0.00156315
-0.00155107
-0.00153906
-0.00152714
-0.0015153
-0.00150354
-0.00149187
-0.00148027
-0.00146876
-0.00145732
-0.00144597
-0.00143469
-0.00142349
-0.00141237
-0.00140132
-0.00139035
-0.00137946
-0.00136864
-0.0013579
-0.00134723
-0.00133663
-0.00132611
-0.00131566
-0.00130528
-0.00129498
-0.00128474
-0.00127458
-0.00126448
-0.00125446
-0.00124451
-0.00123462
-0.0012248
-0.00121505
-0.00120537
-0.00119575
-0.0011862
-0.00117672
-0.0011673
-0.00115794
-0.00114865
-0.00113943
-0.00113026
-0.00112117
-0.00111213
-0.00110315
-0.00109424
-0.00108539
-0.0010766
-0.00106787
-0.0010592
-0.00105059
-0.00104204
-0.00103355
-0.00102512
-0.00101674
-0.00100842
-0.00100016
-0.000991959
-0.000983812
-0.00097572
-0.000967685
-0.000959704
-0.000951779
-0.000943908
-0.00093609
-0.000928328
-0.000920617
-0.00091296
-0.000905356
-0.000897803
-0.000890303
-0.000882854
-0.000875456
-0.000868109
-0.000860813
-0.000853566
-0.00084637
-0.000839222
-0.000832124
-0.000825074
-0.000818073
-0.00081112
-0.000804214
-0.000797356
-0.000790545
-0.00078378
-0.000777062
-0.00077039
-0.000763764
-0.000757183
-0.000750647
-0.000744156
-0.000737709
-0.000731307
-0.000724948
-0.000718634
-0.000712362
-0.000706133
-0.000699947
-0.000693803
-0.000687701
-0.000681641
-0.000675623
-0.000669645
-0.000663709
-0.000657813
-0.000651958
-0.000646143
-0.000640366
-0.000634631
-0.000628934
-0.000623276
-0.000617657
-0.000612076
-0.000606533
-0.000601029
-0.000595562
-0.000590132
-0.000584739
-0.000579384
-0.000574064
-0.000568781
-0.000563535
-0.000558323
-0.000553148
-0.000548008
-0.000542904
-0.000537834
-0.000532798
-0.000527797
-0.00052283
-0.000517898
-0.000512998
-0.000508133
-0.0005033
-0.0004985
-0.000493734
-0.000488999
-0.000484297
-0.000479627
-0.000474989
-0.000470383
-0.000465808
-0.000461264
-0.000456751
-0.000452269
-0.000447818
-0.000443396
-0.000439005
-0.000434644
-0.000430312
-0.000426011
-0.000421738
-0.000417495
-0.00041328
-0.000409094
-0.000404937
-0.000400808
-0.000396707
-0.000392634
-0.000388589
-0.000384572
-0.000380581
-0.000376618
-0.000372682
-0.000368773
-0.00036489
-0.000361034
-0.000357204
-0.0003534
-0.000349622
-0.00034587
-0.000342143
-0.000338441
-0.000334764
-0.000331114
-0.000327487
-0.000323885
-0.000320308
-0.000316755
-0.000313226
-0.000309722
-0.000306241
-0.000302783
-0.00029935
-0.000295939
-0.000292552
-0.000289187
-0.000285846
-0.000282527
-0.000279231
-0.000275957
-0.000272706
-0.000269476
-0.000266269
-0.000263083
-0.000259919
-0.000256777
-0.000253655
-0.000250555
-0.000247476
-0.000244418
-0.000241381
-0.000238364
-0.000235368
-0.000232392
-0.000229436
-0.0002265
-0.000223585
-0.000220689
-0.000217812
-0.000214956
-0.000212119
-0.000209301
-0.000206502
-0.000203721
-0.00020096
-0.000198218
-0.000195494
-0.000192789
-0.000190101
-0.000187433
-0.000184782
-0.00018215
-0.000179535
-0.000176937
-0.000174358
-0.000171795
-0.000169251
-0.000166723
-0.000164213
-0.00016172
-0.000159243
-0.000156783
-0.000154341
-0.000151914
-0.000149504
-0.00014711
-0.000144732
-0.000142371
-0.000140026
-0.000137696
-0.000135383
-0.000133084
-0.000130802
-0.000128535
-0.000126284
-0.000124047
-0.000121825
-0.000119619
-0.000117428
-0.000115251
-0.000113089
-0.000110942
-0.00010881
-0.000106691
-0.000104587
-0.000102498
-0.000100422
-9.83608e-05
-9.63129e-05
-9.42793e-05
-9.22592e-05
-9.02526e-05
-8.82602e-05
-8.62806e-05
-8.43152e-05
-8.23626e-05
-8.04228e-05
-7.84964e-05
-7.65829e-05
-7.46829e-05
-7.27956e-05
-7.09205e-05
-6.90581e-05
-6.72092e-05
-6.53717e-05
-6.3547e-05
-6.17351e-05
-5.99346e-05
-5.81468e-05
-5.63711e-05
-5.46075e-05
-5.28553e-05
-5.11151e-05
-4.9387e-05
-4.76703e-05
-4.5965e-05
-4.42717e-05
-4.25892e-05
-4.09186e-05
-3.92595e-05
-3.7611e-05
-3.59739e-05
-3.43474e-05
-3.27323e-05
-3.11279e-05
-2.95348e-05
-2.79517e-05
-2.63799e-05
-2.48181e-05
-2.32677e-05
-2.17272e-05
-2.01967e-05
-1.86775e-05
-1.71676e-05
-1.56683e-05
-1.4179e-05
-1.27003e-05
-1.12309e-05
-9.77137e-06
-8.32254e-06
-6.88224e-06
-5.4526e-06
-4.0322e-06
-2.62174e-06
-1.22052e-06
1.71456e-07
1.5542e-06
2.927e-06
4.29127e-06
5.64559e-06
6.99138e-06
8.32794e-06
9.65526e-06
1.09741e-05
1.22836e-05
1.35846e-05
1.48764e-05
1.61597e-05
1.74344e-05
1.87006e-05
1.99583e-05
2.12075e-05
2.24481e-05
2.36809e-05
2.49052e-05
2.6121e-05
2.73289e-05
2.85284e-05
2.972e-05
3.0903e-05
3.2079e-05
3.32465e-05
3.44061e-05
3.55579e-05
3.67026e-05
3.78388e-05
3.89679e-05
4.00891e-05
4.12026e-05
4.23089e-05
4.34081e-05
4.44996e-05
4.55839e-05
4.66604e-05
4.77297e-05
4.8792e-05
4.98479e-05
5.0896e-05
5.1937e-05
5.29708e-05
5.39983e-05
5.50186e-05
5.60319e-05
5.70387e-05
5.80385e-05
5.90312e-05
6.00181e-05
6.0998e-05
6.19707e-05
6.29378e-05
6.38978e-05
6.4852e-05
6.57992e-05
6.674e-05
6.76751e-05
6.86031e-05
6.95254e-05
7.04413e-05
7.13515e-05
7.22553e-05
7.31528e-05
7.40445e-05
7.49299e-05
7.58102e-05
7.66835e-05
7.75518e-05
7.84137e-05
7.92699e-05
8.01212e-05
8.0966e-05
8.18052e-05
8.26387e-05
8.34665e-05
8.42893e-05
8.51065e-05
8.59179e-05
8.67237e-05
8.75245e-05
8.83196e-05
8.91097e-05
8.98942e-05
9.06737e-05
9.14482e-05
9.2217e-05
9.29809e-05
9.37397e-05
9.44929e-05
9.52418e-05
9.59851e-05
9.67241e-05
9.74574e-05
9.81864e-05
9.89104e-05
9.96295e-05
0.000100344
0.000101053
0.000101758
0.000102458
0.000103153
0.000103843
0.00010453
0.000105211
0.000105887
0.00010656
0.000107228
0.000107891
0.00010855
0.000109204
0.000109854
0.0001105
0.000111142
0.000111779
0.000112412
0.000113041
0.000113665
0.000114285
0.000114902
0.000115514
0.000116122
0.000116726
0.000117325
0.000117921
0.000118513
0.000119101
0.000119685
0.000120265
0.000120841
0.000121414
0.000121982
0.000122547
0.000123108
0.000123665
0.000124218
0.000124768
0.000125315
0.000125857
0.000126396
0.000126931
0.000127463
0.000127991
0.000128516
0.000129037
0.000129554
0.000130068
0.000130579
0.000131087
0.00013159
0.000132091
0.000132589
0.000133083
0.000133573
0.00013406
0.000134544
0.000135025
0.000135503
0.000135977
0.000136449
0.000136917
0.000137382
0.000137844
0.000138303
0.000138759
0.000139212
0.000139662
0.000140109
0.000140553
0.000140993
0.000141431
0.000141866
0.000142298
0.000142728
0.000143154
0.000143577
0.000143998
0.000144416
0.000144832
0.000145244
0.000145653
0.00014606
0.000146464
0.000146866
0.000147265
0.000147661
0.000148055
0.000148446
0.000148834
0.00014922
0.000149603
0.000149984
0.000150362
0.000150737
0.00015111
0.000151481
0.000151849
0.000152215
0.000152578
0.000152939
0.000153298
0.000153654
0.000154008
0.000154359
0.000154708
0.000155054
0.000155399
0.000155742
0.000156081
0.000156419
0.000156754
0.000157087
0.000157418
0.000157747
0.000158074
0.000158398
0.00015872
0.00015904
0.000159358
0.000159674
0.000159988
0.0001603
0.00016061
0.000160916
0.000161222
0.000161526
0.000161827
0.000162127
0.000162424
0.00016272
0.000163013
0.000163305
0.000163595
0.000163883
0.000164169
0.000164453
0.000164735
0.000165015
0.000165294
0.00016557
0.000165845
0.000166118
0.000166388
0.000166658
0.000166926
0.000167191
0.000167455
0.000167718
0.000167978
0.000168237
0.000168494
0.00016875
0.000169003
0.000169255
0.000169506
0.000169754
0.000170001
0.000170247
0.000170491
0.000170733
0.000170973
0.000171212
0.00017145
0.000171686
0.000171919
0.000172153
0.000172383
0.000172614
0.000172842
0.000173068
0.000173294
0.000173517
0.000173739
0.00017396
0.000174179
0.000174397
0.000174614
0.000174828
0.000175042
0.000175254
0.000175465
0.000175675
0.000175882
0.000176089
0.000176294
0.000176498
0.000176701
0.000176902
0.000177102
0.000177301
0.000177498
0.000177693
0.000177888
0.000178082
0.000178274
0.000178465
0.000178654
0.000178843
0.00017903
0.000179216
0.0001794
0.000179584
0.000179766
0.000179947
0.000180127
0.000180306
0.000180483
0.00018066
0.000180835
0.000181009
0.000181182
0.000181354
0.000181524
0.000181694
0.000181862
0.000182029
0.000182196
0.00018236
0.000182525
0.000182687
0.000182849
0.000183011
0.00018317
0.000183329
0.000183487
0.000183643
0.000183799
0.000183953
0.000184107
0.00018426
0.000184411
0.000184562
0.000184711
0.000184859
0.000185007
0.000185154
0.0001853
0.000185444
0.000185588
0.000185731
0.000185873
0.000186014
0.000186154
0.000186293
0.000186432
0.000186569
0.000186705
0.000186841
0.000186975
0.000187109
0.000187242
0.000187374
0.000187506
0.000187636
0.000187766
0.000187894
0.000188021
0.000188149
0.000188275
0.0001884
0.000188524
0.000188648
0.000188771
0.000188893
0.000189015
0
0

