-14930.3
-0.0242328
-0.0108102
-0.00779145
-0.00725529
-0.00763153
-0.00834208
-0.00911346
-0.00981426
-0.0103888
-0.0108214
-0.0111167
-0.0112882
-0.0113529
-0.0113278
-0.0112289
-0.0110704
-0.0108648
-0.0106228
-0.0103535
-0.0100644
-0.00976201
-0.00945156
-0.00913744
-0.00882322
-0.00851178
-0.00820545
-0.00790602
-0.0076149
-0.00733314
-0.0070615
-0.00680048
-0.0065504
-0.0063114
-0.00608349
-0.00586656
-0.00566043
-0.00546482
-0.00527944
-0.00510391
-0.00493786
-0.0047809
-0.0046326
-0.00449254
-0.00436031
-0.0042355
-0.00411769
-0.0040065
-0.00390153
-0.00380243
-0.00370882
-0.00362038
-0.00353678
-0.00345771
-0.00338289
-0.00331203
-0.00324488
-0.00318119
-0.00312073
-0.00306329
-0.00300866
-0.00295665
-0.0029071
-0.00285982
-0.00281467
-0.00277151
-0.00273019
-0.0026906
-0.00265262
-0.00261614
-0.00258106
-0.00254728
-0.00251473
-0.00248332
-0.00245297
-0.00242362
-0.0023952
-0.00236765
-0.00234092
-0.00231496
-0.00228972
-0.00226515
-0.00224122
-0.00221788
-0.00219511
-0.00217286
-0.00215112
-0.00212984
-0.00210901
-0.00208861
-0.0020686
-0.00204897
-0.0020297
-0.00201078
-0.00199218
-0.00197389
-0.00195589
-0.00193818
-0.00192074
-0.00190355
-0.00188662
-0.00186992
-0.00185345
-0.0018372
-0.00182116
-0.00180532
-0.00178969
-0.00177424
-0.00175898
-0.00174389
-0.00172898
-0.00171424
-0.00169965
-0.00168523
-0.00167096
-0.00165684
-0.00164287
-0.00162903
-0.00161534
-0.00160178
-0.00158836
-0.00157507
-0.0015619
-0.00154886
-0.00153594
-0.00152313
-0.00151045
-0.00149788
-0.00148543
-0.00147308
-0.00146085
-0.00144872
-0.0014367
-0.00142478
-0.00141296
-0.00140125
-0.00138963
-0.00137812
-0.0013667
-0.00135537
-0.00134414
-0.001333
-0.00132195
-0.001311
-0.00130013
-0.00128935
-0.00127866
-0.00126805
-0.00125753
-0.00124709
-0.00123674
-0.00122647
-0.00121628
-0.00120617
-0.00119614
-0.00118618
-0.00117631
-0.00116651
-0.00115679
-0.00114714
-0.00113757
-0.00112807
-0.00111865
-0.00110929
-0.00110001
-0.0010908
-0.00108166
-0.00107259
-0.00106359
-0.00105466
-0.00104579
-0.00103699
-0.00102826
-0.00101959
-0.00101099
-0.00100246
-0.000993983
-0.000985574
-0.000977227
-0.000968942
-0.00096072
-0.000952558
-0.000944457
-0.000936416
-0.000928436
-0.000920514
-0.00091265
-0.000904845
-0.000897097
-0.000889407
-0.000881773
-0.000874194
-0.000866672
-0.000859205
-0.000851793
-0.000844435
-0.00083713
-0.00082988
-0.000822682
-0.000815537
-0.000808444
-0.000801402
-0.000794412
-0.000787472
-0.000780583
-0.000773744
-0.000766954
-0.000760214
-0.000753523
-0.00074688
-0.000740284
-0.000733737
-0.000727237
-0.000720784
-0.000714377
-0.000708017
-0.000701702
-0.000695433
-0.000689209
-0.00068303
-0.000676895
-0.000670804
-0.000664756
-0.000658752
-0.000652791
-0.000646873
-0.000640997
-0.000635164
-0.000629371
-0.000623621
-0.000617911
-0.000612242
-0.000606614
-0.000601025
-0.000595477
-0.000589968
-0.000584498
-0.000579067
-0.000573675
-0.000568321
-0.000563005
-0.000557727
-0.000552486
-0.000547283
-0.000542116
-0.000536986
-0.000531892
-0.000526835
-0.000521813
-0.000516827
-0.000511876
-0.00050696
-0.000502079
-0.000497232
-0.000492419
-0.000487641
-0.000482896
-0.000478185
-0.000473507
-0.000468861
-0.000464249
-0.000459669
-0.000455121
-0.000450606
-0.000446122
-0.000441669
-0.000437248
-0.000432858
-0.000428499
-0.00042417
-0.000419872
-0.000415604
-0.000411365
-0.000407157
-0.000402978
-0.000398828
-0.000394708
-0.000390616
-0.000386553
-0.000382518
-0.000378512
-0.000374534
-0.000370583
-0.00036666
-0.000362764
-0.000358896
-0.000355054
-0.000351239
-0.000347452
-0.00034369
-0.000339955
-0.000336246
-0.000332562
-0.000328905
-0.000325272
-0.000321665
-0.000318083
-0.000314526
-0.000310994
-0.000307486
-0.000304003
-0.000300544
-0.000297109
-0.000293698
-0.000290311
-0.000286947
-0.000283607
-0.000280289
-0.000276995
-0.000273723
-0.000270474
-0.000267248
-0.000264044
-0.000260862
-0.000257702
-0.000254565
-0.000251449
-0.000248354
-0.000245281
-0.000242229
-0.000239199
-0.000236189
-0.0002332
-0.000230232
-0.000227284
-0.000224357
-0.000221449
-0.000218562
-0.000215695
-0.000212848
-0.00021002
-0.000207212
-0.000204423
-0.000201653
-0.000198902
-0.000196171
-0.000193458
-0.000190764
-0.000188089
-0.000185432
-0.000182793
-0.000180172
-0.00017757
-0.000174985
-0.000172419
-0.000169869
-0.000167337
-0.000164823
-0.000162327
-0.000159847
-0.000157384
-0.000154937
-0.000152509
-0.000150096
-0.0001477
-0.000145321
-0.000142958
-0.000140611
-0.000138281
-0.000135966
-0.000133667
-0.000131384
-0.000129116
-0.000126864
-0.000124628
-0.000122407
-0.0001202
-0.00011801
-0.000115834
-0.000113673
-0.000111527
-0.000109395
-0.000107278
-0.000105176
-0.000103088
-0.000101014
-9.89548e-05
-9.69091e-05
-9.48776e-05
-9.28596e-05
-9.08559e-05
-8.88656e-05
-8.68888e-05
-8.49263e-05
-8.29765e-05
-8.10402e-05
-7.91168e-05
-7.72068e-05
-7.53096e-05
-7.34259e-05
-7.15543e-05
-6.96962e-05
-6.78502e-05
-6.60169e-05
-6.41965e-05
-6.23881e-05
-6.05918e-05
-5.88083e-05
-5.70362e-05
-5.52769e-05
-5.35296e-05
-5.17937e-05
-5.00699e-05
-4.83575e-05
-4.66571e-05
-4.49681e-05
-4.32905e-05
-4.16249e-05
-3.997e-05
-3.83265e-05
-3.66944e-05
-3.50729e-05
-3.34628e-05
-3.18633e-05
-3.02752e-05
-2.86978e-05
-2.7131e-05
-2.55742e-05
-2.40287e-05
-2.24932e-05
-2.0969e-05
-1.94541e-05
-1.79499e-05
-1.64563e-05
-1.49726e-05
-1.34982e-05
-1.20345e-05
-1.05807e-05
-9.13684e-06
-7.70294e-06
-6.27827e-06
-4.86355e-06
-3.45807e-06
-2.06253e-06
-6.76238e-07
7.00821e-07
2.06864e-06
3.42723e-06
4.77587e-06
6.11598e-06
7.44685e-06
8.7692e-06
1.00823e-05
1.13862e-05
1.26815e-05
1.39683e-05
1.52459e-05
1.6515e-05
1.77755e-05
1.90282e-05
2.02717e-05
2.15066e-05
2.27338e-05
2.39524e-05
2.51632e-05
2.63654e-05
2.75592e-05
2.87458e-05
2.99239e-05
3.10935e-05
3.22559e-05
3.34106e-05
3.45567e-05
3.56958e-05
3.6827e-05
3.79503e-05
3.90666e-05
4.01751e-05
4.12765e-05
4.237e-05
4.34557e-05
4.45351e-05
4.56066e-05
4.6671e-05
4.77283e-05
4.87785e-05
4.98216e-05
5.08576e-05
5.18872e-05
5.2909e-05
5.39244e-05
5.49327e-05
5.59345e-05
5.69293e-05
5.79177e-05
5.88997e-05
5.98746e-05
6.08431e-05
6.18052e-05
6.27602e-05
6.37095e-05
6.46524e-05
6.55889e-05
6.6519e-05
6.74427e-05
6.83601e-05
6.92717e-05
7.01769e-05
7.10765e-05
7.19697e-05
7.28572e-05
7.37383e-05
7.46137e-05
7.54834e-05
7.63474e-05
7.72051e-05
7.8057e-05
7.8904e-05
7.97446e-05
8.05795e-05
8.14094e-05
8.22337e-05
8.30515e-05
8.38651e-05
8.46723e-05
8.54745e-05
8.62718e-05
8.70626e-05
8.78492e-05
8.86301e-05
8.94053e-05
9.01763e-05
9.09416e-05
9.17018e-05
9.24572e-05
9.32068e-05
9.39522e-05
9.46919e-05
9.54273e-05
9.61578e-05
9.68832e-05
9.76037e-05
9.83193e-05
9.90298e-05
9.97361e-05
0.000100437
0.000101134
0.000101827
0.000102514
0.000103197
0.000103876
0.000104549
0.000105219
0.000105884
0.000106544
0.0001072
0.000107851
0.000108499
0.000109142
0.000109781
0.000110415
0.000111045
0.000111671
0.000112294
0.000112911
0.000113524
0.000114134
0.00011474
0.000115341
0.000115939
0.000116532
0.000117122
0.000117708
0.000118289
0.000118867
0.000119441
0.000120011
0.000120577
0.00012114
0.000121699
0.000122254
0.000122806
0.000123354
0.000123898
0.000124438
0.000124975
0.000125509
0.000126039
0.000126565
0.000127088
0.000127607
0.000128123
0.000128636
0.000129145
0.000129651
0.000130153
0.000130652
0.000131148
0.00013164
0.000132129
0.000132615
0.000133098
0.000133578
0.000134054
0.000134527
0.000134998
0.000135464
0.000135928
0.000136389
0.000136846
0.000137301
0.000137753
0.000138202
0.000138648
0.00013909
0.00013953
0.000139967
0.000140401
0.000140833
0.000141261
0.000141687
0.000142109
0.000142529
0.000142947
0.000143361
0.000143772
0.000144181
0.000144588
0.000144991
0.000145392
0.00014579
0.000146186
0.000146579
0.00014697
0.000147358
0.000147743
0.000148125
0.000148506
0.000148883
0.000149258
0.000149631
0.000150002
0.00015037
0.000150735
0.000151098
0.000151459
0.000151817
0.000152173
0.000152526
0.000152878
0.000153227
0.000153574
0.000153918
0.00015426
0.0001546
0.000154937
0.000155273
0.000155606
0.000155937
0.000156266
0.000156593
0.000156917
0.000157239
0.00015756
0.000157878
0.000158194
0.000158508
0.00015882
0.00015913
0.000159438
0.000159743
0.000160047
0.000160349
0.000160649
0.000160947
0.000161243
0.000161537
0.00016183
0.000162119
0.000162408
0.000162694
0.000162979
0.000163261
0.000163542
0.000163821
0.000164098
0.000164373
0.000164647
0.000164919
0.000165189
0.000165457
0.000165723
0.000165988
0.000166251
0.000166512
0.000166772
0.00016703
0.000167286
0.00016754
0.000167793
0.000168045
0.000168294
0.000168542
0.000168788
0.000169033
0.000169276
0.000169518
0.000169758
0.000169996
0.000170233
0.000170469
0.000170702
0.000170934
0.000171165
0.000171394
0.000171622
0.000171848
0.000172073
0.000172296
0.000172518
0.000172739
0.000172958
0.000173175
0.000173391
0.000173606
0.000173819
0.000174031
0.000174242
0.000174451
0.000174659
0.000174865
0.000175071
0.000175275
0.000175477
0.000175678
0.000175878
0.000176077
0.000176274
0.00017647
0.000176665
0.000176859
0.00017705
0.000177242
0.000177431
0.00017762
0.000177807
0.000177993
0.000178178
0.000178362
0.000178545
0.000178726
0.000178906
0.000179085
0.000179263
0.000179439
0.000179615
0.00017979
0.000179963
0.000180135
0.000180306
0.000180476
0.000180645
0.000180813
0.000180979
0.000181145
0.000181309
0.000181473
0.000181636
0.000181797
0.000181958
0.000182117
0.000182275
0.000182432
0.000182588
0.000182743
0.000182898
0.000183051
0.000183203
0.000183354
0.000183505
0.000183654
0.000183803
0.00018395
0.000184097
0.000184242
0.000184387
0.00018453
0.000184673
0.000184815
0.000184956
0.000185096
0.000185235
0.000185374
0.000185511
0.000185647
0.000185783
0.000185918
0.000186052
0.000186185
0.000186317
0.000186448
0.000186579
0.000186708
0.000186838
0.000186966
0.000187093
0.000187219
0.000187344
0.000187469
0.000187593
0.000187717
0.000187839
0.00018796
0.000188081
0.000188201
0.000188321
0.000188439
0.000188557
0.000188674
0.00018879
0.000188906
0.00018902
0.000189135
0.000189248
0.000189361
0.000189472
0.000189584
0.000189694
0.000189804
0.000189913
0.000190022
0.00019013
0.000190236
0.000190343
0.000190449
0.000190553
0.000190658
0.000190761
0.000190864
0.000190967
0.000191068
0.00019117
0.00019127
0.00019137
0.000191469
0.000191568
0.000191665
0.000191762
0.00019186
0.000191956
0.000192051
0.000192146
0.00019224
0.000192334
0.000192427
0.000192519
0.000192612
0.000192703
0.000192793
0.000192884
0.000192973
0.000193062
0.000193151
0.000193238
0.000193326
0.000193413
0.000193499
0.000193585
0.00019367
0.000193755
0.000193839
0.000193923
0.000194006
0.000194088
0.00019417
0.000194252
0.000194333
0.000194413
0.000194493
0.000194573
0.000194652
0.00019473
0.000194808
0.000194885
0.000194963
0.00019504
0.000195116
0.000195191
0.000195266
0.000195341
0.000195415
0.000195489
0.000195562
0.000195635
0.000195707
0.000195779
0.00019585
0.000195921
0.000195992
0.000196062
0.000196132
0.000196201
0.00019627
0.000196338
0.000196407
0.000196474
0.000196541
0.000196608
0.000196674
0.00019674
0.000196805
0.000196871
0.000196935
0.000196999
0.000197063
0.000197127
0.00019719
0.000197253
0.000197315
0.000197377
0.000197438
0.0001975
0.000197561
0.000197621
0.000197681
0.00019774
0.000197799
0.000197858
0.000197917
0.000197976
0.000198033
0.000198091
0.000198148
0.000198204
0.000198261
0.000198317
0.000198373
0.000198428
0.000198483
0.000198538
0.000198592
0.000198646
0.0001987
0.000198754
0.000198806
0.00019886
0.000198911
0.000198964
0.000199016
0.000199067
0.000199118
0.000199169
0.000199219
0.00019927
0.000199319
0.000199369
0.000199418
0.000199467
0.000199516
0.000199564
0.000199613
0.00019966
0.000199708
0.000199755
0.000199802
0.000199849
0.000199895
0.000199941
0.000199986
0.000200033
0.000200077
0.000200123
0.000200167
0.000200212
0.000200256
0.0002003
0.000200343
0.000200387
0.00020043
0.000200472
0.000200515
0.000200558
0.0002006
0.000200642
0.000200683
0.000200724
0.000200765
0.000200806
0.000200847
0.000200887
0.000200927
0.000200967
0.000201006
0.000201046
0.000201085
0.000201124
0.000201162
0.000201201
0.000201239
0.000201277
0.000201314
0.000201352
0.000201389
0.000201427
0.000201463
0.0002015
0.000201536
0.000201572
0.000201609
0.000201644
0.00020168
0
0

