-14930.3
-0.0242328
-0.0104948
-0.00669076
-0.00500654
-0.00408287
-0.0035286
-0.00319041
-0.00299607
-0.00290716
-0.00290106
-0.00296284
-0.00308146
-0.00324789
-0.00345422
-0.00369328
-0.0039585
-0.00424384
-0.00454386
-0.00485364
-0.00516889
-0.00548582
-0.00580122
-0.00611236
-0.00641698
-0.00671324
-0.00699967
-0.00727512
-0.00753873
-0.00778991
-0.00802826
-0.00825354
-0.00846569
-0.00866476
-0.0088509
-0.00902434
-0.00918536
-0.00933432
-0.00947158
-0.00959755
-0.00971267
-0.00981735
-0.00991205
-0.0099972
-0.0100732
-0.0101406
-0.0101997
-0.0102509
-0.0102947
-0.0103314
-0.0103614
-0.0103851
-0.0104028
-0.0104148
-0.0104214
-0.010423
-0.0104198
-0.0104121
-0.0104001
-0.0103841
-0.0103644
-0.0103411
-0.0103145
-0.0102847
-0.010252
-0.0102165
-0.0101784
-0.0101379
-0.010095
-0.01005
-0.010003
-0.00995413
-0.00990348
-0.0098512
-0.00979738
-0.00974213
-0.00968555
-0.00962774
-0.00956878
-0.00950876
-0.00944776
-0.00938585
-0.00932311
-0.00925961
-0.0091954
-0.00913056
-0.00906514
-0.0089992
-0.00893279
-0.00886595
-0.00879874
-0.00873121
-0.00866339
-0.00859533
-0.00852706
-0.00845863
-0.00839006
-0.00832139
-0.00825265
-0.00818388
-0.0081151
-0.00804633
-0.00797761
-0.00790895
-0.00784039
-0.00777193
-0.00770361
-0.00763545
-0.00756745
-0.00749965
-0.00743205
-0.00736468
-0.00729754
-0.00723065
-0.00716403
-0.00709769
-0.00703164
-0.00696589
-0.00690045
-0.00683533
-0.00677055
-0.0067061
-0.00664201
-0.00657827
-0.0065149
-0.0064519
-0.00638927
-0.00632703
-0.00626518
-0.00620373
-0.00614267
-0.00608202
-0.00602177
-0.00596194
-0.00590253
-0.00584353
-0.00578495
-0.0057268
-0.00566907
-0.00561177
-0.0055549
-0.00549847
-0.00544246
-0.00538689
-0.00533176
-0.00527706
-0.0052228
-0.00516897
-0.00511558
-0.00506263
-0.00501011
-0.00495803
-0.00490639
-0.00485518
-0.00480441
-0.00475407
-0.00470416
-0.00465468
-0.00460564
-0.00455702
-0.00450883
-0.00446107
-0.00441374
-0.00436682
-0.00432033
-0.00427426
-0.0042286
-0.00418336
-0.00413854
-0.00409413
-0.00405012
-0.00400653
-0.00396334
-0.00392055
-0.00387817
-0.00383618
-0.00379459
-0.00375339
-0.00371258
-0.00367216
-0.00363213
-0.00359248
-0.00355321
-0.00351433
-0.00347581
-0.00343767
-0.0033999
-0.0033625
-0.00332546
-0.00328879
-0.00325247
-0.00321651
-0.00318091
-0.00314566
-0.00311075
-0.00307619
-0.00304198
-0.0030081
-0.00297457
-0.00294137
-0.0029085
-0.00287596
-0.00284374
-0.00281185
-0.00278028
-0.00274903
-0.0027181
-0.00268748
-0.00265717
-0.00262716
-0.00259746
-0.00256807
-0.00253897
-0.00251017
-0.00248166
-0.00245344
-0.00242552
-0.00239788
-0.00237052
-0.00234344
-0.00231664
-0.00229012
-0.00226387
-0.00223789
-0.00221218
-0.00218674
-0.00216156
-0.00213664
-0.00211197
-0.00208756
-0.00206341
-0.00203951
-0.00201585
-0.00199244
-0.00196927
-0.00194635
-0.00192366
-0.00190121
-0.001879
-0.00185702
-0.00183526
-0.00181374
-0.00179243
-0.00177136
-0.0017505
-0.00172986
-0.00170944
-0.00168923
-0.00166923
-0.00164944
-0.00162986
-0.00161049
-0.00159132
-0.00157235
-0.00155358
-0.00153501
-0.00151664
-0.00149846
-0.00148047
-0.00146267
-0.00144505
-0.00142763
-0.00141038
-0.00139332
-0.00137644
-0.00135974
-0.00134321
-0.00132686
-0.00131068
-0.00129467
-0.00127883
-0.00126316
-0.00124766
-0.00123232
-0.00121714
-0.00120212
-0.00118726
-0.00117256
-0.00115801
-0.00114362
-0.00112938
-0.0011153
-0.00110136
-0.00108757
-0.00107392
-0.00106042
-0.00104707
-0.00103385
-0.00102078
-0.00100784
-0.000995047
-0.000982385
-0.000969857
-0.000957463
-0.0009452
-0.000933068
-0.000921065
-0.000909189
-0.000897439
-0.000885814
-0.000874313
-0.000862934
-0.000851676
-0.000840538
-0.000829518
-0.000818616
-0.000807829
-0.000797157
-0.000786599
-0.000776153
-0.000765818
-0.000755593
-0.000745477
-0.000735469
-0.000725567
-0.00071577
-0.000706077
-0.000696488
-0.000687001
-0.000677615
-0.000668328
-0.000659141
-0.000650051
-0.000641058
-0.000632161
-0.000623358
-0.000614649
-0.000606033
-0.000597509
-0.000589075
-0.000580731
-0.000572476
-0.000564308
-0.000556227
-0.000548233
-0.000540324
-0.000532498
-0.000524757
-0.000517097
-0.000509519
-0.000502022
-0.000494604
-0.000487266
-0.000480005
-0.000472821
-0.000465714
-0.000458683
-0.000451727
-0.000444844
-0.000438035
-0.000431298
-0.000424633
-0.000418039
-0.000411515
-0.00040506
-0.000398673
-0.000392355
-0.000386104
-0.00037992
-0.000373801
-0.000367747
-0.000361758
-0.000355832
-0.00034997
-0.000344169
-0.00033843
-0.000332752
-0.000327135
-0.000321577
-0.000316078
-0.000310638
-0.000305256
-0.00029993
-0.000294661
-0.000289449
-0.000284291
-0.000279189
-0.00027414
-0.000269145
-0.000264203
-0.000259314
-0.000254477
-0.00024969
-0.000244955
-0.00024027
-0.000235635
-0.000231049
-0.000226511
-0.000222021
-0.000217579
-0.000213185
-0.000208837
-0.000204535
-0.000200278
-0.000196067
-0.000191901
-0.000187778
-0.000183699
-0.000179663
-0.000175671
-0.00017172
-0.000167811
-0.000163944
-0.000160118
-0.000156332
-0.000152586
-0.000148881
-0.000145213
-0.000141585
-0.000137996
-0.000134444
-0.000130931
-0.000127453
-0.000124013
-0.00012061
-0.000117242
-0.00011391
-0.000110613
-0.000107351
-0.000104123
-0.00010093
-9.77703e-05
-9.46438e-05
-9.15508e-05
-8.84897e-05
-8.54613e-05
-8.24656e-05
-7.95005e-05
-7.65673e-05
-7.36646e-05
-7.07933e-05
-6.79518e-05
-6.51401e-05
-6.23583e-05
-5.96056e-05
-5.6882e-05
-5.41876e-05
-5.15209e-05
-4.88826e-05
-4.6272e-05
-4.36891e-05
-4.11339e-05
-3.86051e-05
-3.61025e-05
-3.36269e-05
-3.11769e-05
-2.87532e-05
-2.63543e-05
-2.39811e-05
-2.16334e-05
-1.93099e-05
-1.70105e-05
-1.47353e-05
-1.2485e-05
-1.02574e-05
-8.05324e-06
-5.87254e-06
-3.71458e-06
-1.57936e-06
5.3313e-07
2.62359e-06
4.69202e-06
6.73913e-06
8.76422e-06
1.07687e-05
1.27519e-05
1.47137e-05
1.66557e-05
1.8577e-05
2.04785e-05
2.23593e-05
2.4221e-05
2.60627e-05
2.7886e-05
2.96894e-05
3.14743e-05
3.32401e-05
3.4988e-05
3.67168e-05
3.84278e-05
4.01211e-05
4.17973e-05
4.3455e-05
4.50957e-05
4.67193e-05
4.83259e-05
4.99154e-05
5.14886e-05
5.30454e-05
5.45859e-05
5.61101e-05
5.76186e-05
5.91114e-05
6.05887e-05
6.20503e-05
6.3497e-05
6.49281e-05
6.63449e-05
6.77461e-05
6.91339e-05
7.05059e-05
7.18645e-05
7.32089e-05
7.45391e-05
7.5855e-05
7.71582e-05
7.84471e-05
7.97226e-05
8.09852e-05
8.22344e-05
8.34708e-05
8.46943e-05
8.59051e-05
8.71031e-05
8.8289e-05
8.94622e-05
9.06232e-05
9.17729e-05
9.29098e-05
9.40353e-05
9.51488e-05
9.62515e-05
9.73423e-05
9.84216e-05
9.94896e-05
0.000100547
0.000101594
0.000102629
0.000103653
0.000104668
0.000105671
0.000106665
0.000107648
0.000108621
0.000109584
0.000110537
0.000111479
0.000112412
0.000113336
0.000114251
0.000115155
0.000116051
0.000116937
0.000117813
0.000118682
0.000119541
0.000120391
0.000121232
0.000122065
0.000122889
0.000123705
0.000124512
0.000125311
0.000126102
0.000126884
0.00012766
0.000128426
0.000129185
0.000129935
0.000130679
0.000131415
0.000132143
0.000132864
0.000133577
0.000134283
0.000134982
0.000135673
0.000136358
0.000137035
0.000137706
0.00013837
0.000139027
0.000139677
0.000140321
0.000140958
0.000141589
0.000142213
0.000142831
0.000143442
0.000144047
0.000144646
0.000145239
0.000145826
0.000146407
0.000146982
0.000147552
0.000148115
0.000148673
0.000149225
0.000149771
0.000150312
0.000150847
0.000151377
0.000151902
0.000152421
0.000152936
0.000153444
0.000153948
0.000154446
0.00015494
0.000155428
0.000155912
0.000156391
0.000156865
0.000157334
0.000157798
0.000158258
0.000158713
0.000159163
0.000159609
0.00016005
0.000160487
0.00016092
0.000161349
0.000161772
0.000162192
0.000162608
0.000163019
0.000163426
0.000163829
0.000164228
0.000164623
0.000165014
0.000165402
0.000165785
0.000166164
0.00016654
0.000166911
0.00016728
0.000167644
0.000168005
0.000168362
0.000168716
0.000169066
0.000169413
0.000169756
0.000170096
0.000170432
0.000170766
0.000171095
0.000171422
0.000171745
0.000172065
0.000172382
0.000172696
0.000173007
0.000173314
0.000173618
0.00017392
0.000174219
0.000174514
0.000174806
0.000175096
0.000175383
0.000175668
0.000175949
0.000176228
0.000176503
0.000176776
0.000177046
0.000177314
0.000177579
0.000177842
0.000178101
0.000178359
0.000178614
0.000178866
0.000179116
0.000179363
0.000179608
0.000179851
0.000180091
0.000180329
0.000180564
0.000180798
0.000181029
0.000181258
0.000181484
0.000181708
0.00018193
0.00018215
0.000182368
0.000182584
0.000182797
0.000183008
0.000183218
0.000183426
0.000183631
0.000183835
0.000184036
0.000184236
0.000184433
0.000184629
0.000184822
0.000185015
0.000185205
0.000185393
0.00018558
0.000185765
0.000185947
0.000186128
0.000186308
0.000186486
0.000186661
0.000186836
0.000187009
0.000187179
0.000187349
0.000187517
0.000187683
0.000187847
0.000188011
0.000188172
0.000188332
0.00018849
0.000188647
0.000188802
0.000188956
0.000189109
0.00018926
0.00018941
0.000189558
0.000189705
0.00018985
0.000189994
0.000190137
0.000190278
0.000190418
0.000190557
0.000190695
0.00019083
0.000190965
0.000191099
0.000191231
0.000191362
0.000191492
0.000191621
0.000191748
0.000191875
0.000192
0.000192123
0.000192246
0.000192368
0.000192489
0.000192608
0.000192726
0.000192843
0.000192959
0.000193074
0.000193189
0.000193302
0.000193413
0.000193524
0.000193634
0.000193743
0.00019385
0.000193957
0.000194063
0.000194168
0.000194272
0.000194374
0.000194477
0.000194578
0.000194678
0.000194777
0.000194875
0.000194973
0.000195069
0.000195165
0.000195261
0.000195354
0.000195447
0.00019554
0.000195631
0.000195722
0.000195811
0.000195901
0.000195989
0.000196076
0.000196163
0.000196249
0.000196333
0.000196418
0.000196502
0.000196584
0.000196667
0.000196748
0.000196829
0.000196908
0.000196988
0.000197066
0.000197144
0.000197221
0.000197298
0.000197373
0.000197448
0.000197523
0.000197596
0.000197669
0.000197742
0.000197814
0.000197885
0.000197956
0.000198026
0.000198095
0.000198164
0.000198232
0.0001983
0.000198366
0.000198433
0.000198499
0.000198564
0.000198629
0.000198693
0.000198756
0.000198819
0.000198882
0.000198944
0.000199005
0.000199066
0.000199127
0.000199186
0.000199245
0.000199304
0.000199363
0.000199421
0.000199478
0.000199535
0.000199591
0.000199647
0.000199702
0.000199758
0.000199812
0.000199866
0.00019992
0.000199972
0.000200026
0.000200077
0.000200129
0.00020018
0.000200232
0.000200282
0.000200332
0.000200382
0.000200431
0.00020048
0.000200529
0.000200576
0.000200624
0.000200671
0.000200718
0.000200765
0.000200811
0.000200856
0.000200902
0.000200946
0.000200991
0.000201035
0.000201079
0.000201123
0.000201166
0.000201209
0.000201251
0.000201293
0.000201335
0.000201377
0.000201418
0.000201459
0.000201499
0.000201539
0.000201579
0.000201619
0.000201658
0.000201697
0.000201735
0.000201774
0.000201811
0.000201849
0.000201886
0.000201923
0.00020196
0.000201997
0.000202033
0.000202068
0.000202104
0.000202139
0.000202175
0.000202209
0.000202244
0.000202278
0.000202312
0.000202346
0.00020238
0.000202412
0.000202446
0.000202478
0.00020251
0.000202543
0.000202575
0.000202606
0.000202638
0.000202669
0.0002027
0.000202731
0.000202761
0.000202792
0.000202822
0.000202851
0.000202881
0.00020291
0.00020294
0.000202969
0.000202997
0.000203026
0.000203054
0.000203082
0.00020311
0.000203138
0.000203165
0.000203192
0.000203219
0.000203246
0.000203273
0.000203299
0.000203325
0.000203352
0.000203378
0.000203404
0.000203429
0.000203454
0.00020348
0.000203504
0.000203529
0.000203553
0.000203578
0.000203602
0.000203627
0.00020365
0.000203674
0.000203698
0.000203721
0.000203744
0.000203767
0.00020379
0.000203813
0.000203836
0.000203858
0.00020388
0.000203902
0.000203924
0.000203946
0.000203968
0.000203989
0.00020401
0.000204032
0.000204052
0.000204074
0.000204094
0.000204115
0.000204135
0.000204156
0.000204176
0.000204196
0.000204216
0.000204236
0.000204255
0.000204275
0.000204294
0.000204313
0.000204332
0.000204351
0.000204371
0.000204389
0.000204408
0.000204426
0.000204444
0.000204463
0.000204481
0.000204499
0.000204517
0.000204535
0.000204553
0.00020457
0.000204587
0.000204604
0.000204621
0.000204638
0.000204656
0.000204673
0.00020469
0.000204706
0.000204722
0.000204739
0.000204755
0.000204771
0.000204788
0.000204803
0.00020482
0.000204835
0.000204851
0.000204867
0
0

