-14930.3
-0.0242328
-0.0104944
-0.00668848
-0.00499856
-0.00406262
-0.00348695
-0.00311656
-0.00287885
-0.00273636
-0.0026685
-0.00266314
-0.00271241
-0.00281046
-0.00295239
-0.00313361
-0.00334965
-0.00359606
-0.00386842
-0.00416238
-0.00447375
-0.00479849
-0.00513282
-0.00547322
-0.00581644
-0.00615954
-0.00649989
-0.00683515
-0.00716328
-0.00748252
-0.00779137
-0.00808859
-0.00837316
-0.00864427
-0.00890131
-0.00914385
-0.00937158
-0.00958437
-0.00978219
-0.00996512
-0.0101333
-0.0102871
-0.0104266
-0.0105524
-0.0106648
-0.0107643
-0.0108513
-0.0109264
-0.01099
-0.0110427
-0.0110849
-0.0111173
-0.0111403
-0.0111544
-0.0111602
-0.0111581
-0.0111487
-0.0111323
-0.0111094
-0.0110804
-0.0110458
-0.011006
-0.0109613
-0.010912
-0.0108586
-0.0108014
-0.0107406
-0.0106766
-0.0106097
-0.01054
-0.0104679
-0.0103935
-0.0103172
-0.010239
-0.0101593
-0.0100781
-0.0099956
-0.00991203
-0.0098275
-0.00974215
-0.00965609
-0.00956947
-0.00948237
-0.0093949
-0.00930717
-0.00921925
-0.00913123
-0.00904318
-0.00895517
-0.00886727
-0.00877954
-0.00869202
-0.00860478
-0.00851785
-0.00843127
-0.00834509
-0.00825934
-0.00817406
-0.00808926
-0.00800498
-0.00792124
-0.00783806
-0.00775547
-0.00767347
-0.00759208
-0.00751132
-0.00743121
-0.00735174
-0.00727293
-0.00719478
-0.00711731
-0.00704052
-0.00696441
-0.00688898
-0.00681425
-0.00674021
-0.00666686
-0.0065942
-0.00652224
-0.00645097
-0.0063804
-0.00631051
-0.00624131
-0.0061728
-0.00610497
-0.00603782
-0.00597135
-0.00590555
-0.00584042
-0.00577596
-0.00571216
-0.00564902
-0.00558652
-0.00552468
-0.00546348
-0.00540291
-0.00534298
-0.00528368
-0.005225
-0.00516693
-0.00510948
-0.00505263
-0.00499639
-0.00494073
-0.00488567
-0.0048312
-0.0047773
-0.00472398
-0.00467122
-0.00461902
-0.00456739
-0.0045163
-0.00446576
-0.00441576
-0.0043663
-0.00431736
-0.00426895
-0.00422106
-0.00417368
-0.00412681
-0.00408044
-0.00403457
-0.0039892
-0.00394431
-0.0038999
-0.00385597
-0.00381252
-0.00376953
-0.003727
-0.00368493
-0.00364331
-0.00360214
-0.00356142
-0.00352113
-0.00348128
-0.00344185
-0.00340285
-0.00336427
-0.00332611
-0.00328836
-0.00325101
-0.00321406
-0.00317752
-0.00314136
-0.0031056
-0.00307022
-0.00303523
-0.00300061
-0.00296636
-0.00293248
-0.00289897
-0.00286582
-0.00283302
-0.00280058
-0.00276849
-0.00273674
-0.00270534
-0.00267427
-0.00264354
-0.00261314
-0.00258307
-0.00255332
-0.00252389
-0.00249478
-0.00246598
-0.00243749
-0.00240931
-0.00238143
-0.00235385
-0.00232657
-0.00229958
-0.00227289
-0.00224648
-0.00222035
-0.00219451
-0.00216894
-0.00214365
-0.00211863
-0.00209388
-0.0020694
-0.00204518
-0.00202122
-0.00199752
-0.00197407
-0.00195088
-0.00192793
-0.00190523
-0.00188278
-0.00186057
-0.00183859
-0.00181686
-0.00179535
-0.00177408
-0.00175304
-0.00173222
-0.00171162
-0.00169125
-0.0016711
-0.00165116
-0.00163144
-0.00161193
-0.00159263
-0.00157353
-0.00155464
-0.00153596
-0.00151747
-0.00149918
-0.00148109
-0.0014632
-0.00144549
-0.00142798
-0.00141065
-0.00139351
-0.00137656
-0.00135978
-0.00134319
-0.00132677
-0.00131053
-0.00129447
-0.00127858
-0.00126285
-0.0012473
-0.00123191
-0.00121669
-0.00120163
-0.00118674
-0.001172
-0.00115742
-0.001143
-0.00112873
-0.00111461
-0.00110065
-0.00108684
-0.00107317
-0.00105965
-0.00104627
-0.00103304
-0.00101995
-0.001007
-0.000994192
-0.000981518
-0.000968981
-0.000956577
-0.000944307
-0.000932167
-0.000920158
-0.000908277
-0.000896524
-0.000884896
-0.000873393
-0.000862013
-0.000850755
-0.000839617
-0.000828598
-0.000817697
-0.000806913
-0.000796244
-0.00078569
-0.000775248
-0.000764918
-0.000754699
-0.000744588
-0.000734586
-0.00072469
-0.000714901
-0.000705216
-0.000695635
-0.000686156
-0.000676779
-0.000667501
-0.000658323
-0.000649243
-0.00064026
-0.000631372
-0.00062258
-0.000613882
-0.000605276
-0.000596762
-0.00058834
-0.000580007
-0.000571763
-0.000563607
-0.000555538
-0.000547556
-0.000539658
-0.000531845
-0.000524114
-0.000516467
-0.000508901
-0.000501416
-0.00049401
-0.000486684
-0.000479436
-0.000472265
-0.00046517
-0.000458151
-0.000451207
-0.000444337
-0.00043754
-0.000430815
-0.000424162
-0.00041758
-0.000411068
-0.000404626
-0.000398251
-0.000391946
-0.000385706
-0.000379534
-0.000373427
-0.000367385
-0.000361408
-0.000355494
-0.000349642
-0.000343854
-0.000338126
-0.00033246
-0.000326854
-0.000321307
-0.00031582
-0.000310391
-0.000305019
-0.000299705
-0.000294447
-0.000289245
-0.000284098
-0.000279006
-0.000273968
-0.000268983
-0.000264052
-0.000259173
-0.000254345
-0.000249569
-0.000244844
-0.000240168
-0.000235542
-0.000230966
-0.000226438
-0.000221957
-0.000217525
-0.000213139
-0.0002088
-0.000204507
-0.00020026
-0.000196057
-0.000191899
-0.000187785
-0.000183715
-0.000179688
-0.000175703
-0.000171761
-0.00016786
-0.000164001
-0.000160182
-0.000156404
-0.000152666
-0.000148967
-0.000145308
-0.000141687
-0.000138105
-0.00013456
-0.000131053
-0.000127583
-0.00012415
-0.000120753
-0.000117392
-0.000114066
-0.000110776
-0.000107521
-0.000104299
-0.000101111
-9.79579e-05
-9.48378e-05
-9.17505e-05
-8.86958e-05
-8.56731e-05
-8.26823e-05
-7.97229e-05
-7.67947e-05
-7.38977e-05
-7.10313e-05
-6.81948e-05
-6.53888e-05
-6.26119e-05
-5.98642e-05
-5.71456e-05
-5.44555e-05
-5.17937e-05
-4.91604e-05
-4.65541e-05
-4.39754e-05
-4.14245e-05
-3.88999e-05
-3.64016e-05
-3.39303e-05
-3.14846e-05
-2.90644e-05
-2.66698e-05
-2.43001e-05
-2.1956e-05
-1.9636e-05
-1.73409e-05
-1.50693e-05
-1.28218e-05
-1.05977e-05
-8.39715e-06
-6.22e-06
-4.06488e-06
-1.93321e-06
1.7643e-07
2.26405e-06
4.32964e-06
6.37391e-06
8.39615e-06
1.03978e-05
1.23781e-05
1.43378e-05
1.62769e-05
1.81954e-05
2.00941e-05
2.19728e-05
2.38323e-05
2.56719e-05
2.74924e-05
2.92936e-05
3.10764e-05
3.28407e-05
3.45859e-05
3.63132e-05
3.80228e-05
3.9714e-05
4.13873e-05
4.30436e-05
4.46829e-05
4.63044e-05
4.79095e-05
4.94976e-05
5.10694e-05
5.26248e-05
5.41638e-05
5.56866e-05
5.71937e-05
5.86851e-05
6.01609e-05
6.16211e-05
6.30664e-05
6.44968e-05
6.59122e-05
6.73127e-05
6.8699e-05
7.00704e-05
7.14282e-05
7.27712e-05
7.41006e-05
7.54159e-05
7.67176e-05
7.80066e-05
7.92813e-05
8.05426e-05
8.17917e-05
8.30274e-05
8.42502e-05
8.54603e-05
8.66576e-05
8.78428e-05
8.90159e-05
9.01763e-05
9.13253e-05
9.24621e-05
9.35877e-05
9.47011e-05
9.58025e-05
9.68932e-05
9.79725e-05
9.90405e-05
0.000100098
0.000101144
0.000102179
0.000103204
0.000104218
0.000105222
0.000106215
0.000107198
0.00010817
0.000109133
0.000110086
0.000111029
0.000111963
0.000112886
0.000113801
0.000114705
0.000115601
0.000116487
0.000117364
0.000118233
0.000119092
0.000119943
0.000120784
0.000121618
0.000122442
0.000123258
0.000124066
0.000124865
0.000125657
0.00012644
0.000127215
0.000127981
0.000128741
0.000129493
0.000130236
0.000130972
0.000131701
0.000132422
0.000133137
0.000133843
0.000134542
0.000135235
0.00013592
0.000136598
0.000137269
0.000137934
0.000138592
0.000139242
0.000139887
0.000140524
0.000141156
0.00014178
0.000142399
0.000143011
0.000143617
0.000144217
0.000144811
0.000145399
0.000145981
0.000146556
0.000147126
0.000147691
0.000148249
0.000148802
0.000149349
0.000149891
0.000150427
0.000150958
0.000151484
0.000152004
0.000152518
0.000153029
0.000153533
0.000154033
0.000154527
0.000155017
0.000155501
0.00015598
0.000156456
0.000156925
0.000157391
0.000157851
0.000158307
0.000158759
0.000159205
0.000159648
0.000160086
0.00016052
0.000160949
0.000161374
0.000161795
0.000162211
0.000162623
0.000163032
0.000163435
0.000163835
0.000164232
0.000164624
0.000165012
0.000165397
0.000165777
0.000166154
0.000166526
0.000166896
0.000167262
0.000167623
0.000167982
0.000168337
0.000168688
0.000169035
0.00016938
0.000169721
0.000170059
0.000170392
0.000170724
0.000171051
0.000171375
0.000171696
0.000172015
0.000172329
0.000172641
0.00017295
0.000173255
0.000173558
0.000173857
0.000174154
0.000174448
0.000174739
0.000175027
0.000175312
0.000175594
0.000175874
0.000176151
0.000176425
0.000176697
0.000176965
0.000177232
0.000177495
0.000177756
0.000178015
0.00017827
0.000178523
0.000178775
0.000179023
0.000179269
0.000179513
0.000179754
0.000179994
0.00018023
0.000180464
0.000180696
0.000180926
0.000181154
0.000181379
0.000181602
0.000181823
0.000182042
0.000182259
0.000182473
0.000182687
0.000182897
0.000183106
0.000183312
0.000183516
0.000183719
0.00018392
0.000184118
0.000184315
0.00018451
0.000184703
0.000184894
0.000185084
0.000185272
0.000185457
0.000185641
0.000185823
0.000186003
0.000186182
0.000186359
0.000186535
0.000186709
0.000186881
0.000187051
0.00018722
0.000187387
0.000187553
0.000187717
0.000187879
0.000188041
0.0001882
0.000188357
0.000188515
0.000188669
0.000188823
0.000188975
0.000189126
0.000189275
0.000189423
0.000189569
0.000189714
0.000189857
0.00019
0.000190141
0.000190281
0.000190419
0.000190556
0.000190692
0.000190827
0.00019096
0.000191092
0.000191223
0.000191352
0.000191481
0.000191608
0.000191734
0.000191859
0.000191983
0.000192106
0.000192227
0.000192347
0.000192467
0.000192585
0.000192702
0.000192818
0.000192933
0.000193046
0.000193159
0.000193271
0.000193382
0.000193492
0.000193601
0.000193708
0.000193815
0.000193921
0.000194026
0.000194129
0.000194232
0.000194335
0.000194436
0.000194536
0.000194635
0.000194733
0.000194831
0.000194927
0.000195023
0.000195118
0.000195212
0.000195305
0.000195398
0.000195489
0.00019558
0.00019567
0.000195759
0.000195847
0.000195935
0.000196022
0.000196108
0.000196192
0.000196277
0.00019636
0.000196444
0.000196525
0.000196607
0.000196688
0.000196768
0.000196847
0.000196926
0.000197004
0.000197081
0.000197158
0.000197234
0.000197309
0.000197384
0.000197458
0.000197531
0.000197603
0.000197675
0.000197747
0.000197817
0.000197887
0.000197957
0.000198026
0.000198094
0.000198162
0.000198229
0.000198296
0.000198362
0.000198428
0.000198492
0.000198557
0.000198621
0.000198684
0.000198747
0.000198808
0.00019887
0.000198931
0.000198992
0.000199052
0.000199112
0.000199171
0.000199229
0.000199287
0.000199345
0.000199402
0.000199459
0.000199515
0.00019957
0.000199626
0.00019968
0.000199734
0.000199788
0.000199842
0.000199895
0.000199947
0.000199999
0.000200051
0.000200102
0.000200153
0.000200203
0.000200253
0.000200303
0.000200352
0.000200401
0.000200449
0.000200497
0.000200544
0.000200591
0.000200638
0.000200684
0.00020073
0.000200776
0.000200821
0.000200866
0.000200911
0.000200955
0.000200999
0.000201042
0.000201086
0.000201128
0.00020117
0.000201213
0.000201254
0.000201296
0.000201337
0.000201378
0.000201418
0.000201458
0.000201498
0.000201538
0.000201577
0.000201616
0.000201654
0.000201693
0.00020173
0.000201768
0.000201805
0.000201842
0.000201879
0.000201916
0.000201952
0.000201987
0.000202023
0.000202058
0.000202094
0.000202129
0.000202163
0.000202197
0.000202231
0.000202265
0.000202299
0.000202332
0.000202365
0.000202397
0.00020243
0.000202462
0.000202494
0.000202526
0.000202558
0.000202589
0.00020262
0.000202651
0.000202682
0.000202711
0.000202742
0.000202772
0.000202802
0.000202831
0.00020286
0.000202889
0.000202918
0.000202947
0.000202975
0.000203003
0.000203031
0.000203059
0.000203087
0.000203114
0.000203141
0.000203168
0.000203195
0.000203221
0.000203247
0.000203274
0.0002033
0.000203325
0.000203351
0.000203377
0.000203402
0.000203427
0.000203452
0.000203477
0.000203501
0.000203526
0.00020355
0.000203573
0.000203598
0.000203621
0.000203644
0.000203668
0.000203691
0.000203714
0.000203737
0.00020376
0.000203782
0.000203805
0.000203827
0.000203849
0.000203871
0.000203893
0.000203914
0.000203936
0.000203957
0.000203978
0.000204
0.00020402
0.000204041
0.000204062
0.000204082
0.000204103
0.000204123
0.000204143
0.000204163
0.000204182
0.000204202
0.000204222
0.000204241
0.00020426
0.00020428
0.000204299
0.000204317
0.000204336
0.000204355
0.000204373
0.000204392
0.00020441
0.000204428
0.000204447
0.000204464
0.000204482
0.0002045
0.000204518
0.000204535
0.000204553
0.00020457
0.000204587
0.000204604
0.000204621
0.000204637
0.000204654
0.00020467
0.000204687
0.000204703
0.000204719
0.000204736
0.000204752
0.000204768
0.000204783
0.0002048
0.000204815
0.000204831
0.000204846
0.000204862
0.000204877
0.000204892
0.000204907
0.000204922
0.000204937
0
0

