-14930.3
-0.0242328
-0.0107059
-0.0074625
-0.00667175
-0.00686646
-0.00752583
-0.00838342
-0.00928317
-0.0101322
-0.0108779
-0.0114939
-0.0119707
-0.0123099
-0.0125194
-0.012611
-0.0125984
-0.0124956
-0.0123166
-0.0120747
-0.011782
-0.0114496
-0.0110872
-0.0107036
-0.0103061
-0.00990117
-0.00949406
-0.00908926
-0.00869042
-0.00830047
-0.00792169
-0.00755584
-0.00720418
-0.0068676
-0.00654665
-0.00624159
-0.00595245
-0.00567909
-0.00542121
-0.00517839
-0.00495013
-0.00473585
-0.00453495
-0.00434678
-0.00417067
-0.00400597
-0.00385201
-0.00370814
-0.00357373
-0.00344817
-0.00333088
-0.00322128
-0.00311885
-0.00302309
-0.00293351
-0.00284966
-0.00277114
-0.00269754
-0.00262849
-0.00256367
-0.00250274
-0.00244541
-0.00239141
-0.00234049
-0.00229241
-0.00224695
-0.00220392
-0.00216313
-0.00212441
-0.00208761
-0.00205257
-0.00201917
-0.00198729
-0.00195681
-0.00192763
-0.00189965
-0.00187278
-0.00184696
-0.0018221
-0.00179813
-0.00177499
-0.00175263
-0.00173099
-0.00171002
-0.00168969
-0.00166994
-0.00165074
-0.00163206
-0.00161386
-0.00159611
-0.00157879
-0.00156188
-0.00154534
-0.00152916
-0.00151331
-0.00149779
-0.00148257
-0.00146763
-0.00145297
-0.00143857
-0.00142441
-0.00141049
-0.0013968
-0.00138332
-0.00137004
-0.00135697
-0.00134408
-0.00133137
-0.00131884
-0.00130648
-0.00129428
-0.00128223
-0.00127034
-0.0012586
-0.00124699
-0.00123553
-0.0012242
-0.00121299
-0.00120192
-0.00119097
-0.00118013
-0.00116942
-0.00115881
-0.00114832
-0.00113794
-0.00112766
-0.00111749
-0.00110741
-0.00109744
-0.00108756
-0.00107778
-0.0010681
-0.0010585
-0.001049
-0.00103958
-0.00103025
-0.00102101
-0.00101185
-0.00100277
-0.000993778
-0.000984864
-0.000976028
-0.00096727
-0.000958589
-0.000949985
-0.000941454
-0.000932997
-0.000924612
-0.000916299
-0.000908057
-0.000899885
-0.000891781
-0.000883746
-0.000875777
-0.000867875
-0.000860039
-0.000852267
-0.00084456
-0.000836915
-0.000829333
-0.000821814
-0.000814355
-0.000806957
-0.000799619
-0.00079234
-0.000785119
-0.000777957
-0.000770851
-0.000763802
-0.00075681
-0.000749873
-0.000742992
-0.000736164
-0.00072939
-0.00072267
-0.000716003
-0.000709388
-0.000702824
-0.000696313
-0.000689852
-0.000683441
-0.00067708
-0.000670768
-0.000664506
-0.000658292
-0.000652126
-0.000646007
-0.000639935
-0.00063391
-0.000627932
-0.000621999
-0.000616112
-0.000610269
-0.000604471
-0.000598718
-0.000593008
-0.000587342
-0.000581719
-0.000576138
-0.0005706
-0.000565104
-0.000559649
-0.000554235
-0.000548862
-0.00054353
-0.000538237
-0.000532985
-0.000527772
-0.000522599
-0.000517464
-0.000512367
-0.000507308
-0.000502288
-0.000497305
-0.000492359
-0.00048745
-0.000482577
-0.000477741
-0.000472941
-0.000468176
-0.000463447
-0.000458752
-0.000454093
-0.000449468
-0.000444877
-0.000440321
-0.000435798
-0.000431308
-0.000426851
-0.000422427
-0.000418036
-0.000413678
-0.00040935
-0.000405056
-0.000400792
-0.000396559
-0.000392358
-0.000388188
-0.000384048
-0.000379938
-0.000375859
-0.000371809
-0.000367789
-0.000363798
-0.000359836
-0.000355904
-0.000351999
-0.000348124
-0.000344276
-0.000340456
-0.000336665
-0.0003329
-0.000329163
-0.000325453
-0.000321771
-0.000318114
-0.000314484
-0.000310881
-0.000307304
-0.000303752
-0.000300226
-0.000296726
-0.00029325
-0.0002898
-0.000286375
-0.000282974
-0.000279598
-0.000276247
-0.000272919
-0.000269615
-0.000266335
-0.000263079
-0.000259846
-0.000256636
-0.000253449
-0.000250286
-0.000247144
-0.000244026
-0.000240929
-0.000237855
-0.000234803
-0.000231773
-0.000228764
-0.000225776
-0.000222811
-0.000219866
-0.000216942
-0.000214039
-0.000211157
-0.000208296
-0.000205454
-0.000202634
-0.000199833
-0.000197052
-0.000194291
-0.000191549
-0.000188827
-0.000186124
-0.000183441
-0.000180776
-0.000178131
-0.000175504
-0.000172895
-0.000170306
-0.000167735
-0.000165181
-0.000162646
-0.000160129
-0.00015763
-0.000155148
-0.000152684
-0.000150237
-0.000147807
-0.000145395
-0.000142999
-0.000140621
-0.000138259
-0.000135914
-0.000133586
-0.000131274
-0.000128978
-0.000126698
-0.000124435
-0.000122187
-0.000119955
-0.000117739
-0.000115538
-0.000113354
-0.000111183
-0.000109029
-0.00010689
-0.000104765
-0.000102655
-0.000100561
-9.84808e-05
-9.64153e-05
-9.43639e-05
-9.23274e-05
-9.03052e-05
-8.82964e-05
-8.63026e-05
-8.43223e-05
-8.23555e-05
-8.04029e-05
-7.84637e-05
-7.65381e-05
-7.4626e-05
-7.27274e-05
-7.08416e-05
-6.89693e-05
-6.71098e-05
-6.52637e-05
-6.34298e-05
-6.16093e-05
-5.9801e-05
-5.80054e-05
-5.62226e-05
-5.44519e-05
-5.2694e-05
-5.09474e-05
-4.92137e-05
-4.7492e-05
-4.57824e-05
-4.40842e-05
-4.2398e-05
-4.07232e-05
-3.90605e-05
-3.74092e-05
-3.57692e-05
-3.41406e-05
-3.25234e-05
-3.09168e-05
-2.93223e-05
-2.77385e-05
-2.61653e-05
-2.46035e-05
-2.30517e-05
-2.15112e-05
-1.99814e-05
-1.84622e-05
-1.69537e-05
-1.54551e-05
-1.39672e-05
-1.24892e-05
-1.10219e-05
-9.5646e-06
-8.11719e-06
-6.67973e-06
-5.25222e-06
-3.83466e-06
-2.42705e-06
-1.02867e-06
3.59754e-07
1.73823e-06
3.10819e-06
4.46819e-06
5.81896e-06
7.15978e-06
8.49208e-06
9.81514e-06
1.1129e-05
1.24335e-05
1.37296e-05
1.50164e-05
1.62947e-05
1.75645e-05
1.8825e-05
2.0077e-05
2.13205e-05
2.25554e-05
2.37818e-05
2.49997e-05
2.62091e-05
2.74107e-05
2.86037e-05
2.97889e-05
3.09656e-05
3.21344e-05
3.32955e-05
3.4448e-05
3.55927e-05
3.67303e-05
3.78594e-05
3.89814e-05
4.00948e-05
4.12011e-05
4.23004e-05
4.33918e-05
4.44754e-05
4.55519e-05
4.66206e-05
4.76828e-05
4.87373e-05
4.97847e-05
5.08249e-05
5.18581e-05
5.28841e-05
5.39031e-05
5.49149e-05
5.59203e-05
5.69187e-05
5.79106e-05
5.88954e-05
5.98732e-05
6.08452e-05
6.18101e-05
6.2768e-05
6.37201e-05
6.46652e-05
6.56045e-05
6.65368e-05
6.74626e-05
6.83828e-05
6.92966e-05
7.02039e-05
7.11049e-05
7.20002e-05
7.28899e-05
7.37724e-05
7.46499e-05
7.5521e-05
7.63858e-05
7.72456e-05
7.80989e-05
7.89466e-05
7.97887e-05
8.0625e-05
8.14556e-05
8.22806e-05
8.31006e-05
8.39141e-05
8.47228e-05
8.55257e-05
8.63229e-05
8.71152e-05
8.79018e-05
8.86834e-05
8.94593e-05
9.02303e-05
9.09963e-05
9.17566e-05
9.25119e-05
9.32622e-05
9.40076e-05
9.4748e-05
9.54834e-05
9.62132e-05
9.69387e-05
9.76592e-05
9.83747e-05
9.9086e-05
9.97915e-05
0.000100493
0.000101189
0.000101881
0.000102568
0.000103251
0.000103929
0.000104603
0.000105271
0.000105936
0.000106596
0.000107251
0.000107902
0.000108548
0.000109191
0.000109829
0.000110463
0.000111092
0.000111718
0.000112339
0.000112955
0.000113569
0.000114177
0.000114781
0.000115382
0.000115979
0.000116571
0.00011716
0.000117744
0.000118325
0.000118901
0.000119475
0.000120044
0.000120609
0.00012117
0.000121728
0.000122282
0.000122832
0.000123379
0.000123922
0.000124461
0.000124997
0.000125529
0.000126058
0.000126583
0.000127105
0.000127623
0.000128137
0.000128649
0.000129156
0.000129661
0.000130161
0.00013066
0.000131153
0.000131644
0.000132133
0.000132617
0.000133098
0.000133576
0.000134052
0.000134524
0.000134992
0.000135457
0.00013592
0.000136379
0.000136836
0.000137289
0.000137739
0.000138186
0.000138631
0.000139072
0.00013951
0.000139946
0.000140379
0.000140808
0.000141235
0.000141659
0.00014208
0.000142499
0.000142915
0.000143327
0.000143737
0.000144145
0.00014455
0.000144952
0.000145351
0.000145748
0.000146142
0.000146533
0.000146922
0.000147309
0.000147692
0.000148074
0.000148453
0.000148828
0.000149202
0.000149574
0.000149943
0.000150309
0.000150673
0.000151035
0.000151394
0.00015175
0.000152105
0.000152457
0.000152807
0.000153154
0.0001535
0.000153842
0.000154183
0.000154521
0.000154858
0.000155192
0.000155523
0.000155853
0.000156181
0.000156505
0.000156829
0.00015715
0.000157469
0.000157785
0.0001581
0.000158412
0.000158723
0.000159032
0.000159338
0.000159642
0.000159945
0.000160246
0.000160544
0.000160841
0.000161135
0.000161428
0.000161719
0.000162008
0.000162295
0.00016258
0.000162863
0.000163145
0.000163424
0.000163702
0.000163978
0.000164252
0.000164524
0.000164794
0.000165063
0.00016533
0.000165596
0.000165858
0.000166121
0.000166381
0.000166639
0.000166896
0.00016715
0.000167404
0.000167655
0.000167906
0.000168154
0.000168401
0.000168646
0.00016889
0.000169131
0.000169371
0.000169611
0.000169848
0.000170083
0.000170318
0.00017055
0.000170782
0.000171011
0.000171239
0.000171466
0.000171691
0.000171915
0.000172137
0.000172358
0.000172577
0.000172796
0.000173012
0.000173227
0.000173441
0.000173653
0.000173864
0.000174074
0.000174282
0.000174489
0.000174694
0.000174899
0.000175101
0.000175303
0.000175504
0.000175702
0.0001759
0.000176097
0.000176292
0.000176486
0.000176678
0.00017687
0.00017706
0.000177249
0.000177436
0.000177623
0.000177808
0.000177993
0.000178175
0.000178357
0.000178538
0.000178717
0.000178895
0.000179072
0.000179248
0.000179423
0.000179596
0.000179769
0.00017994
0.000180111
0.00018028
0.000180448
0.000180615
0.000180782
0.000180946
0.00018111
0.000181273
0.000181435
0.000181595
0.000181755
0.000181913
0.000182071
0.000182228
0.000182384
0.000182538
0.000182692
0.000182844
0.000182996
0.000183147
0.000183297
0.000183445
0.000183593
0.00018374
0.000183886
0.000184031
0.000184175
0.000184318
0.000184461
0.000184601
0.000184742
0.000184881
0.000185021
0.000185158
0.000185295
0.000185431
0.000185566
0.000185701
0.000185834
0.000185966
0.000186098
0.000186229
0.000186359
0.000186488
0.000186617
0.000186745
0.000186871
0.000186997
0.000187122
0.000187246
0.00018737
0.000187493
0.000187615
0.000187736
0.000187857
0.000187976
0.000188095
0.000188213
0.00018833
0.000188448
0.000188564
0.000188679
0.000188793
0.000188907
0.00018902
0.000189132
0.000189244
0.000189354
0.000189465
0.000189575
0.000189683
0.000189791
0.000189899
0.000190005
0.000190112
0.000190217
0.000190321
0.000190426
0.00019053
0.000190632
0.000190734
0.000190836
0.000190937
0.000191037
0.000191136
0.000191235
0.000191334
0.000191431
0.000191529
0.000191625
0.000191721
0.000191816
0.000191911
0.000192005
0.000192099
0.000192192
0.000192284
0.000192376
0.000192467
0.000192558
0.000192647
0.000192737
0.000192825
0.000192914
0.000193002
0.000193089
0.000193176
0.000193262
0.000193348
0.000193433
0.000193518
0.000193601
0.000193685
0.000193768
0.000193851
0.000193933
0.000194014
0.000194095
0.000194176
0.000194255
0.000194335
0.000194414
0.000194492
0.00019457
0.000194647
0.000194725
0.000194801
0.000194877
0.000194953
0.000195028
0.000195103
0.000195177
0.000195251
0.000195324
0.000195396
0.000195469
0.000195541
0.000195612
0.000195683
0.000195754
0.000195824
0.000195894
0.000195963
0.000196032
0.0001961
0.000196169
0.000196236
0.000196303
0.00019637
0.000196437
0.000196503
0.000196568
0.000196633
0.000196698
0.000196762
0.000196826
0.00019689
0.000196952
0.000197016
0.000197078
0.00019714
0.000197202
0.000197263
0.000197323
0.000197384
0.000197444
0.000197504
0.000197563
0.000197622
0.000197681
0.00019774
0.000197797
0.000197855
0.000197912
0.000197969
0.000198025
0.000198082
0.000198138
0.000198193
0.000198248
0.000198303
0.000198358
0.000198412
0.000198466
0.000198519
0.000198572
0.000198626
0.000198678
0.00019873
0.000198782
0.000198834
0.000198885
0.000198936
0.000198987
0.000199037
0.000199088
0.000199137
0.000199186
0.000199235
0.000199284
0.000199333
0.000199381
0.000199429
0.000199477
0.000199525
0.000199571
0.000199618
0.000199665
0.000199711
0.000199758
0.000199803
0.000199849
0.000199893
0.000199939
0.000199983
0.000200028
0.000200072
0.000200116
0.000200159
0.000200202
0.000200246
0.000200288
0.000200331
0.000200373
0.000200415
0.000200457
0.000200499
0.00020054
0.00020058
0.000200622
0.000200662
0.000200703
0.000200742
0.000200782
0.000200822
0.000200861
0.0002009
0.000200939
0.000200978
0.000201017
0.000201054
0.000201093
0.00020113
0.000201168
0.000201205
0.000201243
0.000201279
0.000201316
0.000201352
0.000201388
0.000201425
0.00020146
0.000201496
0.000201531
0.000201567
0.000201602
0.000201636
0.00020167
0.000201705
0.000201739
0.000201774
0.000201807
0.00020184
0.000201874
0.000201907
0.00020194
0.000201972
0.000202005
0.000202038
0.00020207
0.000202102
0.000202134
0.000202165
0.000202197
0.000202228
0.000202259
0.00020229
0.000202321
0.000202351
0.000202382
0.000202412
0.000202442
0.000202472
0.000202501
0.000202531
0.00020256
0.000202589
0.000202618
0.000202648
0.000202676
0.000202704
0.000202733
0.00020276
0.000202789
0.000202817
0
0

