-14930.3
-0.0242328
-0.010628
-0.00725421
-0.00635292
-0.00649189
-0.0071361
-0.00798219
-0.0088401
-0.00959783
-0.0101995
-0.0106274
-0.0108872
-0.0109974
-0.0109822
-0.0108665
-0.0106738
-0.0104246
-0.0101361
-0.00982224
-0.00949408
-0.00916011
-0.00882676
-0.00849873
-0.00817939
-0.00787106
-0.00757526
-0.00729289
-0.0070244
-0.00676991
-0.00652926
-0.00630215
-0.00608812
-0.00588665
-0.00569716
-0.00551904
-0.00535167
-0.00519443
-0.00504671
-0.00490791
-0.00477745
-0.0046548
-0.00453942
-0.00443083
-0.00432854
-0.00423213
-0.00414118
-0.0040553
-0.00397413
-0.00389734
-0.0038246
-0.00375563
-0.00369016
-0.00362792
-0.0035687
-0.00351228
-0.00345844
-0.00340701
-0.00335782
-0.00331071
-0.00326553
-0.00322214
-0.00318042
-0.00314026
-0.00310154
-0.00306417
-0.00302806
-0.00299313
-0.00295929
-0.00292648
-0.00289462
-0.00286366
-0.00283355
-0.00280422
-0.00277563
-0.00274774
-0.00272051
-0.00269389
-0.00266785
-0.00264237
-0.0026174
-0.00259293
-0.00256892
-0.00254535
-0.00252221
-0.00249946
-0.00247709
-0.00245509
-0.00243343
-0.0024121
-0.00239109
-0.00237038
-0.00234997
-0.00232983
-0.00230996
-0.00229035
-0.00227099
-0.00225187
-0.00223298
-0.00221432
-0.00219587
-0.00217764
-0.00215961
-0.00214177
-0.00212414
-0.00210669
-0.00208942
-0.00207233
-0.00205541
-0.00203866
-0.00202208
-0.00200566
-0.0019894
-0.0019733
-0.00195734
-0.00194153
-0.00192587
-0.00191036
-0.00189498
-0.00187974
-0.00186464
-0.00184966
-0.00183482
-0.00182011
-0.00180553
-0.00179107
-0.00177673
-0.00176251
-0.00174842
-0.00173444
-0.00172057
-0.00170682
-0.00169318
-0.00167966
-0.00166624
-0.00165293
-0.00163973
-0.00162664
-0.00161365
-0.00160076
-0.00158797
-0.00157529
-0.00156271
-0.00155022
-0.00153783
-0.00152554
-0.00151334
-0.00150124
-0.00148923
-0.00147731
-0.00146549
-0.00145375
-0.00144211
-0.00143055
-0.00141908
-0.0014077
-0.0013964
-0.00138519
-0.00137407
-0.00136303
-0.00135207
-0.00134119
-0.00133039
-0.00131968
-0.00130904
-0.00129849
-0.00128801
-0.00127761
-0.00126728
-0.00125704
-0.00124686
-0.00123677
-0.00122675
-0.0012168
-0.00120692
-0.00119712
-0.00118739
-0.00117773
-0.00116814
-0.00115862
-0.00114917
-0.00113978
-0.00113047
-0.00112122
-0.00111205
-0.00110293
-0.00109389
-0.00108491
-0.00107599
-0.00106714
-0.00105835
-0.00104963
-0.00104097
-0.00103237
-0.00102383
-0.00101536
-0.00100694
-0.000998585
-0.00099029
-0.000982055
-0.000973878
-0.000965761
-0.000957701
-0.000949699
-0.000941753
-0.000933865
-0.000926032
-0.000918256
-0.000910535
-0.000902869
-0.000895257
-0.000887699
-0.000880195
-0.000872745
-0.000865347
-0.000858002
-0.000850708
-0.000843466
-0.000836276
-0.000829137
-0.000822047
-0.000815008
-0.000808019
-0.000801079
-0.000794188
-0.000787346
-0.000780552
-0.000773806
-0.000767106
-0.000760455
-0.00075385
-0.000747292
-0.00074078
-0.000734313
-0.000727892
-0.000721516
-0.000715185
-0.000708898
-0.000702656
-0.000696457
-0.000690302
-0.000684189
-0.00067812
-0.000672093
-0.000666108
-0.000660165
-0.000654264
-0.000648404
-0.000642584
-0.000636806
-0.000631067
-0.000625369
-0.000619711
-0.000614092
-0.000608512
-0.000602972
-0.000597469
-0.000592005
-0.000586579
-0.000581192
-0.000575842
-0.000570528
-0.000565251
-0.000560012
-0.000554808
-0.000549642
-0.00054451
-0.000539415
-0.000534355
-0.00052933
-0.00052434
-0.000519384
-0.000514463
-0.000509576
-0.000504723
-0.000499903
-0.000495117
-0.000490364
-0.000485644
-0.000480957
-0.000476302
-0.000471679
-0.000467088
-0.000462529
-0.000458001
-0.000453506
-0.000449041
-0.000444606
-0.000440203
-0.000435829
-0.000431486
-0.000427173
-0.00042289
-0.000418636
-0.000414412
-0.000410216
-0.00040605
-0.000401913
-0.000397804
-0.000393723
-0.00038967
-0.000385645
-0.000381648
-0.000377679
-0.000373737
-0.000369822
-0.000365934
-0.000362072
-0.000358238
-0.000354429
-0.000350647
-0.00034689
-0.00034316
-0.000339455
-0.000335776
-0.000332122
-0.000328492
-0.000324888
-0.000321309
-0.000317754
-0.000314224
-0.000310718
-0.000307235
-0.000303777
-0.000300343
-0.000296932
-0.000293544
-0.00029018
-0.000286838
-0.00028352
-0.000280224
-0.000276951
-0.0002737
-0.000270472
-0.000267265
-0.00026408
-0.000260918
-0.000257777
-0.000254657
-0.000251559
-0.000248482
-0.000245426
-0.000242391
-0.000239376
-0.000236382
-0.000233409
-0.000230456
-0.000227523
-0.00022461
-0.000221717
-0.000218844
-0.000215991
-0.000213156
-0.000210342
-0.000207546
-0.00020477
-0.000202012
-0.000199273
-0.000196553
-0.000193851
-0.000191168
-0.000188503
-0.000185856
-0.000183228
-0.000180616
-0.000178023
-0.000175448
-0.00017289
-0.000170349
-0.000167826
-0.00016532
-0.000162832
-0.00016036
-0.000157904
-0.000155465
-0.000153044
-0.000150639
-0.000148249
-0.000145876
-0.00014352
-0.000141179
-0.000138854
-0.000136545
-0.000134252
-0.000131974
-0.000129711
-0.000127464
-0.000125233
-0.000123016
-0.000120815
-0.000118628
-0.000116457
-0.000114299
-0.000112157
-0.00011003
-0.000107916
-0.000105817
-0.000103732
-0.000101661
-9.9605e-05
-9.75621e-05
-9.55327e-05
-9.35176e-05
-9.1516e-05
-8.95285e-05
-8.75539e-05
-8.55928e-05
-8.36451e-05
-8.17103e-05
-7.97889e-05
-7.78804e-05
-7.59846e-05
-7.41016e-05
-7.22315e-05
-7.03741e-05
-6.85295e-05
-6.66969e-05
-6.48772e-05
-6.30695e-05
-6.1274e-05
-5.94905e-05
-5.77197e-05
-5.59604e-05
-5.42132e-05
-5.24773e-05
-5.07534e-05
-4.9041e-05
-4.73406e-05
-4.56517e-05
-4.39733e-05
-4.23071e-05
-4.06522e-05
-3.90079e-05
-3.73751e-05
-3.57529e-05
-3.4142e-05
-3.25419e-05
-3.09531e-05
-2.93742e-05
-2.78067e-05
-2.62492e-05
-2.47023e-05
-2.31661e-05
-2.16398e-05
-2.01242e-05
-1.86185e-05
-1.71228e-05
-1.56377e-05
-1.41626e-05
-1.26967e-05
-1.12415e-05
-9.79553e-06
-8.35949e-06
-6.9334e-06
-5.51655e-06
-4.10965e-06
-2.71198e-06
-1.32356e-06
5.49249e-08
1.42488e-06
2.7856e-06
4.13636e-06
5.47861e-06
6.81161e-06
8.13609e-06
9.45133e-06
1.0758e-05
1.20555e-05
1.33445e-05
1.46249e-05
1.58968e-05
1.71595e-05
1.84143e-05
1.96606e-05
2.08984e-05
2.21277e-05
2.33491e-05
2.4562e-05
2.57671e-05
2.69637e-05
2.81525e-05
2.93334e-05
3.05066e-05
3.16712e-05
3.28287e-05
3.39776e-05
3.51195e-05
3.62535e-05
3.73798e-05
3.84989e-05
3.96102e-05
4.07144e-05
4.18108e-05
4.29001e-05
4.39816e-05
4.50566e-05
4.61239e-05
4.7184e-05
4.82371e-05
4.9283e-05
5.03226e-05
5.13543e-05
5.23796e-05
5.33979e-05
5.44097e-05
5.54144e-05
5.64127e-05
5.7404e-05
5.83888e-05
5.93665e-05
6.03379e-05
6.13035e-05
6.22621e-05
6.32142e-05
6.416e-05
6.50993e-05
6.60323e-05
6.69595e-05
6.78804e-05
6.87949e-05
6.97037e-05
7.06061e-05
7.15021e-05
7.23925e-05
7.32771e-05
7.41554e-05
7.50286e-05
7.58955e-05
7.6756e-05
7.76115e-05
7.84613e-05
7.93048e-05
8.01432e-05
8.0976e-05
8.18031e-05
8.26245e-05
8.34409e-05
8.42517e-05
8.50567e-05
8.58568e-05
8.66512e-05
8.74406e-05
8.82244e-05
8.90032e-05
8.9777e-05
9.05451e-05
9.13089e-05
9.20671e-05
9.28203e-05
9.35678e-05
9.4311e-05
9.50493e-05
9.57826e-05
9.65109e-05
9.72342e-05
9.79533e-05
9.86674e-05
9.93766e-05
0.000100081
0.000100781
0.000101476
0.000102166
0.000102852
0.000103533
0.00010421
0.000104883
0.00010555
0.000106214
0.000106872
0.000107527
0.000108178
0.000108823
0.000109465
0.000110102
0.000110735
0.000111364
0.000111989
0.000112609
0.000113226
0.000113838
0.000114446
0.000115051
0.00011565
0.000116247
0.000116839
0.000117428
0.000118012
0.000118593
0.000119169
0.000119742
0.000120311
0.000120877
0.000121438
0.000121996
0.00012255
0.000123101
0.000123647
0.000124191
0.00012473
0.000125266
0.000125799
0.000126327
0.000126853
0.000127375
0.000127893
0.000128409
0.00012892
0.000129428
0.000129933
0.000130434
0.000130932
0.000131428
0.000131919
0.000132408
0.000132893
0.000133375
0.000133854
0.000134329
0.000134801
0.000135271
0.000135737
0.0001362
0.00013666
0.000137117
0.000137571
0.000138022
0.00013847
0.000138916
0.000139357
0.000139797
0.000140233
0.000140666
0.000141097
0.000141525
0.00014195
0.000142372
0.000142791
0.000143207
0.000143622
0.000144032
0.000144441
0.000144847
0.000145249
0.000145649
0.000146047
0.000146442
0.000146835
0.000147225
0.000147612
0.000147996
0.000148379
0.000148759
0.000149136
0.000149511
0.000149883
0.000150252
0.00015062
0.000150985
0.000151347
0.000151708
0.000152066
0.000152421
0.000152774
0.000153125
0.000153473
0.000153819
0.000154163
0.000154505
0.000154844
0.000155182
0.000155516
0.00015585
0.00015618
0.000156508
0.000156834
0.000157158
0.00015748
0.0001578
0.000158118
0.000158434
0.000158747
0.000159059
0.000159368
0.000159676
0.000159981
0.000160285
0.000160586
0.000160886
0.000161183
0.000161479
0.000161773
0.000162064
0.000162354
0.000162642
0.000162928
0.000163212
0.000163494
0.000163774
0.000164054
0.00016433
0.000164605
0.000164879
0.000165149
0.000165419
0.000165687
0.000165953
0.000166217
0.00016648
0.000166741
0.000167
0.000167258
0.000167513
0.000167768
0.00016802
0.000168271
0.00016852
0.000168768
0.000169014
0.000169258
0.000169501
0.000169742
0.000169982
0.00017022
0.000170456
0.000170691
0.000170925
0.000171156
0.000171387
0.000171616
0.000171843
0.000172069
0.000172294
0.000172516
0.000172738
0.000172958
0.000173177
0.000173394
0.00017361
0.000173824
0.000174038
0.000174249
0.00017446
0.000174669
0.000174876
0.000175082
0.000175287
0.000175491
0.000175693
0.000175894
0.000176093
0.000176292
0.000176488
0.000176684
0.000176878
0.000177072
0.000177264
0.000177455
0.000177644
0.000177832
0.000178019
0.000178205
0.00017839
0.000178573
0.000178755
0.000178936
0.000179116
0.000179294
0.000179472
0.000179649
0.000179824
0.000179998
0.000180171
0.000180343
0.000180514
0.000180683
0.000180852
0.00018102
0.000181186
0.000181351
0.000181516
0.000181678
0.00018184
0.000182002
0.000182161
0.000182321
0.000182479
0.000182635
0.000182792
0.000182947
0.000183101
0.000183254
0.000183406
0.000183556
0.000183707
0.000183855
0.000184004
0.000184151
0.000184297
0.000184442
0.000184587
0.00018473
0.000184872
0.000185014
0.000185155
0.000185294
0.000185434
0.000185571
0.000185709
0.000185844
0.00018598
0.000186114
0.000186248
0.000186381
0.000186512
0.000186644
0.000186774
0.000186903
0.000187032
0.000187159
0.000187286
0.000187412
0.000187538
0.000187662
0.000187785
0.000187908
0.000188031
0.000188152
0.000188272
0.000188392
0.000188511
0.00018863
0.000188747
0.000188863
0.00018898
0.000189095
0.000189209
0.000189323
0.000189436
0.000189548
0.00018966
0.000189771
0.000189882
0.000189991
0.0001901
0.000190208
0.000190315
0.000190422
0.000190528
0.000190633
0.000190738
0.000190842
0.000190945
0.000191048
0.00019115
0.000191252
0.000191352
0.000191453
0.000191552
0.000191651
0.000191749
0.000191847
0.000191944
0.00019204
0.000192136
0.000192231
0.000192326
0.00019242
0.000192513
0.000192606
0.000192698
0.00019279
0.000192881
0.000192971
0.000193061
0.00019315
0.000193239
0.000193327
0.000193415
0.000193502
0.000193589
0.000193675
0.00019376
0.000193845
0.000193929
0.000194013
0.000194097
0.000194179
0.000194262
0.000194343
0.000194424
0.000194505
0.000194586
0.000194665
0.000194744
0.000194823
0.000194901
0.000194978
0.000195056
0.000195133
0.000195209
0.000195285
0.00019536
0.000195435
0.000195509
0.000195583
0.000195656
0.00019573
0.000195802
0.000195874
0.000195946
0.000196017
0.000196088
0.000196158
0.000196228
0.000196297
0.000196366
0.000196434
0.000196503
0.00019657
0.000196638
0.000196704
0.00019677
0.000196837
0.000196903
0.000196967
0.000197033
0.000197097
0.000197161
0.000197225
0.000197288
0.00019735
0.000197413
0.000197475
0.000197536
0.000197598
0.000197659
0.000197719
0.000197779
0.000197838
0.000197898
0.000197957
0.000198015
0.000198074
0.000198132
0.000198189
0.000198246
0.000198303
0.00019836
0.000198416
0.000198472
0.000198527
0.000198582
0.000198637
0.000198691
0.000198746
0.000198799
0.000198852
0.000198906
0.000198958
0.000199011
0.000199063
0.000199115
0.000199166
0.000199218
0.000199268
0.000199319
0.000199369
0.000199419
0.000199468
0.000199517
0.000199567
0.000199616
0.000199664
0.000199712
0.00019976
0.000199807
0.000199854
0.000199901
0.000199948
0.000199994
0.00020004
0.000200086
0.000200132
0.000200177
0.000200222
0.000200266
0.000200311
0.000200355
0.000200399
0.000200443
0.000200486
0.000200529
0.000200572
0.000200615
0.000200657
0.000200698
0.00020074
0.000200782
0.000200824
0.000200864
0.000200905
0
0

