-14930.3
-0.0242328
-0.0104944
-0.00668814
-0.00499712
-0.00405842
-0.00347704
-0.00309661
-0.00284312
-0.00267794
-0.00257966
-0.00253573
-0.00253828
-0.00258185
-0.00266219
-0.00277564
-0.00291883
-0.00308849
-0.00328143
-0.00349458
-0.00372491
-0.00396955
-0.00422576
-0.00449096
-0.00476276
-0.00503892
-0.00531742
-0.00559641
-0.00587423
-0.00614937
-0.00642052
-0.00668651
-0.00694631
-0.00719906
-0.007444
-0.00768051
-0.00790805
-0.00812623
-0.00833469
-0.00853321
-0.0087216
-0.00889977
-0.00906767
-0.00922531
-0.00937274
-0.00951006
-0.0096374
-0.00975493
-0.00986284
-0.00996135
-0.0100507
-0.0101311
-0.0102028
-0.0102662
-0.0103215
-0.0103689
-0.0104088
-0.0104414
-0.0104671
-0.0104862
-0.0104988
-0.0105054
-0.0105062
-0.0105014
-0.0104914
-0.0104764
-0.0104567
-0.0104324
-0.010404
-0.0103715
-0.0103352
-0.0102954
-0.0102522
-0.0102059
-0.0101567
-0.0101047
-0.0100502
-0.00999325
-0.00993409
-0.00987286
-0.00980973
-0.00974484
-0.00967833
-0.00961032
-0.00954096
-0.00947036
-0.00939863
-0.00932588
-0.00925222
-0.00917775
-0.00910255
-0.00902672
-0.00895034
-0.00887349
-0.00879624
-0.00871867
-0.00864083
-0.0085628
-0.00848463
-0.00840637
-0.00832808
-0.00824981
-0.0081716
-0.0080935
-0.00801554
-0.00793777
-0.00786021
-0.00778291
-0.00770589
-0.00762917
-0.0075528
-0.00747678
-0.00740115
-0.00732592
-0.00725112
-0.00717676
-0.00710286
-0.00702943
-0.00695648
-0.00688404
-0.00681211
-0.0067407
-0.00666982
-0.00659948
-0.00652969
-0.00646045
-0.00639177
-0.00632366
-0.00625611
-0.00618914
-0.00612274
-0.00605693
-0.00599169
-0.00592703
-0.00586296
-0.00579947
-0.00573657
-0.00567425
-0.00561251
-0.00555136
-0.00549078
-0.00543079
-0.00537137
-0.00531253
-0.00525427
-0.00519657
-0.00513945
-0.00508289
-0.00502689
-0.00497145
-0.00491657
-0.00486224
-0.00480846
-0.00475523
-0.00470254
-0.00465038
-0.00459876
-0.00454768
-0.00449711
-0.00444707
-0.00439755
-0.00434854
-0.00430004
-0.00425204
-0.00420455
-0.00415755
-0.00411104
-0.00406503
-0.00401949
-0.00397443
-0.00392985
-0.00388574
-0.00384209
-0.00379891
-0.00375618
-0.0037139
-0.00367207
-0.00363069
-0.00358974
-0.00354923
-0.00350915
-0.0034695
-0.00343027
-0.00339145
-0.00335305
-0.00331507
-0.00327748
-0.0032403
-0.00320351
-0.00316712
-0.00313112
-0.0030955
-0.00306026
-0.0030254
-0.00299091
-0.00295679
-0.00292304
-0.00288965
-0.00285662
-0.00282394
-0.00279161
-0.00275963
-0.00272799
-0.00269669
-0.00266573
-0.0026351
-0.0026048
-0.00257482
-0.00254516
-0.00251583
-0.0024868
-0.00245809
-0.00242969
-0.0024016
-0.0023738
-0.00234631
-0.0023191
-0.0022922
-0.00226558
-0.00223924
-0.00221319
-0.00218742
-0.00216193
-0.00213671
-0.00211176
-0.00208708
-0.00206266
-0.00203851
-0.00201462
-0.00199098
-0.0019676
-0.00194447
-0.00192158
-0.00189895
-0.00187655
-0.0018544
-0.00183248
-0.0018108
-0.00178936
-0.00176814
-0.00174715
-0.00172639
-0.00170585
-0.00168553
-0.00166543
-0.00164554
-0.00162587
-0.00160641
-0.00158716
-0.00156812
-0.00154928
-0.00153064
-0.0015122
-0.00149396
-0.00147592
-0.00145807
-0.00144041
-0.00142294
-0.00140566
-0.00138857
-0.00137165
-0.00135492
-0.00133837
-0.001322
-0.0013058
-0.00128978
-0.00127392
-0.00125824
-0.00124273
-0.00122738
-0.0012122
-0.00119718
-0.00118232
-0.00116762
-0.00115308
-0.00113869
-0.00112446
-0.00111038
-0.00109645
-0.00108267
-0.00106904
-0.00105556
-0.00104222
-0.00102902
-0.00101596
-0.00100305
-0.00099027
-0.000977629
-0.000965123
-0.000952751
-0.000940513
-0.000928405
-0.000916426
-0.000904576
-0.000892854
-0.000881256
-0.000869783
-0.000858432
-0.000847203
-0.000836094
-0.000825105
-0.000814233
-0.000803476
-0.000792836
-0.000782309
-0.000771894
-0.000761591
-0.000751399
-0.000741315
-0.000731339
-0.00072147
-0.000711706
-0.000702047
-0.000692491
-0.000683037
-0.000673685
-0.000664432
-0.000655278
-0.000646221
-0.000637263
-0.000628399
-0.00061963
-0.000610955
-0.000602372
-0.000593882
-0.000585482
-0.000577171
-0.000568949
-0.000560815
-0.000552768
-0.000544807
-0.000536931
-0.000529139
-0.00052143
-0.000513804
-0.000506258
-0.000498793
-0.000491408
-0.000484102
-0.000476873
-0.000469722
-0.000462647
-0.000455647
-0.000448722
-0.000441871
-0.000435093
-0.000428387
-0.000421752
-0.000415189
-0.000408695
-0.00040227
-0.000395914
-0.000389626
-0.000383404
-0.000377249
-0.000371159
-0.000365134
-0.000359174
-0.000353277
-0.000347442
-0.00034167
-0.000335959
-0.000330309
-0.000324719
-0.000319188
-0.000313716
-0.000308303
-0.000302946
-0.000297648
-0.000292405
-0.000287218
-0.000282086
-0.000277009
-0.000271985
-0.000267016
-0.000262099
-0.000257233
-0.00025242
-0.000247658
-0.000242946
-0.000238285
-0.000233673
-0.00022911
-0.000224595
-0.000220129
-0.000215709
-0.000211337
-0.000207011
-0.000202731
-0.000198496
-0.000194307
-0.000190161
-0.000186059
-0.000182001
-0.000177986
-0.000174014
-0.000170084
-0.000166195
-0.000162348
-0.000158541
-0.000154775
-0.000151048
-0.000147361
-0.000143713
-0.000140103
-0.000136533
-0.000132999
-0.000129503
-0.000126044
-0.000122621
-0.000119235
-0.000115885
-0.00011257
-0.00010929
-0.000106045
-0.000102834
-9.96561e-05
-9.65126e-05
-9.34025e-05
-9.03251e-05
-8.72803e-05
-8.42676e-05
-8.12868e-05
-7.83373e-05
-7.5419e-05
-7.25313e-05
-6.96742e-05
-6.68469e-05
-6.40501e-05
-6.12825e-05
-5.8544e-05
-5.58339e-05
-5.3153e-05
-5.05005e-05
-4.78757e-05
-4.52786e-05
-4.27085e-05
-4.01662e-05
-3.76501e-05
-3.51603e-05
-3.26975e-05
-3.02596e-05
-2.78479e-05
-2.54619e-05
-2.31007e-05
-2.07644e-05
-1.84522e-05
-1.6165e-05
-1.39018e-05
-1.16622e-05
-9.44593e-06
-7.25315e-06
-5.08311e-06
-2.93581e-06
-8.11955e-07
1.29058e-06
3.37038e-06
5.42887e-06
7.46532e-06
9.48046e-06
1.1475e-05
1.34482e-05
1.54008e-05
1.73328e-05
1.92449e-05
2.11364e-05
2.3008e-05
2.48605e-05
2.66937e-05
2.85078e-05
3.03019e-05
3.20783e-05
3.38355e-05
3.55742e-05
3.72952e-05
3.89984e-05
4.06831e-05
4.23508e-05
4.40007e-05
4.56336e-05
4.72487e-05
4.88474e-05
5.04299e-05
5.19952e-05
5.35442e-05
5.50776e-05
5.65947e-05
5.80961e-05
5.95811e-05
6.10513e-05
6.25065e-05
6.39461e-05
6.53707e-05
6.67805e-05
6.81753e-05
6.95559e-05
7.09216e-05
7.22738e-05
7.36118e-05
7.49355e-05
7.62458e-05
7.75426e-05
7.88251e-05
8.00949e-05
8.13519e-05
8.25954e-05
8.3826e-05
8.50439e-05
8.6249e-05
8.74413e-05
8.86216e-05
8.97897e-05
9.09458e-05
9.20891e-05
9.32217e-05
9.43416e-05
9.54507e-05
9.65478e-05
9.76336e-05
9.87079e-05
9.97716e-05
0.000100824
0.000101866
0.000102897
0.000103917
0.000104927
0.000105926
0.000106915
0.000107893
0.000108862
0.00010982
0.000110769
0.000111708
0.000112637
0.000113556
0.000114467
0.000115368
0.000116259
0.000117141
0.000118014
0.000118879
0.000119734
0.00012058
0.000121419
0.000122248
0.000123069
0.000123881
0.000124684
0.00012548
0.000126268
0.000127047
0.000127819
0.000128582
0.000129338
0.000130085
0.000130826
0.000131558
0.000132284
0.000133002
0.000133712
0.000134415
0.000135111
0.0001358
0.000136482
0.000137156
0.000137824
0.000138486
0.00013914
0.000139787
0.000140428
0.000141063
0.000141691
0.000142313
0.000142928
0.000143537
0.00014414
0.000144737
0.000145328
0.000145912
0.000146491
0.000147064
0.000147631
0.000148193
0.000148748
0.000149298
0.000149842
0.000150381
0.000150915
0.000151443
0.000151965
0.000152482
0.000152994
0.000153502
0.000154003
0.0001545
0.000154992
0.000155479
0.00015596
0.000156438
0.00015691
0.000157377
0.00015784
0.000158298
0.000158751
0.0001592
0.000159645
0.000160084
0.00016052
0.000160951
0.000161378
0.0001618
0.000162219
0.000162632
0.000163042
0.000163448
0.00016385
0.000164248
0.000164641
0.000165031
0.000165417
0.000165799
0.000166177
0.000166552
0.000166923
0.000167289
0.000167653
0.000168013
0.000168369
0.000168721
0.000169071
0.000169416
0.000169759
0.000170097
0.000170432
0.000170765
0.000171094
0.000171419
0.000171741
0.00017206
0.000172376
0.000172689
0.000172999
0.000173306
0.000173609
0.00017391
0.000174207
0.000174502
0.000174794
0.000175083
0.000175369
0.000175653
0.000175933
0.000176211
0.000176486
0.000176758
0.000177028
0.000177295
0.000177559
0.000177821
0.00017808
0.000178337
0.000178591
0.000178842
0.000179092
0.000179338
0.000179583
0.000179825
0.000180065
0.000180302
0.000180537
0.000180769
0.000181
0.000181228
0.000181454
0.000181678
0.000181899
0.000182119
0.000182336
0.000182552
0.000182765
0.000182976
0.000183185
0.000183391
0.000183597
0.0001838
0.000184001
0.0001842
0.000184397
0.000184592
0.000184786
0.000184977
0.000185167
0.000185355
0.000185542
0.000185726
0.000185908
0.000186089
0.000186268
0.000186445
0.000186621
0.000186795
0.000186968
0.000187138
0.000187307
0.000187475
0.000187641
0.000187805
0.000187967
0.000188129
0.000188289
0.000188447
0.000188603
0.000188758
0.000188912
0.000189064
0.000189215
0.000189365
0.000189513
0.000189659
0.000189805
0.000189948
0.000190091
0.000190232
0.000190372
0.00019051
0.000190648
0.000190783
0.000190918
0.000191052
0.000191184
0.000191315
0.000191445
0.000191573
0.000191701
0.000191826
0.000191951
0.000192075
0.000192198
0.00019232
0.00019244
0.000192559
0.000192677
0.000192794
0.000192911
0.000193025
0.00019314
0.000193252
0.000193364
0.000193475
0.000193584
0.000193693
0.000193801
0.000193908
0.000194014
0.000194118
0.000194222
0.000194325
0.000194427
0.000194528
0.000194628
0.000194728
0.000194826
0.000194923
0.00019502
0.000195116
0.00019521
0.000195304
0.000195397
0.000195489
0.000195581
0.000195671
0.000195761
0.00019585
0.000195938
0.000196026
0.000196113
0.000196198
0.000196284
0.000196368
0.000196451
0.000196534
0.000196616
0.000196697
0.000196778
0.000196858
0.000196937
0.000197016
0.000197094
0.000197171
0.000197247
0.000197323
0.000197398
0.000197473
0.000197546
0.00019762
0.000197692
0.000197764
0.000197836
0.000197906
0.000197976
0.000198045
0.000198114
0.000198182
0.00019825
0.000198317
0.000198383
0.00019845
0.000198515
0.00019858
0.000198644
0.000198707
0.00019877
0.000198833
0.000198895
0.000198956
0.000199017
0.000199078
0.000199137
0.000199197
0.000199256
0.000199314
0.000199372
0.000199429
0.000199486
0.000199543
0.000199599
0.000199655
0.000199709
0.000199764
0.000199818
0.000199871
0.000199925
0.000199978
0.00020003
0.000200082
0.000200134
0.000200184
0.000200235
0.000200285
0.000200335
0.000200384
0.000200433
0.000200482
0.00020053
0.000200578
0.000200625
0.000200671
0.000200718
0.000200765
0.00020081
0.000200855
0.000200901
0.000200946
0.00020099
0.000201034
0.000201077
0.000201121
0.000201164
0.000201206
0.000201248
0.00020129
0.000201332
0.000201373
0.000201414
0.000201454
0.000201494
0.000201535
0.000201574
0.000201614
0.000201652
0.000201691
0.000201729
0.000201767
0.000201805
0.000201842
0.000201879
0.000201916
0.000201953
0.00020199
0.000202026
0.000202061
0.000202097
0.000202132
0.000202166
0.000202201
0.000202235
0.000202269
0.000202304
0.000202337
0.00020237
0.000202404
0.000202436
0.000202468
0.000202501
0.000202533
0.000202565
0.000202596
0.000202628
0.000202659
0.000202689
0.000202721
0.000202751
0.000202781
0.000202811
0.000202841
0.00020287
0.000202899
0.000202928
0.000202957
0.000202986
0.000203014
0.000203043
0.00020307
0.000203098
0.000203126
0.000203153
0.00020318
0.000203207
0.000203234
0.000203261
0.000203287
0.000203313
0.000203339
0.000203364
0.000203391
0.000203416
0.000203441
0.000203466
0.000203491
0.000203516
0.00020354
0.000203565
0.000203589
0.000203613
0.000203637
0.00020366
0.000203683
0.000203707
0.00020373
0.000203753
0.000203776
0.000203799
0.000203821
0.000203843
0.000203866
0.000203888
0.00020391
0.000203931
0.000203954
0.000203975
0.000203996
0.000204017
0.000204038
0.000204059
0.00020408
0.0002041
0.00020412
0.000204141
0.000204161
0.000204181
0.000204201
0.000204221
0.000204241
0.00020426
0.000204279
0.000204298
0.000204317
0.000204336
0.000204355
0.000204374
0.000204393
0.000204411
0.00020443
0.000204447
0.000204466
0.000204484
0.000204501
0.000204519
0.000204537
0.000204555
0.000204572
0.000204589
0.000204607
0.000204624
0.000204641
0.000204657
0.000204674
0.00020469
0.000204707
0.000204724
0.00020474
0.000204756
0.000204772
0.000204788
0.000204804
0.00020482
0.000204835
0.000204851
0.000204867
0.000204882
0.000204897
0
0

