-14930.3
-0.0242328
-0.0104946
-0.00668994
-0.00500399
-0.00407725
-0.00351869
-0.00317572
-0.00297721
-0.00288609
-0.00288097
-0.0029479
-0.00307642
-0.00325765
-0.00348338
-0.00374577
-0.0040373
-0.00435078
-0.00467952
-0.00501734
-0.00535872
-0.0056988
-0.00603339
-0.006359
-0.00667278
-0.0069725
-0.00725645
-0.00752344
-0.00777271
-0.00800385
-0.00821679
-0.00841168
-0.0085889
-0.00874899
-0.0088926
-0.00902048
-0.00913344
-0.00923232
-0.00931798
-0.00939127
-0.00945304
-0.00950412
-0.00954529
-0.00957733
-0.00960095
-0.00961685
-0.00962566
-0.00962799
-0.0096244
-0.00961543
-0.00960155
-0.00958321
-0.00956084
-0.0095348
-0.00950546
-0.00947314
-0.00943814
-0.00940071
-0.00936113
-0.0093196
-0.00927634
-0.00923154
-0.00918537
-0.00913799
-0.00908955
-0.00904016
-0.00898996
-0.00893905
-0.00888752
-0.00883547
-0.00878299
-0.00873013
-0.00867698
-0.00862359
-0.00857001
-0.0085163
-0.0084625
-0.00840866
-0.00835481
-0.00830099
-0.00824722
-0.00819353
-0.00813995
-0.0080865
-0.0080332
-0.00798006
-0.00792711
-0.00787436
-0.00782182
-0.0077695
-0.00771742
-0.00766558
-0.00761399
-0.00756266
-0.00751159
-0.0074608
-0.00741028
-0.00736004
-0.00731009
-0.00726042
-0.00721104
-0.00716195
-0.00711316
-0.00706466
-0.00701646
-0.00696856
-0.00692095
-0.00687365
-0.00682664
-0.00677993
-0.00673351
-0.0066874
-0.00664158
-0.00659605
-0.00655083
-0.00650589
-0.00646125
-0.00641691
-0.00637285
-0.00632908
-0.0062856
-0.00624241
-0.00619951
-0.00615688
-0.00611454
-0.00607248
-0.0060307
-0.0059892
-0.00594797
-0.00590702
-0.00586634
-0.00582593
-0.00578579
-0.00574592
-0.00570632
-0.00566698
-0.0056279
-0.00558908
-0.00555052
-0.00551222
-0.00547417
-0.00543638
-0.00539884
-0.00536155
-0.00532451
-0.00528772
-0.00525117
-0.00521486
-0.0051788
-0.00514298
-0.0051074
-0.00507205
-0.00503694
-0.00500207
-0.00496743
-0.00493301
-0.00489883
-0.00486488
-0.00483115
-0.00479764
-0.00476436
-0.00473131
-0.00469847
-0.00466585
-0.00463344
-0.00460126
-0.00456928
-0.00453752
-0.00450597
-0.00447463
-0.0044435
-0.00441258
-0.00438186
-0.00435135
-0.00432104
-0.00429093
-0.00426102
-0.00423131
-0.0042018
-0.00417248
-0.00414336
-0.00411443
-0.00408569
-0.00405715
-0.00402879
-0.00400062
-0.00397264
-0.00394485
-0.00391724
-0.00388981
-0.00386257
-0.0038355
-0.00380862
-0.00378191
-0.00375538
-0.00372903
-0.00370285
-0.00367685
-0.00365102
-0.00362536
-0.00359987
-0.00357455
-0.0035494
-0.00352441
-0.00349959
-0.00347494
-0.00345044
-0.00342611
-0.00340195
-0.00337794
-0.00335409
-0.0033304
-0.00330687
-0.00328349
-0.00326027
-0.0032372
-0.00321429
-0.00319153
-0.00316892
-0.00314645
-0.00312414
-0.00310198
-0.00307996
-0.00305809
-0.00303636
-0.00301478
-0.00299334
-0.00297204
-0.00295089
-0.00292987
-0.002909
-0.00288826
-0.00286766
-0.0028472
-0.00282687
-0.00280668
-0.00278662
-0.00276669
-0.0027469
-0.00272724
-0.00270771
-0.00268831
-0.00266903
-0.00264989
-0.00263087
-0.00261198
-0.00259321
-0.00257457
-0.00255605
-0.00253766
-0.00251938
-0.00250123
-0.0024832
-0.00246529
-0.0024475
-0.00242982
-0.00241226
-0.00239482
-0.0023775
-0.00236029
-0.00234319
-0.00232621
-0.00230934
-0.00229258
-0.00227594
-0.0022594
-0.00224297
-0.00222666
-0.00221045
-0.00219435
-0.00217835
-0.00216246
-0.00214668
-0.002131
-0.00211543
-0.00209996
-0.00208459
-0.00206933
-0.00205417
-0.0020391
-0.00202414
-0.00200928
-0.00199451
-0.00197984
-0.00196528
-0.0019508
-0.00193643
-0.00192215
-0.00190796
-0.00189387
-0.00187987
-0.00186597
-0.00185215
-0.00183843
-0.0018248
-0.00181127
-0.00179782
-0.00178446
-0.00177119
-0.001758
-0.00174491
-0.0017319
-0.00171898
-0.00170615
-0.0016934
-0.00168073
-0.00166815
-0.00165565
-0.00164324
-0.00163091
-0.00161866
-0.00160649
-0.0015944
-0.00158239
-0.00157047
-0.00155862
-0.00154685
-0.00153516
-0.00152355
-0.00151201
-0.00150055
-0.00148917
-0.00147786
-0.00146663
-0.00145547
-0.00144439
-0.00143338
-0.00142245
-0.00141158
-0.00140079
-0.00139008
-0.00137943
-0.00136885
-0.00135834
-0.00134791
-0.00133754
-0.00132724
-0.00131701
-0.00130685
-0.00129676
-0.00128673
-0.00127677
-0.00126688
-0.00125705
-0.00124729
-0.00123759
-0.00122796
-0.00121839
-0.00120889
-0.00119945
-0.00119007
-0.00118075
-0.0011715
-0.00116231
-0.00115318
-0.00114411
-0.0011351
-0.00112615
-0.00111726
-0.00110843
-0.00109965
-0.00109094
-0.00108228
-0.00107369
-0.00106515
-0.00105666
-0.00104823
-0.00103986
-0.00103155
-0.00102329
-0.00101508
-0.00100693
-0.000998837
-0.000990795
-0.000982807
-0.000974872
-0.000966989
-0.000959159
-0.000951382
-0.000943656
-0.000935982
-0.000928359
-0.000920786
-0.000913265
-0.000905793
-0.000898371
-0.000890999
-0.000883676
-0.000876401
-0.000869176
-0.000861998
-0.000854868
-0.000847786
-0.000840751
-0.000833762
-0.000826821
-0.000819925
-0.000813076
-0.000806272
-0.000799514
-0.000792801
-0.000786132
-0.000779508
-0.000772929
-0.000766392
-0.0007599
-0.000753451
-0.000747045
-0.000740682
-0.000734361
-0.000728082
-0.000721845
-0.00071565
-0.000709496
-0.000703383
-0.000697311
-0.000691279
-0.000685289
-0.000679337
-0.000673425
-0.000667553
-0.00066172
-0.000655926
-0.00065017
-0.000644454
-0.000638774
-0.000633133
-0.00062753
-0.000621964
-0.000616435
-0.000610943
-0.000605488
-0.000600069
-0.000594686
-0.000589339
-0.000584028
-0.000578753
-0.000573512
-0.000568306
-0.000563135
-0.000557999
-0.000552897
-0.000547829
-0.000542795
-0.000537795
-0.000532827
-0.000527893
-0.000522992
-0.000518124
-0.000513288
-0.000508484
-0.000503713
-0.000498973
-0.000494265
-0.000489589
-0.000484944
-0.000480329
-0.000475745
-0.000471193
-0.00046667
-0.000462177
-0.000457715
-0.000453283
-0.00044888
-0.000444506
-0.000440161
-0.000435846
-0.000431559
-0.000427302
-0.000423072
-0.000418871
-0.000414698
-0.000410552
-0.000406435
-0.000402344
-0.000398281
-0.000394246
-0.000390237
-0.000386255
-0.000382299
-0.000378371
-0.000374468
-0.000370591
-0.00036674
-0.000362915
-0.000359115
-0.000355341
-0.000351592
-0.000347868
-0.000344169
-0.000340494
-0.000336844
-0.000333219
-0.000329618
-0.00032604
-0.000322487
-0.000318957
-0.000315452
-0.000311969
-0.000308509
-0.000305073
-0.00030166
-0.00029827
-0.000294902
-0.000291556
-0.000288233
-0.000284932
-0.000281654
-0.000278397
-0.000275162
-0.000271948
-0.000268756
-0.000265585
-0.000262435
-0.000259307
-0.0002562
-0.000253113
-0.000250046
-0.000247001
-0.000243975
-0.00024097
-0.000237984
-0.000235019
-0.000232074
-0.000229149
-0.000226243
-0.000223356
-0.000220488
-0.00021764
-0.00021481
-0.000212
-0.000209208
-0.000206435
-0.000203681
-0.000200945
-0.000198227
-0.000195527
-0.000192846
-0.000190182
-0.000187536
-0.000184908
-0.000182297
-0.000179704
-0.000177128
-0.000174569
-0.000172028
-0.000169503
-0.000166995
-0.000164504
-0.00016203
-0.000159572
-0.00015713
-0.000154705
-0.000152296
-0.000149903
-0.000147526
-0.000145166
-0.00014282
-0.00014049
-0.000138177
-0.000135878
-0.000133595
-0.000131327
-0.000129075
-0.000126836
-0.000124614
-0.000122406
-0.000120213
-0.000118034
-0.00011587
-0.000113721
-0.000111586
-0.000109465
-0.000107358
-0.000105265
-0.000103186
-0.000101121
-9.90706e-05
-9.70334e-05
-9.50091e-05
-9.29989e-05
-9.10022e-05
-8.90191e-05
-8.70487e-05
-8.50918e-05
-8.31477e-05
-8.12164e-05
-7.92987e-05
-7.73929e-05
-7.55007e-05
-7.36206e-05
-7.17532e-05
-6.98987e-05
-6.80562e-05
-6.62258e-05
-6.44075e-05
-6.2602e-05
-6.08078e-05
-5.90265e-05
-5.72565e-05
-5.54978e-05
-5.3752e-05
-5.20168e-05
-5.02937e-05
-4.8582e-05
-4.68823e-05
-4.51933e-05
-4.35157e-05
-4.18495e-05
-4.01939e-05
-3.85496e-05
-3.69168e-05
-3.52946e-05
-3.3683e-05
-3.20821e-05
-3.04919e-05
-2.89131e-05
-2.73442e-05
-2.57852e-05
-2.42376e-05
-2.27e-05
-2.11723e-05
-1.96552e-05
-1.81481e-05
-1.6651e-05
-1.51638e-05
-1.36872e-05
-1.22199e-05
-1.07626e-05
-9.31448e-06
-7.87631e-06
-6.44809e-06
-5.02911e-06
-3.61937e-06
-2.21957e-06
-8.29008e-07
5.52315e-07
1.92511e-06
3.28796e-06
4.64157e-06
5.98665e-06
7.3225e-06
8.64982e-06
9.9679e-06
1.12775e-05
1.25778e-05
1.38696e-05
1.51528e-05
1.64283e-05
1.76945e-05
1.89522e-05
2.02013e-05
2.14427e-05
2.26755e-05
2.38998e-05
2.51163e-05
2.63249e-05
2.75251e-05
2.87174e-05
2.99019e-05
3.10778e-05
3.22467e-05
3.3407e-05
3.45603e-05
3.57057e-05
3.68433e-05
3.79731e-05
3.90958e-05
4.02113e-05
4.13184e-05
4.2419e-05
4.35119e-05
4.45976e-05
4.56755e-05
4.6747e-05
4.78107e-05
4.88681e-05
4.99183e-05
5.09606e-05
5.19966e-05
5.30255e-05
5.4048e-05
5.50634e-05
5.60717e-05
5.70736e-05
5.80691e-05
5.90574e-05
6.00394e-05
6.1015e-05
6.19842e-05
6.29463e-05
6.39027e-05
6.4852e-05
6.57957e-05
6.67329e-05
6.76637e-05
6.85881e-05
6.95069e-05
7.04192e-05
7.13252e-05
7.22255e-05
7.31194e-05
7.40083e-05
7.48901e-05
7.57669e-05
7.66373e-05
7.75021e-05
7.83611e-05
7.92145e-05
8.00622e-05
8.09042e-05
8.17406e-05
8.25719e-05
8.33969e-05
8.42168e-05
8.50311e-05
8.58398e-05
8.66434e-05
8.74421e-05
8.82343e-05
8.90223e-05
8.98047e-05
9.0582e-05
9.13537e-05
9.21204e-05
9.28821e-05
9.36388e-05
9.43906e-05
9.51374e-05
9.58785e-05
9.66154e-05
9.73472e-05
9.80741e-05
9.8796e-05
9.95137e-05
0.000100226
0.000100934
0.000101637
0.000102335
0.000103029
0.000103718
0.000104403
0.000105083
0.000105758
0.000106429
0.000107095
0.000107758
0.000108416
0.000109069
0.000109717
0.000110362
0.000111003
0.000111639
0.00011227
0.000112898
0.000113522
0.000114141
0.000114757
0.000115368
0.000115974
0.000116578
0.000117177
0.000117771
0.000118363
0.00011895
0.000119533
0.000120113
0.000120688
0.00012126
0.000121827
0.000122392
0.000122952
0.000123509
0.000124062
0.000124611
0.000125156
0.000125698
0.000126237
0.000126772
0.000127303
0.000127831
0.000128355
0.000128876
0.000129393
0.000129907
0.000130418
0.000130925
0.000131428
0.000131929
0.000132426
0.00013292
0.00013341
0.000133898
0.000134381
0.000134862
0.000135339
0.000135814
0.000136285
0.000136753
0.000137219
0.000137681
0.00013814
0.000138595
0.000139048
0.000139497
0.000139944
0.000140389
0.000140829
0.000141267
0.000141702
0.000142134
0.000142564
0.000142991
0.000143414
0.000143835
0.000144253
0.000144668
0.000145081
0.000145491
0.000145898
0.000146302
0.000146704
0.000147103
0.0001475
0.000147893
0.000148284
0.000148673
0.000149059
0.000149442
0.000149823
0.000150202
0.000150578
0.000150951
0.000151322
0.000151691
0.000152057
0.00015242
0.000152781
0.00015314
0.000153497
0.000153851
0.000154202
0.000154552
0.000154899
0.000155243
0.000155586
0.000155926
0.000156264
0.000156601
0.000156934
0.000157265
0.000157595
0.000157921
0.000158246
0.000158569
0.000158889
0.000159208
0.000159524
0.000159839
0.000160151
0.00016046
0.000160769
0.000161074
0.000161378
0.00016168
0.00016198
0.000162279
0.000162574
0.000162868
0.00016316
0.000163451
0.000163739
0.000164025
0.00016431
0.000164593
0.000164874
0.000165152
0.000165429
0.000165704
0.000165978
0.000166249
0.000166519
0.000166787
0.000167054
0.000167318
0.000167581
0.000167842
0.000168101
0.000168359
0.000168615
0.000168869
0.000169121
0.000169372
0.000169622
0.00016987
0.000170115
0.00017036
0.000170602
0.000170843
0.000171083
0.00017132
0.000171557
0.000171792
0.000172025
0.000172257
0.000172487
0.000172716
0.000172943
0.000173169
0.000173393
0.000173616
0.000173837
0.000174057
0.000174275
0.000174492
0.000174708
0.000174922
0.000175135
0.000175346
0.000175555
0.000175764
0.000175971
0.000176177
0.000176382
0.000176585
0.000176787
0.000176987
0.000177186
0.000177384
0.00017758
0.000177776
0.000177969
0.000178162
0.000178354
0.000178544
0.000178732
0.000178921
0.000179107
0.000179292
0.000179476
0.000179659
0.00017984
0.000180021
0.0001802
0.000180378
0.000180555
0.00018073
0.000180905
0.000181079
0.00018125
0.000181422
0.000181592
0.000181761
0.000181928
0.000182095
0.000182261
0.000182425
0.000182588
0.000182751
0.000182912
0.000183072
0.000183232
0.00018339
0.000183547
0.000183703
0.000183858
0.000184012
0.000184165
0.000184317
0.000184469
0.000184619
0.000184768
0.000184916
0.000185063
0.000185209
0.000185355
0.000185499
0.000185642
0.000185785
0.000185926
0.000186067
0.000186206
0.000186345
0.000186482
0.000186619
0.000186756
0.000186891
0.000187025
0.000187158
0.000187291
0.000187422
0.000187553
0.000187683
0.000187812
0.00018794
0.000188068
0.000188195
0.000188321
0.000188446
0.000188569
0.000188693
0
0

