-0
-0
-0
-0
-0
-0
-0
-0
-0
-0
-0
-0
-0
-0
-0
-0
-0
-0
-0
-0
-0
-0
-0
-0
-0
-0
-0
-0
-0
-0
-0
-0
-0
-0
-0
-0
2.62442e-06
1.68475e-05
5.88282e-05
0.000148681
0.000305318
0.000542117
0.000864851
0.00127183
0.00175543
0.00230414
0.00290451
0.00354265
0.00420527
0.00488028
0.00555709
0.00622662
0.0068813
0.00751492
0.00812249
0.00870007
0.00924468
0.00975416
0.0102271
0.0106627
0.0110607
0.0114214
0.0117455
0.0120341
0.0122884
0.0125101
0.0127009
0.0128627
0.0129976
0.0131074
0.0131941
0.0132599
0.0133065
0.0133358
0.0133495
0.0133494
0.0133368
0.0133132
0.0132799
0.0132382
0.013189
0.0131334
0.0130723
0.0130063
0.0129363
0.0128629
0.0127866
0.0127079
0.0126272
0.012545
0.0124615
0.012377
0.0122918
0.0122062
0.0121202
0.0120341
0.0119481
0.0118621
0.0117764
0.011691
0.0116059
0.0115214
0.0114373
0.0113538
0.0112708
0.0111885
0.0111067
0.0110257
0.0109453
0.0108655
0.0107864
0.010708
0.0106303
0.0105533
0.0104769
0.0104012
0.0103262
0.0102518
0.0101781
0.0101051
0.0100327
0.00996087
0.00988971
0.00981917
0.00974923
0.00967989
0.00961114
0.00954298
0.00947538
0.00940836
0.00934189
0.00927597
0.0092106
0.00914575
0.00908144
0.00901764
0.00895435
0.00889157
0.00882929
0.0087675
0.00870619
0.00864536
0.008585
0.00852511
0.00846568
0.00840671
0.00834818
0.0082901
0.00823245
0.00817524
0.00811846
0

