-0
-0
-0
-0
-0
-0
-0
-0
-0
-0
-0
-0
-0
-0
-0
-0
-0
-0
-0
-0
-0
-0
-0
-0
-0
-0
-0
-0
-0
-0
-0
-0
-0
-0
-0
-0
-0
-0
-0
-0
-0
-0
-0
-0
-0
2.15788e-05
0.000114749
0.000338367
0.00073506
0.00131825
0.00207319
0.00296564
0.00395205
0.00498765
0.00603185
0.00705095
0.00801921
0.00891862
0.00973803
0.0104721
0.0111198
0.0116835
0.0121679
0.0125788
0.0129229
0.013207
0.013438
0.0136221
0.0137653
0.0138729
0.0139497
0.0139998
0.0140271
0.0140349
0.0140258
0.0140024
0.0139669
0.013921
0.0138664
0.0138043
0.0137361
0.0136627
0.013585
0.0135038
0.0134196
0.0133331
0.0132448
0.013155
0.0130641
0.0129724
0.0128802
0.0127877
0.0126951
0.0126025
0.0125101
0.0124179
0.0123262
0.0122349
0.0121442
0.012054
0.0119645
0.0118757
0.0117876
0.0117002
0.0116135
0.0115276
0.0114424
0.0113581
0.0112745
0.0111916
0.0111095
0.0110282
0.0109477
0.0108679
0.0107888
0.0107105
0.0106329
0.010556
0.0104798
0.0104043
0.0103295
0.0102554
0.0101819
0.0101091
0.010037
0.00996542
0.0098945
0.00982419
0.00975449
0.00968538
0.00961685
0.0095489
0.00948151
0.00941468
0.0093484
0.00928266
0.00921745
0.00915276
0.00908859
0.00902494
0.00896178
0.00889912
0.00883695
0.00877526
0.00871405
0.00865331
0.00859303
0.00853322
0.00847385
0.00841494
0.00835646
0

