-0
-0
-0
-0
-0
-0
-0
-0
-0
-0
-0
-0
-0
-0
-0
-0
-0
-0
-0
-0
-0
-0
-0
-0
-0
-0
-0
-0
-0
-0
-0
-0
-0
-0
-0
-0
-0
-0
-0
-0
-0
-0
-0
-0
-0
-0
-0
-0
-0
-0
-0
0.000114557
0.000530004
0.00137305
0.00264247
0.00422871
0.00597259
0.00771873
0.0093467
0.0107807
0.0119859
0.0129582
0.0137135
0.0142783
0.014683
0.0149575
0.015129
0.0152206
0.0152514
0.0152367
0.0151885
0.015116
0.0150262
0.0149243
0.0148143
0.014699
0.0145805
0.0144603
0.0143395
0.0142189
0.0140989
0.0139799
0.0138622
0.0137459
0.0136312
0.013518
0.0134063
0.0132962
0.0131877
0.0130807
0.0129752
0.0128712
0.0127685
0.0126673
0.0125674
0.0124688
0.0123715
0.0122754
0.0121805
0.0120868
0.0119942
0.0119027
0.0118123
0.011723
0.0116347
0.0115474
0.0114611
0.0113757
0.0112913
0.0112077
0.011125
0.0110432
0.0109623
0.0108822
0.0108028
0.0107243
0.0106465
0.0105695
0.0104932
0.0104177
0.0103428
0.0102687
0.0101952
0.0101224
0.0100502
0.00997866
0.00990776
0.00983747
0.00976779
0.0096987
0.00963019
0.00956226
0.00949489
0.00942808
0.00936181
0.00929608
0.00923089
0.00916621
0.00910204
0.00903838
0.00897523
0.00891256
0.00885038
0.00878868
0.00872745
0.00866669
0.00860639
0.00854655
0.00848716
0.00842821
0.0083697
0

