-0
-0
-0
-0
-0
-0
-0
-0
-0
-0
-0
-0
-0
-0
-0
-0
-0
-0
-0
-0
-0
-0
-0
-0
-0
-0
-0
-0
-0
-0
-0
-0
-0
-0
-0
-0
-0
-0
-0
-0
-0
-0
-0
-0
-0
-0
-0
-0
-0
5.22713e-05
0.000258828
0.000717483
0.00147786
0.0025323
0.00383069
0.00530163
0.00686957
0.00846517
0.01003
0.0115179
0.012894
0.0141339
0.0152219
0.0161498
0.0169157
0.017523
0.0179792
0.0182953
0.018484
0.0185597
0.0185374
0.0184318
0.0182571
0.0180265
0.017752
0.0174443
0.0171126
0.0167648
0.0164077
0.0160468
0.0156864
0.0153303
0.014981
0.0146408
0.0143112
0.0139933
0.0136877
0.0133949
0.0131149
0.0128478
0.0125933
0.0123511
0.0121208
0.0119019
0.011694
0.0114965
0.0113089
0.0111307
0.0109612
0.0108
0.0106466
0.0105004
0.0103611
0.0102281
0.0101011
0.00997959
0.00986326
0.00975173
0.00964469
0.0095418
0.00944279
0.00934738
0.00925532
0.00916638
0.00908034
0.008997
0.00891617
0.00883768
0.00876136
0.00868708
0.00861469
0.00854407
0.0084751
0.00840768
0.00834169
0.00827707
0.0082137
0.00815153
0.00809048
0.00803048
0.00797147
0.00791339
0.0078562
0.00779985
0.00774428
0.00768947
0.00763537
0.00758195
0.00752917
0.00747702
0.00742545
0.00737445
0.00732399
0.00727405
0.00722462
0.00717567
0.00712718
0.00707914
0.00703154
0.00698437
0.0069376
0

