-0
-0
-0
-0
-0
-0
-0
-0
-0
-0
-0
-0
-0
-0
-0
-0
-0
-0
-0
-0
-0
-0
-0
-0
-0
-0
-0
-0
-0
-0
-0
-0
-0
-0
-0
-0
-0
-0
-0
-0
-0
-0
-0
-0
-0
-0
-0
-0
-0
-0
-0
-0
0.000160423
0.000722104
0.00183456
0.00348906
0.00555636
0.00785613
0.0102111
0.0124752
0.0145429
0.0163468
0.0178526
0.0190511
0.0199522
0.0205781
0.0209589
0.0211283
0.0211206
0.0209686
0.0207024
0.0203487
0.0199303
0.0194664
0.0189729
0.0184625
0.0179455
0.0174297
0.0169213
0.0164247
0.0159433
0.0154793
0.0150344
0.0146092
0.0142043
0.0138196
0.0134549
0.0131098
0.0127835
0.0124753
0.0121845
0.0119102
0.0116515
0.0114076
0.0111776
0.0109605
0.0107557
0.0105624
0.0103797
0.0102069
0.0100434
0.00988855
0.0097417
0.00960229
0.00946981
0.00934374
0.00922363
0.00910903
0.00899956
0.00889483
0.0087945
0.00869825
0.00860578
0.00851681
0.0084311
0.0083484
0.0082685
0.00819119
0.0081163
0.00804366
0.0079731
0.00790447
0.00783766
0.00777253
0.00770897
0.00764688
0.00758615
0.00752671
0.00746847
0.00741136
0.0073553
0.00730024
0.00724611
0.00719287
0.00714045
0.00708882
0.00703794
0.00698776
0.00693825
0.00688937
0.00684111
0.00679342
0.00674628
0.00669967
0.00665357
0.00660796
0.00656281
0.00651812
0.00647386
0.00643002
0.00638658
0

