-0
-0
-0
-0
-0
-0
-0
-0
-0
-0
-0
-0
-0
-0
-0
-0
-0
-0
-0
-0
-0
-0
-0
-0
-0
-0
-0
-0
-0
-0
-0
-0
-0
-0
-0
-0
-0
-0
-0
-0
-0
-0
1.21459e-05
6.69672e-05
0.000204588
0.000459885
0.000852009
0.00138155
0.00203338
0.00278207
0.00359736
0.00444866
0.00530811
0.00615231
0.00696301
0.00772709
0.00843599
0.00908505
0.00967263
0.0101994
0.0106675
0.0110804
0.0114418
0.011756
0.0120273
0.0122597
0.0124573
0.0126236
0.0127622
0.0128759
0.0129677
0.0130401
0.0130952
0.013135
0.0131615
0.013176
0.0131801
0.0131748
0.0131615
0.0131409
0.0131139
0.0130814
0.0130439
0.0130021
0.0129565
0.0129075
0.0128555
0.012801
0.0127442
0.0126854
0.0126248
0.0125628
0.0124994
0.0124349
0.0123695
0.0123032
0.0122361
0.0121685
0.0121004
0.0120319
0.011963
0.0118939
0.0118246
0.0117552
0.0116857
0.0116161
0.0115465
0.011477
0.0114076
0.0113382
0.011269
0.0112
0.0111311
0.0110624
0.0109939
0.0109257
0.0108577
0.0107899
0.0107225
0.0106553
0.0105884
0.0105218
0.0104555
0.0103895
0.0103238
0.0102584
0.0101934
0.0101287
0.0100643
0.0100003
0.00993661
0.00987326
0.00981025
0.00974759
0.00968527
0.00962331
0.00956169
0.00950041
0.00943949
0.00937892
0.0093187
0.00925882
0.0091993
0.00914012
0.00908129
0.00902281
0.00896468
0.00890689
0.00884945
0.00879235
0.0087356
0

