-0
-0
-0
-0
-0
-0
-0
-0
-0
-0
-0
-0
-0
-0
-0
-0
-0
-0
-0
-0
-0
-0
-0
-0
-0
-0
-0
-0
-0
-0
-0
-0
-0
-0
-0
-0
-0
-0
-0
-0
-0
-0
-0
-0
-0
-0
-0
-0
-0
-0
-0
-0
-0
-0
-0
-0
-0
-0
0.00648615
0.0126303
0.0168939
0.0195309
0.0210462
0.0218419
0.0221878
0.0222542
0.0221462
0.0219286
0.0216412
0.0213092
0.0209485
0.0205694
0.0201788
0.0197814
0.0193805
0.0189786
0.0185774
0.0181783
0.0177822
0.0173901
0.0170025
0.0166199
0.0162427
0.0158714
0.015506
0.0151469
0.0147941
0.0144478
0.0141081
0.013775
0.0134485
0.0131286
0.0128154
0.0125087
0.0122086
0.011915
0.0116278
0.011347
0.0110725
0.0108042
0.0105419
0.0102857
0.0100354
0.00979089
0.00955211
0.00931894
0.00909127
0.00886901
0.00865203
0.00844025
0.00823355
0.00803183
0.00783498
0.0076429
0.00745549
0.00727265
0.00709427
0.00692025
0.0067505
0.00658492
0.00642342
0.0062659
0.00611227
0.00596244
0.00581632
0.00567382
0.00553485
0.00539934
0.0052672
0.00513835
0.00501271
0.00489021
0.00477076
0.00465429
0.00454073
0.00443001
0.00432206
0.00421681
0.0041142
0.00401415
0.00391661
0.00382152
0.00372881
0.00363842
0.00355029
0.00346438
0.00338062
0.00329896
0.00321935
0.00314174
0.00306607
0

