-0
-0
-0
-0
-0
-0
-0
-0
-0
-0
-0
-0
-0
-0
-0
-0
-0
-0
-0
-0
-0
-0
-0
-0
-0
-0
-0
-0
-0
-0
-0
-0
-0
-0
-0
-0
-0
-0
-0
-0
-0
-0
-0
-0
-0
-0
-0
-0
-0
-0
-0
-0
-0
-0
-0
-0
-0
-0
0.00647085
0.0123919
0.016199
0.0184036
0.0196405
0.0203171
0.0206619
0.0208011
0.0208063
0.0207206
0.0205707
0.0203743
0.0201435
0.0198868
0.0196104
0.019319
0.0190162
0.0187048
0.0183872
0.0180652
0.0177402
0.0174137
0.0170867
0.01676
0.0164345
0.0161108
0.0157894
0.0154709
0.0151556
0.0148438
0.014536
0.0142322
0.0139327
0.0136377
0.0133474
0.0130617
0.0127808
0.0125047
0.0122336
0.0119674
0.0117061
0.0114498
0.0111984
0.0109519
0.0107103
0.0104735
0.0102416
0.0100144
0.00979189
0.00957405
0.00936079
0.00915206
0.00894779
0.00874792
0.00855237
0.00836108
0.00817397
0.00799097
0.00781202
0.00763702
0.00746593
0.00729865
0.00713511
0.00697525
0.006819
0.00666627
0.006517
0.00637111
0.00622855
0.00608923
0.00595309
0.00582007
0.00569009
0.00556309
0.00543901
0.00531778
0.00519935
0.00508364
0.00497059
0.00486016
0.00475228
0.00464689
0.00454393
0.00444336
0.00434512
0.00424915
0.00415541
0.00406383
0.00397438
0.003887
0.00380165
0.00371828
0.00363684
0

