-0
-0
-0
-0
-0
-0
-0
-0
-0
-0
-0
-0
-0
-0
-0
-0
-0
-0
-0
-0
-0
-0
-0
-0
-0
-0
-0
-0
-0
-0
-0
-0
-0
-0
-0
-0
-0
-0
-0
-0
-0
-0
-0
-0
-0
-0
-0
-0
-0
-0
-0
0.000110458
0.000517823
0.00136451
0.00267989
0.00438888
0.00635841
0.00844352
0.0105171
0.0124824
0.0142751
0.015858
0.0172155
0.0183469
0.0192616
0.0199746
0.0205045
0.0208706
0.0210924
0.0211885
0.0211764
0.0210717
0.020889
0.0206409
0.0203389
0.0199928
0.0196116
0.0192027
0.0187729
0.0183278
0.0178724
0.017411
0.016947
0.0164837
0.0160235
0.0155685
0.0151206
0.0146812
0.0142515
0.0138324
0.0134246
0.0130286
0.0126449
0.0122736
0.0119148
0.0115687
0.0112351
0.0109138
0.0106048
0.0103078
0.0100224
0.00974848
0.00948559
0.00923341
0.0089916
0.00875977
0.00853756
0.00832459
0.00812048
0.00792488
0.0077374
0.0075577
0.00738543
0.00722024
0.0070618
0.00690979
0.00676391
0.00662385
0.00648933
0.00636007
0.00623581
0.0061163
0.00600129
0.00589056
0.00578388
0.00568105
0.00558188
0.00548616
0.00539372
0.0053044
0.00521803
0.00513446
0.00505355
0.00497515
0.00489915
0.00482541
0.00475383
0.00468429
0.0046167
0.00455095
0.00448696
0.00442464
0.00436391
0.00430469
0.00424692
0.00419051
0.00413542
0.00408158
0.00402893
0.00397742
0.003927
0

