-0
-0
-0
-0
-0
-0
-0
-0
-0
-0
-0
-0
-0
-0
-0
-0
-0
-0
-0
-0
-0
-0
-0
-0
-0
-0
-0
-0
-0
-0
-0
-0
-0
-0
-0
-0
-0
5.62698e-06
3.29843e-05
0.000106647
0.000252624
0.00049127
0.000833249
0.0012789
0.00181989
0.00244186
0.00312704
0.00385652
0.00461184
0.00537604
0.0061343
0.00687417
0.00758564
0.008261
0.00889463
0.00948279
0.0100233
0.0105154
0.0109593
0.0113561
0.0117077
0.0120161
0.0122841
0.0125145
0.01271
0.0128736
0.0130081
0.0131164
0.0132009
0.0132643
0.0133088
0.0133366
0.0133495
0.0133495
0.013338
0.0133166
0.0132866
0.0132491
0.0132052
0.0131557
0.0131015
0.0130432
0.0129816
0.0129171
0.0128502
0.0127814
0.0127109
0.0126391
0.0125663
0.0124927
0.0124184
0.0123437
0.0122687
0.0121935
0.0121182
0.0120429
0.0119677
0.0118927
0.0118178
0.0117432
0.0116689
0.0115949
0.0115212
0.0114478
0.0113749
0.0113023
0.0112301
0.0111583
0.011087
0.011016
0.0109455
0.0108754
0.0108057
0.0107364
0.0106675
0.0105991
0.0105311
0.0104635
0.0103963
0.0103295
0.0102632
0.0101972
0.0101317
0.0100665
0.0100018
0.00993746
0.00987352
0.00980998
0.00974683
0.00968407
0.00962169
0.0095597
0.0094981
0.00943687
0.00937602
0.00931555
0.00925545
0.00919573
0.00913637
0.00907738
0.00901875
0.00896049
0.00890259
0.00884504
0.00878785
0.00873102
0.00867454
0.00861841
0.00856262
0.00850719
0.00845209
0

