-14930.3
-0.0225614
-0.00870319
-0.00488374
-0.00319222
-0.00225201
-0.00166265
-0.00126345
-0.000976405
-0.000759287
-0.000587709
-0.000446966
-0.000327954
-0.000225054
-0.000135072
-5.66504e-05
1.01242e-05
6.41216e-05
0.000103577
0.00012649
0.000130953
0.000115395
7.87235e-05
2.03733e-05
-5.97008e-05
-0.000161077
-0.000282948
-0.000424197
-0.000583484
-0.000759317
-0.00095011
-0.00115424
-0.00137007
-0.00159601
-0.0018305
-0.00207207
-0.00231932
-0.00257091
-0.00282563
-0.00308233
-0.00333995
-0.00359752
-0.00385418
-0.0041091
-0.00436157
-0.00461093
-0.00485661
-0.00509807
-0.00533487
-0.00556659
-0.00579289
-0.00601346
-0.00622804
-0.00643642
-0.0066384
-0.00683386
-0.00702267
-0.00720474
-0.00738002
-0.00754847
-0.00771007
-0.00786484
-0.00801278
-0.00815395
-0.00828838
-0.00841615
-0.00853734
-0.00865202
-0.00876029
-0.00886226
-0.00895803
-0.00904771
-0.00913143
-0.00920931
-0.00928147
-0.00934804
-0.00940915
-0.00946495
-0.00951555
-0.0095611
-0.00960173
-0.00963757
-0.00966876
-0.00969544
-0.00971773
-0.00973577
-0.0097497
-0.00975963
-0.00976569
-0.00976802
-0.00976674
-0.00976196
-0.00975381
-0.00974241
-0.00972787
-0.00971031
-0.00968983
-0.00966655
-0.00964057
-0.009612
-0.00958093
-0.00954747
-0.00951172
-0.00947376
-0.00943369
-0.00939161
-0.00934759
-0.00930172
-0.00925409
-0.00920478
-0.00915386
-0.00910141
-0.00904751
-0.00899223
-0.00893563
-0.00887779
-0.00881876
-0.00875863
-0.00869744
-0.00863525
-0.00857213
-0.00850813
-0.00844331
-0.00837771
-0.0083114
-0.00824441
-0.0081768
-0.00810861
-0.00803988
-0.00797067
-0.00790101
-0.00783095
-0.00776051
-0.00768974
-0.00761868
-0.00754736
-0.00747581
-0.00740406
-0.00733215
-0.00726011
-0.00718797
-0.00711575
-0.00704348
-0.00697118
-0.00689889
-0.00682662
-0.0067544
-0.00668224
-0.00661018
-0.00653823
-0.00646641
-0.00639474
-0.00632323
-0.00625191
-0.00618078
-0.00610988
-0.0060392
-0.00596876
-0.00589858
-0.00582868
-0.00575905
-0.00568972
-0.0056207
-0.00555199
-0.00548361
-0.00541556
-0.00534786
-0.00528051
-0.00521352
-0.0051469
-0.00508066
-0.0050148
-0.00494933
-0.00488425
-0.00481958
-0.00475531
-0.00469145
-0.00462801
-0.00456498
-0.00450238
-0.00444021
-0.00437847
-0.00431716
-0.00425629
-0.00419586
-0.00413586
-0.00407631
-0.00401721
-0.00395855
-0.00390034
-0.00384258
-0.00378526
-0.0037284
-0.00367199
-0.00361603
-0.00356052
-0.00350546
-0.00345085
-0.0033967
-0.00334299
-0.00328973
-0.00323693
-0.00318457
-0.00313266
-0.0030812
-0.00303018
-0.00297961
-0.00292947
-0.00287978
-0.00283053
-0.00278172
-0.00273334
-0.0026854
-0.00263789
-0.00259082
-0.00254417
-0.00249794
-0.00245215
-0.00240677
-0.00236181
-0.00231728
-0.00227315
-0.00222944
-0.00218615
-0.00214326
-0.00210077
-0.00205869
-0.00201701
-0.00197572
-0.00193484
-0.00189434
-0.00185424
-0.00181452
-0.00177518
-0.00173623
-0.00169766
-0.00165946
-0.00162164
-0.00158419
-0.0015471
-0.00151038
-0.00147403
-0.00143803
-0.00140239
-0.0013671
-0.00133216
-0.00129758
-0.00126333
-0.00122943
-0.00119587
-0.00116265
-0.00112975
-0.0010972
-0.00106496
-0.00103306
-0.00100147
-0.00097021
-0.000939263
-0.00090863
-0.000878309
-0.000848296
-0.000818589
-0.000789185
-0.000760082
-0.000731276
-0.000702765
-0.000674546
-0.000646617
-0.000618974
-0.000591617
-0.00056454
-0.000537742
-0.000511221
-0.000484973
-0.000458997
-0.000433289
-0.000407847
-0.000382669
-0.000357751
-0.000333092
-0.000308688
-0.000284539
-0.000260641
-0.00023699
-0.000213586
-0.000190426
-0.000167507
-0.000144828
-0.000122385
-0.000100176
-7.81987e-05
-5.64514e-05
-3.49322e-05
-1.36375e-05
7.43406e-06
2.82846e-05
4.89171e-05
6.93335e-05
8.95354e-05
0.000109525
0.000129305
0.000148878
0.000168244
0.000187407
0.000206369
0.000225131
0.000243696
0.000262065
0.000280241
0.000298225
0.00031602
0.000333628
0.000351049
0.000368288
0.000385344
0.00040222
0.000418918
0.00043544
0.000451787
0.000467962
0.000483966
0.0004998
0.000515468
0.00053097
0.000546308
0.000561483
0.000576499
0.000591355
0.000606053
0.000620597
0.000634987
0.000649224
0.000663311
0.000677248
0.000691037
0.000704679
0.000718178
0.000731533
0.000744747
0.000757821
0.000770756
0.000783553
0.000796216
0.000808744
0.000821139
0.000833403
0.000845537
0.000857542
0.00086942
0.000881173
0.000892799
0.000904303
0.000915686
0.000926947
0.000938089
0.000949112
0.000960019
0.000970811
0.000981487
0.000992051
0.0010025
0.00101284
0.00102307
0.0010332
0.00104321
0.00105312
0.00106292
0.00107262
0.00108222
0.00109171
0.00110111
0.0011104
0.0011196
0.0011287
0.0011377
0.0011466
0.00115542
0.00116413
0.00117276
0.0011813
0.00118974
0.00119809
0.00120636
0.00121454
0.00122263
0.00123064
0.00123856
0.00124639
0.00125415
0.00126182
0.00126941
0.00127692
0.00128435
0.0012917
0.00129898
0.00130617
0.00131329
0.00132034
0.00132731
0.00133421
0.00134103
0.00134778
0.00135446
0.00136107
0.00136761
0.00137408
0.00138048
0.00138682
0.00139308
0.00139929
0.00140542
0.00141149
0.0014175
0.00142344
0.00142932
0.00143514
0.00144089
0.00144659
0.00145222
0.0014578
0.00146332
0.00146877
0.00147417
0.00147952
0.00148481
0.00149004
0.00149521
0.00150034
0.0015054
0.00151042
0.00151538
0.00152029
0.00152515
0.00152995
0.00153471
0.00153941
0.00154407
0.00154867
0.00155323
0.00155774
0.0015622
0.00156662
0.00157099
0.00157531
0.00157959
0.00158382
0.00158801
0.00159215
0.00159625
0.00160031
0.00160433
0.0016083
0.00161223
0.00161612
0.00161997
0.00162377
0.00162754
0.00163127
0.00163496
0.00163861
0.00164222
0.0016458
0.00164934
0.00165283
0.0016563
0.00165972
0.00166312
0.00166647
0.00166979
0.00167308
0.00167633
0.00167955
0.00168273
0.00168588
0.001689
0.00169208
0.00169513
0.00169815
0.00170114
0.0017041
0.00170703
0.00170992
0.00171279
0.00171562
0.00171843
0.00172121
0.00172395
0.00172667
0.00172936
0.00173203
0.00173466
0.00173727
0.00173985
0.0017424
0.00174493
0.00174743
0.00174991
0.00175236
0.00175478
0.00175718
0.00175955
0.0017619
0.00176423
0.00176653
0.0017688
0.00177105
0.00177328
0.00177549
0.00177767
0.00177983
0.00178197
0.00178409
0.00178618
0.00178825
0.00179031
0.00179234
0.00179434
0.00179633
0.0017983
0.00180025
0.00180217
0.00180408
0.00180597
0.00180784
0.00180969
0.00181151
0.00181333
0.00181512
0.00181689
0.00181865
0.00182038
0.0018221
0.0018238
0.00182549
0.00182715
0.0018288
0.00183044
0.00183205
0.00183365
0.00183524
0.0018368
0.00183835
0.00183989
0.00184141
0.00184291
0.0018444
0.00184587
0.00184733
0.00184877
0.0018502
0.00185161
0.00185301
0.00185439
0.00185577
0.00185712
0.00185846
0.00185979
0.00186111
0.00186241
0.0018637
0.00186497
0.00186624
0.00186749
0.00186872
0.00186995
0.00187116
0.00187236
0.00187355
0.00187472
0.00187589
0.00187704
0.00187818
0.00187931
0.00188042
0.00188153
0.00188262
0.00188371
0.00188478
0.00188584
0.00188689
0.00188793
0.00188896
0.00188998
0.00189099
0.00189199
0.00189298
0.00189396
0.00189492
0.00189588
0.00189683
0.00189777
0.0018987
0.00189963
0.00190054
0.00190144
0.00190233
0.00190322
0.0019041
0.00190496
0.00190582
0.00190667
0.00190751
0.00190835
0.00190917
0.00190999
0.0019108
0.0019116
0.00191239
0.00191317
0.00191395
0.00191472
0.00191548
0.00191623
0.00191698
0.00191772
0.00191845
0.00191917
0.00191989
0.0019206
0.0019213
0.001922
0.00192269
0.00192337
0.00192405
0.00192472
0.00192538
0.00192604
0.00192668
0.00192733
0.00192796
0.00192859
0.00192922
0.00192984
0.00193045
0.00193105
0.00193165
0.00193225
0.00193284
0.00193342
0.001934
0.00193457
0.00193513
0.00193569
0.00193625
0.0019368
0.00193734
0.00193788
0.00193842
0.00193894
0.00193947
0.00193998
0.0019405
0.00194101
0.00194151
0.00194201
0.0019425
0.00194299
0.00194347
0.00194395
0.00194443
0.0019449
0.00194536
0.00194583
0.00194628
0.00194674
0.00194718
0.00194763
0.00194807
0.0019485
0.00194893
0.00194936
0.00194978
0.0019502
0.00195062
0.00195103
0.00195144
0.00195184
0.00195224
0.00195263
0.00195303
0.00195341
0.0019538
0.00195418
0.00195456
0.00195493
0.0019553
0.00195567
0.00195603
0.00195639
0.00195675
0.0019571
0.00195745
0.0019578
0.00195814
0.00195848
0.00195882
0.00195915
0.00195948
0.00195981
0.00196013
0.00196046
0.00196077
0.00196109
0.0019614
0.00196171
0.00196202
0.00196232
0.00196262
0.00196292
0.00196322
0.00196351
0.0019638
0.00196409
0.00196437
0.00196466
0.00196494
0.00196521
0.00196549
0.00196576
0.00196603
0.0019663
0.00196656
0.00196683
0.00196709
0.00196734
0.0019676
0.00196785
0.0019681
0.00196835
0.0019686
0.00196884
0.00196908
0.00196932
0.00196956
0.0019698
0.00197003
0.00197026
0.00197049
0.00197072
0.00197094
0.00197116
0.00197139
0.0019716
0.00197182
0.00197204
0.00197225
0.00197246
0.00197267
0.00197288
0.00197309
0.00197329
0.00197349
0.00197369
0.00197389
0.00197409
0.00197428
0.00197448
0.00197467
0.00197486
0.00197505
0.00197524
0.00197542
0.0019756
0.00197579
0.00197597
0.00197615
0.00197632
0.0019765
0.00197667
0.00197685
0.00197702
0.00197719
0.00197736
0.00197752
0.00197769
0.00197785
0.00197802
0.00197818
0.00197834
0.0019785
0.00197866
0.00197881
0.00197897
0.00197912
0.00197927
0.00197942
0.00197957
0.00197972
0.00197987
0.00198001
0.00198016
0.0019803
0.00198045
0.00198059
0.00198073
0.00198087
0.001981
0.00198114
0.00198128
0.00198141
0.00198154
0.00198168
0.00198181
0.00198194
0.00198207
0.00198219
0.00198232
0.00198245
0.00198257
0.0019827
0.00198282
0.00198294
0.00198306
0.00198318
0.0019833
0.00198342
0.00198353
0.00198365
0.00198377
0.00198388
0.00198399
0.00198411
0.00198422
0.00198433
0.00198444
0.00198455
0.00198466
0.00198476
0.00198487
0.00198498
0.00198508
0.00198518
0.00198529
0.00198539
0.00198549
0.00198559
0.00198569
0.00198579
0.00198589
0.00198599
0.00198609
0.00198618
0.00198628
0.00198637
0.00198647
0.00198656
0.00198665
0.00198674
0.00198684
0.00198693
0.00198702
0.00198711
0.00198719
0.00198728
0.00198737
0.00198746
0.00198754
0.00198763
0.00198771
0.0019878
0.00198788
0.00198796
0.00198804
0.00198813
0.00198821
0.00198829
0.00198837
0.00198845
0.00198853
0.0019886
0.00198868
0.00198876
0.00198884
0.00198891
0.00198899
0.00198906
0.00198914
0.00198921
0.00198928
0.00198936
0.00198943
0.0019895
0.00198957
0.00198964
0.00198971
0.00198978
0.00198985
0.00198992
0.00198999
0.00199006
0.00199012
0.00199019
0.00199026
0.00199032
0.00199039
0.00199045
0.00199052
0.00199058
0.00199065
0.00199071
0.00199077
0.00199084
0.0019909
0.00199096
0.00199102
0.00199108
0.00199114
0.0019912
0.00199126
0.00199132
0.00199138
0.00199144
0.0019915
0.00199155
0.00199161
0.00199167
0.00199172
0.00199178
0.00199184
0.00199189
0.00199195
0.001992
0.00199206
0.00199211
0.00199216
0.00199222
0.00199227
0.00199232
0.00199238
0.00199243
0.00199248
0.00199253
0.00199258
0.00199263
0.00199268
0.00199273
0.00199278
0.00199283
0.00199288
0.00199293
0.00199298
0.00199303
0.00199308
0.00199312
0.00199317
0.00199322
0.00199327
0.00199331
0.00199336
0.0019934
0.00199345
0.0019935
0.00199354
0.00199358
0.00199363
0.00199367
0.00199372
0.00199376
0.00199381
0.00199385
0.00199389
0.00199394
0.00199398
0.00199402
0.00199406
0.0019941
0.00199415
0.00199419
0.00199423
0.00199427
0.00199431
0.00199435
0.00199439
0.00199443
0.00199447
0.00199451
0.00199455
0.00199459
0.00199463
0.00199467
0.0019947
0.00199474
0.00199478
0.00199482
0.00199485
0.00199489
0.00199493
0.00199497
0.001995
0.00199504
0.00199508
0.00199511
0.00199515
0.00199518
0.00199522
0.00199525
0.00199529
0.00199533
0.00199536
0.00199539
0.00199543
0
0

