-14930.3
-0.0225614
-0.00870319
-0.00488374
-0.00319222
-0.00225201
-0.00166265
-0.00126345
-0.000976405
-0.000759287
-0.000587709
-0.000446966
-0.000328066
-0.000225875
-0.000138299
-6.57704e-05
-1.06567e-05
2.34713e-05
3.26247e-05
1.30773e-05
-3.81361e-05
-0.000122937
-0.000242111
-0.000395357
-0.000581419
-0.000798271
-0.0010433
-0.00131348
-0.00160556
-0.00191615
-0.00224186
-0.00257936
-0.00292548
-0.0032772
-0.00363173
-0.00398649
-0.00433914
-0.00468759
-0.00502998
-0.00536467
-0.00569027
-0.00600557
-0.00630957
-0.00660147
-0.00688061
-0.00714651
-0.00739884
-0.00763736
-0.00786198
-0.00807269
-0.0082696
-0.00845286
-0.0086227
-0.00877943
-0.00892339
-0.00905494
-0.0091745
-0.00928251
-0.00937942
-0.00946569
-0.0095418
-0.00960824
-0.00966546
-0.00971396
-0.00975419
-0.00978661
-0.00981167
-0.00982981
-0.00984144
-0.00984697
-0.0098468
-0.00984129
-0.00983081
-0.0098157
-0.00979628
-0.00977286
-0.00974573
-0.00971518
-0.00968146
-0.00964483
-0.00960551
-0.00956372
-0.00951966
-0.00947354
-0.00942552
-0.00937578
-0.00932448
-0.00927176
-0.00921775
-0.00916259
-0.0091064
-0.00904927
-0.00899133
-0.00893265
-0.00887333
-0.00881345
-0.00875309
-0.00869231
-0.00863118
-0.00856976
-0.00850811
-0.00844626
-0.00838428
-0.0083222
-0.00826007
-0.00819791
-0.00813576
-0.00807366
-0.00801163
-0.00794969
-0.00788788
-0.00782621
-0.00776469
-0.00770336
-0.00764222
-0.00758129
-0.00752059
-0.00746012
-0.00739989
-0.00733993
-0.00728022
-0.0072208
-0.00716165
-0.00710279
-0.00704422
-0.00698595
-0.00692799
-0.00687033
-0.00681298
-0.00675595
-0.00669923
-0.00664283
-0.00658675
-0.00653099
-0.00647556
-0.00642044
-0.00636566
-0.0063112
-0.00625706
-0.00620325
-0.00614977
-0.00609661
-0.00604377
-0.00599126
-0.00593908
-0.00588722
-0.00583568
-0.00578446
-0.00573356
-0.00568298
-0.00563272
-0.00558277
-0.00553314
-0.00548383
-0.00543483
-0.00538613
-0.00533775
-0.00528968
-0.00524191
-0.00519445
-0.0051473
-0.00510044
-0.00505389
-0.00500763
-0.00496167
-0.00491601
-0.00487064
-0.00482557
-0.00478078
-0.00473629
-0.00469208
-0.00464815
-0.00460451
-0.00456116
-0.00451808
-0.00447528
-0.00443276
-0.00439051
-0.00434854
-0.00430684
-0.00426541
-0.00422425
-0.00418336
-0.00414273
-0.00410237
-0.00406227
-0.00402243
-0.00398285
-0.00394352
-0.00390445
-0.00386564
-0.00382708
-0.00378876
-0.0037507
-0.00371289
-0.00367532
-0.003638
-0.00360092
-0.00356408
-0.00352748
-0.00349112
-0.003455
-0.00341911
-0.00338346
-0.00334804
-0.00331285
-0.00327789
-0.00324315
-0.00320865
-0.00317437
-0.00314031
-0.00310648
-0.00307286
-0.00303947
-0.00300629
-0.00297333
-0.00294059
-0.00290806
-0.00287574
-0.00284364
-0.00281174
-0.00278005
-0.00274857
-0.0027173
-0.00268623
-0.00265536
-0.00262469
-0.00259423
-0.00256396
-0.00253389
-0.00250402
-0.00247435
-0.00244487
-0.00241558
-0.00238648
-0.00235757
-0.00232886
-0.00230033
-0.00227199
-0.00224383
-0.00221586
-0.00218807
-0.00216046
-0.00213303
-0.00210579
-0.00207872
-0.00205183
-0.00202512
-0.00199858
-0.00197221
-0.00194602
-0.00192
-0.00189415
-0.00186847
-0.00184296
-0.00181761
-0.00179243
-0.00176742
-0.00174257
-0.00171788
-0.00169336
-0.001669
-0.00164479
-0.00162075
-0.00159686
-0.00157313
-0.00154956
-0.00152614
-0.00150287
-0.00147976
-0.0014568
-0.00143399
-0.00141133
-0.00138882
-0.00136645
-0.00134424
-0.00132216
-0.00130024
-0.00127846
-0.00125682
-0.00123532
-0.00121397
-0.00119275
-0.00117168
-0.00115074
-0.00112994
-0.00110928
-0.00108875
-0.00106836
-0.00104811
-0.00102798
-0.00100799
-0.000988131
-0.000968402
-0.000948802
-0.000929332
-0.000909989
-0.000890775
-0.000871685
-0.000852723
-0.000833885
-0.000815171
-0.00079658
-0.000778112
-0.000759764
-0.000741538
-0.000723432
-0.000705446
-0.000687577
-0.000669826
-0.000652193
-0.000634675
-0.000617273
-0.000599986
-0.000582812
-0.000565752
-0.000548803
-0.000531967
-0.000515242
-0.000498627
-0.000482121
-0.000465724
-0.000449436
-0.000433255
-0.00041718
-0.000401212
-0.000385348
-0.00036959
-0.000353935
-0.000338383
-0.000322934
-0.000307587
-0.000292341
-0.000277196
-0.000262151
-0.000247205
-0.000232357
-0.000217607
-0.000202955
-0.0001884
-0.00017394
-0.000159576
-0.000145307
-0.000131132
-0.000117051
-0.000103062
-8.91654e-05
-7.53615e-05
-6.16477e-05
-4.80249e-05
-3.44924e-05
-2.10486e-05
-7.69441e-06
5.5724e-06
1.87511e-05
3.18431e-05
4.48484e-05
5.77678e-05
7.06019e-05
8.33514e-05
9.60164e-05
0.000108598
0.000121096
0.000133512
0.000145846
0.000158098
0.00017027
0.00018236
0.000194372
0.000206303
0.000218155
0.00022993
0.000241627
0.000253246
0.000264789
0.000276255
0.000287645
0.00029896
0.0003102
0.000321366
0.000332458
0.000343477
0.000354423
0.000365297
0.000376098
0.000386829
0.000397488
0.000408077
0.000418595
0.000429044
0.000439424
0.000449736
0.000459979
0.000470154
0.000480263
0.000490304
0.000500278
0.000510188
0.000520031
0.000529809
0.000539523
0.000549172
0.000558757
0.000568279
0.000577738
0.000587134
0.000596469
0.000605741
0.000614952
0.000624102
0.000633192
0.000642221
0.00065119
0.000660101
0.000668952
0.000677744
0.000686478
0.000695154
0.000703773
0.000712334
0.000720839
0.000729287
0.00073768
0.000746017
0.000754298
0.000762526
0.000770698
0.000778817
0.000786881
0.000794892
0.000802851
0.000810756
0.000818609
0.000826411
0.00083416
0.000841858
0.000849506
0.000857102
0.000864649
0.000872145
0.000879592
0.000886988
0.000894337
0.000901637
0.000908888
0.000916091
0.000923247
0.000930355
0.000937417
0.000944431
0.000951399
0.000958321
0.000965197
0.000972026
0.000978812
0.000985552
0.000992248
0.000998898
0.00100551
0.00101207
0.00101859
0.00102507
0.0010315
0.00103789
0.00104424
0.00105055
0.00105681
0.00106303
0.00106922
0.00107536
0.00108146
0.00108752
0.00109354
0.00109952
0.00110546
0.00111136
0.00111722
0.00112305
0.00112883
0.00113458
0.00114028
0.00114596
0.00115159
0.00115718
0.00116274
0.00116826
0.00117375
0.0011792
0.00118461
0.00118999
0.00119533
0.00120063
0.0012059
0.00121114
0.00121634
0.00122151
0.00122664
0.00123174
0.0012368
0.00124183
0.00124683
0.00125179
0.00125673
0.00126163
0.00126649
0.00127133
0.00127613
0.0012809
0.00128564
0.00129034
0.00129502
0.00129967
0.00130428
0.00130886
0.00131342
0.00131794
0.00132243
0.0013269
0.00133133
0.00133574
0.00134011
0.00134446
0.00134878
0.00135306
0.00135733
0.00136156
0.00136576
0.00136994
0.00137409
0.00137821
0.0013823
0.00138637
0.00139041
0.00139442
0.00139841
0.00140237
0.0014063
0.00141021
0.00141409
0.00141795
0.00142178
0.00142559
0.00142937
0.00143312
0.00143685
0.00144056
0.00144424
0.0014479
0.00145153
0.00145514
0.00145872
0.00146228
0.00146582
0.00146933
0.00147282
0.00147629
0.00147974
0.00148316
0.00148656
0.00148993
0.00149329
0.00149662
0.00149993
0.00150322
0.00150648
0.00150973
0.00151295
0.00151615
0.00151933
0.00152249
0.00152563
0.00152875
0.00153185
0.00153492
0.00153798
0.00154101
0.00154403
0.00154703
0.00155
0.00155296
0.0015559
0.00155881
0.00156171
0.00156459
0.00156745
0.00157029
0.00157311
0.00157592
0.0015787
0.00158147
0.00158422
0.00158695
0.00158966
0.00159235
0.00159503
0.00159769
0.00160033
0.00160295
0.00160556
0.00160815
0.00161072
0.00161327
0.00161581
0.00161833
0.00162084
0.00162333
0.0016258
0.00162825
0.00163069
0.00163311
0.00163552
0.00163791
0.00164029
0.00164265
0.00164499
0.00164732
0.00164963
0.00165193
0.00165421
0.00165648
0.00165873
0.00166097
0.00166319
0.0016654
0.00166759
0.00166977
0.00167194
0.00167409
0.00167622
0.00167834
0.00168045
0.00168255
0.00168463
0.00168669
0.00168875
0.00169078
0.00169281
0.00169482
0.00169682
0.00169881
0.00170078
0.00170274
0.00170469
0.00170662
0.00170854
0.00171045
0.00171235
0.00171423
0.0017161
0.00171796
0.00171981
0.00172164
0.00172346
0.00172527
0.00172707
0.00172886
0.00173063
0.00173239
0.00173414
0.00173588
0.00173761
0.00173933
0.00174103
0.00174273
0.00174441
0.00174608
0.00174774
0.00174939
0.00175103
0.00175266
0.00175428
0.00175589
0.00175748
0.00175907
0.00176064
0.00176221
0.00176376
0.00176531
0.00176684
0.00176836
0.00176988
0.00177138
0.00177288
0.00177436
0.00177584
0.0017773
0.00177876
0.0017802
0.00178164
0.00178306
0.00178448
0.00178589
0.00178729
0.00178868
0.00179006
0.00179143
0.00179279
0.00179414
0.00179549
0.00179682
0.00179815
0.00179947
0.00180078
0.00180208
0.00180337
0.00180465
0.00180593
0.0018072
0.00180846
0.00180971
0.00181095
0.00181218
0.00181341
0.00181462
0.00181583
0.00181704
0.00181823
0.00181942
0.00182059
0.00182177
0.00182293
0.00182408
0.00182523
0.00182637
0.0018275
0.00182863
0.00182975
0.00183086
0.00183196
0.00183306
0.00183414
0.00183523
0.0018363
0.00183737
0.00183843
0.00183948
0.00184053
0.00184157
0.0018426
0.00184363
0.00184465
0.00184566
0.00184666
0.00184766
0.00184866
0.00184964
0.00185062
0.0018516
0.00185256
0.00185352
0.00185448
0.00185543
0.00185637
0.0018573
0.00185823
0.00185916
0.00186008
0.00186099
0.00186189
0.00186279
0.00186369
0.00186457
0.00186546
0.00186633
0.0018672
0.00186807
0.00186893
0.00186978
0.00187063
0.00187147
0.00187231
0.00187314
0.00187397
0.00187479
0.0018756
0.00187641
0.00187722
0.00187802
0.00187881
0.0018796
0.00188038
0.00188116
0.00188194
0.00188271
0.00188347
0.00188423
0.00188498
0.00188573
0.00188647
0.00188721
0.00188795
0.00188868
0.0018894
0.00189012
0.00189084
0.00189155
0.00189225
0.00189296
0.00189365
0.00189434
0.00189503
0.00189572
0.00189639
0.00189707
0.00189774
0.0018984
0.00189907
0.00189972
0.00190038
0.00190102
0.00190167
0.00190231
0.00190294
0.00190358
0.0019042
0.00190483
0.00190545
0.00190606
0.00190667
0.00190728
0.00190789
0.00190849
0.00190908
0.00190967
0.00191026
0.00191084
0.00191143
0.001912
0.00191258
0.00191314
0.00191371
0.00191427
0.00191483
0.00191538
0.00191594
0.00191648
0.00191703
0.00191757
0.0019181
0.00191864
0.00191917
0.00191969
0.00192022
0.00192074
0.00192125
0.00192177
0.00192228
0.00192278
0.00192328
0.00192378
0.00192428
0.00192477
0.00192526
0.00192575
0.00192624
0.00192672
0.00192719
0.00192767
0.00192814
0.00192861
0.00192907
0.00192954
0.00193
0.00193045
0.00193091
0.00193136
0.0019318
0.00193225
0.00193269
0.00193313
0.00193357
0.001934
0.00193443
0.00193486
0.00193528
0.00193571
0.00193612
0.00193654
0.00193696
0.00193737
0.00193778
0.00193818
0.00193859
0.00193899
0.00193939
0.00193978
0.00194017
0.00194057
0.00194095
0.00194134
0.00194172
0.0019421
0.00194248
0.00194286
0.00194323
0.0019436
0.00194397
0.00194434
0.0019447
0.00194506
0.00194542
0.00194578
0.00194614
0.00194649
0.00194684
0.00194719
0.00194753
0.00194788
0.00194822
0.00194856
0.00194889
0.00194923
0.00194956
0.00194989
0.00195022
0.00195055
0.00195087
0.00195119
0.00195151
0.00195183
0.00195215
0.00195246
0.00195277
0.00195308
0.00195339
0.0019537
0.001954
0.0019543
0.0019546
0.0019549
0.0019552
0.00195549
0.00195579
0.00195608
0.00195637
0.00195665
0.00195694
0.00195722
0.0019575
0.00195778
0.00195806
0.00195834
0.00195861
0.00195889
0.00195916
0.00195943
0.00195969
0.00195996
0.00196022
0.00196049
0.00196075
0.00196101
0.00196126
0.00196152
0.00196177
0.00196203
0.00196228
0.00196253
0.00196278
0.00196302
0.00196327
0.00196351
0.00196375
0.00196399
0.00196423
0.00196447
0.0019647
0.00196494
0.00196517
0.0019654
0.00196563
0.00196586
0.00196609
0.00196631
0.00196654
0.00196676
0.00196698
0.0019672
0.00196742
0.00196764
0.00196785
0.00196807
0.00196828
0.00196849
0.0019687
0.00196891
0.00196912
0.00196932
0.00196953
0.00196973
0.00196993
0.00197014
0.00197033
0.00197053
0.00197073
0.00197093
0.00197112
0.00197132
0.00197151
0.0019717
0.00197189
0
0

