-0
-0
-0
-0
-0
-0
-0
-0
-0
-0
-0
-0
-0
-0
-0
-0
-0
-0
-0
-0
-0
-0
-0
-0
-0
-0
-0
-0
-0
-0
-0
-0
-0
-0
-0
-0
-0
-0
-0
-0
-0
-0
-0
-0
-0
-0
-0
-0
-0
-0
-0
0.000114584
0.00053006
0.00137301
0.00264203
0.0042274
0.00596988
0.00771415
0.0093399
0.0107716
0.0119744
0.0129444
0.0136977
0.0142608
0.0146642
0.0149376
0.0151083
0.0151993
0.0152297
0.0152148
0.0151664
0.0150938
0.015004
0.0149022
0.0147923
0.0146772
0.0145588
0.0144388
0.0143181
0.0141977
0.0140778
0.013959
0.0138415
0.0137254
0.0136108
0.0134978
0.0133863
0.0132764
0.0131681
0.0130612
0.0129559
0.012852
0.0127495
0.0126484
0.0125486
0.0124502
0.012353
0.0122571
0.0121623
0.0120688
0.0119763
0.011885
0.0117948
0.0117056
0.0116174
0.0115302
0.011444
0.0113588
0.0112744
0.011191
0.0111085
0.0110268
0.010946
0.010866
0.0107868
0.0107083
0.0106307
0.0105538
0.0104776
0.0104022
0.0103274
0.0102534
0.01018
0.0101073
0.0100352
0.00996382
0.00989303
0.00982284
0.00975327
0.00968428
0.00961588
0.00954805
0.00948078
0.00941407
0.0093479
0.00928227
0.00921717
0.00915258
0.00908852
0.00902495
0.00896189
0.00889932
0.00883723
0.00877562
0.00871448
0.00865381
0.0085936
0.00853385
0.00847455
0.00841569
0.00835727
0

