-0
-0
-0
-0
-0
-0
-0
-0
-0
-0
-0
-0
-0
-0
-0
-0
-0
-0
-0
-0
-0
-0
-0
-0
-0
-0
-0
-0
-0
-0
-0
-0
2.13535e-06
1.33959e-05
4.58833e-05
0.000114172
0.000231643
0.000407697
0.000646615
0.000947835
0.00130703
0.00171739
0.00217083
0.00265887
0.00317323
0.00370622
0.00425088
0.00480106
0.00535139
0.00589722
0.00643451
0.00695981
0.00747016
0.00796301
0.0084362
0.0088879
0.0093166
0.00972106
0.0101003
0.0104537
0.0107809
0.0110815
0.0113557
0.0116038
0.0118262
0.0120236
0.012197
0.0123472
0.0124754
0.0125827
0.0126705
0.0127402
0.0127929
0.0128301
0.0128531
0.0128631
0.0128615
0.0128494
0.0128279
0.012798
0.0127608
0.0127172
0.012668
0.0126139
0.0125556
0.0124937
0.0124288
0.0123614
0.0122919
0.0122207
0.0121482
0.0120746
0.0120001
0.0119251
0.0118496
0.011774
0.0116982
0.0116225
0.0115469
0.0114714
0.0113963
0.0113215
0.0112471
0.0111731
0.0110995
0.0110264
0.0109538
0.0108817
0.0108101
0.0107391
0.0106685
0.0105985
0.0105289
0.0104599
0.0103914
0.0103235
0.010256
0.010189
0.0101225
0.0100565
0.00999093
0.00992586
0.00986125
0.0097971
0.0097334
0.00967015
0.00960733
0.00954495
0.00948299
0.00942146
0.00936034
0.00929963
0.00923932
0.00917942
0.00911992
0.0090608
0.00900208
0.00894373
0.00888577
0.00882818
0.00877097
0.00871413
0.00865765
0.00860153
0.00854578
0.00849038
0.00843533
0.00838063
0.00832629
0.00827228
0.00821863
0

