-0
-0
-0
-0
-0
-0
-0
-0
-0
-0
-0
-0
-0
-0
-0
-0
-0
-0
-0
-0
-0
-0
-0
-0
-0
-0
-0
-0
-0
-0
-0
-0
-0
-0
-0
-0
-0
-0
-0
-0
-0
-0
-0
-0
-0
7.50278e-06
4.77345e-05
0.000165206
0.00041363
0.000840538
0.00147458
0.00231975
0.00335639
0.00454688
0.00584297
0.00719299
0.00854756
0.00986353
0.0111061
0.0122496
0.0132771
0.0141792
0.0149534
0.0156018
0.0161302
0.0165472
0.0168624
0.0170866
0.0172303
0.0173039
0.0173172
0.0172792
0.0171982
0.0170813
0.0169352
0.0167653
0.0165767
0.0163735
0.0161594
0.0159372
0.0157097
0.015479
0.0152467
0.0150144
0.0147833
0.0145542
0.0143281
0.0141053
0.0138865
0.0136718
0.0134617
0.0132561
0.0130553
0.0128593
0.0126679
0.0124813
0.0122993
0.0121218
0.0119488
0.01178
0.0116155
0.0114549
0.0112983
0.0111454
0.0109962
0.0108504
0.0107079
0.0105687
0.0104325
0.0102993
0.010169
0.0100413
0.00991625
0.0097937
0.00967355
0.00955571
0.00944008
0.00932658
0.00921512
0.00910563
0.00899804
0.00889227
0.00878825
0.00868594
0.00858526
0.00848617
0.00838861
0.00829252
0.00819788
0.00810462
0.00801272
0.00792212
0.0078328
0.00774471
0.00765783
0.00757212
0.00748755
0.0074041
0.00732174
0.00724044
0.00716018
0.00708093
0.00700268
0.00692539
0.00684906
0.00677367
0.00669919
0.0066256
0.0065529
0.00648106
0.00641007
0

