-14930.3
-0.0225614
-0.00870319
-0.00488374
-0.00319222
-0.00225201
-0.00166265
-0.00126345
-0.000976405
-0.000759287
-0.000587709
-0.000446966
-0.000328676
-0.000229822
-0.000152147
-0.000100873
-8.2801e-05
-0.000104439
-0.000170649
-0.000283977
-0.000444578
-0.00065051
-0.000898227
-0.00118309
-0.00149983
-0.00184295
-0.00220695
-0.00258659
-0.002977
-0.00337371
-0.00377273
-0.00417055
-0.00456409
-0.00495073
-0.00532824
-0.00569477
-0.00604878
-0.00638907
-0.00671468
-0.00702492
-0.0073193
-0.00759751
-0.00785943
-0.00810506
-0.00833452
-0.00854805
-0.00874598
-0.00892869
-0.00909664
-0.00925032
-0.00939026
-0.00951703
-0.00963118
-0.00973331
-0.009824
-0.00990383
-0.00997338
-0.0100332
-0.0100839
-0.0101259
-0.0101598
-0.0101861
-0.0102052
-0.0102176
-0.0102238
-0.0102241
-0.010219
-0.0102087
-0.0101938
-0.0101744
-0.0101509
-0.0101237
-0.0100929
-0.0100589
-0.0100218
-0.00998193
-0.0099395
-0.00989469
-0.00984769
-0.00979868
-0.00974783
-0.00969528
-0.00964119
-0.00958568
-0.00952888
-0.00947092
-0.00941189
-0.00935191
-0.00929107
-0.00922945
-0.00916715
-0.00910424
-0.00904079
-0.00897686
-0.00891254
-0.00884786
-0.00878289
-0.00871768
-0.00865227
-0.00858671
-0.00852105
-0.00845531
-0.00838953
-0.00832376
-0.00825801
-0.00819232
-0.00812671
-0.00806121
-0.00799583
-0.00793061
-0.00786556
-0.0078007
-0.00773605
-0.00767161
-0.00760741
-0.00754346
-0.00747976
-0.00741634
-0.0073532
-0.00729034
-0.00722779
-0.00716554
-0.0071036
-0.00704198
-0.00698069
-0.00691973
-0.0068591
-0.00679881
-0.00673886
-0.00667926
-0.00662
-0.0065611
-0.00650255
-0.00644436
-0.00638652
-0.00632903
-0.00627191
-0.00621515
-0.00615874
-0.0061027
-0.00604701
-0.00599169
-0.00593672
-0.00588211
-0.00582786
-0.00577397
-0.00572044
-0.00566726
-0.00561444
-0.00556198
-0.00550986
-0.0054581
-0.00540669
-0.00535562
-0.0053049
-0.00525453
-0.00520451
-0.00515482
-0.00510548
-0.00505647
-0.00500781
-0.00495947
-0.00491148
-0.00486381
-0.00481647
-0.00476946
-0.00472278
-0.00467642
-0.00463038
-0.00458467
-0.00453927
-0.00449418
-0.00444942
-0.00440496
-0.00436081
-0.00431697
-0.00427344
-0.00423021
-0.00418729
-0.00414466
-0.00410233
-0.0040603
-0.00401856
-0.00397712
-0.00393596
-0.00389509
-0.00385451
-0.00381421
-0.0037742
-0.00373446
-0.00369501
-0.00365583
-0.00361692
-0.00357829
-0.00353992
-0.00350183
-0.003464
-0.00342644
-0.00338914
-0.0033521
-0.00331532
-0.0032788
-0.00324254
-0.00320653
-0.00317077
-0.00313526
-0.0031
-0.00306498
-0.00303021
-0.00299569
-0.00296141
-0.00292736
-0.00289356
-0.00285999
-0.00282665
-0.00279355
-0.00276068
-0.00272804
-0.00269563
-0.00266344
-0.00263148
-0.00259974
-0.00256823
-0.00253693
-0.00250585
-0.00247499
-0.00244435
-0.00241392
-0.0023837
-0.00235369
-0.00232389
-0.0022943
-0.00226492
-0.00223574
-0.00220676
-0.00217799
-0.00214942
-0.00212104
-0.00209287
-0.00206489
-0.0020371
-0.00200951
-0.00198211
-0.0019549
-0.00192788
-0.00190105
-0.0018744
-0.00184794
-0.00182167
-0.00179557
-0.00176966
-0.00174393
-0.00171838
-0.001693
-0.0016678
-0.00164278
-0.00161793
-0.00159325
-0.00156874
-0.00154441
-0.00152024
-0.00149624
-0.00147241
-0.00144874
-0.00142524
-0.0014019
-0.00137872
-0.0013557
-0.00133284
-0.00131014
-0.0012876
-0.00126522
-0.00124298
-0.00122091
-0.00119898
-0.00117721
-0.00115559
-0.00113412
-0.00111279
-0.00109162
-0.00107059
-0.0010497
-0.00102896
-0.00100837
-0.000987914
-0.000967602
-0.00094743
-0.000927397
-0.000907503
-0.000887747
-0.000868127
-0.000848642
-0.000829292
-0.000810076
-0.000790992
-0.000772041
-0.000753219
-0.000734528
-0.000715966
-0.000697532
-0.000679225
-0.000661044
-0.000642988
-0.000625058
-0.00060725
-0.000589566
-0.000572003
-0.000554562
-0.00053724
-0.000520038
-0.000502955
-0.000485989
-0.000469139
-0.000452406
-0.000435789
-0.000419285
-0.000402895
-0.000386618
-0.000370453
-0.000354399
-0.000338456
-0.000322622
-0.000306897
-0.00029128
-0.00027577
-0.000260368
-0.000245071
-0.000229879
-0.000214792
-0.000199808
-0.000184927
-0.000170149
-0.000155472
-0.000140895
-0.000126419
-0.000112043
-9.77646e-05
-8.3584e-05
-6.95015e-05
-5.55149e-05
-4.16249e-05
-2.78302e-05
-1.41299e-05
-5.23468e-07
1.29899e-05
2.64102e-05
3.97381e-05
5.29751e-05
6.61218e-05
7.91776e-05
9.21445e-05
0.000105023
0.000117812
0.000130514
0.000143129
0.000155658
0.000168101
0.000180458
0.000192732
0.000204921
0.000217026
0.000229049
0.000240989
0.000252848
0.000264626
0.000276323
0.000287941
0.000299478
0.000310937
0.000322317
0.00033362
0.000344846
0.000355994
0.000367067
0.000378063
0.000388985
0.000399832
0.000410605
0.000421304
0.000431931
0.000442485
0.000452967
0.000463376
0.000473716
0.000483985
0.000494183
0.000504312
0.000514372
0.000524363
0.000534286
0.000544141
0.000553929
0.000563651
0.000573306
0.000582895
0.000592419
0.000601877
0.000611272
0.000620603
0.00062987
0.000639074
0.000648214
0.000657293
0.00066631
0.000675265
0.000684159
0.000692993
0.000701766
0.00071048
0.000719134
0.000727729
0.000736266
0.000744744
0.000753165
0.000761529
0.000769836
0.000778086
0.000786281
0.000794419
0.000802502
0.00081053
0.000818504
0.000826423
0.000834289
0.000842101
0.00084986
0.000857566
0.000865221
0.000872822
0.000880372
0.000887872
0.00089532
0.000902717
0.000910065
0.000917363
0.00092461
0.000931809
0.000938959
0.000946061
0.000953114
0.000960119
0.000967077
0.000973987
0.000980851
0.000987668
0.000994439
0.00100116
0.00100784
0.00101448
0.00102107
0.00102761
0.00103411
0.00104057
0.00104698
0.00105335
0.00105967
0.00106596
0.0010722
0.0010784
0.00108455
0.00109067
0.00109674
0.00110277
0.00110876
0.00111471
0.00112062
0.00112649
0.00113232
0.00113811
0.00114387
0.00114958
0.00115525
0.00116089
0.00116649
0.00117205
0.00117757
0.00118305
0.0011885
0.00119391
0.00119929
0.00120463
0.00120993
0.0012152
0.00122043
0.00122562
0.00123078
0.00123591
0.001241
0.00124605
0.00125108
0.00125607
0.00126102
0.00126594
0.00127083
0.00127568
0.00128051
0.0012853
0.00129005
0.00129478
0.00129947
0.00130413
0.00130876
0.00131336
0.00131793
0.00132247
0.00132697
0.00133145
0.0013359
0.00134031
0.0013447
0.00134906
0.00135338
0.00135768
0.00136195
0.00136619
0.0013704
0.00137459
0.00137874
0.00138287
0.00138697
0.00139104
0.00139509
0.0013991
0.00140309
0.00140706
0.00141099
0.0014149
0.00141879
0.00142265
0.00142648
0.00143028
0.00143406
0.00143782
0.00144155
0.00144525
0.00144893
0.00145259
0.00145622
0.00145983
0.00146341
0.00146697
0.0014705
0.00147401
0.0014775
0.00148096
0.0014844
0.00148782
0.00149121
0.00149458
0.00149793
0.00150125
0.00150456
0.00150784
0.0015111
0.00151434
0.00151755
0.00152075
0.00152392
0.00152707
0.0015302
0.00153331
0.0015364
0.00153947
0.00154251
0.00154554
0.00154855
0.00155153
0.0015545
0.00155745
0.00156037
0.00156328
0.00156617
0.00156904
0.00157188
0.00157471
0.00157752
0.00158032
0.00158309
0.00158584
0.00158858
0.0015913
0.001594
0.00159668
0.00159934
0.00160199
0.00160462
0.00160723
0.00160982
0.0016124
0.00161496
0.0016175
0.00162002
0.00162253
0.00162502
0.00162749
0.00162995
0.00163239
0.00163482
0.00163723
0.00163962
0.001642
0.00164436
0.0016467
0.00164903
0.00165135
0.00165364
0.00165593
0.00165819
0.00166045
0.00166268
0.00166491
0.00166711
0.00166931
0.00167148
0.00167365
0.0016758
0.00167793
0.00168005
0.00168216
0.00168425
0.00168633
0.0016884
0.00169045
0.00169248
0.00169451
0.00169652
0.00169851
0.0017005
0.00170247
0.00170443
0.00170637
0.0017083
0.00171022
0.00171212
0.00171402
0.0017159
0.00171776
0.00171962
0.00172146
0.00172329
0.00172511
0.00172692
0.00172871
0.00173049
0.00173227
0.00173402
0.00173577
0.00173751
0.00173923
0.00174094
0.00174264
0.00174433
0.00174601
0.00174768
0.00174934
0.00175098
0.00175261
0.00175424
0.00175585
0.00175745
0.00175904
0.00176062
0.00176219
0.00176375
0.0017653
0.00176684
0.00176837
0.00176989
0.0017714
0.0017729
0.00177439
0.00177587
0.00177733
0.00177879
0.00178024
0.00178168
0.00178311
0.00178453
0.00178595
0.00178735
0.00178874
0.00179012
0.0017915
0.00179286
0.00179422
0.00179557
0.00179691
0.00179824
0.00179956
0.00180087
0.00180217
0.00180347
0.00180475
0.00180603
0.0018073
0.00180856
0.00180981
0.00181106
0.00181229
0.00181352
0.00181474
0.00181595
0.00181716
0.00181835
0.00181954
0.00182072
0.00182189
0.00182305
0.00182421
0.00182536
0.0018265
0.00182764
0.00182876
0.00182988
0.00183099
0.0018321
0.00183319
0.00183428
0.00183536
0.00183644
0.00183751
0.00183857
0.00183962
0.00184067
0.00184171
0.00184274
0.00184377
0.00184479
0.0018458
0.00184681
0.00184781
0.0018488
0.00184979
0.00185077
0.00185174
0.00185271
0.00185367
0.00185463
0.00185557
0.00185652
0.00185745
0.00185838
0.00185931
0.00186022
0.00186114
0.00186204
0.00186294
0.00186383
0.00186472
0.0018656
0.00186648
0.00186735
0.00186822
0.00186907
0.00186993
0.00187078
0.00187162
0.00187245
0.00187329
0.00187411
0.00187493
0.00187575
0.00187656
0.00187736
0.00187816
0.00187895
0.00187974
0.00188052
0.0018813
0.00188208
0.00188284
0.00188361
0.00188436
0.00188512
0.00188587
0.00188661
0.00188735
0.00188808
0.00188881
0.00188953
0.00189025
0.00189097
0.00189168
0.00189238
0.00189308
0.00189378
0.00189447
0.00189516
0.00189584
0.00189652
0.00189719
0.00189786
0.00189852
0.00189919
0.00189984
0.00190049
0.00190114
0.00190178
0.00190242
0.00190306
0.00190369
0.00190432
0.00190494
0.00190556
0.00190617
0.00190678
0.00190739
0.00190799
0.00190859
0.00190918
0.00190977
0.00191036
0.00191095
0.00191152
0.0019121
0.00191267
0.00191324
0.00191381
0.00191437
0.00191492
0.00191548
0.00191603
0.00191657
0.00191712
0.00191765
0.00191819
0.00191872
0.00191925
0.00191978
0.0019203
0.00192082
0.00192133
0.00192184
0.00192235
0.00192286
0.00192336
0.00192386
0.00192435
0.00192485
0.00192534
0.00192582
0.0019263
0.00192678
0.00192726
0.00192773
0.0019282
0.00192867
0.00192914
0.0019296
0.00193006
0.00193051
0.00193096
0.00193141
0.00193186
0.0019323
0.00193274
0.00193318
0.00193362
0.00193405
0.00193448
0.00193491
0.00193533
0.00193575
0.00193617
0.00193658
0.001937
0.00193741
0.00193782
0.00193822
0.00193862
0.00193902
0.00193942
0.00193982
0.00194021
0.0019406
0.00194099
0.00194137
0.00194175
0.00194213
0.00194251
0.00194288
0.00194326
0.00194363
0.001944
0.00194436
0.00194472
0.00194508
0.00194544
0.0019458
0.00194615
0.0019465
0.00194685
0.0019472
0.00194755
0.00194789
0.00194823
0.00194857
0.0019489
0.00194924
0.00194957
0.0019499
0.00195023
0.00195055
0.00195087
0.0019512
0.00195152
0.00195183
0.00195215
0.00195246
0.00195277
0.00195308
0.00195339
0.00195369
0.001954
0.0019543
0.0019546
0.0019549
0.00195519
0.00195548
0.00195578
0.00195607
0.00195635
0.00195664
0.00195693
0.00195721
0.00195749
0.00195777
0.00195805
0.00195832
0.00195859
0.00195887
0.00195914
0.00195941
0.00195967
0.00195994
0.0019602
0.00196046
0.00196072
0.00196098
0.00196124
0.00196149
0.00196175
0.001962
0.00196225
0.0019625
0.00196274
0.00196299
0.00196323
0.00196348
0.00196372
0.00196396
0.0019642
0.00196443
0.00196467
0.0019649
0.00196513
0.00196536
0.00196559
0.00196582
0.00196605
0.00196627
0.00196649
0.00196672
0.00196694
0.00196716
0.00196737
0.00196759
0.0019678
0.00196802
0.00196823
0.00196844
0.00196865
0.00196886
0.00196907
0.00196927
0.00196948
0.00196968
0.00196988
0.00197008
0.00197028
0.00197048
0.00197068
0.00197087
0.00197107
0.00197126
0.00197145
0.00197164
0.00197183
0.00197202
0.00197221
0.00197239
0.00197258
0.00197276
0.00197294
0.00197313
0.00197331
0.00197349
0.00197366
0.00197384
0.00197402
0.00197419
0
0

