-0
-0
-0
-0
-0
-0
-0
-0
-0
-0
-0
-0
-0
-0
-0
-0
-0
-0
-0
-0
-0
-0
-0
-0
-0
-0
-0
-0
-0
-0
-0
-0
-0
-0
-0
-0
-0
-0
-0
-0
-0
-0
-0
-0
-0
-0
-0
-0
-0
-0
-0
-0
-0
-0
0.00081705
0.00260734
0.00498287
0.00750713
0.00989748
0.0120209
0.0138374
0.0153542
0.0165974
0.0175994
0.0183919
0.0190041
0.0194617
0.0197867
0.0199986
0.0201136
0.020146
0.0201078
0.0200097
0.0198607
0.0196685
0.0194401
0.0191813
0.0188972
0.0185924
0.0182707
0.0179354
0.0175897
0.017236
0.0168765
0.0165133
0.016148
0.0157821
0.0154169
0.0150535
0.0146928
0.0143356
0.0139826
0.0136345
0.0132916
0.0129546
0.0126236
0.0122989
0.0119809
0.0116696
0.0113652
0.0110677
0.0107774
0.0104941
0.0102178
0.00994864
0.00968648
0.00943126
0.00918294
0.00894141
0.00870658
0.00847835
0.0082566
0.00804122
0.00783207
0.00762903
0.00743196
0.00724072
0.00705519
0.00687521
0.00670066
0.00653138
0.00636723
0.00620809
0.00605381
0.00590425
0.00575927
0.00561875
0.00548256
0.00535055
0.00522262
0.00509862
0.00497844
0.00486196
0.00474907
0.00463964
0.00453358
0.00443076
0.00433108
0.00423445
0.00414076
0.00404991
0.00396181
0.00387637
0.0037935
0.00371311
0.00363512
0.00355945
0.00348602
0.00341475
0.00334557
0.00327841
0

