-0
-0
-0
-0
-0
-0
-0
-0
-0
-0
-0
-0
-0
-0
-0
-0
-0
-0
-0
-0
-0
-0
-0
-0
-0
-0
-0
-0
-0
-0
-0
-0
-0
-0
-0
2.38835e-06
1.54297e-05
5.41389e-05
0.000137318
0.000282702
0.000502835
0.000803103
0.00118189
0.00163206
0.00214294
0.00270215
0.00329705
0.00391561
0.00454705
0.00518195
0.00581233
0.00643156
0.0070342
0.00761584
0.00817296
0.0087028
0.00920326
0.0096728
0.0101104
0.0105154
0.0108877
0.0112274
0.011535
0.0118113
0.0120572
0.0122738
0.0124627
0.0126251
0.0127627
0.0128772
0.01297
0.013043
0.0130976
0.0131355
0.0131582
0.0131671
0.0131636
0.0131491
0.0131246
0.0130913
0.0130503
0.0130024
0.0129485
0.0128895
0.0128259
0.0127585
0.0126877
0.0126142
0.0125383
0.0124604
0.0123809
0.0123002
0.0122184
0.0121359
0.0120528
0.0119693
0.0118855
0.0118017
0.011718
0.0116344
0.011551
0.0114679
0.0113852
0.0113029
0.0112211
0.0111398
0.0110591
0.0109789
0.0108993
0.0108203
0.0107419
0.0106642
0.0105871
0.0105106
0.0104348
0.0103596
0.010285
0.0102111
0.0101378
0.0100651
0.00999307
0.00992164
0.00985082
0.0097806
0.00971098
0.00964194
0.00957349
0.00950561
0.0094383
0.00937154
0.00930534
0.00923968
0.00917456
0.00910997
0.0090459
0.00898234
0.0089193
0.00885675
0.0087947
0.00873314
0.00867206
0.00861146
0.00855132
0.00849166
0.00843245
0.00837369
0.00831538
0.00825751
0.00820008
0.00814308
0.00808651
0

