-0
-0
-0
-0
-0
-0
-0
-0
-0
-0
-0
-0
-0
-0
-0
-0
-0
-0
-0
-0
-0
-0
-0
-0
-0
-0
-0
-0
-0
-0
-0
-0
-0
-0
-0
-0
-0
-0
-0
-0
-0
-0
-0
-0
-0
-0
-0
-0
-0
-0
-0
-0
-0
-0
-0
-0
-0
-0
-0
0.0105833
0.0173687
0.0204175
0.0215675
0.0218869
0.0218506
0.0216561
0.0213859
0.0210767
0.0207461
0.0204035
0.0200543
0.0197018
0.0193483
0.0189954
0.0186441
0.0182954
0.0179499
0.017608
0.0172702
0.0169367
0.0166079
0.0162838
0.0159646
0.0156504
0.0153413
0.0150373
0.0147385
0.0144449
0.0141564
0.0138731
0.013595
0.0133219
0.013054
0.012791
0.012533
0.0122799
0.0120317
0.0117882
0.0115495
0.0113155
0.011086
0.010861
0.0106405
0.0104244
0.0102125
0.0100049
0.00980149
0.00960213
0.00940678
0.00921537
0.00902783
0.00884409
0.00866407
0.00848772
0.00831496
0.00814571
0.00797993
0.00781753
0.00765846
0.00750265
0.00735003
0.00720054
0.00705413
0.00691073
0.00677028
0.00663272
0.006498
0.00636606
0.00623684
0.00611029
0.00598635
0.00586497
0.00574611
0.0056297
0.0055157
0.00540407
0.00529474
0.00518768
0.00508284
0.00498017
0.00487962
0.00478117
0.00468475
0.00459034
0.00449788
0.00440734
0.00431868
0.00423186
0.00414684
0.00406359
0.00398206
0

