-0
-0
-0
-0
-0
-0
-0
-0
-0
-0
-0
-0
-0
-0
-0
-0
-0
-0
-0
-0
-0
-0
-0
-0
-0
-0
-0
-0
-0
-0
-0
-0
-0
-0
-0
-0
-0
5.92596e-06
3.45982e-05
0.000111292
0.000262064
0.00050633
0.000852922
0.00129984
0.00183636
0.00244607
0.00310976
0.00380784
0.00452196
0.00523602
0.00593665
0.00661335
0.0072583
0.00786609
0.00843333
0.00895834
0.00944071
0.00988103
0.0102806
0.0106413
0.0109652
0.0112546
0.0115118
0.0117394
0.0119395
0.0121144
0.0122662
0.0123969
0.0125084
0.0126024
0.0126804
0.012744
0.0127944
0.0128329
0.0128606
0.0128784
0.0128875
0.0128885
0.0128822
0.0128694
0.0128507
0.0128266
0.0127977
0.0127644
0.0127272
0.0126864
0.0126425
0.0125957
0.0125463
0.0124947
0.012441
0.0123854
0.0123282
0.0122695
0.0122095
0.0121484
0.0120863
0.0120233
0.0119595
0.011895
0.01183
0.0117645
0.0116985
0.0116322
0.0115657
0.0114989
0.0114319
0.0113649
0.0112977
0.0112305
0.0111633
0.0110962
0.0110291
0.0109621
0.0108953
0.0108285
0.010762
0.0106956
0.0106294
0.0105634
0.0104977
0.0104322
0.0103669
0.010302
0.0102372
0.0101728
0.0101087
0.0100448
0.00998127
0.00991803
0.0098551
0.00979248
0.00973019
0.00966822
0.00960657
0.00954525
0.00948427
0.00942361
0.00936329
0.00930331
0.00924366
0.00918435
0.00912538
0.00906674
0.00900845
0.00895049
0.00889287
0.00883558
0.00877864
0.00872203
0.00866576
0

