-0
-0
-0
-0
-0
-0
-0
-0
-0
-0
-0
-0
-0
-0
-0
-0
-0
-0
-0
-0
-0
-0
-0
-0
-0
-0
-0
-0
-0
-0
-0
-0
-0
-0
-0
-0
-0
-0
-0
-0
-0
-0
-0
-0
-0
-0
-0
-0
-0
-0
-0
-0
-0
-0
-0
-0
0.00223101
0.00570807
0.00920663
0.0121843
0.0145448
0.0163587
0.01773
0.0187521
0.0194988
0.0200267
0.0203791
0.0205894
0.0206841
0.0206842
0.0206066
0.0204653
0.0202717
0.0200352
0.0197639
0.0194645
0.0191425
0.0188028
0.0184494
0.0180857
0.0177146
0.0173387
0.0169601
0.0165805
0.0162016
0.0158245
0.0154504
0.0150803
0.0147149
0.0143548
0.0140006
0.0136528
0.0133116
0.0129775
0.0126505
0.0123309
0.0120188
0.0117143
0.0114173
0.011128
0.0108462
0.010572
0.0103053
0.0100459
0.00979386
0.00954901
0.00931123
0.0090804
0.00885638
0.00863904
0.00842823
0.0082238
0.00802559
0.00783347
0.00764727
0.00746683
0.00729201
0.00712265
0.00695859
0.00679969
0.0066458
0.00649677
0.00635244
0.00621269
0.00607736
0.00594632
0.00581944
0.00569658
0.00557761
0.00546242
0.00535086
0.00524283
0.0051382
0.00503687
0.00493872
0.00484365
0.00475155
0.00466232
0.00457585
0.00449206
0.00441086
0.00433215
0.00425584
0.00418186
0.00411012
0.00404054
0.00397304
0.00390756
0.00384402
0.00378235
0.00372249
0

