-0
-0
-0
-0
-0
-0
-0
-0
-0
-0
-0
-0
-0
-0
-0
-0
-0
-0
-0
-0
-0
-0
-0
-0
-0
-0
-0
-0
-0
-0
-0
-0
-0
-0
-0
-0
-0
-0
-0
-0
-0
-0
-0
-0
-0
-0
-0
-0
-0
-0
-0
7.28663e-05
0.00037614
0.00107671
0.00226905
0.00394329
0.00600194
0.00829889
0.0106776
0.0129979
0.0151497
0.0170571
0.0186759
0.0199886
0.0209977
0.0217201
0.0221821
0.0224147
0.0224509
0.0223233
0.0220627
0.0216972
0.0212514
0.020747
0.0202018
0.019631
0.0190468
0.018459
0.0178751
0.0173011
0.0167412
0.0161987
0.0156757
0.0151735
0.0146928
0.0142339
0.0137968
0.0133809
0.0129857
0.0126105
0.0122544
0.0119166
0.0115962
0.0112922
0.0110037
0.0107299
0.0104699
0.0102228
0.0099878
0.00976424
0.00955136
0.00934849
0.00915498
0.00897025
0.00879373
0.00862489
0.00846324
0.00830833
0.00815972
0.00801702
0.00787985
0.00774786
0.00762073
0.00749816
0.00737986
0.00726558
0.00715507
0.00704811
0.00694449
0.006844
0.00674647
0.00665173
0.00655962
0.00647
0.00638272
0.00629766
0.0062147
0.00613373
0.00605466
0.00597737
0.0059018
0.00582784
0.00575544
0.0056845
0.00561497
0.00554679
0.00547989
0.00541422
0.00534973
0.00528638
0.00522411
0.00516289
0.00510268
0.00504344
0.00498513
0.00492773
0.00487121
0.00481553
0.00476068
0.00470661
0.00465332
0

