-14930.3
-0.0225614
-0.00870319
-0.00488374
-0.00319222
-0.00225201
-0.00166265
-0.00126345
-0.000976405
-0.000759287
-0.000587709
-0.000446966
-0.000328288
-0.000227373
-0.000143758
-8.00788e-05
-4.09534e-05
-3.16771e-05
-5.70774e-05
-0.000120718
-0.000224514
-0.000368693
-0.000551968
-0.000771846
-0.00102495
-0.00130734
-0.00161478
-0.00194293
-0.00228755
-0.00264455
-0.00301011
-0.00338073
-0.00375322
-0.00412473
-0.00449272
-0.00485499
-0.00520962
-0.005555
-0.00588975
-0.00621274
-0.00652307
-0.00682001
-0.00710304
-0.00737177
-0.00762598
-0.00786555
-0.00809048
-0.00830086
-0.00849688
-0.00867879
-0.00884688
-0.00900153
-0.00914312
-0.0092721
-0.00938892
-0.00949405
-0.00958799
-0.00967123
-0.00974428
-0.00980763
-0.00986178
-0.00990722
-0.00994444
-0.00997389
-0.00999603
-0.0100113
-0.0100202
-0.010023
-0.0100202
-0.0100121
-0.00999915
-0.00998164
-0.00995989
-0.00993423
-0.00990493
-0.00987229
-0.00983655
-0.00979796
-0.00975675
-0.00971313
-0.00966732
-0.0096195
-0.00956984
-0.00951851
-0.00946567
-0.00941146
-0.00935602
-0.00929946
-0.00924191
-0.00918348
-0.00912425
-0.00906434
-0.00900381
-0.00894276
-0.00888125
-0.00881935
-0.00875713
-0.00869464
-0.00863194
-0.00856907
-0.00850609
-0.00844303
-0.00837993
-0.00831683
-0.00825375
-0.00819074
-0.00812781
-0.00806499
-0.0080023
-0.00793977
-0.00787742
-0.00781525
-0.00775329
-0.00769154
-0.00763004
-0.00756877
-0.00750777
-0.00744702
-0.00738656
-0.00732637
-0.00726647
-0.00720687
-0.00714757
-0.00708857
-0.00702989
-0.00697151
-0.00691346
-0.00685572
-0.00679831
-0.00674122
-0.00668446
-0.00662803
-0.00657192
-0.00651614
-0.0064607
-0.00640558
-0.0063508
-0.00629634
-0.00624222
-0.00618843
-0.00613496
-0.00608183
-0.00602903
-0.00597655
-0.0059244
-0.00587257
-0.00582107
-0.0057699
-0.00571905
-0.00566851
-0.0056183
-0.00556841
-0.00551883
-0.00546957
-0.00542062
-0.00537199
-0.00532366
-0.00527565
-0.00522794
-0.00518054
-0.00513345
-0.00508665
-0.00504016
-0.00499397
-0.00494807
-0.00490247
-0.00485717
-0.00481216
-0.00476744
-0.004723
-0.00467886
-0.004635
-0.00459143
-0.00454813
-0.00450512
-0.00446239
-0.00441993
-0.00437775
-0.00433585
-0.00429421
-0.00425285
-0.00421175
-0.00417093
-0.00413036
-0.00409006
-0.00405003
-0.00401025
-0.00397073
-0.00393147
-0.00389247
-0.00385372
-0.00381522
-0.00377697
-0.00373898
-0.00370122
-0.00366372
-0.00362646
-0.00358944
-0.00355267
-0.00351613
-0.00347983
-0.00344377
-0.00340795
-0.00337236
-0.003337
-0.00330187
-0.00326697
-0.0032323
-0.00319785
-0.00316363
-0.00312964
-0.00309586
-0.00306231
-0.00302897
-0.00299586
-0.00296296
-0.00293027
-0.0028978
-0.00286554
-0.00283349
-0.00280165
-0.00277002
-0.0027386
-0.00270738
-0.00267637
-0.00264556
-0.00261495
-0.00258454
-0.00255433
-0.00252432
-0.0024945
-0.00246488
-0.00243545
-0.00240622
-0.00237718
-0.00234832
-0.00231966
-0.00229118
-0.00226289
-0.00223479
-0.00220687
-0.00217914
-0.00215158
-0.00212421
-0.00209701
-0.00206999
-0.00204316
-0.00201649
-0.00199
-0.00196369
-0.00193755
-0.00191158
-0.00188578
-0.00186014
-0.00183468
-0.00180939
-0.00178426
-0.00175929
-0.00173449
-0.00170985
-0.00168537
-0.00166106
-0.0016369
-0.0016129
-0.00158906
-0.00156538
-0.00154185
-0.00151848
-0.00149526
-0.00147219
-0.00144928
-0.00142651
-0.0014039
-0.00138143
-0.00135911
-0.00133694
-0.00131491
-0.00129303
-0.00127129
-0.0012497
-0.00122824
-0.00120693
-0.00118576
-0.00116472
-0.00114383
-0.00112307
-0.00110245
-0.00108197
-0.00106162
-0.0010414
-0.00102132
-0.00100137
-0.000981548
-0.000961859
-0.000942299
-0.000922868
-0.000903565
-0.00088439
-0.000865339
-0.000846415
-0.000827616
-0.00080894
-0.000790387
-0.000771957
-0.000753648
-0.000735459
-0.00071739
-0.000699441
-0.000681609
-0.000663895
-0.000646298
-0.000628816
-0.00061145
-0.000594199
-0.000577061
-0.000560036
-0.000543123
-0.000526322
-0.000509631
-0.000493051
-0.00047658
-0.000460218
-0.000443963
-0.000427815
-0.000411775
-0.000395839
-0.000380009
-0.000364284
-0.000348662
-0.000333143
-0.000317727
-0.000302412
-0.000287198
-0.000272085
-0.000257071
-0.000242157
-0.000227341
-0.000212623
-0.000198001
-0.000183477
-0.000169048
-0.000154714
-0.000140475
-0.000126331
-0.000112279
-9.8321e-05
-8.44545e-05
-7.06789e-05
-5.6995e-05
-4.34013e-05
-2.98979e-05
-1.64833e-05
-3.15679e-06
1.00809e-05
2.32319e-05
3.62955e-05
4.92724e-05
6.2164e-05
7.49711e-05
8.76929e-05
0.000100331
0.000112885
0.000125356
0.000137745
0.000150052
0.000162278
0.000174423
0.000186487
0.000198472
0.000210378
0.000222205
0.000233954
0.000245625
0.000257219
0.000268736
0.000280178
0.000291543
0.000302833
0.000314049
0.000325191
0.000336258
0.000347253
0.000358175
0.000369025
0.000379803
0.00039051
0.000401145
0.000411711
0.000422207
0.000432633
0.00044299
0.000453279
0.000463499
0.000473652
0.000483738
0.000493757
0.00050371
0.000513597
0.000523418
0.000533175
0.000542867
0.000552495
0.000562059
0.00057156
0.000580998
0.000590374
0.000599687
0.000608938
0.000618129
0.000627259
0.000636328
0.000645337
0.000654287
0.000663177
0.000672009
0.000680781
0.000689496
0.000698152
0.000706751
0.000715294
0.00072378
0.000732209
0.000740583
0.000748902
0.000757165
0.000765373
0.000773527
0.000781628
0.000789674
0.000797667
0.000805608
0.000813496
0.000821331
0.000829114
0.000836847
0.000844528
0.000852158
0.000859737
0.000867266
0.000874746
0.000882176
0.000889556
0.000896888
0.000904171
0.000911406
0.000918593
0.000925732
0.000932825
0.00093987
0.000946869
0.000953821
0.000960726
0.000967587
0.000974402
0.000981171
0.000987896
0.000994577
0.00100121
0.0010078
0.00101435
0.00102086
0.00102732
0.00103374
0.00104012
0.00104645
0.00105274
0.00105899
0.0010652
0.00107137
0.0010775
0.00108358
0.00108963
0.00109564
0.0011016
0.00110753
0.00111342
0.00111927
0.00112508
0.00113085
0.00113658
0.00114228
0.00114793
0.00115355
0.00115914
0.00116468
0.00117019
0.00117566
0.0011811
0.0011865
0.00119186
0.00119719
0.00120249
0.00120775
0.00121297
0.00121816
0.00122331
0.00122843
0.00123352
0.00123857
0.00124359
0.00124858
0.00125353
0.00125845
0.00126334
0.00126819
0.00127302
0.00127781
0.00128257
0.00128729
0.00129199
0.00129666
0.00130129
0.00130589
0.00131047
0.00131501
0.00131952
0.00132401
0.00132846
0.00133288
0.00133728
0.00134164
0.00134598
0.00135029
0.00135457
0.00135882
0.00136304
0.00136723
0.0013714
0.00137554
0.00137965
0.00138374
0.00138779
0.00139182
0.00139583
0.00139981
0.00140376
0.00140768
0.00141158
0.00141545
0.0014193
0.00142312
0.00142692
0.00143069
0.00143444
0.00143816
0.00144186
0.00144553
0.00144918
0.0014528
0.0014564
0.00145998
0.00146353
0.00146706
0.00147056
0.00147405
0.00147751
0.00148094
0.00148436
0.00148775
0.00149112
0.00149446
0.00149779
0.00150109
0.00150437
0.00150763
0.00151086
0.00151408
0.00151727
0.00152045
0.0015236
0.00152673
0.00152984
0.00153293
0.001536
0.00153905
0.00154208
0.00154509
0.00154808
0.00155105
0.00155399
0.00155692
0.00155984
0.00156273
0.0015656
0.00156845
0.00157129
0.0015741
0.0015769
0.00157968
0.00158244
0.00158518
0.0015879
0.00159061
0.0015933
0.00159597
0.00159862
0.00160125
0.00160387
0.00160647
0.00160905
0.00161162
0.00161417
0.0016167
0.00161922
0.00162171
0.0016242
0.00162666
0.00162911
0.00163155
0.00163396
0.00163636
0.00163875
0.00164112
0.00164347
0.00164581
0.00164813
0.00165044
0.00165273
0.00165501
0.00165727
0.00165952
0.00166175
0.00166397
0.00166617
0.00166836
0.00167053
0.00167269
0.00167484
0.00167697
0.00167909
0.00168119
0.00168328
0.00168535
0.00168741
0.00168946
0.0016915
0.00169352
0.00169553
0.00169752
0.0016995
0.00170147
0.00170342
0.00170537
0.0017073
0.00170921
0.00171112
0.00171301
0.00171489
0.00171675
0.00171861
0.00172045
0.00172228
0.0017241
0.0017259
0.0017277
0.00172948
0.00173125
0.00173301
0.00173475
0.00173649
0.00173821
0.00173993
0.00174163
0.00174332
0.001745
0.00174667
0.00174832
0.00174997
0.0017516
0.00175323
0.00175484
0.00175645
0.00175804
0.00175962
0.00176119
0.00176275
0.0017643
0.00176584
0.00176737
0.00176889
0.00177041
0.00177191
0.0017734
0.00177488
0.00177635
0.00177781
0.00177926
0.0017807
0.00178214
0.00178356
0.00178497
0.00178638
0.00178777
0.00178916
0.00179054
0.0017919
0.00179326
0.00179461
0.00179595
0.00179729
0.00179861
0.00179993
0.00180123
0.00180253
0.00180382
0.0018051
0.00180637
0.00180764
0.00180889
0.00181014
0.00181138
0.00181261
0.00181383
0.00181505
0.00181625
0.00181745
0.00181864
0.00181983
0.001821
0.00182217
0.00182333
0.00182448
0.00182563
0.00182676
0.00182789
0.00182902
0.00183013
0.00183124
0.00183234
0.00183343
0.00183452
0.0018356
0.00183667
0.00183773
0.00183879
0.00183984
0.00184089
0.00184193
0.00184296
0.00184398
0.001845
0.00184601
0.00184701
0.00184801
0.001849
0.00184998
0.00185096
0.00185193
0.0018529
0.00185385
0.00185481
0.00185575
0.00185669
0.00185763
0.00185855
0.00185948
0.00186039
0.0018613
0.0018622
0.0018631
0.00186399
0.00186488
0.00186576
0.00186663
0.0018675
0.00186836
0.00186922
0.00187007
0.00187092
0.00187176
0.00187259
0.00187342
0.00187425
0.00187507
0.00187588
0.00187669
0.00187749
0.00187829
0.00187908
0.00187987
0.00188065
0.00188143
0.0018822
0.00188297
0.00188373
0.00188449
0.00188524
0.00188599
0.00188673
0.00188746
0.0018882
0.00188893
0.00188965
0.00189037
0.00189108
0.00189179
0.00189249
0.00189319
0.00189389
0.00189458
0.00189527
0.00189595
0.00189662
0.0018973
0.00189797
0.00189863
0.00189929
0.00189994
0.0019006
0.00190124
0.00190189
0.00190252
0.00190316
0.00190379
0.00190442
0.00190504
0.00190566
0.00190627
0.00190688
0.00190749
0.00190809
0.00190869
0.00190928
0.00190987
0.00191046
0.00191104
0.00191162
0.0019122
0.00191277
0.00191334
0.0019139
0.00191446
0.00191502
0.00191557
0.00191612
0.00191667
0.00191721
0.00191775
0.00191828
0.00191882
0.00191934
0.00191987
0.00192039
0.00192091
0.00192143
0.00192194
0.00192245
0.00192295
0.00192345
0.00192395
0.00192445
0.00192494
0.00192543
0.00192591
0.0019264
0.00192688
0.00192735
0.00192783
0.0019283
0.00192876
0.00192923
0.00192969
0.00193015
0.0019306
0.00193106
0.00193151
0.00193195
0.0019324
0.00193284
0.00193328
0.00193371
0.00193414
0.00193457
0.001935
0.00193542
0.00193584
0.00193626
0.00193668
0.00193709
0.0019375
0.00193791
0.00193832
0.00193872
0.00193912
0.00193952
0.00193991
0.0019403
0.00194069
0.00194108
0.00194147
0.00194185
0.00194223
0.00194261
0.00194298
0.00194335
0.00194372
0.00194409
0.00194446
0.00194482
0.00194518
0.00194554
0.0019459
0.00194625
0.0019466
0.00194695
0.0019473
0.00194764
0.00194799
0.00194833
0.00194867
0.001949
0.00194934
0.00194967
0.00195
0.00195033
0.00195065
0.00195098
0.0019513
0.00195162
0.00195193
0.00195225
0.00195256
0.00195287
0.00195318
0.00195349
0.0019538
0.0019541
0.0019544
0.0019547
0.001955
0.00195529
0.00195559
0.00195588
0.00195617
0.00195646
0.00195675
0.00195703
0.00195731
0.00195759
0.00195787
0.00195815
0.00195843
0.0019587
0.00195897
0.00195924
0.00195951
0.00195978
0.00196004
0.00196031
0.00196057
0.00196083
0.00196109
0.00196135
0.0019616
0.00196186
0.00196211
0.00196236
0.00196261
0.00196285
0.0019631
0.00196334
0.00196359
0.00196383
0.00196407
0.00196431
0.00196454
0.00196478
0.00196501
0.00196524
0.00196547
0.0019657
0.00196593
0.00196616
0.00196638
0.00196661
0.00196683
0.00196705
0.00196727
0.00196749
0.0019677
0.00196792
0.00196813
0.00196834
0.00196856
0.00196877
0.00196897
0.00196918
0.00196939
0.00196959
0.00196979
0.00197
0.0019702
0.0019704
0.00197059
0.00197079
0.00197099
0.00197118
0.00197138
0.00197157
0.00197176
0.00197195
0
0

