-14930.3
-0.0225614
-0.00870319
-0.00488374
-0.00319222
-0.00225201
-0.00166265
-0.00126345
-0.000976405
-0.000759287
-0.000587709
-0.000446966
-0.00033283
-0.000253574
-0.000226593
-0.000270963
-0.000400649
-0.000621148
-0.000929519
-0.00131641
-0.00176862
-0.00227144
-0.00281024
-0.00337157
-0.00394362
-0.00451644
-0.0050819
-0.00563351
-0.00616628
-0.00667643
-0.00716125
-0.00761889
-0.00804821
-0.00844862
-0.00882001
-0.00916261
-0.00947693
-0.00976372
-0.0100239
-0.0102584
-0.0104684
-0.0106551
-0.0108196
-0.0109632
-0.0110871
-0.0111925
-0.0112806
-0.0113526
-0.0114096
-0.0114527
-0.0114828
-0.0115011
-0.0115085
-0.0115058
-0.0114939
-0.0114736
-0.0114458
-0.0114109
-0.0113699
-0.0113231
-0.0112713
-0.0112149
-0.0111545
-0.0110904
-0.0110231
-0.010953
-0.0108805
-0.0108058
-0.0107292
-0.0106511
-0.0105716
-0.010491
-0.0104094
-0.0103271
-0.0102443
-0.010161
-0.0100774
-0.00999359
-0.00990973
-0.00982588
-0.00974213
-0.00965856
-0.00957522
-0.00949218
-0.00940948
-0.00932718
-0.00924531
-0.0091639
-0.00908299
-0.00900259
-0.00892273
-0.00884342
-0.00876468
-0.00868652
-0.00860895
-0.00853197
-0.0084556
-0.00837983
-0.00830466
-0.00823011
-0.00815616
-0.00808281
-0.00801007
-0.00793792
-0.00786638
-0.00779542
-0.00772506
-0.00765528
-0.00758607
-0.00751744
-0.00744937
-0.00738186
-0.00731491
-0.0072485
-0.00718264
-0.00711732
-0.00705252
-0.00698825
-0.0069245
-0.00686126
-0.00679852
-0.00673629
-0.00667455
-0.0066133
-0.00655253
-0.00649224
-0.00643242
-0.00637306
-0.00631417
-0.00625573
-0.00619775
-0.00614021
-0.00608311
-0.00602645
-0.00597022
-0.00591442
-0.00585904
-0.00580407
-0.00574952
-0.00569539
-0.00564165
-0.00558832
-0.00553539
-0.00548285
-0.00543069
-0.00537893
-0.00532755
-0.00527654
-0.00522592
-0.00517566
-0.00512577
-0.00507625
-0.00502709
-0.00497829
-0.00492984
-0.00488174
-0.004834
-0.0047866
-0.00473954
-0.00469283
-0.00464645
-0.00460041
-0.00455469
-0.00450931
-0.00446425
-0.00441952
-0.00437511
-0.00433102
-0.00428724
-0.00424377
-0.00420062
-0.00415778
-0.00411524
-0.004073
-0.00403107
-0.00398943
-0.00394809
-0.00390704
-0.00386629
-0.00382583
-0.00378565
-0.00374576
-0.00370615
-0.00366682
-0.00362777
-0.003589
-0.0035505
-0.00351227
-0.00347432
-0.00343663
-0.00339921
-0.00336205
-0.00332515
-0.00328852
-0.00325214
-0.00321602
-0.00318016
-0.00314454
-0.00310918
-0.00307407
-0.0030392
-0.00300458
-0.0029702
-0.00293607
-0.00290217
-0.00286851
-0.00283509
-0.00280191
-0.00276895
-0.00273623
-0.00270374
-0.00267147
-0.00263943
-0.00260762
-0.00257603
-0.00254466
-0.00251351
-0.00248257
-0.00245186
-0.00242136
-0.00239107
-0.00236099
-0.00233113
-0.00230147
-0.00227202
-0.00224278
-0.00221374
-0.0021849
-0.00215627
-0.00212783
-0.0020996
-0.00207156
-0.00204371
-0.00201606
-0.00198861
-0.00196134
-0.00193426
-0.00190738
-0.00188068
-0.00185416
-0.00182784
-0.00180169
-0.00177573
-0.00174995
-0.00172434
-0.00169892
-0.00167367
-0.0016486
-0.0016237
-0.00159897
-0.00157442
-0.00155004
-0.00152582
-0.00150178
-0.0014779
-0.00145419
-0.00143064
-0.00140726
-0.00138404
-0.00136098
-0.00133808
-0.00131534
-0.00129275
-0.00127033
-0.00124805
-0.00122594
-0.00120397
-0.00118216
-0.0011605
-0.00113899
-0.00111763
-0.00109642
-0.00107535
-0.00105443
-0.00103365
-0.00101302
-0.000992532
-0.000972185
-0.000951978
-0.000931912
-0.000911983
-0.000892193
-0.00087254
-0.000853022
-0.000833639
-0.00081439
-0.000795274
-0.00077629
-0.000757438
-0.000738715
-0.000720122
-0.000701658
-0.00068332
-0.00066511
-0.000647024
-0.000629064
-0.000611227
-0.000593514
-0.000575923
-0.000558453
-0.000541103
-0.000523874
-0.000506763
-0.000489769
-0.000472893
-0.000456133
-0.000439489
-0.000422959
-0.000406544
-0.000390241
-0.00037405
-0.000357971
-0.000342002
-0.000326143
-0.000310394
-0.000294753
-0.000279219
-0.000263793
-0.000248472
-0.000233256
-0.000218146
-0.000203139
-0.000188236
-0.000173434
-0.000158735
-0.000144136
-0.000129638
-0.000115239
-0.000100939
-8.67375e-05
-7.26336e-05
-5.86264e-05
-4.47151e-05
-3.08998e-05
-1.71789e-05
-3.55186e-06
9.98141e-06
2.34216e-05
3.67701e-05
5.00263e-05
6.31922e-05
7.62678e-05
8.92533e-05
0.000102151
0.000114959
0.000127679
0.000140313
0.00015286
0.000165321
0.000177697
0.000189988
0.000202195
0.000214318
0.000226358
0.000238316
0.000250192
0.000261986
0.0002737
0.000285334
0.000296889
0.000308363
0.000319761
0.000331079
0.000342321
0.000353485
0.000364573
0.000375586
0.000386523
0.000397386
0.000408174
0.000418888
0.00042953
0.000440099
0.000450595
0.00046102
0.000471374
0.000481656
0.000491869
0.000502012
0.000512086
0.000522091
0.000532028
0.000541897
0.000551699
0.000561433
0.000571102
0.000580704
0.000590241
0.000599714
0.000609121
0.000618464
0.000627744
0.000636961
0.000646114
0.000655205
0.000664235
0.000673202
0.000682109
0.000690954
0.000699739
0.000708465
0.000717131
0.000725737
0.000734285
0.000742776
0.000751208
0.000759583
0.000767901
0.000776163
0.000784368
0.000792518
0.000800612
0.000808651
0.000816635
0.000824565
0.000832441
0.000840264
0.000848034
0.00085575
0.000863414
0.000871026
0.000878587
0.000886096
0.000893555
0.000900962
0.000908319
0.000915626
0.000922884
0.000930092
0.000937252
0.000944362
0.000951425
0.00095844
0.000965407
0.000972326
0.0009792
0.000986026
0.000992805
0.000999539
0.00100623
0.00101287
0.00101947
0.00102602
0.00103253
0.001039
0.00104542
0.00105179
0.00105813
0.00106442
0.00107067
0.00107687
0.00108304
0.00108916
0.00109524
0.00110128
0.00110728
0.00111324
0.00111916
0.00112503
0.00113087
0.00113667
0.00114243
0.00114815
0.00115383
0.00115948
0.00116508
0.00117065
0.00117618
0.00118167
0.00118713
0.00119254
0.00119793
0.00120327
0.00120858
0.00121385
0.00121909
0.00122429
0.00122946
0.00123459
0.00123969
0.00124475
0.00124978
0.00125478
0.00125974
0.00126467
0.00126956
0.00127442
0.00127925
0.00128405
0.00128881
0.00129354
0.00129824
0.00130291
0.00130755
0.00131215
0.00131672
0.00132127
0.00132578
0.00133026
0.00133471
0.00133914
0.00134353
0.00134789
0.00135222
0.00135653
0.0013608
0.00136505
0.00136927
0.00137346
0.00137762
0.00138175
0.00138585
0.00138993
0.00139398
0.001398
0.001402
0.00140597
0.00140991
0.00141383
0.00141772
0.00142158
0.00142542
0.00142923
0.00143301
0.00143677
0.00144051
0.00144422
0.0014479
0.00145156
0.0014552
0.00145881
0.00146239
0.00146596
0.0014695
0.00147301
0.0014765
0.00147997
0.00148341
0.00148683
0.00149023
0.00149361
0.00149696
0.00150029
0.0015036
0.00150689
0.00151015
0.00151339
0.00151661
0.00151981
0.00152299
0.00152614
0.00152928
0.00153239
0.00153548
0.00153855
0.00154161
0.00154464
0.00154765
0.00155064
0.00155361
0.00155656
0.00155949
0.0015624
0.00156529
0.00156816
0.00157102
0.00157385
0.00157666
0.00157946
0.00158224
0.001585
0.00158774
0.00159046
0.00159316
0.00159585
0.00159851
0.00160116
0.0016038
0.00160641
0.00160901
0.00161159
0.00161415
0.00161669
0.00161922
0.00162173
0.00162423
0.0016267
0.00162917
0.00163161
0.00163404
0.00163645
0.00163885
0.00164123
0.00164359
0.00164594
0.00164827
0.00165059
0.00165289
0.00165518
0.00165745
0.0016597
0.00166194
0.00166417
0.00166638
0.00166857
0.00167076
0.00167292
0.00167507
0.00167721
0.00167934
0.00168145
0.00168354
0.00168562
0.00168769
0.00168975
0.00169179
0.00169381
0.00169583
0.00169782
0.00169981
0.00170178
0.00170374
0.00170569
0.00170762
0.00170955
0.00171145
0.00171335
0.00171523
0.0017171
0.00171896
0.00172081
0.00172264
0.00172446
0.00172627
0.00172807
0.00172985
0.00173162
0.00173339
0.00173514
0.00173687
0.0017386
0.00174031
0.00174202
0.00174371
0.00174539
0.00174706
0.00174872
0.00175037
0.001752
0.00175363
0.00175524
0.00175685
0.00175844
0.00176003
0.0017616
0.00176316
0.00176471
0.00176625
0.00176779
0.00176931
0.00177082
0.00177232
0.00177381
0.00177529
0.00177676
0.00177822
0.00177968
0.00178112
0.00178255
0.00178397
0.00178539
0.00178679
0.00178819
0.00178957
0.00179095
0.00179232
0.00179367
0.00179502
0.00179636
0.0017977
0.00179902
0.00180033
0.00180164
0.00180294
0.00180422
0.0018055
0.00180677
0.00180804
0.00180929
0.00181054
0.00181178
0.001813
0.00181423
0.00181544
0.00181665
0.00181784
0.00181903
0.00182021
0.00182139
0.00182255
0.00182371
0.00182486
0.00182601
0.00182714
0.00182827
0.00182939
0.00183051
0.00183161
0.00183271
0.0018338
0.00183488
0.00183596
0.00183703
0.0018381
0.00183915
0.0018402
0.00184124
0.00184228
0.00184331
0.00184433
0.00184534
0.00184635
0.00184735
0.00184835
0.00184933
0.00185032
0.00185129
0.00185226
0.00185322
0.00185418
0.00185513
0.00185607
0.00185701
0.00185794
0.00185887
0.00185979
0.0018607
0.00186161
0.00186251
0.0018634
0.00186429
0.00186518
0.00186605
0.00186693
0.00186779
0.00186865
0.00186951
0.00187036
0.0018712
0.00187204
0.00187287
0.0018737
0.00187452
0.00187534
0.00187615
0.00187695
0.00187775
0.00187855
0.00187934
0.00188012
0.0018809
0.00188168
0.00188245
0.00188321
0.00188397
0.00188473
0.00188548
0.00188622
0.00188696
0.00188769
0.00188842
0.00188915
0.00188987
0.00189059
0.0018913
0.001892
0.00189271
0.0018934
0.0018941
0.00189478
0.00189547
0.00189615
0.00189682
0.00189749
0.00189816
0.00189882
0.00189948
0.00190013
0.00190078
0.00190142
0.00190206
0.0019027
0.00190333
0.00190396
0.00190458
0.0019052
0.00190582
0.00190643
0.00190704
0.00190764
0.00190824
0.00190884
0.00190943
0.00191002
0.0019106
0.00191118
0.00191176
0.00191233
0.0019129
0.00191347
0.00191403
0.00191459
0.00191514
0.00191569
0.00191624
0.00191679
0.00191733
0.00191786
0.0019184
0.00191893
0.00191945
0.00191998
0.0019205
0.00192101
0.00192152
0.00192203
0.00192254
0.00192304
0.00192354
0.00192404
0.00192453
0.00192502
0.00192551
0.00192599
0.00192647
0.00192695
0.00192743
0.0019279
0.00192837
0.00192883
0.00192929
0.00192975
0.00193021
0.00193066
0.00193111
0.00193156
0.00193201
0.00193245
0.00193289
0.00193332
0.00193376
0.00193419
0.00193461
0.00193504
0.00193546
0.00193588
0.0019363
0.00193671
0.00193712
0.00193753
0.00193794
0.00193834
0.00193874
0.00193914
0.00193954
0.00193993
0.00194032
0.00194071
0.00194109
0.00194148
0.00194186
0.00194224
0.00194261
0.00194299
0.00194336
0.00194373
0.00194409
0.00194446
0.00194482
0.00194518
0.00194553
0.00194589
0.00194624
0.00194659
0.00194694
0.00194728
0.00194763
0.00194797
0.00194831
0.00194865
0.00194898
0.00194931
0.00194964
0.00194997
0.0019503
0.00195062
0.00195094
0.00195126
0.00195158
0.0019519
0.00195221
0.00195252
0.00195283
0.00195314
0.00195345
0.00195375
0.00195405
0.00195435
0.00195465
0.00195495
0.00195524
0.00195554
0.00195583
0.00195612
0.0019564
0.00195669
0.00195697
0.00195725
0.00195753
0.00195781
0.00195809
0.00195836
0.00195863
0.0019589
0.00195917
0.00195944
0.00195971
0.00195997
0.00196023
0.0019605
0.00196075
0.00196101
0.00196127
0.00196152
0.00196177
0.00196203
0.00196228
0.00196252
0.00196277
0.00196301
0.00196326
0.0019635
0.00196374
0.00196398
0.00196422
0.00196445
0.00196469
0.00196492
0.00196515
0.00196538
0.00196561
0.00196583
0.00196606
0.00196628
0.00196651
0.00196673
0.00196695
0.00196717
0.00196738
0.0019676
0.00196781
0.00196803
0.00196824
0.00196845
0.00196866
0.00196886
0.00196907
0.00196928
0.00196948
0.00196968
0.00196988
0.00197008
0.00197028
0.00197048
0.00197068
0.00197087
0.00197106
0.00197126
0.00197145
0.00197164
0.00197183
0.00197201
0.0019722
0.00197239
0.00197257
0.00197275
0.00197294
0.00197312
0.0019733
0.00197347
0.00197365
0.00197383
0.001974
0.00197418
0.00197435
0.00197452
0.00197469
0.00197486
0.00197503
0.0019752
0.00197537
0
0

