-0
-0
-0
-0
-0
-0
-0
-0
-0
-0
-0
-0
-0
-0
-0
-0
-0
-0
-0
-0
-0
-0
-0
-0
-0
-0
-0
-0
-0
-0
-0
-0
-0
-0
-0
-0
-0
-0
-0
-0
6.71504e-06
3.96254e-05
0.000128148
0.000302142
0.000582788
0.000978199
0.00148388
0.00208597
0.00276525
0.0035005
0.00427094
0.00505762
0.00584406
0.00661651
0.00736385
0.00807735
0.00875049
0.00937861
0.00995874
0.0104893
0.0109699
0.0114011
0.0117842
0.0121213
0.0124146
0.0126671
0.0128814
0.0130607
0.0132079
0.0133259
0.0134176
0.0134857
0.0135326
0.0135608
0.0135723
0.0135692
0.0135532
0.013526
0.013489
0.0134435
0.0133907
0.0133316
0.0132671
0.013198
0.0131251
0.0130489
0.01297
0.0128888
0.0128059
0.0127216
0.0126361
0.0125498
0.0124628
0.0123755
0.0122879
0.0122003
0.0121127
0.0120253
0.0119382
0.0118514
0.0117651
0.0116792
0.0115939
0.0115091
0.0114249
0.0113413
0.0112584
0.0111761
0.0110945
0.0110136
0.0109334
0.0108539
0.010775
0.0106969
0.0106194
0.0105426
0.0104665
0.0103911
0.0103163
0.0102422
0.0101687
0.0100959
0.0100237
0.00995213
0.00988119
0.00981086
0.00974113
0.00967198
0.00960343
0.00953545
0.00946803
0.00940118
0.00933487
0.00926911
0.00920389
0.00913919
0.00907501
0.00901135
0.00894819
0.00888553
0.00882336
0.00876168
0.00870048
0.00863976
0.0085795
0.0085197
0.00846037
0.00840148
0.00834304
0.00828503
0.00822747
0

