-0
-0
-0
-0
-0
-0
-0
-0
-0
-0
-0
-0
-0
-0
-0
-0
-0
-0
-0
-0
-0
-0
-0
-0
-0
-0
-0
-0
-0
-0
-0
-0
-0
-0
-0
-0
-0
-0
-0
-0
-0
-0
-0
-0
-0
-0
-0
-0
-0
-0
-0
-0
-0
-0
0.000358652
0.00148794
0.00350821
0.00622922
0.00931128
0.0124177
0.015293
0.0177795
0.0198032
0.0213502
0.0224451
0.0231336
0.0234718
0.0235179
0.0233279
0.0229534
0.0224397
0.021826
0.0211451
0.0204241
0.0196844
0.0189433
0.0182138
0.0175054
0.0168251
0.0161774
0.0155652
0.0149898
0.0144514
0.0139495
0.013483
0.0130502
0.0126494
0.0122786
0.0119356
0.0116186
0.0113253
0.0110539
0.0108025
0.0105693
0.0103528
0.0101513
0.00996363
0.00978838
0.00962442
0.00947068
0.00932622
0.00919016
0.00906171
0.00894018
0.00882491
0.00871533
0.00861094
0.00851126
0.00841587
0.00832439
0.0082365
0.00815188
0.00807026
0.0079914
0.00791506
0.00784105
0.0077692
0.00769932
0.00763129
0.00756496
0.00750021
0.00743694
0.00737504
0.00731442
0.00725501
0.00719672
0.00713949
0.00708325
0.00702796
0.00697355
0.00691998
0.00686721
0.00681519
0.0067639
0.00671328
0.00666333
0.006614
0.00656527
0.00651712
0.00646952
0.00642245
0.0063759
0.00632984
0.00628426
0.00623914
0.00619447
0.00615024
0.00610643
0.00606303
0.00602004
0.00597743
0

