-0
-0
-0
-0
-0
-0
-0
-0
-0
-0
-0
-0
-0
-0
-0
-0
-0
-0
-0
-0
-0
-0
-0
-0
-0
-0
-0
-0
-0
-0
-0
-0
-0
-0
-0
-0
-0
-0
-0
-0
-0
-0
-0
-0
-0
-0
-0
-0
-0
-0
-0
-0
-0
-0
-0
-0
-0
2.4307e-07
1.63721e-06
6.01716e-06
1.60455e-05
3.48254e-05
6.54278e-05
0.0001105
0.000172033
0.000251277
0.000348777
0.000464463
0.000597775
0.000747779
0.000913284
0.00109293
0.00128527
0.00148882
0.00170209
0.00192366
0.00215215
0.00238625
0.00262476
0.00286656
0.0031106
0.00335596
0.00360177
0.00384728
0.00409179
0.0043347
0.00457546
0.00481359
0.00504868
0.00528037
0.00550833
0.00573232
0.00595209
0.00616747
0.00637829
0.00658443
0.00678579
0.00698231
0.00717392
0.00736059
0.0075423
0.00771906
0.00789087
0.00805776
0.00821975
0.0083769
0.00852924
0.00867684
0.00881975
0.00895803
0.00909177
0.00922102
0.00934588
0.0094664
0.00958268
0.00969479
0.00980281
0.00990683
0.0100069
0.0101032
0.0101957
0.0102845
0.0103697
0.0104514
0.0105297
0.0106046
0.0106762
0.0107447
0.01081
0.0108722
0.0109315
0.0109878
0.0110413
0.0110921
0.0111401
0.0111855
0.0112283
0.0112686
0.0113065
0.011342
0.0113751
0.011406
0.0114347
0.0114612
0.0114856
0.0115079
0.0115283
0.0115467
0.0115632
0.0115779
0.0115907

