-0
-0
-0
-0
-0
-0
-0
-0
-0
-0
-0
-0
-0
-0
-0
-0
-0
-0
-0
-0
-0
-0
-0
-0
-0
-0
-0
-0
-0
-0
-0
-0
-0
-0
-0
-0
-0
-0
-0
-0
-0
-0
-0
-0
-0
-0
-0
-0
-0
-0
-0
-0
-0
-0
-0
-0
-0
1.20975e-06
6.99682e-06
2.24059e-05
5.27651e-05
0.000102394
0.00017394
0.000268326
0.000385062
0.000522676
0.000679118
0.000852073
0.00103918
0.00123818
0.00144695
0.00166361
0.00188645
0.002114
0.00234496
0.0025782
0.00281274
0.00304776
0.00328252
0.0035164
0.00374886
0.00397945
0.00420777
0.00443348
0.00465627
0.00487591
0.00509218
0.00530489
0.00551389
0.00571905
0.00592026
0.00611743
0.00631049
0.00649938
0.00668406
0.0068645
0.00704067
0.00721257
0.00738019
0.00754354
0.00770262
0.00785746
0.00800808
0.00815451
0.00829679
0.00843495
0.00856902
0.00869907
0.00882512
0.00894724
0.00906547
0.00917986
0.00929047
0.00939737
0.00950059
0.0096002
0.00969627
0.00978885
0.00987799
0.00996376
0.0100462
0.0101254
0.0102015
0.0102744
0.0103442
0.010411
0.0104749
0.0105358
0.010594
0.0106493
0.010702
0.0107519
0.0107993
0.0108441
0.0108865
0.0109264
0.0109639
0.010999
0.0110319
0.0110626
0.0110911
0.0111174
0.0111416
0.0111639
0.0111841
0.0112024
0.0112188
0.0112333
0.0112461
0.011257
0.0112663

