-0
-0
-0
-0
-0
-0
-0
-0
-0
-0
-0
-0
-0
-0
-0
-0
-0
-0
-0
-0
-0
-0
-0
-0
-0
-0
-0
-0
-0
-0
-0
-0
-0
-0
-0
-0
-0
-0
-0
-0
-0
-0
-0
-0
-0
-0
-0
-0
-0
-0
-0
-0
-0
-0
-0
-0
-0
0.00714454
0.0161615
0.0236584
0.0288675
0.0321108
0.0339373
0.0348223
0.0351091
0.035026
0.0347189
0.0342788
0.0337617
0.0332017
0.0326196
0.0320281
0.0314348
0.0308442
0.0302592
0.0296814
0.0291119
0.0285512
0.0279996
0.0274573
0.0269244
0.0264008
0.0258866
0.0253816
0.0248857
0.0243989
0.023921
0.0234519
0.0229915
0.0225397
0.0220963
0.0216613
0.0212344
0.0208156
0.0204047
0.0200016
0.0196061
0.0192182
0.0188377
0.0184645
0.0180985
0.0177394
0.0173873
0.017042
0.0167033
0.0163712
0.0160455
0.0157261
0.015413
0.0151059
0.0148048
0.0145096
0.0142201
0.0139363
0.013658
0.0133852
0.0131177
0.0128555
0.0125984
0.0123464
0.0120993
0.0118571
0.0116197
0.011387
0.0111588
0.0109352
0.0107159
0.010501
0.0102904
0.0100839
0.00988156
0.00968319
0.00948877
0.0092982
0.00911142
0.00892836
0.00874893
0.00857308
0.00840073
0.00823181
0.00806626
0.00790401
0.00774499
0.00758916
0.00743643
0.00728675
0.00714007
0.00699632
0.00685544
0.00671739
0.0065821

