-0
-0
-0
-0
-0
-0
-0
-0
-0
-0
-0
-0
-0
-0
-0
-0
-0
-0
-0
-0
-0
-0
-0
-0
-0
-0
-0
-0
-0
-0
-0
-0
-0
-0
-0
-0
-0
-0
-0
-0
-0
-0
-0
-0
-0
-0
-0
-0
-0
-0
-0
-0
-0
-0
-0
-0
-0
3.56758e-06
1.8659e-05
5.46281e-05
0.000118795
0.000214793
0.000342698
0.000500047
0.000682975
0.000887114
0.00110817
0.00134222
0.00158586
0.00183621
0.00209088
0.00234793
0.00260577
0.00286316
0.00311909
0.00337275
0.00362351
0.00387089
0.0041145
0.00435403
0.00458925
0.00481998
0.00504609
0.00526748
0.00548407
0.00569582
0.0059027
0.00610469
0.00630179
0.006494
0.00668135
0.00686386
0.00704156
0.00721448
0.00738267
0.00754617
0.00770502
0.00785929
0.00800902
0.00815427
0.00829511
0.00843158
0.00856377
0.00869171
0.00881549
0.00893518
0.00905082
0.0091625
0.00927028
0.00937423
0.00947442
0.00957091
0.00966378
0.00975309
0.00983892
0.00992132
0.0100004
0.0100761
0.0101487
0.0102181
0.0102844
0.0103476
0.010408
0.0104654
0.01052
0.0105718
0.0106209
0.0106674
0.0107113
0.0107526
0.0107915
0.0108279
0.010862
0.0108938
0.0109233
0.0109506
0.0109758
0.0109989
0.0110199
0.0110389
0.011056
0.0110712
0.0110845
0.0110961
0.0111058
0.0111139
0.0111202
0.0111249
0.0111281
0.0111297
0.0111297

