-0
-0
-0
-0
-0
-0
-0
-0
-0
-0
-0
-0
-0
-0
-0
-0
-0
-0
-0
-0
-0
-0
-0
-0
-0
-0
-0
-0
-0
-0
-0
-0
-0
-0
-0
-0
-0
-0
-0
-0
-0
-0
-0
-0
-0
-0
-0
-0
-0
-0
-0
-0
-0
-0
-0
-0
-0
0.00182824
0.00465887
0.0074947
0.00990404
0.0118218
0.0133164
0.0144787
0.015386
0.0160965
0.0166529
0.0170861
0.0174196
0.0176708
0.0178538
0.0179794
0.0180567
0.018093
0.0180943
0.0180659
0.0180119
0.0179362
0.0178419
0.0177316
0.0176077
0.0174721
0.0173267
0.017173
0.0170122
0.0168455
0.016674
0.0164984
0.0163196
0.0161383
0.015955
0.0157702
0.0155844
0.0153981
0.0152116
0.0150251
0.014839
0.0146535
0.0144688
0.0142851
0.0141025
0.0139213
0.0137415
0.0135633
0.0133866
0.0132117
0.0130386
0.0128673
0.0126979
0.0125305
0.012365
0.0122015
0.01204
0.0118806
0.0117232
0.0115679
0.0114146
0.0112634
0.0111142
0.0109672
0.0108221
0.0106791
0.0105381
0.0103992
0.0102622
0.0101272
0.00999419
0.00986312
0.00973397
0.00960674
0.00948139
0.00935791
0.00923628
0.00911647
0.00899846
0.00888223
0.00876775
0.008655
0.00854396
0.00843461
0.00832692
0.00822087
0.00811643
0.00801358
0.0079123
0.00781257
0.00771435
0.00761764
0.0075224
0.00742862
0.00733626

