-0
-0
-0
-0
-0
-0
-0
-0
-0
-0
-0
-0
-0
-0
-0
-0
-0
-0
-0
-0
-0
-0
-0
-0
-0
-0
-0
-0
-0
-0
-0
-0
-0
-0
-0
-0
-0
-0
-0
-0
-0
-0
-0
-0
-0
-0
-0
-0
-0
-0
-0
-0
-0
-0
-0
-0
-0
0.00947894
0.0167901
0.0212023
0.0236591
0.0249273
0.0254869
0.0256253
0.0255134
0.0252535
0.0249071
0.0245112
0.0240883
0.0236521
0.0232107
0.0227691
0.0223306
0.0218968
0.021469
0.0210476
0.0206333
0.020226
0.019826
0.0194332
0.0190477
0.0186693
0.018298
0.0179337
0.0175763
0.0172258
0.016882
0.0165447
0.016214
0.0158897
0.0155717
0.0152599
0.0149542
0.0146544
0.0143605
0.0140724
0.0137899
0.013513
0.0132416
0.0129755
0.0127146
0.0124589
0.0122083
0.0119627
0.0117219
0.0114859
0.0112546
0.0110278
0.0108056
0.0105879
0.0103744
0.0101653
0.00996025
0.00975934
0.00956245
0.00936949
0.0091804
0.00899509
0.00881349
0.00863553
0.00846114
0.00829024
0.00812278
0.00795867
0.00779787
0.00764029
0.00748588
0.00733457
0.00718631
0.00704103
0.00689867
0.00675918
0.0066225
0.00648857
0.00635734
0.00622876
0.00610276
0.00597931
0.00585835
0.00573983
0.0056237
0.00550992
0.00539843
0.0052892
0.00518217
0.0050773
0.00497455
0.00487388
0.00477525
0.00467861
0.00458392

