-0
-0
-0
-0
-0
-0
-0
-0
-0
-0
-0
-0
-0
-0
-0
-0
-0
-0
-0
-0
-0
-0
-0
-0
-0
-0
-0
-0
-0
-0
-0
-0
-0
-0
-0
-0
-0
-0
-0
-0
-0
-0
-0
-0
-0
-0
-0
-0
-0
-0
-0
-0
-0
-0
-0
-0
-0
6.47974e-08
4.93087e-07
2.02387e-06
5.96188e-06
1.415e-05
2.8799e-05
5.224e-05
8.6675e-05
0.000133978
0.000195568
0.000272363
0.000364779
0.000472787
0.000595973
0.000733624
0.0008848
0.00104841
0.00122326
0.00140811
0.00160172
0.00180286
0.00201037
0.00222311
0.00244004
0.00266018
0.00288264
0.00310658
0.00333126
0.00355601
0.00378022
0.00400335
0.00422492
0.0044445
0.00466172
0.00487625
0.00508782
0.00529616
0.00550108
0.00570239
0.00589995
0.00609363
0.00628333
0.00646897
0.00665049
0.00682784
0.007001
0.00716994
0.00733466
0.00749516
0.00765146
0.00780358
0.00795154
0.00809537
0.00823513
0.00837084
0.00850256
0.00863033
0.00875422
0.00887427
0.00899054
0.0091031
0.00921199
0.00931729
0.00941906
0.00951735
0.00961224
0.00970377
0.00979203
0.00987706
0.00995894
0.0100377
0.0101135
0.0101862
0.0102561
0.0103231
0.0103873
0.0104488
0.0105076
0.0105638
0.0106174
0.0106685
0.0107172
0.0107634
0.0108073
0.0108489
0.0108883
0.0109254
0.0109604
0.0109934
0.0110242
0.0110531
0.0110799
0.0111049
0.011128

