-0
-0
-0
-0
-0
-0
-0
-0
-0
-0
-0
-0
-0
-0
-0
-0
-0
-0
-0
-0
-0
-0
-0
-0
-0
-0
-0
-0
-0
-0
-0
-0
-0
-0
-0
-0
-0
-0
-0
-0
-0
-0
-0
-0
-0
-0
-0
-0
-0
-0
-0
-0
-0
-0
-0
-0
-0
9.95196e-05
0.00041442
0.00098873
0.00178865
0.00273984
0.00376319
0.00479399
0.00578738
0.00671629
0.00756713
0.00833539
0.00902221
0.00963194
0.0101705
0.0106445
0.0110605
0.0114247
0.0117429
0.0120203
0.0122618
0.0124714
0.0126528
0.0128093
0.0129437
0.0130586
0.0131561
0.0132381
0.0133064
0.0133624
0.0134075
0.0134427
0.0134691
0.0134876
0.013499
0.0135039
0.0135031
0.013497
0.0134861
0.0134709
0.0134519
0.0134292
0.0134033
0.0133744
0.0133428
0.0133088
0.0132724
0.013234
0.0131937
0.0131516
0.013108
0.0130628
0.0130163
0.0129685
0.0129196
0.0128696
0.0128187
0.0127668
0.0127142
0.0126608
0.0126066
0.0125519
0.0124965
0.0124406
0.0123842
0.0123274
0.0122702
0.0122125
0.0121546
0.0120963
0.0120377
0.0119789
0.0119199
0.0118607
0.0118012
0.0117417
0.011682
0.0116222
0.0115623
0.0115023
0.0114422
0.0113821
0.011322
0.0112618
0.0112017
0.0111415
0.0110814
0.0110213
0.0109612
0.0109012
0.0108413
0.0107814
0.0107216
0.0106619
0.0106022

