-0
-0
-0
-0
-0
-0
-0
-0
-0
-0
-0
-0
-0
-0
-0
-0
-0
-0
-0
-0
-0
-0
-0
-0
-0
-0
-0
-0
-0
-0
-0
-0
-0
-0
-0
-0
-0
-0
-0
-0
-0
-0
-0
-0
-0
-0
-0
-0
-0
-0
-0
-0
-0
-0
-0
-0
-0
0.00709315
0.0140416
0.0186273
0.0212274
0.0225954
0.0232723
0.0235704
0.0236563
0.0236171
0.0234994
0.0233292
0.0231218
0.022887
0.0226314
0.02236
0.0220763
0.0217831
0.0214827
0.0211769
0.0208672
0.0205549
0.0202411
0.0199267
0.0196124
0.0192989
0.0189867
0.0186763
0.0183682
0.0180626
0.0177598
0.0174601
0.0171637
0.0168708
0.0165814
0.0162958
0.0160141
0.0157362
0.0154623
0.0151924
0.0149265
0.0146647
0.014407
0.0141533
0.0139037
0.0136582
0.0134167
0.0131792
0.0129457
0.0127162
0.0124906
0.0122688
0.0120509
0.0118368
0.0116265
0.0114198
0.0112168
0.0110175
0.0108217
0.0106294
0.0104405
0.0102551
0.0100731
0.00989432
0.00971882
0.00954653
0.0093774
0.00921137
0.00904839
0.00888841
0.00873138
0.00857725
0.00842598
0.0082775
0.00813178
0.00798877
0.00784841
0.00771067
0.00757549
0.00744283
0.00731265
0.00718489
0.00705952
0.00693649
0.00681576
0.00669729
0.00658104
0.00646696
0.00635502
0.00624517
0.00613737
0.0060316
0.00592781
0.00582596
0.00572602

