-0
-0
-0
-0
-0
-0
-0
-0
-0
-0
-0
-0
-0
-0
-0
-0
-0
-0
-0
-0
-0
-0
-0
-0
-0
-0
-0
-0
-0
-0
-0
-0
-0
-0
-0
-0
-0
-0
-0
-0
-0
-0
-0
-0
-0
-0
-0
-0
-0
-0
-0
-0
-0
-0
-0
-0
-0
4.96498e-06
2.67625e-05
8.01433e-05
0.000177106
0.000323634
0.000519492
0.000759852
0.00103736
0.00134389
0.0016716
0.00201362
0.00236418
0.00271866
0.00307344
0.00342575
0.00377351
0.0041152
0.0044497
0.00477625
0.00509431
0.00540355
0.00570378
0.0059949
0.0062769
0.00654985
0.00681384
0.007069
0.00731549
0.00755348
0.00778314
0.00800468
0.00821828
0.00842415
0.00862248
0.00881348
0.00899734
0.00917426
0.00934443
0.00950804
0.00966526
0.0098163
0.00996131
0.0101005
0.010234
0.0103619
0.0104846
0.010602
0.0107143
0.0108218
0.0109245
0.0110226
0.0111161
0.0112054
0.0112904
0.0113712
0.0114481
0.0115211
0.0115904
0.0116559
0.011718
0.0117765
0.0118318
0.0118837
0.0119325
0.0119782
0.012021
0.0120608
0.0120978
0.0121321
0.0121637
0.0121927
0.0122192
0.0122433
0.0122649
0.0122843
0.0123014
0.0123164
0.0123292
0.01234
0.0123488
0.0123556
0.0123605
0.0123637
0.012365
0.0123646
0.0123625
0.0123587
0.0123534
0.0123465
0.0123382
0.0123284
0.0123171
0.0123045
0.0122906

