-0
-0
-0
-0
-0
-0
-0
-0
-0
-0
-0
-0
-0
-0
-0
-0
-0
-0
-0
-0
-0
-0
-0
-0
-0
-0
-0
-0
-0
-0
-0
-0
-0
-0
-0
-0
-0
-0
-0
-0
-0
-0
-0
-0
-0
-0
-0
-0
-0
-0
-0
-0
-0
-0
-0
-0
-0
2.88439e-06
1.68512e-05
5.41162e-05
0.000126997
0.000244255
0.00040939
0.000620879
0.000873545
0.00116019
0.001473
0.00180446
0.00214798
0.002498
0.0028501
0.00320085
0.00354767
0.00388868
0.00422254
0.00454835
0.00486552
0.00517369
0.00547269
0.00576246
0.00604306
0.00631457
0.00657716
0.006831
0.00707627
0.0073132
0.00754199
0.00776287
0.00797603
0.00818171
0.0083801
0.00857142
0.00875586
0.00893362
0.00910488
0.00926984
0.00942867
0.00958154
0.00972862
0.00987008
0.0100061
0.0101367
0.0102623
0.0103827
0.0104984
0.0106092
0.0107155
0.0108172
0.0109146
0.0110078
0.0110968
0.0111818
0.0112629
0.0113402
0.0114138
0.0114837
0.0115502
0.0116133
0.0116731
0.0117296
0.0117831
0.0118334
0.0118808
0.0119253
0.0119669
0.0120058
0.0120421
0.0120757
0.0121069
0.0121355
0.0121618
0.0121857
0.0122073
0.0122268
0.0122441
0.0122593
0.0122724
0.0122836
0.0122928
0.0123002
0.0123057
0.0123094
0.0123114
0.0123117
0.0123104
0.0123075
0.012303
0.012297
0.0122895
0.0122807
0.0122704

