-0
-0
-0
-0
-0
-0
-0
-0
-0
-0
-0
-0
-0
-0
-0
-0
-0
-0
-0
-0
-0
-0
-0
-0
-0
-0
-0
-0
-0
-0
-0
-0
-0
-0
-0
-0
-0
-0
-0
-0
-0
-0
-0
-0
-0
-0
-0
-0
-0
-0
-0
-0
-0
-0
-0
-0
-0
8.5765e-05
0.000401527
0.0010595
0.00208959
0.00344636
0.0050424
0.00678038
0.00857323
0.0103527
0.0120702
0.0136945
0.0152078
0.0166017
0.0178747
0.0190294
0.0200712
0.0210068
0.0218437
0.0225895
0.0232518
0.0238376
0.0243537
0.0248062
0.0252011
0.0255434
0.025838
0.0260892
0.0263011
0.0264771
0.0266205
0.0267344
0.0268213
0.0268837
0.0269239
0.0269437
0.026945
0.0269294
0.0268985
0.0268536
0.026796
0.0267268
0.0266469
0.0265575
0.0264592
0.026353
0.0262395
0.0261193
0.0259931
0.0258615
0.0257249
0.0255838
0.0254386
0.0252897
0.0251375
0.0249823
0.0248245
0.0246642
0.0245017
0.0243373
0.0241713
0.0240037
0.0238349
0.0236649
0.0234939
0.0233221
0.0231496
0.0229765
0.022803
0.0226291
0.022455
0.0222808
0.0221065
0.0219322
0.021758
0.021584
0.0214102
0.0212367
0.0210635
0.0208907
0.0207184
0.0205466
0.0203752
0.0202045
0.0200344
0.0198649
0.019696
0.0195279
0.0193605
0.0191938
0.0190279
0.0188628
0.0186986
0.0185351
0.0183725

