-0
-0
-0
-0
-0
-0
-0
-0
-0
-0
-0
-0
-0
-0
-0
-0
-0
-0
-0
-0
-0
-0
-0
-0
-0
-0
-0
-0
-0
-0
-0
-0
-0
-0
-0
-0
-0
-0
-0
-0
-0
-0
-0
-0
-0
-0
-0
-0
-0
-0
-0
-0
-0
-0
-0
-0
-0
1.89548e-07
1.41552e-06
5.69884e-06
1.64639e-05
3.8329e-05
7.65553e-05
0.000136377
0.000222416
0.000338293
0.000486455
0.000668169
0.000883643
0.00113219
0.00141245
0.0017225
0.00206012
0.00242283
0.00280804
0.00321312
0.00363547
0.00407257
0.00452198
0.00498138
0.0054486
0.00592162
0.00639852
0.00687758
0.0073572
0.00783591
0.00831239
0.00878543
0.00925396
0.00971701
0.0101737
0.0106233
0.0110652
0.0114987
0.0119234
0.0123388
0.0127445
0.0131403
0.0135259
0.0139011
0.0142658
0.0146198
0.0149632
0.0152957
0.0156176
0.0159286
0.016229
0.0165188
0.016798
0.0170669
0.0173253
0.0175737
0.0178119
0.0180403
0.018259
0.0184681
0.0186678
0.0188583
0.0190398
0.0192124
0.0193764
0.0195319
0.0196792
0.0198183
0.0199496
0.0200731
0.0201892
0.0202978
0.0203994
0.0204939
0.0205817
0.0206628
0.0207375
0.0208059
0.0208682
0.0209246
0.0209752
0.0210202
0.0210597
0.0210939
0.021123
0.0211471
0.0211663
0.0211808
0.0211907
0.0211961
0.0211973
0.0211942
0.0211871
0.0211761
0.0211612

