-0
-0
-0
-0
-0
-0
-0
-0
-0
-0
-0
-0
-0
-0
-0
-0
-0
-0
-0
-0
-0
-0
-0
-0
-0
-0
-0
-0
-0
-0
-0
-0
-0
-0
-0
-0
-0
-0
-0
-0
-0
-0
-0
-0
-0
-0
-0
-0
-0
-0
-0
-0
-0
-0
-0
-0
-0
0.01094
0.0172351
0.0201996
0.0214777
0.021935
0.0219851
0.0218265
0.0215578
0.0212303
0.0208717
0.0204975
0.0201167
0.0197347
0.0193545
0.018978
0.0186064
0.0182403
0.0178801
0.017526
0.0171782
0.0168367
0.0165015
0.0161725
0.0158497
0.015533
0.0152223
0.0149176
0.0146188
0.0143257
0.0140383
0.0137566
0.0134803
0.0132094
0.0129439
0.0126835
0.0124283
0.0121781
0.0119329
0.0116925
0.0114569
0.011226
0.0109996
0.0107778
0.0105603
0.0103472
0.0101384
0.00993367
0.00973307
0.00953648
0.00934382
0.00915502
0.00897001
0.0087887
0.00861102
0.00843691
0.0082663
0.00809912
0.00793529
0.00777476
0.00761745
0.00746331
0.00731227
0.00716428
0.00701927
0.00687717
0.00673795
0.00660153
0.00646786
0.00633689
0.00620856
0.00608282
0.00595962
0.00583891
0.00572064
0.00560476
0.00549122
0.00537998
0.00527099
0.0051642
0.00505957
0.00495706
0.00485662
0.00475821
0.0046618
0.00456734
0.0044748
0.00438412
0.00429529
0.00420825
0.00412298
0.00403944
0.00395759
0.0038774
0.00379883

