-0
-0
-0
-0
-0
-0
-0
-0
-0
-0
-0
-0
-0
-0
-0
-0
-0
-0
-0
-0
-0
-0
-0
-0
-0
-0
-0
-0
-0
-0
-0
-0
-0
-0
-0
-0
-0
-0
-0
-0
-0
-0
-0
-0
-0
-0
-0
-0
-0
-0
-0
-0
-0
-0
-0
-0
-0
0.0103037
0.0180871
0.0222538
0.0241696
0.0249184
0.0250959
0.0249959
0.0247584
0.0244503
0.0241046
0.0237379
0.0233596
0.0229749
0.0225873
0.0221988
0.0218111
0.0214253
0.0210422
0.0206625
0.0202866
0.0199149
0.0195478
0.0191855
0.0188282
0.018476
0.0181291
0.0177875
0.0174513
0.0171205
0.0167951
0.0164752
0.0161607
0.0158517
0.015548
0.0152497
0.0149567
0.014669
0.0143864
0.0141091
0.0138368
0.0135695
0.0133072
0.0130498
0.0127972
0.0125493
0.0123061
0.0120676
0.0118336
0.011604
0.0113788
0.0111579
0.0109413
0.0107288
0.0105205
0.0103161
0.0101158
0.00991927
0.00972659
0.00953766
0.0093524
0.00917076
0.00899266
0.00881804
0.00864684
0.00847898
0.00831442
0.00815309
0.00799492
0.00783985
0.00768784
0.00753881
0.00739272
0.0072495
0.00710911
0.00697148
0.00683656
0.00670431
0.00657467
0.00644758
0.00632301
0.00620089
0.00608119
0.00596386
0.00584884
0.0057361
0.00562559
0.00551726
0.00541108
0.005307
0.00520497
0.00510497
0.00500695
0.00491086
0.00481668

