-0
-0
-0
-0
-0
-0
-0
-0
-0
-0
-0
-0
-0
-0
-0
-0
-0
-0
-0
-0
-0
-0
-0
-0
-0
-0
-0
-0
-0
-0
-0
-0
-0
-0
-0
-0
-0
-0
-0
-0
-0
-0
-0
-0
-0
-0
-0
-0
-0
-0
-0
-0
-0
-0
-0
-0
-0
3.20973e-06
1.80306e-05
5.60134e-05
0.00012788
0.000240527
0.000396107
0.000592712
0.000825741
0.00108926
0.00137702
0.00168311
0.00200229
0.00233009
0.00266282
0.00299746
0.00333161
0.00366338
0.00399126
0.00431411
0.00463103
0.00494135
0.00524457
0.00554031
0.00582833
0.00610846
0.0063806
0.00664472
0.00690082
0.00714895
0.00738918
0.0076216
0.00784634
0.00806352
0.00827327
0.00847575
0.00867112
0.00885952
0.00904112
0.00921609
0.00938459
0.00954678
0.00970282
0.00985287
0.00999709
0.0101356
0.0102687
0.0103963
0.0105188
0.0106361
0.0107485
0.0108561
0.0109591
0.0110575
0.0111515
0.0112412
0.0113267
0.0114082
0.0114857
0.0115594
0.0116294
0.0116958
0.0117586
0.011818
0.0118742
0.011927
0.0119768
0.0120234
0.0120671
0.012108
0.012146
0.0121813
0.0122139
0.0122439
0.0122715
0.0122966
0.0123193
0.0123397
0.0123579
0.0123739
0.0123877
0.0123995
0.0124093
0.0124172
0.0124231
0.0124272
0.0124295
0.0124301
0.012429
0.0124262
0.0124218
0.0124159
0.0124085
0.0123995
0.0123892

