-0
-0
-0
-0
-0
-0
-0
-0
-0
-0
-0
-0
-0
-0
-0
-0
-0
-0
-0
-0
-0
-0
-0
-0
-0
-0
-0
-0
-0
-0
-0
-0
-0
-0
-0
-0
-0
-0
-0
-0
-0
-0
-0
-0
-0
-0
-0
-0
-0
-0
-0
-0
-0
-0
-0
-0
-0
5.58481e-08
4.606e-07
2.03098e-06
6.37542e-06
1.60056e-05
3.4228e-05
6.48495e-05
0.00011179
0.0001787
0.000268667
0.00038402
0.000526264
0.000696089
0.000893451
0.00111769
0.00136763
0.00164176
0.00193827
0.00225519
0.00259048
0.00294204
0.00330782
0.00368579
0.00407404
0.00447071
0.00487407
0.0052825
0.0056945
0.00610866
0.0065237
0.00693844
0.00735183
0.00776287
0.0081707
0.00857452
0.00897362
0.00936738
0.00975523
0.0101367
0.0105113
0.0108787
0.0112386
0.0115907
0.0119348
0.0122707
0.0125981
0.0129171
0.0132275
0.0135293
0.0138224
0.0141068
0.0143825
0.0146496
0.014908
0.0151578
0.0153992
0.0156321
0.0158567
0.0160731
0.0162813
0.0164815
0.0166738
0.0168584
0.0170353
0.0172046
0.0173666
0.0175213
0.0176689
0.0178096
0.0179433
0.0180704
0.0181909
0.018305
0.0184129
0.0185145
0.0186102
0.0187
0.018784
0.0188625
0.0189354
0.0190031
0.0190655
0.0191228
0.0191751
0.0192226
0.0192654
0.0193036
0.0193373
0.0193666
0.0193917
0.0194126
0.0194294
0.0194423
0.0194514

