-0
-0
-0
-0
-0
-0
-0
-0
-0
-0
-0
-0
-0
-0
-0
-0
-0
-0
-0
-0
-0
-0
-0
-0
-0
-0
-0
-0
-0
-0
-0
-0
-0
-0
-0
-0
-0
-0
-0
-0
-0
-0
-0
-0
-0
-0
-0
-0
-0
-0
-0
-0
-0
-0
-0
-0
-0
6.13312e-06
3.23422e-05
9.5016e-05
0.000206495
0.000371876
0.000589371
0.000852487
0.00115245
0.00148007
0.00182686
0.00218557
0.00255028
0.00291641
0.00328045
0.00363981
0.00399262
0.00433755
0.00467373
0.00500057
0.00531774
0.00562506
0.0059225
0.0062101
0.00648798
0.0067563
0.00701525
0.00726504
0.0075059
0.00773806
0.00796175
0.00817721
0.00838468
0.00858438
0.00877654
0.00896138
0.00913913
0.00930999
0.00947416
0.00963185
0.00978325
0.00992855
0.0100679
0.0102016
0.0103296
0.0104523
0.0105697
0.0106821
0.0107895
0.0108921
0.01099
0.0110835
0.0111726
0.0112574
0.0113381
0.0114147
0.0114875
0.0115566
0.0116219
0.0116837
0.011742
0.011797
0.0118487
0.0118973
0.0119427
0.0119852
0.0120248
0.0120616
0.0120956
0.0121269
0.0121557
0.012182
0.0122058
0.0122272
0.0122464
0.0122633
0.012278
0.0122906
0.0123011
0.0123097
0.0123163
0.012321
0.0123239
0.012325
0.0123244
0.0123221
0.0123182
0.0123127
0.0123056
0.0122971
0.0122871
0.0122757
0.0122629
0.0122488
0.0122334

