-0
-0
-0
-0
-0
-0
-0
-0
-0
-0
-0
-0
-0
-0
-0
-0
-0
-0
-0
-0
-0
-0
-0
-0
-0
-0
-0
-0
-0
-0
-0
-0
-0
-0
-0
-0
-0
-0
-0
-0
-0
-0
-0
-0
-0
-0
-0
-0
-0
-0
-0
-0
-0
-0
-0
-0
-0
4.02497e-08
3.09431e-07
1.28474e-06
3.83246e-06
9.21921e-06
1.90306e-05
3.50292e-05
5.89949e-05
9.25809e-05
0.000137206
0.000193988
0.000263716
0.00034685
0.000443545
0.000553682
0.000676913
0.000812701
0.000960361
0.0011191
0.00128803
0.00146625
0.0016528
0.00184672
0.00204709
0.00225296
0.00246347
0.00267775
0.00289502
0.0031145
0.00333549
0.00355735
0.00377946
0.00400127
0.00422227
0.004442
0.00466004
0.00487601
0.00508959
0.00530047
0.0055084
0.00571312
0.00591446
0.00611223
0.00630628
0.00649648
0.00668274
0.00686497
0.00704311
0.00721709
0.00738688
0.00755247
0.00771384
0.00787098
0.00802391
0.00817264
0.00831719
0.00845761
0.00859391
0.00872615
0.00885436
0.00897861
0.00909893
0.00921539
0.00932805
0.00943696
0.00954218
0.00964378
0.00974183
0.00983638
0.0099275
0.0100153
0.0100997
0.0101809
0.010259
0.0103339
0.0104058
0.0104748
0.0105408
0.0106039
0.0106643
0.0107219
0.0107769
0.0108293
0.0108791
0.0109264
0.0109712
0.0110137
0.0110539
0.0110918
0.0111274
0.0111609
0.0111922
0.0112215
0.0112488

