-14930.3
-0.0221924
-0.00760968
-0.00336254
-0.00141458
-0.000313338
0.00038139
0.000852175
0.00118962
0.00144349
0.00164277
0.00180509
0.00194137
0.00205847
0.00216051
0.00224976
0.00232715
0.0023928
0.00244633
0.00248718
0.00251476
0.00252859
0.00252836
0.00251398
0.00248551
0.00244322
0.00238751
0.0023189
0.00223801
0.00214553
0.00204218
0.00192874
0.001806
0.00167473
0.00153572
0.00138974
0.00123753
0.00107981
0.000917267
0.000750562
0.000580318
0.000407122
0.000231531
5.40622e-05
-0.000124798
-0.000304598
-0.000484919
-0.000665374
-0.000845604
-0.00102528
-0.00120411
-0.00138181
-0.00155814
-0.00173286
-0.00190577
-0.00207669
-0.00224545
-0.00241191
-0.00257592
-0.00273739
-0.0028962
-0.00305227
-0.00320552
-0.00335588
-0.00350331
-0.00364776
-0.00378918
-0.00392756
-0.00406288
-0.00419511
-0.00432425
-0.0044503
-0.00457326
-0.00469314
-0.00480995
-0.00492371
-0.00503443
-0.00514214
-0.00524686
-0.00534861
-0.00544744
-0.00554336
-0.00563642
-0.00572663
-0.00581405
-0.00589871
-0.00598064
-0.00605989
-0.0061365
-0.0062105
-0.00628193
-0.00635084
-0.00641726
-0.00648124
-0.00654281
-0.00660201
-0.00665889
-0.00671348
-0.00676583
-0.00681598
-0.00686396
-0.00690981
-0.00695358
-0.0069953
-0.00703501
-0.00707275
-0.00710855
-0.00714246
-0.00717451
-0.00720474
-0.00723317
-0.00725986
-0.00728483
-0.00730811
-0.00732974
-0.00734976
-0.00736819
-0.00738507
-0.00740043
-0.0074143
-0.00742671
-0.00743769
-0.00744728
-0.00745549
-0.00746237
-0.00746793
-0.00747221
-0.00747523
-0.00747702
-0.0074776
-0.00747701
-0.00747526
-0.00747239
-0.00746841
-0.00746335
-0.00745723
-0.00745008
-0.00744192
-0.00743278
-0.00742266
-0.00741161
-0.00739962
-0.00738674
-0.00737298
-0.00735835
-0.00734288
-0.00732658
-0.00730949
-0.0072916
-0.00727295
-0.00725355
-0.00723342
-0.00721257
-0.00719103
-0.0071688
-0.00714591
-0.00712237
-0.0070982
-0.00707341
-0.00704802
-0.00702204
-0.00699549
-0.00696838
-0.00694072
-0.00691254
-0.00688383
-0.00685463
-0.00682493
-0.00679475
-0.00676411
-0.00673302
-0.00670149
-0.00666952
-0.00663715
-0.00660436
-0.00657118
-0.00653762
-0.00650368
-0.00646939
-0.00643474
-0.00639975
-0.00636443
-0.00632879
-0.00629284
-0.00625659
-0.00622004
-0.00618322
-0.00614611
-0.00610875
-0.00607112
-0.00603325
-0.00599514
-0.0059568
-0.00591823
-0.00587945
-0.00584046
-0.00580128
-0.0057619
-0.00572233
-0.00568259
-0.00564268
-0.0056026
-0.00556238
-0.005522
-0.00548148
-0.00544082
-0.00540004
-0.00535913
-0.0053181
-0.00527696
-0.00523572
-0.00519437
-0.00515293
-0.00511141
-0.00506979
-0.0050281
-0.00498634
-0.00494451
-0.00490261
-0.00486066
-0.00481866
-0.0047766
-0.00473451
-0.00469237
-0.0046502
-0.004608
-0.00456577
-0.00452352
-0.00448126
-0.00443898
-0.0043967
-0.0043544
-0.00431211
-0.00426982
-0.00422753
-0.00418526
-0.004143
-0.00410075
-0.00405853
-0.00401633
-0.00397415
-0.00393201
-0.0038899
-0.00384783
-0.00380579
-0.0037638
-0.00372186
-0.00367996
-0.00363811
-0.00359632
-0.00355458
-0.0035129
-0.00347129
-0.00342974
-0.00338825
-0.00334684
-0.00330549
-0.00326422
-0.00322303
-0.00318191
-0.00314087
-0.00309992
-0.00305905
-0.00301827
-0.00297757
-0.00293697
-0.00289646
-0.00285604
-0.00281572
-0.00277549
-0.00273537
-0.00269534
-0.00265542
-0.0026156
-0.00257589
-0.00253629
-0.00249679
-0.00245741
-0.00241814
-0.00237897
-0.00233993
-0.002301
-0.00226219
-0.00222349
-0.00218491
-0.00214646
-0.00210812
-0.00206991
-0.00203183
-0.00199386
-0.00195603
-0.00191832
-0.00188073
-0.00184328
-0.00180596
-0.00176876
-0.0017317
-0.00169477
-0.00165797
-0.00162131
-0.00158478
-0.00154839
-0.00151213
-0.00147601
-0.00144002
-0.00140417
-0.00136846
-0.00133289
-0.00129746
-0.00126217
-0.00122702
-0.00119201
-0.00115714
-0.00112242
-0.00108783
-0.00105339
-0.00101909
-0.000984937
-0.000950925
-0.000917057
-0.000883334
-0.000849755
-0.000816321
-0.000783032
-0.000749889
-0.000716891
-0.000684039
-0.000651333
-0.000618772
-0.000586358
-0.000554091
-0.00052197
-0.000489996
-0.000458168
-0.000426487
-0.000394954
-0.000363567
-0.000332327
-0.000301234
-0.000270288
-0.000239489
-0.000208837
-0.000178333
-0.000147975
-0.000117763
-8.76989e-05
-5.77816e-05
-2.80107e-05
1.61389e-06
3.10913e-05
6.04231e-05
8.96078e-05
0.000118648
0.00014754
0.000176288
0.00020489
0.000233346
0.000261657
0.000289824
0.000317845
0.000345722
0.000373454
0.000401041
0.000428486
0.000455786
0.000482943
0.000509957
0.000536827
0.000563556
0.000590142
0.000616585
0.000642887
0.000669048
0.000695067
0.000720946
0.000746683
0.00077228
0.000797738
0.000823056
0.000848235
0.000873275
0.000898176
0.00092294
0.000947566
0.000972054
0.000996406
0.00102062
0.0010447
0.00106864
0.00109245
0.00111612
0.00113966
0.00116306
0.00118633
0.00120947
0.00123248
0.00125535
0.00127809
0.00130069
0.00132317
0.00134552
0.00136773
0.00138982
0.00141178
0.0014336
0.0014553
0.00147687
0.00149832
0.00151963
0.00154082
0.00156189
0.00158283
0.00160364
0.00162433
0.00164489
0.00166533
0.00168565
0.00170584
0.00172592
0.00174587
0.0017657
0.0017854
0.00180499
0.00182446
0.00184381
0.00186304
0.00188215
0.00190114
0.00192002
0.00193878
0.00195742
0.00197595
0.00199436
0.00201266
0.00203084
0.00204891
0.00206687
0.00208471
0.00210244
0.00212006
0.00213757
0.00215497
0.00217225
0.00218943
0.0022065
0.00222346
0.00224031
0.00225705
0.00227369
0.00229022
0.00230664
0.00232296
0.00233918
0.00235528
0.00237129
0.00238719
0.00240299
0.00241868
0.00243428
0.00244977
0.00246516
0.00248045
0.00249564
0.00251073
0.00252572
0.00254062
0.00255541
0.00257011
0.00258471
0.00259922
0.00261363
0.00262794
0.00264216
0.00265628
0.00267032
0.00268425
0.0026981
0.00271185
0.00272551
0.00273908
0.00275255
0.00276594
0.00277924
0.00279244
0.00280556
0.00281859
0.00283154
0.00284439
0.00285716
0.00286984
0.00288243
0.00289494
0.00290737
0.00291971
0.00293196
0.00294413
0.00295622
0.00296823
0.00298015
0.00299199
0.00300375
0.00301543
0.00302703
0.00303855
0.00304999
0.00306135
0.00307264
0.00308384
0.00309497
0.00310602
0.00311699
0.00312789
0.00313871
0.00314946
0.00316013
0.00317072
0.00318125
0.00319169
0.00320207
0.00321237
0.00322261
0.00323277
0.00324285
0.00325287
0.00326282
0.00327269
0.0032825
0.00329224
0.00330191
0.00331151
0.00332104
0.00333051
0.00333991
0.00334924
0.0033585
0.0033677
0.00337683
0.0033859
0.00339491
0.00340385
0.00341272
0.00342153
0.00343028
0.00343897
0.00344759
0.00345616
0.00346466
0.0034731
0.00348148
0.0034898
0.00349806
0.00350626
0.0035144
0.00352248
0.0035305
0.00353847
0.00354638
0.00355423
0.00356202
0.00356976
0.00357744
0.00358507
0.00359264
0.00360015
0.00360762
0.00361502
0.00362237
0.00362967
0.00363692
0.00364411
0.00365125
0.00365834
0.00366537
0.00367236
0.00367929
0.00368617
0.003693
0.00369978
0.00370652
0.0037132
0.00371983
0.00372642
0.00373295
0.00373944
0.00374588
0.00375227
0.00375862
0.00376492
0.00377117
0.00377737
0.00378353
0.00378965
0.00379572
0.00380174
0.00380772
0.00381365
0.00381955
0.00382539
0.0038312
0.00383696
0.00384267
0.00384835
0.00385398
0.00385957
0.00386512
0.00387063
0.00387609
0.00388152
0.0038869
0.00389225
0.00389755
0.00390281
0.00390804
0.00391322
0.00391837
0.00392348
0.00392855
0.00393358
0.00393858
0.00394353
0.00394845
0.00395334
0.00395818
0.00396299
0.00396776
0.0039725
0.0039772
0.00398187
0.0039865
0.00399109
0.00399566
0.00400018
0.00400467
0.00400913
0.00401356
0.00401795
0.00402231
0.00402663
0.00403092
0.00403518
0.00403941
0.00404361
0.00404777
0.0040519
0.004056
0.00406007
0.00406411
0.00406812
0.0040721
0.00407604
0.00407996
0.00408385
0.0040877
0.00409153
0.00409533
0.0040991
0.00410284
0.00410656
0.00411024
0.0041139
0.00411753
0.00412113
0.0041247
0.00412825
0.00413176
0.00413526
0.00413872
0.00414216
0.00414557
0.00414896
0.00415232
0.00415565
0.00415896
0.00416225
0.0041655
0.00416874
0.00417195
0.00417513
0.00417829
0.00418142
0.00418454
0.00418762
0.00419069
0.00419373
0.00419674
0.00419974
0.00420271
0.00420565
0.00420858
0.00421148
0.00421436
0.00421722
0.00422005
0.00422287
0.00422566
0.00422843
0.00423118
0.00423391
0.00423662
0.0042393
0.00424197
0.00424461
0.00424724
0.00424984
0.00425243
0.00425499
0.00425754
0.00426006
0.00426257
0.00426505
0.00426752
0.00426996
0.00427239
0.0042748
0.00427719
0.00427957
0.00428192
0.00428426
0.00428658
0.00428888
0.00429116
0.00429342
0.00429567
0.0042979
0.00430011
0.00430231
0.00430449
0.00430665
0.00430879
0.00431092
0.00431303
0.00431513
0.00431721
0.00431927
0.00432132
0.00432335
0.00432536
0.00432736
0.00432935
0.00433132
0.00433327
0.00433521
0.00433713
0.00433904
0.00434093
0.00434281
0.00434468
0.00434653
0.00434836
0.00435018
0.00435199
0.00435378
0.00435556
0.00435733
0.00435908
0.00436082
0.00436254
0.00436425
0.00436595
0.00436764
0.00436931
0.00437097
0.00437261
0.00437425
0.00437587
0.00437748
0.00437907
0.00438065
0.00438222
0.00438378
0.00438533
0.00438686
0.00438839
0.0043899
0.0043914
0.00439288
0.00439436
0.00439582
0.00439728
0.00439872
0.00440015
0.00440157
0.00440298
0.00440438
0.00440576
0.00440714
0.0044085
0.00440986
0.0044112
0.00441254
0.00441386
0.00441517
0.00441648
0.00441777
0.00441905
0.00442033
0.00442159
0.00442284
0.00442409
0.00442532
0.00442654
0.00442776
0.00442897
0.00443016
0.00443135
0.00443253
0.0044337
0.00443486
0.00443601
0.00443715
0.00443828
0.00443941
0.00444052
0.00444163
0.00444273
0.00444382
0.0044449
0.00444597
0.00444704
0.00444809
0.00444914
0.00445018
0.00445122
0.00445224
0.00445326
0.00445427
0.00445527
0.00445626
0.00445725
0.00445822
0.0044592
0.00446016
0.00446111
0.00446206
0.004463
0.00446394
0.00446486
0.00446578
0.0044667
0.0044676
0.0044685
0.00446939
0.00447028
0.00447116
0.00447203
0.00447289
0.00447375
0.0044746
0.00447545
0.00447628
0.00447712
0.00447794
0.00447876
0.00447958
0.00448038
0.00448118
0.00448198
0.00448277
0.00448355
0.00448433
0.0044851
0.00448586
0.00448662
0.00448737
0.00448812
0.00448886
0.0044896
0.00449033
0.00449105
0.00449177
0.00449249
0.0044932
0.0044939
0.0044946
0.00449529
0.00449598
0.00449666
0.00449734
0.00449801
0.00449867
0.00449934
0.00449999
0.00450065
0.00450129
0.00450193
0.00450257
0.0045032
0.00450383
0.00450445
0.00450507
0.00450569
0.00450629
0.0045069
0.0045075
0.00450809
0.00450868
0.00450927
0.00450985
0.00451043
0.004511
0.00451157
0.00451214
0.0045127
0.00451325
0.00451381
0.00451435
0.0045149
0.00451544
0.00451597
0.0045165
0.00451703
0.00451756
0.00451808
0.00451859
0.0045191
0.00451961
0.00452012
0.00452062
0.00452112
0.00452161
0.0045221
0.00452259
0.00452307
0.00452355
0.00452402
0.0045245
0.00452496
0.00452543
0.00452589
0.00452635
0.0045268
0.00452726
0.0045277
0.00452815
0.00452859
0.00452903
0.00452946
0.0045299
0.00453033
0.00453075
0.00453117
0.00453159
0.00453201
0.00453242
0.00453283
0.00453324
0.00453365
0.00453405
0.00453445
0.00453484
0.00453523
0.00453562
0.00453601
0.0045364
0.00453678
0.00453716
0.00453753
0.00453791
0.00453828
0.00453864
0.00453901
0.00453937
0.00453973
0.00454009
0.00454044
0.0045408
0.00454115
0.00454149
0.00454184
0.00454218
0.00454252
0.00454286
0.00454319
0.00454353
0.00454386
0.00454419
0.00454451
0.00454483
0.00454516
0.00454547
0.00454579
0.00454611
0.00454642
0.00454673
0.00454703
0.00454734
0.00454764
0.00454794
0.00454824
0.00454854
0.00454884
0.00454913
0.00454942
0.00454971
0.00454999
0.00455028
0.00455056
0.00455084
0.00455112
0.0045514
0.00455167
0
0

