-14930.3
-0.0221924
-0.00760968
-0.00336254
-0.00141458
-0.000313338
0.00038139
0.000852175
0.00118962
0.00144349
0.00164277
0.00180509
0.00193883
0.00204409
0.00211555
0.00214658
0.00213238
0.00207141
0.00196534
0.00181819
0.00163535
0.00142274
0.00118623
0.000931221
0.000662546
0.000384358
0.000100169
-0.000187104
-0.000475061
-0.00076176
-0.00104564
-0.00132546
-0.00160025
-0.00186927
-0.00213196
-0.0023879
-0.00263682
-0.00287853
-0.00311293
-0.00333999
-0.00355974
-0.00377223
-0.00397757
-0.00417589
-0.00436733
-0.00455205
-0.00473023
-0.00490203
-0.00506765
-0.00522728
-0.00538109
-0.00552926
-0.00567199
-0.00580945
-0.00594181
-0.00606924
-0.0061919
-0.00630996
-0.00642356
-0.00653287
-0.006638
-0.00673911
-0.00683632
-0.00692975
-0.00701953
-0.00710576
-0.00718856
-0.00726803
-0.00734427
-0.00741738
-0.00748745
-0.00755457
-0.00761883
-0.0076803
-0.00773906
-0.00779519
-0.00784876
-0.00789984
-0.0079485
-0.00799479
-0.00803879
-0.00808054
-0.00812011
-0.00815755
-0.00819292
-0.00822626
-0.00825762
-0.00828706
-0.00831461
-0.00834033
-0.00836425
-0.00838643
-0.00840689
-0.00842568
-0.00844283
-0.00845839
-0.00847239
-0.00848486
-0.00849584
-0.00850537
-0.00851347
-0.00852018
-0.00852552
-0.00852953
-0.00853224
-0.00853367
-0.00853386
-0.00853283
-0.0085306
-0.00852721
-0.00852267
-0.00851702
-0.00851028
-0.00850247
-0.00849362
-0.00848374
-0.00847286
-0.00846101
-0.0084482
-0.00843446
-0.0084198
-0.00840425
-0.00838782
-0.00837054
-0.00835243
-0.0083335
-0.00831377
-0.00829326
-0.00827198
-0.00824997
-0.00822722
-0.00820377
-0.00817961
-0.00815479
-0.00812929
-0.00810315
-0.00807638
-0.00804899
-0.00802101
-0.00799243
-0.00796328
-0.00793357
-0.00790331
-0.00787253
-0.00784122
-0.00780941
-0.00777711
-0.00774432
-0.00771107
-0.00767736
-0.00764321
-0.00760863
-0.00757362
-0.00753821
-0.0075024
-0.0074662
-0.00742963
-0.00739268
-0.00735539
-0.00731775
-0.00727977
-0.00724147
-0.00720285
-0.00716393
-0.00712471
-0.00708521
-0.00704542
-0.00700537
-0.00696505
-0.00692448
-0.00688367
-0.00684262
-0.00680135
-0.00675986
-0.00671815
-0.00667624
-0.00663414
-0.00659184
-0.00654937
-0.00650672
-0.0064639
-0.00642093
-0.0063778
-0.00633452
-0.0062911
-0.00624755
-0.00620388
-0.00616008
-0.00611617
-0.00607214
-0.00602802
-0.0059838
-0.00593948
-0.00589508
-0.0058506
-0.00580605
-0.00576143
-0.00571674
-0.00567199
-0.00562719
-0.00558234
-0.00553745
-0.00549252
-0.00544756
-0.00540257
-0.00535755
-0.00531251
-0.00526745
-0.00522239
-0.00517731
-0.00513223
-0.00508714
-0.00504206
-0.00499699
-0.00495193
-0.00490688
-0.00486185
-0.00481684
-0.00477186
-0.00472691
-0.00468199
-0.0046371
-0.00459225
-0.00454744
-0.00450268
-0.00445797
-0.0044133
-0.00436869
-0.00432414
-0.00427964
-0.00423521
-0.00419084
-0.00414654
-0.00410231
-0.00405815
-0.00401406
-0.00397005
-0.00392613
-0.00388228
-0.00383852
-0.00379484
-0.00375126
-0.00370776
-0.00366435
-0.00362105
-0.00357783
-0.00353472
-0.0034917
-0.00344879
-0.00340598
-0.00336328
-0.00332069
-0.0032782
-0.00323583
-0.00319356
-0.00315142
-0.00310938
-0.00306747
-0.00302567
-0.00298399
-0.00294243
-0.002901
-0.00285969
-0.0028185
-0.00277744
-0.00273651
-0.00269571
-0.00265503
-0.00261449
-0.00257408
-0.0025338
-0.00249365
-0.00245364
-0.00241377
-0.00237403
-0.00233443
-0.00229497
-0.00225564
-0.00221646
-0.00217742
-0.00213852
-0.00209976
-0.00206114
-0.00202267
-0.00198434
-0.00194616
-0.00190813
-0.00187023
-0.00183249
-0.00179489
-0.00175744
-0.00172014
-0.00168299
-0.00164599
-0.00160913
-0.00157243
-0.00153587
-0.00149947
-0.00146322
-0.00142711
-0.00139117
-0.00135537
-0.00131972
-0.00128423
-0.00124889
-0.0012137
-0.00117867
-0.00114378
-0.00110906
-0.00107448
-0.00104006
-0.00100579
-0.000971679
-0.00093772
-0.000903915
-0.000870264
-0.000836767
-0.000803424
-0.000770236
-0.000737202
-0.000704322
-0.000671595
-0.000639024
-0.000606607
-0.000574343
-0.000542233
-0.000510277
-0.000478475
-0.000446827
-0.000415332
-0.000383991
-0.000352803
-0.000321768
-0.000290887
-0.000260157
-0.000229581
-0.000199158
-0.000168886
-0.000138766
-0.000108798
-7.89825e-05
-4.93174e-05
-1.98037e-05
9.55862e-06
3.8771e-05
6.78328e-05
9.6744e-05
0.000125506
0.000154119
0.000182582
0.000210896
0.000239062
0.000267079
0.000294949
0.000322671
0.000350245
0.000377673
0.000404954
0.000432089
0.000459078
0.000485922
0.00051262
0.000539174
0.000565584
0.000591849
0.000617971
0.00064395
0.000669785
0.000695479
0.000721031
0.00074644
0.000771709
0.000796837
0.000821825
0.000846673
0.000871382
0.000895952
0.000920383
0.000944676
0.000968833
0.000992851
0.00101673
0.00104048
0.00106409
0.00108757
0.00111091
0.00113411
0.00115718
0.00118012
0.00120293
0.0012256
0.00124815
0.00127056
0.00129284
0.00131499
0.00133701
0.0013589
0.00138066
0.00140229
0.0014238
0.00144517
0.00146643
0.00148755
0.00150855
0.00152942
0.00155017
0.0015708
0.0015913
0.00161168
0.00163193
0.00165207
0.00167208
0.00169197
0.00171174
0.00173139
0.00175092
0.00177033
0.00178962
0.00180879
0.00182785
0.00184679
0.00186562
0.00188432
0.00190292
0.00192139
0.00193976
0.00195801
0.00197614
0.00199417
0.00201208
0.00202988
0.00204757
0.00206514
0.00208261
0.00209997
0.00211722
0.00213436
0.00215139
0.00216832
0.00218514
0.00220185
0.00221846
0.00223496
0.00225135
0.00226765
0.00228383
0.00229992
0.0023159
0.00233178
0.00234756
0.00236324
0.00237881
0.00239429
0.00240967
0.00242495
0.00244013
0.00245521
0.00247019
0.00248508
0.00249987
0.00251456
0.00252916
0.00254366
0.00255807
0.00257239
0.00258661
0.00260074
0.00261478
0.00262872
0.00264257
0.00265633
0.00267
0.00268359
0.00269708
0.00271048
0.0027238
0.00273702
0.00275016
0.00276321
0.00277618
0.00278906
0.00280185
0.00281456
0.00282718
0.00283972
0.00285218
0.00286455
0.00287684
0.00288905
0.00290117
0.00291321
0.00292518
0.00293706
0.00294886
0.00296059
0.00297223
0.0029838
0.00299528
0.00300669
0.00301803
0.00302928
0.00304046
0.00305157
0.0030626
0.00307355
0.00308443
0.00309523
0.00310597
0.00311662
0.00312721
0.00313772
0.00314816
0.00315853
0.00316883
0.00317906
0.00318922
0.00319931
0.00320933
0.00321928
0.00322916
0.00323897
0.00324872
0.0032584
0.00326801
0.00327756
0.00328704
0.00329645
0.0033058
0.00331509
0.00332431
0.00333346
0.00334255
0.00335158
0.00336055
0.00336945
0.00337829
0.00338707
0.00339579
0.00340445
0.00341304
0.00342158
0.00343006
0.00343847
0.00344683
0.00345513
0.00346338
0.00347156
0.00347969
0.00348776
0.00349577
0.00350373
0.00351163
0.00351947
0.00352726
0.003535
0.00354268
0.0035503
0.00355787
0.00356539
0.00357286
0.00358027
0.00358763
0.00359494
0.00360219
0.0036094
0.00361655
0.00362365
0.0036307
0.0036377
0.00364465
0.00365156
0.00365841
0.00366521
0.00367197
0.00367867
0.00368533
0.00369194
0.00369851
0.00370502
0.00371149
0.00371792
0.0037243
0.00373063
0.00373692
0.00374316
0.00374935
0.00375551
0.00376162
0.00376768
0.0037737
0.00377968
0.00378561
0.0037915
0.00379735
0.00380316
0.00380893
0.00381465
0.00382033
0.00382597
0.00383157
0.00383713
0.00384265
0.00384813
0.00385357
0.00385897
0.00386433
0.00386965
0.00387494
0.00388018
0.00388539
0.00389056
0.00389569
0.00390079
0.00390584
0.00391086
0.00391585
0.00392079
0.00392571
0.00393058
0.00393542
0.00394023
0.003945
0.00394973
0.00395443
0.0039591
0.00396373
0.00396833
0.0039729
0.00397743
0.00398193
0.00398639
0.00399082
0.00399522
0.00399959
0.00400393
0.00400823
0.00401251
0.00401675
0.00402096
0.00402514
0.00402929
0.0040334
0.00403749
0.00404155
0.00404558
0.00404958
0.00405355
0.00405749
0.0040614
0.00406528
0.00406914
0.00407296
0.00407676
0.00408053
0.00408427
0.00408798
0.00409167
0.00409533
0.00409896
0.00410257
0.00410615
0.0041097
0.00411322
0.00411672
0.0041202
0.00412365
0.00412707
0.00413047
0.00413384
0.00413719
0.00414051
0.00414381
0.00414709
0.00415034
0.00415356
0.00415676
0.00415994
0.0041631
0.00416623
0.00416934
0.00417242
0.00417549
0.00417852
0.00418154
0.00418454
0.00418751
0.00419046
0.00419339
0.00419629
0.00419918
0.00420204
0.00420489
0.00420771
0.00421051
0.00421329
0.00421605
0.00421878
0.0042215
0.0042242
0.00422688
0.00422954
0.00423217
0.00423479
0.00423739
0.00423997
0.00424253
0.00424507
0.0042476
0.0042501
0.00425258
0.00425505
0.0042575
0.00425993
0.00426234
0.00426474
0.00426711
0.00426947
0.00427181
0.00427413
0.00427644
0.00427873
0.004281
0.00428326
0.00428549
0.00428771
0.00428992
0.00429211
0.00429428
0.00429644
0.00429858
0.0043007
0.00430281
0.0043049
0.00430698
0.00430904
0.00431108
0.00431311
0.00431513
0.00431713
0.00431912
0.00432109
0.00432304
0.00432498
0.00432691
0.00432882
0.00433072
0.0043326
0.00433448
0.00433633
0.00433817
0.00434
0.00434182
0.00434362
0.00434541
0.00434718
0.00434894
0.00435069
0.00435242
0.00435415
0.00435586
0.00435755
0.00435924
0.00436091
0.00436257
0.00436421
0.00436585
0.00436747
0.00436908
0.00437068
0.00437226
0.00437384
0.0043754
0.00437695
0.00437849
0.00438002
0.00438153
0.00438304
0.00438453
0.00438601
0.00438749
0.00438895
0.0043904
0.00439184
0.00439326
0.00439468
0.00439609
0.00439749
0.00439887
0.00440025
0.00440161
0.00440297
0.00440431
0.00440565
0.00440697
0.00440829
0.0044096
0.00441089
0.00441218
0.00441345
0.00441472
0.00441598
0.00441723
0.00441847
0.0044197
0.00442092
0.00442213
0.00442333
0.00442453
0.00442571
0.00442689
0.00442806
0.00442922
0.00443037
0.00443151
0.00443264
0.00443377
0.00443488
0.00443599
0.00443709
0.00443818
0.00443927
0.00444034
0.00444141
0.00444247
0.00444352
0.00444457
0.0044456
0.00444663
0.00444765
0.00444867
0.00444967
0.00445067
0.00445166
0.00445265
0.00445362
0.00445459
0.00445556
0.00445651
0.00445746
0.0044584
0.00445934
0.00446026
0.00446118
0.0044621
0.004463
0.00446391
0.0044648
0.00446569
0.00446657
0.00446744
0.00446831
0.00446917
0.00447003
0.00447087
0.00447172
0.00447255
0.00447338
0.00447421
0.00447503
0.00447584
0.00447664
0.00447745
0.00447824
0.00447903
0.00447981
0.00448059
0.00448136
0.00448213
0.00448289
0.00448364
0.00448439
0.00448513
0.00448587
0.0044866
0.00448733
0.00448805
0.00448877
0.00448948
0.00449019
0.00449089
0.00449159
0.00449228
0.00449296
0.00449364
0.00449432
0.00449499
0.00449566
0.00449632
0.00449698
0.00449763
0.00449828
0.00449892
0.00449956
0.00450019
0.00450082
0.00450144
0.00450206
0.00450268
0.00450329
0.0045039
0.0045045
0.0045051
0.00450569
0.00450628
0.00450686
0.00450744
0.00450802
0.00450859
0.00450916
0.00450973
0.00451029
0.00451084
0.00451139
0.00451194
0.00451249
0.00451303
0.00451356
0.0045141
0.00451462
0.00451515
0.00451567
0.00451619
0.0045167
0.00451721
0.00451772
0.00451822
0.00451872
0.00451922
0.00451971
0.0045202
0.00452068
0.00452116
0.00452164
0.00452212
0.00452259
0.00452306
0.00452352
0.00452398
0.00452444
0.0045249
0.00452535
0.0045258
0.00452625
0.00452669
0.00452713
0.00452756
0.004528
0.00452843
0.00452885
0.00452928
0.0045297
0.00453012
0.00453053
0.00453095
0.00453135
0.00453176
0.00453217
0.00453257
0.00453296
0.00453336
0.00453375
0.00453414
0.00453453
0.00453491
0.0045353
0.00453568
0.00453605
0.00453643
0.0045368
0.00453717
0.00453753
0.0045379
0.00453826
0.00453862
0.00453897
0.00453933
0.00453968
0.00454003
0.00454037
0.00454072
0.00454106
0.0045414
0.00454174
0.00454207
0.0045424
0.00454273
0.00454306
0.00454339
0.00454371
0.00454403
0.00454435
0.00454467
0.00454498
0.00454529
0.0045456
0.00454591
0.00454622
0.00454652
0.00454683
0.00454713
0.00454742
0
0

