-14930.3
-0.0222844
-0.00729239
-0.00263464
-0.000307
0.00114303
0.00215984
0.00293018
0.00354811
0.00406603
0.00451502
0.00491433
0.00518031
0.00539615
0.00558124
0.00574338
0.00588713
0.00601555
0.00613087
0.00623475
0.00632849
0.00641315
0.00648958
0.00655853
0.00662062
0.00667638
0.00672631
0.00677082
0.0068103
0.00684507
0.00687544
0.0069017
0.00692408
0.00694281
0.00695811
0.00697016
0.00697915
0.00698522
0.00698854
0.00698925
0.00698747
0.00698332
0.00697692
0.00696838
0.00695779
0.00694525
0.00693086
0.00691468
0.00689681
0.00687731
0.00685626
0.00683373
0.00680977
0.00678446
0.00675784
0.00672998
0.00670092
0.00667071
0.00663941
0.00660705
0.00657369
0.00653936
0.0065041
0.00646796
0.00643096
0.00639315
0.00635456
0.00631522
0.00627516
0.00623442
0.00619303
0.00615101
0.00610838
0.00606519
0.00602145
0.00597719
0.00593244
0.00588721
0.00584153
0.00579542
0.00574891
0.00570201
0.00565475
0.00560714
0.0055592
0.00551095
0.00546241
0.0054136
0.00536453
0.00531522
0.00526569
0.00521595
0.00516601
0.0051159
0.00506561
0.00501518
0.00496461
0.00491391
0.0048631
0.00481218
0.00476118
0.0047101
0.00465895
0.00460774
0.00455649
0.0045052
0.00445388
0.00440255
0.00435121
0.00429987
0.00424853
0.00419722
0.00414593
0.00409468
0.00404347
0.0039923
0.0039412
0.00389015
0.00383918
0.00378828
0.00373746
0.00368674
0.0036361
0.00358557
0.00353514
0.00348483
0.00343463
0.00338455
0.0033346
0.00328479
0.0032351
0.00318556
0.00313617
0.00308692
0.00303783
0.00298889
0.00294011
0.0028915
0.00284306
0.00279479
0.00274669
0.00269877
0.00265103
0.00260348
0.00255611
0.00250893
0.00246195
0.00241516
0.00236857
0.00232217
0.00227598
0.00223
0.00218422
0.00213865
0.00209329
0.00204814
0.0020032
0.00195848
0.00191398
0.0018697
0.00182564
0.0017818
0.00173818
0.00169479
0.00165162
0.00160868
0.00156597
0.00152348
0.00148123
0.00143921
0.00139742
0.00135586
0.00131454
0.00127345
0.00123259
0.00119198
0.00115159
0.00111145
0.00107154
0.00103187
0.000992433
0.000953238
0.000914282
0.000875564
0.000837086
0.000798847
0.000760848
0.000723089
0.00068557
0.00064829
0.000611251
0.000574452
0.000537893
0.000501573
0.000465493
0.000429653
0.000394054
0.000358694
0.000323572
0.000288691
0.000254048
0.000219644
0.000185479
0.000151552
0.000117862
8.44108e-05
5.11966e-05
1.82196e-05
-1.45214e-05
-4.70259e-05
-7.92951e-05
-0.000111328
-0.000143127
-0.000174692
-0.000206022
-0.00023712
-0.000267983
-0.000298616
-0.000329016
-0.000359185
-0.000389124
-0.000418831
-0.00044831
-0.00047756
-0.000506581
-0.000535375
-0.000563942
-0.000592282
-0.000620397
-0.000648286
-0.000675952
-0.000703394
-0.000730612
-0.000757608
-0.000784383
-0.000810936
-0.00083727
-0.000863384
-0.00088928
-0.000914957
-0.000940418
-0.000965661
-0.00099069
-0.0010155
-0.0010401
-0.00106449
-0.00108866
-0.00111262
-0.00113637
-0.00115991
-0.00118324
-0.00120636
-0.00122928
-0.00125198
-0.00127448
-0.00129678
-0.00131887
-0.00134075
-0.00136244
-0.00138392
-0.0014052
-0.00142627
-0.00144715
-0.00146783
-0.00148831
-0.0015086
-0.00152869
-0.00154858
-0.00156828
-0.00158778
-0.00160709
-0.00162621
-0.00164514
-0.00166387
-0.00168242
-0.00170077
-0.00171894
-0.00173693
-0.00175472
-0.00177233
-0.00178975
-0.001807
-0.00182405
-0.00184093
-0.00185762
-0.00187414
-0.00189047
-0.00190662
-0.0019226
-0.0019384
-0.00195402
-0.00196947
-0.00198474
-0.00199984
-0.00201476
-0.00202951
-0.00204409
-0.0020585
-0.00207274
-0.00208681
-0.00210072
-0.00211445
-0.00212802
-0.00214142
-0.00215466
-0.00216773
-0.00218064
-0.00219338
-0.00220597
-0.00221839
-0.00223065
-0.00224276
-0.0022547
-0.00226649
-0.00227812
-0.00228959
-0.00230091
-0.00231207
-0.00232308
-0.00233393
-0.00234464
-0.00235519
-0.00236559
-0.00237584
-0.00238594
-0.00239589
-0.00240569
-0.00241535
-0.00242485
-0.00243422
-0.00244344
-0.00245251
-0.00246144
-0.00247023
-0.00247888
-0.00248738
-0.00249575
-0.00250397
-0.00251205
-0.00252
-0.00252781
-0.00253548
-0.00254302
-0.00255042
-0.00255768
-0.00256481
-0.00257181
-0.00257868
-0.00258541
-0.00259201
-0.00259848
-0.00260482
-0.00261103
-0.00261712
-0.00262307
-0.0026289
-0.0026346
-0.00264018
-0.00264563
-0.00265095
-0.00265615
-0.00266123
-0.00266619
-0.00267102
-0.00267573
-0.00268033
-0.0026848
-0.00268915
-0.00269338
-0.0026975
-0.0027015
-0.00270538
-0.00270915
-0.0027128
-0.00271633
-0.00271975
-0.00272306
-0.00272625
-0.00272933
-0.0027323
-0.00273516
-0.00273791
-0.00274055
-0.00274308
-0.0027455
-0.00274781
-0.00275001
-0.00275211
-0.0027541
-0.00275598
-0.00275776
-0.00275944
-0.00276101
-0.00276247
-0.00276384
-0.0027651
-0.00276626
-0.00276732
-0.00276828
-0.00276913
-0.00276989
-0.00277055
-0.00277111
-0.00277157
-0.00277194
-0.00277221
-0.00277238
-0.00277246
-0.00277244
-0.00277232
-0.00277212
-0.00277182
-0.00277142
-0.00277093
-0.00277036
-0.00276969
-0.00276892
-0.00276807
-0.00276713
-0.0027661
-0.00276498
-0.00276377
-0.00276247
-0.00276109
-0.00275962
-0.00275806
-0.00275642
-0.00275469
-0.00275288
-0.00275098
-0.00274899
-0.00274693
-0.00274478
-0.00274255
-0.00274023
-0.00273784
-0.00273536
-0.00273281
-0.00273017
-0.00272745
-0.00272466
-0.00272178
-0.00271883
-0.0027158
-0.00271269
-0.0027095
-0.00270624
-0.0027029
-0.00269949
-0.002696
-0.00269243
-0.00268879
-0.00268508
-0.0026813
-0.00267744
-0.00267351
-0.0026695
-0.00266543
-0.00266128
-0.00265706
-0.00265278
-0.00264842
-0.00264399
-0.00263949
-0.00263493
-0.00263029
-0.00262559
-0.00262082
-0.00261598
-0.00261108
-0.00260611
-0.00260107
-0.00259597
-0.00259081
-0.00258557
-0.00258028
-0.00257492
-0.00256949
-0.00256401
-0.00255846
-0.00255284
-0.00254717
-0.00254143
-0.00253564
-0.00252978
-0.00252386
-0.00251788
-0.00251184
-0.00250574
-0.00249958
-0.00249337
-0.00248709
-0.00248076
-0.00247437
-0.00246792
-0.00246141
-0.00245485
-0.00244823
-0.00244156
-0.00243483
-0.00242804
-0.0024212
-0.00241431
-0.00240736
-0.00240036
-0.0023933
-0.00238619
-0.00237903
-0.00237181
-0.00236455
-0.00235723
-0.00234986
-0.00234244
-0.00233496
-0.00232744
-0.00231987
-0.00231224
-0.00230457
-0.00229685
-0.00228908
-0.00228126
-0.00227339
-0.00226547
-0.00225751
-0.0022495
-0.00224144
-0.00223333
-0.00222518
-0.00221698
-0.00220874
-0.00220045
-0.00219211
-0.00218373
-0.00217531
-0.00216684
-0.00215832
-0.00214977
-0.00214116
-0.00213252
-0.00212383
-0.0021151
-0.00210633
-0.00209752
-0.00208866
-0.00207976
-0.00207082
-0.00206184
-0.00205282
-0.00204376
-0.00203465
-0.00202551
-0.00201633
-0.00200711
-0.00199785
-0.00198855
-0.00197921
-0.00196983
-0.00196042
-0.00195097
-0.00194148
-0.00193195
-0.00192239
-0.00191279
-0.00190315
-0.00189347
-0.00188376
-0.00187402
-0.00186424
-0.00185442
-0.00184457
-0.00183468
-0.00182476
-0.0018148
-0.00180481
-0.00179479
-0.00178473
-0.00177464
-0.00176452
-0.00175436
-0.00174417
-0.00173395
-0.00172369
-0.00171341
-0.00170309
-0.00169274
-0.00168236
-0.00167195
-0.0016615
-0.00165103
-0.00164053
-0.00162999
-0.00161943
-0.00160884
-0.00159821
-0.00158756
-0.00157688
-0.00156617
-0.00155543
-0.00154466
-0.00153386
-0.00152304
-0.00151219
-0.00150131
-0.0014904
-0.00147947
-0.0014685
-0.00145752
-0.0014465
-0.00143546
-0.00142439
-0.0014133
-0.00140218
-0.00139104
-0.00137987
-0.00136867
-0.00135745
-0.0013462
-0.00133494
-0.00132364
-0.00131232
-0.00130098
-0.00128961
-0.00127822
-0.00126681
-0.00125537
-0.00124391
-0.00123243
-0.00122092
-0.0012094
-0.00119784
-0.00118627
-0.00117468
-0.00116306
-0.00115142
-0.00113976
-0.00112808
-0.00111638
-0.00110465
-0.00109291
-0.00108115
-0.00106936
-0.00105755
-0.00104573
-0.00103388
-0.00102202
-0.00101013
-0.000998228
-0.000986304
-0.000974361
-0.000962399
-0.000950418
-0.000938419
-0.000926401
-0.000914365
-0.00090231
-0.000890238
-0.000878148
-0.000866041
-0.000853915
-0.000841772
-0.000829613
-0.000817436
-0.000805242
-0.000793032
-0.000780805
-0.000768561
-0.000756301
-0.000744025
-0.000731733
-0.000719425
-0.000707101
-0.000694762
-0.000682407
-0.000670038
-0.000657653
-0.000645253
-0.000632838
-0.000620408
-0.000607964
-0.000595506
-0.000583033
-0.000570546
-0.000558046
-0.000545531
-0.000533002
-0.00052046
-0.000507904
-0.000495335
-0.000482754
-0.000470158
-0.00045755
-0.00044493
-0.000432296
-0.00041965
-0.000406992
-0.000394321
-0.000381639
-0.000368944
-0.000356237
-0.000343518
-0.000330788
-0.000318046
-0.000305293
-0.000292529
-0.000279754
-0.000266967
-0.00025417
-0.000241362
-0.000228543
-0.000215714
-0.000202874
-0.000190023
-0.000177164
-0.000164293
-0.000151413
-0.000138523
-0.000125623
-0.000112713
-9.97947e-05
-8.68661e-05
-7.3929e-05
-6.09819e-05
-4.80263e-05
-3.50615e-05
-2.20882e-05
-9.10629e-06
3.88483e-06
1.68838e-05
2.98912e-05
4.29072e-05
5.59317e-05
6.89633e-05
8.20035e-05
9.50514e-05
0.000108107
0.00012117
0.000134241
0.000147319
0.000160405
0.000173498
0.000186598
0.000199705
0.000212818
0.00022594
0.000239067
0.000252201
0.000265341
0.000278488
0.000291642
0.000304801
0.000317967
0.000331139
0.000344316
0.0003575
0.000370689
0.000383884
0.000397085
0.000410291
0.000423502
0.000436718
0.000449941
0.000463168
0.0004764
0.000489636
0.000502878
0.000516125
0.000529377
0.000542632
0.000555892
0.000569157
0.000582426
0.000595699
0.000608977
0.000622258
0.000635544
0.000648832
0.000662126
0.000675423
0.000688723
0.000702027
0.000715334
0.000728645
0.000741959
0.000755276
0.000768597
0.00078192
0.000795246
0.000808576
0.000821909
0.000835243
0.000848581
0.000861921
0.000875264
0.000888609
0.000901957
0.000915307
0.000928659
0.000942013
0.00095537
0.000968729
0.000982089
0.000995451
0.00100882
0.00102218
0.00103555
0.00104892
0.00106229
0.00107566
0.00108903
0.00110241
0.00111578
0.00112916
0.00114254
0.00115592
0.0011693
0.00118268
0.00119606
0.00120944
0.00122283
0.00123621
0.00124959
0.00126298
0.00127637
0.00128975
0.00130314
0.00131652
0.00132991
0.0013433
0.00135668
0.00137007
0.00138346
0.00139684
0.00141023
0.00142361
0.001437
0.00145038
0.00146377
0.00147715
0.00149054
0.00150392
0.0015173
0.00153068
0.00154406
0.00155744
0.00157082
0.0015842
0.00159758
0.00161096
0.00162433
0.0016377
0.00165108
0.00166445
0.00167782
0.00169119
0.00170455
0.00171792
0.00173128
0.00174464
0.001758
0.00177136
0.00178472
0.00179808
0.00181143
0.00182478
0.00183813
0.00185148
0.00186482
0.00187817
0.00189151
0.00190485
0.00191818
0.00193152
0.00194485
0.00195818
0.00197151
0.00198483
0.00199815
0.00201147
0.00202479
0.0020381
0.00205141
0.00206472
0.00207803
0.00209133
0.00210463
0.00211792
0.00213122
0.00214451
0.0021578
0.00217108
0.00218436
0.00219764
0.00221091
0.00222419
0.00223745
0.00225072
0.00226398
0.00227724
0.00229049
0.00230374
0.00231699
0.00233023
0.00234347
0.00235671
0.00236994
0.00238317
0.00239639
0.00240961
0.00242283
0.00243604
0.00244925
0.00246245
0.00247565
0.00248885
0.00250204
0.00251523
0.00252841
0.00254159
0.00255477
0.00256794
0.0025811
0.00259426
0.00260742
0.00262057
0.00263372
0.00264687
0.00266001
0.00267314
0.00268627
0.0026994
0.00271252
0.00272563
0.00273874
0.00275185
0.00276495
0.00277805
0.00279114
0.00280422
0.0028173
0.00283038
0.00284345
0.00285652
0.00286958
0.00288264
0.00289569
0.00290873
0.00292177
0.00293481
0.00294784
0.00296086
0.00297388
0.00298689
0.0029999
0.0030129
0.0030259
0.00303889
0.00305188
0.00306486
0.00307783
0.0030908
0.00310377
0.00311672
0.00312968
0.00314262
0.00315556
0.0031685
0.00318143
0.00319435
0.00320727
0.00322018
0.00323309
0.00324598
0.00325888
0.00327177
0.00328465
0.00329752
0.00331039
0.00332326
0.00333611
0.00334896
0.00336181
0.00337465
0.00338748
0.00340031
0.00341313
0.00342594
0.00343875
0.00345155
0.00346434
0.00347713
0.00348991
0.00350269
0.00351546
0.00352822
0.00354098
0.00355373
0.00356647
0.0035792
0.00359193
0.00360466
0.00361737
0
0

