-14930.3
-0.0222844
-0.00729239
-0.00263464
-0.000307
0.00114303
0.00215984
0.00293018
0.00354811
0.00406603
0.00451502
0.00491433
0.00526629
0.00556505
0.00580538
0.00598584
0.00610842
0.00617725
0.00619744
0.00617431
0.006113
0.0060183
0.00589455
0.00574562
0.00557497
0.00538568
0.00518048
0.00496179
0.00473178
0.00449236
0.00424522
0.00399188
0.00373366
0.00347174
0.00320716
0.00294082
0.00267355
0.00240605
0.00213894
0.00187278
0.00160804
0.00134513
0.00108443
0.000826222
0.000570778
0.000318311
6.90059e-05
-0.000176975
-0.000419498
-0.000658448
-0.000893738
-0.00112531
-0.00135312
-0.00157714
-0.00179735
-0.00201376
-0.00222639
-0.00243523
-0.0026403
-0.00284161
-0.00303917
-0.00323303
-0.00342322
-0.00360977
-0.0037927
-0.00397204
-0.00414782
-0.00432009
-0.00448889
-0.0046543
-0.00481636
-0.00497511
-0.00513058
-0.00528278
-0.00543174
-0.00557747
-0.00572
-0.00585935
-0.00599555
-0.00612862
-0.00625858
-0.00638544
-0.00650924
-0.00662998
-0.00674769
-0.00686236
-0.006974
-0.00708262
-0.00718819
-0.00729072
-0.00739019
-0.00748661
-0.00757998
-0.0076703
-0.00775757
-0.00784178
-0.00792291
-0.00800093
-0.00807581
-0.00814755
-0.00821613
-0.00828153
-0.00834374
-0.00840276
-0.00845855
-0.00851111
-0.00856041
-0.00860646
-0.00864921
-0.00868867
-0.00872482
-0.00875764
-0.00878714
-0.00881331
-0.00883615
-0.00885568
-0.00887189
-0.00888479
-0.0088944
-0.00890072
-0.00890377
-0.00890358
-0.00890017
-0.00889356
-0.00888379
-0.00887089
-0.00885491
-0.00883589
-0.00881388
-0.00878894
-0.00876113
-0.00873052
-0.00869718
-0.00866118
-0.00862258
-0.00858148
-0.00853795
-0.00849206
-0.00844389
-0.00839354
-0.00834107
-0.00828658
-0.00823016
-0.00817191
-0.00811192
-0.0080503
-0.00798715
-0.00792256
-0.00785663
-0.00778944
-0.00772108
-0.00765165
-0.00758122
-0.00750989
-0.00743773
-0.00736484
-0.00729128
-0.00721714
-0.00714247
-0.00706735
-0.00699184
-0.00691599
-0.00683986
-0.00676351
-0.006687
-0.00661037
-0.00653366
-0.00645692
-0.00638017
-0.00630345
-0.00622681
-0.00615027
-0.00607385
-0.00599758
-0.00592148
-0.00584557
-0.00576987
-0.00569438
-0.00561912
-0.0055441
-0.00546933
-0.00539482
-0.00532059
-0.00524665
-0.00517299
-0.00509962
-0.00502654
-0.00495375
-0.00488125
-0.00480903
-0.00473709
-0.00466541
-0.00459399
-0.00452282
-0.00445189
-0.00438119
-0.00431071
-0.00424044
-0.00417038
-0.00410052
-0.00403085
-0.00396137
-0.00389208
-0.00382299
-0.00375408
-0.00368537
-0.00361685
-0.00354851
-0.00348036
-0.00341238
-0.00334457
-0.00327691
-0.0032094
-0.00314203
-0.00307479
-0.00300769
-0.0029407
-0.00287382
-0.00280705
-0.00274039
-0.00267382
-0.00260735
-0.00254097
-0.00247469
-0.00240851
-0.00234241
-0.0022764
-0.00221048
-0.00214464
-0.00207888
-0.00201321
-0.0019476
-0.00188207
-0.0018166
-0.00175119
-0.00168584
-0.00162054
-0.00155531
-0.00149014
-0.00142503
-0.00135998
-0.001295
-0.00123009
-0.00116523
-0.00110043
-0.0010357
-0.000971016
-0.00090639
-0.000841816
-0.000777294
-0.000712818
-0.000648386
-0.000583997
-0.000519648
-0.00045534
-0.000391074
-0.000326851
-0.000262676
-0.000198551
-0.000134481
-7.04671e-05
-6.51346e-06
5.73791e-05
0.000121209
0.000184977
0.000248682
0.000312323
0.0003759
0.000439414
0.000502865
0.000566254
0.000629581
0.000692845
0.000756049
0.000819193
0.000882276
0.000945298
0.00100826
0.00107115
0.00113398
0.00119674
0.00125942
0.00132204
0.00138458
0.00144705
0.00150944
0.00157175
0.00163399
0.00169616
0.00175825
0.00182027
0.0018822
0.00194406
0.00200584
0.00206753
0.00212915
0.00219068
0.00225214
0.0023135
0.00237478
0.00243598
0.00249708
0.00255809
0.00261901
0.00267984
0.00274057
0.00280121
0.00286176
0.0029222
0.00298255
0.0030428
0.00310296
0.00316301
0.00322296
0.00328281
0.00334255
0.00340219
0.00346172
0.00352113
0.00358043
0.00363962
0.00369869
0.00375764
0.00381647
0.0038752
0.0039338
0.00399228
0.00405065
0.00410889
0.00416702
0.00422502
0.00428289
0.00434065
0.00439828
0.00445579
0.00451318
0.00457045
0.00462759
0.0046846
0.00474149
0.00479826
0.00485489
0.00491138
0.00496774
0.00502396
0.00508005
0.00513599
0.0051918
0.00524746
0.00530298
0.00535836
0.00541359
0.00546869
0.00552364
0.00557844
0.00563311
0.00568763
0.00574201
0.00579624
0.00585033
0.00590428
0.00595808
0.00601174
0.00606525
0.00611861
0.00617183
0.00622489
0.0062778
0.00633056
0.00638317
0.00643563
0.00648793
0.00654008
0.00659207
0.00664391
0.00669559
0.00674712
0.00679848
0.00684969
0.00690074
0.00695162
0.00700235
0.00705292
0.00710332
0.00715357
0.00720365
0.00725357
0.00730333
0.00735292
0.00740235
0.00745162
0.00750072
0.00754966
0.00759844
0.00764705
0.00769549
0.00774377
0.00779189
0.00783983
0.00788762
0.00793523
0.00798268
0.00802996
0.00807707
0.00812401
0.00817079
0.0082174
0.00826384
0.00831012
0.00835622
0.00840216
0.00844794
0.00849354
0.00853898
0.00858425
0.00862935
0.00867428
0.00871905
0.00876365
0.00880808
0.00885234
0.00889643
0.00894035
0.00898411
0.0090277
0.00907112
0.00911437
0.00915745
0.00920037
0.00924312
0.00928569
0.0093281
0.00937034
0.00941241
0.00945431
0.00949604
0.0095376
0.009579
0.00962022
0.00966127
0.00970216
0.00974288
0.00978342
0.0098238
0.00986401
0.00990405
0.00994393
0.00998363
0.0100232
0.0100625
0.0101017
0.0101408
0.0101796
0.0102183
0.0102569
0.0102952
0.0103334
0.0103715
0.0104093
0.010447
0.0104845
0.0105219
0.0105591
0.0105961
0.010633
0.0106697
0.0107062
0.0107426
0.0107788
0.0108149
0.0108508
0.0108865
0.0109221
0.0109575
0.0109927
0.0110278
0.0110628
0.0110975
0.0111321
0.0111666
0.0112009
0.011235
0.011269
0.0113028
0.0113365
0.01137
0.0114033
0.0114365
0.0114696
0.0115024
0.0115352
0.0115677
0.0116001
0.0116324
0.0116645
0.0116965
0.0117282
0.0117599
0.0117914
0.0118227
0.0118539
0.011885
0.0119158
0.0119466
0.0119772
0.0120076
0.0120379
0.012068
0.012098
0.0121279
0.0121576
0.0121872
0.0122166
0.0122458
0.0122749
0.0123039
0.0123327
0.0123614
0.01239
0.0124184
0.0124466
0.0124747
0.0125027
0.0125306
0.0125582
0.0125858
0.0126132
0.0126405
0.0126676
0.0126946
0.0127215
0.0127482
0.0127748
0.0128012
0.0128275
0.0128537
0.0128798
0.0129057
0.0129314
0.0129571
0.0129826
0.013008
0.0130332
0.0130583
0.0130833
0.0131082
0.0131329
0.0131575
0.0131819
0.0132063
0.0132305
0.0132546
0.0132785
0.0133023
0.013326
0.0133496
0.013373
0.0133964
0.0134196
0.0134427
0.0134656
0.0134884
0.0135111
0.0135337
0.0135562
0.0135785
0.0136008
0.0136229
0.0136449
0.0136667
0.0136885
0.0137101
0.0137316
0.013753
0.0137743
0.0137955
0.0138165
0.0138375
0.0138583
0.013879
0.0138996
0.0139201
0.0139404
0.0139607
0.0139808
0.0140009
0.0140208
0.0140406
0.0140603
0.0140799
0.0140994
0.0141188
0.0141381
0.0141573
0.0141763
0.0141953
0.0142141
0.0142329
0.0142515
0.0142701
0.0142885
0.0143069
0.0143251
0.0143432
0.0143613
0.0143792
0.014397
0.0144147
0.0144324
0.0144499
0.0144674
0.0144847
0.0145019
0.0145191
0.0145361
0.0145531
0.0145699
0.0145867
0.0146034
0.01462
0.0146364
0.0146528
0.0146691
0.0146853
0.0147015
0.0147175
0.0147334
0.0147493
0.014765
0.0147807
0.0147963
0.0148118
0.0148272
0.0148425
0.0148577
0.0148729
0.0148879
0.0149029
0.0149178
0.0149326
0.0149473
0.0149619
0.0149765
0.014991
0.0150053
0.0150197
0.0150339
0.015048
0.0150621
0.0150761
0.01509
0.0151038
0.0151176
0.0151312
0.0151448
0.0151583
0.0151718
0.0151851
0.0151984
0.0152116
0.0152247
0.0152378
0.0152508
0.0152637
0.0152765
0.0152893
0.015302
0.0153146
0.0153272
0.0153396
0.015352
0.0153644
0.0153766
0.0153888
0.015401
0.015413
0.015425
0.0154369
0.0154488
0.0154605
0.0154723
0.0154839
0.0154955
0.015507
0.0155185
0.0155298
0.0155412
0.0155524
0.0155636
0.0155747
0.0155858
0.0155968
0.0156077
0.0156186
0.0156294
0.0156402
0.0156509
0.0156615
0.0156721
0.0156826
0.015693
0.0157034
0.0157138
0.015724
0.0157343
0.0157444
0.0157545
0.0157645
0.0157745
0.0157845
0.0157943
0.0158041
0.0158139
0.0158236
0.0158333
0.0158428
0.0158524
0.0158619
0.0158713
0.0158807
0.01589
0.0158993
0.0159085
0.0159177
0.0159268
0.0159358
0.0159448
0.0159538
0.0159627
0.0159716
0.0159804
0.0159891
0.0159978
0.0160065
0.0160151
0.0160237
0.0160322
0.0160407
0.0160491
0.0160574
0.0160658
0.0160741
0.0160823
0.0160905
0.0160986
0.0161067
0.0161147
0.0161228
0.0161307
0.0161386
0.0161465
0.0161543
0.0161621
0.0161698
0.0161775
0.0161852
0.0161928
0.0162004
0.0162079
0.0162154
0.0162228
0.0162302
0.0162376
0.0162449
0.0162522
0.0162594
0.0162666
0.0162738
0.0162809
0.016288
0.016295
0.016302
0.016309
0.0163159
0.0163228
0.0163296
0.0163364
0.0163432
0.01635
0.0163567
0.0163633
0.0163699
0.0163765
0.0163831
0.0163896
0.0163961
0.0164025
0.0164089
0.0164153
0.0164217
0.016428
0.0164343
0.0164405
0.0164467
0.0164529
0.016459
0.0164651
0.0164712
0.0164772
0.0164832
0.0164892
0.0164952
0.0165011
0.016507
0.0165128
0.0165186
0.0165244
0.0165302
0.0165359
0.0165416
0.0165472
0.0165529
0.0165585
0.0165641
0.0165696
0.0165751
0.0165806
0.0165861
0.0165915
0.0165969
0.0166022
0.0166076
0.0166129
0.0166182
0.0166234
0.0166287
0.0166339
0.0166391
0.0166442
0.0166493
0.0166544
0.0166595
0.0166645
0.0166696
0.0166745
0.0166795
0.0166845
0.0166894
0.0166943
0.0166991
0.016704
0.0167088
0.0167136
0.0167183
0.0167231
0.0167278
0.0167325
0.0167371
0.0167418
0.0167464
0.016751
0.0167556
0.0167601
0.0167646
0.0167691
0.0167736
0.0167781
0.0167825
0.0167869
0.0167913
0.0167957
0.0168
0.0168044
0.0168087
0.0168129
0.0168172
0.0168214
0.0168257
0.0168299
0.016834
0.0168382
0.0168423
0.0168464
0.0168505
0.0168546
0.0168587
0.0168627
0.0168667
0.0168707
0.0168747
0.0168786
0.0168826
0.0168865
0.0168904
0.0168943
0.0168981
0.016902
0.0169058
0.0169096
0.0169134
0.0169171
0.0169209
0.0169246
0.0169283
0.016932
0.0169357
0.0169394
0.016943
0.0169466
0.0169502
0.0169538
0.0169574
0.016961
0.0169645
0.016968
0.0169715
0.016975
0.0169785
0.016982
0.0169854
0.0169888
0.0169922
0.0169956
0.016999
0.0170024
0.0170057
0.017009
0.0170124
0.0170157
0.0170189
0.0170222
0.0170255
0.0170287
0.0170319
0.0170351
0.0170383
0.0170415
0.0170447
0.0170478
0.017051
0.0170541
0.0170572
0.0170603
0.0170634
0.0170665
0.0170695
0.0170725
0.0170756
0.0170786
0.0170816
0.0170846
0.0170875
0.0170905
0.0170934
0.0170964
0.0170993
0.0171022
0.0171051
0.017108
0.0171108
0.0171137
0.0171165
0.0171194
0.0171222
0.017125
0.0171278
0.0171306
0.0171333
0.0171361
0.0171388
0.0171416
0.0171443
0.017147
0.0171497
0.0171524
0.017155
0.0171577
0.0171604
0.017163
0.0171656
0.0171682
0.0171709
0.0171734
0.017176
0.0171786
0.0171812
0.0171837
0.0171863
0.0171888
0.0171913
0.0171938
0.0171963
0.0171988
0.0172013
0.0172037
0.0172062
0.0172086
0.0172111
0.0172135
0.0172159
0.0172183
0.0172207
0.0172231
0.0172255
0.0172279
0.0172302
0.0172326
0.0172349
0.0172372
0.0172395
0.0172419
0
0

