-14930.3
-0.0222844
-0.00729239
-0.00263464
-0.000307
0.00114303
0.00215984
0.00293018
0.00354811
0.00406603
0.00451502
0.00491433
0.00526029
0.00554778
0.0057773
0.00595331
0.00608175
0.00616857
0.0062192
0.0062384
0.00623028
0.00619839
0.00614577
0.00607509
0.00598864
0.00588842
0.00577618
0.00565345
0.00552158
0.00538176
0.00523504
0.00508236
0.00492452
0.00476226
0.00459624
0.00442701
0.00425511
0.00408098
0.00390503
0.00372762
0.00354908
0.00336969
0.00318973
0.00300944
0.00282903
0.0026487
0.00246862
0.00228893
0.00210979
0.00193133
0.00175366
0.0015769
0.00140113
0.00122643
0.00105289
0.000880561
0.000709511
0.000539793
0.000371459
0.000204561
3.91434e-05
-0.00012475
-0.000287081
-0.000447816
-0.000606929
-0.000764403
-0.000920224
-0.00107438
-0.00122685
-0.00137764
-0.00152673
-0.00167413
-0.00181982
-0.00196378
-0.00210601
-0.00224649
-0.0023852
-0.00252216
-0.00265735
-0.00279078
-0.00292246
-0.00305239
-0.00318057
-0.003307
-0.00343168
-0.00355463
-0.00367583
-0.00379531
-0.00391306
-0.00402909
-0.0041434
-0.004256
-0.0043669
-0.00447611
-0.00458364
-0.00468952
-0.00479375
-0.00489633
-0.00499728
-0.00509661
-0.00519431
-0.0052904
-0.00538487
-0.00547773
-0.005569
-0.00565868
-0.00574678
-0.0058333
-0.00591825
-0.00600165
-0.00608351
-0.00616384
-0.00624266
-0.00631998
-0.00639581
-0.00647017
-0.00654308
-0.00661454
-0.00668458
-0.00675321
-0.00682043
-0.00688627
-0.00695072
-0.0070138
-0.00707552
-0.00713588
-0.0071949
-0.00725258
-0.00730894
-0.00736398
-0.00741772
-0.00747017
-0.00752133
-0.00757121
-0.00761983
-0.00766719
-0.00771331
-0.00775819
-0.00780185
-0.0078443
-0.00788555
-0.00792562
-0.0079645
-0.00800222
-0.00803878
-0.0080742
-0.00810848
-0.00814165
-0.00817371
-0.00820467
-0.00823455
-0.00826335
-0.0082911
-0.0083178
-0.00834347
-0.00836813
-0.00839178
-0.00841443
-0.00843611
-0.00845681
-0.00847656
-0.00849536
-0.00851322
-0.00853016
-0.00854619
-0.00856131
-0.00857554
-0.00858889
-0.00860137
-0.00861298
-0.00862375
-0.00863367
-0.00864276
-0.00865102
-0.00865847
-0.00866512
-0.00867098
-0.00867605
-0.00868035
-0.00868388
-0.00868665
-0.00868868
-0.00868996
-0.00869052
-0.00869036
-0.00868948
-0.0086879
-0.00868563
-0.00868267
-0.00867904
-0.00867473
-0.00866977
-0.00866416
-0.0086579
-0.00865102
-0.0086435
-0.00863537
-0.00862663
-0.00861729
-0.00860735
-0.00859683
-0.00858574
-0.00857407
-0.00856184
-0.00854906
-0.00853573
-0.00852187
-0.00850747
-0.00849255
-0.0084771
-0.00846115
-0.0084447
-0.00842775
-0.00841031
-0.00839239
-0.008374
-0.00835513
-0.00833581
-0.00831603
-0.00829581
-0.00827515
-0.00825406
-0.00823255
-0.00821062
-0.00818827
-0.00816553
-0.00814238
-0.00811885
-0.00809494
-0.00807064
-0.00804598
-0.00802094
-0.00799554
-0.00796978
-0.00794367
-0.00791721
-0.0078904
-0.00786326
-0.00783577
-0.00780796
-0.00777982
-0.00775135
-0.00772257
-0.00769347
-0.00766406
-0.00763435
-0.00760433
-0.00757401
-0.0075434
-0.0075125
-0.00748131
-0.00744983
-0.00741808
-0.00738605
-0.00735375
-0.00732119
-0.00728836
-0.00725527
-0.00722193
-0.00718833
-0.00715448
-0.00712039
-0.00708605
-0.00705148
-0.00701667
-0.00698162
-0.00694635
-0.00691085
-0.00687512
-0.00683918
-0.00680302
-0.00676665
-0.00673006
-0.00669327
-0.00665628
-0.00661909
-0.0065817
-0.00654412
-0.00650635
-0.0064684
-0.00643025
-0.00639193
-0.00635342
-0.00631474
-0.00627588
-0.00623685
-0.00619765
-0.00615828
-0.00611875
-0.00607905
-0.00603919
-0.00599917
-0.00595901
-0.00591869
-0.00587823
-0.00583762
-0.00579688
-0.005756
-0.00571499
-0.00567385
-0.00563259
-0.00559119
-0.00554967
-0.00550803
-0.00546627
-0.0054244
-0.0053824
-0.0053403
-0.00529808
-0.00525576
-0.00521332
-0.00517078
-0.00512813
-0.00508537
-0.00504252
-0.00499956
-0.00495651
-0.00491337
-0.00487013
-0.00482679
-0.00478336
-0.00473985
-0.00469623
-0.00465254
-0.00460875
-0.00456487
-0.00452091
-0.00447686
-0.00443273
-0.00438852
-0.00434424
-0.00429988
-0.00425544
-0.00421093
-0.00416634
-0.00412169
-0.00407696
-0.00403217
-0.00398731
-0.00394238
-0.00389739
-0.00385233
-0.00380722
-0.00376204
-0.00371682
-0.00367153
-0.0036262
-0.00358081
-0.00353538
-0.00348989
-0.00344435
-0.00339877
-0.00335315
-0.00330748
-0.00326177
-0.00321602
-0.00317023
-0.0031244
-0.00307854
-0.00303265
-0.00298672
-0.00294075
-0.00289476
-0.00284873
-0.00280267
-0.00275658
-0.00271046
-0.00266432
-0.00261815
-0.00257197
-0.00252576
-0.00247953
-0.00243328
-0.00238701
-0.00234072
-0.00229442
-0.0022481
-0.00220176
-0.00215541
-0.00210904
-0.00206266
-0.00201626
-0.00196986
-0.00192344
-0.00187702
-0.00183059
-0.00178416
-0.00173772
-0.00169128
-0.00164483
-0.00159839
-0.00155195
-0.00150551
-0.00145908
-0.00141264
-0.00136621
-0.00131979
-0.00127336
-0.00122695
-0.00118053
-0.00113412
-0.00108772
-0.00104132
-0.000994932
-0.000948554
-0.000902185
-0.000855829
-0.000809484
-0.000763154
-0.000716837
-0.000670535
-0.000624247
-0.000577975
-0.000531719
-0.000485479
-0.000439255
-0.00039305
-0.000346862
-0.000300693
-0.000254543
-0.000208413
-0.000162305
-0.000116219
-7.01559e-05
-2.41175e-05
2.1896e-05
6.78818e-05
0.00011384
0.000159769
0.000205669
0.000251539
0.000297376
0.000343181
0.000388953
0.000434693
0.000480398
0.000526066
0.000571697
0.000617288
0.00066284
0.000708352
0.000753825
0.000799257
0.000844649
0.00089
0.000935311
0.000980581
0.00102581
0.001071
0.00111615
0.00116125
0.00120631
0.00125133
0.0012963
0.00134122
0.00138609
0.00143092
0.0014757
0.00152042
0.0015651
0.00160973
0.00165431
0.00169884
0.00174332
0.00178776
0.00183214
0.00187648
0.00192076
0.001965
0.00200918
0.00205332
0.0020974
0.00214143
0.00218541
0.00222934
0.00227322
0.00231704
0.00236081
0.00240452
0.00244818
0.00249178
0.00253532
0.00257881
0.00262224
0.00266561
0.00270892
0.00275216
0.00279535
0.00283847
0.00288152
0.00292452
0.00296745
0.00301031
0.00305311
0.00309585
0.00313852
0.00318114
0.00322368
0.00326617
0.00330859
0.00335094
0.00339324
0.00343546
0.00347763
0.00351973
0.00356176
0.00360373
0.00364563
0.00368746
0.00372922
0.00377092
0.00381254
0.0038541
0.00389558
0.00393699
0.00397833
0.0040196
0.00406079
0.00410192
0.00414297
0.00418395
0.00422486
0.0042657
0.00430647
0.00434716
0.00438778
0.00442833
0.0044688
0.0045092
0.00454952
0.00458977
0.00462995
0.00467006
0.00471009
0.00475005
0.00478993
0.00482974
0.00486948
0.00490914
0.00494872
0.00498823
0.00502765
0.00506701
0.00510628
0.00514548
0.0051846
0.00522364
0.0052626
0.00530149
0.0053403
0.00537903
0.00541769
0.00545626
0.00549475
0.00553317
0.0055715
0.00560976
0.00564794
0.00568603
0.00572405
0.00576199
0.00579985
0.00583763
0.00587533
0.00591295
0.00595049
0.00598796
0.00602534
0.00606265
0.00609987
0.00613702
0.00617408
0.00621107
0.00624797
0.00628479
0.00632153
0.00635819
0.00639477
0.00643126
0.00646768
0.00650402
0.00654027
0.00657644
0.00661254
0.00664855
0.00668447
0.00672032
0.00675609
0.00679177
0.00682737
0.0068629
0.00689834
0.00693369
0.00696897
0.00700416
0.00703928
0.00707431
0.00710925
0.00714411
0.00717889
0.00721358
0.00724819
0.00728271
0.00731715
0.00735151
0.00738578
0.00741997
0.00745407
0.00748808
0.00752202
0.00755587
0.00758963
0.00762331
0.0076569
0.00769041
0.00772384
0.00775719
0.00779044
0.00782362
0.00785672
0.00788973
0.00792265
0.0079555
0.00798826
0.00802094
0.00805353
0.00808604
0.00811848
0.00815082
0.00818309
0.00821527
0.00824737
0.00827939
0.00831132
0.00834317
0.00837494
0.00840662
0.00843822
0.00846974
0.00850117
0.00853252
0.00856379
0.00859497
0.00862607
0.00865709
0.00868803
0.00871888
0.00874965
0.00878034
0.00881094
0.00884147
0.00887191
0.00890227
0.00893255
0.00896275
0.00899286
0.0090229
0.00905285
0.00908272
0.00911251
0.00914222
0.00917185
0.0092014
0.00923086
0.00926025
0.00928956
0.00931878
0.00934792
0.00937698
0.00940596
0.00943486
0.00946368
0.00949241
0.00952106
0.00954963
0.00957812
0.00960653
0.00963486
0.00966311
0.00969128
0.00971937
0.00974738
0.0097753
0.00980315
0.00983092
0.00985861
0.00988622
0.00991376
0.00994121
0.00996858
0.00999588
0.0100231
0.0100502
0.0100773
0.0101043
0.0101312
0.010158
0.0101847
0.0102114
0.010238
0.0102645
0.0102909
0.0103173
0.0103436
0.0103697
0.0103959
0.0104219
0.0104479
0.0104737
0.0104995
0.0105253
0.0105509
0.0105765
0.010602
0.0106274
0.0106527
0.010678
0.0107032
0.0107283
0.0107533
0.0107783
0.0108032
0.010828
0.0108527
0.0108773
0.0109019
0.0109264
0.0109508
0.0109752
0.0109995
0.0110237
0.0110478
0.0110718
0.0110958
0.0111197
0.0111435
0.0111673
0.011191
0.0112146
0.0112381
0.0112616
0.0112849
0.0113082
0.0113315
0.0113546
0.0113777
0.0114008
0.0114237
0.0114466
0.0114694
0.0114921
0.0115148
0.0115374
0.0115599
0.0115823
0.0116047
0.011627
0.0116492
0.0116714
0.0116935
0.0117155
0.0117374
0.0117593
0.0117811
0.0118029
0.0118245
0.0118461
0.0118677
0.0118891
0.0119105
0.0119318
0.0119531
0.0119743
0.0119954
0.0120164
0.0120374
0.0120583
0.0120791
0.0120999
0.0121206
0.0121413
0.0121618
0.0121823
0.0122028
0.0122232
0.0122435
0.0122637
0.0122839
0.012304
0.012324
0.012344
0.0123639
0.0123837
0.0124035
0.0124232
0.0124429
0.0124625
0.012482
0.0125014
0.0125208
0.0125401
0.0125594
0.0125786
0.0125977
0.0126168
0.0126358
0.0126547
0.0126736
0.0126924
0.0127112
0.0127299
0.0127485
0.0127671
0.0127856
0.012804
0.0128224
0.0128407
0.012859
0.0128772
0.0128953
0.0129134
0.0129314
0.0129493
0.0129672
0.012985
0.0130028
0.0130205
0.0130382
0.0130558
0.0130733
0.0130908
0.0131082
0.0131255
0.0131428
0.01316
0.0131772
0.0131943
0.0132114
0.0132284
0.0132453
0.0132622
0.013279
0.0132958
0.0133125
0.0133292
0.0133458
0.0133623
0.0133788
0.0133952
0.0134116
0.0134279
0.0134441
0.0134603
0.0134765
0.0134926
0.0135086
0.0135246
0.0135405
0.0135564
0.0135722
0.0135879
0.0136036
0.0136193
0.0136349
0.0136504
0.0136659
0.0136813
0.0136967
0.013712
0.0137273
0.0137425
0.0137576
0.0137727
0.0137878
0.0138028
0.0138178
0.0138326
0.0138475
0.0138623
0.013877
0.0138917
0.0139063
0.0139209
0.0139355
0.0139499
0.0139644
0.0139787
0.0139931
0.0140074
0.0140216
0.0140358
0.0140499
0.014064
0.014078
0.014092
0.0141059
0.0141198
0.0141336
0.0141474
0.0141611
0.0141748
0.0141884
0.014202
0.0142155
0.014229
0.0142424
0.0142558
0.0142692
0.0142825
0.0142957
0.0143089
0.0143221
0.0143352
0.0143482
0.0143612
0.0143742
0.0143871
0.0144
0.0144128
0.0144256
0.0144384
0.014451
0.0144637
0.0144763
0.0144888
0.0145014
0.0145138
0.0145262
0.0145386
0.0145509
0.0145632
0.0145755
0.0145877
0.0145998
0.0146119
0.014624
0.014636
0.014648
0.0146599
0.0146718
0.0146837
0.0146955
0.0147072
0.014719
0.0147307
0.0147423
0.0147539
0.0147654
0.0147769
0.0147884
0.0147998
0.0148112
0.0148226
0.0148339
0.0148451
0.0148564
0.0148675
0.0148787
0.0148898
0.0149008
0.0149119
0.0149228
0.0149338
0.0149447
0.0149555
0.0149663
0.0149771
0.0149879
0.0149986
0.0150092
0.0150198
0.0150304
0.015041
0.0150515
0.015062
0.0150724
0.0150828
0.0150931
0.0151034
0.0151137
0.015124
0.0151342
0.0151443
0.0151545
0.0151646
0.0151746
0.0151846
0.0151946
0.0152046
0.0152145
0.0152243
0.0152342
0.015244
0.0152537
0.0152635
0.0152732
0.0152828
0.0152924
0.015302
0.0153116
0.0153211
0
0

